encog,BasicNetwork,java,3.4.0,1,1750017212055
[BASIC]
[BASIC:PARAMS]
[BASIC:NETWORK]
beginTraining=0
connectionLimit=0
contextTargetOffset=0,0,0
contextTargetSize=0,0,0
endTraining=2
hasContext=f
inputCount=150
layerCounts=1,31,151
layerFeedCounts=1,30,150
layerContextCount=0,0,0
layerIndex=0,1,32
output=0,0,0,0,0,0,0,0,0,0,0,0,0,0,0,0,0,0,0,0,0,0,0,0,0,0,0,0,0,0,0,1,0,0,0,0,0,0,0,0,0,0,0,0,0,0,0,0,0,0,0,0,0,0,0,0,0,0,0,0,0,0,0,0,0,0,0,0,0,0,0,0,0,0,0,0,0,0,0,0,0,0,0,0,0,0,0,0,0,0,0,0,0,0,0,0,0,0,0,0,0,0,0,0,0,0,0,0,0,0,0,0,0,0,0,0,0,0,0,0,0,0,0,0,0,0,0,0,0,0,0,0,0,0,0,0,0,0,0,0,0,0,0,0,0,0,0,0,0,0,0,0,0,0,0,0,0,0,0,0,0,0,0,0,0,0,0,0,0,0,0,0,0,0,0,0,0,0,0,0,0,0,1
outputCount=1
weightIndex=0,31,4561
weights=##0
##double#4561
   0.1502224408,0.0491632397,-0.2599804946,-0.0592520365,0.2673396427,-0.1317645823,-0.2400300662,0.004750221,0.3289333694,0.1403158548,0.3032801688,0.235458617,0.0557559231,-0.1396633995,-0.2667673029,-0.3328519741,0.1279972006,-0.2888632162,0.2196762885,-0.1528377289,0.0448929297,-0.2003896049,-0.1727176291,0.2346862183,-0.1365848448,-0.321726846,0.0368806424,-0.262554191,-0.2499719215,0.2464513411,-0.0127428367,0.5436466517,0.1423581693,0.1317270138,0.1488375238,0.0751172191,0.5151818692,0.0294630882,0.2708345164,0.6900259246,0.6675878112,0.6508898281,0.5504358609,0.3585608844,0.134516932,0.2728939494,0.3386591403,0.1917961162,0.6916029143,0.3933790872,0.6653588336,0.7065149015,0.1659449964,0.6872512098,0.5434287543,0.1395502643,0.1959865622,0.3517841328,0.5942024974,0.6318054163,0.0587596792,0.5232952212,0.5602981434,0.523747505,0.6895648025,0.5867734129,0.2151774751,0.1893404127,0.5029076431,0.3104065791,0.3284270753,0.3341302092,0.6238415126,0.016019222,0.0302267971,0.013588232,0.0048799925,0.2614063824,0.114952725,0.6101944243,0.6403135325,0.4255481971,0.5667710316,0.0397203745,0.5287928206,0.0470164325,0.3903860488,0.5326488361,0.2976523703,0.0519597024,0.5506354399,0.1308173523,0.1195886252,0.5708805202,0.5891024671,0.1335351148,0.0744904588,0.0269609979,0.31123959,0.6945287431,0.2645117033,0.2430906125,0.1733664687,0.1827984988,0.4033094101,0.5315288141,0.0236473499,0.4804194988,0.2527585846,0.1805740745,0.4374338933,0.4880311319,0.2567399925,0.2798897875,0.4996443564,0.124326151,0.354387889,0.4325690353,0.3618148439,0.5660376378,0.338042673,0.2810688512,0.6078824471,0.112605838,0.3545739726,0.4435621326,0.3372579127,0.3682974835,0.0395489193,0.1916090718,0.2916843073,0.2281952007,0.2061842131,0.0950436336,0.5846320876,0.3478158565,0.4873179366,0.5176545244,0.3123724244,0.0040978206,0.5611995783,0.462259927,0.1637062689,0.5552269082,0.4689146916,0.6141461986,0.2266370883,0.3988692115,0.0876864,0.0762847111,0.0252512913,0.395238307,0.1702664864,0.0549128982,0.2693579234,0.2283743086,0.4466750374,0.0964044186,0.0721650279,0.04162084,0.0360837114,0.6130235725,0.48177686,0.0143436424,0.2275106733,0.6757806445,0.0504728988,0.3638960781,0.1253332384,0.6300856406,0.6864945426,0.1256132164,0.4781404521,0.1531947769,0.2758419478,0.2936724548,0.1816474278,0.0407072856,0.2919656354,0.6122301449,0.6865926497,0.0714180192,0.1022436911,0.1694034299,0.4415554305,0.2069691355,0.1938909657,0.6585210509,0.3981331928,0.268335235,0.5286697644,0.3717043395,0.5906719517,0.3743870017,0.5743700459,0.1652826466,0.1959971163,0.6475740155,0.3299544332,0.3727674338,0.1558918943,0.4748437208,0.5729472404,0.3116842658,0.5049853086,0.4341041702,0.4899005098,0.6874310539,0.1755132627,0.3304547306,0.0910736776,0.6233204411,0.2388399726,0.1813816519,0.2001202632,0.676605911,0.31792815,0.336538372,0.0790175224,0.204951623,0.4201711894,0.2913073753,0.4137433719,0.5265108747,0.5000101446,0.3082433106,0.0467536943,0.4420632041,0.0773237411,0.5144603989,0.5079209447,0.319307426,0.2787944266,0.4370137901,0.2643211699,0.0136331412,0.5294647191,0.324189293,0.4520508105,0.6132904258,0.7069103601,0.2600946413,0.4800029887,0.2247907833,0.6484264717,0.2750258338,0.0677058517,0.4370020465,0.5198232345,0.4554520011,0.07362319,0.1972893552,0.0822644605,0.5070311951,0.45232555,0.0819108968,0.2949109781,0.3485900708,0.012848978,0.0435573326,0.6611229212,0.5221642992,0.565309112,0.6930267577,0.528811006,0.4726317274,0.7029964898,0.0139990064,0.0850863891,0.2305809804,0.6964579293,0.407967849,0.2664984028,0.3777701244,0.148898163,0.0938470776,0.2964186908,0.5280572155,0.2172398001,0.280088434,0.1832968007,0.6487102063,0.6064679752,0.1569333225,0.3253442615,0.3548477592,0.1422387906,0.4721890352,0.0041103912,0.2842782551,0.2206484264,0.2874722664,0.700014653,0.477197356,0.2217724985,0.4967453093,0.5759219247,0.2573387255,0.2127428542,0.3449924548,0.6569839452,0.6635068657,0.1893221789,0.347174952,0.5766988406,0.6151773043,0.60722832,0.5558854152,0.2769603744,0.5317890987,0.1131519963,0.6626969339,0.088904908,0.441315767,0.0988170057,0.4179215189,0.0052087337,0.2175086684,0.2576127922,0.246919165,0.4705173048,0.1711936147,0.5245408173,0.2952660973,0.0939272578,0.5216146067,0.6565810735,0.1794357817,0.0976344375,0.0325984127,0.4200196583,0.3579438379,-0.5110484937,0.2788368985,0.5019572306,0.2682879294,0.3862389521,0.2914392224,0.0894301262,0.6521674249,0.6493567235,0.4467999621,0.4893538082,0.3240302774,0.4921876732,0.1180470662,0.4902877872,0.4427481708,0.1742711701,0.6575729459,0.0002379171,0.4884233714,0.3325246781,0.2711105972,0.6353131093,0.014834391,0.5596185456,0.634440542,0.186880908,0.2176633639,0.0746295565,0.1539510653,0.2407692139,0.2727434969,0.5925015675,0.4954713257,0.2651760357,0.5933948735,0.1651413957,0.6012927979,0.6299249575,0.4710442472,0.2077158396,0.6570717869,0.2353453108,0.6704139718,0.3728356474,0.4470217329,0.0724832645,0.2662407118,0.3669549709,0.4342195879,0.3876738182,0.1758401593,0.1073260572,0.0892825581,0.2641824179,0.2510583092,0.6865710954,0.6647406864,0.1195293229,0.6345226785,0.4885753082,0.5236822759,0.4629345085,0.3604383721,0.2615637432,0.5839965336,0.23789131,0.3215335928,0.6820819385,0.080888984,0.2440048334,0.1892818192,0.5264843396,0.6298386966,0.6652828722,0.5514710694,0.644135665,0.5407431288,0.3316141538,0.4205650354,0.6358549125,0.3697166324,0.5054094661,0.186303304,0.0859217521,0.4192007673,0.1251528542,0.0966155564,0.087442965,0.3717515777,0.1034993634,0.3426031535,0.2681154915,0.5643516963,0.1259175575,0.3498550522,0.4225268303,0.338197771,0.1003199824,0.2854003943,0.2375990124,0.0509806278,0.0321824385,0.3728923591,0.706479324,0.0782552004,0.4063711709,0.4719226157,0.1742874277,0.0273781703,0.5253351765,0.433556111,0.1549952948,0.2545680351,0.6627245528,0.1645148642,0.1325705782,0.0849494748,0.1516718608,0.2627587675,0.6250911021,0.4994443857,0.6459006029,0.4979894215,0.0376610962,0.0933631929,0.2523959188,0.1886925359,0.4621353471,0.3928789105,0.5209552588,0.2557764584,0.1326993902,0.5064062718,0.18072829,0.6269611805,0.2405643148,0.2211348195,0.6236213158,0.1679599159,0.0225265836,0.0662093683,0.4595548346,0.2894162091,0.5680953155,0.1184353407,0.5059662976,0.4278336159,0.5331631441,0.2881254987,0.2028700555,-0.665301371,0.6025751388,0.0995059697,0.1307101345,0.1796743844,0.0713397028,0.1133930619,0.4280947781,0.3586577656,0.0416009249,0.1204308445,0.2772516163,0.0662274,0.6334116276,0.2379444566,0.0227077637,0.258175084,0.416451824,0.1685176863,0.4741657674,0.0219632506,0.6523114919,0.6033049877,0.0886757577,0.1194347906,0.4346707738,0.4707703514,0.4220234709,0.6190585619,0.5225010727,0.566728902,0.3984284496,0.2521612991,0.1960360268,0.20731242,0.3505462505,0.287346108,0.0304159936,0.436051439,0.6617003038,0.4925937394,0.3225084027,0.638870144,0.25551665,0.5734937527,0.1549333206,0.1040128763,0.0683867732,0.4895996483,0.54342159,0.2359175835,0.4972017476,0.1708682001,0.6120845666,0.1942114054,0.0113473388,0.6788655019,0.5574558985,0.2520091287,0.0292642306,0.2295180631,0.3326730076,0.6963053579,0.1219495561,0.6654298963,0.6581396107,0.5450319643,0.6022962662,0.4981373224,0.303820199,0.3815432557,0.3719771364,0.62889072,0.7000161938,0.6759555463,0.0932402528,0.6894956106,0.3294056748,0.5433761089,0.5099917783,0.2881763512,0.3996291416,0.6632258552,0.5494656266,0.4022664291,0.6866017275,0.3948909868,0.1682712312,0.1836963194,0.2954592019,0.4992746221,0.0667239431,0.6847744123,0.3355632894,0.2984299919,0.094452294,0.0859357308,0.5305051156,0.179843123,0.4707635541,0.1094159071,0.4071703361,0.1496183725,0.2261920781,0.5683645393,0.3063394421,0.2354630469,0.1205883394,0.3967157696,0.3899165593,0.0085424042,0.012372776,0.6703739103,0.2423764515,0.1005462678,0.4815542274,0.4716853704,0.6483365467,0.1477428895,0.4142977111,0.4607026689,0.3701134129,0.1545234789,0.2079113532,0.6781343555,0.5590694552,0.210348157,0.6407528578,0.1989953145,0.5858668943,0.5487891489,0.7116584554,0.5309374961,0.4315819104,0.1515297027,0.0369592901,0.192228297,0.385117175,0.6020605345,0.6572380026,0.5041234935,0.5150526189,0.4725090385,0.3520811659,0.0763336938,0.3022475957,0.7139269957,0.2540750946,0.7120995134,0.3090946515,0.1445050237,-0.3258722411,0.0357157745,0.5355991059,0.2502054085,0.3287725052,0.0994473958,0.2299065069,0.2834285648,0.2840877213,0.2679336277,0.229145026,0.4484288944,0.225082958,0.0478973088,0.0108239528,0.2069084553,0.3070313458,0.570736336,0.5641567321,0.6366781306,0.0028268117,0.0645648748,0.2662655455,0.2829637028,0.1951914366,0.4031792843,0.33066891,0.392945528,0.4733376485,0.5911289012,0.1710383493,0.4997590856,0.4282582557,0.5902217107,0.2512408825,0.3732869634,0.5981203169,0.5221121744,0.1256801855,0.2917729156,0.3001097081,0.4144150243,0.6422032231,0.3386055026,0.0270062624,0.34250618,0.3815666396,0.0965297838,0.5145424601,0.4911986306,0.4325895301,0.6311453966,0.0347973376,0.4927597726,0.1631763411,0.6044870062,0.5237443464,0.433007835,0.2447347856,0.2558814728,0.3036133996,0.1521421265,0.2144445727,0.3396931509,0.7122193867,0.3785122571,0.3453836703,0.0523140944,0.5154618017,0.5938827529,0.1864279114,0.2218851584,0.5611010487,0.4183933117,0.1789134787,0.2370154916,0.004596036,0.4315108495,0.0561639822,0.0691544391,0.1338870382,0.3281114798,0.6481865302,0.0557825288,0.51809713,0.3784558761,0.4410599569,0.1313841746,0.197498468,0.3143188765,0.6587162381,0.5665558521,0.5106544077,0.5201248754,0.0776584684,0.6256044549,0.3470576633,0.1108558437,0.6657819863,0.1744305165,0.2240808888,0.0078723112,0.2628731471,0.5404102082,0.000905737,0.6994976013,0.0914218656,0.6445488972,0.17103976,0.5778260235,0.1351878674,0.3861924756,0.312440967,0.2819914534,0.3163574602,0.1255932104,0.5763122464,0.3428216378,0.2519865086,0.0550868351,0.1637816522,0.394605326,0.232152761,0.6121793012,0.3794449173,0.5644496863,0.133164458,0.5582579696,0.5007025082,0.2922537022,0.436046259,0.0361819612,0.3141528429,0.5915086412,0.1656845624,0.0706029322,0.4705285621,0.6947224958,0.077552026,0.2565125103,0.5585519127,0.4256967362,0.7004897806,0.2663531316,0.2640010946,0.5737429624,0.5160456888,0.0971720091,0.403365922,0.3860550072,0.2406765333,-0.3290221084,0.1711576782,0.1152435165,0.5534643295,0.4389232247,0.0545933052,0.0840824566,0.3254240668,0.5202450502,0.5217504179,0.7124423614,0.2615218613,0.2755521653,0.2310551291,0.1027606813,0.2919653169,0.0627176258,0.111931579,0.5825862638,0.0804207173,0.230235312,0.1097106097,0.3363567398,0.1723357508,0.6084712625,0.4802251989,0.2335410589,0.4076122507,0.5382052831,0.2825756884,0.6623089015,0.1083913541,0.1701338345,0.5175033557,0.4718018672,0.154422302,0.0903815924,0.4684077756,0.4205560495,0.5443906025,0.51620069,0.1201926482,0.0076906176,0.3878090879,0.0630646748,0.621248897,0.2170901744,0.0321010081,0.0949707225,0.3337532803,0.5173404276,0.3481633715,0.1422102373,0.4631011243,0.5479745405,0.3117136673,0.2102562638,0.5765389116,0.5870105732,0.2084210103,0.104917382,0.6913481291,0.2801368912,0.0851513517,0.0802523243,0.3663254045,0.133257887,0.5786014817,0.303251052,0.5486920537,0.0767671061,0.3911286592,0.4281395446,0.5528546051,0.3848317772,0.1901324695,0.5155369146,0.2305893901,0.2637589779,0.5459315756,0.6835244596,0.2779926978,0.5997908315,0.3424803889,0.0347257113,0.6281901764,0.5790381847,0.4750920047,0.2296799258,0.3549114467,0.6426037448,0.5478288437,0.4039132376,0.5425359111,0.3489493608,0.6554466383,0.2756178933,0.0149641127,0.5565920143,0.5280577549,0.6346327687,0.338247508,0.341511107,0.4065054902,0.2123512499,0.1859608085,0.3815662414,0.3319450348,0.3996661247,0.2382436174,0.0630314033,0.3635583934,0.3051184454,0.4608676498,0.33830987,0.1019928904,0.1699948271,0.1305240255,0.5639745394,0.2229742056,0.0326088839,0.3406950295,0.0503656014,0.2239774264,0.4518945348,0.3170123165,0.5572647966,0.4484269997,0.6634839566,0.4308024668,0.0735583895,0.0868017224,0.4772312757,0.4207843371,0.1915990994,0.1701652839,0.6252993654,0.0568483095,0.4165561353,0.4988321921,0.0184824739,0.25197192,0.5125878236,0.4115167891,0.1981241661,0.1841157205,0.6112529134,0.0384940007,0.4816024816,0.5948402257,0.2915709455,-0.3749188302,0.2956055062,0.0551937208,0.2254651699,0.3879942401,0.5725993222,0.5264455839,0.1604566886,0.151167508,0.2609662818,0.6133219555,0.5024420283,0.035046185,0.1808653317,0.5580115923,0.263254345,0.551654926,0.6217580904,0.6511747464,0.1581597859,0.2881603493,0.3427141785,0.0764309432,0.7098221272,0.6862391991,0.4269411007,0.1536616606,0.6060001221,0.432215589,0.2122104891,0.6202926728,0.1396956153,0.1610037304,0.6190928006,0.1017662043,0.1331377839,0.3180984825,0.0719891915,0.3231253889,0.6731286645,0.6737767797,0.617293755,0.0832076445,0.0659015249,0.0941351029,0.2292758629,0.3565340897,0.7146755335,0.0826637377,0.4182524601,0.2008310131,0.0923194743,0.2555603333,0.4761909034,0.6867928049,0.5223360272,0.3973319729,0.1617107629,0.7075214122,0.5345037101,0.2009111439,0.6498428778,0.316337302,0.3824430106,0.3400779433,0.2479362839,0.1455471968,0.0291588511,0.6582740296,0.6893286249,0.2013626622,0.5828143985,0.1738409589,0.4284116116,0.1076204079,0.4480923775,0.4300844825,0.0156624629,0.1202852619,0.5961545969,0.4786455454,0.5646617184,0.5905131422,0.6370293975,0.5634554274,0.5080092993,0.2386653127,0.4800649488,0.4718520409,0.1195922188,0.0966874054,0.0077952081,0.1119784954,0.1208142263,0.3276167072,0.0483157917,0.3126442215,0.1400211625,0.6248722604,0.5118201481,0.096498295,0.470401998,0.3236815849,0.6033032345,0.5069917769,0.1315932969,0.3787527386,0.4253677484,0.1920764065,0.0358478117,0.2478844221,0.6496864693,0.1961069503,0.4151808175,0.0567816085,0.2291785163,0.6479938383,0.2417851367,0.2865072643,0.3638557594,0.0591079565,0.4443595586,0.2590122119,0.1567922383,0.5776957886,0.4910433727,0.4592883501,0.2580622581,0.2675078928,0.2914769061,0.2276483855,0.5998432405,0.4751988056,0.035460031,0.1227087618,0.5098626078,0.3689357031,0.5565174157,0.5694921462,0.2681221951,0.0381789376,0.6137941112,0.3613108252,0.353799273,0.0210258327,0.3270385176,0.2434519081,0.5368605169,0.4497112271,0.0999922308,0.1580059015,-0.1207569628,0.7135783864,0.432856354,0.3482103301,0.4345784632,0.6157225961,0.1215851644,0.117882558,0.2413995986,0.2504373941,0.5119389429,0.004648816,0.549381429,0.6152152936,0.3714233423,0.5693093625,0.0587394666,0.3652949971,0.7071066572,0.21029653,0.1275396586,0.3896194328,0.2121312762,0.5397439646,0.6320204313,0.6447010121,0.1992897433,0.0410916297,0.0492583293,0.1246604034,0.0071573621,0.2987308981,0.0607790487,0.5117119578,0.2569384115,0.0353017302,0.710276392,0.300138316,0.4931852236,0.4917822097,0.1844000101,0.4936402271,0.0716884742,0.570183382,0.5628145004,0.6465740804,0.535771176,0.0253683902,0.4344958655,0.0507819365,0.1414935596,0.1365819508,0.5217788459,0.6381695984,0.4521650189,0.3128128317,0.5415717776,0.5473006679,0.3803554417,0.2864567732,0.442437565,0.0237265407,0.6778629265,0.3502925245,0.7160372291,0.5535424859,0.5055960554,0.4888163207,0.5731244296,0.3172943394,0.5798806672,0.1698180675,0.6633022187,0.2810432081,0.4473634469,0.0773785488,0.5748498558,0.0892313918,0.6531970977,0.2133285835,0.6327158543,0.5901190085,0.0297452718,0.020961202,0.0982057651,0.164710742,0.6321313931,0.4856479188,0.6325265935,0.6498644127,0.6186567263,0.5509111981,0.0010787867,0.1747114744,0.1733111726,0.1489636153,0.0617138157,0.5459834808,0.4984648107,0.0834570816,0.465571965,0.5163879111,0.3463380261,0.2973073014,0.7048629462,0.3826934489,0.3167819817,0.4058632915,0.3660981326,0.1398324229,0.3907402277,0.5231418717,0.5993377235,0.379344031,0.6742823455,0.1909517621,0.1685351262,0.0817961396,0.0467280786,0.2254852274,0.2223434506,0.1860071757,0.1067837519,0.4544252521,0.5324708655,0.3340027639,0.2314111752,0.5614013824,0.4606404095,0.1004493525,0.5802629023,0.5918615895,0.2969548031,0.2580874059,0.5784523356,0.6760697183,0.0842090425,0.4572705035,0.454701323,0.26783304,0.3322796956,0.0647779962,0.569488718,0.4802959694,0.3461141025,0.4068605741,0.4045507464,0.1834535957,0.6227399367,0.2865275889,0.1753503915,-0.3959799492,0.232749293,0.4342464056,0.314607153,0.6713838174,0.4005857604,0.1538133027,0.1593498796,0.4556869402,0.6148208265,0.4996686345,0.4466852373,0.2859832754,0.3669834807,0.4148307167,0.2025302429,0.6560867782,0.4578143667,0.0767272183,0.356454578,0.545502971,0.5059676086,0.5712945934,0.4422080011,0.0577263166,0.2890313365,0.532782956,0.3970388796,0.226081332,0.541244548,0.7116899975,0.3051256791,0.3706158404,0.4563628181,0.2847149212,0.2286334659,0.0107730402,0.4011764279,0.6510511447,0.0517503943,0.057804817,0.0106174037,0.3551279698,0.1913944471,0.3240756807,0.3187339436,0.1254457895,0.6788674304,0.1595592752,0.2302051118,0.305144389,0.5340159214,0.3257877754,0.528305277,0.1642924216,0.2585696282,0.5208562284,0.0226635063,0.0070659555,0.3868486828,0.1789126675,0.1161272119,0.2159300319,0.3915020153,0.6324822235,0.2341473766,0.6181631173,0.0191398658,0.4954213141,0.3632902706,0.2074372571,0.3651499048,0.2607486379,0.3680289057,0.4169648884,0.3348508604,0.6134862049,0.077598298,0.5002348656,0.0548181477,0.0973739904,0.6929058334,0.6626338177,0.6739084094,0.0189128455,0.311874267,0.2015754811,0.5298626811,0.3837421672,0.3200138815,0.578848288,0.3677585445,0.2284782916,0.387722365,0.4575504784,0.4709905036,0.5288507058,0.4417471939,0.521145389,0.5444896416,0.4775088276,0.3359096639,0.6337223125,0.5311344466,0.4124224895,0.6527662264,0.5248503596,0.2077236459,0.0050235359,0.6529672053,0.0272660308,0.296575529,0.2082301209,0.371575688,0.0353528988,0.3489489907,0.6049633698,0.3235588664,0.6166559244,0.2717529581,0.0916988744,0.2628604184,0.1432155514,0.317515326,0.6466755184,0.0999287479,0.3414782853,0.0677235358,0.1922556922,0.0897254146,0.649598613,0.5501981452,0.7111018123,0.571424794,0.0849188725,0.5497070359,0.0060413183,0.2825955489,0.4787281038,0.0505452222,0.1459511645,0.1101693304,0.5041888091,0.6630712368,0.0589245821,0.621581347,0.6705612341,0.0682023731,0.6624331856,0.2133219092,0.0479294601,-0.4771427524,0.1922155308,0.1691858923,0.2189258666,0.3531194584,0.1073824994,0.2958536354,0.6915111088,0.2155203788,0.308465594,0.7103140111,0.0128632221,0.1657984299,0.5313427526,0.1322803979,0.4022793117,0.4409331691,0.2079754036,0.7079609584,0.5421565211,0.3078145662,0.4573628276,0.5513464043,0.1051774243,0.5369343402,0.1082667678,0.1258821542,0.7021606087,0.0190150438,0.7056962608,0.321048907,0.6123849455,0.337156444,0.6918680013,0.6523467629,0.4070363907,0.5715028297,0.2864247791,0.127400951,0.2947820567,0.6718938892,0.3468149984,0.2734111735,0.2796513581,0.4740235901,0.3776198258,0.5528281704,0.0708138174,0.2191275242,0.1449830124,0.251114647,0.5482752624,0.1450296052,0.3129833629,0.5015920534,0.0762870995,0.6973744836,0.2356138675,0.6591766804,0.4608206342,0.3801146154,0.1313138775,0.712000381,0.1654334022,0.2098746844,0.5473279899,0.4862594097,0.2105705586,0.3868208046,0.6460757022,0.5326767484,0.0191617654,0.4553399693,0.3524885554,0.4886855119,0.7058137284,0.5532888056,0.2705480681,0.6624739235,0.7083088661,0.3923413979,0.2352593453,0.6137187719,0.2023853202,0.0217748419,0.3922343776,0.0247107285,0.6820212867,0.4177401796,0.6421253482,0.3801910156,0.5203643924,0.3655446159,0.3125305821,0.5276356614,0.6928575996,0.4501233222,0.17978911,0.3440033576,0.3792285977,0.0963460998,0.4029786225,0.1103584676,0.3362066499,0.3970453617,0.5412564546,0.0024314726,0.6153549991,0.5512973457,0.56302431,0.2571643931,0.5248791168,0.5339582564,0.3079237244,0.2875653793,0.5279876755,0.0665724801,0.1237107977,0.5367478805,0.3757445321,0.0297170569,0.6078626811,0.4073747506,0.5880279363,0.230670023,0.0202851499,0.5686674419,0.0508992632,0.5602668082,0.3941236762,0.4639749077,0.1727631414,0.2080603205,0.2169412857,0.2305931329,0.0123452826,0.6685438822,0.6102868661,0.3682278653,0.0278775477,0.6975046247,0.0335938595,0.5956333921,0.1861131052,0.1004501629,0.4334297605,0.6031840169,0.251105438,0.0168133273,0.6747217061,0.2394933233,-0.1737858566,0.0253566663,0.3817446548,0.4143314903,0.6758448173,0.5096596059,0.4469056537,0.1497392933,0.1177851475,0.6926537807,0.1845720383,0.5482473694,0.2025919346,0.12583937,0.4052690061,0.4719993288,0.0560328113,0.0803421895,0.0710498835,0.5279241985,0.6537640432,0.6163256157,0.4427632633,0.4616098004,0.0442512186,0.3512042807,0.3930449946,0.0458983382,0.1554830687,0.2868978655,0.242560868,0.420835025,0.1925532561,0.1343943587,0.4063975998,0.3140368619,0.6464122628,0.2982400721,0.173328344,0.1905547172,0.1444297565,0.1936948626,0.647370147,0.3511364567,0.2928763275,0.645617849,0.1300352352,0.022736986,0.5899969013,0.5590664867,0.235750249,0.2435869777,0.2669677235,0.2332579538,0.0393890043,0.1093167935,0.4844191419,0.0461006025,0.4118800456,0.4964252182,0.3096777007,0.0601988867,0.5556707539,0.2891716213,0.063623985,0.0148741379,0.7000909609,0.1501196903,0.0649326854,0.16259342,0.1203752794,0.5351869549,0.549746757,0.5759787648,0.0993332666,0.3524176805,0.6386514628,0.3408349573,0.6950957155,0.1474913264,0.5146574537,0.0420959326,0.2662238465,0.5923755175,0.1793039465,0.5195457133,0.6300683409,0.5239817228,0.0859643183,0.0636707874,0.0905422696,0.4659994296,0.4895343364,0.2539372532,0.0125458515,0.4246968681,0.3803220238,0.2737486604,0.0281367338,0.4965350213,0.1257238308,0.447304723,0.547587509,0.6643633347,0.5900455711,0.6506907095,0.6969420844,0.7110762274,0.5549078821,0.2131087607,0.2248456837,0.3674576673,0.2848633482,0.075259317,0.5213483987,0.0075038241,0.2128126612,0.4969471633,0.0094623346,0.1631529666,0.2739595463,0.4065636162,0.6977663302,0.0412793103,0.6692732537,0.5468161901,0.6094341343,0.1112391749,0.3289039478,0.6016741314,0.0924263807,0.1443046667,0.1781653387,0.0622021698,0.2373874606,0.2442454992,0.4782067313,0.1756407324,0.4132341996,0.0878474457,0.2446154175,0.4833815506,0.6105327251,0.4656450615,0.1204599114,0.2093837046,0.4567263348,0.1114444685,0.5019508505,0.6810594582,0.0570559743,0.4200815696,0.6596359015,0.4744264875,0.549190822,0.6325609933,0.1123286683,0.6772099278,0.2289444262,0.4538704869,0.3231925982,0.0540085475,0.4129051544,0.6365163697,0.2656110089,0.1914750583,0.4807804297,0.1891609701,0.5056621966,0.4762680924,0.1596406733,0.2329134021,0.3838281963,0.373696985,0.7158922877,0.1082407651,0.3576018873,0.6662678598,0.4014877299,0.3443521325,0.1085661177,0.1395329492,0.4971196402,0.5620915223,0.6431792843,0.5943500141,0.3110880594,0.5672613744,0.1631936907,0.0761113302,0.5756024388,0.5981977902,0.5789533203,0.429211394,0.230908404,0.1515430867,0.6114646728,0.4545354038,0.6068257828,0.4010024783,0.0239373252,0.641094522,0.282114683,0.5236190674,0.6259429751,0.2678880282,0.1439095477,0.5334414771,0.1607940462,0.4665424517,0.3896629584,0.0266438274,0.2442978406,0.1204081493,0.5744411076,0.2740908938,0.2654044886,0.5165371372,0.317729993,0.3939711947,0.4181300953,0.133710525,0.0562234901,0.4380135319,0.0017227568,0.0924236423,0.5508925918,0.2492085156,0.0244065139,0.275381835,0.6427068936,0.1475322173,0.4968882548,0.4369492498,0.0508997356,0.4324535128,0.631664138,0.035575321,0.3164686992,0.432778366,0.2164104172,0.0216215344,0.4867858122,0.2143878165,0.6939369724,0.6510821232,0.4640477847,0.0828430342,0.3146608408,0.5758941976,0.075937487,0.6714725366,0.3028701047,0.389626377,0.3355747367,0.2061135975,0.6950337291,0.4619003794,0.3950387272,0.5462375564,0.3869193729,0.2899092884,0.1514241105,0.4261531455,0.2360344808,0.198544241,0.4580443037,0.3124858425,0.2252578091,0.338604877,0.6687031777,0.128694169,0.1757116343,0.0814832376,0.2219786351,0.1274947653,0.1334056476,0.0039073909,0.5484338159,0.1706649012,0.2435074347,0.6935108282,0.6425266145,0.3323455626,0.2071937201,0.4609090182,0.4278378651,0.5011954574,0.6641398584,0.5363379734,0.6812463383,0.2101750885,0.2798697854,0.3859481019,0.6442775975,0.5392290572,0.4578878299,0.4298541524,0.1365423187,0.5984756973,0.1520103399,0.2974067041,0.2520275973,0.4526718915,0.3037732045,0.255549372,0.3650038512,0.2686879495,0.2342940877,0.4746105565,0.6784728492,0.3170206447,0.1149025514,0.1419468776,0.6845249221,0.3550802165,0.3716901786,0.4673930981,0.4664105886,0.4274605188,0.5392564137,0.4823583971,0.3348669114,0.1949329426,0.0963120714,0.6589118438,0.2984978637,0.5433160596,0.0511040841,0.2528870633,0.2267727583,0.5219285362,0.5466567423,0.3428791853,0.5500734572,0.2517025341,0.6527694789,0.4737578169,0.3398291677,0.2137750768,0.6413864352,0.1249652189,0.6958837409,0.1039015901,0.2406373553,0.1569239466,0.1611865075,0.4074174575,0.4978007166,0.6811987919,0.5886416312,0.5369422707,0.086925633,0.0427235407,0.364248732,0.2171164688,0.0646599834,0.0160915717,0.6650546272,0.3167405852,0.2018831652,0.2973158437,0.0156231794,0.1615407574,0.3084913423,0.4809918756,0.5895773666,0.5186936837,0.6030705238,0.0629525627,0.3112395227,0.1114090103,0.6665597475,0.5364377796,0.6705108599,0.3164659149,0.4287258967,0.6425671147,0.538964058,0.5289696538,0.013803418,0.4359761581,0.0762590648,0.5876992927,0.4197949737,0.521930401,0.0213535322,0.6167298517,0.299519305,0.6991047661,0.0491810539,0.281526969,0.1999747824,0.3716171363,0.4907244871,0.6450909655,0.1695394424,0.4851732383,0.3512267707,0.1862472378,0.5660725925,0.5158810047,0.2445482665,0.3230080223,0.6245313473,0.1841232598,0.3839623767,0.0707441002,0.4385624634,0.2723555072,0.5805684434,0.7099028201,0.2588393981,0.687409294,0.4018406483,0.6813687378,0.6122782517,0.5119730345,0.6490645983,0.1266881907,0.1972412829,0.0882692967,0.3902894526,0.632374774,0.0911043166,0.1632537357,0.0392802567,0.508082302,0.6084615118,0.5929180595,0.7045336211,0.0290748171,0.6079229753,0.391704696,0.3171233434,0.5795530207,0.0298906937,0.1023334555,0.4355879981,0.1280648779,0.260435717,0.5412191709,0.5602275333,0.4490063614,0.3206166575,0.1132217312,0.0649183396,0.6909530331,0.5681932618,0.3582929161,0.0871662648,0.0931670403,0.0024762065,0.3957072071,0.4651046194,0.5846338993,0.3149158323,0.3996109494,0.0846082338,0.506160092,0.3820699302,0.4157538649,0.1040348686,0.6156731376,0.147092964,0.3536827321,0.4207014561,0.4225601955,0.620298366,0.2818274385,0.3406298711,0.6148832093,0.5504415888,0.1475552571,0.1189852234,0.5519448628,0.2082686759,0.1999917268,0.1574240252,0.2184534215,0.074152466,0.4880649635,0.5181631147,0.1428021587,0.2622745831,0.0399784822,0.3635787857,0.1163847286,0.1426700527,0.6359997873,0.2658195737,0.6128014134,0.1789917743,0.1186265584,0.3346408765,0.4212511386,0.4193667114,0.0407311332,0.4435779238,0.3969611045,0.6573700759,0.2747596896,0.1384379314,0.6938937539,0.2005832082,0.0164890714,0.005339913,0.1007045173
   0.4544564424,0.4182509661,0.2233143455,0.6256126329,0.1075930669,0.6771624003,0.6425304537,0.073106234,0.642561035,0.2635338306,0.6845345721,0.6836788684,0.4431710348,0.2517064232,0.0615687289,0.5877121784,0.2915049302,0.4090770441,0.3283933831,0.5217378908,0.2345867026,0.1590950293,0.6170389731,0.0783242159,0.1360463067,0.1860108401,0.6204109355,0.6274665241,0.1010133265,0.427763044,0.3678740474,0.7066039951,0.0763939972,0.2758982732,0.1561354865,0.0507849168,0.3945659047,0.1153015004,0.04350757,0.7109502106,0.4468322694,0.0581123796,0.6462428847,0.109617535,0.1361002387,0.6927177668,0.0041543219,0.518461439,0.1845203926,0.4730569457,0.1989613764,0.0443929437,0.4661682607,0.613413395,0.5116430994,0.1773082593,0.1377386305,0.2560531643,0.6783929965,0.0583240506,0.0983548716,0.0157270178,0.68877093,0.4961918484,0.1748993556,0.2940506906,0.355290683,0.0024548403,0.2005051788,0.183547924,0.2946992713,0.1632463364,0.2958418682,0.0632732236,0.4139994126,0.4384236585,0.3441639163,0.2085800149,0.1697945214,0.6329262136,0.0659868705,0.0895032934,0.1078033584,0.0003047419,0.075066752,0.6749607518,0.1881459772,0.1362848858,0.6054859098,0.1904899965,0.2729875072,0.6719227719,0.1001928232,0.6854482886,0.5386543791,0.3347646904,0.4826095075,0.1949702586,0.207886035,0.5573468101,0.5488002939,0.298246848,0.6119048556,0.031927556,0.3896475384,0.1098670381,0.1300044636,0.4368910804,0.6042980533,0.2636604706,0.4046367454,0.0874468415,0.5127775061,0.3331261726,0.4746491192,0.3746098764,0.0017803481,0.7040043941,0.4163194994,0.1489856941,0.4973314024,0.2488387907,0.4674726135,0.3907761614,0.5940666241,0.5082205805,0.1470459835,0.2362575795,0.3197068879,0.4798584953,0.5578279184,0.0710648412,0.2011268524,0.3507752293,0.0536199608,0.3383952319,0.5198712313,0.1467442881,0.65163634,0.6505234776,0.1409370644,0.7139840375,0.0599869156,0.5225315479,0.1876618172,0.425587448,0.1720077181,0.4772616933,0.1447829734,0.4804118471,0.1948916892,0.4360378916,0.6061105844,0.6608939795,0.6055243163,0.359840007,0.1540919983,0.608188372,0.2723842832,0.3431319922,0.6597537837,0.6673037528,0.3189416135,0.3564607349,0.5166370984,0.5179114983,0.1853952065,0.6154589195,0.0870932251,0.6563528292,0.3627564954,0.4308460805,0.3473914782,0.0605269354,0.5950524474,0.0937174673,0.2148800353,0.4646942138,0.5415923111,0.5715723592,0.5148625499,0.0130364873,0.5672095941,0.6410989389,0.0978621369,0.3095342418,0.0211388493,0.0489163694,0.0948012253,0.4080920227,0.345924906,0.4180898844,0.1856343349,0.444320047,0.2808308491,0.0938964157,0.0261597573,0.0562327086,0.2995100963,0.1827182601,0.2285123618,0.5092088532,0.3374821881,0.5165284992,0.0239167267,0.2117997191,0.3593903264,0.0653217184,0.5134303622,0.1129789143,0.1225710105,0.1346666113,0.3412389542,0.4962094271,0.4651352909,0.3402048375,0.1148226166,0.1229139569,0.0596051758,0.4229798268,0.58467,0.6065981489,0.6331873063,0.1064666833,0.3185645911,0.4062842244,0.2992393711,0.3531107378,0.617414964,0.4225730086,0.0982384378,0.0286713827,0.7043595142,0.5291562715,0.4993545736,0.5261973581,0.1937608843,0.2892874818,0.253387559,0.2956150787,0.2994987808,0.4507215363,0.0761468397,0.1488768357,0.7020590379,0.3008399022,0.6120467043,0.7121141081,0.5970948095,0.6115117622,0.4301764835,0.4932457514,0.3818901721,0.4058267685,0.5861746594,0.390355756,0.592020075,0.4653907398,0.0361129569,0.5214955402,0.6575144451,0.110297746,0.6504178544,0.1277820402,0.0326265804,0.5256461175,0.7082349614,0.6672057189,0.4250649998,0.6298566651,0.339125382,0.4627912331,0.357823906,0.6463284633,0.115888225,0.6257477483,0.3225896451,0.6632421608,0.5880507769,0.6265627005,0.1769938302,0.3694189871,0.3906405422,0.6589936,0.4897560914,0.60670332,0.5679818739,0.3418459418,0.4903450802,0.4636865979,0.0245615621,0.6860043786,0.2755610479,0.681677508,0.1741286176,0.2164555104,0.2915376821,0.5262875425,0.2645111634,0.2977613953,0.5245695855,0.4438172404,0.4976443304,0.0942011817,0.5119719268,0.4658893138,0.6423440123,0.5411178244,0.7104546576,0.526084816,0.3780994183,0.6058354779,0.50207549,0.2515968184,0.596477252,0.451730097,0.550466984,0.0941963596,0.7058132141,0.4240730762,0.2984255675,0.6963257375,0.2774420355,0.6501574624,0.169486321,0.5303276177,0.4282707237,0.3567563713,0.538898404,0.4770411555,0.2211861194,0.2473239362,0.3218965628,0.4710248051,0.5152073298,0.3792352614,0.5614185065,0.7040214352,0.4187343051,0.3166783548,0.1341267586,0.624779812,0.276648335,0.0580643191,0.4037597471,0.4176028592,0.1730845393,0.5824345171,0.4221008427,0.3079465857,0.4013558774,0.1424949936,0.4284253438,0.7051878256,0.7157555928,0.0060191201,0.4398711138,0.4131586991,0.5999544816,0.4826596232,0.4746341521,0.3973325097,0.639606479,0.3127266242,0.3108644717,0.266285499,0.6706040016,0.6012367946,0.2821164514,0.3041688724,0.3055124498,0.6273630483,0.6666847421,0.6575704169,0.4836469372,0.1015427156,0.642059335,0.3567224714,0.4235943474,0.5008467205,0.6799477466,0.064666138,0.4250396445,0.2203426607,0.4305937111,0.6819834426,0.0289285958,0.1108205376,0.0828604097,0.3938659965,0.5762720894,0.379308941,0.0231557172,0.387372107,0.2981176058,0.5661730903,0.2329164765,0.0896809645,-0.2391263435,0.5227047777,0.4159328383,0.4555379732,0.0037851505,0.4430426056,0.4662551515,0.0506274513,0.2960182881,0.3832233035,0.1919688092,0.199649554,0.0457081575,0.2884960428,0.6094558543,0.3388491439,0.4892907782,0.0121655485,0.3112597639,0.3705210151,0.625732831,0.4879464089,0.4704929487,0.2884962701,0.1299089791,0.4154789333,0.1733670583,0.5165147343,0.6537590525,0.6395813264,0.5485550295,0.3516261191,0.6166164219,0.6457436922,0.1114909351,0.193731236,0.5244855407,0.6201860046,0.2555462326,0.2835076392,0.1229862869,0.1446801503,0.5267098273,0.3722614071,0.2220979926,0.3965056655,0.1593993754,0.3967623338,0.0909739562,0.5909725321,0.4131273438,0.2296674935,0.3192010954,0.5291528324,0.3487215971,0.7101834854,0.1046244968,0.5820196973,0.0380850656,0.0831702345,0.6588895739,0.4739687529,0.3023285696,0.112754441,0.7072865692,0.5837731958,0.7111856895,0.64267978,0.6111027582,0.4241273527,0.4404546704,0.1087948991,0.3187560479,0.520178532,0.1612309228,0.1762529075,0.5639691569,0.0670680325,0.3670673361,0.4674548371,0.3045058376,0.2975385138,0.6835873384,0.1508686494,0.4580956937,0.3300627637,0.4664512454,0.4396740147,0.7064331207,0.5414578495,0.3589167867,0.3519256314,0.5069762281,0.0399424505,0.0000230775,0.6006920185,0.4591506717,0.0072160913,0.1861217358,0.3911116198,0.2858781374,0.5263639272,0.3069239274,0.070329083,0.6370921866,0.383419081,0.5237704664,0.3364458773,0.2292364575,0.7109133537,0.3184741432,0.1518054574,0.6271744508,0.4244171432,0.0157862306,0.5763748894,0.4990551325,0.5960060256,0.6342350422,0.4673562862,0.6425260583,0.4116240663,0.2705747631,0.1065525276,0.3205282127,0.601536119,0.5691480293,0.1292822174,0.123194684,0.618208766,0.2526831282,0.4539236421,0.6532062993,0.5577961084,0.3539530879,0.1103901508,0.1296023209,0.4671515793,0.6214870202,0.312890188,0.5954232116,0.1258341471,0.5787538292,0.2006202115,0.4477816822,0.5829945404,0.4997995538,0.3479833848,0.2404114607,0.1216193726,0.4620154094,0.4417334063,0.1064555996,0.1532375531,0.6466595023,0.4983166093,0.6277374979,0.4449337762,0.6838211104,0.0282252383,0.3918744294,0.1440984572,0.5767708309,0.2343296665,0.1226141479,0.5902029848,0.296070274,0.5651375624,0.0610002617,0.5388051279,0.6461983998,0.1076440273,0.2382236224,0.5944131554,0.6461987397,0.509004699,0.6451496651,0.0331755648,0.1233216956,0.3319806386,0.3313737699,0.1229479263,0.2365685131,0.1869984928,0.305876143,0.1318839713,0.3433091044,0.6261434363,0.1083827899,0.6533977612,0.1934672972,0.3916979663,0.7042845432,0.158178717,0.407716096,0.3464091744,0.1298192698,0.100214324,0.1314779516,0.1210367158,0.615520563,0.0042166603,0.4996575526,0.0406021017,0.6195847913,0.626278433,0.5860327045,0.5367183141,0.5355882458,0.5813688675,0.1642735123,0.2270506444,0.2299498546,0.2697158531,0.1859769041,0.1743237166,0.4561062959,0.0781394791,0.232030328,0.412003911,0.5171100428,0.6164444374,0.1350329676,0.0484040327,0.5566299205,0.3008516614,0.5391570071,0.1309939833,0.5915987956,0.0261781633,0.3869531287,0.2839647928,0.3292709296,0.3171431256,0.5411874266,0.4713920078,0.2308662346,0.4767355662,0.4837949899,0.4714595531,0.0126905718,0.2524105697,0.3046449886,0.0899906904,0.397400375,0.7157239139,0.6465769183,0.6502238122,0.0789869989,0.4062685738,0.0108559159,0.0462039706,0.302850271,0.3589067493,0.0643107147,0.1381906615,0.5713632457,0.6831286155,0.1058596467,0.6619550435,0.1359517309,0.2084487816,0.6542536969,0.1387334653,0.0381650009,0.3179657126,0.5256167868,0.0996277688,0.0113550385,0.1098750076,0.1006976314,0.3440828346,0.6985013188,0.4013291303,0.074123356,0.711052243,0.0393360228,0.4792507687,0.0735544041,0.0369028657,0.2569057677,0.1314522049,0.2275251285,0.4604630515,0.2264603623,0.4492727573,0.4274920163,0.0491916214,0.6941078731,0.574917364,0.2218989796,0.620347836,0.6630107626,0.2105520207,0.2272708922,0.4487836036,0.4977787755,0.6669076321,0.5316879808,0.3760770189,0.1046282354,0.7142518175,-0.0649385257,0.125847602,0.0661570171,0.3142171599,0.0552289898,0.4867015264,0.0199710901,0.2522695301,0.3813837239,0.5722256295,0.229918692,0.5053153177,0.4518322008,0.6374758971,0.4042756982,0.1507730818,0.4854007092,0.582509285,0.1354487669,0.588776131,0.40396173,0.5968702127,0.2557505969,0.6498876269,0.2130788091,0.142594011,0.5343637953,0.0363103388,0.0466360056,0.450921641,0.0963059278,0.077299704,0.3951779401,0.3521910949,0.1065508654,0.5447459473,0.5590182038,0.3301158739,0.5887368246,0.2579186975,0.2092071666,0.6748773519,0.2445298523,0.2223535747,0.0245625046,0.0947854399,0.3837930514,0.5998670505,0.491903407,0.4500248067,0.0866305756,0.6337799632,0.002778678,0.2175874086,0.616058966,0.5116730548,0.317774814,0.6008486859,0.4677192137,0.4267891885,0.0317180101,0.1027563031,0.1006316614,0.2012619696,0.3639180411,0.0611016561,0.0874100759,0.3511281364,0.2785870188,0.4507048222,0.3357341952,0.54983032,0.5410273293,0.0840292919,0.364346149,0.6236873532,0.5047728139,0.3424954148,0.5973266383,0.6329742251,0.0699005234,0.2934472491,0.4402347647,0.5327562533,0.1756457584,0.2168161459,0.6144625459,0.3445003049,0.1502095043,0.4122220443,0.509907592,0.4849020809,0.1188168346,0.5955681354,0.5394982608,0.1683064326,0.6267894339,0.4112830411,0.6383519028,0.446415806,0.2441200187,0.5359083503,0.7135358289,0.080901459,0.1168239145,0.5547650103,0.068237632,0.5614213047,0.1061005717,0.6814548672,0.6271737751,0.5794930506,0.6204650419,0.1098844752,0.2477534255,0.4196058733,0.1295277335,0.5081511704,0.5064196695,0.0709260865,0.147967363,0.1183544601,0.2169062596,0.5623880712,0.6939718088,0.3594268287,0.3694034803,0.4119021756,0.277217144,0.0749106708,0.2795913399,0.0013747465,0.4028378427,0.2123346323,0.1752525812,0.2529130567,0.1584206273,0.7012365492,0.70818614,0.3706369369,0.2358728366,0.1717830267,0.1745065785,0.4582814751,0.5807079287,0.2171754866,0.50845616,0.1379551217,0.0095294162,0.7031511839,0.5060126359,-0.1914184114,0.315132898,0.0367641692,0.5001413229,0.0766760223,0.5048672121,0.404180125,0.5710607381,0.5100055777,0.2978575063,0.3290192446,0.4284406946,0.2760959828,0.6852909044,0.558767253,0.6272391666,0.0363002226,0.6678637575,0.4969541018,0.0960118463,0.0875893574,0.0662453432,0.192407545,0.5351792877,0.5140679895,0.1229589345,0.0131409039,0.164460858,0.7045199409,0.1297605903,0.5790806114,0.6913289083,0.3952958931,0.6003629249,0.4210678643,0.0055946472,0.3234124362,0.6822603082,0.2209540925,0.4717625204,0.3421016308,0.3405395415,0.5252933894,0.2490960891,0.053351751,0.5973213527,0.1189445237,0.1001675396,0.0260942576,0.2732453101,0.0164502604,0.2702087482,0.0401422658,0.0680046748,0.2153064892,0.640371274,0.1448910872,0.2363022475,0.1319402656,0.1659824789,0.3165982613,0.2652091532,0.3202216674,0.6967045378,0.218692323,0.1596325478,0.0549288812,0.0024300746,0.1351614692,0.6331904239,0.2920608729,0.543076752,0.0484295992,0.4691256616,0.5287446908,0.2164251423,0.3519515614,0.0241979209,0.3060304518,0.6651426486,0.630879267,0.0010812052,0.6138466612,0.2474100191,0.4555675629,0.1583374843,0.0423209714,0.1592483241,0.5053661417,0.6595714668,0.3980115258,0.5771258668,0.2684731368,0.6474054133,0.6618741584,0.4594834976,0.6109304258,0.4946360666,0.1044039754,0.0406283734,0.603699934,0.3992265361,0.016681603,0.2284552752,0.1287072085,0.0723247839,0.5566009928,0.2768032467,0.462823398,0.2363704941,0.3722320735,0.0314921782,0.6659461025,0.6758897361,0.3207355773,0.6519585085,0.6834872722,0.3398336711,0.2282138782,0.0626209006,0.2442377958,0.5805404186,0.5837119423,0.6232424817,0.2160072361,0.4406826745,0.1481599724,0.5900419616,0.1449772384,0.0475296841,0.0427146845,0.0104248349,0.3992574866,0.5668357802,0.6253830547,0.6647481927,0.4478053178,0.079079815,0.678801887,0.6937300157,0.1501504769,0.3933245296,0.6899107066,0.3837306785,0.0549741172,0.6419202125,0.621884376,0.2184710538,0.3524700935,0.7114342795,0.1367688985,0.4482576092,0.6374111896,0.2298099214,0.5258261864,0.2184897512,0.1032780651,0.0789575731,0.1516209908,0.4774060477,0.6164895989,0.1442391194,0.551933731,0.4913075264,0.1474726297,0.0996969698,0.5905247176,0.66666816,0.5931484525,0.6467582083,0.5455573167,0.2145285882,0.198491723,0.467643542,0.615833182,0.2487705956,0.5589190683,0.5112765574,0.5145509235,0.4874524604,0.2708724789,0.5967981467,0.4557844535,0.6306926858,0.2115142447,0.5342768873,0.5409447615,0.0589929167,0.0649806295,0.100519655,0.3353751812,0.6834349494,0.5982847767,0.6754156492,0.0801156527,0.2749297226,0.6771729477,0.3391685142,0.5088842112,0.4990917266,0.4002434405,0.0947416122,0.383715533,0.5224438434,0.3759903335,0.4311922025,0.1300232241,0.346649666,0.2710995395,0.4341968525,0.3165034131,0.4689057814,0.1402744883,0.1379194263,0.4949115911,0.3848097706,0.0015664834,0.58114146,0.2590100076,0.4298701444,0.6718052318,0.0829005086,0.2997189559,0.111607268,0.5481068452,0.0664671083,0.2331575203,0.1585810687,0.6741708559,0.0603672552,0.0177161872,0.492789628,0.2201721875,0.6640902239,0.6540295077,0.0660244536,0.2176376536,0.5897538414,0.432909596,0.4551890833,0.622194689,0.4367261134,0.6653115297,0.3973226138,0.0217219549,0.2524726183,0.2566767212,0.5396231353,0.486248906,0.5651613245,0.4326194275,0.5995075726,0.5760157018,0.2136105665,0.2368333895,0.5614175561,0.5754350786,0.2438726193,0.5966814269,0.1881360764,0.6762943901,0.4541647874,0.6883339098,0.0466965408,0.0889847104,0.1531479043,0.5656049809,0.2493444892,0.6878094277,0.5495284174,0.3608560113,0.5464985936,0.020214746,0.455139384,0.5615206344,0.2427832701,0.6856504303,0.2282982303,0.5214551383,0.1886534137,0.3732579675,0.2986572905,0.3428500164,0.6304373386,0.2123074294,0.117988256,0.1165608751,0.1975413205,0.0932271245,0.5712226177,0.3799345551,0.4575251594,0.5164183,0.1089149661,0.6536451695,0.3691150178,0.5036277135,0.5823114501,0.0660462473,0.2050180524,0.2471976884,0.3613036243,-0.0643951533,0.2229256467,0.1285098442,0.3120830746,0.3002378609,0.3430855759,0.6898627931,0.3198885066,0.2139133924,0.0265353741,0.1592983238,0.7150506005,0.6614513793,0.7045098873,0.1139566319,0.0872512517,0.66498227,0.5685951838,0.2107176744,0.6670530742,0.706020248,0.1548981596,0.1171066435,0.480314531,0.043652762,0.4669507634,0.1048470826,0.0045378039,0.6662479671,0.4879266061,0.3807289392,0.267892899,0.0306206384,0.2831519906,0.303628664,0.4384893536,0.4267068858,0.5004934352,0.4173199212,0.1668316982,0.5926763441,0.2798932615,0.441758662,0.2211646024,0.0710160322,0.6900925708,0.4856189936,0.2716245596,0.1251787246,0.0087370789,0.0636084754,0.5217179858,0.2992047434,0.2212462806,0.5695163728,0.2116296289,0.1906734287,0.5988608621,0.4735452877,0.3581176732,0.4841376707,0.5074847868,0.3181304705,0.2394402625,0.2416450635,0.3500073199,0.494339379,0.6557299877,0.370307186,0.6215424859,0.5000625327,0.5017764993,0.2357657697,0.3805440946,0.4975678211,0.0957339512,0.5542901871,0.335427642,0.1675071235,0.1956202131,0.1177393823,0.0802265651,0.4739382253,0.0032696509,0.448996356,0.603063439,0.6045469423,0.0009578433,0.6065874973,0.2125866653,0.046447644,0.1616919231,0.1371539157,0.6775055641,0.1613462786,0.409380483,0.5102002057,0.4961186466,0.5998683788,0.7012956272,0.2460085289,0.0955081726,0.5480359769,0.167458009,0.3007011121,0.2748243972,0.1324087,0.5409877388,0.3677824799,0.7055017943,0.4750292575,0.6777991482,0.6383614547,0.1704930165,0.3655533074,0.0241310434,0.0949997484,0.0757315105,0.1925660153,0.0087039435,0.6238783589,0.2119796891,0.3420771327,0.411041825,0.0528221736,0.1590986088,0.3477581527,0.6913826094,0.4165625501,0.1244608409,0.121882178,0.4572614679,0.4300845783,0.5255943295,0.6006646731,0.2658798854,0.2269209892,0.1136772358,0.3463083162,0.3010295028,0.2622847747,0.3510024987,0.5468248237,0.4537306005,0.1503351297,0.2975821789,0.5138708762,0.3722127911,0.6606391891,0.380959066,0.3350725786,0.3376013831,0.7160332246,0.5418491965,0.7081218337,0.3604725492,0.3313523447,0.1663137227,0.214440783,0.7149081377,0.4736987739,0.2171343088,0.6907537923,0.1081453912,0.499634646,0.6838192914,0.6184350967,0.6571613517,0.5503523268,0.4690924456,0.3850822554,0.4281309083,0.4643356731,0.6188754867,0.1333070418,0.701357461,0.2168125175,0.6206605312,0.1247958118,0.3101259834,0.7005664908,0.025960053,0.0754496806,0.7099686581,0.4095836575,0.5661074182,0.3031029029,0.264407876,0.1066734073,0.0102949427,0.3840995636,0.1128762375,0.2848237624,0.1012335874,0.1752678956,0.509755865,0.5668598129,0.4632407882,0.0040991661,0.6701835477,0.1263846478,0.380949919,0.4847403097,0.3055440547,0.4858492061,0.6746831067,0.1308857946,0.0843705735,0.5014027996,0.6302479565,0.2113372811,0.2290800537,0.0980993158,0.0931935601,0.2065987264,0.2125666575,0.4871039926,0.3070235484,0.4630327382,0.6435258606,0.3321248267,0.5991510875,0.5264489183,0.6710407207,0.4717069792,0.0942009156,0.4583350029,0.6069215586,0.3603774317,0.5698925134,0.3821201626,0.3337495612,0.0334147779,0.5761632083,0.2200894435,0.0575140086,0.3657748824,0.2189199087,0.4228644861,0.1171299595,0.2368968895,0.491200468,0.0965666741,0.001498091,0.0919065058,0.228685039,0.3916563293,0.0595658061,0.5496944939,0.6018999742,0.1525202676,0.5024250379,0.5118446174,0.1063345447,0.4556387514,0.4525346375,0.2620806716,0.3184140086,0.1081599575,0.6113672385,0.6523922324,0.1701635548,0.3637856774,0.518326123,0.0870330588,0.3499558379,0.212504946,0.1757676178,0.0746771425,0.6929642981,0.4389821042,0.5756864795,0.4722166642,0.5444905348,0.1486082168,0.0180375068,0.1876581905,0.1041611679,0.6870620075,0.1294278909,0.03222771,0.3393376609,0.5978358422,0.0735399836,0.1915939355,0.1429977825,0.2665710574,0.0932816581,0.4998283096,0.4533100338,0.4335001845,0.3592802933,0.6715451887,0.5985447558,0.092101538,0.0900022451,0.4417777111,0.1685157065,0.0212434428,0.5736893111,0.0330805813,0.4934223115,0.1265922903,0.3185923595,0.3469918285,0.1256885506,0.4152251232,0.469154937,0.2441523549,0.3376526028,0.3168155716,0.0434123697,0.1377692485,0.7149889375,0.3348238223,0.2531216367,0.570868131,0.653342756,0.4707771341,0.1131000613,0.4414683584,0.0815089699,0.0501476227,0.2756228244,0.5507173501,0.5481765624,0.2393604769,0.3529399822,0.0244112995,0.6640895939,0.139832273,0.6638156273,0.5760407844,0.5138848163,0.111732649,0.7038468221,0.0170818292,0.2642958287,0.0084864952,0.4789250875,0.6023460676,0.6571397908,0.634853291,0.3021213074,0.4255655285,0.1000775103,0.0650422079,0.0142652982,0.4975674736,0.6004311474,0.2004208358,0.3196902738,0.3760044328,0.6697495887,0.2276601048,0.3994679053,0.0461811848,0.5534344749,0.5701119793,0.5121521256,0.1031449862,0.2125358355,0.3161035474,0.0437299083,0.476589977,0.2760901574,0.0341594741,0.2061351633,0.2746592266,0.5408382353,0.5986333291,0.6063884579,0.2696075777,0.4031143856,0.0805543687,0.2191918991,0.0607296019,0.1255557487,0.558507832,0.2324526221,0.0529566895,0.2230234155,0.6259938195,0.2846991711,0.000682716,0.4924832489,0.4343483079,0.6025384138,0.0765830747,0.4446036635,0.2094991836,0.2813126008,0.5037268664,0.0740094896,0.6074797514,0.1522988982,0.0323090577,0.6266517889,0.1007141529,0.6137127595,0.6125528933,0.1169557243,0.5674378358,0.1946074535,0.1880967357,0.0971283715,0.2460728761,0.6858078929,0.0910244827,0.220395495,0.0919224392,0.7069561148,0.0884856168,0.5690364168,0.3064717363,0.6092021547,0.3470084439,0.0806084318,0.2179869455,0.1025052875,0.4624709442,0.0762519458,0.2781935093,0.2962118452,0.3313062787,0.6204707508,0.1289524852,0.252490716,0.5643703389,0.5226453524,0.2478575178,0.4003224533,0.7052559444,0.6215944349,0.5327196662,0.1287185877,0.5310016773,0.2122008305,0.0027422307,0.1238520623,0.3684322988,0.2212406613,0.4994216237,0.3948076245,0.4804014,0.3952840171,0.5477949389,0.3770505843,0.6203332809,0.0685829501,0.5724483842,0.0791768323,0.1454585921,-0.5196096147,0.6653495638,0.0155840703,0.2545420594,0.5557483867,0.3267795595,0.3323855228,0.0420697013,0.0466587899,0.1666049768,0.030585176,0.3300459707,0.2423577079,0.1768404967,0.6397436754,0.47374031,0.4430574013,0.3663542843,0.3315694899,0.5160878736,0.4422121352,0.4105634867,0.2726308991,0.1594400132,0.0153774399,0.4347285812,0.6346502014,0.4836069293,0.4143775654,0.0854368478,0.1324322742,0.5218536766,0.5615646789,0.1488428583,0.0865687551,0.6667867529,0.0341510979,0.5600015968,0.6727818496,0.4264318341,0.2741519185,0.5089070475,0.2971372529,0.4967038308,0.6089208437,0.3895661389,0.6508134731,0.4741471337,0.4361681465,0.3895810198,0.0365860654,0.4521144453,0.163127674,0.1941069607,0.2802853524,0.0719344779,0.6383067877,0.4499887674,0.3349627992,0.3544795968,0.0874344691,0.5694730327,0.336453849,0.5081196881,0.2660938193,0.4438702368,0.3408329194,0.0830787768,0.1664054329,0.4530392373,0.5253600016,0.3793335877,0.300073194,0.5211708423,0.0120642932,0.4293972458,0.5810348966,0.4088161989,0.1716178975,0.0824632814,0.2692644857,0.2987844573,0.0150103321,0.6534539394,0.4824319773,0.6338832021,0.41013797,0.3940337982,0.1497916793,0.1965486083,0.2036506887,0.2775583482,0.4791386981,0.0579850215,0.3605503474,0.4035396048,0.1516224353,0.0711653549,0.2434355227,0.5153462583,0.2765527619,0.2368639944,0.6186446905,0.1450423711,0.2510598195,0.2194061957,0.6350994342,0.3340767476,0.1228536268,0.5286560362,0.0691732944,0.3956261085,0.6264351401,0.5330389547,0.5547841825,0.1373801104,0.6683579752,0.2654714465,0.09571609,0.0049760355,0.1677673015,0.4021895008,0.4439762943,0.5517334274,0.3745759117,0.3252661898,0.2458501326,0.3827895989,0.4748146431,0.5075177487,0.3209502253,0.3331232377,0.1246685833,0.3777377641,0.4157581411,0.5816848622,0.0961137957,0.607374693,0.2251145671,0.4477689199,0.6758896765,0.3983545477,0.6275353346,0.103328102,0.4699333875,0.0129098487,0.5901724481,0.6559531143,0.2792103801,0.4447626476,0.2456002955,0.035444012,0.4789304864,0.5355862238,0.3818450123,0.3151152833,0.2050929894,0.4954458326,0.6104676287,0.1095892424,0.0765034718,0.2733825227,0.6822896423,0.4894640974,0.2742404084,0.0857818411,0.0762864866,0.6286694142,0.0766256912,0.5784522428,0.3121053301,0.410248667,0.2376488852,0.5132797501,0.6293146664,0.3772398359,0.1795609737,0.279530499,0.5543730966,0.1141256419,0.585795366,0.6182079546,0.2235788857,0.458193018,0.0127604398,0.5552919439,0.4782204903,0.6541017199,0.1656406337,0.6473320787,0.67122721,0.4315439922,0.7006392942,0.142934071,0.2770925287,0.4525779406,0.4265087668,0.569633529,0.3929681091,0.6102846782,0.2673513345,0.2289681188,0.0970242454,0.6296446443,0.1926153529,0.0598308181,0.469988215,0.448059538,0.3155026655,0.1754380659,0.0141105741,0.3678046722,0.0936034719,0.5640838263,0.0142971984,0.251838291,0.2059362839,0.5994317125,0.193833522,0.5338505906,0.448120646,0.0318355587,0.4376126653,0.6284818141,0.1241264696,0.2959210281,0.6634508324,0.1466804651,0.6092314504,0.1700632583,0.341183589,0.0895093151,0.3748789741,0.3975671686,0.4481624638,0.3014885043,0.2542303883,0.6952588724,0.2941417777,0.0064625338,0.6828370045,0.4689047858,0.4242785318,0.0692419681,0.1271174435,0.3871726231,0.0069409071,0.2264454957,0.570366515,0.1377381425,0.2787055234,0.0837134355,0.4013043669,0.517328743,0.2082087756,0.5399496223,0.6158379248,0.1486181083,0.5980107848,0.0061766339,0.55126879,0.3658936059,0.131754529,0.6634252209,0.4882345187,0.369238312,0.4790126789,0.4096607635,0.3142406526,0.6041680908,0.4188351037,0.2927753975,0.3500960722,0.4013320316,0.3685793985,0.6305403505,0.2977958935,0.2925655178,0.6354296929,0.3430866818,0.6742880404,0.18855441,0.5519172405,0.4701621625,0.1826353363,0.1739669023,0.6764172517,0.401395148,0.0124099782,0.2595383757,0.2287804156,0.0703003511,0.0707474114,0.4792979312,0.648593229,0.4237115851,0.6614878578,0.1433349606,0.0388140849,0.1969744494,0.5332252699,0.2963294801,-0.1974334658,0.0444609774,0.6044460372,0.1295476646,0.1621514555,0.6404105829,0.038281832,0.3186824852,0.6742353955,0.4731337889,0.5852301314,0.4482125888,0.1123445286,0.447865009,0.1453498531,0.5311131412,0.5566635656,0.3395561861,0.4116563058,0.6695021377,0.0107695697,0.5647315017,0.0534625142,0.1393058298,0.3013929631,0.2194900391,0.638454517,0.0654745316,0.4352170964,0.4048169748,0.18320827,0.5407413842,0.2324760841,0.5920670781,0.5131995507,0.1533530187,0.3699517003,0.5978534653,0.5483600601,0.7129482665,0.53478951,0.4366240167,0.0997154871,0.6901864009,0.3544573079,0.7134537468,0.4904680738,0.0770777176,0.6742742578,0.3968312385,0.3189204564,0.4309152677,0.3316205221,0.500923773,0.6114333171,0.4540626456,0.713172553,0.0538978863,0.5821570982,0.1234933102,0.3180719311,0.1878519333,0.3030602114,0.3755991707,0.0914458161,0.3309886666,0.5582273625,0.2545177046,0.3304263163,0.5820359466,0.688854999,0.6025666859,0.4898277543,0.3477209893,0.5466462204,0.4366020165,0.1488413547,0.3574400168,0.0415496531,0.4670201274,0.2309682134,0.4114421749,0.6448309476,0.4298620535,0.6969249661,0.3493762852,0.501889018,0.5269411145,0.6950904835,0.2530261001,0.5829961017,0.6438089278,0.0219006541,0.6537402521,0.587778909,0.6301562611,0.3186101307,0.4184138348,0.399609899,0.4982416912,0.2175948153,0.1727241859,0.3132448552,0.2261098668,0.3257561338,0.5916446298,0.66048349,0.464733437,0.0370515409,0.5037279511,0.3070273192,0.0769082245,0.3839989737,0.0515500335,0.5532459562,0.3439294065,0.2243204798,0.2198853168,0.0966377599,0.5954597515,0.3440996787,0.5013630571,0.420782421,0.5852011006,0.5265646007,0.0174530518,0.3165599209,0.1489090561,0.0923381958,0.2106681327,0.3189977555,0.2132485717,0.4103447619,0.3906374506,0.3809351398,0.6609388086,0.4241008535,0.2659395572,0.3607006044,0.5921813896
   0.2065711346,0.7056145372,0.1758956109,0.5771434454,0.2159342748,0.6434428366,0.1568155367,0.3313926343,0.4550574919,0.1673399607,0.1366263115,-0.3161251869,0.2503999661,0.3870011248,0.6886158604,0.4681592739,0.2993471625,0.2834330769,0.0290435538,0.1581556259,0.064764268,0.1203697132,0.099967939,0.1435025691,0.2952748439,0.5130214809,0.0272609425,0.6181477184,0.5505181413,0.6941340281,0.6482344994,0.6218978852,0.2625175922,0.0581755162,0.682007043,0.6303425667,0.4294897396,0.3102771122,0.2694410903,0.1448696773,0.235553217,0.1790724665,0.6401790557,0.5156299474,0.2102543981,0.5493464192,0.6568512457,0.4544370712,0.2698772292,0.6324797829,0.2040570847,0.0552692707,0.7094493077,0.1821395168,0.3306474687,0.1455856486,0.4523797937,0.3727744516,0.1456248323,0.1988614791,0.417204414,0.6782534279,0.3871731764,0.4061346215,0.3170130871,0.3593783879,0.6097342301,0.6534335739,0.4901866265,0.5780861248,0.1318308547,0.6273646001,0.5900447471,0.064276725,0.0808899909,0.6547888125,0.4225140383,0.0631800388,0.0913814115,0.4072899053,0.0689504614,0.3563392442,0.3212338468,0.4300972786,0.0816691899,0.3556878759,0.4400927802,0.5049202111,0.5200996979,0.0581852103,0.4957296845,0.5352710573,0.0824942015,0.6980740487,0.3592334709,0.580621293,0.3519773679,0.5016366625,0.2028133937,0.4388909575,0.547663084,0.2627247248,0.3600222746,0.4954748356,0.0333214662,0.5245592113,0.1765249463,0.0086436332,0.5273555069,0.2577960678,0.0907148466,0.2031063761,0.6895431515,0.5422672556,0.2961192386,0.0028499152,0.6494201219,0.3109087948,0.3441000853,0.0945317055,0.6969560582,0.0284392938,0.1746110957,0.4875260412,0.4674555784,0.2146936441,0.3879575485,0.0220667551,0.4997204455,0.117956479,0.1812547724,0.0043142583,0.1004535721,0.4481612797,0.3066393873,0.3852168069,0.7083717394,0.3183219297,0.1718966908,0.2130363987,0.5804529878,0.4636409845,0.0500051992,0.3016926547,0.3638584459,0.0910076004,0.6150413171,0.1258091373,0.4929238762,0.1878990667,0.1425581712,0.3093804094,0.011304376,0.1404299961,0.3632660596,0.6004907737,0.02768184,0.6965265877,0.6998451033,0.6891854877,0.710157124,0.3648377213,0.6880440604,0.6180962818,0.0443686935,0.1801479234,0.0932803947,0.3498247058,0.05235383,0.5274373049,0.1113134146,0.0118460173,0.3848715711,0.583945049,0.4011892961,0.0753173693,0.2181553931,0.4821352799,0.0771212838,0.3857044239,0.6729931271,0.6205936545,0.450519873,0.3446885061,0.1321814705,0.4494053515,0.2793388655,0.0630721614,0.5248576045,0.206115536,0.5672846145,0.1710415536,0.5390189315,0.6428884318,0.5383834847,0.6675636227,0.0615382271,0.1436020468,0.1169967159,0.269649196,0.6485261222,0.3054575492,0.0996605645,0.2281143871,0.5896717867,0.050376988,0.6674520976,0.0116360312,0.1146272264,0.6492185267,0.1612179677,0.1814905438,0.4440199721,0.0668702868,0.3214309166,0.1979611884,0.6153873894,0.026780371,0.5518844893,0.2488868686,0.5717908444,0.082577696,0.3963279308,0.4246059149,0.4120586561,0.2105316762,0.0530267184,0.4370951143,0.1783089538,0.3126563864,0.5711954141,0.6424205673,0.0163300454,0.4828821789,0.0110769358,0.1239695313,0.3301094628,0.0137266466,0.5311794931,0.7036710535,0.49961945,0.3119508963,0.0854391186,0.68532022,0.0428702174,0.1345796345,0.545615162,0.1394929189,0.1319029358,0.2287341566,0.0583353425,0.4466122192,0.4922531163,0.3163162353,0.1725186238,0.0981081239,0.1522844985,0.5373909424,0.2368631377,0.1062802551,0.0328407492,0.2939401284,0.3578920143,0.4935240932,0.4757097153,0.6034925939,0.082937767,0.4423795179,0.1614783351,0.1940719889,0.6923118547,0.5312010262,0.3402159659,0.230049702,0.3501095268,0.6359180338,0.0935937329,0.6908273964,0.6294512463,0.0263618559,0.6197777402,0.186136479,0.6698772512,0.6129898141,0.0893132241,0.5616012953,0.5787787887,0.3574911732,0.5109848205,0.4008954283,0.2146692863,0.431544908,0.0822772196,0.1850983392,0.6862049644,0.0549738303,0.5500564808,0.0292055316,0.2693505709,0.7082492285,0.4312068967,0.7085668716,0.4204061332,0.3051077148,0.4868559524,0.2808556527,0.068084446,0.4198784594,0.35453617,0.6352884782,0.0053807135,0.683149355,0.6468932617,0.4063997368,0.4814435858,0.3326569834,0.0102326939,0.251934804,0.3914311115,0.005057766,0.4266160884,0.6331834668,0.0505029278,0.2418419149,0.1223365758,0.287570343,0.6150220009,0.5395244683,0.0687748523,0.0178835791,0.1907124997,0.1248252983,0.5919322597,0.4434878965,0.3942307728,0.4367105389,0.0246578998,0.5849679804,0.2765155872,0.3097661715,0.5816646174,0.6694830571,0.6387010106,0.1015635398,0.156969209,0.5468636494,0.2225476902,0.420215662,0.4361719605,0.150960955,0.6807061232,0.1899337473,0.6623583724,0.0845130049,0.6484238657,0.3812536265,0.4048637977,0.1507002377,0.5644631177,0.5596493827,0.0129968506,0.5717495294,0.4453172432,0.6629886099,0.6449089167,0.3418944886,0.5150844391,0.2878242631,0.4359964716,0.6059469317,0.2657885775,0.2198589423,0.4102566046,0.4525200843,0.5773470094,0.4671859563,0.2768477072,0.4281192013,0.0202835107,0.4541965387,0.5702655099,0.2522454624,0.6867710119,0.6562460411,0.1983148267,0.4337580591,0.5141073193,0.538504925,0.2085299796,0.0834677816,0.4195043237,0.4428920755,0.6128984605,0.4793274235,0.6353282033,0.3649556837,0.0021678768,0.3428973684,0.4197877865,0.6720316783,0.7133290014,0.5236131103,0.6414257921,0.5066738287,0.3430154835,0.1418055106,0.5934134753,0.4171836341,0.7090642141,0.4101063723,0.3512012753,0.060193135,0.1877399813,0.3215824076,0.0767520431,0.6758507813,0.4448191987,0.3453293107,0.199382915,0.4514964942,0.5284409229,0.2821911247,0.0930120128,0.5908967642,0.5480727412,0.2870009562,0.1232845707,0.2517983781,0.0028889479,0.4644413734,0.4464964203,0.5768915087,0.6051311114,0.6350298108,0.1565473523,0.4105688872,0.4077049176,0.5788190313,0.5887152912,0.3653878792,0.5130337198,0.3342656688,0.1191760086,0.4838797493,0.62678165,0.4628737734,0.7100923665,0.3034367596,0.6496840187,0.3240097869,0.1683905067,0.5020452286,0.1080648452,0.4404506626,0.2715743152,0.1248164976,0.1113181887,0.2688306176,0.4135168387,0.1230359154,0.5542053118,0.5940656334,0.3195902682,0.4532774504,-0.6937617574
##end
biasActivation=0,1,1
[BASIC:ACTIVATION]
"org.encog.engine.network.activation.ActivationTANH"
"org.encog.engine.network.activation.ActivationTANH"
"org.encog.engine.network.activation.ActivationLinear"
