encog,BasicNetwork,java,3.4.0,1,1749582437855
[BASIC]
[BASIC:PARAMS]
[BASIC:NETWORK]
beginTraining=0
connectionLimit=0
contextTargetOffset=0,0,0
contextTargetSize=0,0,0
endTraining=2
hasContext=f
inputCount=150
layerCounts=1,31,151
layerFeedCounts=1,30,150
layerContextCount=0,0,0
layerIndex=0,1,32
output=0,0,0,0,0,0,0,0,0,0,0,0,0,0,0,0,0,0,0,0,0,0,0,0,0,0,0,0,0,0,0,1,0,0,0,0,0,0,0,0,0,0,0,0,0,0,0,0,0,0,0,0,0,0,0,0,0,0,0,0,0,0,0,0,0,0,0,0,0,0,0,0,0,0,0,0,0,0,0,0,0,0,0,0,0,0,0,0,0,0,0,0,0,0,0,0,0,0,0,0,0,0,0,0,0,0,0,0,0,0,0,0,0,0,0,0,0,0,0,0,0,0,0,0,0,0,0,0,0,0,0,0,0,0,0,0,0,0,0,0,0,0,0,0,0,0,0,0,0,0,0,0,0,0,0,0,0,0,0,0,0,0,0,0,0,0,0,0,0,0,0,0,0,0,0,0,0,0,0,0,0,0,1
outputCount=1
weightIndex=0,31,4561
weights=##0
##double#4561
   -0.0943218025,-0.1698196893,-0.2195649192,0.305953911,0.0915580704,-0.112783613,-0.1732968439,-0.1886965625,0.0447637094,0.3424951646,0.217883541,0.1915823377,0.2839987298,0.2786926883,0.1181260441,-0.0055008236,-0.310923909,-0.1803823794,-0.193938314,-0.0918861697,-0.0700794145,0.0363562123,-0.0633758313,0.0432121046,0.0318844425,-0.1546548733,-0.1787969957,0.3429084957,0.245480731,-0.1792316246,-0.4792032475,0.288662669,0.0044542694,0.0779902014,0.0203902249,0.3438086815,0.3299386351,0.1760120121,0.4604404434,0.3984872984,0.618706487,0.5355923619,0.6166737009,0.0904960371,0.5742721821,0.1076915862,0.2614775733,0.5139092356,0.5938589779,0.4133048733,0.2981495458,0.1646803065,0.3717535006,0.5610220521,0.6501947058,0.2824574156,0.3038341927,0.6741492118,0.2365698388,0.5600013438,0.3255265896,0.0633637608,0.0983159861,0.5446057768,0.0565403617,0.286391344,0.1737599588,0.495219848,0.0459099887,0.0505617811,0.5103247466,0.2133115944,0.0165275803,0.5175955942,0.5406796339,0.3612025898,0.1483789743,0.6970133152,0.7095803627,0.2961583176,0.228809867,0.1257370362,0.0951550449,0.1322682982,0.1223111008,0.6871088552,0.1381924096,0.460980041,0.0947389186,0.5377173949,0.6017309662,0.0235457065,0.2896602196,0.2150274529,0.1402123422,0.5892531623,0.0159145682,0.5467743196,0.1583432163,0.6827952082,0.6744054989,0.545061748,0.2306365083,0.2290937797,0.1815727052,0.1303614746,0.699374114,0.2266864899,0.567100372,0.7156432757,0.7090748876,0.285456518,0.4992490547,0.075706505,0.4468440027,0.3843033884,0.4119640059,0.1693870611,0.0131596356,0.1160742465,0.0096723514,0.065262805,0.6558587827,0.3331855717,0.1324729171,0.0246557023,0.5784089276,0.2008358861,0.3539160867,0.2145890387,0.601618545,0.2003831102,0.4600202923,0.6339790225,0.1038941049,0.464067413,0.0687106112,0.1659641293,0.0637662685,0.221486672,0.5651719302,0.4861465852,0.3737424774,0.2457377599,0.5442674499,0.2398253053,0.3969274158,0.3326426318,0.3003260514,0.4295912771,0.3596333808,0.3981254502,0.2371598464,0.6795395496,0.092346972,0.2576869972,0.1889207816,0.6143186948,0.0579637906,0.320093949,0.1623898306,0.157463677,0.4800116639,0.0957884745,0.3924137715,0.495508762,0.5450900344,0.6402343199,0.6812129947,0.3576845425,0.3698707953,0.6626308221,0.5320511726,0.6684862631,0.2553592302,0.6409262674,0.197382003,0.1656611045,0.5476541696,0.4122190556,0.221054998,-0.5858011194,0.0622902186,0.1336076701,0.6514747861,0.4693150495,0.5038869214,0.6814961012,0.5123277736,0.1245446029,0.4318385396,0.2550922005,0.3652911421,0.4737285041,0.0044478656,0.3172601454,0.0195722381,0.6425146258,0.6565414212,0.6642075937,0.195989444,0.655210577,0.4804722866,0.6174315034,0.5066393609,0.155541219,0.5239449299,0.2056219526,0.2542262954,0.6786651555,0.2214166435,0.2523582126,0.3382024852,0.6406288499,0.4343446085,0.7056948417,0.3881448188,0.3521291343,0.1413990364,0.1307845859,0.2085527128,0.2278991033,0.3646974366,0.1705605254,0.0888783796,0.1142011487,0.2685629107,0.2222645847,0.7078887391,0.1556410154,0.2870772733,0.1078881898,0.6859290713,0.1125407562,0.5493085879,0.2655587142,0.0811021031,0.4465663472,0.5988302651,0.4295178236,0.1072856862,0.3893982298,0.6983369877,0.5568496433,0.4829473418,0.3320735329,0.1411479536,0.0405811617,0.3663759254,0.2947924568,0.4193534086,0.583547721,0.23754841,0.3544340064,0.4441203194,0.2619703315,0.4444297508,0.1914626498,0.043727827,0.2096067313,0.4360388982,0.0210160089,0.266771266,0.4304282832,0.2418140179,0.3180783607,0.1024183685,0.3453685374,0.1819956263,0.1516752757,0.0385525407,0.1457626254,0.5792194515,0.0567925634,0.3080895147,0.1094102517,0.1392349282,0.462392982,0.6502191933,0.686451725,0.3768563797,0.141561871,0.5408518931,0.5530465444,0.6554911745,0.4766065349,0.1245161122,0.2910759957,0.1650558542,0.1763428057,0.0991609469,0.0711634986,0.1062433242,0.0857114875,0.4188222484,0.6134447141,0.1552742857,0.3537933834,0.2389507072,0.6863575858,0.1455622042,0.1669649673,0.5556184854,0.5733785197,0.2042020631,0.2672957814,0.0196698555,0.1596411067,0.6507088305,0.6197083816,0.4385151436,0.423231151,0.3062198248,0.6722318818,0.0019640608,0.5501047478,0.6171612364,0.4959538984,0.1387250277,0.6532903868,0.3856714631,0.6870499795,0.5538978529,0.3496375993,0.0817698117,0.2929265925,0.0544210424,0.4759646978,0.5188552416,0.5778806455,0.0362434978,0.5538788843,0.3139546112,0.0810823863,0.2237046412,0.4880609612,0.0232807249,0.5687156727,0.4304792407,0.2332064906,0.3858852475,0.3261383374,0.3717245763,0.0105527273,0.4635219709,0.2965480702,0.4831537238,0.0561053074,0.2282994565,0.2980479294,0.6801796109,0.1508144371,0.1364955152,0.1100061461,0.3792798338,0.4047388054,0.4286811608,0.3304305278,0.6985099944,0.4561486179,0.2154268413,0.6649796444,0.7124298635,0.135705786,0.1956174435,0.4403752526,0.673722457,0.7077890982,0.2899891941,0.0629943372,0.5619663532,0.0510920283,0.0861428454,0.5384533019,0.1834946855,0.2325406266,0.0021096218,0.1325196176,0.4316341943,0.1889625695,0.6139649347,0.548777036,0.1267087343,0.5507141778,0.0021883392,0.1420623608,0.6542540108,0.1550019813,0.6693115386,0.4016013899,0.4040940512,0.0844098076,0.6367654483,0.5244129511,0.3701729538,0.0917810565,0.0200115666,0.4488547032,0.2811308482,0.0436322563,0.2032844767,0.4668883691,0.0064098193,0.5016513146,0.1138083018,0.3712454255,0.1104353369,0.2435637461,0.4752332462,0.5462672098,0.5988997908,0.4602324391,0.0430795524,0.3274931911,0.5204980092,0.5495607418,0.166670573,0.3924920114,0.4670739602,0.1656628625,0.3338884878,0.3785969281,0.1026773668,0.185393975,0.2343482852,0.573524897,0.1777726122,0.6743127361,0.4730626736,0.6864589751,0.6478995053,0.0908273755,0.5415870177,0.5643506725,0.064283753,0.2544552316,0.1004149282,0.1116315251,0.5010149076,0.7156941037,0.0711824141,0.4746636147,0.2753323468,0.0030211378,0.1344021684,0.5243894225,0.3764426064,0.0815115324,0.2048910287,0.6389340799,0.4872533205,0.042300048,0.3803764684,0.6494089611,0.4346377513,0.6606524067,0.5478246207,0.3113202777,0.2893174436,0.4057571786,0.032187655,0.3515302734,0.089880637,0.6488368605,0.0165273457,0.4145071453,0.6738016996,0.6663161059,0.1658547781,0.6751507693,0.6659341815,0.2745448128,0.1670471565,0.223582276,0.121038578,0.2767913141,0.185967699,0.5374449737,0.0341691063,0.3093103496,0.0439929566,0.1824510896,0.4077755058,-0.2687354742,0.5948699786,0.6299924186,0.5504200361,0.433997232,0.4795723851,0.6291236351,0.1600055044,0.650408157,0.0278372496,0.256570721,0.6347562175,0.3169517553,0.5631135575,0.1375582245,0.3671391245,0.2684000511,0.1118058358,0.4182541508,0.1850916296,0.2136389511,0.6938171605,0.4168410009,0.1876739878,0.420644762,0.0723801179,0.5514436827,0.0010993098,0.5905549854,0.0122013632,0.0371574376,0.2779460514,0.1499336522,0.598376379,0.3094090306,0.6614513512,0.4341585547,0.3599305956,0.2463435026,0.2789587337,0.4563947261,0.0970913528,0.4645884387,0.4873251179,0.2266671732,0.4060024762,0.2046132002,0.5348101217,0.1077568178,0.2262983502,0.4883593525,0.0449855196,0.2258094336,0.0242626292,0.2081387023,0.5229640452,0.6067546254,0.2956861163,0.2032328389,0.4297666722,0.7157668427,0.3354017648,0.0733828281,0.3192955031,0.6296753639,0.2352167632,0.6263482064,0.0627721901,0.2183161856,0.1222251855,0.1357026397,0.6331872397,0.4307213349,0.5603216412,0.0816917909,0.1587410738,0.5072026496,0.0433175182,0.55343293,0.3101772066,0.4515935951,0.6215597037,0.358858773,0.4818444231,0.4577832003,0.0664902468,0.2560680253,0.4684349434,0.2912727228,0.3488998114,0.6410150379,0.5161834107,0.1609644458,0.0050284594,0.1673307132,0.4109910314,0.3833377178,0.0900490244,0.076342452,0.4457034332,0.6491965202,0.0948774962,0.229077532,0.2267493397,0.4297906336,0.6170009071,0.4353993502,0.5395569832,0.1916420788,0.151524946,0.1870572566,0.3875047137,0.2027045792,0.6449217634,0.015611035,0.1939068244,0.1277426792,0.6797487176,0.5831876679,0.1081351956,0.3828957107,0.5110183994,0.5865921726,0.7076570742,0.0154068845,0.1969321281,0.056218094,0.260063339,0.0780175979,0.0188386065,0.6363846429,0.4631205916,0.359476134,0.2983466185,0.6095371222,0.6437548208,0.2496789966,0.1452518499,0.1454000036,0.4210762226,0.0769885782,0.6087533308,0.4199630979,0.3516923252,0.6793546487,0.2678730242,0.425981858,0.0459985607,0.1463582662,0.6851357994,0.3514428934,0.0208250025,0.3192181018,0.1800036796,0.6186382346,0.620823498,0.5807652511,0.1028499346,0.6366013243,0.3965471744,0.4267529255,0.4228864985,0.5374764511,0.020718751,0.2532135818,0.208497392,0.5577438558,0.5970571697,0.0380466554,0.3725923217,0.0617272314,0.4876080023,0.239433396,0.6375550798,0.4679243915,0.61311122,0.4367078115,0.035552314,0.3695811786,0.4066296253,0.6564776681,0.684119544,0.2528214825,0.4706796959,0.4581262075,0.0627746582,0.6294514663,0.3664186123,0.3851743299,0.3200239853,0.0396854774,0.4539104312,0.6248054017,0.2995827653,0.13449738,0.2594570132,0.0549439392,0.0941572575,0.1978469143,0.2992473189,0.3907489134,0.0700416722,0.4010824011,0.5629947033,0.5259931658,0.4671201645,0.4458325131,0.1681719391,0.3647625993,0.4072897183,0.0738565066,0.5631785017,0.2042345127,0.1356261516,0.0877017008,0.107363266,0.1605516326,0.0862487966,0.6448932064,0.5184962933,0.2228737356,0.3757102429,0.6900251193,0.315625052,0.6636936484,0.5740957583,0.5468088418,0.603206348,0.479425763,0.3829645503,0.2471275426,0.5019727167,0.6915482013,0.6741031753,0.3795896311,0.1221473005,0.4637425841,0.6949335764,0.3251542718,0.3210523214,0.7015175762,0.3023484433,0.4948392374,0.2322470737,0.2508197237,0.1175192523,0.031287141,0.694493199,0.2459758208,0.4621759283,0.3001866399,0.4118331094,0.1504226487,0.6283925467,0.1997008482,0.4164443241,0.2701110511,0.0494722414,0.0829423834,0.4982505339,0.1148771819,0.6596053316,0.1210101115,0.0054510996,0.3846071895,0.1410384526,0.2098320863,0.3482146631,0.1694314802,0.1994675718,0.1954743202,0.2262908792,0.3518167422,0.662450974,0.4470048585,0.7105865363,0.0134454711,0.0537024951,0.2868840613,0.0832392945,0.5464185022,0.5462353914,0.2464554794,0.5842047251,0.6995046177,0.4113617601,0.24222499,0.036957739,0.370451538,0.4452892847,0.5618187802,0.2669358945,0.7154388049,0.1225739054,0.2332346829,0.0378487368,0.7102990059,0.6579760208,0.5347651027,0.0632690838,0.0160348843,0.6489469991,0.1529195376,0.1330906232,0.1882246386,0.4366450554,0.3996946909,0.2732078646,0.5772679639,0.2712778864,0.0749364955,0.6041646954,0.4201691496,0.2195367121,0.2951638235,0.1420929035,0.4883159021,0.389852099,0.6636520659,0.3729695043,0.1733655428,0.4878153032,0.0608892022,0.5802730406,0.5501326481,0.3100586252,0.4377538124,0.2559525234,0.1559166873,0.0478590748,0.6295450756,0.3160612185,0.0125959852,0.2713752481,0.3882872822,0.3007920941,0.0648211631,0.1985212779,0.5909510502,0.3123632451,0.387174954,0.6929853631,0.2333806439,0.2224032754,0.0572936913,0.3766009496,0.2012332069,0.6511335714,0.6647364944,0.3533954767,0.5822797156,0.3512543474,0.3274888093,0.6934349061,0.7142055117,0.5083934602,0.5723771613,0.1746299539,0.6416288478,0.437845381,0.0622038675,0.6248957821,0.4855811393,0.3790555819,0.5073511579,0.6254922656,0.4801444707,0.6546684411,0.1482642039,0.0474100045,0.5241939875,0.0467256729,0.4556134377,0.2857502757,0.6778574018,0.3642340947,0.3382205538,0.5827316041,0.7058691396,0.4934393699,0.2879238161,0.4964517254,0.6436386553,0.4580113192,0.1115135827,0.0886723943,0.3668364045,0.2597506542,0.0498838117,0.1190199182,0.1979338725,0.3767766685,0.1256325702,0.1807134339,0.603719892,0.5861548998,0.6449728654,0.1252383963,0.6946821772,0.074192311,0.3316224353,0.2798829582,0.0060189101,0.5033924507,0.1702375403,0.196689445,0.3050057302,0.6571097094,0.233450591,0.4757252372,0.0812196337,0.1034831903,0.2217423973,0.0658764832,0.132250534,0.1075855692,0.3368038096,0.5605081269,0.1251927502,0.1036265273,0.2766482387,0.1469386811,0.2733737126,0.4552527162,0.7070763962,0.3172837798,0.4229211383,0.6352535922,0.4351749329,0.3880212634,0.1170311445,0.0832852184,0.463918069,0.4651997058,0.0556020791,0.0490247573,0.3182290296,0.6673937994,0.2971661088,0.3015772003,0.5490062651,0.6569922953,0.1105158818,0.1786733196,0.4686233012,0.2914536667,0.5011075975,0.6190464774,0.0088401505,0.3113313207,0.3701208817,0.3874451828,0.2897168256,-0.2856256188,0.1191933043,0.5834193973,0.3452152465,0.6679161179,0.3196696702,0.043542058,0.6632434106,0.4123820405,0.2754992893,0.3270942338,0.2714822299,0.7050859814,0.6762741564,0.6829284894,0.315602375,0.3974887383,0.2107856076,0.3764810072,0.0670703621,0.4284053505,0.5417705621,0.5359702808,0.3800105118,0.2635319888,0.1713867247,0.0658125473,0.3598112169,0.3793474678,0.3608374643,0.6453136753,0.1904965424,0.6360619423,0.4589439298,0.2989327382,0.1074987895,0.5832120027,0.1320231624,0.4533013937,0.4256318077,0.3293894208,0.1075062449,0.3220832758,0.2528022368,0.6003237707,0.070744347,0.0793332652,0.3008735324,0.470592057,0.1476431632,0.3444764846,0.5928512416,0.6626187146,0.3630601345,0.1082099606,0.6227110458,0.1351048196,0.1287239507,0.455298109,0.3483475449,0.2206392119,0.4487157013,0.3923207646,0.2236702023,0.6105782047,0.0363893704,0.0985390622,0.545459398,0.1440920405,0.5736208969,0.6731222033,0.2467052847,0.6526696157,0.6878411097,0.1947590766,0.2696751945,0.0725817237,0.3178729324,0.6469545521,0.4294719464,0.4915824721,0.3266811862,0.4193499902,0.3360663551,0.6656861471,0.2419868319,0.3059984011,0.600375711,0.596876202,0.4164968528,0.5925236056,0.0834224904,0.3747869035,0.2706362085,0.526089792,0.1198766972,0.3580249648,0.2932524583,0.0485218517,0.2739225814,0.0387224271,0.3584205341,0.02319312,0.4475976359,0.0787802663,0.0217802753,0.0188095482,0.6789895675,0.3612055271,0.5338583575,0.6843294337,0.672669717,0.0130276647,0.0264708245,0.5548786444,0.4155840418,0.6373349763,0.2448097061,0.7020098939,0.1389540771,0.2820931035,0.1565542908,0.4021179882,0.4205098706,0.2504907935,0.2338790916,0.5861274993,0.0377477246,0.4304399134,0.3271068488,0.4687283386,0.4886748056,0.5456145695,0.5495079635,0.1943126512,0.7083747498,0.3722138364,0.0524289589,0.2541395346,0.4907872395,0.7106803537,0.0765851526,0.5153766304,0.6220108486,0.6399816472,0.4549811339,0.4320135447,0.2024344913,0.4080546668,0.2680792001,0.6751952748,0.1993163486,0.1937865332,0.0981289404,0.6686068623,0.0404150993,0.6377577092,0.0691126754,0.4157286959,0.3764308074,0.4723396264,0.2807136811,0.080379195,0.6457341262,0.6031761624,0.0513050138,0.2853402155,0.0471632337,0.4707747047,0.678415188,0.6655106388,0.1841066855,0.5749730617,0.4037127192,0.4264724667,0.2883035801,0.2231789806,0.3133129259,0.478705908,0.5720703221,0.2425407673,0.3415587015,0.0126984246,0.6819362915,0.0236110869,0.3546097792,0.5069529339,0.2609206247,0.3303112266,0.1599579229,0.621118211,0.556742798,0.5841527935,0.5289447774,0.1535087151,0.4319903355,0.3676941563,0.6010684347,0.6931660632,0.2075377813,0.3260533031,0.4570959173,0.4308255403,0.2003821083,0.5957605797,0.4806508117,0.6313859064,0.3321436505,0.2881378643,0.3611243965,0.0638499005,0.2951150832,0.033234105,0.4562525882,0.1930789158,0.2587378787,0.1819356177,0.2502053915,0.1879542293,0.6655985886,0.1314859281,0.0959283406,0.7079608233,0.0663578214,0.5020615951,0.2075545575,0.5724639532,0.0777201058,0.697122117,0.4018203603,0.5122452435,0.4658456935,0.517314405,0.6046572849,0.1799119753,0.5697849149,0.325449467,0.4240546208,0.0218172703,0.35892315,0.1449734358,0.0037076874,0.6941808504,0.4234528986,0.3325943473,0.5810720821,0.028182309,0.6979455442,0.2532600359,0.3663138378,0.708353168,0.6974813683,0.660181051,0.419167349,0.3169788836,0.4325604112,0.1101682299,0.3298680296,0.3351164405,0.6033630877,0.1839130812,0.1404492557,0.3021394671,0.518496012,0.6640188084,0.1279568778,0.2330444745,0.1584265929,0.6236444272,0.4178339646,0.3893403026,0.6021444086,0.1487865686,0.4708894791,0.3040795273,0.0580479099,0.1138978721,0.6376088665,0.1312473546,0.5952125212,0.4246014486,0.2625696722,0.1534792126,0.4188123557,0.6171369586,0.5483704901,0.6915831446,0.4081954453,0.1590614511,0.1819021006,0.0244713746,0.3897199589,0.2789981165,0.2448706964,0.4231849691,0.7156198566,0.6413113133,0.554208157,0.7106834739,0.1229731365,0.2274500709,0.1609442487,0.1228998065,0.7057086016,0.0830671822,0.1540154195,0.6154223197,0.3793338093,0.7158568423,0.6478959482,0.3195617699,0.6413098668,0.1510501431,0.2512864808,0.353200233,0.5278164517,0.6395848605,0.4670980889,0.3662655315,0.3683104749,0.2923443047,0.0680464489,0.1772737531,0.4651272972,0.4730182934,0.1633553298,0.3692665929,0.4018967306,0.3102842874,0.6969780395,0.4342180828,0.0202309025,0.4459835002,0.1918714964,0.0412973534,0.2548690988,0.2642055681,0.4577250519,0.533558513,0.6889076305,0.4664863625,0.1072614926,0.3371662293,0.3245885764,0.4638283642,0.2034122046,0.0352832805,0.4252072059,0.0748472015,0.6074767683,0.6763201396,0.1983004845,0.608417014,0.141212913,0.4259132642,0.0026927742,0.1497450551,0.5494747802,0.0405054837,0.2079269866,0.6619131442,0.6713214878,0.0044656887,0.6402734625,0.1059776088,0.5494367158,0.3148281608,0.2592349382,0.484684997,0.2075576193,0.2747756327,0.2885803648,0.25752196,0.2258804975,0.4138787069,0.0441079353,0.3304099604,0.2571237103,0.6376149388,0.3506461113,0.0283402839,0.3173550585,0.5413513511,0.1096269964,0.1194116809,0.0829773307,0.5109647516,0.1163281858,0.289168511,0.3570643499,0.1294869888,0.2977520315,0.6731401633,0.0625649877,0.481287859,0.2453213059,0.5743032332,0.1120153135,0.2611129435,0.7046835509,0.1238060063,0.4396305571,0.0136759137,0.0637274134,0.2325201588,0.4220195776,0.5140076646,0.5149792515,0.6220333094,0.4273192242,0.6686379902,0.0752747616,0.5799589759,0.4403366896,0.4011180322,0.6867064409,0.4839823194,0.4368920738,0.2984611554,0.4882869941,0.3341739297,0.1261832035,0.0723967674,0.3446788952,0.0078090214,0.204661446,0.2220936691,0.4908958512,0.5060725317,0.4921681717,0.363468063,0.7079381869,0.2126898174,0.320598275,0.2324333256,0.111511419,0.7028074911,0.5961783045,0.5750344951,0.1325876254,0.5523004731,0.1038861872,0.4584893052,0.2632938296,0.1458252061,0.1895586352,0.4307216279,0.0683325672,0.2468955529,0.2162926509,0.5862593308,0.2665430163,0.3041782158,0.1753463372,0.4802983453,0.6800585918,0.5573152501,0.668822985,0.5997154377,0.1507397799,0.5978516725,0.3500150162,0.0096932348,0.1451805437,0.2545433347,0.0902633796,0.1532295059,0.2308026103,0.2122040735,0.4361262695,0.5849891586,0.0801740702,0.136834286,0.3613623271,0.103107162,0.2615666372,0.034769318,0.1781312152,0.382693732,0.2523767211,0.5842089868,0.1432001582,0.1858621334,0.4070750578,0.5886334047,0.0622327554,0.2266608666,0.2677671318,0.6448956536,0.7105513183,0.2622526729,0.0887203589,0.2614313605,0.0613622675,0.0368620196,0.1834534106,0.6814748703,0.1977188319,0.2938320926,0.0453603477,0.5987717648,0.2972270063,0.4802549454,0.1111213409,0.0487951734,0.3907350724,0.2346402428,0.6970498238,0.4002955241,0.4761763522,0.4892572422,0.2692826819,0.6506177839,0.5053366868,0.6957183955,0.2326013412,0.4172810387,0.2705785818,0.180956648,0.3210460786,0.6641646663,0.6386596357,0.1262892851,0.6810725756,0.0695870054,0.3543171411,0.6652013344,0.5170291302,0.3774301547,0.6733998058,0.6401027651,0.2010605976,0.3918454842,0.6678935709,0.5851068598,0.1876860305,0.6574853923,0.3584396561,0.0952835502,0.3915208476,0.409369815,0.0017371761,0.2369176182,0.6230963301,0.2943418686,0.4967314571,0.6354840703,0.6816388357,0.3109858677,0.3707190671,0.0260232694,0.6820999719,0.0965392045,0.4149112507,0.4644600952,0.3951775941,0.3130635112,0.1521667835,0.6471461292,0.4124906139,0.2955400173,0.0202561615,0.2931484593,0.5091599797,0.6730835051,0.3292472091,0.1286994933,0.0191542495,0.2274174862,0.52838331,0.2069959557,0.1247419271,0.2928684955,0.6559235941,0.4426099955,0.0566270633,0.0898630775,0.6006479838,0.2455807101,0.2629075713,0.0050774043,0.4982604501,0.2492968172,0.4841200626,0.509774432,0.0051468826,0.0787953091,0.3264286756,0.6914766836,0.6520525019,0.5988073421,0.4875622657,0.0825193373,0.1956600314,0.6804520827,0.3082243443,0.1216283732,0.6669775084,0.4994120538,0.5423455412,0.3229372587,0.5107755291,0.4894022796,0.0162997773,0.5677914842,0.4620763001,0.1531050683,0.345310054,0.5246566165,0.3715177449,0.620344051,0.608121849,0.1323973715,0.2126074003,0.6418530846,0.4150102572,0.1722603221,0.2824108092,0.1804301062,0.3385920093,0.6961595943,0.2061748649,0.4293162208,0.6941487065,0.3258932981,0.0455941365,0.2805265797,0.0355336034,0.6399880817,0.1733555168,0.0510102401,0.1043070954,0.2141421686,0.5540034907,0.2272523684,0.5880940286,0.7115082003,0.6111586725,0.5031458073,0.5550180566,0.048217934,0.6433284349,0.5165915092,0.4984212328,0.4309984577,0.477292769,0.3644229045,0.3413660297,0.4954285444,0.3566912788,0.6272948708,0.2999025973,0.6132893946,0.2950366377,0.3198800477,0.4861602327,0.418815992,0.5930671601,0.2465419069,0.0361638299,0.2697207953,0.4155199254,0.2102834661,0.5968886126,0.3779460126,0.6278634122,0.5658752331,0.1269226085,0.1021638012,0.6269240258,0.5627451804,0.1263843851,0.4935621605,0.1168258152,0.2472936132,0.7031134398,0.1071373135,0.172705405,0.6739911506,0.2623065906,0.254759972,0.4402638594,0.6884032188,0.5283135137,0.5643802913,0.442140803,0.7019286327,0.6059997576,0.1626374378,0.4514553044,0.4807019276,0.3308204043,0.2717581885,0.6288491278,0.1184518103,0.2887726055,0.5719337824,0.2198778972,0.169160067,0.3584042134,0.6681206494,0.2516637986,0.3420194076,0.6853996266,0.5317214634,0.3966744396,0.6543272491,0.0790083719,0.3310124187,0.117819489,0.669815914,0.1446121041,0.1760228813,0.0775998684,0.4844246516,0.2062070852,0.5292674378,0.5226033694,0.6282608557,0.5255614108,0.3425219732,0.4704211826,0.3912081738,0.2169853974,0.0870251731,0.6450659816,0.4556137724,0.2341280439,0.3145772843,0.4992918444,0.5666012717,0.0166416602,0.1175078927,0.5890005992,0.1837917529,0.0619392064,0.0373704952,0.5869184713,0.2899508267,0.3779293902,0.3196638137,0.3157102667,0.0978399644,0.5613166387,0.1614713446,0.3715118511,0.6892263158,0.647905124,0.021631218,0.5908014486,0.1366221208,0.1495970162,0.4237999044,0.6983257431,0.3708799145,-0.2238959771,0.071277006,0.6414384201,0.2546365503,0.09090554,0.5498977576,0.2607648035,0.4972613353,0.0993260613,0.0310246181,0.063991265,0.379373332,0.6775987739,0.3263492921,0.6380039546,0.4512538692,0.6627458558,0.1526221416,0.6832556346,0.2875842681,0.2494418007,0.5564995395,0.4803979483,0.4811890298,0.001299516,0.4548330035,0.1105643504,0.2753966601,0.5923888833,0.5422795794,0.5935847198,0.5448437321,0.4086560231,0.1224664556,0.5169621585,0.4598439778,0.5139122588,0.67273717,0.2177066011,0.6926163736,0.1389423866,0.5204154011,0.1992742079,0.0291605558,0.3918544754,0.4244830991,0.1143883651,0.6359005046,0.0827223101,0.6399950428,0.0461566141,0.6696855821,0.5178128186,0.5593801767,0.4418571739,0.6135289318,0.092191785,0.5327080377,0.2123427356,0.5947072734,0.2267686523,0.0642753277,0.2603218841,0.0603629052,0.3324081115,0.4465160957,0.2483883621,0.0127399772,0.6203291063,0.0308376702,0.3678261119,0.5466433935,0.6566463621,0.2597114468,0.1929572825,0.4291910436,0.0933994583,0.5286639503,0.3462122821,0.0635307155,0.0479467512,0.362347852,0.1389935526,0.1714216797,0.3449707881,0.2334036763,0.3822113972,0.7160021512,0.2105890363,0.3594536719,0.6633788431,0.0083811149,0.3460892926,0.0676648096,0.3608670972,0.7081590602,0.2401595532,0.5370075323,0.6055788961,0.4548523825,0.3232840852,0.1060659687,0.6695914916,0.1378819433,0.1399128373,0.6833932696,0.1363109972,0.7128239092,0.1531089513,0.2929387832,0.6693260544,0.6448070679,0.5302925009,0.1162201426,0.4560744488,0.5392803812,0.7131770887,0.2077336423,0.0197792452,0.5225773862,0.2912372931,0.088238526,0.2612143907,0.4154809285,0.6046980693,0.1689079871,0.4792633459,0.469556097,0.5154799611,0.5945892606,0.611139804,0.6458184356,0.2260676162,0.351056973,0.438462723,0.0224040284,0.1880655312,0.0132451706,0.0174271561,0.3204820226,0.1369016491,0.5745542551,0.4677378953,0.5487900139,0.4767553071,0.5511553713,0.3347089933,0.4153958077,0.6409925802,0.0324692259,0.2115266412,-0.3480614417,0.4081234429,0.234509194,0.6681211364,0.6317556197,0.4193569043,0.0813351174,0.0459729929,0.2567745173,0.4401173752,0.65094076,0.293198107,0.3996695607,0.0853555916,0.1304775394,0.3603390671,0.2246101098,0.08416313,0.1140251734,0.2410299326,0.6059761464,0.4026715517,0.6948362689,0.4996146787,0.0220938822,0.1601902893,0.1587775556,0.3161308739,0.222403524,0.397441035,0.1635437182,0.2186866463,0.2801515057,0.126448149,0.6033805979,0.4112851022,0.6662922131,0.0670255466,0.6410212819,0.4172096877,0.3024160101,0.4110225178,0.6660439199,0.1159082985,0.3548044385,0.4403481235,0.1610099837,0.2502368817,0.099517562,0.6200266816,0.3499675191,0.1744003637,0.3141874735,0.4159367626,0.4870147663,0.5066872212,0.4698671167,0.4939342363,0.2181153402,0.6665493497,0.4127334636,0.257428148,0.0208560833,0.1154500252,0.589133908,0.5694041858,0.4850542778,0.5157550587,0.1739511586,0.4530816491,0.70684478,0.257760577,0.6679770714,0.7091680637,0.4699424055,0.1218144437,0.6159554869,0.4905687909,0.4099100301,0.6312727851,0.1153988508,0.6724343954,0.5399188904,0.6020400277,0.1253703228,0.3409955059,0.388443681,0.4593839259,0.5869514462,0.1115979152,0.6557287691,0.3170058731,0.2596516225,0.4358479839,0.5406931842,0.1015166265,0.0151072341,0.4545083975,0.4506611972,0.3059315283,0.0021960297,0.4669255908,0.0120114296,0.4525672897,0.4857748903,0.5656909284,0.4211006248,0.687669655,0.5641511752,0.2871284981,0.0076957644,0.4763036193,0.52109745,0.613569977,0.6613207362,0.4389507341,0.5862595294,0.1649876355,0.6477255208,0.4208705528,0.2603813183,0.1232998824,0.0188491781,0.3411599669,0.2500626403,0.1045439385,0.107753693,0.6714257373,0.5790772028,0.6355689631,0.5545509784,0.579902571,0.5909808194,0.5650918193,0.471803844,0.0221893536,0.3089636181,0.3431898928,0.0977703768,0.6706856831,0.0661499641,0.6122912348,0.4279712686,0.507483084,0.5378241539,0.1160691638,0.3815187008,0.5510582246,0.6272884168,0.7124198911,0.0153970364,-0.103452613,0.0395437331,0.0140526667,0.3796019121,0.0347022721,0.2989944717,0.0130147807,0.4379573477,0.3176112627,0.4446767582,0.001453437,0.6629168055,0.098393748,0.3399793593,0.3675564982,0.1788032223,0.4017406693,0.4957859445,0.5886409721,0.5107014634,0.0103060158,0.062325041,0.298146515,0.1726005787,0.0686968083,0.2417097605,0.3784488142,0.4609780217,0.6561923126,0.4262702315,0.5037199267,0.6134416909,0.3563670569,0.523772836,0.3936178624,0.4791123701,0.3953790793,0.2347007683,0.2846073187,0.2721311979,0.3053450324,0.6236899526,0.2536149361,0.3633855802,0.276332903,0.6221904327,0.0681951513,0.7096721594,0.0869553333,0.2649298585,0.1622397833,0.5204451299,0.3590416504,0.6111649097,0.5441841317
   0.5538193121,0.5410419637,0.1887553631,0.0434324025,0.4508909871,0.3727063285,0.103049177,0.6875474329,0.5308260111,0.5615037486,0.6478234386,0.1136584345,0.1865254463,0.6346078808,0.4906302145,0.0906043295,0.5898635711,0.4489372112,0.5633096706,0.3956722353,0.5284401655,0.0641190352,0.5758733564,0.4363021973,0.6258831447,0.5767632672,0.5409492749,0.136524964,0.2130552804,0.0891933312,0.2425270475,0.4219033369,0.6574695597,0.5045653632,0.1378911799,0.6583841569,0.4331955995,0.3108433518,0.5598008635,0.2144356213,0.3385291215,0.4334248539,0.2219482087,0.6672362124,0.3893979483,0.1313600442,0.613270666,0.4091846619,0.6361572974,0.4303017756,0.4856352178,0.4810057103,0.4828502195,0.1229011844,0.56911807,0.5348599845,0.2890817182,0.4662669923,0.7078840485,0.1298225815,0.367276299,0.3044119073,0.1132370843,0.0395378286,0.4393426993,0.5956146437,0.0776944741,0.4645294173,0.3652270368,0.5482596152,0.6911729315,0.1813789459,0.4894008345,0.1569823624,0.1621826868,0.5974391134,0.1387362046,0.2026293116,0.1523551165,0.4338368569,0.6662454917,0.5420359662,0.5767711793,0.0647076537,0.1860124076,0.3119588447,0.5092404154,0.0449157581,0.3197630112,0.5909912498,0.0068796435,0.2932780001,0.6283956844,0.1013486706,0.1139625533,0.2843729175,-0.2905354642,0.0507051461,0.0090946608,0.0384772403,0.0931656111,0.6408461735,0.3056719927,0.4084253129,0.4936352467,0.4018698007,0.1708033673,0.6244536186,0.0391067639,0.1420793733,0.5060194435,0.0578640685,0.1156349249,0.1171987501,0.0821606749,0.3894615431,0.4681483853,0.2461828596,0.5445285823,0.364385112,0.3736986424,0.3106580445,0.1490764491,0.0801697638,0.341161054,0.5251296967,0.0931437121,0.4684538283,0.2458191225,0.6226237314,0.3982647561,0.5188664863,0.0907682807,0.2654501257,0.4842515504,0.2780153656,0.4417576358,0.3288313636,0.3580420303,0.165346721,0.3753297488,0.2557988509,0.3483033383,0.5404063455,0.4407405804,0.6092236391,0.20763115,0.1362777649,0.2788331843,0.4827052531,0.6143422731,0.1621657527,0.3875504459,0.5360574426,0.3249782493,0.0960882424,0.2379945375,0.3058690923,0.7143621439,0.3006472812,0.0113367152,0.3535456677,0.1240265522,0.2760373278,0.4222358,0.502321557,0.1914833751,0.5300987182,0.279445076,0.6215326251,0.2419684634,0.5128735568,0.3280473278,0.0332248073,0.2738419263,0.5211040027,0.066442858,0.5942178337,0.6473617168,0.3627776073,0.6830904863,0.3286716278,0.2630637066,0.5979949166,0.1459828451,0.4716865859,0.4631094796,0.6434502681,0.6434871,0.5417830046,0.3785868683,0.2032714917,0.6825757153,0.6120245428,0.2760490129,0.0577125205,0.6907526619,0.3993712601,0.3048539908,0.3525039472,0.2330331336,0.0296333694,0.6205033538,0.3811120412,0.6625386868,0.0189444036,0.1443227402,0.079167274,0.5620794595,0.2945399964,0.7152807896,0.4131573324,0.5798258905,0.2651034326,0.0129542004,0.202472786,0.0711648294,0.0174763406,0.5154542011,0.6365966094,0.1002758357,0.5097337351,0.0398238972,0.2313995428,0.4523054268,0.3503049103,0.1691290136,0.4924053281,0.0473874061,0.6711609779,0.3432028487,0.2343131746,0.3097646493,0.7069816019,0.3594263342,0.652206424,0.1970587116,0.4006329432,0.1581794447,0.3729102446,0.3948317674,0.5768994965,0.4127259249,0.2394571334,0.660328548,0.0276255114,0.1134993916,-0.6030667281,0.3790135166,0.313197764,0.505028676,0.519539133,0.4287302214,0.1749057216,0.0063748046,0.6772851672,0.4298109513,0.0438812799,0.6777123593,0.3941741545,0.6475424736,0.005089021,0.1737036526,0.4637245184,0.0344775495,0.3275303201,0.563965113,0.1010071787,0.5499395227,0.0112408849,0.6065665095,0.4467752423,0.4661613712,0.1937375007,0.373627208,0.49383052,0.6265258726,0.20278259,0.311909077,0.4747219617,0.6334297278,0.3211945207,0.4875228651,0.2107139123,0.0580494423,0.5075859849,0.3295688886,0.2086723787,0.5991703247,0.2873613867,0.6629160899,0.198868543,0.4493880109,0.2138881747,0.0664101218,0.3743262097,0.4168542866,0.2064454554,0.4822466506,0.6626078429,0.5772783857,0.6484107106,0.6526516388,0.6748995217,0.0393557664,0.3068199528,0.0480899275,0.2401437729,0.3456832004,0.5028566783,0.2213120347,0.5857941093,0.6068038823,0.0857783649,0.2696440732,0.6533238563,0.5705568008,0.7135957172,0.5804564362,0.2395348532,0.4258660229,0.3058156531,0.4620703716,0.5906946305,0.5809588988,0.4865997716,0.0767392114,0.1143209695,0.6309862422,0.0981510086,0.3270881324,0.5474966466,0.13185981,0.2943440184,0.0215232685,0.0202891336,0.5803347521,0.1306909766,0.4956103039,0.3956593254,0.2708984283,0.247413479,0.4202376934,0.6093279606,0.3876486174,0.0877185969,0.3428561777,0.4481319395,0.1587971167,0.6908794452,0.4986628455,0.5071037068,0.6822478855,0.5925984411,0.6020079056,0.4249528844,0.3613527678,0.4389453991,0.1557137599,0.2101667483,0.3515115837,0.2386095018,0.5711559873,0.2807782567,0.3633470217,0.4017312934,0.4083447867,0.5950745427,0.5411292627,0.6906900495,0.7082338894,0.1644473653,0.0241008734,0.1827739721,0.6499151064,0.5103089786,0.4857011613,0.4959546652,0.1791884714,0.4890088141,0.5631614601,0.6335683588,0.2065352442,0.1034632703,0.65721349,0.0539672251,0.0776678566,0.4245976959,0.4287452544,0.6468316,0.1154126922,0.6681332124,0.6424469254,0.5228883573,0.3224212527,0.7120821603,0.396431972,0.0350510362,0.2900856114,0.2789596193,0.4315819637,0.5370075758,0.5918415676,0.6797366994,0.5783984004,0.0532655185,0.1526110421,0.5849223716,0.3458173904,0.0926376607,0.6744283525,0.2412355495,0.0061060387,0.6090807911,0.6473538769,0.4852261304,0.0263765197,0.4619751962,0.3155616771,0.1663784573,0.1909570587,0.1667588226,0.6994829489,0.1196265044,0.3928044859,0.1732479131,0.6321214045,0.5493496256,0.1258961417,0.6501813251,0.2961981105,0.4763510386,0.2853972279,0.4784631636,0.0344042363,0.4219843824,0.4255467014,0.4457234675,0.6584489076,0.0798926266,0.6464987784,0.0045709502,0.5292023296,0.0908274109,0.1497613625,0.7130146729,0.2841923272,0.1539729961,0.668246773,0.4541138894,0.6856999279,0.2408821829,0.3259317217,0.0298850655,0.1142593508,0.1928201032,0.4765417001,0.0188397283,0.1088655939,0.6104966953,0.4911960364,0.6060276557,0.6781669132,0.4316738857,0.0071203529,0.6790282816,0.44033841,0.361198748,0.6435034155,0.5145916908,0.6446503482,0.4875397688,0.4828371814,0.1814305704,0.3134421839,0.6107034563,0.1408900338,0.4515462946,0.6472791948,0.2529152985,0.233633078,0.2638198446,0.5494336011,0.4009333005,0.1534611795,0.428452537,0.6599696571,0.3949058438,0.2342022351,0.2119378823,0.4735453758,0.2264238767,0.1282450072,0.4071857105,0.5772105181,0.4833431848,0.3814969352,0.506599634,0.20089881,0.1642007146,0.3834891104,0.2065050425,0.6351627774,0.480351822,0.3945433044,0.0260058549,0.5622994433,0.1864860368,0.7029737834,0.7153761445,0.6871286805,0.1413966993,0.5371708954,0.466369052,0.4025695746,0.3277022266,0.3737689573,0.0576313414,0.2284631,0.2169661615,0.1903931791,0.481062264,0.3774536283,0.4553473199,0.2790461258,0.6553706056,0.2430462211,0.4734512867,0.3128761713,0.3306891492,0.1694351938,0.5717983271,0.6902643434,0.2370459352,0.3728384229,0.6785488304,0.3368757123,0.3810093249,0.0169818141,0.4210684853,0.1437412106,0.0539685195,0.3382674495,0.3596420395,0.6588472735,0.0752530722,0.2848061767,0.3070883231,0.6867103851,-0.6530162041,0.3767021998,0.5319493162,0.500437806,0.1003488838,0.0294461748,0.5014711251,0.2606841422,0.1435476009,0.6893748922,0.1428966565,0.4152988096,0.3670258597,0.0918740279,0.3571749756,0.1798208964,0.3133652306,0.2580682189,0.0136044944,0.7109973978,0.5734956092,0.1220220161,0.6035980198,0.2677919066,0.4888659597,0.6978889732,0.3949077202,0.3765761396,0.400236225,0.5422886997,0.4051659075,0.6149341578,0.308943363,0.213924452,0.2882704702,0.6629559051,0.6411194135,0.1415555829,0.2295349004,0.0694757555,0.6687760852,0.2908433097,0.6954983538,0.6386366479,0.3480310222,0.3434095414,0.310706823,0.5946741441,0.715536284,0.4230744181,0.2954036497,0.4161765679,0.2709078851,0.1759690768,0.4761546976,0.6988351268,0.6242334448,0.5277007643,0.444792365,0.7106339813,0.40606004,0.3314269024,0.0181871075,0.3286438811,0.28522579,0.4535520352,0.3643429997,0.1340878826,0.5939240769,0.6948466422,0.6403861934,0.1022361265,0.4154173082,0.3695807387,0.4162089858,0.209869905,0.0057908608,0.5026671346,0.6090352825,0.6544181791,0.5649796494,0.6213978604,0.4257286812,0.1142353869,0.6235474421,0.305185116,0.3749929383,0.2585795873,0.2721577046,0.2256597931,0.4246223576,0.0704605738,0.6891109143,0.163506292,0.2315587754,0.5253444817,0.2927184895,0.0623801631,0.1018799959,0.3675729711,0.5535550555,0.2183527996,0.6875731177,0.695965678,0.4488218399,0.3083070848,0.6973725552,0.6976128112,0.67630179,0.4020535919,0.6250296331,0.2265892273,0.4163664773,0.0215783837,0.6412769655,0.495891689,0.2594358185,0.5914950015,0.6523789453,0.2275793492,0.4723505639,0.0520480175,0.5922813968,0.2493263965,0.1230167961,0.2534925143,0.0581670251,0.6773319958,0.0800490998,0.1031614829,0.2723606126,0.6208397307,0.0482414631,0.3934375353,0.1201268944,0.4244885655,0.032919275,0.471004524,0.0401874452,0.0669826616,0.3899788123,0.6661545414,0.1669646255,0.4035190569,0.2048387697,0.597567222,0.6640401567,0.3182955086,0.2117360728,0.1391307786,0.6750646816,-0.1124135334,0.6518904053,0.4493494284,0.0797090776,0.6853110539,0.2315316943,0.0901084667,0.4122397741,0.0433809341,0.6410637236,0.130713384,0.5112498799,0.3536284759,0.2076803477,0.5825900437,0.5441038193,0.2301450917,0.3433270502,0.1789161915,0.4042483023,0.0718007597,0.6368038929,0.2299307971,0.0408392168,0.0570388347,0.4955889937,0.5613573702,0.4197428175,0.1632454739,0.2971169513,0.3612410817,0.3507750043,0.6441703309,0.6731655888,0.2398565361,0.5838743979,0.4157263251,0.2717485399,0.5434685706,0.2147360459,0.2726849053,0.3371778243,0.6150075272,0.6509967812,0.3992470063,0.0904631384,0.6451855437,0.3724537325,0.0406115457,0.4080380947,0.1443957282,0.4952099139,0.2863446135,0.6833574035,0.6058300933,0.1690456144,0.0023402268,0.2059597173,0.6152071122,0.2333032148,0.0155006093,0.3263018656,0.3938856058,0.5792823276,0.6551114766,0.6857675769,0.0680874322,0.6663912392,0.4490571462,0.408297657,0.1643045931,0.2047783476,0.6314588544,0.6803200651,0.4449768649,0.3689087839,0.602209894,0.5354094457,0.5835648597,0.1597745337,0.4089226101,0.0175640682,0.3916906031,0.2991425205,0.1843152609,0.2762274248,0.0665338604,0.288032591,0.6200812936,0.2517536957,0.4208028047,0.1903820719,0.5344896562,0.1470611033,0.4055862624,0.5471430691,0.0706511746,0.3590324605,0.710961428,0.6361010861,0.244982874,0.6815060975,0.1301618876,0.0065642665,0.2598095745,0.5319783891,0.7094583493,0.1114231831,0.0998821569,0.1577303517,0.457268652,0.7068430181,0.4773889126,0.3608238613,0.5130335742,0.3729617324,0.1702116725,0.2624570726,0.4163961945,0.1146055259,0.0190709381,0.0129706768,0.2442904397,0.5869093146,0.2301231904,0.7062104233,0.3213573838,0.7038303455,0.2153996506,0.3520058601,0.1642314087,0.4785759786,0.4400828796,0.6738701991,0.6090893157,0.572820571,0.2431151098,0.607384876,0.3776542456,0.7143343186,0.5564552762,0.3570562118,0.476252349,0.4430229852,0.6426494539,0.2278234234,0.2182212199,0.353860888,0.283750406,0.3320753306,0.4118514486,0.187383341,0.2288323001,0.468992436,0.2495189118,0.4441492588,0.3399820532,0.3917493195,0.0961082602,0.0786395793,0.5987554974,0.0509560778,0.5012548714,0.1420888837,0.1618183355,0.0965763442,0.2575745322,0.4589607629,0.3722746056,0.2263900205,0.4207880623,0.2181671305,0.6093363876,0.1554519125,0.4006964802,0.4268463821,0.2104994473,0.3165182615,0.4133774759,0.0327039345,0.4368663782,0.4980583583,0.7156971855,0.0254054296,0.3696754569,0.1062334141,0.3056386791,0.5813237945,0.5060683496,0.0024140343,0.1440109112,0.1687583328,0.1276649699,0.3800172627,0.0310558075,0.5285830968,0.3810284081,0.4266015238,0.352048705,0.3888300262,0.0937893783,0.0022154933,0.2743239428,0.4587042531,0.5361599279,0.6821251785,0.6485439489,0.3921302011,0.3291646637,0.6409218559,0.708589848,0.3509000493,0.1029530006,0.2707727068,0.0877178468,0.3681673844,0.6019845673,0.5027681026,0.565948401,0.5630921425,0.4709415563,0.2923431035,0.0237229832,0.3547338337,0.0300730664,0.1095545286,0.0084836445,0.6882698566,0.0571206312,0.1699010331,0.4795661512,0.2250280119,0.6157963319,0.1228619559,0.2994701325,0.5093793549,0.0262636307,0.6099108694,0.3962621721,0.4794232687,0.1376247119,0.0969027375,0.4342325584,0.4633224727,0.0593351807,0.4124843709,0.3700498149,0.4579071426,0.5501711247,0.3260651209,0.0561498596,0.0642994638,0.3656312173,0.7063409983,0.6337278031,0.3330422884,0.3543109393,0.4084133928,0.0304636087,0.3994738623,0.3882226574,0.5769767313,0.3455200081,0.2986123802,0.5385928563,0.6290210364,0.4998543667,0.3300465999,0.1915733296,0.367324218,0.0583406539,0.1157746748,0.4598398939,0.3822730886,0.1755474114,0.166413308,0.6089621136,0.5904776248,0.2375410509,0.1917889684,0.2230495455,0.3737060134,0.3115928201,0.3249267895,0.0190741546,0.401208336,0.5195949469,0.060845908,0.0993616105,0.1406219699,0.5673527434,0.3224365238,0.0037095278,0.6033945873,0.6300415424,0.7153280478,0.6979942518,0.3708359282,0.3447937272,0.1907500557,0.195140403,0.5628918648,0.2726989456,0.5899135398,0.2245802928,0.5715573936,0.5220425554,0.6751691136,0.2790566598,0.4247229222,0.2582472193,0.3196721418,0.3889416174,0.5814882006,0.2321723128,0.6042456432,0.0817667471,0.3901394841,0.5055760628,0.5098777316,0.4949957347,0.4650473552,0.0395033935,0.370859493,0.5140325961,0.0374291359,0.300007299,0.4645288952,0.5965720128,0.6170643958,0.7017373234,0.133469487,0.3307087073,0.0789528441,0.0216289117,0.1358361266,0.56791188,0.3193034149,0.3049654058,0.335536443,0.6127949701,0.2425156055,0.4682917146,0.4362126275,0.3197640421,0.6233452418,0.3979742238,0.0794994865,0.7024955331,0.2917998609,0.0608006948,0.0330376682,0.2092236233,0.6209791631,0.3495661515,0.2047690507,0.5110029621,0.3439886569,0.2689261955,0.6311620596,0.2114287978,0.4747232602,0.0981158425,0.2480012032,0.0325195079,0.2234192812,0.5912473767,0.5180184419,0.1476609563,0.5665915442,0.2610905613,0.2697805482,0.0814140419,0.1829007133,0.4270563013,0.5194187923,0.0382715851,0.6641484071,0.5980822936,0.4152097393,0.2547820104,0.0393268327,0.6616174344,0.5042104101,0.4808764525,0.1281438865,0.0894891534,0.4735601539,0.3286943403,0.6252333922,0.4571318203,0.6733432181,0.3666955728,0.6168431309,0.4235230434,0.4155338012,0.4815925361,0.5645482727,0.2710727413,0.0650031741,0.3591241051,0.5208852424,0.3658069727,0.2934166857,0.2935414443,0.3139957515,0.4959579534,0.3622246287,0.4166786427,0.7133337267,0.271120419,0.1980389844,0.3261923072,0.2794964604,0.2911467825,0.3786342591,0.2877086328,0.1623167335,0.3119476869,0.4283124605,0.4351241867,0.6247630748,0.4378444341,0.2783213975,0.1491635067,0.0992899449,0.3602102502,0.2163056726,0.476437329,0.3990597519,0.1238798614,0.2770526912,0.2720619957,0.0976089837,0.5848884914,0.0676912337,0.3013904681,0.0087807983,0.0128439386,0.7068974862,0.0165950427,0.1190752035,0.524357344,0.1961170001,0.2075150253,0.4292277293,0.6316323175,0.3740381396,0.3800638255,0.0272701638,0.2162089089,0.6939143535,0.1210495734,-0.3196396163,0.2141416976,0.2941894927,0.5366541519,0.3376529746,0.3013277545,0.2263633637,0.2563595464,0.6620524665,0.6875609802,0.006793339,0.0385777869,0.1564069852,0.0464741227,0.2992412646,0.1163736004,0.1333093821,0.1893692937,0.3253124553,0.2506606884,0.0688402297,0.6438088955,0.705527282,0.5941383769,0.521458446,0.6298187148,0.4523823095,0.4851607705,0.1378855756,0.2482151229,0.5118219445,0.1095431529,0.7033574115,0.4297314641,0.074484863,0.5358562344,0.2414676905,0.602340196,0.5805433654,0.5365324698,0.4940641117,0.2147482002,0.1503172653,0.4929951002,0.1923093733,0.6241027488,0.2305612214,0.3074005702,0.0971933108,0.1543379509,0.5698023534,0.4746896069,0.2000016195,0.4112705477,0.261937393,0.7106967325,0.0785218514,0.2184065717,0.3761170625,0.3972001456,0.4356053541,0.2489804265,0.2757315967,0.040656853,0.6251711033,0.1352623222,0.6449498421,0.289517784,0.1837358865,0.7001425568,0.6010172922,0.0366885055,0.3735248902,0.4958812658,0.3500192497,0.0968703885,0.3210765795,0.1965095777,0.4543528577,0.5228957339,0.3942969296,0.5973079468,0.0742827264,0.0432576209,0.5265575292,0.3132288139,0.5314459484,0.0756243077,0.666920386,0.5906420958,0.2028084591,0.7026980174,0.6315104328,0.3770488592,0.2025986049,0.7030016561,0.0865129717,0.2976988559,0.6992836845,0.1140166894,0.5823518431,0.3233151958,0.0146018889,0.2467827775,0.7002989393,0.240924031,0.3969977001,0.6235594157,0.020573982,0.3060347803,0.0419987239,0.5041034827,0.4387522417,0.421564031,0.5394070599,0.0972287674,0.2340612038,0.6497765433,0.6175659751,0.2586290338,0.490928496,0.1434223743,0.1625275589,0.4458471392,0.5885656989,0.2482356891,0.5705025804,0.1818239832,0.043585558,0.5384687289,0.304579835,0.0352993718,0.5430127863,0.0795325122,0.1748668733,0.4976919496,0.5013196313,0.5416804841,0.1970296615,0.576514081,0.2354226644,0.0743474703,0.447986601,0.5135411589,0.3384250131,0.0015920521,0.0721533332,0.0462094741,0.3363117937,0.3036378022,0.1526267921,-0.0751445394,0.005190187,0.4454197637,0.6377787694,0.4707521707,0.4479629124,0.2815410772,0.5921308465,0.6017237891,0.5185123345,0.378115607,0.4539403879,0.1492074454,0.650546244,0.2686064655,0.6575829406,0.3715485474,0.3542325723,0.0308206623,0.2086287988,0.3528449924,0.1904663415,0.6453859263,0.0062662574,0.5726794258,0.1211450147,0.379334985,0.6343664159,0.0146402009,0.3465554052,0.6169218044,0.1360652068,0.5769173712,0.6537028206,0.322075017,0.6140109732,0.4805584673,0.1408210303,0.6092159851,0.5630728258,0.3727454963,0.0822532953,0.0427406541,0.1882756516,0.5907953633,0.1946639692,0.6230255969,0.67452072,0.6709215679,0.4024042682,0.6534995558,0.2116137627,0.5042439427,0.3364406725,0.5957989047,0.4581945233,0.6812963904,0.0685852752,0.0869622591,0.2607453742,0.2462400877,0.2917489344,0.2810430515,0.6173034101,0.0122244281,0.3698844509,0.2705024938,0.1801657434,0.0356051147,0.2610289616,0.0074644334,0.0769724944,0.2916851647,0.3035260995,0.6161624463,0.6497192812,0.1925670064,0.4090648357,0.1008796547,0.3557645432,0.5158759879,0.4092199167,0.1849835849,0.3224249193,0.1107106452,0.5921656159,0.1185801478,0.243420296,0.2621780015,0.1673146343,0.3766841471,0.2500423489,0.6701932583,0.2740815078,0.2363716415,0.6691830413,0.2092127315,0.0479476908,0.2821436462,0.4992834609,0.3592736361,0.1074972886,0.4816408975,0.6721642899,0.4522990307,0.7139419059,0.5479231559,0.2832299288,0.6977839943,0.13760873,0.377097288,0.6602192123,0.4821262182,0.1932210074,0.2028440793,0.6461740838,0.6548231588,0.4202927024,0.393905096,0.6308106367,0.5629359471,0.3873434206,0.2001333184,0.6238360718,0.4588451477,0.1971001171,0.6625808282,0.3899557471,0.6203007969,0.2619525927,0.2895122478,0.0509704473,0.3911038443,0.3990942512,0.6354658901,0.6089181568,0.1296290275,0.567622685,0.3209849572,0.690168549,0.6419200907,0.1741457032,0.4576623441,0.0186579163,0.1863665555,0.078269598,0.6596357211,0.0331586102,0.0309033428,0.2525059215,0.2455818869,-0.3397182738,0.5356812123,0.0068102671,0.5512754904,0.5513892928,0.4474385959,0.4972252024,0.3784525119,0.6734317188,0.0934722154,0.2848945347,0.2861611402,0.2079241109,0.1891067612,0.3742662584,0.5160352184,0.2443130785,0.2880151057,0.4045909487,0.2358186902,0.1327057339,0.3664199978,0.4762403669,0.6775135922,0.5324240065,0.6587599845,0.1149542149,0.4804903288,0.6149154715,0.0654318044,0.2664519973,0.5715525207,0.02551404,0.2530166092,0.5092586696,0.0151247401,0.0978211073,0.0587522332,0.3368037535,0.4748190125,0.0894242829,0.0083209943,0.5280050302,0.6768548173,0.6176747117,0.2096907165,0.5507805779,0.1337484293,0.5051290287,0.5880307026,0.6369493097,0.4189899413,0.5887922902,0.1199345947,0.5800992099,0.0107520267,0.28066047,0.171553365,0.0605830052,0.4394356316,0.4752308814,0.3139125308,0.609709523,0.5824977704,0.00848828,0.2808729143,0.33058452,0.2685529691,0.6177587734,0.1060227236,0.1039332992,0.5556872649,0.4957415659,0.3632425842,0.5959373764,0.5964462908,0.6692048814,0.1138109506,0.5055700772,0.3962906636,0.2004183025,0.1473866254,0.1944982344,0.7034749182,0.500702631,0.638180539,0.3154019299,0.5511892245,0.4203138057,0.2687866665,0.4852760243,0.1935597522,0.5155301781,0.6889422126,0.4916629963,0.1538240368,0.610891713,0.0543511007,0.3258840403,0.0896875145,0.511530555,0.4059889443,0.3076132936,0.6929309318,0.4395676965,0.0636265898,0.5041561344,0.1954229168,0.0994001785,0.6824377064,0.1420037829,0.6832449752,0.2968875151,0.0141646948,0.0384674558,0.0948465952,0.2837137056,0.5379000039,0.3631368405,0.5115511106,0.318124529,0.3093417291,0.1030554146,0.4093639407,0.4554755481,0.4060988862,0.1595772101,0.4226852451,0.445997595,0.0072942966,0.7137380629,0.4967059382,0.6062784712,0.2677878959,0.0083053167,0.3458950958,0.0606740794,0.1577052991,0.3570173641,0.0971869493,0.069790911,0.0400216175,0.4282048497,0.5685884176,0.6499369179,0.3641034392,0.4834284587,0.5464328077,0.5655094229,0.309243772,0.3592490879,-0.6949680958,0.13583477,0.4882195736,0.0536054694,0.0955305597,0.5344541603,0.420526477,0.4789386617,0.4603509129,0.5689350386,0.3382551889,0.0158484564,0.5387830871,0.5605446578,0.4626027204,0.6559343151,0.3257405069,0.0408313087,0.0523127514,0.4081440232,0.7100055021,0.2987197018,0.4546463328,0.38839725,0.5037922849,0.4550486547,0.3579370038,0.2706303315,0.3382297266,0.0664178257,0.2132268812,0.5046231022,0.6378153964,0.1586219611,0.3996833411,0.5148865366,0.5123716117,0.5904003906,0.1399273312,0.3323659496,0.5271258776,0.3729979877,0.4046225898,0.0302346835,0.5019307577,0.5096230966,0.4608406698,0.0484251284,0.3742772808,0.5998505946,0.20527528,0.0311686922,0.127834444,0.0666160405,0.5723524971,0.0114031497,0.2226564267,0.4414161199,0.6249710305,0.5891647886,0.6516648923,0.6784715833,0.5387788793,0.6512503089,0.4156389691,0.5691577554,0.2481769889,0.0054445524,0.1923706893,0.0018419474,0.3065577118,0.6671441044,0.1615244526,0.6797338717,0.6330086513,0.4307554134,0.6557089747,0.6567127716,0.6627045307,0.1715404449,0.2586664077,0.3520817847,0.3114490879,0.3536871265,0.2965424478,0.169022342,0.0918182579,0.0869367188,0.2091213494,0.5016246944,0.5119863765,0.4901143523,0.5429867196,0.0228623345,0.6549288354,0.2578657826,0.4954573509,0.6223330189,0.0406145802,0.5723480161,0.2887711556,0.1881531999,0.3889383567,0.4295117811,0.0152725273,0.4617940491,0.3396605539,0.5527697152,0.2230759076,0.290562102,0.0611159565,0.4401141467,0.4420060598,0.6282382741,0.1862620044,0.1337450142,0.2607753088,0.0318907138,0.6487026095,0.5636986675,0.4010813722,0.3705299342,0.0629143754,0.5992468365,0.7049175532,0.0949283615,0.3498620807,0.2715063324,0.6117503433,0.0990469739,0.6659969296,0.6899927715,0.4568410811,0.3708029233,0.3198453997,0.0974773262,0.4942759477,0.1636308586,0.6361454857,0.6260678513,0.2715131693,0.6746917219,0.6687985735,0.0161449307,0.56841352,0.6514900915,0.2805188001,0.4910531387,0.5606628425,0.3564667772,0.0755500215,0.3269621106,0.5513254605,0.3108996065,0.4392871544,0.0353542891,0.038260325,0.0398970824,0.4448875542,0.0412283675,0.1423791482,0.3227744265,0.2455969942,0.3389256026,0.2413090894,0.4770034164,0.2624186428,0.6234809066,0.2156464404,0.1678794432,0.6097392469,0.2525693013,0.4143201349,0.3416382989,0.6521807167,0.5365819814,0.0729811403,0.4918814344,0.5502544718,0.2188566299,0.0931825885,0.1478344579,0.4271972135,0.3088433822,0.2055949998,0.678027883,0.0720393928,0.3938875821,0.2515652434,0.7032018949,0.5759549244,0.2729137437,0.280657956,0.21430964,0.704765387,0.2060295287,0.4739326187,0.501245293,0.2513874777,0.5557810274,0.374585418,0.3134636383,0.5711511431,0.6338754555,0.0640004347,0.6499539292,0.1231288077,0.5970773894,0.1799717052,0.0201952355,0.5101776451,0.0825417357,0.5802573838,0.6222241706,0.5033120371,0.5041452464,0.5750857709,0.1961801877,0.0125648826,0.205536214,0.2707647461,0.1353035371,0.1532189732,0.2704982611,0.1956812919,0.6625500425,0.4547009504,0.6139291221,0.6944556576,0.0610255514,0.3780601847,0.0321188177,0.5262023811,0.0444310501,0.5014160722,0.2587087234,0.4616022624,0.0186594344,0.1187760401,0.0141095723,0.4201623421,0.1980294031,0.6672077534,0.1781690442,0.2179897024,0.0510711775,0.3299658653,0.1955230936,0.5129592895,0.2701404041,0.6690871463,0.1591725778,0.7043841786,0.6964409766,0.1104533111,0.4785501672,0.0436730832,0.4261826501,0.5188919623,0.2805725266,0.1771805554,0.3038115601,0.0492168874,0.4108938844,0.6938032561,0.5827013639,0.6181611109,0.6672730769,0.5983345993,0.7126496619,0.500662836,0.2297141483,0.2760901123,0.5345801812,0.1081069842,0.42750723,0.0117746121,0.2557543681,0.6880260752,0.0129351855,0.0308783963,0.3582793297,0.1050734173,0.6812185255,0.33693767,0.6998298498,0.2645436078,0.5172689772,0.6309536322,0.6040064259,0.1925146797,0.5643039765,0.3624062376,0.2455031385,0.3232762335,0.1767821075,0.0269154397,0.4417883535,0.3899721566,0.5475951761,0.3677288751,0.1277942093,0.2898928739,0.394452758,0.6391799624,0.6297178305,0.3822372614,0.6377834205,0.5382229136,0.5867704132,0.5896449249,0.0164314816,0.5451522883,0.5880919177,0.505423641,0.496051629,0.3149547492,0.394027406,0.592477255,0.6391290743,0.1445087841,0.6255866853,0.0317615098,0.2335586586,0.6879267757,0.2917788665,0.6207562272,0.5359851566,0.6117662617,0.2743278454,0.2134789803,0.3396299361,0.1927871083,0.3626665351,0.704068165,0.7030251345,0.4871871838,0.6563752555,0.2260517641,0.2781872869,0.0079390186,0.6717641097,0.2985099383,0.5530416072,0.0038320647,0.2797283224,0.7062204769,0.018808576,0.3981254836,0.5013523036,0.1733539124,0.6896643408,0.0351486849,0.0771888486,0.5236064905,0.2705908091,0.2756415579,0.4801007909,0.6557072895,0.40904602,0.5876139576,0.2712885451,0.6320222614,0.6650465895,0.1859521282,0.4112176665,0.1818685667,0.481934018,0.5933623687,0.3804830011,0.1907017095,0.2390651838,0.1561383154,0.1200637691,0.2079256451,0.1011355262,0.6373525687,0.2517361758,0.4097566268,0.3715231896,0.3355725782,0.3015342323,0.1300553567,0.2121020934,0.6525227335,0.3060652081,0.697714321,0.4597399502,0.153981677,0.1905787645,0.6584428934,0.6361614944,0.0878130547,0.149164009,0.4650980222,0.2106581035,0.1743944415,0.5694302408,0.1643460578,0.4656473603,0.0893666021,0.320023498,0.1170723091,0.7071675367,0.1089486398,0.2738080166,0.5656219422,0.442949742,0.0672296834,0.4299780213,0.2850682997,0.5086794793,0.6361384793,0.0880112658,0.6337172664,0.6988147639,0.0858452183,0.6958403962,0.0988794286,0.6014624311,0.1932630312,0.0261208457,0.2788249857,0.4724452015,0.4217963525,0.2914153444,0.2791312486,0.1504331273,0.7044368505,0.3014530226,0.5723333465,0.496604517,0.1797052379,0.0848348509,0.0347448849,0.7027728888,0.5398863937,0.3702396812,0.6640050301,0.3721437475,0.2172843957,0.0738183977
   0.3884705877,0.5219119093,0.4456294559,0.3442810172,0.2024252539,0.016266869,0.1998388864,0.3975332956,0.6725731565,0.3498743169,0.5750217533,-0.7148317871,0.1337645654,0.4126256703,0.0590817603,0.3832589017,0.1180446784,0.2853846931,0.1726229947,0.2116410166,0.3324410549,0.2460865773,0.3273401635,0.0720246583,0.2508952546,0.2226015249,0.4457161961,0.5146383046,0.6790859363,0.1005689536,0.1216467703,0.5923958749,0.1459703232,0.4980001983,0.5679441873,0.6954059129,0.3161269559,0.2522676984,0.384764973,0.0015285001,0.0953359526,0.6693551126,0.6353526313,0.3181387014,0.2523473373,0.1668711058,0.1795062656,0.6677897354,0.4032821348,0.173227974,0.5152341806,0.1144372036,0.2875315686,0.3185015271,0.5334847345,0.1861718787,0.6132629894,0.2075912695,0.5119324829,0.3974462745,0.312151476,0.4409118777,0.1256036375,0.7091815611,0.3814364837,0.6518760986,0.1274926837,0.3600520823,0.0342764448,0.2842467222,0.1504921238,0.2801934622,0.3897690594,0.658908591,0.2567015107,0.1016193392,0.1194612203,0.5356199184,0.1005742369,0.5373728624,0.2880790113,0.3192183377,0.5465433037,0.3259271244,0.4214845547,0.3538891032,0.1495500783,0.7086758235,0.6710515396,0.3633954542,0.4741097755,0.1255154918,0.3893747874,0.0500317169,0.4559810924,0.4695352894,0.6659506583,0.0901213419,0.3790571143,0.352676588,0.6131654291,0.4724034391,0.5660970136,0.625291407,0.3782324225,0.6787677614,0.1145426331,0.2496421337,0.3159150448,0.3631144225,0.2536660124,0.5264672647,0.2928198557,0.1651635724,0.5747839192,0.4903381934,0.5532233286,0.2347691711,0.0684208918,0.1101045292,0.4953690007,0.3597586627,0.0366150918,0.5819317006,0.3587839872,0.6724240978,0.2723770535,0.2121386807,0.085157614,0.4123612148,0.004398155,0.4588337221,0.5588065325,0.4759015734,0.605314881,0.2148904491,0.1070102241,0.3984930547,0.6421896956,0.1209936437,0.1659311504,0.1326130408,0.3530554547,0.1689987564,0.4596970098,0.0355752057,0.5832048879,0.1358630595,0.5911909883,0.1456126137,0.3135427947,0.1548126131,0.6896420719,0.1138314715,0.1947883761,0.2484229612,0.4446660425,0.5015545337,0.1710746042,0.2737768693,0.5601809239,0.6078575399,0.1966073068,0.6006402951,0.5492546847,0.4941620883,0.4484781757,0.3152027692,0.6077417528,0.2819034263,0.231793534,0.2280455027,0.3926687291,0.5709187276,0.4968170223,0.5808096772,0.2345810503,0.6488899067,0.557880293,0.1351412485,0.5331712788,0.2272424635,0.6887787491,0.6713358641,0.4142450688,0.5572704425,0.2446248793,0.4733476099,0.2193911791,0.1229951371,0.6611010461,0.6488788634,0.6283559219,0.28664328,0.3865479098,0.2064079436,0.5618495866,0.4216338629,0.2036914649,0.1321954239,0.2853780384,0.6296920239,0.1698466897,0.6669605932,0.1893183752,0.1916652057,0.545370857,0.6678852709,0.0099122946,0.1587920611,0.4648586244,0.2721905796,0.0044766953,0.1661641057,0.5448674234,0.1970158146,0.1055284351,0.162212526,0.3037577093,0.6645851681,0.1986355682,0.0246162253,0.3056137296,0.5487843992,0.6635488617,0.026865038,0.1219366593,0.1157277141,0.1341787238,0.5496324335,0.5310577963,0.312913419,0.4371405581,0.0472033683,0.6912403226,0.2425326816,0.6863429526,0.271044634,0.0354992941,0.1054026441,0.0616818696,0.4275354535,0.4716317092,0.3182254219,0.5131450458,0.3199477035,0.4082611137,0.0901408202,0.0533424467,0.5070004623,0.5620737282,0.4283368031,0.2074840927,0.3772483766,0.2867875374,0.4072034321,0.3146082448,0.7137042309,0.5023196318,0.6275153348,0.2827653622,0.4096714303,0.6224618713,0.3952305633,0.474623393,0.550351937,0.4156859814,0.1948549374,0.037928827,0.3790715756,0.7023034377,0.1426046318,0.0788529353,0.4573638869,0.4380245305,0.3433549743,0.3923039693,0.0506127159,0.1041503716,0.5881708926,0.3494532726,0.5079913635,0.6662630439,0.2314324768,0.5088903744,0.0254228657,0.0984410132,0.6033667578,0.5884339392,0.4201060296,0.1170672207,0.2117209974,0.0749530367,0.4154890752,0.2773276595,0.0854844908,0.2204994337,0.0066847933,0.1066892159,0.4829432556,0.6819245559,0.1652023867,0.1648067936,0.2987909413,0.4334806248,0.5402575634,0.4109109073,0.0895062059,0.3216294853,0.5148570847,0.3614679824,0.1119618819,0.3209759538,-0.4874086608,0.5236672089,0.1553050811,0.7085000536,0.6064769654,0.1298319228,0.2379270734,0.6312273526,0.5723702115,0.6646563581,0.2275644975,0.1048159405,0.6649152633,0.3039223411,0.309124168,0.3884227636,0.0564886773,0.360155477,0.014993536,0.161319082,0.6606451056,0.3681789383,0.3441246725,0.6281833301,0.4886399894,0.2357211244,0.5207992633,0.2584696408,0.5711040482,0.0641520517,0.6738218795,0.6615868183,0.0969174857,0.3037786043,0.1974023595,0.2927130398,0.2780106761,0.640170178,0.6888310013,0.6491180708,0.1424711036,0.0839630484,0.0804433712,0.7118651377,0.3518036046,0.5407366093,0.4911849526,0.0294599652,0.5098570489,0.4949767055,0.0335385442,0.0015896242,0.6800096256,0.0733302646,0.1368739949,0.1318214731,0.2015875863,0.3901793536,0.4686890017,0.1908899685,0.0756100538,0.3153055575,0.426123235,0.2128426355,0.2473886439,0.185418409,0.1697664967,0.4088247581,0.5844143315,0.5151423056,0.0377206444,0.5785115633,0.278266716,0.3042267228,0.0304131926,0.4930088882,0.6645063297,0.538769115,0.0940739274,0.6960847088,0.710578239,0.5456550135,0.3632896266,0.1837662297,0.4025836257,0.2738203733,0.4912504786,0.5193859313,0.6952811883,0.034230349,0.0993847684,0.5215298365,0.0033441032,0.1750354728,0.3338842981,0.0367509057,0.6121320777,0.4260375939,0.4960147909,0.6598024595,0.2863577341,0.2925660217,0.2752087458,0.6558377763,0.3080328699,0.3071240253,0.189010819,0.1746371038,0.5671051959,0.3074835331,0.2066592182,0.4022653467,0.0831387745,0.1637670691,0.2393814036,0.3760883631,0.1029707796,0.3550376529,0.2408518355,0.0108184272,0.3956344863,0.3954359156,0.2664541798,0.5997894417,0.344052855,0.3601653206,0.5983583614,0.1997482484,0.5526289937,0.2203892832,0.0634664306,0.69806439,0.1467320942,0.6305263406,0.7089476979,0.4278257857,0.6733734163,0.0764430462,0.3878768871,0.0436941157,0.4402841593,0.4892989096,0.4551432278,0.2288209517,0.6412733559,0.6720925615,0.6784533795,0.3890666569,0.6353414201,0.0008745231,0.666560645,-0.2975009664
##end
biasActivation=0,1,1
[BASIC:ACTIVATION]
"org.encog.engine.network.activation.ActivationTANH"
"org.encog.engine.network.activation.ActivationTANH"
"org.encog.engine.network.activation.ActivationLinear"
