encog,BasicNetwork,java,3.4.0,1,1750017932477
[BASIC]
[BASIC:PARAMS]
[BASIC:NETWORK]
beginTraining=0
connectionLimit=0
contextTargetOffset=0,0,0
contextTargetSize=0,0,0
endTraining=2
hasContext=f
inputCount=150
layerCounts=1,31,151
layerFeedCounts=1,30,150
layerContextCount=0,0,0
layerIndex=0,1,32
output=0,0,0,0,0,0,0,0,0,0,0,0,0,0,0,0,0,0,0,0,0,0,0,0,0,0,0,0,0,0,0,1,0,0,0,0,0,0,0,0,0,0,0,0,0,0,0,0,0,0,0,0,0,0,0,0,0,0,0,0,0,0,0,0,0,0,0,0,0,0,0,0,0,0,0,0,0,0,0,0,0,0,0,0,0,0,0,0,0,0,0,0,0,0,0,0,0,0,0,0,0,0,0,0,0,0,0,0,0,0,0,0,0,0,0,0,0,0,0,0,0,0,0,0,0,0,0,0,0,0,0,0,0,0,0,0,0,0,0,0,0,0,0,0,0,0,0,0,0,0,0,0,0,0,0,0,0,0,0,0,0,0,0,0,0,0,0,0,0,0,0,0,0,0,0,0,0,0,0,0,0,0,1
outputCount=1
weightIndex=0,31,4561
weights=##0
##double#4561
   0.0381987697,-0.3738232441,-0.1027362455,-0.0542726124,0.1024891859,0.0028688315,0.2909002094,0.2258754539,0.1242499729,0.1085258285,-0.3180300242,0.1203904283,0.2014882986,0.2896047746,-0.2536666414,-0.107860353,0.3003312112,0.0130488526,0.2502864287,-0.0420717871,0.2770652915,0.3042362112,-0.2504637031,-0.2199572245,-0.0584412223,-0.2744662119,-0.0914995992,-0.2671983743,-0.2214456502,0.037296927,-0.3886460707,0.0365136957,0.496940606,0.4872891676,0.1049519124,0.3167067347,0.0631698268,0.1399293237,0.2072915996,0.3478565819,0.3281112777,0.0005931822,0.3891880142,0.2607190504,0.3682035984,0.2385237547,0.0235609683,0.0156487568,0.5829085897,0.5327380021,0.6065168213,0.5518554794,0.378727298,0.4402310667,0.4953306991,0.0317700511,0.4535217071,0.2079038749,0.65641815,0.4873124072,0.0961121226,0.5429107133,0.4501900697,0.0911285045,0.4449849174,0.5643652193,0.1821559573,0.1407827337,0.4921070791,0.5229086567,0.2096703565,0.5908640079,0.520722788,0.5468484221,0.1485248142,0.1454879681,0.3428535381,0.5692650713,0.636638538,0.4614025392,0.0513341418,0.357235002,0.4305402352,0.4177465691,0.0501784742,0.1106677503,0.1599775545,0.1606210565,0.6471873327,0.2867927231,0.2601963437,0.0241371822,0.2024710013,0.0751602255,0.5184204658,0.2097688552,0.4764598001,0.2390188695,0.2621262506,0.5923121399,0.6459955693,0.2908572864,0.5742761066,0.4244594745,0.5309744355,0.0697582016,0.1684188033,0.3667410379,0.1078525551,0.6365537819,0.3311212163,0.6048232026,0.0937873238,0.3784145245,0.6551255148,0.1435998344,0.0527198686,0.2577410648,0.4910249072,0.577269413,0.4817630127,0.4445718911,0.4577317501,0.3789056143,0.2526701503,0.0366226767,0.3204958966,0.221280233,0.4398963096,0.299978069,0.2945738908,0.6036654832,0.1057965078,0.541426346,0.4196349974,0.3612633125,0.4702058495,0.3822586367,0.507997836,0.0794554355,0.2799587438,0.1374363604,0.2100359488,0.0428888103,0.5245502435,0.225617777,0.2987505524,0.6461031702,0.3656344843,0.0176121468,0.496148984,0.4593587538,0.0324988537,0.4447947271,0.2860446625,0.436219439,0.2225233029,0.0645386003,0.6375590413,0.2120268774,0.5617705929,0.644784527,0.0820678051,0.0247428919,0.3251476273,0.6999480234,0.3675616398,0.2452417338,0.1517426513,0.0195295978,0.7098016956,0.5973437328,0.6288288823,0.6198436525,0.1922780352,0.6022482535,0.4869082275,0.5584533213,0.0668983027,0.6399707504,0.4860496192,0.7062942606,0.5408866441,0.705298083,0.1382908212,0.2572472879,0.124570969,0.2371842454,0.5178070325,0.1975334164,0.1550770453,0.6020274115,0.494093119,0.1639258453,0.6549473463,0.1128563841,0.4075930209,0.0423725862,0.3566778978,0.5006949834,0.1573539672,0.4168386738,0.124203574,0.5391146977,0.7060275709,0.0526920432,0.5451267166,0.6011880587,0.6823472551,0.674604307,0.304284361,0.2239619344,0.698794789,0.3715776608,0.6487729626,0.2775398703,0.04893718,0.0900189567,0.5429909234,0.2256985977,0.6036341892,0.6153803431,0.6775137375,0.2227582022,0.5566162453,0.0016615825,0.40423257,0.3395327855,0.6765972169,0.1192835391,0.6790989268,0.0356021133,0.2139075198,0.4481197774,0.4447502911,0.4762642815,0.2170058198,0.1616258512,0.5516269924,0.6861439803,0.6627992667,0.2029217054,0.4799572897,0.2936697902,0.6881908511,0.3908481398,0.1272692854,0.5436447335,0.2165738958,0.480005312,0.1294765148,0.142071063,0.53512233,0.0695615723,0.4647310746,0.0149220203,0.1210712729,0.6767801579,0.3950285267,0.2072382996,0.4686979232,0.0620389235,0.441181724,0.0263365356,0.6919813911,0.0893277548,0.2897604246,0.6037427904,0.2595984681,0.5281467597,0.5710388979,0.3301149486,0.2542600032,0.4379732843,0.4795092217,0.1630891914,0.2338250419,0.3111364012,0.6765487547,0.0636758138,0.6815138636,0.2827303884,0.5182346953,0.6172745699,0.6054293153,0.5752207436,0.7103709023,0.6434316395,0.0247587509,0.5322841745,0.3975935253,0.6207712318,0.0022524821,0.1606818277,0.4068344927,0.6498813436,0.4323406569,0.3317505294,0.0403474036,0.0160257992,0.1652793084,0.1552634617,0.6170227389,0.440200969,0.0977930108,0.7105263234,0.2754243819,0.2848156158,0.2691000097,0.6784743964,0.1297125069,0.0949477988,0.5245760759,0.2462144192,0.6760603552,0.4344292014,0.6456508553,0.2580928051,0.0911241848,0.0341623055,0.5541868628,0.2727665941,0.0140555149,0.1590010589,0.5448784083,0.0563771953,0.3139827988,0.2032197233,0.4048149759,0.2598949377,0.5945730097,0.6935525005,-0.6661814326,0.2578630617,0.2774955052,0.562669912,0.7080312954,0.1924835832,0.2832840509,0.6883359199,0.1089249059,0.4804867974,0.6575635879,0.1001916426,0.5370854791,0.5433402957,0.4032895162,0.1322608129,0.2531575918,0.5503678753,0.3579523342,0.4193126694,0.5478785405,0.4867668,0.1977455148,0.3359998897,0.5520546621,0.5616127662,0.3632458858,0.209365753,0.3998857341,0.5676126635,0.237732331,0.5888599629,0.078741292,0.2237810536,0.3529400079,0.5661302328,0.2018427402,0.5308401543,0.6922086956,0.2582652905,0.3546050988,0.3858314839,0.022220289,0.7068617401,0.0076596729,0.5454139034,0.2180491676,0.1306818861,0.182532268,0.4650488764,0.3781809246,0.563624133,0.6159679269,0.3410370871,0.0319252445,0.6941166005,0.6440152073,0.2746466056,0.3300672413,0.3865768798,0.2405258429,0.4512942816,0.2879564248,0.6020489825,0.1934943625,0.0948163844,0.0237447176,0.0232597617,0.268429738,0.2220946616,0.7015540483,0.1741528511,0.4623602895,0.655258939,0.1367829308,0.3791627882,0.6419221955,0.1597037283,0.123205738,0.0321775812,0.1406499345,0.0560836282,0.038747989,0.1447864452,0.1958201239,0.3740093964,0.3154113228,0.0680458759,0.2676596051,0.6652834222,0.3626666051,0.2614036961,0.6326550268,0.3256793155,0.3825920607,0.0692111478,0.2170259253,0.125952657,0.4011526023,0.6796731308,0.4956254982,0.0352755018,0.6184097575,0.6286011466,0.1732339801,0.2058374307,0.6929697669,0.1396346779,0.3763142394,0.3713584787,0.4945241297,0.3566899067,0.4306844754,0.6510890086,0.6432403942,0.0443297617,0.1845883733,0.378676724,0.1743728635,0.5066653839,0.0949597002,0.1058749974,0.2227674485,0.5435871098,0.4745883034,0.6895234307,0.6994765887,0.126565585,0.4446417279,0.1835958014,0.0278215102,0.58658226,0.5375915585,0.2433240987,0.2853326612,0.657251532,0.4236735461,0.6365816818,0.6505885449,0.1970884185,0.5417427437,0.4174986897,0.5449629454,0.6726562511,0.7123206526,0.4398260797,0.5791455473,0.5935201808,0.3591939629,0.2134732292,0.3723972626,-0.3664258143,0.6782251269,0.3607574566,0.2354315048,0.4702656035,0.6383481406,0.1985806862,0.5849840221,0.6932396397,0.1653982704,0.5483920532,0.0875821777,0.410299463,0.2118334506,0.6295833321,0.5988240073,0.1049748675,0.7085911462,0.0541386299,0.6647615503,0.4772978393,0.2445184237,0.3298701043,0.4382375456,0.6951959249,0.1096806725,0.5290000006,0.6359384035,0.3546697828,0.1071102853,0.3803924323,0.4635008617,0.4733679747,0.1747235671,0.4744989985,0.0225940725,0.4660516991,0.0250852128,0.4014123605,0.1491020168,0.3255894737,0.1946302145,0.4378530297,0.1497332607,0.0032552532,0.6617600448,0.2134394953,0.3181967603,0.0580153388,0.5755051989,0.246546557,0.5943355437,0.2023581702,0.1670351188,0.2720861635,0.6279301473,0.5619461731,0.5395815137,0.3860939359,0.5721463297,0.2971615589,0.6188807437,0.4615305541,0.3459708319,0.6602170788,0.1504402042,0.122373507,0.6736223616,0.5893908882,0.0862043019,0.195918851,0.5532797531,0.0287928481,0.5966253582,0.5232343509,0.0355944619,0.5232371576,0.3233047141,0.2261910951,0.609822554,0.6303839478,0.2065699205,0.0163687101,0.5193569568,0.0560693813,0.6056016704,0.3563188439,0.1496777863,0.3929673453,0.5079366861,0.0054815351,0.6033892371,0.3975459029,0.1441901732,0.6011640215,0.6374569771,0.4193868272,0.5925663198,0.0303791234,0.3419167277,0.4194872586,0.204588517,0.5130981286,0.1859012017,0.4331196501,0.4424304439,0.4637757379,0.2992195829,0.4796147756,0.0462436026,0.1177490454,0.187521853,0.5924587933,0.2862472669,0.0313289161,0.6679881534,0.6772703477,0.1122782029,0.2707374611,0.1245597927,0.4224647092,0.3335088162,0.3379587148,0.0304860271,0.0733275531,0.2654592158,0.6143578331,0.2174052529,0.4323583758,0.1280567789,0.6521301531,0.1311097025,0.1720622282,0.3163566616,0.065870334,0.0438599584,0.7122796125,0.6679252998,0.1686248216,0.3817625109,0.5701152132,0.0968563838,0.2612183998,0.1809934475,0.306885665,0.3115806003,0.426192239,0.114635445,0.3546227701,0.0817558221,0.228127315,0.5158961167,0.449792691,0.2805915906,0.6820151467,0.383088645,0.6903892752,0.4407547249,0.2908913648,0.2930602667,0.2355890928,0.5268130137,0.0016576756,0.6029534038,0.5597936378,0.5244258074,0.4063432626,0.4995516092,0.3127307544,0.4095947922,0.3824172312,0.2724812727,0.4638027726,0.3064642412,0.3647018363,0.7145382415,0.1318842241,0.5368491293,0.3403937309,0.2020281646,0.7054568398,0.6861393674,0.3796984681,0.4306894083,0.278100434,0.5569890526,0.0151899587,0.2793421841,0.5370666333,0.3231973871,0.3536245174,0.2925769781,0.3184580989,0.6673897535,0.0904865802,0.439755349,0.2315737911,0.6260188114,0.5603249546,0.5839116833,0.6673460824,0.1080973674,0.2174747757,0.3469261901,0.0910668831,0.0521242467,0.0084262962,0.2686928275,0.2846894531,0.3237829458,0.0268809376,0.2263219833,0.6170165769,0.3543303953,0.5758699141,0.4098149004,0.5685964363,0.2300923284,0.5427974302,0.3150701289,0.0489484023,0.1849224456,0.013569276,0.5065803974,0.1938379559,0.3662784511,0.2757655481,0.1834078187,0.1625031838,0.0626325597,0.6717555045,0.2150660045,0.3253474076,0.6665778108,0.6302966077,0.0145751079,0.5369668944,0.5067475833,0.0686394977,0.5178112426,0.089853782,0.5035291085,0.0618051655,0.654832206,0.0850629092,0.5601311601,0.6007132558,0.2935106718,0.0304984531,0.043722022,0.3446491206,0.4343369692,0.6913028853,0.212968356,0.5810191817,0.3552294713,0.0314253264,0.1784126436,0.0785500795,0.1587307735,0.1318546821,0.6270905851,0.6548947994,0.5699868355,0.1690693804,0.2657342942,0.6338543062,0.3977852752,0.6216670396,0.5906795662,0.1164808922,0.1578967535,0.4325663602,0.2279060127,0.0391148506,0.5657917651,0.7002623629,0.1175377739,0.5289559752,0.3179019113,0.3858061033,0.5135787,0.3546687082,0.2838368849,0.4843369972,0.5616111126,0.3366799474,0.6383375278,0.24108462,0.3925710672,0.5110815559,0.7061321329,0.2107052333,0.1075462038,0.4528841854,0.1502144895,0.5337811102,0.6152003674,0.1882820103,0.1058363854,0.3766064087,0.5047479143,-0.0253816749,0.1762077474,0.5856599016,0.1676968613,0.375761562,0.3709570431,0.6433090173,0.568177306,0.4570928503,0.5965314431,0.5910012698,0.4409458554,0.009119186,0.4662034509,0.60580279,0.3811291467,0.4755828859,0.3637056864,0.5387681867,0.2723976956,0.3002292428,0.3347993846,0.6472282514,0.260055004,0.1429611324,0.406594711,0.3724073338,0.3035604765,0.239600745,0.7157006756,0.638528999,0.7118647049,0.4409341785,0.5622836209,0.5166416495,0.5774388471,0.1460631424,0.1049330603,0.3548642048,0.3626052094,0.0319816982,0.7002993429,0.5137246933,0.1378553604,0.0874359554,0.5279310528,0.2940302029,0.5044472471,0.4806708313,0.1246573553,0.4989864579,0.6484803187,0.5823472058,0.5470636376,0.1471413655,0.6843489815,0.040422441,0.5099582034,0.5414539279,0.0254661818,0.0970004196,0.0509465099,0.5446064925,0.3529351759,0.4493418802,0.3050364371,0.5305023421,0.2510272948,0.312825617,0.1307621583,0.604910642,0.4779808761,0.5071222256,0.2004734083,0.3738085933,0.1380507941,0.4800444756,0.4374612023,0.0095980529,0.2996987587,0.1588577461,0.4570323967,0.0190937426,0.3080940071,0.1843270964,0.5026061736,0.0596091541,0.2136117188,0.5427817546,0.2114602377,0.3181418374,0.4249158778,0.4192191116,0.6802986925,0.4156707868,0.5054542241,0.0535100983,0.3874080669,0.1668095084,0.1412746462,0.3844487703,0.1925490454,0.6177618518,0.5225675927,0.3532442333,0.4531469803,0.1020974728,0.0172203147,0.0379907077,0.4149680018,0.6086714754,0.2350859761,0.5722046504,0.101680074,0.274555968,0.407765028,0.5830244673,0.0187561989,0.4226179086,0.2132476695,0.5216880731,0.3834134729,0.6511764654,0.1275804209,0.5704300471,0.6799139306,0.1804960053,0.2004479216,0.116890453,0.4598845075,0.1248099472,0.6803663751,0.0463138378,0.0396379934,0.4872186727,0.014585479,0.2964601867,0.0418306396,0.4997859612,0.4814351507,0.4254445276,0.0847257589,0.4586573511,0.3375273649,0.704173366,0.5201789634,0.3739102846,0.3140960187,0.2389609259,0.6386840591,0.1877718593,0.1015825139,0.2728062077,0.3581569225,0.3951339713,0.0381012889,0.4934152419,0.2497404377,0.2265112528,0.3516156623,0.584820978,0.0822048298,0.3690244446,0.3659387194,0.0060620884,0.6921517808,0.0567480108,0.6274906324,0.3622872755,0.0846110802,0.3810645051,0.3132280578,0.040404686,0.218343719,0.5525370689,0.6755814653,0.5962695883,0.1393635016,0.5952495501,0.6003175356,0.04336412,0.3993563597,0.3465550537,0.349952623,0.0913156275,0.5607467935,0.141125,0.564711986,0.0458166261,0.191036629,0.4240982074,0.5764305182,0.1550485296,0.5843654759,0.6530674462,0.4322132293,0.5898437819,0.2536082964,0.1453072163,0.0785577466,0.3729211344,0.2325421256,0.5148004789,0.1075063414,0.6534926591,0.2283016158,0.5503259487,0.6135879536,0.378349751,0.1232358939,0.6811715985,0.374469171,0.3122563309,0.2651988249,0.4654158171,0.4449109638,0.4289383897,0.3004532864,0.3360498678,0.0745773372,0.1998934393,0.5985778231,0.1508496206,0.1337587477,0.1136794326,0.6199740703,0.5920296858,0.2612134305,0.1232161892,0.4616179218,0.4726042598,0.1004259456,0.6018131993,0.2779491029,0.2855147166,0.5957337097,0.0376485173,0.6433758683,0.1270606788,0.1889722643,0.0269236886,0.1394724003,0.5492877427,0.2166641417,0.0863628997,0.4613707327,0.1751855402,0.3916097246,0.6631420528,0.3366489239,0.2795749458,0.2976372667,0.444160352,0.2394005422,0.2772154809,0.1715685658,0.5562463315,0.3016179655,0.4950409277,0.1226971906,0.2501258431,0.4605546124,0.3836090167,0.3602878662,0.5070348358,0.6266302467,0.1420823714,0.234056333,0.5486247457,0.1111363195,0.3701586474,0.6331042016,0.4535674905,0.6105992346,0.1191254382,0.4903760359,0.4681116019,0.4219065437,0.6668022374,0.0351149166,0.2496033709,0.0924412458,0.6135302285,0.3433894071,0.4626197008,0.6669106134,0.2604190838,0.6985368209,0.1410705348,0.5320967887,0.2166315965,0.3056403278,0.710203482,0.7038812703,0.2740640431,0.2296418074,0.7021510868,0.2943232715,0.5006227888,0.3880745356,0.2218801771,0.386259445,0.5874317184,0.6973524386,0.2346702016,0.0235200348,0.1231737985,0.0267860874,0.5333001411,0.18731731,0.5033613123,0.2956500641,0.3622105444,0.0864242167,0.3896019655,0.1222622696,0.2420983348,0.0933153742,0.0948979741,0.6680275133,0.2539856011,0.4057931378,0.0440343418,0.0005038996,0.2146797458,0.0916260291,0.4142687628,0.1556613051,0.0523917825,0.3778093067,0.6604863854,0.2029239486,0.0927412543,0.3301032153,0.1706099412,0.3108438738,0.2240196336,0.5598110192,0.0111246935,0.0933735531,0.0570377348,0.5971539893,0.118767293,0.6906458435,0.044534181,0.5775428725,0.0643229658,0.5584114391,0.655722749,0.3935726621,0.3997266327,0.0777794031,0.1933563573,0.4670697452,0.4985763395,0.1139255044,0.2135011384,0.2499908855,0.0614679161,0.0070053894,0.4029317653,0.1356408058,0.1294382122,0.2159915126,0.5124318291,0.4042386884,0.2931259131,0.0257260235,0.3291109287,0.2039283503,0.2525766265,0.3732884732,0.2083801466,0.6399433846,0.691754293,0.3649159307,0.1958733879,0.1156752216,0.1565172689,0.5899171978,0.556075686,0.0302927004,0.1843526523,0.3635747731,0.4023890568,0.1958564019,0.3570581396,0.0877190757,0.5927732512,0.0722101125,0.6134177815,0.5462338007,0.0038281551,0.4778963576,0.2897699049,0.6976745609,0.6687952493,0.5207455785,0.2286134586,0.1569245372,0.1655020336,0.5442932364,0.2287233415,0.5913721437,0.0042817268,0.5132944903,0.0911351408,0.020699339,0.0268464577,0.0191343051,0.6747548453,0.288268021,0.1782916127,0.6654007182,0.6645327198,0.556049597,0.5971434631,0.5290444172,0.358406916,0.5303155132,0.5907102066,0.2846621145,0.3515051413,0.3821923657,0.4832133777,0.3193990995,0.6174386931,0.5899591636,0.0103916692,0.6551797238,0.6381176533,0.4722214335,0.3753376853,0.4385543316,0.5626095955,0.2192101848,0.2589403072,0.6555857382,0.6083719007,0.2252862876,0.5793502126,0.2924852903,0.5878535823,0.1207819567,0.0235233152,0.367378866,0.381202051,0.4664109032,0.1396101298,0.6871506649,0.4448316266,0.6163692135,0.1367373782,-0.6523605569,0.3474810916,0.5407273428,0.2044512352,0.2165369813,0.0374888086,0.5883630492,0.6063562479,0.7157399168,0.5673946182,0.6270519419,0.201653687,0.1160191029,0.0149622901,0.6831460848,0.1789985057,0.6087769302,0.0634075417,0.0505781889,0.0213342304,0.3759700478,0.2910730266,0.3095863817,0.1226326918,0.1194974859,0.2133935053,0.6628095846,0.2502279232,0.4162430814,0.4262669832,0.3758487742,0.2815003174,0.5561966818,0.2654544596,0.1678298454,0.5061795735,0.6294548413,0.1296432276,0.3845212146,0.1428441806,0.2838538852,0.530893203,0.0913347715,0.497969513,0.1106300518,0.0049705619,0.2327473862,0.3508000004,0.4739060693,0.5540996666,0.4055759186,0.5390616453,0.3907667014,0.2188979556,0.2818463039,0.1900660409,0.0349130098,0.2079763969,0.4157028345,0.5819390822,0.0015838941,0.247241045,0.5103787435,0.0032011279,0.1872201665,0.1914255622,0.2948372301,0.045736691,0.3131640021,0.4042448515,0.5879543401,0.0915537322,0.309992117,0.2087133408,0.6021898343,0.3968778492,0.0317299193,0.2450580192,0.3065579773,0.1241373299,0.2017642338,0.3556447595,0.5403763494,0.4340460221,0.1147233994,0.1889198225,0.5428921832,0.4518794985,0.5557605124,0.1986376183,0.6745758574,0.5426662138,0.3315829244,0.6905375623,0.0916150637,0.4195410758,0.1710213623,0.1514967561,0.0447195483,0.1976784455,0.3069232274,0.2588272072,0.5997850223,0.550912445,0.6901893851,0.4875994874,0.1070632655,0.5314584071,0.1989103844,0.1021078226,0.5377038869,0.1786322434,0.152438348,0.090658869,0.1652736508,0.2173600995,0.2893108615,0.4757382434,0.572541467,0.064806309,0.5796530556,0.6166077092,0.4571879741,0.5594865782,0.4048267705,0.672751215,0.181572,0.4714857967,0.5955554796,0.0544784593,0.2722633224,0.5262288024,0.1614494318,0.2797188967,0.6263320208,0.0030807146,0.3455571522,0.0972746131,0.0715566999,0.5196345653,0.3607000237,0.4443170105,0.0061072736,0.1523021147,0.1528798925,0.1582188521,0.5908041801,0.5242153694,0.5397041629,0.2892994905,0.4148490378,0.5191856166,0.6427498128,0.497680234,0.0222463134,0.5401591077,0.3784338421,0.2457869185,0.5376410699,0.5823211078,0.0391988571,0.2901774762,0.6744040083,0.1256829259,0.4467544488,0.5614879868,0.4458176696,0.1992101207,0.4417424417,0.068005213,0.5419957588,0.4535392791,0.0153181289,0.1935871706,0.4878868167,0.4064522034,0.0333812349,0.2868667835,0.3843554301,0.4324336861,0.3529401281,0.3117353618,0.0917506837,0.6356399546,0.1165061248,0.7030518892,0.13835923,0.4351038627,0.5406078585,0.4960634011,0.1683664854,0.1772228124,0.4010674218,0.3734718652,0.4319842527,0.4718968035,0.2389986833,0.6790373698,0.3285939704,0.3672253445,0.2817782537,0.2091350233,0.2598018408,0.4760454332,0.6186584087,0.3387444319,0.0894655859,0.6749147663,0.1919848173,0.3072081982,0.151138107,0.1652148242,0.6273754822,0.6341860805,0.1002342062,0.5347649336,0.2144429156,0.5695200469,0.2600424796,0.2325633928,0.5930420131,0.2448060534,0.3732273717,0.3946070072,0.6505032332,0.4691981499,0.585064669,0.4644710665,0.7099683377,0.4197550695,0.443359563,0.5620343153,0.4492287424,0.3274069435,0.0986388892,0.6867283534,0.3052805324,0.6604243861,0.6901179997,0.0083635168,0.6063628178,0.7069505535,0.4739162918,0.3951719864,0.326027676,0.4274851661,0.1880075777,0.0264534707,0.6458619732,0.0408826061,0.3246703539,0.1319446927,0.4230185482,0.4163403622,0.0684417859,0.0521831809,0.3715801406,0.2303025054,0.6240223541,0.4143065398,0.6565052672,0.0908534185,0.0798564725,0.5633697442,0.4112855335,0.6237724173,0.1998931598,0.0624797482,0.3195839175,0.5594102062,0.6222759713,0.3991611051,0.1389587701,0.6017320432,0.2931949761,0.5701906487,0.3713601909,0.3896189048,0.3847036587,0.1659248979,0.3299252398,0.068111207,0.5804947631,0.3649371159,0.0487858801,0.5213764302,0.3862623478,0.3754838864,0.6063050164,0.5526380216,0.2609323166,0.6717144776,0.5455913746,0.5021797184,0.3378518531,0.0058396254,0.6982156452,0.5044611857,0.6100671573,0.0801285667,0.5020315806,0.6185463313,-0.2083193829,0.3335737887,0.6433471137,0.0150649767,0.6749522584,0.406614545,0.4608288909,0.4175372572,0.041327066,0.166805632,0.699324019,0.1720021818,0.5071841592,0.3537470757,0.509578078,0.3864682029,0.5853482321,0.017398823,0.6466458621,0.4410570304,0.1620628991,0.0078993636,0.3079038983,0.1839191978,0.0312418152,0.699504747,0.2144398645,0.1075487912,0.4888608053,0.082113479,0.0324385433,0.3054537588,0.3840564473,0.5098113629,0.4820804174,0.0370182506,0.6090188172,0.0614594098,0.2364150341,0.6993764084,0.4709206637,0.4341137013,0.555646391,0.0516227265,0.0007941838,0.4925911461,0.4915784279,0.2633835528,0.5644375634,0.2091898351,0.103718392,0.439971108,0.6566733037,0.0306158366,0.4161235998,0.3357066432,0.3382667835,0.6787355652,0.0799864073,0.2457410229,0.3579103064,0.1963600919,0.0488690406,0.5510581403,0.4202575795,0.2806733092,0.0033751232,0.2248900402,0.1527776428,0.0461544043,0.2348402069,0.2315712274,0.3411112894,0.2990612117,0.2219336999,0.2711998242,0.0850095125,0.6522202574,0.2535980367,0.5911545382,0.3841274275,0.4831522849,0.05603437,0.5801086601,0.4167009544,0.4436328108,0.0247207174,0.5044603417,0.3856547267,0.1374645507,0.3007482232,0.5330290408,0.4421643506,0.5057905961,0.3545269991,0.4774666743,0.4212614125,0.0087668773,0.6759613678,0.3506761302,0.5131891083,0.5996491668,0.3458440973,0.1721048067,0.0203151489,0.0454659375,0.2511138784,0.0803337409,0.2558575224,0.7003142175,0.0910265586,0.0710254031,0.4381744699,0.4371653867,0.1497082864,0.1008168285,0.6077370594,0.7121090964,0.6002417603,0.1728572967,0.0775196695,0.566836836,0.6866795096,0.6177048737,0.2649032312,0.5396085588,0.2082408849,0.6100899099,0.4393748675,0.5635468947,0.4982369772,0.0806322998,0.531939692,0.2590916049,0.1675301973,0.5085053964,0.3522917009,0.1759107921,0.045281386,0.0458323985,0.0982875083,0.5019898957,0.132902182,0.1588635627,0.3018533305,0.1948354785,0.0038386857,0.0257984932,0.4574174688,0.609468196,0.1365583613,0.6474959257,0.1758684133,0.5533617244,0.4051423223,0.4937812414,0.320297693,0.0217472811,0.5219244014,0.5667633536,0.5664938935,0.1705660315,0.0138342186,0.0656004042,0.6582015957,0.085487629,0.0621674874,0.4769241905,0.6665436849,0.1163102221,0.1635377667,0.0370203548,0.2452472896,0.2452447843,0.6588365112,0.6221278199,0.3908689162,0.1144253118,0.4331626246,0.2380390747,0.0455121179,0.5189065511,0.0735874912,0.2126081797,0.4103769592,0.0846571973,0.4035988076,0.3590884115,0.3122799569,0.149686482,0.5933131031,0.5547897902,0.5365108122,0.410786688,0.678180351,0.3846284787,0.0852418972,0.3952943051,0.2358444567,0.0158769939,0.3399628154,0.4381983343,0.2818606637,0.3154292527,0.3644938172,0.3067318764,0.4370383587,0.2452665927,0.332009301,0.0047516239,0.0109405076,0.2469978487,0.4304846198,0.2570574902,0.6940707855,0.3743510377,0.3095210695,0.1771124333,0.0011438552,0.432958468,0.2619209917,0.623754086,0.0036018334,0.2897372853,0.3036032537,0.0002579013,0.0957355687,0.255598035,0.2184356127,0.1456330484,0.063583299,0.6544521584,0.4182963425,0.4067091761,0.60768984,0.0212547885,0.5604492236,0.5838423307,0.1173317768,0.4043842906,0.1635440713,0.2661015059,0.0409013067,0.0552898394,0.6636303617,0.1040567403,0.4368813382,0.6223199317,0.4110486937,0.1907088451,0.6822475151,0.2472924108,0.031356394,0.0269377121,0.2895950899,0.0682344502,0.4102492653,0.1448893493,0.1578775791,0.0773122637,0.2596483354,0.3785044905,0.3063047354,0.0183705587,0.0902925353,0.4526776024,0.1066141809,0.2872917009,0.4202377702,0.2670338216,0.1551647891,0.531724076,0.0002004075,0.5547415014,0.0359843991,0.5326457133,0.530169468,0.239677209,0.605489817,0.6825816045,0.0624638258,0.6278522548,0.2467862942,0.1393990683,0.2642405776,0.4277173897,0.3642081879,0.6066942452,0.2071442022,0.0483198186,0.2120059092,0.477991671,0.2378422308,0.2212156188,0.1740266328,0.3008024612,0.1528449771,0.0845410714,0.4737885735,0.2938301578,0.5650778137,0.1338848253,0.6486094959,0.2730140081,0.223196506,0.4223663394,0.0857486069,0.2001654092,0.5057312914,0.3024482143,0.0928566414,0.4594545075,0.5285865565,0.6120814424,0.3258477798,0.3457270177,0.3560590304,0.3696293529,0.7009509952,0.3496011577,0.3259606657,0.5578177735,0.2905254127,0.2643581085,0.4026717814,0.5285538159,0.0345857362,0.2944411012,0.2413640646,0.3245324996,0.1911322473,0.1901034931,0.5126918123,0.4450442897,0.6180877069,0.421607893,0.3070617062,0.424810291,0.6647817784,0.1800298677,0.049952011,0.2058028722,0.1044201887,0.0178546738,0.3299849208,0.4893999307,0.1904062687,0.0284275634,0.6189420094,0.3733681928,0.179534861,0.1870871755,0.5554763357,0.5597079529,0.6590525859,0.2475600784,0.6778324971,0.5999043708,0.3899354809,0.2913382579,0.1927574232,0.4154700073,0.2106532104,0.3545906537,0.696035576,0.5183828412,0.1201214648,0.4081442862,0.0109079995,0.1191910327,0.0297775158,0.4406174845,0.3058113666,0.4601088015,0.6773129243,0.4155904144,0.1587968155,0.2258162749,0.484620029,0.2937349704,0.4794278624,0.5529955777,0.0373126308,0.1929040296,0.3558346146,0.5312888744,0.512215354,0.2101278347,0.4612465114,0.5840333155,0.6657821198,0.6910256083,0.0118781386,0.2720920275,0.1151205814,0.0812507783,0.1638349527,0.6988856036,0.4851817306,0.3983173254,0.2126400433,0.225140481,0.4594559894,0.4043430673,0.021965304,0.5417884605,0.6410868071,0.2351119795,0.295041552,0.2615796395,0.6178472712,0.0872866472,0.3596562601,0.451959538,0.517860442,0.0143966249,0.295064496,0.457333421,0.0837718511,0.5766768426,0.2221354958,0.0722069109,0.1852293642,0.5278066142,0.2974290182,0.409102498,0.6087195138,0.6695264996,0.2974794616,0.1101811749,0.625182497,0.6509122093,0.6947060977,0.3101565061,0.5798172612,0.562780828,0.5294900124,0.6320655664,0.3981759275,0.6369249287,0.5723872971,0.1006621484,0.6496591978,0.6529948566,0.4046918804,0.6145210024,0.4914999187,0.5939286893,0.2305148022,0.0633670715,0.0727861819,0.4795576421,0.3877434653,-0.0506419446,0.3072631727,0.0036493451,0.1276587736,0.4073353178,0.4809020323,0.3637121626,0.4635421946,0.6527980259,0.121025347,0.4795561812,0.1445053729,0.5562188855,0.2832197681,0.5443932531,0.4636672152,0.4521594786,0.6914190188,0.4447659459,0.3574043229,0.5685616663,0.2679626728,0.0242421844,0.699487853,0.2072543369,0.3601203294,0.4341063219,0.5704170443,0.5847519114,0.4464214738,0.6532866605,0.1337069423,0.0497301447,0.0959756631,0.2850776954,0.3264618192,0.0675133067,0.3808832381,0.1052895224,0.0986082875,0.287590196,0.2729642444,0.3499596322,0.1014506458,0.6105752192,0.180292354,0.2405236475,0.5314880175,0.4309019832,0.1830007299,0.2572117495,0.6742131313,0.0051994918,0.3480366852,0.404903863
   0.4713380543,0.5358692894,0.4842100411,0.1308885307,0.0737447645,0.7101824279,0.1377026369,0.5428843045,0.6633779224,0.2644454367,0.5149251191,0.4065121777,0.6755235846,0.6104842377,0.3812346788,0.4823804289,0.226202334,0.504804823,0.2367141494,0.3497821278,0.2851587251,0.2529342846,0.5108944727,0.4644361793,0.1474475863,0.7151912492,0.4800960453,0.3338224329,0.3643462564,0.2823515985,0.3978083348,0.5906658598,0.1347734018,0.0501832336,0.1725613206,0.1270774969,0.0272523811,0.3666577193,0.3046192375,0.5659998367,0.0489053411,0.2027128908,0.3641755661,0.6075319335,0.0236306777,0.3833246857,0.3026205348,0.2095123643,0.6101720867,0.4514343335,0.4581759074,0.1520846646,0.5140208318,0.4217139359,0.5816927267,0.4522196036,0.6208541292,0.3695688729,0.7137071157,0.0826456654,0.2885463265,0.4605074024,0.0768031007,0.0432616437,0.5890519267,0.1749068595,0.250113261,0.605357124,0.1776199971,0.0109970759,0.1563654453,0.1784458731,0.1871007785,0.3325018854,0.2759599836,0.0871533698,0.3115995437,0.0212625202,0.1686323639,0.454189192,0.6251155436,0.2455745559,0.6886332259,0.7081916558,0.5480301813,0.6851856595,0.6583374438,0.3310858765,0.4611933017,0.2431992883,0.4090390696,0.4020374396,0.1583145803,0.7084848728,0.0791557256,0.2841494547,-0.5062479648,0.3247343109,0.31586945,0.1079789262,0.2408339751,0.3911087674,0.4212379542,0.441885746,0.4913787247,0.577710528,0.1474553575,0.5154900044,0.4139875837,0.1426982801,0.1453443518,0.4818295621,0.6068513039,0.103295101,0.1478903907,0.6480994514,0.249417494,0.241818615,0.547441304,0.2738047636,0.637270592,0.0710140596,0.6515915373,0.5593692408,0.0283100221,0.2083206802,0.474134971,0.2841609736,0.1143007983,0.0905864559,0.1398872797,0.0513723415,0.0142112058,0.3249438493,0.3798336372,0.2446395324,0.2293978244,0.0085928293,0.3261844463,0.0280170728,0.2856409114,0.669288344,0.008250082,0.34094444,0.1367575271,0.3659771674,0.1964057878,0.6051297335,0.0530387922,0.0380201304,0.6121108384,0.5067105918,0.2927611546,0.6947901947,0.0281234346,0.6082777211,0.4710436981,0.2801864875,0.5848848929,0.4110858151,0.1594214247,0.5625309962,0.4820982191,0.4702577198,0.6075594655,0.2504204645,0.1533826763,0.1672819562,0.3179065907,0.1915748081,0.0798273514,0.2694096328,0.51858137,0.1185157352,0.220106717,0.5160400896,0.2657141258,0.7018847045,0.5136217489,0.2465111983,0.4504242634,0.2664398953,0.651317993,0.3871846022,0.4502956197,0.4071060389,0.2544914614,0.2264905472,0.3958196894,0.6858239455,0.0091841489,0.412140195,0.5534769125,0.6975504614,0.1557963227,0.1212865115,0.0117350569,0.1147865954,0.5190959511,0.5235327785,0.0941155862,0.6971465494,0.5603790862,0.5270722003,0.2839003942,0.2878417053,0.1581645956,0.5661146683,0.378033677,0.0432449473,0.7031668527,0.0535085671,0.4287316706,0.3224434795,0.0558890173,0.1130243563,0.6978961799,0.3307768411,0.3438807588,0.0453314845,0.598803766,0.2309297944,0.3228263425,0.245602434,0.4088425133,0.6491783723,0.192357216,0.5316206488,0.5489827333,0.5978453966,0.506392968,0.5289799286,0.5976404708,0.5802089311,0.4813173252,0.1169053993,0.6390896509,0.1228848678,0.3014306274,0.2970847563,0.352127555,0.381180191,0.3158204033,0.2310042499,0.485706919,0.38321956,0.2746585488,0.079322193,0.3253996734,0.4568600906,0.66962957,0.4604730366,0.5030308809,0.5037490696,0.0492714691,0.0815376052,0.3807236611,0.1248902247,0.2803667905,0.0349694594,0.2972666592,0.6136031322,0.6767891409,0.5379840744,0.0295438478,0.2004880887,0.6944653997,0.0630962564,0.0042905753,0.6365254927,0.1287121751,0.484333343,0.4269788178,0.5856243891,0.0308489092,0.3490301586,0.4523264228,0.3383975911,0.3025598797,0.2165702737,0.5143247248,0.5871764231,0.7001372547,0.3737251427,0.7153611818,0.3508725253,0.6954538753,0.4195790236,0.1765022538,0.3564245329,0.6516164778,0.2045506735,0.0031478173,0.5626164597,0.445592967,0.5741898567,0.6615104672,0.4439176352,0.6758436846,0.161137591,0.4378876475,0.2885451024,0.1277494477,0.0404250191,0.6752861877,0.6809429355,0.6273997481,0.0252025146,0.3133064719,0.3491398925,0.3339694356,0.2438057803,0.4572904694,0.5513870227,0.3184230611,0.120075004,0.2810736065,0.3689332442,0.2869573732,0.0059917631,0.2763064752,0.6023052662,0.207071686,0.5282129028,0.6095614143,0.598384791,0.2161669061,0.5030117685,0.0996820605,0.7022629611,0.5476797737,0.4053596884,0.4718578566,0.2799357985,0.5731864699,0.4571149835,0.1327935684,0.6112743457,0.2540365365,0.0749361966,0.3727380426,0.2794851891,0.0808493935,0.4589054987,0.5680636998,0.2993214628,0.3232495383,0.3178161774,0.7091068601,0.4954739374,0.2067005754,0.0775783815,0.1934428992,0.1060775232,0.0774412208,0.4448042017,0.2723839531,0.6413778683,0.5999222806,0.4265016785,0.5699834635,0.4564095806,0.0624136168,0.105307158,0.6259551924,0.5909949667,0.3557284644,0.4378820709,0.0013463135,0.0938440556,0.6428428894,0.2370826855,0.1524491253,0.2266346947,0.4581584249,0.0666829581,0.5708868299,0.575214148,0.1663057055,0.3679855717,0.3263538366,0.4711711191,0.2588917136,0.4382203179,0.2741684556,0.0694501305,0.4705574033,0.368982817,0.2448804474,0.6036316921,0.4131705697,0.2014339265,0.657129726,0.6615781837,0.1713044927,0.3350131143,0.5458941186,0.224659688,0.2141003628,0.4915912512,0.2863582232,0.1600171848,0.4602048343,0.5073236575,0.1738138607,0.0029631048,0.6297531355,0.6099997394,0.4966823972,0.5681698874,0.5327774109,0.451081221,0.6564857112,0.386853857,0.6527604408,0.2709437897,0.1757414565,0.6256488792,0.2066025161,0.1244622119,0.5418028397,0.4442027832,0.0712816756,0.3124299002,0.4486674403,0.0766672057,0.1064636534,0.3819546352,0.5109705748,0.1915547619,0.3040608168,0.414708606,0.6652788729,0.282905907,0.5291977262,0.5069038318,0.3090677579,0.5849604077,0.6889146124,0.6800161401,0.5840840674,0.3021560103,0.6117645077,0.6440123327,0.5939691952,0.0484026694,0.6641137983,0.3150708526,0.4239128531,0.6807959392,0.6558781318,0.2525368158,0.2780448411,0.004871277,0.611295747,0.6141501793,0.022842823,0.4319662454,0.0217018006,0.3726597609,0.0282266719,0.4447214831,0.6323418852,0.2193001938,0.3389268728,0.5848644937,0.7051004891,0.5751636449,0.0767187109,0.1358893534,0.1273693388,0.5334124433,0.3982384952,0.6238578454,0.0079325723,0.2763992854,0.2318078524,0.1548262599,0.5234497994,0.6357926249,0.6681482092,0.0233752965,0.1606441351,0.2689131473,0.6166557748,0.202515878,0.5393909832,0.246834154,0.4086491002,0.1031694198,0.5305106969,0.0702415259,0.6440745924,0.0376542779,0.5367043612,0.3395530547,0.2612884577,0.1126763749,0.0961495348,0.6645730297,0.1764596655,0.6595948795,0.3475722373,0.0831972195,0.1264864972,0.0895013334,0.5603534693,0.3591929045,0.2858973847,0.4002000937,0.3625017833,0.3186435526,0.3606703454,0.2988119861,0.6617187369,0.2301152159,0.4301640426,0.2831697062,0.1820623114,0.0112578028,0.3857915053,0.7134919306,0.3349234696,0.4066403024,0.3481753672,0.6757717216,0.0535772464,0.2747183849,0.6556130098,0.2649109193,0.2622179291,0.2816523353,0.3118243012,0.1205142445,0.2356244663,0.700861443,0.4880574643,0.657160583,0.069374072,0.1053684602,0.052959458,0.0023392784,0.0718623111,0.6910311191,0.6679103611,0.019437257,0.250794774,0.67714594,0.0018962353,0.4216512421,0.0972018343,0.5140789709,0.57840302,0.6108673039,0.1435210059,0.5562724932,0.6102198474,0.3152013679,0.0052428402,0.4224463395,0.4139154856,0.2226631378,0.4404846311,0.5137244394,0.0756539928,0.7121109406,0.6215696237,0.1865108862,0.3664121198,0.5931448618,0.0731167486,0.4308200569,0.4144938212,0.0158303197,0.0238584475,0.3100864368,0.083611957,0.3263837401,0.6820516191,0.4001024011,0.3481631489,0.3174870688,0.3840564818,0.1784868773,0.4307906399,0.5726068274,0.0511213533,0.6001362815,0.0873770901,0.3324184838,0.4112835523,0.6864044483,0.5600288942,0.0884835811,0.1175378856,0.1304174115,0.5803531494,0.4963804508,0.195628351,0.5769651848,0.1028937693,0.6300200486,0.5973082134,0.4277309926,0.4051136165,0.3519823777,0.0488905324,0.035443918,0.4489206685,0.0664744231,0.2502500839,0.4250267249,0.477576703,0.1430149108,0.6526717143,0.4759703706,0.3232236255,0.60503624,0.6507341584,0.3536875509,0.3160555425,0.0695994427,0.090243499,0.1398516591,0.6071939133,0.2841480095,0.0439602467,0.6177457247,0.4336102757,0.1228817351,0.1549588417,0.3665713772,0.6284028019,0.7109383283,0.1811969598,0.6590207739,0.5322587946,0.3859922305,0.034424047,0.5941805992,0.0611874337,0.1115960744,0.5275392282,0.5006103224,0.2404953715,0.3473279581,0.2622708805,0.1722877695,0.3189589106,0.1984529568,0.4314974618,0.4643438311,0.0161679154,0.6693816948,0.4812092977,0.1499916523,0.1085666415,0.671488171,0.2158940305,0.3482075979,0.7090324266,0.3076947349,0.318857374,0.5445103305,0.5951262425,0.7152268709,0.3152154815,0.5311788,0.0675798508,0.2613022229,0.3413995591,0.1849241412,0.4329088326,0.5331678252,0.5158298039,0.1954312007,0.3034351065,0.0609846675,0.1539853297,0.6721266866,0.4075408914,0.5546828304,0.5915986519,0.3290186962,0.6039777606,0.6529590562,0.3549637832,0.0462334009,0.3229880464,0.369856394,0.1713466502,0.124078393,0.1541508413,0.5079335282,0.0405361109,0.548574761,0.6773763408,0.2840185882,0.0011439486,0.1320177107,-0.4795117079,0.5039839382,0.3904856496,0.0030268138,0.566795588,0.458497566,0.0491301799,0.2280972695,0.0947031728,0.2745782297,0.3538497065,0.1529741219,0.4260044627,0.3788987609,0.3377149509,0.2561865705,0.3268703561,0.2982989161,0.4599936351,0.6551659061,0.3889013576,0.286016133,0.4049070695,0.3469736701,0.5523592494,0.4516912044,0.1232756469,0.0742583979,0.3794489893,0.2686765121,0.698960961,0.3862525124,0.6900458087,0.1041398626,0.0364592355,0.1984941318,0.2468838082,0.1765089025,0.5478459046,0.3497388783,0.4683025872,0.118373822,0.1192954798,0.2225480149,0.4604336149,0.3297894548,0.2751783736,0.3871335341,0.3699449889,0.2819292384,0.2883761106,0.703610172,0.4199518149,0.6295756074,0.1442452677,0.47037039,0.1605032214,0.6316071089,0.1020635204,0.3565421727,0.472970296,0.6243844023,0.6305378111,0.4950681621,0.6410649964,0.1288152105,0.5255336483,0.5925568753,0.200957589,0.1828644886,0.3681869233,0.4020971211,0.2080661869,0.1130667756,0.4190038917,0.1232163635,0.6392102585,0.5923576912,0.3664587639,0.1246497538,0.6646448323,0.0779677455,0.0877126525,0.1882148302,0.6522096839,0.5638899265,0.4492713529,0.3162871495,0.3912132902,0.554435679,0.3475946492,0.4401538139,0.3974985388,0.4358885291,0.0430646823,0.580632934,0.5141461492,0.4837188784,0.1511660393,0.4367942282,0.6809177829,0.6409915277,0.0063447282,0.0595999033,0.0451116158,0.4824381382,0.299664702,0.2077088139,0.5038601582,0.3077830449,0.2682150198,0.2460360075,0.349357884,0.2815029787,0.3258835124,0.6874269013,0.5825882365,0.2538533264,0.533991986,0.2495929125,0.3307660665,0.0465878871,0.2618433377,0.1362700151,0.3484441409,0.0641633228,0.526728307,0.2408258088,0.433782619,0.0777086867,0.2606387607,0.2240038991,0.6131409527,0.6527145756,0.605648374,0.4631301787,0.1817989798,0.3045193552,0.1765167148,0.6134151439,0.7048734752,0.0531192567,0.0846625687,0.6671017087,0.1315210443,0.6494533113,0.6201932501,0.1133263134,0.5010439616,0.2322502806,0.0608932316,-0.5606108233,0.02226014,0.6644723765,0.148196502,0.6637199362,0.6595823733,0.3736623079,0.1267104936,0.5418525883,0.5781653746,0.0277498047,0.3912521892,0.4838491029,0.2093086988,0.0396895381,0.4647690764,0.6924970512,0.5732320545,0.2175873186,0.0078067226,0.4220241799,0.2419854704,0.0540141293,0.5321919758,0.4860172989,0.4588049434,0.7056073362,0.318242836,0.1924286317,0.1668313685,0.2731260322,0.6351541627,0.5173533523,0.2063545363,0.1261580052,0.5375015096,0.3154223703,0.1669144228,0.2071864306,0.076056038,0.5473187701,0.3511400077,0.4786376132,0.3998116804,0.0085694565,0.2279541854,0.7125637682,0.2673323158,0.4508008205,0.0798525259,0.6027978826,0.4981859337,0.6710140385,0.3185962461,0.0853526543,0.1987343448,0.4927086512,0.0491901887,0.1759341546,0.6878832129,0.637939194,0.2039295598,0.4275748472,0.6770102051,0.6758010087,0.5122081451,0.5710087394,0.6926609987,0.4323330112,0.259480298,0.0276828758,0.3991806289,0.1057396356,0.2074139126,0.2054098528,0.6444657314,0.1987397823,0.3757482724,0.2910292799,0.0430180593,0.1134894578,0.6008491663,0.1011025862,0.0469859505,0.5810705866,0.5187374549,0.7051520534,0.2110889515,0.403151375,0.148495927,0.2948596077,0.2216299009,0.4178306866,0.2052378059,0.4246592124,0.6799575985,0.5914665356,0.0560925917,0.3897829534,0.1645731441,0.0390357512,0.0047178844,0.2118546174,0.0343321744,0.5723685509,0.2070844568,0.3582298606,0.2206426867,0.353458393,0.1869875086,0.5400182461,0.6650272135,0.0129104534,0.622430732,0.6185936779,0.6717332565,0.4224965902,0.4323129503,0.1962814457,0.1689943653,0.1979433222,0.6812873058,0.1317688259,0.1410923056,0.3770347881,0.3102048462,0.373605874,0.3829298133,0.344544666,0.4536426172,0.1891136153,0.2571501527,0.4135871371,0.468141492,0.5759793362,0.1769982704,0.6984752911,0.1730547663,0.1545182814,0.4253087978,0.1329159909,0.1215921391,0.4678530196,0.1946596852,0.500362724,0.4961417679,0.0679616747,0.4694228213,0.3219916597,0.133278725,0.1879974897,-0.5645070981,0.4086559838,0.6210301494,0.6402406822,0.7103635536,0.3256855112,0.437219997,0.2768982438,0.60223243,0.2750697679,0.7127496526,0.2567446497,0.5376758531,0.3500361891,0.1815033474,0.6963736482,0.1953620128,0.6100056672,0.1236935241,0.5959752793,0.381857002,0.4327294955,0.2308155571,0.1658028157,0.6146375284,0.7131659254,0.0951823772,0.2120478912,0.041434119,0.1721032399,0.2725290532,0.3887399463,0.5260323812,0.66757094,0.2204140085,0.2604650599,0.09618846,0.5368688813,0.1235990954,0.0063026166,0.2865711454,0.263911454,0.1248677206,0.7035780803,0.553052348,0.0453411221,0.3235233538,0.6894448975,0.2316472899,0.6052442315,0.3091461234,0.1651198962,0.5823684354,0.2112446693,0.3193851833,0.4324968608,0.2608047048,0.4139204291,0.1247861144,0.2673944857,0.6680669034,0.5442537989,0.022429819,0.4302383402,0.0302726774,0.5450199762,0.2535621174,0.4848389266,0.0467932015,0.7021527851,0.2948419986,0.4586491397,0.6119273988,0.3419560328,0.7065334821,0.2689941767,0.0373649075,0.1158514318,0.6894353573,0.2344910165,0.4360572687,0.4287734479,0.2767482215,0.170150468,0.6363359947,0.1411804736,0.4061507967,0.2138254978,0.2403479903,0.2607911558,0.6182854468,0.2383707117,0.1808251153,0.4099464182,0.2281762774,0.4348090415,0.5185346484,0.1642179574,0.2852928136,0.4443431428,0.0169416008,0.5703636139,0.1160818992,0.0952943036,0.6172524732,0.1985701064,0.0171629512,0.5811574155,0.2445462208,0.145776776,0.1089599652,0.4135559454,0.2141908047,0.3929113295,0.2978185665,0.503314987,0.1376615989,0.1440382231,0.4370600049,0.1485486882,0.1326878772,0.4546560955,0.1688385237,0.4163280567,0.6839378201,0.3408322434,0.347134831,0.1308092861,0.6490508789,0.5801994246,0.0697020607,0.4577132058,0.4159466053,0.3333927786,0.5257458115,0.4455364948,0.1762278166,0.3962658653,0.5307740077,0.1441140505,0.0174412335,0.4641778265,0.6325220591,0.420133887,0.027481653,0.2617697112,0.5384742369,0.2551468086,0.5321737162,0.5443895318,0.2407986854,-0.2108307762,0.0368566689,0.3509092463,0.5156054195,0.1456337255,0.673957833,0.6561426107,0.121142835,0.0411211567,0.6108230144,0.6881456724,0.2811502069,0.5382297277,0.3125786281,0.4897045529,0.3867948111,0.3456296302,0.1034214506,0.456473632,0.4683016627,0.5119467939,0.1382266989,0.472639905,0.400994347,0.4107842407,0.0391120295,0.4133903476,0.157743224,0.7098603303,0.580745886,0.121046435,0.4131341614,0.3887959773,0.7067157076,0.4947260345,0.3838765393,0.1831642798,0.4683908645,0.4385725052,0.1893474776,0.2177870863,0.6684106968,0.5175036522,0.3217911163,0.093991002,0.086753955,0.4469518516,0.1762329877,0.0993926593,0.2138941854,0.2325811037,0.0147480899,0.0423417132,0.0182405682,0.6770129043,0.6140155177,0.6139786831,0.2147911808,0.4929282562,0.1035344861,0.5006720216,0.0738667103,0.6024807118,0.1601366307,0.3943179636,0.2523984921,0.1518625242,0.1538168976,0.2351571115,0.1919671792,0.7063217606,0.6124696985,0.3864141509,0.1558203073,0.0198485398,0.6666377478,0.3313407646,0.689437133,0.043215664,0.7121827325,0.4708774106,0.4822040057,0.1873996213,0.5234010825,0.6098917613,0.0376189462,0.227446967,0.0280402607,0.3029609164,0.3886521555,0.4684101412,0.1472723027,0.0449038177,0.0978933908,0.4915427309,0.5029142592,0.4655597726,0.5562791408,0.6712527077,0.3681794193,0.2157815392,0.4525447034,0.4815315583,0.0360043345,0.2589965067,0.0344776124,0.157778255,0.3587316806,0.258714872,0.4631039476,0.3361049247,0.0548377492,0.1415162328,0.2274628473,0.130281562,0.4847208583,0.3750597024,0.3264141875,0.1521185244,0.6067807941,0.643637393,0.5785759175,0.6676899297,0.036193343,0.1268415047,0.0518889425,0.3353013322,0.5184170803,0.2088032597,0.5328147618,0.486777227,0.5171111357,0.0741918537,0.7070115174,0.2680818683,0.5985028155,0.6847637943,0.5204990555,0.0389280912,0.2812341218,0.160208574,0.6756923475,0.2552437069,0.5279758205,0.4140719413,0.012215158,0.0328247619,0.1678530704,0.412732654,0.3619046519,0.0594406259,-0.6017416066,0.4908104848,0.176836234,0.2461041522,0.0996626129,0.2307999331,0.0396637252,0.4650285664,0.3999697281,0.2541714922,0.5069891778,0.2684881318,0.2629524131,0.338775227,0.1586957096,0.2155699715,0.5810934024,0.2183932834,0.5866179647,0.2359856456,0.0946091155,0.1005898005,0.4900547963,0.4666777902,0.7112087132,0.2759060682,0.0794387795,0.228073462,0.1038759283,0.3835172927,0.1610548991,0.0560069843,0.2965043084,0.0037197,0.0204822057,0.2632251172,0.4443722249,0.0256765859,0.243185021,0.708301731,0.3562695543,0.4582547541,0.6072544646,0.2106181649,0.0842537281,0.0963481978,0.2259559271,0.0620318346,0.6055546224,0.2493984455,0.1528566601,0.1366774682,0.439833655,0.2204307769,0.5072582984,0.4561530885,0.1641226991,0.1547469314,0.1143025684,0.6636433032,0.6818453675,0.4460520886,0.4621199045,0.3571955797,0.5928614218,0.1905572172,0.4237170597,0.1868617245,0.1808351783,0.6948691529,0.5439024523,0.4840726832,0.5151332657,0.3897205099,0.0100745274,0.4831314531,0.5998144572,0.2499489886,0.0751784176,0.5329615964,0.4118008072,0.7031002661,0.4318718644,0.4422528119,0.0929041567,0.3517076329,0.6564681918,0.6287470206,0.4461007501,0.2425714535,0.6134702238,0.5196309636,0.5001994519,0.249016365,0.5597137344,0.6785887448,0.1770932494,0.424570229,0.4403315714,0.3212310752,0.2588760002,0.5281374688,0.2099689878,0.5388819464,0.2077711081,0.2011211176,0.3359317404,0.0002161714,0.4212000908,0.5285291651,0.4492415544,0.1681366706,0.2571016974,0.6580900028,0.5340450793,0.5260275164,0.4416578595,0.3000717698,0.4007089594,0.1657527351,0.2188303219,0.1414870702,0.3306518632,0.5704010309,0.1573760524,0.6443086142,0.6519814697,0.2771274241,0.6963835849,0.2237413283,0.5976376956,0.4772497161,0.2226397812,0.4490210447,0.4113325796,0.1399642002,0.5319408476,0.2788101149,0.0668773467,0.371059109,0.1885331065,0.6000180895,0.6321193928,0.4651678323,0.596331722,0.6800105419,0.5681832629,0.491776455,0.4107846145,0.021914192,0.6800331365,-0.3307160391,0.0387545448,0.1426304571,0.7035184984,0.6523273619,0.4318593613,0.5937107927,0.5872910948,0.4062176164,0.6473803879,0.0229388792,0.1125192808,0.3133561153,0.4945737939,0.0709193681,0.5149935499,0.5431892981,0.4105312247,0.4477759743,0.5916966876,0.0243492987,0.4799626668,0.2750545501,0.514695391,0.6615924332,0.6704241832,0.1103130542,0.5248270479,0.4531527244,0.0708416336,0.3363000509,0.347800871,0.0326975939,0.6684932364,0.4123745244,0.6600631833,0.3035650248,0.1887435786,0.2972957219,0.0394497274,0.6438629695,0.5200534553,0.3862881326,0.1223747911,0.4814302418,0.4200304025,0.1866348064,0.3880722586,0.3757426399,0.2161062738,0.1122410216,0.2303445989,0.5898351569,0.4134256437,0.537813866,0.0963046105,0.260748939,0.4374624541,0.5586279434,0.0446885773,0.4471069942,0.6864740881,0.4826783713,0.5139531381,0.449071789,0.0302962402,0.5016226651,0.4848227716,0.6186276476,0.6641781938,0.614585451,0.1404115036,0.3641208221,0.5903299474,0.4383506048,0.2510421786,0.0394380271,0.3902584207,0.2087979997,0.5172908684,0.6430940216,0.261035482,0.2455814265,0.3556655349,0.5981507333,0.5580486544,0.122510478,0.6953956774,0.1090023251,0.0858430133,0.2995376887,0.086055575,0.3435346458,0.2724564015,0.2078877715,0.4466011536,0.4558258038,0.6825732327,0.2550788831,0.0171948586,0.3112679455,0.1186920331,0.4498601082,0.2135298331,0.70147527,0.6279369231,0.0018317097,0.4490383646,0.3626346538,0.0764584175,0.038622059,0.0059735315,0.2437216235,0.1044487088,0.2367277483,0.5015501302,0.0825122663,0.3980148946,0.6725299394,0.5131488012,0.0667838844,0.020506583,0.08311589,0.4303417573,0.2482394864,0.478738139,0.5802663995,0.3075311022,0.3297865019,0.5125133316,0.6287006656,0.3747335863,0.3465040856,0.5731470547,0.2634287533,0.6629857816,0.4242308454,0.0619814369,0.7051548235,0.4609610066,0.5832134642,0.3528442977,0.3150851049,0.1477089787,0.2302400064,0.5114693871,0.4008444026,0.0143026738,0.3714485821,0.310441655,0.41746172,-0.6227015335,0.3037154205,0.6107429329,0.3548796867,0.6222960937,0.4066851689,0.1033803436,0.4565009775,0.2806583595,0.5359437616,0.6312695282,0.5310586024,0.1262723381,0.5905119899,0.5224373056,0.5017182336,0.652764151,0.5105439859,0.429763212,0.4241418773,0.6591136366,0.2794223905,0.1421857686,0.2026516724,0.5803149638,0.0833419853,0.6034684443,0.1603899551,0.3395938421,0.3894487857,0.5384860112,0.2912249054,0.5667272924,0.0506189908,0.1566645414,0.5495460174,0.6354016877,0.3779941456,0.6181945462,0.1749874385,0.3918986559,0.0995404161,0.5289763197,0.1333322321,0.2159599452,0.3843263948,0.1312868509,0.5755535406,0.2276979509,0.3658900816,0.6834623519,0.3531386002,0.3445895059,0.0906030565,0.1892686222,0.6515449465,0.3663081376,0.5217646435,0.5328255932,0.2869108216,0.2580288473,0.3394056578,0.0111558511,0.2044804765,0.4938215933,0.2251248879,0.497805845,0.3375635569,0.6866978278,0.3082876598,0.4834055315,0.5716867265,0.2382036187,0.0432665457,0.3903511207,0.1823464026,0.2177033503,0.0079251959,0.5925945166,0.208306384,0.4615773671,0.2599369074,0.6216105492,0.1227842603,0.6573777595,0.4121919936,0.3000517942,0.0549728386,0.0069922509,0.3239017591,0.2954886663,0.4806478114,0.1095064209,0.2200051703,0.1794182824,0.4428352855,0.4971668119,0.4773807111,0.7080812119,0.656678616,0.1096159332,0.1045861989,0.1021535826,0.0458947839,0.5602562214,0.5670085513,0.2141999003,0.0790114783,0.011902995,0.015810139,0.117071328,0.2936288162,0.3948737602,0.6928169449,0.5557764468,0.3758377528,0.1524611943,0.3760286111,0.5910186444,0.5357721771,0.3772800461,0.5752604047,0.0493168635,0.4088923349,0.5391353344,0.0215549652,0.5925845068,0.2739987812,0.6802625529,0.5555633172,0.5617498561,0.4883088579,0.1695473512,0.4681690125,0.4806970861,0.6796718907,0.5272789622,0.7019867522,0.5040093229,0.3929262593,0.6185887887,0.3022562059,0.3510855962,0.6248031874,0.4310074014,0.2805947404,0.6721840738,0.4230617631,0.2660162883,0.5473161974,0.6947552983,0.4583679998,0.6604749148,0.4930130355,0.0710779012,0.6026728876,0.239887388,0.4811452123,0.2344871206,0.536358283,0.5517251046,0.3074362016,0.1329485069,0.4424755511,0.049935395,0.3627278639,0.0846047259,0.121881419,0.3517188378,0.343185519,0.3640911311,0.2351521184,0.4658516104,0.5509649987,0.0826848543,0.1759611774,0.5799958939,0.0052845558,0.2028915781,0.2396660019,0.285317881,0.6353980207,0.6444074799,0.4127465682,0.3046950883,0.3339063705,0.1690491958,0.4875547004,0.4378606737,0.1017598199,0.1459934803,0.1724604066,0.2747985547,0.0791772781,0.1897191952,0.3716539157,0.5955301653,0.1576504854,0.1450005727,0.448314857,0.4451853626,0.091116996,0.3751906885,0.5418700409,0.0403507916,0.1474166335,0.5649362277,0.0694282172,0.3889603312,0.1831093611,0.0638429485,0.0154089747,0.5209779053,0.0617370711,0.6137064651,0.2409076129,0.2488790837,0.6720619215,0.1841339966,0.5078347048,0.4687134321,0.0424256176,0.1041031763,0.624251897,0.2158205,0.3834597624,0.383924644,0.6371659365,0.1748206745,0.3556751565,0.6053042111,0.6329637501,0.184056296,0.5618314,0.3444644436,0.1157482969,0.1960537187,0.5656344513,0.3474140234,0.4484559285,0.6426434916,0.4174328335,0.3965431938,0.2739612324,0.1933862304,0.2162652902,0.0571821216,0.0387703818,0.2375610972,0.576382038,0.3088648081,0.454039756,0.3094728821,0.4253524284,0.2734641034,0.1912413443,0.2696109034,0.227051822,0.6496337152,0.3217225764,0.1722875765,0.0255206353,0.2948716529,0.2489557646,0.0496290022,0.0225880652,0.0300165499,0.380059098,0.4394381091,0.6691663149,0.4146095944,0.3371965492,0.2371902984,0.2524801719,0.2961808118,0.1989643919,0.5210707953,0.2265242562,0.6584931287,0.3046022779,0.5772821594,0.4351380985,0.045922687,0.7056424139,0.4863297894,0.2777889206,0.4284498504,0.4375125956,0.7123120926,0.4695119369,0.4304119536,0.105057275,0.2967011742,0.4734871187,0.1839979523,0.4168800874,0.5601275532,0.3976429307,0.0150026595,0.1428546578,0.2002816588,0.6068572858,-0.1975852214,0.6358495747,0.529699167,0.3413803865,0.0562646094,0.079797572,0.1813000639,0.3795763435,0.5687912872,0.5028240583,0.5151034688,0.0726795608,0.1847308294,0.6394004467,0.305192318,0.2870859905,0.5850219662,0.2037591607,0.525311462,0.641284197,0.2789116983,0.464736905,0.4378988716,0.3779833175,0.1562745553,0.1058402708,0.7031456035,0.3952926459,0.4866867846,0.6832333464,0.6680961693,0.579535658,0.2760834394,0.170408764,0.1116310618,0.4446229163,0.1395491029,0.318374771,0.1693372978,0.1842862362,0.1003786187,0.2486918069,0.4579773154,0.4208955941,0.2353182969,0.0573729373,0.1661717382,0.166937187,0.4120357466,0.0712352162,0.2564464187,0.2280310198,0.709223078,0.0309213395,0.4889275358,0.4104993281,0.096989594,0.1199190407,0.4571625173,0.7147315133,0.0166029877,0.3529242105,0.6801189806,0.5876442484,0.4724551833,0.0678977691,0.336823925,0.3722628702,0.6213187656,0.6536070954,0.5524508757,0.4527716149,0.3321630885,0.5151710153,0.1480903318,0.6253498709,0.4376860899,0.527921861,0.5845276057,0.0380563894,0.6757277437,0.0336850404,0.2706432858,0.6227737899,0.3747020805,0.7009327097,0.1591579793,0.6524513421,0.6415430007,0.715025948,0.2847934923,0.0624687475,0.2769729204,0.6609970795,0.2440203267,0.2649220819,0.3638848201,0.2171106047,0.1152621608,0.1281341586,0.3154550378,0.1454910851,0.1990605836,0.7145254991,0.0734955312,0.3087672091,0.1784858726,0.0443210779,0.3531986492,0.219021832,0.5682768972,0.6234898881,0.6664873556,0.1186228362,0.5661584785,0.1677867519,0.6359089939,0.0347545157,0.0381077294,0.6908623265,0.1529440447,0.0802525459,0.0042989144,0.3811837599,0.2266046181,0.6225418592,0.1831364943,0.268672605,0.3372829778,0.0591490824,0.1517749807,0.0694943541,0.1873166884,0.1350759915,0.4377410105,0.003108348,0.1807440051,0.2169227253,0.2340753256,0.4673345879
   0.7032037474,0.6852297076,0.5500223832,0.4640146735,0.0358189943,0.084247675,0.539222132,0.0479957238,0.2917504992,0.6758020215,0.538275691,-0.3943716336,0.0062635692,0.397896898,0.3147303652,0.5057261243,0.6504415478,0.651666948,0.41400195,0.1404686491,0.5161544787,0.144474504,0.6560410201,0.2016826739,0.0290145128,0.3661665096,0.0841790444,0.0552285783,0.3173573438,0.4662561255,0.1514262597,0.2897407725,0.5787454266,0.7025247552,0.1745221901,0.0413116681,0.0344390275,0.6511125182,0.5431153606,0.4670574712,0.0389233603,0.4304231562,0.677909747,0.3802067654,0.4260700521,0.1047778377,0.3915505075,0.3101407447,0.4139861914,0.250012792,0.1801678388,0.2119061892,0.1120100323,0.233182977,0.4936421398,0.5028045025,0.2438520338,0.0471219424,0.2072513647,0.6401283732,0.4441499645,0.2000881215,0.7084700883,0.5081933118,0.1386876724,0.4359706067,0.4110352598,0.3770029987,0.1257805973,0.51800903,0.669404865,0.0921247316,0.123501649,0.592982404,0.1155899461,0.0367460906,0.5018651524,0.211507851,0.6432385258,0.0863465996,0.2126322668,0.6456606307,0.1329266137,0.102750038,0.3646270338,0.6627857386,0.6371872116,0.3159785614,0.684534891,0.2462224022,0.011418545,0.2249465427,0.0359664026,0.3333382404,0.2790725363,0.3880556549,0.1051420844,0.6374799828,0.7076363522,0.635814853,0.1119691412,0.5210289797,0.4414632906,0.4295893146,0.0955783311,0.0187205665,0.189161673,0.6422569485,0.5532910785,0.4390956356,0.4076139114,0.1971341932,0.6542159634,0.2205610768,0.64546429,0.0348722119,0.0882652805,0.3857935934,0.1418934938,0.5985371692,0.6311374551,0.6064523808,0.0751773026,0.0850717447,0.4829037128,0.4991174653,0.5762020964,0.262032489,0.371552144,0.166241408,0.2424286685,0.2747285748,0.2876198157,0.3962772886,0.6642245526,0.3839026952,0.5007729423,0.1473526068,0.5437462707,0.4533233684,0.5213888394,0.6231703864,0.5694057906,0.2258588921,0.5170954883,0.1772495226,0.1176042854,0.3693118474,0.6989149888,0.3021234939,0.0564692533,0.4995502909,0.1210722878,0.6640331008,0.6421767471,0.1635557547,0.1887413371,0.4176450887,0.5578021025,0.4804500691,0.7027007402,0.6397617626,0.1146519342,0.2301991382,0.3636880479,0.0070146606,0.3824237832,0.0971759568,0.0007765603,0.1464475628,0.641425753,0.5975301208,0.452295934,0.6653191602,0.138789066,0.6687585546,0.356999411,0.2882799568,0.6151437963,0.5315006183,0.2713696907,0.5461001553,0.4790336927,0.3624586256,0.5808249417,0.1778309121,0.5964469691,0.1551132578,0.0256964102,0.3736495731,0.1602874744,0.4942065033,0.2094256054,0.448939145,0.1257659188,0.0400862077,0.3813904269,0.4133542147,0.5515314232,0.6147762218,0.4284399471,0.3175025206,0.6091658274,0.2381368375,0.4737662281,0.5646566891,0.0530504919,0.0733268926,0.631305267,0.6460846885,0.712602139,0.13423444,0.557178793,0.6789532645,0.1416084985,0.2525517158,0.5483936623,0.663675418,0.1191923284,0.306098315,0.514630367,0.5951645327,0.0109501526,0.1739574684,0.1790220722,0.4183091673,0.1928837445,0.4685531515,0.5234101321,0.3623622317,0.1976667015,0.5670831482,0.4025686941,0.4462704629,0.6514277816,0.4360959836,0.5507542752,0.3199089105,0.5906581694,0.095104194,0.5063766215,0.1465950798,0.2790042963,0.2931049531,0.1926580421,0.6674633122,0.4776141476,0.1951270834,0.2591514433,0.3293740859,0.129810287,0.4899096928,0.5770740078,0.5174146392,0.6911244021,0.3779088438,0.5554272335,0.2354254989,0.3081262558,0.5554288216,0.0420512831,0.6419996882,0.0925528714,0.0498528399,0.4746929758,0.2373590031,0.4860095937,0.5116038602,0.6193152502,0.5798271949,0.3028360749,0.4505191723,0.0349419798,0.5302184019,0.4657120696,0.3813106037,0.1623746198,0.0819408078,0.1190623084,0.0587995068,0.2430758473,0.6114725334,0.2785582471,0.188071933,0.4319680147,0.3926159215,0.0190962832,0.4121337928,0.5763929529,0.1134048346,0.4508012708,0.2190888609,0.6115937867,0.6633199525,0.001380836,0.3252599113,0.4403682497,0.0550817817,0.6603643068,0.3600693765,0.5791346339,0.2307945817,0.0867500161,0.3262557762,0.6226046725,0.1218302525,0.1486250957,0.1689286823,0.1954785289,0.6092709491,0.5960955715,0.6615373755,0.6140450936,0.2555113083,0.1393232481,0.1669888388,0.4282229392,0.0832015806,0.4458526992,0.6636447071,0.1975603096,0.701987382,0.6231073733,0.0733895767,0.6596390236,0.1385454814,0.1788770556,0.0789786737,0.4547755856,0.455002758,0.1800919339,0.2190124806,0.3965686667,0.3163737361,0.235735984,0.1940518892,0.5650088174,0.5537267091,0.029950973,0.6611840481,0.6302958589,0.1765263062,0.5470665851,0.7026411449,0.5079635102,0.490223057,0.677208148,0.6343426044,0.1970297448,0.5101865494,0.2645719194,0.1760344207,0.4579257924,0.6459066049,0.1114346681,0.4290194615,0.3735043426,0.608676158,0.4198241375,0.2063615655,0.3805702164,0.1283520009,0.3034257173,0.0371454787,0.0210083606,0.5524020915,0.3933254136,0.6502894849,0.4739589603,0.0240642614,0.5496746367,0.4871778744,0.1985253254,0.5302827967,0.6188357152,0.3103086872,0.5884193244,0.0864476845,0.2967368168,0.6505751697,0.6107263007,0.3127458154,0.1686592901,0.4076244819,0.3243829075,0.509172967,0.6312466598,0.0465980132,0.3973267064,0.0966859683,0.0254963664,0.2290413905,0.3675150941,0.0963950772,0.6872918414,0.089546696,0.1672437079,0.3371167866,0.5446767992,0.0756101033,0.6278511004,0.271716517,0.6738898747,0.1758013474,0.6064360377,0.6210690889,0.511710863,0.5878708966,0.467846274,0.3970332524,0.1085154352,0.276857865,0.5175858724,0.6692228884,0.534948897,0.4410739761,0.478300382,0.3885812598,0.2495826304,0.3860187177,0.2129318721,0.342993417,0.529344124,0.102958562,0.5626147986,0.0314036312,0.4127746504,0.3258402592,0.6194273367,0.09048438,0.4204307349,0.6942619417,0.4970812639,0.5900075995,0.0127051057,0.026503792,0.603111781,0.4648254645,0.41237533,0.1296843672,0.1725700146,0.1398143889,0.3553460952,0.0065666217,0.6986500436,0.3193909238,0.2532345472,0.015980546,0.3957466619,0.4862786509,0.4758853157,0.1772156523,0.0149582853,0.1689758196,0.5747045125,0.0425738966,0.5150048811,0.6682415522,0.5733382307,0.0862062629,0.5805794589,0.2087523729,0.5382787002,0.0429897541,0.1406111782
##end
biasActivation=0,1,1
[BASIC:ACTIVATION]
"org.encog.engine.network.activation.ActivationTANH"
"org.encog.engine.network.activation.ActivationTANH"
"org.encog.engine.network.activation.ActivationLinear"
