encog,BasicNetwork,java,3.4.0,1,1749943384983
[BASIC]
[BASIC:PARAMS]
[BASIC:NETWORK]
beginTraining=0
connectionLimit=0
contextTargetOffset=0,0,0
contextTargetSize=0,0,0
endTraining=2
hasContext=f
inputCount=150
layerCounts=1,31,151
layerFeedCounts=1,30,150
layerContextCount=0,0,0
layerIndex=0,1,32
output=0,0,0,0,0,0,0,0,0,0,0,0,0,0,0,0,0,0,0,0,0,0,0,0,0,0,0,0,0,0,0,1,0,0,0,0,0,0,0,0,0,0,0,0,0,0,0,0,0,0,0,0,0,0,0,0,0,0,0,0,0,0,0,0,0,0,0,0,0,0,0,0,0,0,0,0,0,0,0,0,0,0,0,0,0,0,0,0,0,0,0,0,0,0,0,0,0,0,0,0,0,0,0,0,0,0,0,0,0,0,0,0,0,0,0,0,0,0,0,0,0,0,0,0,0,0,0,0,0,0,0,0,0,0,0,0,0,0,0,0,0,0,0,0,0,0,0,0,0,0,0,0,0,0,0,0,0,0,0,0,0,0,0,0,0,0,0,0,0,0,0,0,0,0,0,0,0,0,0,0,0,0,1
outputCount=1
weightIndex=0,31,4561
weights=##0
##double#4561
   -0.2237219656,-0.1401480713,-0.0600061521,0.3249934665,-0.24991513,0.190171338,0.1719868786,0.1517648414,0.0173571824,-0.1885976268,0.0770449335,-0.1428081331,-0.2146510991,-0.2518677022,0.0425480534,0.2458997437,0.2636790537,-0.1330281038,0.2550465451,0.0143208248,0.3561970616,0.2617524568,0.1947526997,0.0499468778,0.0829152462,-0.1988946802,-0.0571751105,-0.0424557644,-0.2505082253,0.177360877,-0.5676042695,0.1450050441,0.0522054337,0.3469784103,0.4296432895,0.6328689123,0.1965792722,0.2705407838,0.6833122445,0.1317895586,0.5108512771,0.488626434,0.2519810106,0.1424553819,0.3425195118,0.5224665187,0.5806597921,0.4119122901,0.2543324065,0.41866188,0.3642585948,0.1247682172,0.0501082299,0.5771379909,0.467626642,0.5685929206,0.2969851689,0.2855040427,0.1865158579,0.2039580339,0.3519633781,0.50298573,0.029222037,0.5572132217,0.4855728896,0.5980336932,0.346337779,0.5349192038,0.2039763022,0.6478472331,0.3819693757,0.0513663903,0.2566641582,0.10383984,0.1194285068,0.287998273,0.2492278608,0.5893726977,0.112716646,0.1745646719,0.3831627855,0.1471371043,0.0149494934,0.6750147777,0.5156999938,0.1803607292,0.208792981,0.1344991152,0.0991584176,0.1218194238,0.5891990449,0.2693944265,0.5858900559,0.5017469429,0.7103606512,0.1403591991,0.6222859321,0.3983533944,0.170242786,0.307465057,0.4761949613,0.0835759496,0.04613985,0.2087352533,0.2627340765,0.1792244277,0.6826084204,0.5717659391,0.7028433487,0.2687869145,0.4874313773,0.190096904,0.0929427758,0.0953469202,0.528415978,0.0518075248,0.6256751718,0.4252711682,0.3893227701,0.6983289291,0.1027740666,0.6972318716,0.0659195542,0.493006171,0.6926694198,0.635473394,0.6140814191,0.2145274652,0.6125931481,0.5688786781,0.097128609,0.6942088916,0.1593125848,0.1292255706,0.0778630085,0.1261085802,0.6967104892,0.3413858492,0.442858586,0.3569592529,0.335912153,0.6027539352,0.622823922,0.5255799861,0.4624704598,0.0867007936,0.2932699606,0.5307529186,0.2473703778,0.3656687895,0.3505000304,0.3619661644,0.2647955182,0.0663152163,0.2727248577,0.702531757,0.1207017767,0.446059143,0.0561791712,0.257623324,0.1598355114,0.2389310152,0.1448682806,0.5819822429,0.1822102009,0.2942838868,0.0332766508,0.4390318635,0.2706242795,0.4256616636,0.0498406909,0.2755545424,0.1805757194,0.612510493,0.5384172132,0.4612176443,0.2808887897,0.0983261532,0.454227393,0.5561952139,0.0886238216,-0.4747620526,0.6282365209,0.5014057756,0.0303830844,0.6366012036,0.2759796017,0.5975228848,0.1927733303,0.2983304879,0.6528416809,0.6901211781,0.0373152762,0.2438959837,0.3400547483,0.5854555408,0.4705331578,0.473469072,0.4443241916,0.710522037,0.1832433564,0.6181100364,0.2987336843,0.2338065659,0.0508442319,0.7116390425,0.3716903071,0.3799273193,0.1231233934,0.444955259,0.3444190094,0.646336222,0.3495493651,0.4720638364,0.0977711688,0.0627584112,0.2742028823,0.298252888,0.1890051038,0.5583464747,0.3011958841,0.6220067589,0.2312632953,0.3818344945,0.6836533264,0.4819918933,0.4430323959,0.5832747749,0.0536190263,0.1526130288,0.1368185507,0.0418775678,0.2779341718,0.5924433239,0.5347989816,0.0132403678,0.1620929452,0.0244010546,0.0051676305,0.558502766,0.4690233648,0.0402671275,0.4191017206,0.2680730625,0.0371632268,0.0234440027,0.0828256647,0.5562159978,0.1644720275,0.1009065677,0.0309068381,0.6774193897,0.2450252305,0.6302622057,0.642224051,0.4756822659,0.059167096,0.6030695127,0.6237919663,0.4813378265,0.2456758095,0.4561011324,0.3401677077,0.2207719775,0.3638484228,0.2737278513,0.1574306692,0.6091266938,0.6389755781,0.434529652,0.1954285731,0.438490853,0.6210242206,0.008576039,0.6738073816,0.5689664293,0.1451009954,0.1015586668,0.4646082892,0.5759536948,0.4975944307,0.2105922653,0.0478769241,0.6188272457,0.4373416201,0.335461158,0.4248274402,0.057739233,0.6240162173,0.0006048002,0.6792201955,0.1056405053,0.1718569997,0.0863577476,0.0011775185,0.6471269344,0.7139812527,0.0724204712,0.6451936184,0.3852657084,0.6282410478,0.0392164345,0.7120519224,0.2462950212,0.3536174562,0.6722072638,0.4784895949,0.4204686036,0.5126933095,0.1908525857,0.6474091642,0.1134160831,0.0189698583,0.0563041434,0.1721033013,0.1001043974,0.6208850747,0.1391144954,0.4190084494,0.4560024116,0.0134243539,0.0495309473,0.5671614918,0.3613322289,0.5009491284,0.1552967412,0.5630243145,0.1703686741,0.6100504172,0.3920339436,0.6178006262,0.2428621256,-0.3003529513,0.6512080993,0.1151372252,0.1484236305,0.1506588879,0.3676892742,0.4849568845,0.6026277322,0.6678448737,0.5756004011,0.2992153727,0.3865104933,0.2581337694,0.2960557258,0.2395746309,0.1358459855,0.2977085162,0.0749819961,0.6156476154,0.2966738745,0.0074043963,0.6313000825,0.2843407968,0.4508705044,0.0216543207,0.6218743554,0.3564348441,0.5231075811,0.6454271915,0.5395039305,0.209852124,0.4182661514,0.6788986945,0.3377403802,0.545978218,0.2782841529,0.5277449958,0.5961350105,0.2441081133,0.3748951466,0.4369568227,0.4574790817,0.2094358247,0.1249421662,0.0154318356,0.0338431808,0.5330988377,0.369157227,0.6727446273,0.5226994741,0.1533598479,0.4392484626,0.0541758184,0.5073713761,0.4450135555,0.245582226,0.5647790288,0.5342089483,0.6538411581,0.2551500839,0.2225769466,0.1159315846,0.1148291919,0.3851076133,0.5479645521,0.1583368844,0.6656663205,0.1933170795,0.6779488049,0.6586638698,0.579592586,0.4411163644,0.6391740935,0.6383943963,0.3517286662,0.3499689868,0.7147609986,0.1430539865,0.5477605457,0.4863877317,0.6063731266,0.2609207969,0.0459279427,0.1710287234,0.4502836207,0.1731707302,0.0007116901,0.5486471096,0.6739818847,0.3414920884,0.04727465,0.6604942178,0.4766727922,0.473382015,0.2205594929,0.4650916701,0.429301155,0.630691863,0.4991878967,0.4815333588,0.447472063,0.3879222838,0.2496411202,0.4713029311,0.5341383421,0.6769020187,0.6259067022,0.0216408288,0.3316738508,0.1300151316,0.2803414938,0.0091108907,0.6378929847,0.2047958186,0.1720895036,0.636612364,0.1453270191,0.5926990195,0.1932021917,0.517196284,0.3605112682,0.6689308181,0.6255692083,0.6100930871,0.3785301758,0.3160939557,0.2389722652,0.1714239764,0.2809390934,0.5441681423,0.6727444015,0.6595308586,0.6875147693,0.4225553648,0.515711879,0.5012812288,0.3858617618,0.3185421737,0.4425741742,0.6888618432,0.2274005012,0.6250359152,0.6145924806,0.6926926198,0.3497063628,0.6752811582,0.5791621968,0.0094899995,0.0850776759,0.4966946322,0.5098887099,-0.5805742216,0.2875435123,0.0212288044,0.0309652053,0.675923781,0.5540675605,0.0200131165,0.487887373,0.5215038098,0.0190779844,0.0028633338,0.1840228397,0.381164673,0.6065090877,0.6058703753,0.0399586219,0.5778287355,0.3537006461,0.065958054,0.2186315933,0.5105304787,0.3539786022,0.1913847222,0.2083535705,0.1510244529,0.508845959,0.3761428549,0.5710805497,0.1519870012,0.7044640918,0.5884851413,0.2350473071,0.2789084509,0.5371201987,0.6255508635,0.3242424986,0.6982034906,0.17889698,0.2717271871,0.4236391181,0.0067101034,0.0068192482,0.4485048563,0.6039044129,0.425280687,0.1438108022,0.6192104117,0.2004241728,0.3469161173,0.2755093271,0.2973048718,0.4416980776,0.0400623362,0.5157763363,0.023198486,0.349985985,0.0903170236,0.3788357438,0.2257664284,0.3064825671,0.0761952839,0.677454326,0.1130448083,0.1008565624,0.4903360207,0.5043036702,0.2300726246,0.06214803,0.5018574589,0.06240812,0.385923231,0.4333306045,0.0136721962,0.6770029171,0.6816093878,0.5548413192,0.3094431703,0.4334502223,0.4712872295,0.3981678446,0.3396084339,0.470298295,0.3551092658,0.668660888,0.347521645,0.139604582,0.0812061489,0.5129729062,0.2100399063,0.2061139042,0.1240557906,0.5709128485,0.5014744615,0.1057021529,0.6105941801,0.086871906,0.526397853,0.5694853881,0.4518152526,0.0728618141,0.4279018437,0.5550633547,0.6877693181,0.0079306003,0.161611266,0.1313365759,0.0654202585,0.6295406572,0.3090732136,0.6766905197,0.1878261701,0.5265093673,0.1086796169,0.0923688344,0.5864948057,0.5489536029,0.0485405126,0.4623320588,0.4596287759,0.6836341101,0.541895579,0.3822909958,0.4325105727,0.3519946678,0.4133164984,0.1376407973,0.3977310065,0.6390504504,0.5172947827,0.0627474341,0.3014425918,0.2542653366,0.0582863193,0.3917055002,0.4023514688,0.4136076835,0.5694581211,0.0316174853,0.5457383892,0.5319832586,0.6665235376,0.1921130804,0.2563690216,0.3209929076,0.4862716964,0.0611605159,0.5538677273,0.2618781464,0.4250072243,0.3294611783,0.512962251,-0.1921062826,0.277066891,0.5419008032,0.1288150816,0.6268243456,0.6389115461,0.1391266328,0.6685012057,0.1226547252,0.514711358,0.0492466309,0.3345331337,0.4149776102,0.6017427261,0.0584634189,0.3019493804,0.433169778,0.2873908788,0.7142379931,0.2687277323,0.1474544792,0.6659804904,0.578924197,0.4325169193,0.1624963722,0.5587860824,0.6432831739,0.1437386485,0.2912948865,0.1175387374,0.6668353168,0.0045155489,0.4400441228,0.0521117461,0.124904412,0.5167927287,0.1991166692,0.0296569464,0.5927025003,0.5790534538,0.6297580492,0.6112258529,0.5437070898,0.4594644341,0.165861947,0.3038673251,0.2236250175,0.5375807427,0.6642733389,0.565899941,0.1301295851,0.3794823516,0.6210549415,0.1739768182,0.5022175871,0.2933592096,0.7030350282,0.0254799701,0.0993243883,0.2314784026,0.1213566694,0.1798632628,0.3884986285,0.4977760946,0.288373849,0.5631687718,0.2141892888,0.3560688358,0.5373765361,0.0010330575,0.2866176905,0.6765168319,0.1793485208,0.5392963204,0.3983082645,0.6360673733,0.5898598428,0.2840826165,0.1681135584,0.67943834,0.2688682842,0.2064542869,0.55828308,0.5807273338,0.4687604677,0.267250464,0.2222916506,0.0798370348,0.152905535,0.341994573,0.3019527893,0.0653693278,0.0254072332,0.1209690886,0.562712194,0.1410666483,0.2864345663,0.6961044183,0.0791799437,0.3573902805,0.2989451666,0.3772279058,0.0161738905,0.0157557436,0.2553651354,0.3745717239,0.2804736265,0.7069479694,0.1829539126,0.4125216889,0.0695299135,0.4144001609,0.6653967623,0.485368824,0.3965888129,0.0475142854,0.6395414693,0.5404856652,0.445872715,0.1397635462,0.6087061699,0.4804577762,0.6721503734,0.3664879243,0.6766115964,0.6258327519,0.0890784931,0.6101436648,0.6157750896,0.303052591,0.6356302974,0.4166177829,0.1033546326,0.2634988799,0.0854621731,0.3075035688,0.1674863755,0.4251095009,0.6369481399,0.1512320451,0.0625487049,0.5278242304,0.485896405,0.4178566086,0.0840218343,0.5952787677,0.5194512816,0.5182817006,0.023053883,0.4811345088,0.5270804345,-0.0561440476,0.6228082877,0.3407855689,0.275470833,0.5669940468,0.2702348439,0.0257261718,0.4164352164,0.4044690462,0.5023966264,0.2365051759,0.002784131,0.4844615903,0.6267447824,0.4123966614,0.0900651709,0.7134071464,0.2321996853,0.1459465497,0.5706841665,0.2135529834,0.4384605603,0.1790164249,0.1981751839,0.4335293323,0.0640672283,0.56409123,0.0082191652,0.0158307815,0.4958110368,0.5281908718,0.5285411098,0.6082265739,0.3403948495,0.1127485915,0.141590196,0.5348082248,0.422532128,0.3970170736,0.2548605123,0.2179430677,0.1203943967,0.6631600203,0.416868703,0.5768106829,0.3705554914,0.6496024327,0.3593469409,0.463588882,0.2469070492,0.2251674432,0.3289802254,0.1691099009,0.2242592384,0.5294276729,0.2646248397,0.1961079867,0.1975419829,0.3411129581,0.359114803,0.3892334238,0.4394607212,0.3230896991,0.1958943426,0.5303258217,0.2504768017,0.5803212464,0.6698850175,0.3473149,0.0176452323,0.3868949909,0.6739006017,0.2378167551,0.5807581446,0.3729432406,0.4705692387,0.3711430327,0.0380601085,0.4934340455,0.40869523,0.6002101314,0.3162404547,0.647047822,0.3805916165,0.1274872873,0.3233813389,0.3974522863,0.5112540639,0.6971785884,0.4702681178,0.3827260987,0.6661560132,0.3900083641,0.2953182864,0.4994524306,0.3021513966,0.311956152,0.1019983941,0.342271689,0.2153515091,0.2997769763,0.3527177969,0.3487348944,0.6403822961,0.6103594006,0.5412223327,0.1761459321,0.6983179752,0.342480921,0.2892947804,0.4884948283,0.6126669036,0.5890359432,0.627338959,0.6204114683,0.3171883421,0.0416529949,0.3166170264,0.0749272979,0.6124574578,0.3184851397,0.6632906689,0.0494008046,0.2529709924,0.5764860477,0.0354991081,0.4408997131,0.4727013025,0.0690972075,0.0082402593,0.2182392568,0.3549974582,0.5021597868,0.7066464284,0.1970525715,0.2219946777,0.4432540432,0.5246629742,0.564649102,0.6302909431,0.4189109597,0.4955464002,0.4940188531,0.0370299376,0.5958121741,0.6685917603,0.2361477311,0.6379329206,0.2155908081,0.5280659795,0.1516878488,-0.6019328859,0.3003844511,0.609633585,0.5246956005,0.2126539676,0.5179021225,0.6857911966,0.3740423018,0.255527008,0.1164370416,0.6199533122,0.3893124494,0.557835658,0.5162493288,0.0711810115,0.5903166667,0.2898453321,0.1917228715,0.4299731491,0.1699675547,0.0099913861,0.0822673869,0.6092204618,0.4303749154,0.3338793743,0.6835835638,0.1541850834,0.2012385253,0.0014786404,0.1462297856,0.1670450236,0.1928190425,0.6525925605,0.3040939163,0.0053726813,0.4680040268,0.0024557575,0.6186410921,0.6607751673,0.5260008919,0.2713956987,0.6105039437,0.1856914532,0.5936611285,0.3138320985,0.6997406452,0.63929133,0.0294159066,0.2422974449,0.2003565507,0.2374058633,0.3811752177,0.0203809443,0.1253440539,0.5717145145,0.1753528341,0.4709756448,0.0096708141,0.0459260166,0.107646019,0.6684662449,0.303970309,0.5889471391,0.1662244709,0.4506352213,0.2096791194,0.0566849197,0.3230430497,0.3896372221,0.349825293,0.6485033254,0.5588755738,0.0404069092,0.6624158725,0.705301652,0.0983809004,0.4010423728,0.0098662314,0.6586931113,0.6040567774,0.7000936115,0.5727020686,0.4372857361,0.4785023656,0.4120233006,0.1120961895,0.4609340548,0.468585425,0.339571941,0.0767204871,0.1066218786,0.6156683893,0.0185549906,0.1807477382,0.6248974444,0.0796046699,0.2042211576,0.5041008991,0.0621763784,0.479101953,0.4848437208,0.3648331862,0.5926935064,0.0025905319,0.4356845942,0.4024198749,0.100759618,0.1894758755,0.1114094253,0.0446563849,0.201707903,0.4415066056,0.1724870502,0.6424233716,0.4523866734,0.4429077339,0.61939943,0.2000712871,0.0565883801,0.1846977702,0.1655588237,0.0685762377,0.3709461,0.657154664,0.5649650308,0.6961659036,0.0750413554,0.3711176897,0.040687442,0.0795248566,0.3476006331,0.612253333,0.3239697568,0.2434753591,0.4572066983,0.4952855891,0.632752116,0.01616741,0.5387133828,0.5583946311,0.15331646,0.5175889936,0.0334352767,0.2684784932,0.3988247537,0.674120962,0.6524852661,0.6710250121,0.1177116005,0.2058761181,0.0900059762,0.1008826235,0.510768865,0.3567985824,0.5837652165,0.2066842643,0.0831146017,0.0021445644,0.7090010773,0.5958317768,0.6953454137,0.3698626504,0.6665381844,0.1810543134,0.4781310271,0.5213241365,0.6229979671,0.0297371547,0.0841058323,0.3614644133,0.2353812976,0.0792235192,0.6109325619,0.5019369895,0.5100280524,0.5742895921,0.5210647551,0.005501434,0.0119015666,0.1157839131,0.7125460175,0.4043814939,0.3291080008,0.2361841339,0.5370339654,0.0924783411,0.0248741066,0.0546829291,0.6227197185,0.3756339422,0.5352457505,0.1348969176,0.2661927469,0.3676689517,0.7040496008,0.4791733959,0.6099104667,0.4276241606,0.4561997522,0.646105033,0.6756452319,0.5399922355,0.146552429,0.4937390832,0.5279095776,0.4627035772,0.2117974082,0.4132945174,0.5030587005,0.4762584191,0.2883356945,0.1212034281,0.6155111195,0.572203454,0.1087669508,0.3513052574,0.1409743811,0.0331340592,0.080257446,0.0283550111,0.0082600326,0.571129574,0.5500085916,0.6572136849,0.5625559273,0.4651506043,0.3225120293,0.4027412031,0.1834364179,0.3905703857,0.376609922,0.1353523573,0.1240121324,0.5658106226,0.5352872192,0.2605847798,0.5231900528,0.0545237334,0.4352368992,0.5754366346,0.6523399303,0.2625575864,0.0302865105,0.3009998187,0.4381559489,0.1166167131,0.0321119211,0.3889041362,0.1363929927,0.0921313952,0.4111496338,0.663587874,0.3688170532,0.3096629197,0.2215763249,0.552264867,0.408385116,0.2046304589,0.6995045309,0.1554692022,0.2436235047,0.1913020993,0.0295937308,0.3091582381,0.1249392317,0.147656991,0.6225701104,0.6731793606,0.2325702606,0.1351129778,0.6921849407,0.6795271238,0.1615164768,0.6828798525,0.0101735284,0.6520908667,0.5310414413,0.2462806617,0.4962376018,0.1235477424,0.2559695209,0.0230344701,0.0828702408,0.045551872,0.4611627715,0.2111206112,0.7031956258,0.19494817,0.36937308,0.1620197988,0.6657083445,0.6609053868,0.321033253,0.6485552633,0.5589343182,0.0415105059,0.4889987049,0.7160349716,0.4228926405,0.625782027,0.5213503624,0.1679810936,-0.4733047102,0.1886868536,0.1402920529,0.0000783439,0.0145776153,0.0786800234,0.1138369413,0.0607350599,0.6518113458,0.6188304026,0.7104008483,0.0216569751,0.477037353,0.6246147763,0.4402401665,0.019791872,0.2104658045,0.3130232216,0.6808634398,0.397076013,0.6291696727,0.6932870009,0.0571248335,0.6458301661,0.4368856998,0.4617295923,0.1855907362,0.5418611995,0.463853879,0.294823411,0.6081363535,0.7013116826,0.4398555601,0.127365406,0.0554812665,0.0451170568,0.018853524,0.4127113205,0.1348930939,0.1184493416,0.0026251381,0.458495592,0.4740381379,0.4802418677,0.2846443594,0.140485058,0.5751375393,0.3424851223,0.0149695915,0.6733082807,0.1516731561,0.0083966752,0.2495883492,0.584265864,0.4665383587,0.5255651018,0.3543358241,0.1565841997,0.078256021,0.4045816324,0.3683996389,0.0381980056,0.1872956484,0.479582017,0.2845170302,0.5713502224,0.4599767077,0.6851239253,0.2659191123,0.150959765,0.5011073272,0.6925868487,0.4314101051,0.615797908,0.5213636942,0.0059099249,0.6171314281,0.2392245821,0.1661882071,0.6315284663,0.0375607418,0.6801249288,0.6799231329,0.615362372,0.4912247038,0.4285320426,0.4793218056,0.5220829844,0.4857559703,0.321864976,0.0903062873,0.5278325047,0.6241956256,0.0872487901,0.1718519883,0.071555719,0.3635194786,0.4355844829,0.0168035055,0.0951080279,0.5123382924,0.2472950597,0.1467933229,0.2726737657,0.3282698932,0.2110456067,0.6830837668,0.7084789905,0.3974334341,0.3600570575,0.6828483573,0.4218676983,0.5907667534,0.3364693953,0.1358897155,0.6463389073,0.4421349981,0.0947408332,0.2843789622,0.5623172288,0.2452881401,0.321634497,0.5699664732,0.383222231,0.5907859003,0.4691690393,0.3603495289,0.3995680415,0.5398896801,0.3858519481,0.4996737468,0.1991715529,0.5110870187,0.6546859672,0.3167536083,0.0342102151,0.2477754235,0.3872066874,0.4096771951,0.555391948,0.6380181079,0.6192409272,0.3926155108,0.3473404302,0.0953151637,0.632413741,0.6545702634,0.1014362977,0.4441547555,0.0065927763,0.4067050752,0.0732758317,0.6092722163,0.3528036271,0.6187940544,0.3299569519,0.1663319975,0.5125123305,0.0007573183,0.2409161506,0.5975998843,0.0414345703,0.107267594,0.3146902379,0.5518805045,0.2204352809,0.3313507805,0.5765106747,0.3966404187,0.0507736782,0.2260059721,0.5226368769,0.4923771466,0.6157551958,0.6263230303,0.2569259609,0.2413547583,0.195307953,0.558535804,0.458931078,0.6824761735,0.3169354901,0.100361764,0.6912049535,0.2286031462,0.6789965276,0.4044345443,0.3182465752,0.6191280691,0.6710830182,0.4931094275,0.3452659921,0.2206153398,0.1617210747,0.4793282132,0.3489792457,0.6595504613,0.0619494812,0.502128013,0.00240347,0.6670159015,0.7154241369,0.1325146086,0.1739268393,0.3998129811,0.5159481588,0.2577236614,0.2528684279,0.3534181116,0.2709429191,0.1139696315,0.0521026895,0.6981779758,0.3519641171,0.1499539537,0.6500334621,0.0587622313,0.2888618797,0.2107360683,0.6932662772,0.1868276332,0.1732071231,0.4642248689,0.2155446971,0.6655303582,0.1939265142,0.0783716764,0.2980988319,0.0800079627,0.5798788503,0.5416406178,0.1503294682,0.3384146403,0.064068684,0.3419182199,0.2609001265,0.0793094963,0.2167823228,0.4849435367,0.4856519224,0.2207844304,0.5170484007,0.0072608889,0.3369060331,0.0308940476,0.2532992316,0.1826667706,0.6016632654,0.5127342182,0.3907471745,0.4672723057,0.3962638349,0.4841144217,0.4970270028,0.4897353896,0.2065637241,0.6490740595,0.4500088703,0.1605042661,0.4091846762,0.6199659619,0.4397008824,0.6867300687,0.3353512679,0.0121578929,0.2097396343,0.3737142736,0.6741680859,0.0755974668,0.3461037664,0.5879985151,0.1728601933,0.5385586122,0.6587555151,0.268690213,0.2261969475,0.5580200302,0.1031816607,0.1161085399,0.7010568163,0.2199407779,0.1761309967,0.2922959013,0.4286046554,0.1636396643,0.6203970071,0.2445058536,0.4193454246,0.0052169042,0.3205257108,0.1207868668,0.1188049679,0.1083713815,0.32402871,0.4124058996,0.2646377155,0.1970694258,0.6750507652,0.4138236815,0.1525465773,0.1428404079,0.6090163894,0.6958175936,0.6152470718,0.1327998287,0.1321908851,0.0299223569,0.6838935171,0.3005868872,0.6501918289,0.1012301727,0.5440201654,0.3364910676,0.0951374291,0.0009820056,0.1381349013,0.5474469241,0.0450499485,0.538500609,0.4053629816,0.5481124679,0.2593216943,0.3559521156,0.3188596709,0.1814264014,0.4023320195,0.2483252371,0.2394795141,0.448068361,0.6095410868,0.4528927184,0.3064032249,0.241728564,0.6594664748,0.5420300865,0.5275518487,0.5301245202,0.2691068065,0.2993355623,0.6335228399,0.5638940275,0.0742422471,0.6338591688,0.666596319,0.0745229666,0.6837437973,0.380711994,0.3823832964,0.4162469947,0.6020396137,0.4827465532,0.4139738646,0.4111331583,0.2416230196,0.0413368807,0.0869445844,0.4737645853,0.3971001228,0.0533729795,0.2746349006,0.7006593335,0.5788674503,0.0461710102,0.0283186876,0.247003875,0.1621554397,0.0918466576,0.6976997399,0.3778202653,0.0592418098,0.6896627431,0.1838358851,0.5470516692,0.3655440588,0.3672976986,0.6207748919,0.1765095546,0.4874806938,0.280234065,0.0647466864,0.1754748107,0.5995190987,0.1542988433,0.3700084288,0.2030236564,0.2737149545,0.0260683406,0.1142116227,0.2678326288,0.163993713,0.1971558847,0.2390756347,0.5279846831,0.6961940977,0.1852904281,0.6943697775,0.2090968112,0.411872607,0.5503992923,0.2282123228,0.5491431509,0.0906400577,0.3713382206,0.2984710028,0.5406747249,0.1166729698,0.3954123199,0.6215128296,0.5790285956,0.6601138404,0.3760480844,0.3110984244,0.4924559159,0.4347521324,0.0919715625,0.0980445294,0.6328370658,0.3016660737,0.5924893268,0.6184868275,0.6313072444,0.6249629264,0.0777838798,0.2866393092,0.5785834512,0.5229923747,0.5083648157,0.1534208993,0.3247402669,0.2684486496,0.5533838943,0.2343771517,0.3192772582,0.2325641591,0.0691477117,0.2050164132,0.3603101977,0.0789441791,0.5574338443,0.2998401251,0.3688969146,0.4553191741,0.5714041013,0.6399791526,0.5988293665,0.5912869536,0.0214397432,0.0200903588,0.1269672363,0.1495830751,0.3063777354,0.3608324795,0.7112759352,-0.5033875673,0.0987292081,0.0776808704,0.1380098669,0.3549438032,0.217842946,0.4758206806,0.0736775554,0.384968496,0.4045505428,0.3066273472,0.2414561442,0.2474423543,0.2191018292,0.4281623114,0.6574837424,0.377736476,0.5244169623,0.5993303285,0.4132733051,0.156488227,0.2526701493,0.5587385869,0.501785013,0.1670500222,0.7125637433,0.6796362895,0.4659620181,0.2354976647,0.0209926224,0.1202357011,0.250533392,0.2892923605,0.0989003105,0.1259104356,0.5355297424,0.5127214534,0.6211863744,0.5332444225,0.5372064356,0.222493987,0.443479873,0.6982183775,0.3017002057,0.5642000423,0.260990702,0.69208101,0.0831506573,0.0794491906,0.3818727956,0.0829084108,0.5557038886,0.2815490513,0.3564909154,0.5086577309,0.5296123708,0.4233410896,0.6838926541,0.3043614767,0.3196335738,0.3023300141,0.7075980048,0.697704509,0.6266591139,0.2658668469,0.3561649945,0.705130111,0.3900618522,0.0411339318,0.5229300243,0.4175679332,0.3780678244,0.5992934352,0.0228133648,0.3458947459,0.45629473,0.6507111623,0.1578128514,0.6401584272,0.5278861418,0.1278762948,0.5469642887,0.5950572227,0.1855402378,0.1652605155,0.5940187401,0.1164329257,0.5431331391,0.2038604568,0.5469304149,0.6013279268,0.6257452503,0.2879142915,0.1606369002,0.6287021738,0.4496428843,0.1363264851,0.6106333101,0.4868544862,0.5780381194,0.0387628785,0.3078217447,0.5081215299,0.5565349543,0.0933100139,0.2701175452,0.4693791269,0.5655124331,0.1235520582,0.4293145567,0.4694117475,0.500002351,0.5711110843,0.5913425531,0.6734038939,0.6524949917,0.5576875985,0.4769047198,0.1165924466,0.1341056397,0.1789286896,0.3638461095,0.689371689,0.5172125964,0.1935215672,0.2543730431,0.5573825142,0.1584755798,0.271206394,0.1653627255,0.3709243074,0.2538818983,0.5094898139,0.4498666698,0.6253536247,0.0638787512,0.6624136285,0.655923433,0.1572197405,0.1256936394,0.5458764667,0.4599784785,0.330330962,0.6900589141,0.1385708902,0.1044367803,0.18576701,0.65687129,0.1026276593,0.6373687712,0.2625402475,0.0247901027,0.6211301323,0.6677722745,0.4724352984,0.6369139669,0.0577208633,0.2861883848,0.0516182736,0.6832170798,0.1290693339,0.3660654988,0.4272848548,0.5475007469,0.4664388894,0.4097783718,0.2924370013,0.6605827104,0.5049833961,0.1636766396,0.2161516764,0.5233139819,0.6501005324,0.1520438276,0.1082323829,0.6568728429,0.6005031702,0.3051398669,0.0280207395,0.5156945325,0.1419212448,0.630185488,0.4196299462,0.2497689441,0.2351408833,0.204139521,0.4598506363,0.6704804442,0.2320029018,0.6090258885,0.1627883469,0.1574825396,0.6428282808,0.3225716929,0.6394038835,0.6145149219,0.1030893532,0.5044134728,0.4784298337,0.6707354113,0.0410631546,0.3598590714,0.0114309828,0.3402974989,0.6174857173,0.6694580782,0.2020487498,0.1127773,0.3396109673,0.285112092,0.4776966645,0.0502522293,0.2608585943,0.078000773,0.4821559681,0.5589296361,0.6457263909,0.6186681956,0.1710540629,0.4653112222,0.6865717862,0.4524624107,0.3349110717,0.2316543585,0.3731845066,0.4239596396,0.60078775,0.4487831601,0.5576785305,0.4076201423,0.3454961961,0.1641024434,0.149860919,0.1287892252,0.0861206192,0.1989398496,0.1435894828,0.6013111621,0.3642556122,0.5252984555,0.1061827013,0.237035729,0.140813302,0.4445722952,0.2228445553,0.0387469012,0.0306238047,0.7147774716,0.6559236845,0.2001759047,0.2888218326,0.2782922659,0.5039429541,0.2025539016,0.1247206586,0.2633799121,0.5765893015,0.1139863801,0.1996370774,0.4391980955,0.1176652226,0.4972302805,0.5197785714,0.0688526672,0.4191968489,0.0082268559,0.3999284343,0.5085500549,0.6882751363,0.0416929367,0.1936464703,0.7086331801,0.0284997726,0.1197486447,0.557844017,0.0970438567,0.3724344124,0.0723164384,0.3140979498,0.0382919049,0.5540844355,0.0050889651,0.1832511503,0.6501877821,0.4322674261,0.3216046581,0.5888929065,0.441978571,0.5773178071,0.1365072364,0.3470163031,0.1074823141,0.5532228877,0.2237028184,0.0282003866,0.4756765554,0.1176609579,0.048688028,0.3495691828,0.6882204578,0.5465297601,0.2891083362,-0.1546101746,0.2639680549,0.4630094266,0.0908803799,0.4668774424,0.643053239,0.242075074,0.2868888652,0.6329368437,0.1579837577,0.4347392283,0.6447981229,0.641407098,0.6230351345,0.5804770895,0.3269753586,0.5750387695,0.0415905694,0.0618485946,0.0540520387,0.5799843321,0.6739141832,0.0652778595,0.6419461708,0.2332421949,0.0080217146,0.3378690938,0.3526470339,0.0420566963,0.4711251012,0.6534658647,0.1685994564,0.2095913587,0.3649006419,0.5189103989,0.0491573553,0.4529084414,0.5819910311,0.175710213,0.5142065529,0.2826491923,0.1694887164,0.5548147005,0.3514739131,0.0414944753,0.6727426774,0.322603164,0.714263924,0.6273819711,0.667819243,0.3229290995,0.1391285922,0.1541644251,0.4303541589,0.1080715515
   0.6690323182,0.3711922517,0.268341026,0.2466701466,0.2331844522,0.2345620629,0.4811936067,0.5102471003,0.4786649016,0.4056011709,0.6395930254,0.2707034568,0.3560638428,0.0521371422,0.2289382935,0.4591459902,0.1769546499,0.1815212222,0.4123481774,0.1213778507,0.1237598013,0.3932890809,0.0975090256,0.23415783,0.0693808578,0.2298667483,0.0513554897,0.5743929681,0.6424290432,0.4682792728,0.5737047692,0.4776805089,0.6653291048,0.1477660469,0.120687188,0.4018614625,0.5548226164,0.3429663414,0.5695420144,0.0537638669,0.3665516239,0.3848866902,0.2264020453,0.1800173472,0.4418803452,0.4488479352,0.6084151163,0.0343678673,0.0034681022,0.2113902325,0.403789807,0.3764905854,0.2796635331,0.4076061128,0.2693156349,0.2347776628,0.0030003264,0.2684997497,0.5689553812,0.6677407432,0.4345952011,0.2016239084,0.5752957388,0.3568189898,0.482150905,0.6234303542,0.4567769409,0.5951499557,0.3374258963,0.1771946142,0.0809421144,0.2865997286,0.2275113821,0.5242246823,0.4687999087,0.3793370196,0.0002369209,0.0479098637,0.5029528926,0.4002402269,0.4751069712,0.1799910527,0.0647834152,0.5725109783,0.3770542597,0.2626931108,0.3897462503,0.4175560338,0.5138404785,0.1924988969,0.4302682009,0.1457499206,0.5850183512,0.3020972208,0.0790737919,0.0917658411,0.3230879613,0.2656837294,0.6389307299,0.4704040933,0.3747638887,0.5911968165,0.6109998964,0.541645919,0.2086217103,0.0654785745,0.3949650157,0.3944892364,0.2144633736,0.3723144486,0.3114332945,0.2354945232,0.0845406433,0.5765757171,0.3070695847,0.0073345716,0.6420758207,0.6548016261,0.2992377551,0.4180100856,0.4040667992,0.2580257778,0.4293723377,0.3495861814,0.1124873446,0.2659784567,0.1582461735,0.3438237558,0.4113113885,0.1076246272,0.5452383257,0.7040789037,0.7034552227,0.5625294217,0.5101000225,0.5919881276,0.4118545668,0.2845399339,0.0434349467,0.2379817661,0.2349333728,0.2462289161,0.5964828884,0.1899098066,0.376585977,0.5830702272,0.527054083,0.4504586123,0.1609584672,0.3924056113,0.4605003801,0.0254362183,0.6087835626,0.686758837,0.39945581,0.4129737813,0.3934278148,0.0663250688,0.3412019252,0.3661044875,0.3866522815,0.5570399589,0.4890040516,0.6806658104,0.5255008582,0.5901724951,0.157615599,0.1302457593,0.6402202213,0.617217827,0.6181538519,0.4010360009,0.2392701196,0.0354246726,0.0237288123,0.4305312552,0.371362444,0.2603357058,0.1076101957,0.3858531186,0.6703148945,0.1711537672,0.207502348,0.1609789267,0.1773958929,0.5857986751,0.6471485937,0.6592952426,0.0909658408,0.7078071164,0.3248531011,0.176883206,0.3753019124,0.548173182,0.2351371907,0.6119031182,0.6576303604,0.3494553413,0.4323702829,0.1704733872,0.3992437082,0.303181004,0.5946582278,0.4709922023,0.5696490677,0.1253601081,0.1769131285,0.4244155827,0.5481240312,0.315327424,0.0221295215,0.1594682753,0.5642395865,0.5578382103,0.7111304002,0.4187556943,0.3430952733,0.0880076502,0.6444448038,0.1870737912,0.5692030977,0.6256164652,0.3543656345,0.5104405003,0.3220368194,0.206665592,0.3362720263,0.0280189871,0.1753483146,0.0036022113,0.4589074647,0.1884298489,0.6771613538,0.3877376198,0.5873990216,0.5886722231,0.1308052319,0.5751424151,0.6481667081,0.0570008786,0.0888588661,0.1480463673,0.120577677,0.6288971891,0.5944009492,0.3686978808,0.4250257072,-0.6384913159,0.0127082696,0.1780656126,0.3020906914,0.6880587755,0.386418384,0.3021030202,0.6987445636,0.5562931584,0.3282325927,0.7155891451,0.2070512017,0.6440805881,0.6511499453,0.5362730092,0.3788109621,0.0920781346,0.3230878089,0.0029814695,0.4596133733,0.3272211612,0.203358039,0.6219427349,0.2537622088,0.1832777715,0.1303520957,0.15202584,0.2675705228,0.6359002172,0.2417889374,0.5408389066,0.4932430851,0.4149663143,0.4318699595,0.1140304807,0.449713291,0.1296071373,0.2117911916,0.5230771545,0.3826448016,0.2287624777,0.5011285331,0.0397759227,0.4534393774,0.3079149281,0.514405585,0.3517979213,0.048760329,0.5901130638,0.3691055403,0.5046186484,0.2611638257,0.3558172967,0.305420816,0.6690337518,0.3412394595,0.2719697942,0.4115064896,0.6799169897,0.3890431019,0.1085500899,0.3304221817,0.0270680122,0.6859506299,0.0906427204,0.4331738012,0.7036442774,0.3200748891,0.2955357568,0.4229202307,0.3831190856,0.67949198,0.468147358,0.1395905519,0.297533383,0.5219596486,0.6383871613,0.4991056281,0.1192508723,0.0886739314,0.0137194857,0.0684703892,0.3723213128,0.2198824016,0.4857725738,0.088537129,0.4116616469,0.6197217514,0.2277021329,0.5373046073,0.6586167351,0.3839827647,0.6871809986,0.039688795,0.2416425033,0.2807652385,0.0166951832,0.034750323,0.7025555073,0.4747818112,0.1245348909,0.2741648095,0.6464736686,0.3116577922,0.3189594292,0.5009217206,0.429692283,0.2916648347,0.1367340686,0.0586410131,0.4102778716,0.0707917465,0.3260630869,0.2739771577,0.6128330848,0.2641327252,0.3465491194,0.3615366845,0.5808534309,0.1637548502,0.2378162415,0.5152802384,0.3012531107,0.2681745229,0.0911453328,0.0754659134,0.2130406112,0.6073178916,0.4815614524,0.6062456337,0.3733786226,0.3711349266,0.3895900964,0.2393344105,0.1959212645,0.2016518775,0.4081459775,0.3522734046,0.3549145349,0.1665623244,0.7027465322,0.3361108295,0.1799198984,0.3479031013,0.6575704315,0.6795964476,0.5830736549,0.3370922072,0.6252659103,0.1058307943,0.519466102,-0.5653046548,0.0752951331,0.5353543128,0.3887506896,0.6459002663,0.2303503628,0.3127132367,0.5036225553,0.1205296868,0.2667678271,0.5589617595,0.2911071742,0.1431322834,0.5701118633,0.1839294316,0.4931292728,0.2425033603,0.2243956767,0.2456386653,0.1439422867,0.5299981397,0.3878154269,0.4915403285,0.6092452743,0.4004422131,0.3441076124,0.6167863226,0.2701450176,0.2983571443,0.686429764,0.1877404727,0.1648461136,0.2513352273,0.0115260632,0.4144946558,0.4481311623,0.1874192525,0.3104093069,0.4326632161,0.4759651718,0.0359689609,0.1683347538,0.2876740877,0.5769594438,0.3627876522,0.3544383056,0.2349602092,0.4737735112,0.108683605,0.029440798,0.1140458077,0.3640979645,0.0780190986,0.2364180646,0.1993498493,0.5439496883,0.4583654684,0.4914810045,0.4073045226,0.1955617767,0.6398700354,0.2467182005,0.1509503551,0.6646154544,0.5399495567,0.1781608043,0.0326424472,0.1990911527,0.0018541186,0.2931158945,0.0339123694,0.4233576833,0.1393938589,0.7098365018,0.5547810089,0.0432267673,0.5106758175,0.3539564074,0.5265084935,0.6463823357,0.2071108812,0.0159876504,0.4661178866,0.2202859471,0.1093636032,0.614335258,0.4950466009,0.4880485876,0.0407004154,0.5620719786,0.1172153061,0.3065536191,0.2444971071,0.2600249567,0.1967868796,0.1857293399,0.2330418511,0.1409736794,0.0587220822,0.0773416332,0.7125821924,0.0678571039,0.2295458439,0.2200104164,0.2531153597,0.1055893599,0.6838011855,0.5690903913,0.5240576556,0.4145004231,0.4907849925,0.6243041911,0.5770778869,0.5177726771,0.6831538142,0.3813888392,0.7104781212,0.1976225814,0.5297150005,0.6895769431,0.440265158,0.1218498513,0.0314192189,0.3468369111,0.5646617536,0.1257546431,0.0644412447,0.7051088159,0.5773589695,0.094276341,0.1537740299,0.4622681502,0.2185905323,0.3267585032,0.0533362314,0.0195287564,0.1294123075,0.4618883552,0.6983656114,0.0303455144,0.2555530146,0.4947097443,0.1589328945,0.5464220841,0.6002128487,0.7150663136,0.157780085,0.7128670686,0.4756633517,0.0285688201,0.6566071391,0.1608183364,0.5279586192,0.0793236127,0.4536962948,0.1515166387,0.0264127476,0.2563140574,0.5309496089,0.0919049557,0.2465957085,0.6546452059,0.0162109006,0.074098444,0.69907634,0.6707614581,0.2726269496,0.1141651512,0.1403368117,0.0509062455,0.1725047159,0.4767755764,0.3478169267,0.3522672206,0.6967510898,0.4014321563,0.53158999,0.0568940833,0.0660893254,0.3612649877,0.6253813111,0.6691841841,0.1429094495,0.648214221,0.0828501977,0.18744054,0.0792242346,0.2074131745,0.4649554719,0.3302765046,0.3718077551,0.134218617,0.4881145306,0.4232580994,0.6799585641,0.2362848044,0.0171164397,0.0562200483,0.1673233744,0.4302310021,0.5656412993,0.4287837985,0.2105893992,0.3003801456,0.1251154759,0.228091938,0.0077387606,0.0563358933,0.5122972976,0.079578551,0.5671999364,0.258792885,0.2437925715,0.0531306041,0.6737366052,0.4341958204,0.4670359262,0.3099817546,0.4786024988,0.0680550907,0.3123461077,0.3078841513,0.1351059554,0.5431777667,0.061663007,0.1275872119,0.6748609627,0.0237487355,0.2651448062,0.6969739813,0.3256665386,0.3694985344,0.5704611401,0.356146481,0.2519703644,0.6286300998,0.6447050005,0.4859722746,0.570562022,0.071538983,0.7101779049,0.086415914,0.3739314745,0.6961391148,0.3658554237,0.5337931732,0.300101703,0.3934846583,0.7133006545,0.3623207014,0.635423685,0.1043732499,0.4550588674,0.6346661955,0.6896529342,0.3757142225,0.654544107,0.3401715819,0.3055112341,0.3149653821,0.6859703241,0.4163098296,0.4809403873,0.0691643108,0.357321951,0.4017815115,0.6643235202,0.6794996732,0.5367055988,0.6213579886,0.0415870474,0.2669246133,0.0321404543,0.3940156957,0.5964183714,0.4607274177,0.2782548824,0.0237158326,0.4188939171,0.2783122544,0.6585430388,0.1416888206,0.3375245594,0.33616752,0.5121546952,0.5755262504,0.2779634376,0.0643558551,0.5284711626,0.4539767027,0.5606876561,0.3937703455,0.2246049111,0.6984906784,0.4850543272,0.4470507322,0.1306186858,0.0521656584,0.2417200464,0.1775748756,0.6155023568,0.1626889728,-0.446199761,0.3648098201,0.6657458297,0.2725965138,0.2089023535,0.4506333858,0.1820812423,0.2641607048,0.3251422918,0.3176898351,0.3846986339,0.644415261,0.5560573389,0.0399726598,0.3323836087,0.2623621274,0.7013691286,0.1367878508,0.0693164411,0.4809025834,0.1491031573,0.5462351702,0.2160989536,0.3888425878,0.4402307245,0.3403643506,0.557873724,0.4872168538,0.1207090931,0.5003461927,0.3483102161,0.0212046147,0.3103136459,0.3022169388,0.6200582977,0.0005099261,0.326021782,0.6008941863,0.6243354757,0.1930241621,0.2019138017,0.0275174985,0.4669345132,0.2354890148,0.3845191714,0.3737078823,0.1991988375,0.4085705049,0.2495305691,0.6652287745,0.2923233929,0.6738393044,0.1171333579,0.2306296694,0.3537914082,0.3107560777,0.188612166,0.1042527101,0.4153545262,0.2733509758,0.4907946122,0.6326733915,0.3580237826,0.2234502405,0.6433871637,0.2575605301,0.4071791045,0.2794548449,0.1901514186,0.5882129861,0.45678339,0.1892156661,0.5156044844,0.4947631466,0.4334118139,0.3008951771,0.2297230817,0.6958557507,0.2097535072,0.7112389779,0.5415944182,0.0590253757,0.5394760917,0.3314858605,0.2796586713,0.263455995,0.2629232304,0.6883800433,0.4101537347,0.0196257266,0.4726775876,0.4032427777,0.4024073418,0.1254100631,0.3952313292,0.0760070548,0.5631544988,0.5902678025,0.5941786605,0.1102016386,0.691469992,0.4503449118,0.4551016564,0.6890913026,0.4720215335,0.4154365438,0.4767039323,0.4330725171,0.2848714388,0.2243563584,0.5533636156,0.564471866,0.5129559049,0.5722017848,0.140345733,0.01066291,0.1007754249,0.583883863,0.404070506,0.5687840285,0.6512882224,0.3821640772,0.3777683025,0.4299912687,0.391058973,0.2960023898,0.6409880823,0.2775792023,0.1914058933,0.612685043,0.6731019142,0.6466171635,0.0159483142,0.5303695621,0.5862500989,0.27194811,0.3225637211,0.3116163432,0.6389630118,0.3713474825,0.2262536697,0.0436286786,0.3584600539,0.1077895673,0.4130279094,0.7080088312,0.5154516356,0.401510632,0.0676477342,0.1696852939,0.1610377229,0.1577480324,0.2114663356,0.0661192922,0.1564711355,0.5044986337,0.368018685,0.6992522142,0.5849994858,0.5957301214,0.1515952138,0.5930560355,0.1472625432,0.5611473573,0.2866017589,0.0024688006,0.3390131918,0.5961809335,0.3815634025,0.4595441432,0.4634189569,0.2227255889,0.7023157972,0.560770383,0.5650796543,0.0965174771,0.526066299,0.5105326482,0.2627916204,0.4579343808,0.2554762489,0.357148159,0.3212782956,0.0555856653,0.2396254097,0.5290803656,0.0428736501,0.6615329718,0.4192226718,0.6037678974,0.2697030428,0.2199379815,0.0980255044,0.5291540486,0.3323522361,0.3184404791,0.287806007,0.6783303874,0.3996561586,0.5738753588,0.6349258365,0.0028884319,0.593792287,0.4768464345,0.1225043827,0.4315853568,0.3916929743,0.2774904054,0.0664424616,0.1795953903,0.1283797252,0.7066888405,0.672037136,0.1262171918,0.5797266262,0.6513883839,0.1924358838,0.2911025782,0.3783641215,0.1457742627,0.2595206906,0.0310848075,0.5644204463,0.280384859,0.5945970137,0.1872079346,0.2867942745,0.1676561614,0.4676504716,0.5851463563,0.4171978323,0.0599482386,0.3593969834,0.5895352012,0.7043112888,0.1838915799,0.7080099852,0.7069112959,0.6359224523,0.0466430185,0.5005707996,0.6529945742,0.469720404,0.4443830211,0.0912085788,0.600836106,0.6132514966,0.2120017011,0.6316339574,0.666559718,0.6323193575,0.1133366536,0.4173593416,0.5859135624,0.049658466,0.233175304,0.3379295474,0.0215840618,0.2930953706,0.271411236,0.4883879753,0.0878049182,0.2497700602,0.2850661704,0.3409798088,0.1957796554,0.1331432196,0.3142315502,0.5174750685,0.6407843924,0.4292852016,0.512817106,0.5577272651,0.3366598659,0.3343912785,0.4325174091,0.58266293,0.458385437,0.4864546276,0.1029998954,0.184843718,0.3641006435,0.5995760757,0.0223167131,0.4827240092,0.1358541023,0.2061660543,0.2167087601,0.4550786047,0.62206011,0.3285287818,0.2202890762,0.3209492986,0.0346738951,0.0212155864,0.5949426021,0.1545437766,0.3513362864,0.4218778541,0.5959093172,0.2653552035,0.3537174894,-0.6669739436,0.1486366325,0.5347507065,0.5864277407,0.556883116,0.5925259543,0.3961345595,0.5920305438,0.6851897421,0.0462143832,0.6611426457,0.5731418889,0.0341558697,0.2171529061,0.3745446655,0.0645352731,0.6035188484,0.3649973017,0.2285246533,0.4152506683,0.3489798358,0.2567067942,0.0736979323,0.6606145134,0.3884211368,0.4295892233,0.4226276731,0.1849721467,0.6467655703,0.1332578807,0.1333167564,0.6656578676,0.5316786267,0.6771141702,0.1575777869,0.2725460065,0.2359978126,0.5143230295,0.464596822,0.3473047475,0.5021482882,0.0153666618,0.0051399468,0.6669061206,0.7081433705,0.6280659329,0.5015497272,0.0540386751,0.3628728954,0.6220566729,0.4302256955,0.4359235778,0.6806901963,0.003271436,0.1094961091,0.6819547143,0.0925157944,0.6206886451,0.4662880968,0.0566386311,0.582290208,0.6512666069,0.3860636608,0.2830691634,0.5155078814,0.593454317,0.3268898822,0.4420042694,0.4288675264,0.0580252125,0.6301857406,0.1915285212,0.5002244824,0.153079723,0.1721693744,0.1380435944,0.3682020778,0.4802363949,0.4993224852,0.6923564235,0.3559421927,0.2330210094,0.5068627155,0.0316592953,0.3636689222,0.1883813208,0.6802151957,0.4192435988,0.1397237836,0.3008319473,0.4733555797,0.4395880451,0.6477895273,0.1725386663,0.6712247387,0.3361673017,0.5676415753,0.1422369858,0.0037320764,0.656363415,0.1021610683,0.4607819791,0.0345513933,0.5121815691,0.4828840856,0.1921424015,0.5014477687,0.3318037738,0.4389436452,0.0427795035,0.4092468368,0.0192898849,0.4075226138,0.0394233081,0.4388666314,0.149784784,0.0390343701,0.1596707102,0.335793674,0.4556388497,0.4988302538,0.25999188,0.5487032079,0.033340201,0.0729621461,0.1526106484,0.4027220931,0.4702711995,0.4043112899,0.1054037873,0.7157913293,0.6531883494,0.6305501417,0.6272089879,0.493237196,0.5600997359,0.4145441825,0.2151296119,0.4935239696,0.2817901811,0.6124360994,0.2801132832,0.2314149291,0.1017985,0.033408698,0.3212321306,0.6514492677,0.5128489079,0.6293947668,0.4389992768,0.399386249,0.3564764674,0.2546284893,0.1762507365,0.2821334408,0.5196442665,0.7081208615,0.002447984,0.3158901312,0.0368287417,0.5627785737,0.5658687212,0.0440296505,0.174223137,0.4999723132,0.3118638605,0.1284246217,0.6758266319,0.4157661694,0.4028534974,0.4030212652,0.6626448804,0.2013046494,0.5757115091,0.337256968,0.3943918551,0.5452683736,0.1389666387,0.3202949539,0.5091032007,0.5324165528,0.0401752302,0.5530766793,0.514038353,0.2472057995,0.0340566427,0.0772124426,0.0271452966,0.3587767464,0.5485932412,0.0451392257,0.0194828917,0.4549684637,0.5000965976,0.5718284296,0.2630259979,0.2799459632,0.5316663722,0.3942663599,0.016881768,0.4861726823,0.1393713689,0.6718404223,0.2064159625,0.6788650347,0.1893457178,0.0061117791,0.6314923626,0.4419055976,0.0221251744,0.3834530785,0.27748322,0.5832567489,0.3330032324,0.3691595054,0.3444869193,0.5473846847,0.2176919011,0.1690130595,0.6428479955,0.3406978874,0.0123887484,0.0034181729,0.083446231,0.4697280212,0.1215677891,0.3020824289,0.5744599849,0.5112841453,0.2186955972,0.0155005731,0.4048364037,0.2293286161,0.4727202576,0.4161336757,0.6681242702,0.1956212702,0.301042013,0.4884413897,0.5995201423,0.3640268294,0.1571523977,0.5288082884,0.2118565599,0.0189051808,0.1604183178,0.4774179618,0.4564852063,0.6415923474,0.2897477747,0.6689451446,0.3322008915,0.6295301377,0.3275362842,0.0710739982,0.1191270175,0.6533642603,0.1876148885,0.4989376841,0.2910359585,0.0672090414,0.2738720195,0.2593772688,0.232057403,0.5776764072,0.5080554441,0.4252017184,0.6328131005,0.2937268902,0.0176173307,0.4555967323,0.5639609323,0.1800065859,0.6618781554,0.0822398114,0.2451699843,0.4006542988,0.5620829656,0.7004792606,0.0376151966,0.0567417333,0.4136053684,0.6229737439,0.0556219331,0.1587406163,0.3956142464,0.096619765,0.6627221267,0.3608394891,0.285249715,0.2358997138,0.1133405196,0.5874732557,0.2570779317,0.5839927831,0.5259079516,0.6126396675,0.1635209386,0.4686271174,0.6926632724,0.2756260837,0.5687287781,-0.2043720594,0.674044038,0.5399119014,0.6042325266,0.2589380642,0.0774783694,0.3452627481,0.3786339922,0.4657989834,0.5796221314,0.1396476811,0.6057267228,0.4064313146,0.6790987413,0.2476463133,0.6857264348,0.6680474423,0.6046863267,0.4674756618,0.6311193545,0.5297690888,0.6252243077,0.6672898387,0.6324069878,0.6148890948,0.0677238283,0.4770461101,0.0589283337,0.5778333736,0.1807406391,0.025729438,0.3342945502,0.4687988837,0.5638070925,0.0409923854,0.5319248288,0.2665030698,0.6729557155,0.1260426528,0.0425699907,0.291544187,0.1208814282,0.236017054,0.5047088306,0.6440103195,0.0132064208,0.4259969572,0.49356007,0.6402149754,0.4864331962,0.5521352546,0.4906148852,0.1375147587,0.0912916001,0.3925883375,0.2513138031,0.1551370818,0.6832924034,0.0223455081,0.5311760043,0.5342042193,0.3321946601,0.2713011802,0.4062578187,0.5255754476,0.1642457667,0.2086140983,0.0245425563,0.4440547539,0.4013914495,0.5532939963,0.6434652669,0.3126514463,0.1787057301,0.5037238279,0.0305902087,0.6932547628,0.2561025175,0.5052400935,0.2142167717,0.3936537658,0.6534469977,0.2301652151,0.4710278919,0.6045813342,0.4966112213,0.5320787272,0.1851047936,0.3349336234,0.0581151744,0.662204227,0.1972673222,0.4042814445,0.4237961513,0.4239766072,0.6723220269,0.4400963649,0.3514074794,0.3445541886,0.6035342703,0.6721907456,0.7018138467,0.2807150748,0.5429812582,0.4234815683,0.0757817322,0.5727855615,0.3317957806,0.4549387699,0.1965491576,0.4947020185,0.0141155674,0.4075035659,0.0236714295,0.1451682022,0.2517054991,0.451589229,0.4894302353,0.1872462067,0.6502007689,0.140342378,0.3330262478,0.4342519209,0.4374952939,0.3309278259,0.6099128443,0.0794523588,0.3083338415,0.3789826951,0.18031639,0.6397692238,0.3771285132,0.0584847814,0.4984469195,0.3851828738,0.3952282552,0.3060136167,0.4675362366,0.6275963343,0.0606490182,0.3754016866,0.3237225528,0.1833438288,0.3232891172,0.5084045544,0.3270634308,0.3242988153,0.6545739836,0.4602264541,0.6941836982,0.5947285595,-0.6782042656,0.6787747231,0.4655022003,0.4245240388,0.7021558447,0.7146483673,0.6938539439,0.2260809264,0.0063003399,0.1300605672,0.3309836307,0.3234440811,0.1379704478,0.1698354125,0.004116604,0.1252188499,0.0146569723,0.1115222054,0.3156351051,0.5378984475,0.1090353196,0.0576480578,0.2834929143,0.0973042861,0.0935746824,0.32398738,0.4243078504,0.0791162526,0.3200129507,0.4679807627,0.5221147254,0.1646967073,0.1321964673,0.0758744599,0.7034445335,0.0987575376,0.1313175539,0.3339319857,0.5732688727,0.3658751963,0.0176188532,0.1780820615,0.3226575661,0.661321104,0.0953755479,0.0728821437,0.1725428097,0.6759522857,0.0184893022,0.2411678881,0.5550940465,0.0856520665,0.3007074156,0.0874250931,0.3140914554,0.151765838,0.2082700575,0.0722886089,0.1740729421,0.1744156499,0.5484401657,0.2772883687,0.5408031729,0.1285489194,0.544482197,0.487367205,0.5434952108,0.1104474165,0.0610387646,0.1869662134,0.0666468491,0.346196525,0.4505090408,0.2918747156,0.0838742872,0.2394267961,0.0838152392,0.4266675386,0.6345084307,0.1870785592,0.5038157665,0.7095560769,0.2933598303,0.458830625,0.3421629359,0.0689855155,0.0158650637,0.1586544876,0.4429486847,0.4845293394,0.6855561095,0.6192615413,0.020096086,0.1076708499,0.1006367963,0.4461714083,0.3737606271,0.6786402963,0.4778620807,0.1137656546,0.0240695288,0.1400034701,0.5732849021,0.5110459574,0.6678437006,0.5733771099,0.2736474928,0.7092836512,0.6436959377,0.1820646923,0.4983074496,0.2078180018,0.088797298,0.2310473448,0.3853286112,0.6708719957,0.5609580422,0.2109668179,0.4624122562,0.0810426106,0.4052174968,0.2303654063,0.0929803253,0.2664350368,0.4325960622,0.6003035358,0.5220496642,0.3461387936,0.1653826944,0.0800236759,0.4140203714,0.4419449086,0.5867807218,0.0442405346,0.0140702676,0.1531541244,0.5404075829,0.223435857,0.494573243,0.7104462677,0.2327134962,0.1884420071,0.4530396148,0.0755406737,0.128101474,0.5370260805,0.6689133773,0.1810727875,0.1484820577,0.6615854067,0.1246235143,-0.6590578357,0.4772272946,0.6939520657,0.6884634151,0.6888048088,0.3600511757,0.4658159931,0.5679009278,0.4218592288,0.5059861609,0.1807970497,0.2864405855,0.38935389,0.487343993,0.1498714677,0.6444608878,0.0927903346,0.5412700695,0.3774511403,0.0462696797,0.2300801513,0.2722614857,0.0790526163,0.2994050457,0.5099283341,0.1192394012,0.5568793616,0.6992114499,0.6356372586,0.5357644992,0.6677516521,0.6130805737,0.2539729864,0.6343146941,0.0116637551,0.2937641724,0.6847498606,0.5877112166,0.4095404571,0.2585049694,0.2693439557,0.3021453974,0.0555753301,0.4992509227,0.1194576482,0.0681767321,0.6857799173,0.2776875648,0.4077542509,0.1450984367,0.3311330491,0.2037595819,0.4218439193,0.1427066849,0.6582210828,0.1904151701,0.4242431933,0.568527194,0.1885170269,0.2762057269,0.1784833939,0.2400311296,0.4519969205,0.4447393416,0.5354338944,0.3834119797,0.6130014181,0.1188349624,0.3102759361,0.5721957286,0.664172742,0.6001165677,0.0300807848,0.2556398015,0.3062736508,0.1986517648,0.0288645344,0.7084691307,0.2742729107,0.5758007525,0.5398901695,0.0004649031,0.0204690505,0.1358291252,0.3568920129,0.1335949499,0.5531151562,0.3756483458,0.4201316453,0.2743946298,0.2482658689,0.036971643,0.1265454249,0.1628222302,0.2725326097,0.6438327673,0.0032726631,0.6596033339,0.5385309761,0.5932307177,0.2961737933,0.611351172,0.1335965552,0.2411536649,0.528585966,0.3288393678,0.4170255526,0.591684617,0.244495175,0.2721423908,0.6118116253,0.2302459074,0.4433495769,0.4607914504,0.3122840431,0.2040728947,0.6696408427,0.0548924878,0.5751079791,0.2367067462,0.0736452046,0.2320889016,0.0834338951,0.4110303137,0.6115339285,0.2593916058,0.6180478214,0.0397902565,0.1207868647,0.3040009004,0.5860786319,0.2178118626,0.1808343033,0.5775565492,0.5307905717,0.6260629998,0.4809671436,0.4437437665,0.1458624816,0.1111036347,0.5652554734,0.0602280556,0.2502972833,0.1397362021,0.3932866223,0.2428682162,0.1247025861,0.1911812764,0.4907670023,0.5527334236,0.0928620404,0.3046196297,0.3677435,0.1937421604,0.262719733,0.3034653739,0.1946554201,0.642665839,0.7002591022,0.4661958621,0.4007173872,0.2527906488,0.0759909679,0.6409275529,0.0942790535,0.6609123909,0.5286075476,0.4904622288,0.6780175484,0.4699485797,0.2807198977,0.4791501974,0.2697862723,0.5791980496,0.3159176274,0.5948750147,0.1706126623,0.0821935851,0.1434685143,0.058227062,0.0638891815,0.5140687181,0.0657714203,0.6904393008,0.4047112477,0.1604166476,0.3663809048,0.7014048718,0.1705364613,0.2419041044,0.3904133296,0.6713387474,0.6613250043,0.1454656095,0.2091517131,0.5472554204,0.69535006,0.6825939776,0.6395440842,0.6711514453,0.6248906071,0.7116693415,0.1187161975,0.3510066221,0.1502675325,0.403603462,0.4006368094,0.1940215391,0.3328886057,0.3693045963,0.5190357725,0.6333990796,0.4034851619,0.3385053161,0.217888441,0.5424939154,0.2160313336,0.1369179257,0.6285380264,0.1406366313,0.6433631279,0.307433941,0.01502112,0.1576136525,0.6022572322,0.7050024551,0.1517630985,0.3183507549,0.5057180459,0.043904272,0.6757392757,0.0504185924,0.1659521492,0.4719639986,0.3401952813,0.3743703002,0.4017127436,0.5714738059,0.4030363498,0.0767093567,0.5348081122,0.5477898865,0.0109204651,0.6228417753,0.6185565425,0.3266096932,0.4056491034,0.5214109268,0.4090296147,0.6616350437,0.6740764104,0.2159944097,0.2136204282,0.5442159804,0.4159902833,0.6373251094,0.2159179752,0.3698642773,0.2384151135,0.2355406833,0.6615147666,0.5989148596,0.1912206478,0.2628558364,0.261430961,0.4093953856,0.4658606324,0.6555896963,0.4514047945,0.5856597126,0.3083624134,0.0283253447,0.3036513139,0.2152949238,0.6889822491,0.3639227565,0.6655232882,0.3861542616,0.6908535329,0.4472961869,0.1966972151,0.6912977011,0.3508046251,0.5265120178,0.5309818661,0.2569170377,0.3716723328,0.6232259704,0.4519821928,0.2649038463,0.5964501508,0.0811420907,0.3437966777,0.5086913225,0.185717709,0.2496822162,0.1198233767,0.4554853324,0.1798817219,0.4572300757,0.1970751385,0.3093207932,0.4096564183,0.7105643861,0.2633975567,0.6729110845,0.5953542749,0.4415303932,0.5147386685,0.5398045092,0.7004673799,0.4447025716,0.5869828745,0.0874646927,0.3881758523,0.7126074934,0.2121976234,0.6540862624,0.1196117864,0.3195056519,0.5525898627,0.2420487827,0.0061506395,0.113516111,0.5888527267,0.1223162654,0.3422976089,0.6630960887,0.1004192848,0.2146673033,0.4565874725,0.4601066566,0.0092699502,0.3444992276,0.2071166376,0.5843663025,0.567962458,0.2366123564,0.5138721798,0.4834210235,0.39042811,0.3160789551,0.0178578534,0.596530944,0.2191228942,0.6293750438,0.0200769758,0.5720660229,0.1714211487,0.1026129379,0.1158110605,0.0238258509,0.6637017793,0.470744997,0.0081716433,0.1339417197,0.0202888935,0.3758743289,0.5005547677,0.482995714,0.5656037268,0.3157344279,0.5928868528,0.7086938347,0.3002085331,0.4822411289,0.3344924682,0.1113153493,0.0211899786,0.0361443886,0.6998322151,0.0751453619,0.0705100363,0.5686582623,0.0172625277,0.5434507639,0.1027561948,0.7009384714,0.3493341936,0.5580074268,0.2675591655,0.6382569699,0.2852193098,0.080947621,0.6721120278,0.2383136426,0.4526825272,0.4438157719,0.5097068905,0.2792442356,0.0367052921,0.4624340296,0.4900282858,0.2983195006,0.271192773,0.1897760148,0.0290236562,0.05705173,0.5706345532,0.3681989842,0.0934564701,0.3529292307,0.6751271077,0.2284404887,0.1452161997,0.2621196281,0.6550708736,0.2685347987,0.2844021015,0.4745134185,0.4420084617,0.4774870654,0.3343119459,0.3017890961,0.2110013903,0.0017539574,0.4412157325,0.210379963,0.1117621329,0.3820064591,0.5871673252,0.1857712691,0.4596841515,0.1886786588,0.4438897635,0.499355279,0.7131776455,0.0467847965,0.4482615177,0.3499895145,0.1789353571,0.1579620658,0.6283551323,0.6753077791,0.250832333,0.3542114342,0.1145740126,0.3233667514,0.0105239843,0.2377618461,0.5123445175,0.1636105187
   0.2474621523,0.5011227544,0.3007940109,0.7068543282,0.150148995,0.0501137065,0.5043229918,0.6025972074,0.3917913967,0.5197762295,0.6356244811,0.1452937545,0.0017874952,0.1951831675,0.0250773985,0.5341031823,0.4448032412,0.4388499489,0.4207104328,0.3633973435,0.7134489791,0.6360091109,0.2434685641,0.4876754337,0.4507634252,0.2174818639,0.4012434241,0.3686950822,0.5216097112,0.3875685347,0.4386710989,0.2383277213,0.1896310721,0.3337663576,0.5916668557,0.5524793306,0.2115753859,0.2094010224,0.1373013772,0.087642017,0.1947658809,0.4745803201,0.157892721,0.703378835,0.6679445223,0.5556397994,0.1429375168,0.2892246703,0.6428063392,0.448962064,0.1049841692,0.6491450494,0.0158366487,0.4247741307,0.5460823108,0.6987085337,0.3070609339,0.7035894835,0.2754618197,0.3905331735,0.3354382314,0.3672859607,0.4042617812,0.3194918328,0.1785825162,0.5317101084,0.5332089639,0.2836863964,0.3263435689,0.4539802681,0.619896944,0.4597686893,0.1027601403,0.3971211543,0.5404071354,0.4103014416,0.2680182689,0.1106477351,0.7011463371,0.1377771333,0.2809992347,0.1808563035,0.6487123563,0.0602984228,0.6447581122,0.5600228425,0.1726715399,0.7005352458,0.2943632541,0.4268897489,0.1058530247,0.0535229238,0.3312058669,0.7131710422,0.0216058795,0.6032149911,0.6235944766,0.1378518292,0.0495004949,0.1543978372,0.6456236897,0.3371712348,0.087498722,0.6624127973,0.2253866477,0.3598130192,0.1416858115,0.2482972691,0.560612156,0.0476924152,0.4762988284,0.0552555509,0.4815572184,0.5522494567,0.6697194873,0.458967957,0.2833804978,0.4369810305,0.2945240808,0.4647060985,0.3603443505,0.1682360347,0.5083621376,0.1281432108,0.4819144383,0.0868957089,0.1538677477,0.3510731286,0.3667558747,0.6732344664,0.5181153397,0.26126444,0.1435638552,0.044037979,0.4592692078,0.6143905719,0.6892577602,0.1331373294,0.0806583476,0.6674117568,0.0244257391,0.163834148,0.3801073061,0.1414552871,0.2102428904,0.6838418045,0.0529197112,0.659127939,0.6834841086,0.0782247077,0.6671923665,0.0847810915,0.2644113546,0.5886614491,0.041280748,0.0973018019,0.7129559856,0.1069461873,0.1685236411,0.5327393035,0.5556393107,0.6285945972,-0.6850558706,0.6580399705,0.6242324821,0.2047944281,0.263876111,0.2457896817,0.1991221199,0.0460625846,0.5933139346,0.0517114057,0.0372653796,0.6428513301,0.2864007062,0.2045653659,0.4889894798,0.5059972698,0.0285843926,0.0708035125,0.6356912109,0.0046182043,0.5336667556,0.6417175231,0.0449874107,0.511146542,0.0484649691,0.523038674,0.0207024607,0.4432106694,0.4468826051,0.1744366457,0.6183219633,0.4168360352,0.0007163686,0.4005124169,0.2494285513,0.3973319254,0.1696217037,0.477997068,0.2787083989,0.1930380985,0.023245549,0.4596810823,0.577642192,0.1073170233,0.4534434752,0.4600999579,0.6167437063,0.3091499884,0.608113845,0.1995178703,0.2362227274,0.414758989,0.3838500599,0.1480291775,0.6282726533,0.038850094,0.444285465,0.7094263662,0.0833013978,0.3808728103,0.3634382827,0.0327862894,0.136957746,0.466698664,0.5806985277,0.2859272491,0.0960712941,0.6782676691,0.4319436394,0.3586291389,0.0365852603,0.1361016832,0.5666289105,0.3586897571,0.376692679,0.413595551,0.4584986841,0.3868827232,0.649689217,0.2778609257,0.2211732162,0.1888912373,0.5783265602,0.4967058382,0.3661858836,0.5319989894,0.3402989258,0.1984626878,0.4567524118,0.1333482868,0.6500029651,0.1597387212,0.4353714078,0.0034344079,0.0639166921,0.2896372946,0.3533926482,0.5629684039,0.6013302594,0.1377936594,0.0074604971,0.3400095881,0.0037780483,0.5536199934,0.4252376292,0.0884488212,0.4364680804,0.5334493437,0.0636085736,0.4971628759,0.0917008949,0.0099057771,0.6796237198,0.5639089931,0.1010316901,0.1102360264,0.2024843229,0.4260610953,0.5114212185,0.5242935269,0.5182234012,0.0071152903,0.322933159,0.5969333969,0.072156612,0.589582354,0.1015508818,0.4841278274,0.7138355077,0.169194763,0.2699978138,0.1982241491,0.3934948158,0.3789833153,0.3946123265,0.6418954103,0.4606801272,0.3375252837,0.524447983,0.1192754826,0.579103585,0.2093853873,0.4393229705,0.5706463861,0.5268448694,0.0100323834,0.3221018782,0.677181299,0.7154234967,0.4904899485,0.304404098,0.7096852662,0.3006821063,0.2722088115,0.4175618724,0.498954924,0.0588577113,0.5414367993,0.2687300993,0.2001690046,0.5726792301,0.611033161,0.5767108548,0.0381888308,0.2774852783,0.331179591,0.2080824674,0.1552638874,0.1160102206,0.5351516491,0.540010313,0.2026865099,0.4572582737,0.0908846809,0.2453480088,0.6539425905,0.2937145508,0.3023131069,0.2766237822,0.3748048508,0.1606566303,0.3941197539,0.1727431232,0.3988869961,0.1566455928,0.2051176537,0.0435357472,0.4439934206,0.1230941021,0.3925345573,0.1494826554,0.0099911406,0.2299238383,0.1081908196,0.3074049788,0.1637173158,0.5206799301,0.4510829599,0.2953501155,0.2966268318,0.6356597247,0.5631822995,0.3211949406,0.3602109044,0.3440699591,0.1265404303,0.1669232593,0.2251357695,0.2377340047,0.5752933086,0.1381810953,0.0034196079,0.5351501119,0.2144165097,0.6093188083,0.1982869081,0.5384975178,0.4721901345,0.2251808815,0.6196012359,0.3965028466,0.0289110873,0.2187394462,0.1724330474,0.2709754997,0.5635107296,0.1561247583,0.0812814101,0.1759697349,0.3245717236,0.5655130112,0.1292133116,0.1392569365,0.0727469816,0.528090694,0.3673574006,0.5352825863,0.3288403971,0.4271101617,0.5842126809,0.6631998385,0.3960314381,0.112355019,0.6705041798,0.0339509545,0.0103518441,0.0381270041,0.5098779738,0.5725624212,0.2509965726,0.2739834516,0.3887061863,0.0396757046,0.6484020469,0.1060334112,0.0138910454,0.1414084937,0.4082562985,0.3862363467,0.4618643878,0.50637741,0.4055620413,0.1176254218,0.6803578357,0.1549483336,0.0348417333,0.4703730123,0.3230188298,0.4681676856,0.5139897792,0.6478451593,0.161218811,0.0693015533,0.5860384394,0.5864725466,0.6122504407,0.0382675708,0.6020510434,0.0316651211,0.3090899864,0.3213196302,0.5239196757,0.0206159763,0.5534805221,0.5522536091,0.3946283465,0.623295723,0.5695620303,0.4726990324,0.0873299366,0.5031021539,0.2496523904,0.1369726901,0.0436370887,0.5287509678,0.5038629608,0.2059626917,0.1606370359,0.4224596817,0.6596566354,0.4175406394,0.2330497556,-0.6122744689
##end
biasActivation=0,1,1
[BASIC:ACTIVATION]
"org.encog.engine.network.activation.ActivationTANH"
"org.encog.engine.network.activation.ActivationTANH"
"org.encog.engine.network.activation.ActivationLinear"
