encog,BasicNetwork,java,3.4.0,1,1749593894637
[BASIC]
[BASIC:PARAMS]
[BASIC:NETWORK]
beginTraining=0
connectionLimit=0
contextTargetOffset=0,0,0
contextTargetSize=0,0,0
endTraining=2
hasContext=f
inputCount=150
layerCounts=1,31,151
layerFeedCounts=1,30,150
layerContextCount=0,0,0
layerIndex=0,1,32
output=0,0,0,0,0,0,0,0,0,0,0,0,0,0,0,0,0,0,0,0,0,0,0,0,0,0,0,0,0,0,0,1,0,0,0,0,0,0,0,0,0,0,0,0,0,0,0,0,0,0,0,0,0,0,0,0,0,0,0,0,0,0,0,0,0,0,0,0,0,0,0,0,0,0,0,0,0,0,0,0,0,0,0,0,0,0,0,0,0,0,0,0,0,0,0,0,0,0,0,0,0,0,0,0,0,0,0,0,0,0,0,0,0,0,0,0,0,0,0,0,0,0,0,0,0,0,0,0,0,0,0,0,0,0,0,0,0,0,0,0,0,0,0,0,0,0,0,0,0,0,0,0,0,0,0,0,0,0,0,0,0,0,0,0,0,0,0,0,0,0,0,0,0,0,0,0,0,0,0,0,0,0,1
outputCount=1
weightIndex=0,31,4561
weights=##0
##double#4561
   -0.1001603293,0.3073021601,-0.1946094783,0.3047828645,0.259547682,-0.2443837399,-0.0500466525,0.3709064026,0.0086299418,-0.3098129416,-0.2955064757,0.2030201657,0.1014575073,-0.1142984935,0.1750642899,0.0655123311,0.1538714942,-0.2669134907,0.08221815,-0.2306519467,-0.2642100598,-0.235444933,0.3856137597,0.269338534,-0.1444557949,-0.0513901992,0.1444659727,0.282215692,0.3138148112,0.0944169614,-0.8208841805,0.6110322243,0.5886361226,0.711219064,0.7074858472,0.6518870509,0.176075505,0.2662898723,0.3672896326,0.5782332351,0.2913964754,0.6392854662,0.0036909618,0.1590656211,0.1858149672,0.3801368482,0.3611524728,0.2461900155,0.1370192091,0.3196750354,0.3488208693,0.7107157678,0.3658249096,0.0646144852,0.1797581978,0.1743241761,0.090077556,0.3355922342,0.6441610578,0.1810605201,0.0410816169,0.1334212547,0.5498790881,0.075457309,0.2915168085,0.5449502444,0.5924448306,0.5250023048,0.2089986782,0.2795632278,0.1295076158,0.5062500127,0.3314062287,0.2348555442,0.1589820584,0.5191015211,0.2654376957,0.2773801544,0.1687350876,0.2659885073,0.010984921,0.3017929137,0.3118899068,0.5168850266,0.4463165321,0.3445815423,0.185099953,0.0468692617,0.2170470308,0.4997127466,0.4123084533,0.502935401,0.4134340143,0.0663440426,0.6586886585,0.0626732452,0.0646240551,0.5356839209,0.0327299332,0.1968579596,0.6458890747,0.3722656698,0.3691064517,0.2849233028,0.0402989847,0.6953498436,0.5774779657,0.7041502205,0.6995855207,0.5398256175,0.1457202531,0.5465927036,0.326029028,0.3724862292,0.034322124,0.2535132428,0.0846564226,0.7045709308,0.1694971666,0.0383755664,0.5974649965,0.2559408152,0.4138983081,0.2774410093,0.5290475809,0.0432659235,0.4630901597,0.0878791701,0.3633924132,0.1374067507,0.4089777977,0.0538617483,0.2785827188,0.0558002535,0.2662936258,0.4907096367,0.2860244376,0.0353537669,0.2354716859,0.4438015054,0.2885390797,0.1582155106,0.7150438732,0.3500808507,0.5656069167,0.3828516178,0.4221614981,0.3658709487,0.056370912,0.5408839413,0.6218022119,0.1442319186,0.6195998762,0.6672616962,0.7104423163,0.6494076652,0.6140386685,0.4183279873,0.2139151826,0.354836033,0.3502571827,0.2759280904,0.4878611005,0.6167966719,0.4717045089,0.3850168472,0.7069023007,0.0091793021,0.0617962437,0.3895884754,0.2130815541,0.4676288193,0.569970504,0.6354324841,0.2893259084,0.1828087808,0.6528748308,0.6891207644,0.5128099243,0.2375317764,0.390065801,-0.7124218827,0.3621241337,0.0124072209,0.0960391077,0.4446185627,0.5662049331,0.3971773006,0.2246005123,0.0694556885,0.0365523103,0.0006127721,0.5677952261,0.6633386042,0.026586953,0.6086446756,0.6156409306,0.2180688691,0.4087298426,0.2661851084,0.5102054289,0.0323331429,0.4031133173,0.2792106597,0.6951425327,0.481295503,0.4385361064,0.0284434548,0.046463195,0.5840312167,0.1312646048,0.5597647217,0.6572391297,0.4276540476,0.4320082596,0.6261264287,0.3057647451,0.073680436,0.5626748912,0.6741461487,0.1132850183,0.6129177225,0.6704750231,0.1110450245,0.1854676995,0.2816486816,0.6106211199,0.5488395899,0.540141608,0.2855785318,0.1057079329,0.5548617867,0.1302292638,0.6937476437,0.178091331,0.1460415591,0.378445046,0.2934727485,0.122408922,0.6674215841,0.1996003956,0.0314169982,0.1381722642,0.5305212773,0.4441079681,0.3883066493,0.1975642618,0.6415683875,0.5247875468,0.3304264114,0.5984877244,0.5664149543,0.2888693571,0.430966493,0.308103906,0.1864611419,0.1587687772,0.321773167,0.485440297,0.1588688544,0.1041057805,0.4294299434,0.0612192263,0.6571987189,0.6619595034,0.3007693944,0.3194468127,0.2591551889,0.121535187,0.5514755362,0.0880048581,0.0458832628,0.6950547148,0.6141267322,0.215614048,0.1392445755,0.6526475833,0.5336574923,0.2383470855,0.4576431973,0.2750488381,0.7127747153,0.3398774933,0.1086276664,0.4220306612,0.3696465331,0.6307892401,0.4064218304,0.1294388187,0.4169771972,0.2760827974,0.4753580537,0.655385097,0.1305361532,0.0869326869,0.6755744551,0.704898852,0.4152504879,0.3532034009,0.6025699423,0.1579574693,0.1114685077,0.6333922008,0.0295279723,0.1061064934,0.0951721488,0.0726140362,0.2427275347,0.6798296236,0.6807715684,0.1743782677,0.0893180703,0.5547232685,0.580358245,0.0783876259,0.5700431195,0.5615089841,0.129751478,0.0838574865,0.6061379981,0.5545715459,0.6840868863,0.4779373671,0.2256108226,0.6171419032,0.4250936743,0.4915401581,0.2606048035,0.5083982516,0.2581365422,0.5484413775,0.6122519792,0.581962219,0.1035380504,0.700399102,0.5226093294,0.2795931185,0.4143331314,0.4478152092,0.0320875709,0.2339423571,0.6685140072,0.461620266,0.4684349691,0.5789016518,0.452362765,0.5254707254,0.2055301569,0.090620341,0.0572406878,0.6960227194,0.1871803041,0.515202085,0.3288994557,0.5587785284,0.459379852,0.041143642,0.032300586,0.2604090158,0.4570392752,0.4044938075,0.4743493157,0.6526022366,0.2796705934,0.1205696253,0.3989393925,0.5025636222,0.2984168178,0.2755834341,0.4826794145,0.0603709939,0.3251427528,0.6154552403,0.3988062337,0.1867815698,0.7068790836,0.1590377002,0.0979766058,0.3176817765,0.0792523657,0.3110437899,0.177007007,0.0392960746,0.2168026626,0.4004391406,0.485052328,0.0748284843,0.2979545129,0.6153001039,0.4666914037,0.2696049148,0.7080460155,0.019307091,0.0016205368,0.4639624654,0.4438186518,0.1022275529,0.0505006556,0.1761014743,0.0005940513,0.5822848852,0.2427871342,0.5896304652,0.5095148986,0.0959345817,0.503325319,0.6210239834,0.5011501597,0.3917366225,0.0853409232,0.0953109567,0.3767308226,0.5710398883,0.5445945511,0.6630738021,0.562058646,0.1058437344,0.0093794862,0.4606453196,0.4292810129,0.3198798814,0.6663078584,0.3144233591,0.1274484057,0.7124696166,0.3324297952,0.5612194239,0.5558775954,0.1943187661,0.6394742025,0.5733982102,0.5311392711,0.6621336235,0.3379935508,0.7061767943,0.0479334319,0.0224306832,0.4713309862,0.3395189369,0.3270129606,0.4585598707,0.4051815556,0.5407576697,0.1618582643,0.6688617251,0.5220538603,0.5505883404,0.5171977861,0.5138347768,0.0687583972,0.2526796024,0.4538919209,0.3939458896,0.3976041607,0.4128429677,0.200414398,0.165061285,0.5326130584,0.240754893,0.1966686892,0.6024722193,0.072556943,0.0959525508,0.6844180759,0.5395311124,0.6562261718,0.2941669937,0.0405976743,0.2034882998,0.4717300107,0.481436925,0.4828550017,0.3488790737,0.0798205757,0.1783655979,0.3360927923,0.5500927182,0.0243148323,0.1123161411,0.2421627549,0.5501621499,0.5588016957,0.008272338,0.6002524325,0.2560581666,0.1391308343,0.4592524256,0.1300427905,0.6714874155,0.6166977561,0.4850575102,0.0107400394,0.0656481533,0.0603850947,0.1318576142,0.5303154999,0.0282464785,0.4857685342,0.1747667419,0.5559232724,0.5307786534,0.5465161924,0.7056529565,0.1281339524,0.0978979231,0.1163044845,0.1834321617,0.0378267706,0.1153599461,0.4719022163,0.3277519159,0.3792728453,0.5608279711,0.3315573668,0.4077027693,0.0987534208,0.3394377617,0.1139925541,0.2137523645,0.5457504496,0.0250364321,0.4483387494,0.0720113266,0.0965199227,0.1895884009,0.4929183863,0.2533557904,0.2307567096,0.1811595641,0.317155883,0.445218812,0.5643002345,0.035221083,0.0816882106,0.2016811559,0.2592900335,0.6897638127,0.6380020107,0.2002455523,0.3836013918,0.476291295,0.4976232122,0.3682730646,0.5702697654,0.0806438802,0.2813434503,0.5436087013,0.2638158299,0.297313672,0.3949876364,0.1767775097,0.320213921,0.0072302101,0.2475622481,0.4234551097,0.1570650429,0.5655445619,0.0684911186,0.3862552147,0.1624592857,0.3531375559,0.1602625185,0.5464800927,0.6828371427,0.3519204978,0.5600239714,0.5120279641,0.3017484144,0.7024311837,0.0638707998,0.0515389935,0.377018266,0.0477741088,0.5673619562,0.3674552799,0.092318465,0.0690959644,0.3524051581,0.428236327,0.2520855388,0.5694050756,0.6284264689,0.1770808244,0.3093431317,0.2087293755,0.3248168576,0.1724379717,0.5345184168,0.4891379018,0.6653805729,0.0185717321,0.3823902036,0.4747839976,0.2369763623,0.2755794211,0.6408891043,0.3488488473,0.0247441711,0.2620004858,0.037267022,0.2018610523,0.0930861315,0.6981093369,0.126956461,0.0102401498,0.3119646375,0.7094722239,0.6688156501,0.4307613867,0.3078465712,0.1278388325,0.5812518623,0.0261368705,0.6288262318,0.671590612,0.6823451399,0.6650133875,0.3677150172,0.0932688185,0.0073550382,0.2994153422,0.00805238,0.5486898801,0.3579485261,0.1804618848,0.2715276255,0.1545039372,0.1301848002,0.0208034609,0.409290707,0.5756323368,0.0473991824,0.6191762383,0.595490602,0.6416438472,0.4005580774,0.6057868796,0.4567225812,0.1710986389,0.4408601309,0.0648859544,0.0510178479,0.0772468323,0.6826361614,0.1019349174,0.4165319834,0.0919476396,0.6906251817,0.7092874455,0.4345723153,0.4762588335,0.1882089914,0.0546582703,0.5023733062,0.3187719372,0.4465080337,0.6634529317,0.6404669533,0.2061540256,0.1450161091,0.2745167501,0.0302791236,0.1296281659,0.4397231899,0.5631506959,0.7144558544,0.1390756059,0.1820114648,0.1182409741,0.3063745519,0.6634969442,0.3165139157,0.6645544086,0.3520566327,0.4923903398,0.1957867871,0.0937720812,0.1501157197,0.614775172,0.3337638762,0.3665107344,0.4514852513,0.4341627711,0.4724103625,0.3001778838,0.2281902231,0.3509948556,0.4669597604,0.2020550127,0.2853091003,0.5045765156,0.1666860284,0.2178477419,0.2047752362,0.4952468586,0.4662043022,0.4573199642,0.6681732745,0.2727503618,0.4761987544,0.365882145,0.2384669121,0.1604893004,0.2409609901,0.6446083697,0.4261227561,0.1281461764,0.5650504189,0.113447002,0.0541537134,0.0734461708,0.61431713,0.6564656398,0.5161096102,0.6626172449,0.709551719,0.3061461269,0.4293383464,0.6962806025,0.5939845992,0.672044788,0.6436743408,0.4299159245,0.5800844981,0.3320756349,0.239318612,0.356736784,0.682335176,0.09123778,0.0924865484,0.0237170922,0.3721869644,0.6202331384,0.1250138884,0.2376005244,0.5294224956,0.3661215825,0.4504569503,0.0770408032,0.6975462705,0.6938245136,0.1949234585,0.0880490847,0.1378105199,0.2039268959,0.1175690198,0.4050034599,0.6115380605,0.6586779906,0.0523793959,0.3668826558,0.3893944501,0.2441201863,0.5112267042,0.3899772464,0.6133580405,0.3380795258,0.567551083,0.2901234755,0.6771390169,0.7065442525,0.2304860622,0.5472789678,0.0820167954,0.3953797041,0.3947028785,0.4178913299,0.5499383759,0.0952730901,0.2082848916,0.051973235,0.3534273922,0.1551789367,0.1336591035,0.260131621,0.5928993158,0.330968111,0.5092979075,0.1765274254,0.0689817553,0.5849002734,0.3848641763,0.2097496257,0.3483985548,0.5561659836,0.6086162582,0.3714017932,0.4674815619,0.2369444619,0.2033516378,0.3003617658,0.0018932596,0.5475504924,0.201214073,0.2822459586,0.2793586785,0.1365320216,0.3267521238,0.5562863213,0.3547530416,0.5703750872,0.2853930204,0.5001099303,0.2569761568,0.06496249,0.4415789785,0.5521162097,0.4593704252,0.6659880472,0.6070326229,0.6590597853,0.4535300822,0.6864541872,0.6309340075,0.5000058904,0.2835797168,0.439423455,0.2711405168,0.6035279905,0.644855922,0.604280969,0.2822678036,0.3608747669,0.078717854,0.3682631704,0.2459860459,0.3039110915,0.3394636536,0.0878931162,0.3661013507,0.0360890632,0.1122163451,0.4280617913,0.0313465352,0.0708866881,0.611708536,0.5992056318,0.2942187988,0.5151719878,0.5541687668,0.4287593754,0.5541545214,0.3168422861,0.3561224992,0.1975164218,0.3526139671,0.6851656645,0.6275152548,0.0554315441,0.1306577288,0.2233759237,0.6684131385,0.420056025,0.5810205435,0.2021940742,0.2526310552,0.5944162522,0.4539022205,0.2082785348,0.3657875536,0.6310559994,0.7015617238,0.0297934339,0.0210140078,0.661096275,0.6222438577,0.2897124174,0.3348018761,0.3116218972,0.444333762,0.4477709388,0.3087095233,0.4311548986,0.3646330762,0.3509669814,0.4104032102,0.345283931,0.2322353522,0.2874401092,0.3704414669,0.3873640172,0.2339662638,0.3783547476,0.1537406103,0.6795227699,0.4793469945,0.4525325493,0.5499076237,0.3080693796,0.0288401755,0.2223351534,0.4974599633,0.5530480988,0.3211539925,0.3352731455,0.6283595999,0.5064870609,0.4090972302,0.3539902057,0.622402861,0.0073124577,0.6086437463,0.4872751717,0.3614536409,0.5269431725,0.3566020537,0.0109238922,0.3207082459,0.5624229369,0.1086646388,0.0402703411,0.6282366632,0.3863709235,0.0400156826,0.4070304661,0.3631501854,0.153075657,0.1951203445,0.4756626556,0.7117293116,0.145560627,0.5030086875,0.6825841066,0.647290157,0.4693397633,0.7063507318,0.645188593,0.4237281296,0.1777599563,0.6320898202,0.273233534,0.1396471011,0.2886883446,0.0040869558,0.5293991237,0.5150865942,-0.2337035332,0.1817922943,0.6125678089,0.1979692054,0.0940709672,0.6725999485,0.1918496324,0.0876281932,0.4146568022,0.5867774259,0.1390245684,0.5550181304,0.4998975357,0.1592246418,0.6101821025,0.1888811757,0.1222217617,0.4208472478,0.1140684525,0.5362497788,0.3370119231,0.0361778327,0.0003004881,0.6805702005,0.4272081781,0.250316287,0.1721574454,0.396377678,0.0738666387,0.0608897041,0.2928716333,0.1730935837,0.0990238368,0.458625738,0.300951937,0.2223337325,0.1580394169,0.6644780407,0.6333932741,0.2930951523,0.6487190829,0.0029582719,0.513221196,0.0300596125,0.15432672,0.5887725917,0.5060393866,0.4284819083,0.2155813529,0.5444337427,0.4890911454,0.4059196189,0.4927904406,0.5297624674,0.7150387074,0.0868829248,0.6387333237,0.0680750598,0.3442736833,0.3237813618,0.5903046216,0.3237182088,0.0330328857,0.1704604712,0.6973785221,0.0560430126,0.6528534909,0.681256373,0.1438427228,0.1832884493,0.3046507932,0.3614839835,0.6359341006,0.5955179027,0.5014659239,0.5537463872,0.2498674846,0.2931044667,0.6500558718,0.539681177,0.2195200343,0.5818404626,0.1812755074,0.5368188534,0.4161659094,0.5304499174,0.6030101402,0.3801781935,0.2334959185,0.099101024,0.3361682258,0.5542092123,0.6908001869,0.3308844057,0.1270540853,0.5781139894,0.5649635662,0.1960635179,0.1798956826,0.2914820826,0.1197177432,0.5318710895,0.2610877053,0.6994429836,0.5287756343,0.7133157789,0.4464183015,0.4974640041,0.6286062775,0.3898671051,0.6622126721,0.1747565327,0.2513983561,0.5603650053,0.47839624,0.1469919376,0.7022607606,0.2049050118,0.0914616958,0.1823170391,0.6611780524,0.3848168724,0.5944079722,0.3604068008,0.1473922889,0.1008924544,0.7057061237,0.5052383575,0.0887905883,0.2175757577,0.1247201859,0.6902472002,0.2860391207,0.5750597082,0.2276077278,0.113814373,0.1038674674,0.1851994766,0.4057418547,0.661247525,0.1176934766,0.2071792971,0.5412708562,0.0974343568,0.63070901,0.232335292,0.1159173037,0.6297332803,0.3464613689,0.1998308363,0.2641262284,0.4314671988,0.596763749,0.4816606268,0.5180294222,0.1941130837,0.1831369459,0.4310521435,0.3523451607,0.4665724147,0.5635191676,0.3417930421,0.0897689142,0.4589770483,0.6172156649,0.3549236193,0.5702967486,0.1135591093,0.3527156691,0.2150118191,0.5796692882,0.2858232685,0.5611972577,0.5626674379,0.1014205713,0.6731908175,0.5600707014,0.6893092157,0.7095065573,0.08790243,0.464163725,0.3860642432,0.4834131914,0.5995405985,0.553186223,0.5807202274,0.6152570451,0.6113634759,0.5292270216,0.0969804531,0.040848126,0.4689896507,0.5346152976,0.652264433,0.441954675,0.3501804245,0.0966967651,0.3108981747,0.3267274867,0.2772728708,0.538194029,0.7039463991,0.1205345633,0.17916778,0.5285980379,0.0917698325,0.3035531528,0.6736980242,0.5640682873,0.6824448896,0.2067627996,0.0085574397,0.2467835407,0.5814328342,0.6339437052,0.7013617232,0.3319195801,0.5606528794,0.6324067946,0.5921106646,0.1245712427,0.1934386409,0.5132673418,0.5553467386,0.5335188779,0.53684871,0.2418054098,0.0436568443,0.4060269989,0.5154854919,0.3856046116,0.6889094391,0.2181421846,0.6463859241,0.2068401941,0.169423869,0.2004605557,0.1360723038,0.5172109164,0.5814647458,0.4641739829,0.2571242758,0.1182437825,0.6550694178,0.6042238749,0.3701655208,0.0026763752,0.4960905904,0.5129250211,0.6968767008,0.6353318231,0.3593589496,0.1303434106,0.2212065319,0.1408418836,0.1486117744,0.5148583865,0.2143042803,0.3246582279,0.2330241038,0.0304850244,0.3262963054,0.5453353924,0.6986773436,0.1472015901,0.0683052172,0.5030708708,0.5406899935,0.0198675329,0.2202079659,0.4444591027,0.6991710707,0.1732822382,0.0409383091,0.2830835801,0.1383513001,0.0238982643,0.1327719179,0.4120689736,0.1742133514,0.2320232291,0.0546896092,0.6054061019,0.586138603,0.1729169175,0.6232874906,0.4094473128,0.1292042217,0.4876064771,0.1808594707,0.5241769533,0.4667936999,0.3166288071,0.6093363626,0.6060391837,0.1177636373,0.5373788017,0.2842947244,0.3603315337,0.2067692027,0.1905442936,0.6310346257,-0.093550278,0.4716726663,0.6101480999,0.3508677875,0.6803115298,0.2866944378,0.4876121422,0.2857292534,0.5753611161,0.3626236819,0.1507931411,0.2579218118,0.6925314213,0.6664415539,0.3537944029,0.2286451719,0.198948278,0.2243024096,0.443908815,0.1701264028,0.6563949191,0.3988442722,0.652994219,0.0584109579,0.1024908681,0.5866778464,0.0270598413,0.3050862141,0.62058734,0.7096520105,0.1520139522,0.6658387911,0.3569729207,0.2523947348,0.6313417037,0.1715149815,0.5588447504,0.374682557,0.5672302589,0.4711966333,0.0813013138,0.3232396173,0.4962648247,0.4485008382,0.528088488,0.422411264,0.3967970321,0.4638136855,0.1425603813,0.7094912433,0.4952289785,0.3485340061,0.140952098,0.6588301701,0.3470963582,0.579796407,0.1263770112,0.6937718928,0.3627579036,0.5744290146,0.0894698759,0.6084286041,0.0570861475,0.7038013271,0.5642614246,0.6384472276,0.4638822936,0.5218763524,0.3557643235,0.6239296729,0.2457475203,0.0790283305,0.0788371982,0.4559561625,0.56137285,0.0529005985,0.0472973788,0.4509095192,0.0165579427,0.0219889802,0.1058043481,0.0750605526,0.5533116577,0.648973591,0.1956239392,0.5792264195,0.2526931785,0.4249020012,0.4107691985,0.5345567252,0.334559821,0.269642506,0.2177298469,0.6133548539,0.1156060202,0.6011709941,0.0862296622,0.6618371724,0.3855562271,0.5342624506,0.1260330175,0.2507774481,0.6918156245,0.0571542839,0.1058741505,0.3738535964,0.2892908804,0.163200765,0.6578387633,0.1905501471,0.2724143246,0.4136143409,0.2549829127,0.4700356332,0.2001689259,0.6606832487,0.2215848757,0.2203407528,0.3236207293,0.4943784043,0.2923604371,0.0724997854,0.5567621039,0.4261124822,0.4720448449,0.0957709717,0.4531248745,0.1413118295,0.0293813596,0.5106274192,0.5890764923,0.7085001225,0.0952931261,0.1725688662,0.0538033049,0.4166388062,0.2627786929,0.3089083442,0.424675995,0.027238936,0.3404335389,0.286243443,0.6014379869,0.5028289354,0.2868287636,0.5461357344,0.521883399,0.2010951955,0.2294004026,0.3784532347,0.4711266801,-0.5192301754,0.2597698085,0.4044956617,0.1037816976,0.2096642028,0.42557883,0.3503595685,0.1639569049,0.1015453629,0.5289597728,0.3240653043,0.2744517612,0.5087604084,0.2478950268,0.4382337347,0.1946111201,0.4512217163,0.5688685459,0.413806407,0.0617879083,0.2206466487,0.6895343157,0.0292082423,0.0471902036,0.3803987727,0.0867620545,0.2004300165,0.0493048666,0.5934883387,0.0013246269,0.1179500942,0.3740599221,0.4075060526,0.3812112818,0.4180175804,0.0689868399,0.6301511397,0.1107588078,0.6385427412,0.1668101132,0.1051794073,0.4111643409,0.0179177491,0.4522164496,0.2727275609,0.6982603424,0.0206178214,0.4349282176,0.2902293014,0.3369794869,0.1897972463,0.2050548402,0.0562233966,0.1461923921,0.2244274022,0.2504228014,0.7159239069,0.2347383903,0.1122056162,0.3114673394,0.2476797969,0.3361419065,0.2674506702,0.4207073645,0.6341398185,0.5609884256,0.4382065504,0.330201561,0.4054478558,0.0246930966,0.4287903184,0.7025563274,0.3492577202,0.3610647184,0.1137129706,0.0676359244,0.5820049567,0.6832797352,0.5380290423,0.2005896702,0.484537392,0.2252257938,0.6607471711,0.3303520682,0.1148958594,0.2493415211,0.510489878,0.2960983067,0.0731474708,0.6855088044,0.5916631269,0.6800514302,0.6576504101,0.7080578897,0.0431315417,0.611607629,0.0964732106,0.4179240045,0.3341662397,0.1236776139,0.1348551247,0.6399696099,0.142320526,0.3922209576,0.0159282214,0.704945074,0.2084872145,0.0999299613,0.115149945,0.5740059186,0.554334897,0.022985513,0.239431003,0.2090934666,0.6460212062,0.0806050571,0.2919245299,0.415372349,0.5418743187,0.5556624832,0.0494370815,0.3856270009,0.3632368717,0.6241621335,0.3604164165,0.5236446091,0.6618087824,0.2028309829,0.3094890073,0.2929444727,0.4550758911,0.5675724408,0.419320884,0.2763916291,0.469537089,0.6874186259,0.1352458621,0.2035252681,0.294147559,0.1082387603,0.3806641611,0.1824180018,0.1106667793,0.2494242073,0.2253162088,0.1581491121,0.2595118488,0.6009532381,0.4195550218,0.2360990793,0.3940759982,-0.0292987767,0.300840837,0.5600150197,0.6268255668,0.4557387844,0.6666484907,0.0621574422,0.2562249247,0.5139990691,0.1170308815,0.2554183937,0.5408725243,0.0520304427,0.2942688295,0.2559996336,0.2935527904,0.2444218273,0.3735964534,0.1396631428,0.6934310512,0.1833230281,0.7057667505,0.1750852058,0.1200319516,0.325866056,0.4391946948,0.3046888927,0.5146422538,0.1149500074,0.2367534466,0.5080808316,0.3399981606,0.3850391626,0.1428515653,0.0791037288,0.0238532415,0.4569122323,0.3866597614,0.1300198986,0.2051853921,0.1350399867,0.1958475704,0.0081643308,0.1345430976,0.5068899776,0.4134403556,0.6101769909,0.2444289513,0.2162682094,0.6304038684,0.3433104472,0.2111013718,0.2688668071,0.2030976853,0.3665763132,0.0972848572,0.1847350142,0.0307644304,0.1255542217,0.3580540073,0.6904565703,0.7007735648,0.6822490226,0.3957850716,0.3141277103,0.2120098303,0.1237750094,0.4213117686,0.505320835,0.2059474087,0.1677814402,0.5058848109,0.6245922513,0.1585086961,0.2526864024,0.2069294147,0.5928625548,0.6203254717,0.0320310425,0.6696541285,0.6485449599,0.1502428344,0.6956071723,0.6664562379,0.598255386,0.1533171474,0.0594696167,0.6236140937,0.0917388643,0.1832708986,0.2039076008,0.0711541587,0.5505177765,0.2152353948,0.1263066438,0.3973456784,0.3602130909,0.3251595641,0.1617962235,0.372667205,0.6686570855,0.0590476777,0.3761064436,0.5556051846,0.4636107724,0.2172412299,0.5637561176,0.5686753848,0.0831060344,0.6166305127,0.2872329235,0.4095810908,0.2217064571,0.475378292,0.702354469,0.0989156025,0.5704173131,0.0202609743,0.4076415498,0.4601154869,0.5354427389,0.0041679184,0.3720762784,0.3656088166,0.4913045304,0.2197716812,0.4279477661,0.6466352436,0.1151042031,0.7158618708,0.0684273597,0.4477381307,0.009851414,0.5262033158,0.6070007543,0.6366637522,0.5787619418,0.4889744604,0.5444802164,0.5389874345,0.0431023428,0.388464064,0.33167585,0.4076564123,0.4830593152,0.6380113424,0.1556310115,0.6685955267,0.3147154963,0.0169438471,0.4248656404,-0.6047330862,0.2947461188,0.4817190882,0.4873152553,0.1048976828,0.371320753,0.0937499044,0.2814126653,0.333371458,0.6229214278,0.2439034142,0.1939248953,0.7144639037,0.4465474833,0.2065477414,0.5543903362,0.1133863992,0.1087505989,0.7157351804,0.1944616392,0.3111898885,0.6624194068,0.0908803242,0.3618086652,0.1699061802,0.5901676409,0.6528840096,0.672602661,0.1440896959,0.422372403,0.4361887837,0.2226115857,0.5111057525,0.7082439382,0.1181427398,0.5117944248,0.0135704901,0.4856541049,0.2698356312,0.279525923,0.2543756225,0.4112806716,0.1311682788,0.7117502985,0.5239929704,0.2143938816,0.3289059796,0.5974291484,0.3756004347,0.0208990023,0.2418328761,0.1150078925,0.5266930362,0.3666627198,0.0077550623,0.7105834672,0.4968490344,0.125572793,0.1044160351,0.3956452304,0.2393863589,0.3946420335,0.2071115636,0.2510189327,0.2209532248,0.6852220021,0.5898977911,0.2530020226,0.3472671811,0.540436335,0.6008369048,0.0087362265,0.0397396699,0.0986272304,0.2609063834,0.018322596,0.5585306467,0.4733068678,0.3255895498,0.6696067594,0.0057599359,0.1572025534,0.0577922938,0.073458681,0.2493611072,0.2238827796,0.5419243269,0.4138162264,0.2491918119,0.1691211058,0.6047099518,0.7069164279,0.2803537799,0.5875341102,0.3477917206,0.5261338978,0.6141679214,0.3004131482,0.7013454753,0.4074188385,0.2300934583,0.3612034052,0.3746621107,0.3447287223,0.4927479359,0.5096849325,0.0809294062,0.1520757354,0.5542244913,0.6449813698,0.5592187953,0.3760232436,0.0808884725,0.7081943929,0.4671894614,0.1688882042,0.4706526414,0.3285869402,0.4097162974,0.648220266,0.1514470637,0.1486539778,0.3605189119,0.589410019,0.1352931638,0.1350722372,0.2032822392,0.5857811836,0.1397848241,0.493246024,0.6343390166,0.6996660156,0.4839393809,0.4255000263,0.6544538444,0.6216349465,0.6383506178,0.2909868266,0.4848591983,0.6802402955,0.5851926426,0.3566992812,0.2319038989,0.3486844182,0.1250421612,0.5853806497,0.3298353819,0.5324182257,0.5758951447,0.0212767604,0.3967734427,-0.6976735078,0.2720514823,0.6345689168,0.0982922214,0.1334617392,0.6363773782,0.3410491826,0.5893666106,0.6476045811,0.0695868113,0.2341939149,0.6818202506,0.135974891,0.6427669546,0.2615749603,0.4878671935,0.3016983049,0.2595514256,0.639832133,0.5567662296,0.5140246518,0.037984561,0.3471711259,0.1082704108,0.7015814238,0.4788626538,0.2741637676,0.2119780991,0.0739501524,0.7029748469,0.6951377369,0.2994714957,0.1142216585,0.1450671806,0.0119129802,0.6518377963,0.0359175915,0.2701856636,0.4156706549,0.1689393433,0.5398040715,0.4789541387,0.3868700515,0.2198033243,0.3674130307,0.0260188599,0.4685405431,0.2475366771,0.3950628861,0.0112543656,0.3052572914,0.6432588337,0.5678004617,0.6374484034,0.3290913469,0.3543566238,0.078469375,0.6917184502,0.5889010015,0.1739124854,0.6896087258,0.5583955987,0.5742079269,0.009084511,0.5650882633,0.6622844906,0.5458593313,0.3580820385,0.0257793754,0.1123732116,0.3210799361,0.3507605346,0.1276131628,0.5384105606,0.2396349354,0.7157609429,0.584451963,0.1283736899,0.0103115504,0.14905815,0.265295283,0.0894102175,0.3772551199,0.2446594,0.6317052412,0.5780173996,0.3446499996,0.2248727601,0.0118345038,0.2581377811,0.4012505287,0.507312271,0.2492271559,0.651941183,0.6905158009,0.1940733078,0.4267440814,0.4483736112,0.5027621426,0.1309568861,0.0668900072,0.0023775427,0.2509854319,0.4286883037,0.2545008873,0.3533671707,0.6920606244,0.6875546971,0.3232377018,0.3084228217,0.686309348,0.3657094461,0.0512646552,0.7104461492,0.0938973904,0.2195085388,0.5660832185,0.5195304782,0.0455502978,0.5162281703,0.4510746788,0.2041199071,0.215549734,0.7086626707,0.0466758305,0.2952704136,0.2124696719,0.1182518606,0.1751934502,0.2038032835,0.5909774081,0.0874379079,0.6990483957,0.523423775,0.6058356312,0.3964833147,0.6761206014,0.3254617163,0.1561111944,0.0100088979,0.4178318402,0.6707147955,0.6440502649,0.5646810484,0.2159754226,0.3260003972,0.2466007568,0.3142709409,0.446551903,0.4910928367,0.0511190609,0.5089592659,0.3872212981,0.0924761009,0.1743389981,0.287952473,0.4501894389,0.2975142722,0.1489784026,0.1965919105,0.2062817209,0.0482702282,0.6274040541,0.322498108,0.3866772128,0.398344457,0.3770052238,0.4450210964,0.5350462537,0.4599891455,0.0066042087,0.2863803812,0.0725821071,0.1452600382,0.3643892297,0.2505474694,0.1298467515,0.6605991778,0.1475529159,0.4229937322,0.4262770003,0.6913820577,0.504342976,0.6838098745,0.598624333,0.145294868,0.662246895,0.6871220504,0.1978192007,0.1794731617,0.3196417817,0.4178704195,0.4814496694,0.0241424371,0.4516872742,0.449237961,0.3321658761,0.5443875499,0.5017876526,0.1992261698,0.0379749122,0.2145321046,0.2469502253,0.4445679347,0.4939820611,0.1110100076
   0.5182365417,0.6617916629,0.2360566401,0.128073736,0.5633854583,0.4490676221,0.05551944,0.076480116,0.3398907661,0.3131624966,0.3718865687,0.1305046577,0.0585816081,0.0651610327,0.3061271889,0.5658938891,0.6420486779,0.4068351677,0.147426053,0.0101332261,0.5103410175,0.3827823109,0.3045479827,0.382485687,0.2444880379,0.4416128042,0.2400067358,0.6510801104,0.43689386,0.4796691751,0.2175755953,0.6766663299,0.5441290135,0.5709854363,0.5281540623,0.4478946492,0.5313580803,0.28848508,0.1666858139,0.3947650242,0.0522462286,0.5442438962,0.3227988011,0.2649449548,0.0376149226,0.5761754183,0.3187051601,0.2538661976,0.359541271,0.2735761833,0.1220775036,0.3006648171,0.5225808338,0.1503189193,0.4565491493,0.6199839314,0.4545319552,0.2855465432,0.6872686372,0.2171490985,0.1895107617,0.1214277037,0.4992056201,0.2959710302,0.0357890997,0.2882283062,0.2628945316,0.6617954933,0.130727812,0.2240299368,0.3960670637,0.208024751,0.2550656564,0.2728871756,0.0465410366,0.4912093546,0.2336056164,0.6351997204,0.5700053142,0.1704899731,0.4306864933,0.2007567718,0.3579224949,0.0825917622,0.0110354463,0.6814127204,0.2285974173,0.152872498,0.6378188095,0.0957467576,0.5081484679,0.3203981114,0.445981759,0.0016356613,0.6454397263,0.4130554573,-0.5203112764,0.2076174414,0.0941825334,0.3965217069,0.4943748334,0.3893737182,0.1107097632,0.4500308106,0.3757532333,0.7097624001,0.1549512193,0.5307171098,0.6117473249,0.377726631,0.2109257227,0.0518128055,0.0094385545,0.0933830822,0.0518150298,0.6238252974,0.3001059478,0.3023283513,0.422303705,0.2093243719,0.4710805322,0.4457728541,0.4797036816,0.4973902855,0.3580946516,0.0209945651,0.3977789278,0.339771336,0.3625369512,0.3762681223,0.0739596871,0.1016057729,0.0854682736,0.4647929643,0.2907864868,0.1345333189,0.5999455259,0.2092599036,0.2140282638,0.0999393396,0.569728879,0.3494025645,0.5276571577,0.2936809044,0.074797524,0.3490848544,0.556964071,0.6618426157,0.2943358611,0.3726069103,0.1782821307,0.2443810952,0.2532486494,0.4264897668,0.0318482671,0.607092091,0.3369775726,0.3994084251,0.0248181591,0.0336387653,0.5192639157,0.1719013959,0.1453568518,0.5119951382,0.3571579499,0.5238288333,0.3646706546,0.134349032,0.6501405564,0.4981752766,0.2171584818,0.0042799915,0.6080305195,0.6721191865,0.6201624471,0.2279235663,0.1447946806,0.4760810358,0.4875790876,0.6361725196,0.2256105146,0.4347505745,0.5454594249,0.0111005829,0.522968734,0.1522802074,0.6174424277,0.153842776,0.2141128375,0.1249138368,0.5422739693,0.1533711837,0.4023965136,0.2814851751,0.5404709541,0.5387129991,0.6576817599,0.1673575948,0.2557614918,0.0655527501,0.0973317969,0.572458945,0.447066708,0.5150639634,0.3662849551,0.338777954,0.337488282,0.7042212452,0.6712051457,0.4781332823,0.223047029,0.4449895825,0.3535066228,0.3730953452,0.3508388064,0.1201747335,0.6570017618,0.4872976046,0.7013157921,0.1491356724,0.202877255,0.3714244371,0.3587860083,0.2639916555,0.0944504251,0.1350373492,0.0524270385,0.2116184925,0.4853538891,0.6419115656,0.5422923686,0.2675065036,0.3326239551,0.3844088254,0.1783297962,0.028253691,0.0658195413,0.0281133786,0.5552000018,0.0123739515,0.615190951,0.0448859852,0.0625742682,0.5318006105,0.1187762466,0.6144162512,0.58298328,-0.0312943052,0.1584051452,0.0874197994,0.3663632932,0.3809606888,0.5997111544,0.5402803605,0.042734813,0.2455146235,0.3632714787,0.1138104167,0.1049071809,0.3885001982,0.3616496889,0.3811367889,0.3913083565,0.5586503685,0.6825953039,0.0683688128,0.7091038042,0.2937412254,0.5299189459,0.2002475439,0.594659549,0.442903411,0.5585436398,0.0543476443,0.2322730595,0.1423413248,0.5905516633,0.0319474313,0.6040399612,0.341157482,0.6735804509,0.4279786132,0.3848276539,0.0180881658,0.3203586797,0.1464255888,0.0958904783,0.260530758,0.6328403558,0.6383163475,0.5882896434,0.2204322452,0.4173030246,0.685813003,0.0409080718,0.3662052172,0.2221904085,0.6053994713,0.4572307151,0.3754589902,0.3964911507,0.4018286372,0.6114433334,0.1537726849,0.193485346,0.1779116475,0.2663311873,0.2471375001,0.4142388118,0.3289332411,0.1624072438,0.1731571123,0.2784388626,0.0819658224,0.4140841932,0.0750587533,0.2616923442,0.5970334713,0.7015363149,0.171184937,0.260222318,0.5609787941,0.2043127158,0.353681216,0.0177443965,0.6642602786,0.0769902817,0.0438735603,0.6671031239,0.3543126118,0.4564368692,0.0799766244,0.673740133,0.2974262597,0.6324370559,0.3658566384,0.5809330192,0.4262982398,0.7061479911,0.6589491216,0.4955669259,0.3883641344,0.0367434126,0.6487164978,0.0615122367,0.4310352479,0.7027326267,0.3213210384,0.7089446809,0.5540175475,0.4163867112,0.2455994231,0.6250741796,0.6586873911,0.4979746293,0.6509964195,0.5885897631,0.6662283657,0.6332358106,0.0444112559,0.6904806912,0.5559713026,0.2549062894,0.075456451,0.3670714785,0.5471323901,0.1319390564,0.5706258265,0.3457989349,0.3249529966,0.0683163459,0.2264250876,0.4844039407,0.3265629713,0.1456173583,0.283836329,0.1502418837,0.4505018469,0.1723745148,0.2279965277,0.3423548878,0.1060884999,0.1992993282,0.5249607976,0.385108153,0.6675433509,0.1826084968,0.0440481683,0.6787206667,0.384049752,0.4336160174,0.4395202597,0.1741455362,0.1631218913,0.1555528415,0.6211803888,0.3847979269,0.5306904838,-0.3366180845,0.084015047,0.4530210244,0.2878579235,0.3103031789,0.4127897663,0.1890017512,0.6858584332,0.1407778663,0.3958736316,0.4571943554,0.3649287066,0.6812552319,0.2122052671,0.2447604239,0.5347484387,0.4848589431,0.6747775297,0.4999125625,0.6327028319,0.673879419,0.0430712973,0.7084571247,0.2417203478,0.243469944,0.0848897498,0.1225792018,0.318357159,0.3987990388,0.5077510485,0.5508487729,0.2802832661,0.0983020317,0.277091215,0.0646068504,0.2367096701,0.3080334506,0.296939454,0.3559278585,0.3139296889,0.4104742162,0.6131804805,0.2676432779,0.470528683,0.1394372722,0.3169318126,0.4475198595,0.3710357841,0.0221038717,0.0598477575,0.0544602629,0.1457274408,0.0906109486,0.427430603,0.0450320077,0.2976584421,0.6498285763,0.1738469825,0.1778410884,0.4637594214,0.4214057053,0.6018436928,0.5431900691,0.2289115767,0.3230702916,0.4349557224,0.1065322142,0.6944571912,0.5419559049,0.2771109043,0.2472204285,0.2702612843,0.2007611235,0.5738650915,0.0226184379,0.4989686555,0.4778036013,0.2345915678,0.2867738079,0.4654827965,0.3410991592,0.6291367637,0.0920114719,0.036838149,0.1359161303,0.2529628899,0.3428677263,0.4276038147,0.4525753908,0.2866381288,0.1240878861,0.5412672772,0.4374159912,0.1854211367,0.6300299163,0.4579204272,0.0448226425,0.7086294642,0.2906170497,0.0314957297,0.4005885639,0.4777047553,0.7006065416,0.3698508587,0.1052560202,0.2411203565,0.2433103926,0.0836307369,0.0383113936,0.6873684706,0.5603521623,0.1607075948,0.0196066023,0.3924437292,0.183866132,0.5816557653,0.0272489524,0.2858793413,0.5036314749,0.1137571386,0.6418928915,0.6989585354,0.3902345337,0.0618681202,0.0374256818,0.3171706713,0.5435708124,0.3122224286,0.495844903,0.5059889189,0.0378348455,0.6117338876,0.6444580208,0.0435211575,0.3375799861,0.209736581,0.2487566902,0.5495839933,0.2090074633,0.3924611609,0.430798409,0.5472732578,0.0355824464,0.3234130446,0.3785936179,0.4688440293,0.3131809943,0.4377250029,0.636752694,0.4097293636,0.1217660218,-0.3287293864,0.2127116232,0.5106940329,0.5676720738,0.2290357301,0.1371558679,0.3718805247,0.6203996185,0.1927286789,0.5643790447,0.6503126267,0.6202077827,0.1765863469,0.0294136664,0.6579000792,0.4982842696,0.5573482035,0.5605663922,0.503642521,0.6220609425,0.4138202492,0.0571881238,0.0532842942,0.6345575574,0.2887711749,0.1277150451,0.3535081153,0.5353080536,0.1803200857,0.0834324662,0.1449907845,0.4653004209,0.2342906188,0.3797095458,0.5843026269,0.5333038051,0.5110317141,0.5962724054,0.5498886299,0.393780657,0.353904541,0.1079003369,0.569605454,0.3031592856,0.6589449388,0.4305960855,0.4324199534,0.5472701564,0.1681954676,0.4419265209,0.1503451411,0.047806447,0.281163927,0.1757153309,0.0011004388,0.2324484636,0.3511287739,0.2818682978,0.3748466083,0.1236284916,0.3767406157,0.0190683648,0.3935322662,0.2371053258,0.4319386071,0.3457035417,0.0167131609,0.4014019021,0.3139010625,0.3060325664,0.58906108,0.1575131713,0.5181235302,0.5880079632,0.6966177707,0.4451205013,0.0839903331,0.5709082246,0.1267023072,0.4079863282,0.2358034846,0.3719345496,0.2468064996,0.2233258019,0.5887325774,0.5578378111,0.2726218173,0.2786446064,0.6862875325,0.6036222468,0.2408204101,0.470654457,0.5875703317,0.436772208,0.685998082,0.1097691347,0.6415769197,0.2493253587,0.3684194506,0.6134802154,0.6082094067,0.2616443711,0.264949563,0.4873144523,0.377040786,0.2193955736,0.0705636916,0.1849347165,0.6941073801,0.2216302159,0.4334209328,0.154427771,0.0155510719,0.4222719411,0.2599602618,0.0100445576,0.1633009263,0.4718915424,0.1326206879,0.1300434556,0.6752744729,0.3442724473,0.2956591746,0.4652888182,0.4240093816,0.2518320249,0.2466707605,0.1927192926,0.6467325412,0.2798468685,0.4424995301,0.2377671548,0.0495631463,0.0463348537,0.7079326225,0.5880344175,0.0685480945,0.462891356,0.4974235625,0.0095476199,0.3396981272,0.6887832438,0.7065333401,0.6982264338,0.4164823127,0.6958017277,0.432666302,0.1169885761,0.2812277873,0.0947775802,0.2773858834,-0.4087661934,0.088441434,0.5712052534,0.6874420089,0.312841777,0.2702458845,0.1600752801,0.414767442,0.563602607,0.3684082824,0.0985825368,0.13530859,0.4001274468,0.3444747718,0.6225567761,0.7033908545,0.7109921139,0.3498201469,0.5541872203,0.4464184899,0.2217606806,0.0670098284,0.4823741866,0.2599447624,0.4221858901,0.2616108527,0.2003815866,0.1775803182,0.6192011042,0.2629511626,0.4689992764,0.2426186497,0.2588523973,0.2731344949,0.4145665659,0.2689579684,0.2129605745,0.0982829223,0.0204992907,0.3181856219,0.5922603598,0.060899443,0.3726149053,0.3239581646,0.6802512294,0.6970016701,0.427933653,0.4786900661,0.3423509262,0.5251845104,0.4096832373,0.01003461,0.3575375536,0.0359884832,0.3982925849,0.3192154305,0.6042572399,0.5135811519,0.3036636248,0.4765238352,0.2826772024,0.3636089634,0.4650467073,0.3354378959,0.6649269222,0.0067647341,0.2549265692,0.6149945137,0.2412154678,0.5616866522,0.6849385332,0.6436081889,0.1275484229,0.5258992824,0.4233701063,0.5537415809,0.2835614665,0.6393109502,0.2690452599,0.3832095656,0.1522355447,0.4722012942,0.5150734002,0.528238152,0.6115770844,0.2342661373,0.0392652915,0.4646629688,0.6634671489,0.6485708956,0.4052253327,0.2316972118,0.6158723988,0.099595287,0.3494616442,0.3501174228,0.2343591299,0.2355256791,0.6235987663,0.5183607323,0.6814413831,0.5402700208,0.3038153498,0.5751625334,0.5003189362,0.3069159306,0.6817731913,0.4334096895,0.6609212128,0.2819036959,0.2511919201,0.4878439092,0.1685082079,0.182537588,0.687191007,0.0735879995,0.5475989356,0.1217860056,0.600644981,0.152871866,0.2576953701,0.6218798522,0.2519681471,0.5738126033,0.5186729323,0.5018533881,0.7102705009,0.1330255858,0.5203926818,0.4403361321,0.6136140744,0.3010074075,0.0814271193,0.2321813332,0.2731895067,0.4656200028,0.1935412952,0.6798067112,0.0198008552,0.0298857626,0.0626130189,0.713640239,0.5772268376,0.4489026837,0.6369132639,0.331362635,0.1946092299,0.3812078375,0.2483872643,0.425250852,0.3476751156,-0.3533260928,0.006056428,0.193785353,0.4064783689,0.6316083191,0.2356638703,0.3720580267,0.5934398415,0.5137878389,0.6321339659,0.3066261647,0.441298879,0.1891096482,0.3028775006,0.2724745251,0.0782910733,0.4379611681,0.5644735491,0.4953728903,0.1091754355,0.5621041182,0.0166822088,0.059389228,0.0412868476,0.6589747549,0.6139469107,0.1012843488,0.2822398531,0.6589009577,0.241137722,0.5281435778,0.0737052744,0.0474659351,0.1492106083,0.6752257957,0.4606248311,0.4619997034,0.2755522891,0.6977223036,0.3667012768,0.5324444814,0.3073868655,0.2987938174,0.4225494981,0.4535856047,0.182600907,0.2336498896,0.3909564347,0.3268337941,0.3645177838,0.4727544202,0.4392810525,0.4783113351,0.0290807732,0.1353836035,0.0443945986,0.4971325369,0.377273673,0.0283149772,0.631958173,0.0809635536,0.3943875736,0.6672191341,0.304583474,0.3685922497,0.2459789467,0.2222587348,0.3591523616,0.0435286466,0.3425749359,0.3196426877,0.3240513345,0.3636348948,0.5230036244,0.0997128593,0.6887236994,0.5376631223,0.558359601,0.5747774493,0.1822671848,0.1242958189,0.2022696161,0.2003130539,0.3611385777,0.2669059657,0.2450662481,0.1280952613,0.7112694648,0.6812920225,0.1114713575,0.5408674293,0.0224052272,0.562068502,0.0400914426,0.0226244119,0.3628939025,0.6008878417,0.5743171523,0.3633570314,0.22954908,0.2652681903,0.5784940964,0.365709437,0.4321447033,0.6837579988,0.3608302754,0.127970037,0.4229648533,0.1661493516,0.5010623813,0.0923996503,0.2359758927,0.655435587,0.6417144664,0.6256695717,0.3570111991,0.0159130947,0.4147323622,0.3957253562,0.1334963396,0.2259286611,0.370037007,0.5835770512,0.4489243873,0.3215093607,0.5965606329,0.1662689184,0.0820906183,0.368920928,0.0198435515,0.3467424147,0.0336130647,0.6751568448,0.0544246403,0.466472108,0.4903669364,0.1843460268,0.6053021466,0.5755996337,0.3661813852,0.3628953904,0.130532207,0.0981841307,0.2519434083,0.0271761548,0.3073252668,0.6088571207,0.2846747563,0.3966414924,0.1357742013,0.4552525239,-0.5935654711,0.2443720018,0.3343436386,0.2923897171,0.0655089795,0.1934835067,0.1634495799,0.4396454681,0.4732688551,0.7068583731,0.4661122323,0.0843820611,0.3109196132,0.6859724009,0.4314204029,0.2357074558,0.7063244964,0.5495736256,0.2510102141,0.6163639002,0.4698961322,0.1693564397,0.0876201862,0.3993321268,0.041877186,0.3689197408,0.5473881277,0.0169707225,0.0826266836,0.4863100256,0.3037766758,0.1628563293,0.6148854822,0.3878934396,0.2306965869,0.3165225864,0.3322426118,0.6464052256,0.7133377353,0.6196103463,0.3757515295,0.0495658744,0.0148742482,0.1802559466,0.1695621688,0.2871298621,0.3781318519,0.2861623313,0.0012125325,0.0984403337,0.2522486884,0.1501315953,0.1576019735,0.5540118338,0.5592954899,0.301343866,0.312927064,0.0403081957,0.1242369533,0.6211491166,0.6496936582,0.3265439818,0.5765566228,0.3128022591,0.1300449983,0.0302565768,0.5661358454,0.0609506633,0.0167497141,0.0741329272,0.6092920291,0.561750713,0.1911483237,0.2563664898,0.4612420791,0.0299481935,0.6095528984,0.2637063662,0.5429184549,0.1114433652,0.1501466591,0.2333488986,0.1945305287,0.0395951933,0.1839384487,0.0497755046,0.5418090806,0.0052330838,0.4747272529,0.2379378708,0.5869218583,0.3921295361,0.3648214973,0.2668422207,0.3290993754,0.176721354,0.3220981697,0.1169932132,0.2856973401,0.0186567973,0.1773671642,0.256022059,0.163698382,0.5794567835,0.5955877291,0.1035377239,0.0352311799,0.6570768605,0.4667785555,0.504682143,0.6874779152,0.0934298294,0.1314429862,0.0617315606,0.0423208841,0.0117134359,0.6837563514,0.566611965,0.13953118,0.3465047521,0.7094425732,0.6447027294,0.3256428956,0.2496331523,0.1189399327,0.4674460254,0.6312925884,0.6207657896,0.2026458412,0.4652537917,0.2387399728,0.3714342502,0.054884364,0.3449991796,0.360603901,0.0923946264,0.2676130842,0.2288452862,0.5458891036,0.204769104,0.3134570826,0.3057128057,0.2686752373,0.0824837533,0.0806900354,0.1522163568,0.4531265262,0.4573465035,0.5632962626,0.6423154915,0.6843322503,0.3893361865,0.4138521176,0.670145883,0.0775928751,0.3548615686,0.223322831,0.2847723811,0.2608894633,0.0924836062,0.5470271246,0.5801845197,0.6526428968,0.6203185477,0.3368884632,0.0321408244,0.6186018228,0.4418618659,0.1948872356,0.6133964591,0.2328511866,0.0249120239,0.4997673577,0.0598721313,0.1962707025,0.4765016536,0.5892901253,0.3415820603,0.4085870025,0.0965698698,0.6115040074,0.0736203045,0.4803705139,0.1488139667,0.0288571547,0.4184110027,0.1662561615,0.6489819049,0.0100272846,0.5167438686,0.3774469009,0.0027731329,0.4751893978,0.4952768758,0.714787012,0.3071379255,0.4891499844,0.0901681824,0.6191505875,0.6026406093,0.2127834272,0.5230560583,0.6371033505,0.6132136797,0.5881658534,0.3446279964,0.4352982313,0.0290739133,0.4337564181,0.6528910782,0.5675342828,0.3646538779,0.7016373123,0.6253591616,0.56312761,0.3498497647,0.4835951,0.1910905496,0.1789042406,0.5282339192,0.228179262,0.0452127233,0.6909139614,0.3929927596,0.26911827,0.1959536788,0.5396933545,0.6402387834,0.2244632831,0.0825535241,0.4386143227,0.3945891198,0.6311396302,0.3557041792,0.1175033511,0.4276059293,0.6621257313,0.2727451246,0.2085819999,0.133537372,0.4409809591,0.1339977075,0.3546466516,0.1626663468,0.3353407549,0.0902240466,0.058158395,0.0509181058,0.2797354699,0.6479505359,0.5707612208,0.388987265,0.258360509,0.38962955,0.6460102489,0.3902281067,0.1872956017,0.0375005187,0.2421338848,0.1306944962,0.6415723283,0.3604782487,0.6663425871,0.6144985954,0.0216990038,0.2868131357,0.2424141211,0.549229949,0.6231955262,0.0721843082,0.2605970435,0.2202489938,0.5486636166,0.3118506451,0.5264179883,0.071899835,0.0629304653,0.0742881114,0.3160586078,0.1849875853,0.645023995,0.2732371192,0.5511689814,0.0550915203,0.4377697643,0.2490987444,0.2397841071,0.1395269268,0.2900029489,0.628783012,0.6098947224,0.3590678425,0.5072379848,0.1515429025,0.3041779818,0.0804938434,0.5890327688,0.5105424992,0.6546324626,0.7020510537,0.3727035947,0.2094271817,-0.3314145085,0.6496453858,0.4228776369,0.3081818664,0.7057163328,0.5391300264,0.3448814295,0.117077347,0.0309999507,0.6463773157,0.0033245925,0.129348771,0.0576831434,0.2679336875,0.6765294264,0.2776782287,0.6938236149,0.007954227,0.6472574967,0.4865432376,0.0395616497,0.3707056425,0.1059008389,0.6252418109,0.7133914079,0.0141452427,0.0921414934,0.2091285179,0.2136930371,0.1675186746,0.6877052232,0.3398451669,0.4616830508,0.0650342724,0.6202613848,0.1305520349,0.1844509598,0.6537533368,0.1421879351,0.1304262913,0.137681978,0.331905401,0.6994493506,0.0803876665,0.4461669883,0.3539613952,0.6363970511,0.0436820939,0.4668814486,0.2902706294,0.5262056679,0.0886046985,0.2121033925,0.1805623581,0.4389816603,0.0956450869,0.643565418,0.3053839413,0.3524388182,0.1230211297,0.670124168,0.3751574656,0.3255648472,0.1925382322,0.2422789407,0.2224128706,0.4436142831,0.128113872,0.600206578,0.4771937655,0.5102750009,0.2424533207,0.1826752322,0.4438158832,0.0946909513,0.0683607418,0.3042593305,0.3742391944,0.2147226222,0.2972635584,0.3699198937,0.2203518983,0.2239776709,0.2607477211,0.16617718,0.2147663728,0.6640848399,0.4045938893,0.0946544657,0.188074741,0.4888606665,0.0207607609,0.5526501284,0.1972747991,0.5118559606,0.2312360942,0.6836573835,0.2675071409,0.0272065782,0.4269570619,0.3043343622,0.3286532894,0.5193220255,0.1512472577,0.2929404825,0.4032071051,0.4339527974,0.7063954202,0.2248253827,0.0500675495,0.6407423432,0.2846081126,0.2065880502,0.3175830183,0.2525282734,0.3271942675,0.1513520101,0.6644165055,0.1375626319,0.6807411707,0.3148698425,0.3904717854,0.0062173936,0.2919556282,0.0790139457,0.1555704,0.2141401886,0.500197033,0.219668488,0.0640927136,0.6373595057,0.2929616934,0.1568014316,0.2393925687,0.5377176307,0.5272550205,0.412999637,0.7054996559,0.2214741485,0.5133557057,0.1857317234,0.0405686929,0.4829833746,0.4256296796,0.3768487647,0.3308502836,0.3208866973,0.3701518355,0.0703866945,0.347362078,0.2683386728,-0.1677872926,0.3290729409,0.2978572062,0.5723230921,0.2279076124,0.1295382675,0.539627461,0.6806428388,0.0589789438,0.6690540136,0.2103127591,0.0445370749,0.3620959809,0.4864961383,0.1318769008,0.4258750535,0.0374293622,0.2482977468,0.6553497847,0.454306094,0.0570306908,0.1731773655,0.4938198333,0.3660677718,0.7154436217,0.3377033565,0.0546315224,0.3168597645,0.3432433714,0.6117186299,0.2542627868,0.4540221719,0.0941633863,0.4582625242,0.3327053091,0.302323419,0.1857068183,0.1083264852,0.5422251877,0.2343868958,0.334014263,0.4540276607,0.4370922598,0.0899843082,0.6784988791,0.4659535021,0.1065518086,0.3808427647,0.2777641595,0.3282139017,0.2282119344,0.0027965832,0.2409967164,0.0925426037,0.2409121347,0.0232173047,0.3452434481,0.1575181224,0.5450421288,0.4459611371,0.1219154594,0.1010226234,0.1850795265,0.6824374694,0.0860413374,0.0273459901,0.247229965,0.4251233011,0.556337518,0.2896621181,0.2598210721,0.6795518844,0.0040866078,0.7025654442,0.1928801903,0.6999772874,0.6212328961,0.3102648294,0.0683491506,0.152746226,0.0475062206,0.569843752,0.2180469585,0.2932664659,0.6920483954,0.5280379244,0.3930824758,0.6995278918,0.0257096437,0.0648207057,0.6707895443,0.43029868,0.0990897454,0.2364275564,0.2382994748,0.3478861973,0.5699518313,0.0303597845,0.332776591,0.0937039984,0.0881096295,0.566716022,0.3910232141,0.0874449448,0.2369933333,0.1559464736,0.1115485159,0.6003192358,0.3017954482,0.2634826257,0.3603105751,0.5006589001,0.2831875474,0.6724135176,0.6556308703,0.4776714936,0.1460443174,0.2540884833,0.5001019719,0.4799054404,0.4251255001,0.1340405497,0.6163605563,0.008734261,0.1563556607,0.1626295451,0.1107421383,0.536611224,0.4783331465,0.609510785,0.1337710615,0.0828127638,0.4410742341,0.2380098467,0.7153420792,0.6860252637,0.4275867828,0.2598280842,0.1344783382,0.4579527424,0.5161892879,0.5851888024,0.1280838554,0.341504827,0.0215897264,0.0481360846,0.2392817068,0.2106890694,0.2024103775,0.5705262025,0.2248038354,0.6607277264,0.0017069037,0.1272726925,0.2746248149,0.4381956895,0.4231565564,0.6876761209,0.6739867734,0.3787634395,0.15244477,0.2822440244,0.7151138463,0.6102925005,0.7096963121,0.3736708149,0.5000834815,0.6297415337,0.1778058859,0.4628450924,0.6147408826,0.5172945275,0.6736400645,0.1053537598,0.1832300267,0.1002162394,0.2933381069,0.6873231628,0.1712664087,0.524743649,0.1249324492,0.6662435206,0.5954563901,0.3898265739,0.0451953572,0.3938694324,0.2003574961,0.1181433641,0.2399509282,0.4629539772,0.23862494,0.0906934218,0.4170876781,0.0205992556,0.3891174657,0.6454487472,0.169606908,0.3322112815,0.3025415369,0.4807338953,0.1140394482,0.4707875041,0.6973251507,0.0537857668,0.3809259561,0.3197588799,0.4256877765,0.6744456303,0.5571002577,0.3761431259,0.341347143,0.1373779938,0.6057961827,0.5563652813,0.4443292356,0.0242875618,0.4626698275,0.6554010138,0.5647104764,0.314339885,0.0076312467,0.2986910148,0.0244125575,0.3961446922,0.7144378636,0.2225509862,0.522255636,0.4286602927,0.1301236855,0.238493892,0.3469017204,0.4424656963,0.3500089711,0.4699424003,0.6981601603,0.2976572786,0.3594619945,0.2277239616,0.682077567,0.4540056788,0.5357286487,0.2648335413,0.2078255075,0.6879837887,0.5793367494,0.6993760899,0.1437281083,0.4803693037,0.0460349478,0.2573682034,0.6104489174,0.1294413551,0.0543592858,0.4345014559,0.6251069942,0.2391808881,0.4457642451,0.1551854766,0.1906398122,0.1850726757,0.0177308171,0.2914153614,0.3181698398,0.4053171786,0.4401784095,0.4647940476,0.6799387918,0.412491712,0.1176732649,0.0624392273,0.6499863588,0.631699359,0.3214676321,0.596387069,0.4134572445,0.6528699273,0.4371570005,0.4154893183,0.0355917805,0.6310840945,0.3094234762,0.290890962,0.184407583,0.4469605674,0.6031844429,0.2708715749,0.3684975434,0.2033300642,0.4595059219,0.6957749873,0.3449599938,0.4404597202,0.2111395934,0.4438575474,0.6748359364,0.6239022953,0.0731646577,0.1954098176,0.6640189513,0.3397332173,0.2487621306,0.1132895682,-0.1341604701,0.506466383,0.5190301146,0.0996609749,0.1175597734,0.1107530898,0.5923388195,0.0388026078,0.4173545035,0.1550697534,0.2402231171,0.1548395272,0.5486804763,0.2214568016,0.1280277446,0.1651418562,0.1260919938,0.4610506256,0.1629705075,0.1900616481,0.2128868635,0.5165961723,0.4439240566,0.6959710573,0.5330961464,0.1954641769,0.601034394,0.0393697953,0.3448641652,0.2404988702,0.2993816493,0.583922021,0.0601853711,0.5805632212,0.3551346652,0.2446283698,0.4030949622,0.4702720256,0.2939487777,0.4818050813,0.2960715066,0.6842073654,0.1010597218,0.5189606785,0.6447448886,0.2127548534,0.2880611353,0.6397171901,0.6027013588,0.5916259888,0.5514442305,0.4676345726,0.460890087,0.3811775738,0.3403890922,0.0009224324,0.0383779533,0.056872875,0.3772506331,0.6479839244,0.1446480478,0.4124784206,0.4055832473,0.1112376076,0.0636947565,0.492385958,0.0981877152,0.5523997158,0.0265285011,0.7121477151,0.6639576555,0.4431754068,0.088695549,0.3593239735,0.4679847803,0.2927274231,0.2606241342,0.5795601873,0.6101953888,0.4983989964,0.2251802396,0.0630417233,0.3310921232,0.3668367942,0.6959050477,0.2293672084,0.0036801647,0.1056396885,0.3137961038,0.6533287485,0.1938397866,0.7061283879,0.1058131711,0.7019570085,0.3457973335,0.4257083654,0.3585373483,0.528441569,0.5778179322,0.1423140172,0.1594244743,0.5357755359,0.6395461262,0.6913252916,0.6592326736,0.0022230323,0.523950236,0.5284177472,0.4789783712,0.2643627712,0.1533198836,0.2009898553,0.1739366328,0.1713984788,0.0115820077,0.2181659928,0.6699205601,0.6572258496,0.2894610157,0.2106753978,0.650900879,0.4354565699,0.4564970766,0.362183444,0.0077804642,0.2465863989,0.473254827,0.3709995715,0.0587848052,0.6834317296,0.5639477569,0.3706683305,0.7036040748,0.6897978751,0.2369996187,0.0800892918,0.6425752975,0.3339522982,0.1334235933,0.2097112282,0.4367027506,0.0114072077,0.3993132395,0.2574343235,0.1343469439,0.2094807952,0.6748114828,0.2649241245,0.4955907686,0.4931108809,0.7121422187,-0.4045213441,0.4132192692,0.6278800898,0.6277337533,0.4010224457,0.4812240127,0.6138007833,0.017030655,0.3068567418,0.2409120812,0.3913676913,0.0791416001,0.1792705206,0.4300667409,0.3915712686,0.4410711459,0.3221700178,0.662359688,0.0637313276,0.1844278142,0.1252006898,0.2558914687,0.0757394058,0.1645787957,0.1564270603,0.6892598498,0.2144645246,0.5729771791,0.6439152621,0.6759622412,0.4353940342,0.5188763931,0.174676627,0.6358889799,0.3449740715,0.3875820113,0.1959566064,0.4825548054,0.3184136405,0.582314394,0.6074608737,0.1723235939,0.1910307141,0.7142709358,0.5248653237,0.6714048258,0.3636924081,0.0195697597,0.588087856,0.5073335727,0.329788921,0.1380436818,0.0074761582,0.4156119104,0.1186967687,0.6835146121,0.1534677125,0.521144765,0.4252394824,0.4035343805,0.0068167522,0.3046993537,0.2829881041,0.2264552703,0.6616502245,0.6119375214,0.1254249518,0.2065776639,0.1814310301,0.1938112383,0.6574693225,0.6585351521,0.01852623,0.2332337799,0.3555472011,0.3578747871,0.3322842552,0.5895127731,0.2016009681,0.6288604087,0.5183130723,0.5183950965,0.4785858085,0.2666557027,0.0985866742,0.5127915644,0.05578806,0.3113095282,0.696565731,0.1060883317,0.466366114,0.0537340551,0.2915940038,0.3276577476,0.1806172319,0.6308616608,0.1962583425,0.3218160489,0.5582404658,0.2585661536,0.1310196069,0.026910427,0.581037442,0.1798904688,0.0878628302,0.6667220528,0.5316176852,0.3878828348,0.5975716125,0.2433519806,0.6054969439,0.0206002509,0.2699130686,0.6853903532,0.5021918954,0.4422753152,0.4623598395,0.042406816,0.1969606118,0.4428999423,0.5605738969,0.5082530375,0.1924210616,0.5354901156,0.0502298003,0.2448606502,0.3614341607,0.0602263787,0.3676221875,0.5144350484,0.0650067841,0.2429570203,0.6377002272,0.4530682401,0.0185537998,0.5562623866,0.2851157856,0.4580908804,0.2937837249,0.1287089558
   0.0578351614,0.446067712,0.045588452,0.7087548417,0.1509850932,0.1468857235,0.6753458013,0.6311669728,0.6357602406,0.4053106183,0.6488795512,0.2527878226,0.0988388457,0.2253364171,0.556790867,0.0573846424,0.5942243499,0.7058893931,0.3838915524,0.5729369836,0.2591732657,0.5367321223,0.6640505983,0.5690737529,0.2743679316,0.2002804267,0.5507106081,0.5518983049,0.1441354547,0.1067964981,0.4027419755,0.4523075558,0.3733259238,0.0122199519,0.2283746913,0.6366773137,0.0136936896,0.4116093493,0.1233847701,0.3753479537,0.5538027405,0.2072481971,0.3824456834,0.5782190757,0.6228267973,0.320926856,0.0219518068,0.4229514776,0.3010101847,0.5785769764,0.5983438766,0.2993318092,0.3315268451,0.0718860232,0.0316587954,0.2288406902,0.455631245,0.2252182848,0.1784998335,0.1225217595,0.3394537118,0.1191018667,0.6091093801,0.3367596692,0.4663739499,0.5803293039,0.1188202459,0.3719388239,0.5837976389,0.5918026714,0.0926624675,0.3798563516,0.3233642772,0.3090801549,0.0353351886,0.3236936691,0.4571176366,0.042416039,0.0289685305,0.2335973722,0.3837976003,0.5332752303,0.688546485,0.1606225346,0.326323065,0.1385553786,0.230722778,0.4725077271,0.4381853663,0.2162247768,0.3515567147,0.3257307084,0.2277960928,0.3645762626,0.3141596839,0.4466617818,0.1374883427,0.4766087117,0.3701381775,0.1340989437,0.0061479365,0.0496004491,0.4966335657,0.1401498288,0.5426142091,0.1460304673,0.6711727187,0.3707400389,0.012615458,0.248297141,0.2233961455,0.4147110853,0.4743162671,0.1684244025,0.1489049552,0.1031548664,0.61461233,0.2396039016,0.6140348917,0.2929798647,0.2054261182,0.4334255294,0.7025654264,0.2773873831,0.0273557454,0.2065035443,0.2183592068,0.6019066167,0.5620343187,0.2457667792,0.2777404289,0.6641068431,0.1403356323,0.5461756838,0.5891142508,0.4339898898,0.5429729954,0.0321008131,0.4910977854,0.6480002238,0.0731066978,0.3498242211,0.37238907,0.0008086536,0.0013377711,0.2336957163,0.3066633068,0.3547676312,0.6770083459,0.2345021462,0.4085834292,0.3380457322,0.3856727972,0.3158244931,0.0628525116,0.315847625,0.7133445038,0.6667014088,0.4515246654,0.5179551811,0.4072246619,0.4460298965,0.2276441025,0.3749337125,0.5949663058,0.2179041211,0.5664386444,0.5107931624,0.3281468068,0.3063310567,0.0048065257,0.5193025025,0.3124772603,0.622932069,0.4815474602,0.5890899161,0.4972483675,0.3423101664,0.4198093603,0.6811093492,0.5042684947,0.2478395861,0.0910181735,0.5689075657,0.4713094776,0.252528392,0.1818606509,0.4557842437,0.0881600744,0.1184676209,0.0012057066,0.4473800422,0.482636682,0.5199503801,0.0744525914,0.682205968,0.7004768573,0.2997424845,0.2561204059,0.0884076323,0.3953728106,0.2778619585,0.0297541208,0.0520529006,0.0949874017,0.5223760833,0.3218535196,0.008889722,0.6822585969,0.5710457339,0.0745962077,0.1092444161,0.3162271393,0.027344823,0.4945247041,0.164605252,0.647975806,0.3498351467,0.1626497329,0.0503799251,0.322610431,0.3779353345,0.5387121874,0.3555540111,0.3693099268,0.0473625686,0.65305662,0.507536425,0.2658192932,0.5883209277,0.3619544105,0.6873895039,0.6993181955,0.2009295749,0.0623455683,0.6295354204,0.3231124533,0.1618307229,0.6610330366,0.1564685282,0.2907462919,0.4007940953,0.412289936,0.2718649742,0.2332204547,0.4961575934,0.4572264145,0.6008325502,0.6877009814,0.0899105128,0.2788335598,0.6628828622,0.1048405252,0.614851241,0.5721349111,0.0268334379,0.1369599308,0.0757760732,0.211516578,0.3989733554,0.1053534553,0.0676864033,0.0314271345,0.2291929256,0.2267954866,0.1774076679,0.2883636247,0.3510486695,0.1929249237,0.4391694764,0.1345230377,0.6789199762,0.344853611,0.4415659111,0.6828204754,0.0857752668,0.5848687107,0.2969523338,0.1950677168,0.491414996,0.6132232041,0.3472666441,0.223542581,0.0719768971,0.7041085844,0.3276637808,0.203858444,0.323632343,0.2368276115,0.3049570045,0.0431651094,0.3006782169,0.1651026655,0.1958193269,0.0333056742,0.0718653626,0.5263840111,0.4539530477,0.4000387036,0.2258173777,0.2732340716,0.4796027568,0.4658554618,0.2980938441,0.1763396338,0.1584422975,0.586348223,0.1201830165,0.3187372802,0.2708915492,0.4921806632,0.4773064173,0.2421010557,-0.1840584795,0.2858531715,0.5268486019,0.3399385864,0.4835707381,0.5751254681,0.1153314763,0.1108484166,0.0396369395,0.5557314325,0.495126847,0.5779298871,0.2279014116,0.0740114182,0.664692443,0.3984853886,0.151288789,0.7108294606,0.3562178838,0.390140259,0.6629795034,0.4945968303,0.0509658966,0.528483045,0.0255905846,0.5381699973,0.0425074831,0.3897756557,0.0169235978,0.4168786733,0.6771870898,0.3415502031,0.6358492222,0.1565471569,0.5938568181,0.1766175369,0.2478141569,0.024567333,0.0515766841,0.0197441496,0.487065507,0.349040617,0.277375854,0.7023002431,0.2949339699,0.0449629333,0.3513017899,0.6330949959,0.3865111668,0.6219888414,0.6503906379,0.2215237493,0.6512990385,0.4964623561,0.7050148527,0.058142825,0.6961831219,0.6792486685,0.1528084274,0.4801613765,0.4056174645,0.1321838586,0.5308285858,0.3267041221,0.3327528396,0.2285646346,0.0455151355,0.0330469126,0.3345021796,0.6200862757,0.5892448123,0.1971889119,0.3487839317,0.0232655631,0.3323302403,0.0835223483,0.083833148,0.3816678082,0.6137854491,0.3117169917,0.5412207279,0.1551922705,0.5938210884,0.0621387053,0.356804984,0.2809246377,0.156099876,0.0137309462,0.4585084067,0.6555662184,0.6977199322,0.0478257656,0.5447015456,0.5509981889,0.6348583655,0.6905560388,0.4027649243,0.4262821747,0.1821954192,0.6218194129,0.5677051958,0.7018997812,0.0816156719,0.2827718962,0.3110601085,0.0251016987,0.1801373658,0.4056466043,0.6803643375,0.5945199375,0.1139050784,0.5212242958,0.629908172,0.2802833299,0.7075997374,0.5488759695,0.565953499,0.4458721186,0.1263964972,0.0934220836,0.4338584003,0.1255396676,0.0765834116,0.3787777516,0.0041519458,0.2966070096,0.2952086122,0.0507413211,0.5465561844,0.4765722232,0.2481062975,0.0201705291,0.6828790582,0.2545154689,0.5012431972,0.5369160517,0.1669929028,0.6111729076,0.700244163,0.0706799057,0.6853917704,0.3188953539,0.0991224004,0.0238659151,0.2919096413,0.2785305107,0.0205487349,0.7122372887,0.705334749,0.2947602228,0.1043068909,0.103223726
##end
biasActivation=0,1,1
[BASIC:ACTIVATION]
"org.encog.engine.network.activation.ActivationTANH"
"org.encog.engine.network.activation.ActivationTANH"
"org.encog.engine.network.activation.ActivationLinear"
