encog,BasicNetwork,java,3.4.0,1,1749582468061
[BASIC]
[BASIC:PARAMS]
[BASIC:NETWORK]
beginTraining=0
connectionLimit=0
contextTargetOffset=0,0,0
contextTargetSize=0,0,0
endTraining=2
hasContext=f
inputCount=150
layerCounts=1,31,151
layerFeedCounts=1,30,150
layerContextCount=0,0,0
layerIndex=0,1,32
output=0,0,0,0,0,0,0,0,0,0,0,0,0,0,0,0,0,0,0,0,0,0,0,0,0,0,0,0,0,0,0,1,0,0,0,0,0,0,0,0,0,0,0,0,0,0,0,0,0,0,0,0,0,0,0,0,0,0,0,0,0,0,0,0,0,0,0,0,0,0,0,0,0,0,0,0,0,0,0,0,0,0,0,0,0,0,0,0,0,0,0,0,0,0,0,0,0,0,0,0,0,0,0,0,0,0,0,0,0,0,0,0,0,0,0,0,0,0,0,0,0,0,0,0,0,0,0,0,0,0,0,0,0,0,0,0,0,0,0,0,0,0,0,0,0,0,0,0,0,0,0,0,0,0,0,0,0,0,0,0,0,0,0,0,0,0,0,0,0,0,0,0,0,0,0,0,0,0,0,0,0,0,1
outputCount=1
weightIndex=0,31,4561
weights=##0
##double#4561
   -0.3135899401,-0.2227726366,0.0956776108,-0.3178075144,0.3270351878,-0.2608469895,-0.2770258809,0.2159286537,0.3437522006,0.1964291567,0.1406247338,-0.0260836537,0.1788476732,0.3225576435,-0.2256713587,-0.1052941145,-0.1282757511,0.0855292866,-0.0608235511,0.0706355112,-0.1368315145,0.1701808418,-0.3060177168,-0.2388816214,0.0775656088,0.1486831238,0.0416377151,0.0059110526,-0.110535759,0.2754053746,0.1969292338,0.7136024329,0.3872614796,0.0966339043,0.0066895672,0.1746791187,0.6555566427,0.1607866136,0.4667965044,0.0923721095,0.1088954122,0.5084604873,0.0303282503,0.507392165,0.6840802314,0.2692358105,0.3035503393,0.3135554791,0.0062083517,0.5043269402,0.5325079166,0.4684989169,0.5104924907,0.3449383567,0.6781380029,0.2635024733,0.6376200576,0.4620627308,0.2766863979,0.5861772101,0.4881989945,0.5855894686,0.3225619094,0.3871578723,0.5357673624,0.0208056896,0.1854142104,0.3549006977,0.5735698722,0.1432965228,0.3491333951,0.0506604297,0.6955862429,0.3638623548,0.0223062184,0.5994107427,0.0691425374,0.1930545786,0.5460718963,0.5388347049,0.3115342425,0.1514633055,0.6415041707,0.2849033305,0.5451216504,0.2251595578,0.0501769226,0.562884499,0.2619309014,0.191897028,0.0064408371,0.1775664629,0.5461134075,0.2938069123,0.4220559648,0.5735366764,0.5414946632,0.4186564374,0.4247940309,0.2590738077,0.5272519274,0.4501612229,0.6413412308,0.5942017704,0.598427623,0.5808196143,0.6671808733,0.6678692958,0.5447929883,0.4668103382,0.0477488833,0.2524240152,0.1131076094,0.6175123644,0.3261276043,0.0597623032,0.3984472385,0.2874102234,0.0328038133,0.2987376602,0.087669144,0.096394807,0.3328774723,0.2157533467,0.0564601599,0.5632649787,0.0447341653,0.1236534529,0.6290242751,0.2567223396,0.1741538466,0.6764343353,0.2850603827,0.221612706,0.3186442346,0.1238235552,0.2249671413,0.0381633023,0.2765976947,0.4419791154,0.6046426146,0.4556165942,0.7057999167,0.4987067731,0.009624205,0.0978743275,0.1782236373,0.3828895498,0.5628211816,0.320108289,0.3611040412,0.0844257525,0.5445785274,0.459892832,0.1915327976,0.6677726597,0.3096003616,0.1025101487,0.0512104078,0.0981798841,0.6623259565,0.3204943576,0.40121312,0.3128214486,0.2735097015,0.0564900741,0.2431890477,0.4994087587,0.4282415591,0.0647020896,0.6282285158,0.6316668071,0.3974544365,0.63800935,0.5767384389,0.1021165294,0.4317853558,0.6645223439,0.6035447281,0.0217854505,0.5583058198,-0.1317359888,0.1731158947,0.6662461839,0.1720710403,0.5477371662,0.6403518703,0.1432661595,0.0567621165,0.1157364559,0.0147725832,0.0188680196,0.1532812905,0.5935001683,0.1139424114,0.6211506911,0.4544560065,0.6868317151,0.3997286224,0.2388085924,0.6574055123,0.6091931755,0.170653606,0.4016372983,0.3553969394,0.2835502318,0.4926300882,0.0299384049,0.1945016566,0.6965432999,0.1037158509,0.3676747362,0.2592524978,0.0152877692,0.4303371565,0.5180488458,0.3094871656,0.5772809388,0.278555419,0.0849286868,0.3842982475,0.1549548487,0.2278700964,0.5205135968,0.2626586084,0.4276315049,0.4888488207,0.3502402163,0.146635485,0.0692844798,0.3808066633,0.5524958324,0.5564215225,0.6407407523,0.2528295832,0.6835144405,0.4864782599,0.4371876769,0.4311252306,0.2685042617,0.657774316,0.0995525331,0.337306861,0.0643735122,0.0014614415,0.4527255871,0.6235913314,0.2107710998,0.5152696513,0.4171692603,0.7022787007,0.3935598078,0.2335894714,0.0184916414,0.6477278552,0.5517257832,0.347732428,0.0907040621,0.3277496056,0.287870952,0.4471464881,0.3748185254,0.1283169779,0.0320411124,0.5149725505,0.5458653777,0.3241316019,0.6483756548,0.2387248122,0.7098380127,0.1824041422,0.178112748,0.5291177697,0.5478288658,0.3845400123,0.4591320511,0.2027403076,0.3374828849,0.4566847016,0.1586009449,0.6679402457,0.6795275757,0.0275528844,0.5242168998,0.6632698513,0.1772942695,0.7139345582,0.059976609,0.3908426184,0.08066594,0.0062070692,0.7145678831,0.0433385331,0.4440864555,0.6488470913,0.6609140381,0.7145247064,0.0314901138,0.6030035116,0.0229789053,0.063492554,0.5433641395,0.5040076629,0.5252433617,0.1372913239,0.0149403316,0.5798333208,0.2181273445,0.2598444958,0.5757639994,0.4806180936,0.0307311485,0.6538137542,0.4314616021,0.0056819773,0.2400469265,0.0670265175,0.2481582962,0.2423117867,0.1186141633,0.5499208601,0.0559031656,0.0423140466,0.0464964933,0.0687861486,0.7031126065,0.6437205482,0.5665417062,0.7106452866,0.1383193651,0.4427233604,0.5972846328,-0.2982064487,0.0310373693,0.3268718861,0.4788862245,0.2626553748,0.3561150126,0.5659511467,0.5547942389,0.3166591122,0.3895644776,0.2851859304,0.0537211688,0.4148337033,0.6301484497,0.4780418058,0.4043708768,0.6362088717,0.5047574457,0.0677409318,0.5772957206,0.2704908469,0.4735051392,0.7008066071,0.5661814537,0.1215817003,0.2979561748,0.1050108899,0.6881619344,0.5719136278,0.4812945957,0.6995120897,0.2255933179,0.6399023127,0.4788422357,0.6643365759,0.2797130895,0.5962482599,0.510740717,0.5190406121,0.3158055609,0.1310434779,0.6412647892,0.2723488195,0.647399474,0.6319341103,0.6361587971,0.1077321083,0.5115288734,0.4565986894,0.6462057776,0.1195865173,0.0196808228,0.0583959857,0.6543150265,0.0180642639,0.6404354668,0.2822225843,0.426517151,0.2210587899,0.4330734642,0.506490722,0.3608653755,0.0672656277,0.507975944,0.446604876,0.3270491764,0.6605475123,0.5144807299,0.6640732677,0.2718443409,0.6252362525,0.5665251963,0.2971533748,0.4303712831,0.2290199122,0.2388370715,0.3309002761,0.2619847923,0.2825976377,0.445803887,0.2735815545,0.4131301799,0.5280731286,0.6385093715,0.1734595185,0.3241633926,0.5014622438,0.226166919,0.3504682751,0.6225188464,0.0569561621,0.5096209932,0.029227539,0.5003965357,0.6858104505,0.1096592274,0.115282006,0.3112272246,0.0885420458,0.0535079035,0.5548226154,0.6900118317,0.1693181614,0.4637533277,0.5491717097,0.703253664,0.2860284472,0.6936096865,0.3489681433,0.4703312486,0.6188050922,0.1843006261,0.2109743282,0.409474092,0.1788107314,0.4022839579,0.5245852596,0.009329659,0.5838360255,0.5024512878,0.6832119157,0.1979959251,0.161918019,0.4007168731,0.0182268327,0.0896675576,0.5658614658,0.5849078366,0.2294011301,0.6742926983,0.644587999,0.6998591519,0.0565719874,0.4271615434,0.6357620545,0.3355841921,0.4251978872,0.2999830811,0.6091086992,0.0239858654,0.1282783793,0.0030674094,0.0859865308,0.2484525561,0.3191609269,0.6564773933,0.6758967549,0.0761102211,0.6755781642,0.0272822327,0.4770281062,-0.2073073569,0.6204727314,0.2747404608,0.1547977826,0.5948618791,0.6326222836,0.3544021749,0.0085686033,0.1323759218,0.3308224586,0.0875845206,0.526011149,0.4023318072,0.5312667953,0.0320208293,0.1545048864,0.2313291662,0.4934278687,0.3565814869,0.295865684,0.4380564638,0.393966036,0.2560826282,0.6641093641,0.5274616976,0.4413296997,0.1518041814,0.5836479043,0.5781965587,0.4214271005,0.1190693962,0.0434557188,0.0978682439,0.2450732431,0.5160361339,0.3355092719,0.0776807038,0.6317664929,0.1962640317,0.2684271003,0.1489629624,0.4628882035,0.5511790288,0.5064464288,0.4512129327,0.111299053,0.3340645284,0.2919795851,0.2812755966,0.4477494613,0.0354664553,0.4541891712,0.5121890241,0.3191364768,0.0202274343,0.5782435175,0.5366428274,0.1153756677,0.3480642259,0.6443799528,0.5805843791,0.567014271,0.6476353856,0.6444980624,0.4778032536,0.2380655995,0.6493227109,0.4427136172,0.065130894,0.0903956511,0.3423933094,0.1370315183,0.4948201513,0.691742901,0.6844229748,0.0765118425,0.4541974175,0.3835702888,0.4604721266,0.3454874284,0.697791851,0.1289674643,0.3246881568,0.0126139812,0.1556655473,0.3405470867,0.2883053574,0.3134738277,0.1958779248,0.1584453737,0.2745902336,0.3315625897,0.6937909487,0.0156038053,0.0160225678,0.0587418238,0.696388641,0.1179758435,0.2117431587,0.469886968,0.4509808684,0.4305668939,0.5703994204,0.1509092469,0.5093908467,0.6255407719,0.1074035812,0.6260501409,0.2614232139,0.661921381,0.6087114349,0.6999734055,0.6520308047,0.5585542299,0.0308872737,0.1735420557,0.0059660477,0.5284154573,0.1094411343,0.2734976168,0.2431123396,0.2446461961,0.0891030444,0.2504579953,0.6548022982,0.0830462883,0.5069292201,0.5575832319,0.1975370203,0.4339734903,0.1140803883,0.2005280685,0.4652269736,0.0980525369,0.4479540993,0.4236973815,0.0074395082,0.2545568984,0.2341587358,0.2506002576,0.1021461452,0.6916753057,0.3307157502,0.0419262101,0.1768784713,0.5641310418,0.2344016987,0.2729110658,0.0973641796,0.2949633152,0.1106823766,0.6697336929,0.1899132412,0.0130643337,0.6963753597,0.0185705569,0.0107657357,0.5566888415,0.7131012846,0.4266838641,0.204342476,0.3107687326,0.5120634469,0.3197037922,0.3226993725,0.3381382772,0.5665449928,0.1740554099,0.6073321575,0.1133394072,0.536869854,0.119805778,0.2752199137,0.3295011952,0.130169971,0.2651932295,0.2558749884,0.2365040425,0.7065317509,0.5346730087,0.3579234213,0.2336949309,0.7058996827,0.4334179186,0.0809854184,0.5466538267,0.0464748365,0.6863060005,0.6126279194,0.5270357085,0.1159091253,0.2439613155,0.5008232242,0.2295024412,0.3660711843,0.6364040063,0.4370574592,0.2085431389,0.1286234056,0.2021314555,0.5605383705,0.6568653193,0.3228522003,0.5329656722,0.6066694086,0.2668688348,0.369893077,0.2730306515,0.1943800016,0.0821812716,0.5357834112,0.3180484555,0.4281445098,0.0893739664,0.4603971219,0.1618552505,0.2069025368,0.5613080032,0.5684511454,0.1060167602,0.572280922,0.117860777,0.2945069605,0.278159156,0.6459161121,0.6760920579,0.6165407457,0.1120084278,0.5607869559,0.4354460054,0.4913615693,0.3643115324,0.4789689357,0.6559642102,0.0471508667,0.694916895,0.1314194582,0.5550323337,0.4162651099,0.3820410987,0.3841549358,0.4995714958,0.3404320822,0.3381998364,0.3506738402,0.6222299944,0.6110493215,0.3574607447,0.4859052852,0.5233694896,0.1538311902,0.5392650795,0.453556002,0.2953027138,0.3674388845,0.5261085625,0.2520601881,0.5228516563,0.1689795926,0.6512653757,0.1193639256,0.0176985569,0.2829630102,0.6453746504,0.1164295582,0.170844643,0.213945649,0.1424919735,0.4087365715,0.1423361114,0.3299222523,0.4528215257,0.6692720188,0.5538745267,0.2498791902,0.3704733862,0.4881390457,0.4322648882,0.7140038638,0.4943381419,0.6883609016,0.0608937376,0.2500885378,0.4600140279,0.6099959007,0.1022723293,0.5657714425,0.2402307577,0.6889475918,0.6355603532,0.4757699716,0.0634526828,0.326122627,0.6731745655,0.5790261247,0.1506659784,0.3854902577,0.0543407446,0.6365440597,0.3628391268,0.2134080787,0.2368432749,0.0926867983,0.0620897368,0.5102644753,0.4317090609,0.5794062521,0.0017166974,0.3262412183,0.6615482759,0.2189321512,0.4815741795,0.1370250157,0.1893060822,0.4970769043,0.677871727,0.3299508712,0.333390534,0.1621584738,0.4808670722,0.6310856895,0.4440617932,0.4624797713,0.6928810919,0.4231056629,0.2256719725,0.6314440874,0.1572475207,0.5725032308,0.4696704101,0.7101151448,0.4932566007,0.3594916671,0.0783073993,0.4597638427,0.2599692359,0.3284663005,0.5193516945,0.4335856039,0.1371325769,0.3745699918,0.4375682699,0.6229351487,0.533146937,0.3612328614,0.4742230488,0.018772178,0.5863906643,0.1339546398,0.5314668767,0.6059164226,0.0739688992,0.4921604314,0.4158962926,0.7143150265,0.1434859132,0.1685200608,0.0174022021,0.6017464377,0.1036814847,0.6953226187,0.5527598083,0.1977810857,0.108309417,0.4262098079,0.3064365991,0.4252368472,0.405500165,0.301160203,0.2486534448,0.5753541897,0.1066406545,0.0835708064,0.3802304993,0.0156497996,0.402962993,0.098891731,0.4780223092,0.5027409245,0.1399157703,0.6521775992,0.7018739085,0.4676673724,0.1897966806,0.6229210832,0.2369107695,0.0960477572,0.2812885804,0.4288023492,0.1737866082,0.3074778722,0.6262168756,0.5602590132,0.1362624051,0.0607229446,0.7034684855,0.5185076667,0.4062659808,0.6528493747,0.4204919469,0.3971416704,0.5467471748,0.0651808684,0.2478590574,0.4191959146,0.0022600573,0.2007485878,0.2691890004,0.0236656709,0.3645871765,0.3125518572,0.4218737983,0.4402241173,0.6489749278,0.1393369144,0.0584340075,0.0492967222,0.1232365023,0.3995387015,0.2690746683,0.2608553859,0.6120115347,0.6999541054,0.0168734627,0.5786391653,0.5679616924,0.2755378173,0.0034670152,0.1938067499,0.1335313029,0.580157348,0.4777848596,0.4246903377,0.6847960174,0.2454747027,0.1226071979,0.5549042581,0.1179974494,0.6588295123,0.6329183466,0.4136206415,0.4902780983,0.1550931558,0.3663680365,0.2935948907,0.1170073842,0.3333469672,0.0049853768,0.5165434493,0.3708437005,0.1920589424,0.0954641398,0.6930018331,-0.4103669766,0.5935424407,0.5496808754,0.4339033087,0.6073565092,0.3917523505,0.675056622,0.0488141155,0.4089755816,0.4608450391,0.3192543503,0.5910542597,0.4501508484,0.3324015631,0.1975646817,0.2884904076,0.6696581396,0.0167572037,0.098389308,0.2325874968,0.6885158344,0.6014765331,0.1875976991,0.4768378808,0.5007875506,0.3587440762,0.2142406474,0.6744403598,0.4547746429,0.6973255795,0.5775244317,0.5558624993,0.1251671983,0.2574428043,0.6362270024,0.4432938603,0.6581466996,0.0326193258,0.2046871395,0.2866738951,0.3692124125,0.4370108413,0.4883384917,0.0212869584,0.1678227082,0.3487483903,0.4834313542,0.0633132533,0.4413894997,0.3555498251,0.5445810765,0.3706804435,0.5285224746,0.5906902567,0.4155052684,0.5525021844,0.1590152877,0.5014017501,0.0617565441,0.4090737396,0.134317272,0.2820015101,0.4501734446,0.2846912438,0.6937878688,0.6355094725,0.3956199403,0.4797160105,0.2363848275,0.651340395,0.4088694878,0.5264575162,0.1153033883,0.0445769625,0.6727705421,0.4048531496,0.1109396395,0.2623788301,0.1413066546,0.7083737593,0.0006421865,0.499906812,0.3211698944,0.477648103,0.7031008809,0.3573223021,0.0133791205,0.4721176042,0.5010901337,0.3127281075,0.6317682864,0.1680938867,0.6454842443,0.6803569745,0.4159011126,0.5229129223,0.1136689484,0.212822038,0.5392983155,0.1995393339,0.501867825,0.4916750786,0.0440125389,0.6241585409,0.561772596,0.1758075101,0.0122407416,0.2143580332,0.6809296364,0.2780297908,0.5142782339,0.5762170603,0.1409889471,0.0949612992,0.2931383845,0.2089868627,0.6845625536,0.3572580957,0.6512743622,0.5097334744,0.2104249408,0.1530743564,0.2314655805,0.0033491246,0.2542371859,0.4308392977,0.3257825407,0.268399848,0.4522139143,0.636828581,0.7131393712,0.4003635813,0.010649084,0.0244668576,0.2561933717,0.1317940493,0.6435775192,0.2331905473,0.5007175124,0.4723541377,0.4444341487,0.3325692048,0.1742370647,0.6966272707,0.4586756531,0.7106417739,0.428716074,0.0495408675,0.5077692409,0.5190910437,0.5864333562,-0.1878416848,0.1129727172,0.7055867551,0.2829410237,0.3937563808,0.3928813805,0.2629268817,0.2450979081,0.3946313164,0.4096389503,0.4381243659,0.1020673847,0.3862850926,0.6347211571,0.0384059498,0.6401239563,0.5216518299,0.5259120748,0.5916803928,0.4011778025,0.2942072284,0.3714311456,0.1052736741,0.6866895908,0.6713464634,0.2979039438,0.526424355,0.4782692102,0.3126954338,0.6204992223,0.6482348019,0.5501175668,0.647883494,0.5310034524,0.5576904181,0.3809198533,0.6257533669,0.0348580824,0.5460980713,0.2535751026,0.3941255424,0.4555777447,0.0961683447,0.002255874,0.1103603896,0.6087199398,0.5894938837,0.3981597822,0.6223995454,0.6806951176,0.0478705363,0.7021916091,0.2034282352,0.0627164795,0.503747171,0.6918899016,0.5296464022,0.2388604509,0.0609921976,0.0670149692,0.2121208611,0.6088761936,0.1686685366,0.2863102797,0.0802821865,0.6783003433,0.7076094854,0.0184829416,0.1253148828,0.1775729233,0.3285809548,0.5917106616,0.0771609224,0.4778814655,0.123647883,0.0420594531,0.1226314548,0.5688361017,0.3395083039,0.2712127229,0.4164083086,0.5430264983,0.2055400288,0.0553890762,0.1003101572,0.2969343218,0.1216541228,0.4559442167,0.0187645818,0.4778780878,0.619728167,0.4520717434,0.3918680447,0.6068717465,0.2742453785,0.6979135662,0.5764792256,0.6947305284,0.489815686,0.320099971,0.2067036398,0.552274352,0.4570181435,0.1779236889,0.126178119,0.2727179337,0.18420827,0.5544543,0.121702621,0.4535306033,0.6582275258,0.5418831081,0.1953539057,0.52208603,0.0128502154,0.3636453309,0.699934012,0.3421456554,0.0675477753,0.1289081363,0.1173906621,0.4197611637,0.065229106,0.5950424069,0.5248418639,0.0650015453,0.4250945831,0.0979904865,0.2821082719,0.7040206915,0.6919202689,0.5626831148,0.5077726517,0.5109437999,0.693995085,0.6666459764,0.2517415956,0.1201492732,0.0585346613,0.1857516624,0.038849166,0.6087923666,0.0469139564,0.5201281717,0.5155768112,0.00200895,0.1392886749,0.148341533,0.3245977115,0.7093719811,0.3568079197,-0.2505313692,0.4544773884,0.1754620134,0.593148798,0.2749943764,0.2344913169,0.1626572117,0.262279441,0.3118361938,0.0173264075,0.5900197084,0.6454833046,0.6113459026,0.3075430729,0.4949253198,0.3186127384,0.7080298175,0.218954092,0.0834297108,0.0097839003,0.3755734442,0.2116560864,0.5033009001,0.6162610244,0.5973596995,0.7160475882,0.5409180803,0.6938867706,0.3757148134,0.6165622129,0.3194805693,0.4974231441,0.0497282601,0.000107727,0.4564292987,0.4341613095,0.0270763159,0.4690457699,0.368997219,0.0809424851,0.6840906297,0.1764348168,0.6489097358,0.3537272214,0.4928212954,0.3276861883,0.6888851958,0.1276904803,0.4983710736,0.048893969,0.626141308,0.5998903028,0.0687769845,0.4241752508,0.5021830958,0.2940454205,0.0892602852,0.4931914917,0.6869319946,0.521573479,0.1104639692,0.6557205385,0.5107125144,0.1397716935,0.3880012814,0.4899091926,0.7017582474,0.0999189467,0.5262658945,0.0362020746,0.0707402175,0.4365592523,0.3764745614,0.6709012731,0.4393493732,0.3470122847,0.0530862953,0.0801025219,0.4740892602,0.1773262284,0.5141612533,0.4417828416,0.3506827749,0.0755281164,0.6819599878,0.1537420919,0.0825149994,0.4816873924,0.3217461052,0.5076621653,0.2203277969,0.4358449083,0.4273655117,0.6780267101,0.3068225584,0.3431804536,0.2179336259,0.084909969,0.5998699403,0.361323175,0.581530553,0.3672638438,0.1892620968,0.1506460157,0.2375210458,0.3325539546,0.0147915968,0.6381789888,0.1240242409,0.1530636346,0.094330431,0.4052959127,0.4384608262,0.6610302813,0.1499008368,0.5437139607,0.2953186138,0.5023208988,0.2178309946,0.0739861894,0.5433514247,0.5109509263,0.3776752318,0.3402730521,0.7126951341,0.4662038827,0.1775897984,0.2213135928,0.2106378018,0.0748025004,0.288568994,0.5628557034,0.5214004331,0.1852512818,0.4779467322,0.3407906337,0.0785262506,0.0574801948,0.4390454244,0.3925994691,0.3722617908,0.6441850597,0.2143197627,0.2955810146,0.188158759,0.0120197438,0.0303479971,0.6344557188,0.2716124453,0.2918224439,0.0751712287,0.0385348587,0.3557582633,0.0152574273,0.6040529682,0.1376505178,0.0112288357,0.2930917976,0.3209061808,0.2769977627,0.3718145386,0.2311934023,0.4340928109,0.2778082477,0.2282368233,0.6014716088,0.1039257333,0.5981119631,0.1961704196,0.6669479639,0.3993473069,0.1383225557,0.3208122123,0.3219077334,0.4137076584,0.7150481117,0.1234172614,0.3321587462,0.7027503353,0.7043005833,0.6171792885,0.536652871,0.0056865982,0.6783187822,0.6193989157,0.3507584111,0.4971611827,0.0233025477,0.6946124484,0.0139305529,0.5736570341,0.6557053993,0.1642989467,0.0681202639,0.2902490107,0.5562037836,0.1955077237,0.591681142,0.269662602,0.1944342187,0.6742869506,0.1704426876,0.0616286932,0.0358719399,0.3114247568,0.2126554838,0.0762754353,0.3928428669,0.3919145517,0.2544533963,0.4097794994,0.1283654985,0.12568874,0.6080938949,0.5355049589,0.0217142436,0.0785413408,0.4747061777,0.0049440682,0.4767886595,0.4031249276,0.1411256837,0.0248900257,0.0238191579,0.5461056741,0.1392771912,0.0772580908,0.5824620637,0.5864253176,0.5674163915,0.4143366198,0.2019418281,0.3732538961,0.3565171904,0.1301200458,0.3834515476,0.3407585195,0.5992709989,0.6315870261,0.6067692805,0.5153121874,0.147841582,0.6222127857,0.4913643081,0.2086906403,0.0582834949,0.5011580416,0.3202104821,0.0555970206,0.2975171924,0.4025199894,0.7013782134,0.0535252719,0.0057631934,0.642202196,0.6978355695,0.5003151752,0.5113021265,0.3769395074,0.2156481643,0.6190811616,0.533368662,0.3653836635,0.655766334,0.2749223638,0.3759136494,0.3367250988,0.5249118757,0.262125764,0.5776873412,0.3886525799,0.653282857,0.0809689759,0.0408961139,0.1992373515,0.2851741126,0.0821730099,0.5063969,0.4538483424,0.3484474858,0.548749855,0.5354508872,0.3237854557,0.7070269669,0.0604445394,0.0152065419,0.3051232423,0.682923476,0.3285226956,0.5974973668,0.5892606546,0.096567931,0.2436195371,0.5900640202,0.5553068842,0.6824008293,0.3157836807,0.6139383531,0.163571338,0.3737987958,0.2706492023,0.5900452491,0.6554155719,0.6708857915,0.3677296674,0.3659186019,0.5789374288,0.6723576885,0.0389988134,0.2330875395,0.4002878715,0.0876534918,0.1538472736,0.6444057237,0.6975981036,0.1271550164,0.5423498313,0.3247325237,0.4246250714,0.0119318649,0.6302365483,0.0425524918,0.0709095241,0.1024277461,0.0784956976,0.502738002,0.6253434236,0.5378822864,0.5583846004,0.5032510082,0.3432401814,0.1213569488,0.3837820571,0.4808485273,0.6858579104,0.5000631923,0.2093747112,0.5170418128,0.5413772771,0.7107251413,0.3602394851,0.0208031833,0.4613062625,0.4092227165,0.139255951,0.1944265579,0.1983409363,0.0007134217,0.6716243773,0.4899342402,0.5956022008,0.2129786173,0.1684241519,0.5207618513,0.3904727094,0.6311629138,0.1455534329,0.1126032349,0.6035009318,0.6845498529,0.4524770577,0.3566150611,0.3841315971,0.5849218047,0.0193675757,0.5266031686,0.2746597908,0.4352681143,0.0647330417,0.3277177728,0.1778220832,0.2343300055,0.1143014824,0.6425529346,0.0562525998,0.3435078844,0.3133595007,0.4316220086,0.6421257807,0.6541002261,0.6330347778,0.4092386337,0.6069161379,0.1176476943,0.6994791469,0.5025624819,0.3688255446,0.2192183449,0.4443897179,0.4053111676,0.4024024411,0.6087933179,0.1675182546,0.6091474758,0.2422599145,0.2896893758,0.6274192493,0.6240007314,0.4670479968,0.0144013269,0.710638009,0.0380521829,0.5198257503,0.5495139359,0.6417787921,0.107591329,0.3772971626,0.1773953497,0.0918774031,0.5710581923,0.7150409006,0.0466992248,0.0835408449,0.1772370055,0.186264018,0.0412183561,0.4147311265,0.6640595031,0.3001458873,0.647602366,0.5391476375,0.7056593256,0.2728447718,0.4330655633,0.5878131458,0.6787936281,0.5314983469,0.0314825465,0.0263588796,0.2959569469,0.3737499028,0.1939873397,0.3560564706,0.6867062823,0.4252045135,0.0139602254,0.3125228951,0.711991008,0.3117838346,0.1195295242,0.3823754568,0.243777578,0.0928577371,0.6264855786,0.6104095704,0.4798979593,0.5802894441,0.0757679398,0.5407887161,0.0021612445,0.3291773572,0.517064215,0.1066504584,-0.2083752076,0.1351943991,0.2100210104,0.1304395059,0.3531586361,0.2745820875,0.1405607538,0.4111474611,0.0273127107,0.3972205924,0.6626692734,0.3884023642,0.1203839859,0.2699779764,0.436675444,0.19951918,0.4427100406,0.3136878427,0.3387020001,0.4405483503,0.198548298,0.5222441487,0.4798003772,0.3561824711,0.0679474536,0.6042607495,0.2069525055,0.2416027488,0.3536273071,0.1744334663,0.4016215768,0.3146991596,0.044532833,0.0439739235,0.3042721192,0.1233798195,0.5453590809,0.4705185484,0.176193516,0.5206613337,0.4646464557,0.2138025026,0.4998994055,0.6340574407,0.3374643478,0.2395742807,0.1696388389,0.4505745223,0.4713727496,0.6230145794,0.0583306255,0.0932479835,0.2994031772,0.3762215295,0.6889155912,0.6481540478,0.2502278502,0.1544376812,0.0406050687,0.2780548599,0.4836633497,0.0707275004,0.2886968069,0.5490470428,0.1680411334,0.1136311929,0.2379798386,0.1291748463,0.1606552675,0.0586189382,0.4895972165,0.4531467098,0.0442603612,0.6410949361,0.399340452,0.0394903126,0.2785728636,0.4545922781,0.2657416403,0.3434072391,0.7127754001,0.4073016278,0.6966290401,0.1358679662,0.3515088258,0.3258019686,0.2593733038,0.6355229448,0.6352929713,0.644941884,0.0862801476,0.6196324423,0.3028780735,0.5821195926,0.7049761232,0.0286881057,0.5610184405,0.5052996969,0.5643456753,0.2541930655,0.6527223396,0.1250831638,0.1142260507,0.1086517368,0.5938722498,0.000073762,0.0967123128,0.4614109267,0.4186146013,0.3777189687,0.4713519217,0.3464267751,0.6551781831,0.0427611734,0.0953909316,0.029017919,0.4530871367,0.5537326267,0.1844421212,0.6624637636,0.2444249712,0.6309965118,0.683329616,0.4009874184,0.5509202664,0.6700660025,0.3890636886,0.6973737234,0.0403748179,0.4674221846,0.4729141532,0.7066151032,0.5742397547,0.1336628943,0.2505666436,0.3926873111,0.6144345155,0.0378440872,0.392116101,0.0630124165,0.0357112327,0.0824630806,0.0199854317,0.5904783628,0.4271051803,0.0497794946,0.1450371666,0.3164465777,0.4510531332,0.1480694542,0.3540067631,0.2649296425,0.1975469322,0.5364749037,0.6731092573,0.4234253074,0.4629112853,0.4420148131,0.0046526268,0.3237731339,0.3670709833,0.5905943911,0.0622759837,0.3945560249,0.3186643792,0.2474005654,0.0905644832,0.3464608093,0.6003366187,0.6755319778,0.1907199572,0.588986466,0.1015675044,0.3012202838,0.7031981374,0.25662177,0.2933862769,0.6057366003,0.0681779748,0.5700583064,0.6728337931,0.3002383287,0.3552499407,0.3575996709,0.5743262711,0.1836540752,0.061082777,0.4268065685,0.3388614801,0.6683777696,0.3248453625,0.5960954461,0.185102702,0.150497517,0.6003871897,0.1875277381,0.6825899106,0.2411528354,0.4077221909,0.3502139012,0.3093449276,0.0966488878,0.0978569604,0.6095511248,0.4386734183,0.5124513467,0.530547841,0.291040078,0.6796570242,0.1509434961,0.4828696005,0.1891965267,0.4477479071,0.0468220878,0.3458354418,0.3555868687,0.1335326154,0.6217204123,0.4287753462,0.7143024084,0.0279502104,0.7005272527,0.392416149,0.1542690702,0.6358461127,0.4215292827,0.1152140517,0.2792734275,0.5413154416,0.3965496565,0.5405823667,0.1947762122,0.168997553,0.1414327583,0.3045453792,0.5296723412,0.37703933,0.5861412566,0.3288596865,0.5071816807,0.1798622836,0.5818729134,0.4543538867,0.3089373458,0.5317262067,0.5609198533,0.0800714982,0.3889206102,0.4989025912,0.1884970111,0.4759278443,0.1720532227,0.3605229172,0.1524870266,0.610930421,0.4574675096,0.3530670812,0.2806120111,0.4537872356,0.2572831772,0.1251553761,0.592127541,0.5924556255,0.0293412462,0.2221073417,0.2961755197,0.4033092008,0.4999728141,0.3998542401,0.1498369373,0.2541267943,0.3808257185,0.189281604,0.4473917789,0.7039771764,0.2037723417,0.4467806024,0.0486849351,0.678998828,0.2611474124,0.0499238773,0.6967273082,0.2098475467,0.6341049251,0.4183080617,0.6148206405,0.6214194545,0.2284026177,0.3577608781,0.0050783609,0.2371912806,0.7013879375,0.3426342711,0.4490056395,0.0421570404,0.4150993498,0.4241356658,0.6982832063,0.2825195913,0.6079866954,0.67247309,0.5456620833,-0.5335139189,0.3034856818,0.482941694,0.2086796443,0.6484626667,0.0867062199,0.102301145,0.1069317018,0.0481110999,0.1850191402,0.5380875063,0.5827799074,0.1047321607,0.465872539,0.4075454063,0.3163987241,0.6085420608,0.0729202637,0.3284972843,0.6579200377,0.4940788281,0.0214195198,0.5130423442,0.333346261,0.5121198873,0.5428102412,0.1667777515,0.3550148316,0.4730950581,0.1197354492,0.0859443203,0.2194062561,0.4061975566,0.4313789139,0.0339481608,0.3149411173,0.4400890553,0.6636449453,0.4571639793,0.1627765345,0.0812265127,0.6149298659,0.3736350911,0.2659957516,0.5379812847,0.4662758001,0.1262048525,0.4349971878,0.5761503165,0.241047734,0.6130761062,0.5707254157,0.6920315939,0.2946548422,0.6866928189
   0.1927308006,0.7062375203,0.2450561415,0.6412086016,0.2373777338,0.1486604612,0.3223443713,0.5049883529,0.3426529784,0.094801164,0.1418822375,0.1431779352,0.5842583814,0.1074305425,0.0738341311,0.1698005551,0.0818533771,0.0971262172,0.1049238632,0.2946186906,0.4317299509,0.5348852823,0.2283416242,0.5702819195,0.5147392721,0.3173146727,0.2056599324,0.7040828739,0.2984526637,0.0705792182,0.0116200641,0.4429477774,0.6835279417,0.4134738027,0.1246168562,0.2576278175,0.4973372169,0.3933092625,0.2861914279,0.5501285117,0.5034953741,0.3074046246,0.7002696164,0.6513112723,0.3829561851,0.0193135756,0.4193696266,0.0500022021,0.4418326652,0.4235216701,0.3418131442,0.6274595665,0.0277241059,0.626739358,0.1702885981,0.5184042703,0.2128749776,0.2523062876,0.4308697935,0.5069328726,0.0970939089,0.5418496554,0.4520007104,0.6294174675,0.2676059857,0.5799365659,0.2902980464,0.6215034824,0.0586050308,0.159456161,0.4967753266,0.6156772718,0.2691958121,0.3004694395,0.1249101537,0.4784602718,0.1299660771,0.4446059549,0.3233277261,0.0651275537,0.404918204,0.3749336869,0.5481028642,0.4132428486,0.3273992066,0.2771931768,0.6257430163,0.6955498294,0.1275679837,0.7086901475,0.1866484974,0.6275741788,0.6930833936,0.1236033073,0.6269997398,0.5472496777,-0.1484481217,0.6306094805,0.6138473694,0.372062446,0.3683636983,0.5798254896,0.2476470014,0.0171045839,0.3414324078,0.64754288,0.6485809378,0.5976753168,0.594826519,0.0451138969,0.6208872214,0.2806125635,0.3867052469,0.4885134242,0.4800081691,0.4684899822,0.4660873225,0.1463413391,0.1786903683,0.4750917083,0.5176622644,0.3667437347,0.5591399234,0.6318540629,0.280740966,0.1332738181,0.4910089535,0.0973197506,0.4401467707,0.3446496541,0.4784405048,0.6053286089,0.546245924,0.3406491849,0.0915148422,0.4909620025,0.2141727344,0.302583456,0.0340173158,0.3066672233,0.5819115769,0.0016215212,0.0201813968,0.4148971816,0.7006525308,0.0049662551,0.0460113322,0.2705995557,0.4000401964,0.1847290782,0.2396486229,0.0898636573,0.2219809641,0.1284658172,0.0786673137,0.0338335734,0.0576182272,0.6791984687,0.0868135997,0.5897513563,0.6265504891,0.1593537199,0.060411028,0.1798045047,0.6927889878,0.6865964343,0.5293930717,0.2955761608,0.0617766654,0.7035588362,0.5863086258,0.130464436,0.6857410814,0.1321321556,0.0049026152,0.1323936018,0.5924744442,0.4046007891,0.3615883697,0.4650792826,0.1612892606,0.0288543439,0.3040922801,0.0397803377,0.2352428503,0.1928686216,0.5187479826,0.6588489749,0.613964611,0.1414343978,0.4398504051,0.6446681782,0.2648086894,0.0667480143,0.558164884,0.2895689185,0.6652428781,0.0709455366,0.5010339267,0.5135674215,0.2268828615,0.1984531601,0.4993331239,0.2752633739,0.5738994237,0.0272869027,0.2410945515,0.2090829316,0.2764534644,0.2262396997,0.6951027879,0.4632438544,0.0731337369,0.6605982808,0.5195794924,0.3860856089,0.2886425194,0.4566851403,0.1756377488,0.6151324718,0.0509985357,0.6891073219,0.1943724129,0.4049282332,0.2720386774,0.6389282731,0.290813474,0.3231566914,0.340752478,0.3877697233,0.5649726869,0.5208039308,0.117211762,0.497415455,0.7136860424,0.2646307739,0.1483373356,0.4437287974,0.394305934,0.2126507819,0.1614678173,0.0351117355,0.2324093623,0.3526020656,0.6334946618,0.0444056475,0.5611951784,0.591770537,0.0807450872,0.1446175446,0.3446238068,0.7138532432,0.2185078233,0.0811571517,0.1430070068,0.4357803746,0.0476403604,0.2135538782,0.284588994,0.2705089441,0.3712479868,0.0022823886,0.0476293959,0.5650524942,0.362867619,0.0383318829,0.326883814,0.3638824646,0.6338133844,0.6080942015,0.4773399264,0.5591470137,0.5489268573,0.0089028688,0.3784115743,0.2026742157,0.6328214284,0.5327454469,0.3781257686,0.6256983312,0.2859491762,0.2744458721,0.1832993436,0.5175961317,0.0798382494,0.507287371,0.0672276602,0.0257154603,0.1653290945,0.3147756144,0.6512574171,0.0491795411,0.3865905075,0.7128117262,0.2941670737,0.7024124591,0.036481319,0.4880641189,0.4467013244,0.4452363337,0.6970289096,0.4612203617,0.3610624372,0.0773162842,0.6292892841,0.4559573108,0.5142167144,0.0439759852,0.6721836979,0.6017550383,0.6261158628,0.6724346877,0.4376477058,0.2453142657,0.3741539945,0.17336613,0.6509931089,0.201937066,0.1722884102,0.5737051011,0.0911227153,0.6678077003,0.5174336999,0.5979503821,0.1019759145,0.0769630459,0.54155514,0.636203487,0.5670771776,0.1820941037,0.6479528603,0.4956730796,0.2212069045,0.598549256,0.6819962502,0.2670906939,0.1550691693,0.1953917608,0.3695167158,0.3966759668,0.3149510555,0.3242386344,0.7062509105,0.4835907389,0.6069726118,0.0927497918,0.4309044952,0.2256066636,0.037738079,0.2733288863,0.5051386631,0.6280056119,0.3955679251,0.3207033879,0.0653550118,0.4884441916,0.4136338669,0.3642615962,0.1916910113,0.5447582974,0.206228495,0.1225306424,0.3188121584,0.4645940473,0.0430330115,0.7154083321,0.5902312331,0.2376997047,0.3616605654,0.1431157753,0.5262855369,0.3908570386,0.4847521527,0.5736026003,0.1291719524,0.3046068804,0.4606780135,0.3638273026,0.0718141645,0.4672258147,0.2693209932,0.3506119919,0.6816602331,0.7073451249,0.3281377616,0.5434587587,0.6697262203,0.5336350829,0.1133159061,0.3001480667,0.0764845768,0.1817533468,0.1544213317,0.6208200418,0.3028619806,0.3058445726,0.0909751868,0.4231429927,0.7125423061,0.6771181537,0.4123101373,0.6134629114,0.4476548573,0.2081184064,0.4517326961,0.4095229815,0.394706316,0.4176934949,0.5374790089,0.2115198416,0.5091421899,0.0191517022,0.415756279,0.2355416169,0.4202666133,0.5983603945,0.5275389167,0.4442455211,0.661325069,0.5133020692,0.3328626792,0.673114116,0.4829980678,0.6721648683,0.3454295749,0.1749495936,0.0763455379,0.1620466186,0.3341235434,0.5208688553,0.3796174205,0.2564081027,0.1694270309,0.2477237382,0.7154787951,0.2281215606,0.1469838666,0.5565439006,0.093038955,0.0902555329,0.0401965332,0.1911856893,0.0046256901,0.3954930536,0.1983799257,0.3191596749,0.2107582875,0.0834369007,0.3588835264,0.0147967065,0.441127036,0.3200821679,0.0751603548,0.7050307928,0.5686420038,0.1984544092,0.1648616066,0.3664209897,0.6809097316,0.220890296,0.2520892117,0.3476982899,0.6292725158,0.6103899439,0.2976463341,0.1911084371,0.5980012123,0.4673060972,0.4023554626,0.1648370253,0.4162836077,0.0515672077,0.153870577,0.0306717717,0.1407483432,0.2561016307,0.3933381823,0.1791354922,0.4321543898,0.0394158667,0.0580947422,0.2730347528,0.4606070891,0.7068954841,0.6727851042,0.1853623793,0.6764590052,0.2527239063,0.653627542,0.4680257954,0.1211728602,0.4988503221,0.0614645551,0.3794258899,0.5527156507,0.2028391262,0.2908011855,0.6477861032,0.0385191943,0.4546104865,0.6192531274,0.57655561,0.1525459659,0.2373101001,0.14151763,0.2282916176,0.6547407317,0.2411653995,0.1663967116,0.7041899623,0.1524839071,0.2567307416,0.4118286151,0.6421786988,0.5992378368,0.6153236221,0.1404998346,0.3324925531,0.2556604346,0.5657515903,0.1342143962,0.24204958,0.6052821412,0.4022789171,0.6612677179,0.1159704428,0.5704764808,0.5112315617,0.6698996779,0.4734541828,0.0794805181,0.5423717746,0.102189675,0.6547480417,0.5917436188,0.6832204401,0.2040305394,0.403946337,0.2745217158,0.4463938533,0.6631037607,0.5369948564,0.5715179627,0.6495531407,0.6231168313,0.1788425714,0.3859445968,0.1253539334,0.5616191407,-0.2943018734,0.1818306568,0.3778408558,0.5446685696,0.5866112617,0.1472467463,0.6793737378,0.3045984955,0.397271897,0.0323770295,0.3000994201,0.6784927146,0.1523394189,0.2978216387,0.6784171259,0.5663918815,0.3159035988,0.4269437785,0.0318371934,0.3771971176,0.090103843,0.5113134022,0.2944889979,0.3714882985,0.5480942981,0.3437003223,0.0506097998,0.6577703647,0.293428844,0.4595411452,0.0103394605,0.3560555839,0.2300880432,0.3099510208,0.5692165121,0.3048885011,0.098345777,0.7108932325,0.4194962515,0.0736136414,0.2675961856,0.0316800798,0.5289043317,0.1956102534,0.1856616361,0.435220488,0.6989655196,0.3300326692,0.4651274494,0.6158856245,0.6907869553,0.2456084889,0.0496020967,0.3167453331,0.6209328491,0.3289817823,0.2896341339,0.5043850467,0.5147275286,0.0285174935,0.4656927707,0.5797970544,0.3066773355,0.285437036,0.3439651347,0.0330681278,0.2158143825,0.5790501195,0.166717216,0.2665320302,0.3785358801,0.0332691806,0.5028643547,0.701514742,0.6364542009,0.3292248748,0.2700960188,0.6687902555,0.4210635865,0.0974838806,0.0978044435,0.0800502367,0.0427731363,0.5932179597,0.6987398201,0.51739227,0.6118353411,0.5762227268,0.4443379923,0.2703741512,0.3661406761,0.5448089585,0.6488133725,0.7154875776,0.2624969362,0.4725263642,0.6095317666,0.0536044896,0.2789464165,0.6262888811,0.2972641268,0.5203418259,0.3937088189,0.3744133176,0.6697070204,0.381248362,0.2763625947,0.2825189297,0.1583316832,0.0653571223,0.7060119369,0.0986951098,0.0737020835,0.4499946473,0.3313009429,0.5810362131,0.365589063,0.3761678927,0.0655358627,0.4494976671,0.2284492462,0.3430906243,0.3428891565,0.301448478,0.1422711714,0.452701136,0.3841091002,0.6626862327,0.0603677905,0.0009412033,0.6498994558,0.0631262544,0.2140379844,0.6044776437,0.289725266,0.6903397141,0.1669170081,0.4684722322,0.5375958439,0.6812871818,0.524801861,0.6138923059,0.2993519831,0.5134163512,0.2767767117,0.086145344,0.7134204389,0.4816986208,0.1344084997,0.1809895572,0.6200033657,0.2814929674,0.4507198905,0.0689339116,0.4761097046,0.3279875069,0.4631351669,0.0362751898,0.0638569753,0.5740729239,0.2703031573,0.3521667361,0.4995510742,0.0093291755,0.0915216626,0.0590721372,0.4349049849,0.463397345,0.6234449357,0.6436129945,0.4866070381,0.1501801186,0.1492474167,0.368694385,0.4216020364,0.0082398506,0.0332187221,0.2596080293,0.3283086154,0.0832107252,0.51036705,0.2394864488,0.212598146,0.2903844602,0.0314301755,0.4314249163,0.4786324648,0.3744960602,0.7014630686,0.3259012761,0.4524983761,0.5448227854,0.6388672774,0.4932458425,0.4178652661,0.6369110664,0.0678638157,0.4500458353,0.2288983246,0.3832314081,0.5962389936,0.3596023627,0.0632190088,0.5737531883,0.1231935958,0.6704470471,0.3830548233,0.0647050724,0.6202132965,0.2785035375,0.0401278674,0.2583862591,0.4400734692,0.0505752014,0.1384778876,0.1601195689,0.1729385473,0.6622043173,0.3070263672,0.488426005,0.5080727898,0.0216438042,0.0537445576,0.3848449019,0.2311828366,0.3356095031,0.6612397534,0.1514736013,0.1808051785,0.1880507904,0.0959861191,0.4282516896,0.164937473,0.0701242778,0.0206817487,0.5757290081,0.4386848121,0.6715675649,0.5638987409,0.083443076,0.2161222021,0.5808028354,0.2361473574,0.4456141222,0.2223815718,0.2628241455,0.3050925301,0.2724167235,0.0391096364,0.6314577394,0.6338716133,0.4395115731,0.3403066898,0.1673193156,0.1106555686,0.2077741773,0.0276620706,0.2303410801,0.5963190542,0.4877114075,0.4373365969,0.3153779949,0.608128058,0.3660137552,0.3751343871,0.5969056811,0.4761276746,0.2709281382,0.3956383744,0.4706666207,0.3751352873,0.6637947381,0.6414792972,0.6991088589,0.2306186717,0.3231962767,0.0245279076,0.2447912277,0.2548618537,0.2525084749,0.5172268549,0.5123354043,0.2516824462,0.5134187815,0.3488631191,0.3728232367,0.2868186774,0.3372846459,0.141997031,0.6507663327,0.0219032717,0.6154304164,0.1668621282,0.5238855483,0.0919126601,0.6421664916,0.3650086164,0.2081566042,0.0651984593,0.1460103131,0.5912336878,0.4000949811,0.483356608,0.2546486031,0.1818560203,0.3000480603,0.0264946146,0.3089920002,0.6886778834,0.4590029635,0.2832699637,0.7123251139,0.0712357154,0.1468636653,0.5574519472,0.6676697653,0.0989977086,0.2228228347,0.6171715391,0.132984603,0.3846077454,0.6151161855,0.3821734635,0.2284447807,0.0412927704,0.6018933328,0.4756006635,0.200310705,0.4894412519,0.3258567209,0.5824011116,0.5135455929,0.2863691798,0.7081483622,0.3644161876,0.353796014,0.6639999401,0.6661216164,0.5349101726,0.4313372747,0.5848653012,0.3751255176,0.5473893601,0.2722379711,0.4779496315,0.6318807059,0.3306297879,0.5268516659,0.1072130202,0.1334255743,0.1420884441,0.5313986552,0.6969851421,0.6097199837,0.01650009,0.7159192056,0.5393521487,0.5394223026,0.2831370202,0.236754775,0.6815714912,0.4725108994,0.6503591316,0.0229820475,0.5532829262,0.6521222074,0.40729022,0.2038981029,0.1068485791,0.0910794247,0.5362826971,0.6384939692,0.3778259596,0.1172378208,0.1946725884,0.2123351685,0.2102443756,0.5114518767,0.2042254583,0.1926019871,0.5651965827,0.2019740018,0.2113259497,0.0082861683,0.3686505421,0.265008379,0.4438840379,0.0234217645,0.4078745739,0.3989025597,0.4141071059,0.4191350269,0.0945429101,0.6314974333,0.6630325981,0.4667832927,0.273499134,0.4125786231,0.5101799434,0.1530702087,0.1813150156,0.100787218,0.3173886634,0.5155321739,0.1908500076,0.3989781833,0.4708809359,0.1369376546,0.1042897887,0.4659735635,0.3071837338,0.4511900285,0.0199969806,0.5042465943,0.4814964627,0.6121946596,0.0266106413,0.4596686934,0.6988321909,0.5572120161,0.4240971768,0.0387414668,0.6139834305,0.4428332548,0.5113605562,0.4751298126,0.2042294135,0.4687501163,0.2172898773,0.517703611,0.3642249806,0.2060180291,0.3704354977,0.0366475391,0.1507336538,0.6870126866,0.1959107388,0.6581050069,0.6421860175,0.595984672,0.671078251,0.4564426567,0.0952510974,0.4506694964,0.0762872413,0.1545117615,0.5498940375,0.6888181514,0.2703981237,0.1121873571,0.6296469048,0.1664102664,0.6528871223,0.6201986666,0.0378988636,0.3352915001,0.3619632693,0.1785206208,0.3842552751,0.5666538469,0.227144526,0.0388178371,0.3060520709,0.157081473,0.4800621228,0.3657251943,0.6386553701,0.1612493854,0.5617855854,0.531227416,0.0579464206,0.5661297822,0.1603374389,0.2910254769,0.0428813633,0.5472768287,0.6761694701,0.4645216114,0.6249987733,0.5411551933,0.127586581,0.3252105434,0.1581674913,0.4283419151,0.5253598232,0.5686660815,0.5003950317,0.2607727494,0.2667423146,0.109674279,0.0415280657,0.6710717151,0.4551581533,0.3525385058,0.314784228,0.156690098,0.6360312152,0.0889841661,0.0526254762,0.5056185465,0.6934461516,0.0341441435,0.5259345701,0.4560224463,0.3305084214,0.0687822885,0.3492772171,0.3673490931,0.2824163746,0.2992613748,0.1973805749,0.4883693997,0.4184829981,0.518983152,0.0641137663,0.1878642486,0.6091187108,0.3146215489,0.0218912663,0.1254557122,0.2240824003,0.2158033244,0.1295262766,0.2916778759,0.0728714135,0.5513217915,0.3232440333,0.4814973043,0.3357686046,0.20591922,0.4866867883,0.1091890337,0.1479234553,0.4636601219,0.46620677,0.2540887265,0.2756613314,0.2181476923,0.3619214949,0.0074639685,0.4182647161,0.230379546,0.2149397879,0.1536900658,0.4201751205,0.6094477607,0.5187581463,0.2045582425,0.1575192088,0.2009588824,0.3742184548,0.3190621645,0.1146714793,0.4707826051,0.0502296929,0.1387356884,0.6028361421,0.1332034011,0.1958494563,0.2874717128,0.4203398625,0.3248983197,0.0498575043,0.2044937556,0.4471521414,0.5856361831,0.1011113995,0.438102838,0.4491299091,0.1422949579,0.3325534891,0.5058160121,0.5205141709,0.2867765341,0.3449616926,0.4134808116,0.3013891872,0.5180065657,0.3997502254,0.6123056743,0.55444464,0.5475623652,0.1485636041,0.3182089805,0.0729247979,0.0249157397,0.6880966782,0.052284197,0.0336231002,0.1650634611,0.2891483183,0.4340292808,0.1558517964,0.1398063286,0.4020481096,0.2348447794,0.366810287,0.0899505475,0.0794726447,0.3244640348,0.3053194474,0.5639444718,0.0691007432,0.1952103119,-0.3811877273,0.1537874269,0.3536785001,0.0343686393,0.5757095996,0.7002172905,0.4981293647,0.3608252411,0.2574994199,0.5260351312,0.2151685172,0.156431894,0.5896264952,0.3924235208,0.7133802663,0.6696462141,0.5105745666,0.3101171474,0.6128642473,0.6234083032,0.6102932973,0.6860191191,0.6189031749,0.3847320623,0.5246241063,0.109540452,0.085938604,0.5506444186,0.6480695449,0.0218658365,0.0883760735,0.24535579,0.6162934976,0.2965231862,0.3813313777,0.6059781176,0.3453480624,0.3983913465,0.3661833932,0.3405382653,0.4528515886,0.1838455302,0.3740245161,0.5869525369,0.6941987845,0.7031631536,0.441951893,0.0556383269,0.4606782332,0.191933573,0.4810272934,0.2733860627,0.4690947275,0.6904201313,0.5042072353,0.4269874232,0.5900626784,0.1719716981,0.5725184584,0.5950866841,0.511512416,0.366549485,0.2175707852,0.5935385845,0.4792673548,0.479132054,0.1463073238,0.419037413,0.6580841658,0.5857085396,0.5817910824,0.1213109853,0.3080857751,0.1288391546,0.5689073576,0.0217284775,0.5241354236,0.1451351738,0.4316041696,0.5353476519,0.5584230734,0.4627180777,0.6894141124,0.5405559135,0.0421139536,0.2545597154,0.3634922369,0.7107195124,0.0727071046,0.2174844645,0.0533697082,0.618924212,0.0494679655,0.2760269077,0.347763679,0.598773955,0.1620651807,0.4084871447,0.2774387396,0.4517997911,0.2330900368,0.156049879,0.5690201195,0.25955702,0.2661709453,0.5855393439,0.5689014418,0.6388171615,0.3537394331,0.6465921953,0.5123262139,0.0836358293,0.3266647037,0.1483164058,0.5174506858,0.4547407285,0.0208979473,0.5008962824,0.2528293452,0.2320790626,0.5783399106,0.4718212059,0.2202096092,0.2154609308,0.5462063872,0.5597088694,0.0413862217,0.5484126687,0.4726958035,0.2841016415,0.006816983,0.4075036939,0.2257180168,0.2763560136,0.5272052197,0.2824985715,0.6588230275,0.4046386263,0.453321837,0.3108389538,0.2854432027,0.0334740374,0.3865159647,0.4817680523,0.4542885406,0.0905191488,0.5375148527,0.347361781,0.676040249,0.1949118619,0.3652156087,-0.2954766599,0.5927818258,0.0350180546,0.0037836555,0.6507949175,0.3973594663,0.3908127644,0.3603741043,0.4793914398,0.3210514457,0.475923156,0.2865266213,0.1432106322,0.4512078108,0.344792745,0.4955678502,0.0447846742,0.4996260848,0.3637714393,0.135300159,0.022016033,0.4491305939,0.1842124272,0.5191416565,0.6345634806,0.4572582759,0.2029354659,0.0767385782,0.0288367816,0.5022520986,0.1016030564,0.217351895,0.6996803507,0.4341213248,0.0097260489,0.0597051484,0.6155973544,0.5025365618,0.4294148049,0.7104302913,0.4633479534,0.2994190965,0.3667979572,0.3112423053,0.0369468231,0.2984873007,0.0072156602,0.118611192,0.4549117832,0.6610656733,0.4952840276,0.4094947315,0.5608675123,0.4525266354,0.6353040948,0.2083035099,0.4090463972,0.3647572635,0.3677732893,0.5259471153,0.0834726264,0.5839239476,0.5664523632,0.062713674,0.5943667767,0.0831382768,0.380651225,0.0283861721,0.1302941981,0.2992337315,0.100975352,0.5976594183,0.2204537331,0.4798239728,0.1560819039,0.2953155671,0.0061620218,0.6839568021,0.1666203035,0.1619923025,0.7117098631,0.3949178415,0.0994414616,0.3566405478,0.263268248,0.4247385234,0.2669877961,0.2795386111,0.4260156739,0.2712987636,0.6879644953,0.3095357816,0.1279475286,0.515741304,0.2581658893,0.5028631,0.2434932723,0.5362005258,0.0500589557,0.6074479728,0.2377655823,0.6297010334,0.0969455235,0.315904063,0.1097816711,0.541266091,0.6739054723,0.0224958642,0.0448232714,0.5597675968,0.4059286378,0.4683573122,0.5843553702,0.0262916565,0.1506676744,0.3253395705,0.4567978352,0.4309494512,0.1160136639,0.2358344283,0.5895484994,0.676895017,0.6709209455,0.0933680252,0.6220141879,0.4496024736,0.5400030936,0.6769018777,0.0642955759,0.0070709844,0.5223227144,0.2483477914,0.0621896139,0.1941055529,0.0694760726,0.7119689314,0.2025888054,0.5364529802,0.0688840116,0.2170810611,0.6067795147,0.0126840691,0.6099653924,0.6262600455,0.4395119388,0.5610586873,0.1729776725,0.3851459572,0.1346239658,0.317946058,0.4857444047,0.3823668799,0.2858059964,0.0951810248,0.1105704871,0.38451945,0.1675181343,0.2345682644,0.0905377818,0.4744524415,0.2440521691,0.3055684628,0.2963434551,0.2674794081,0.2184338541,0.3221958762,0.4226484604,0.5440741252,0.6266251782,0.2082168093,0.0868043354,0.4794027108,0.4658501717,0.0131500376,0.4646280639,0.3646607708,0.5275426002,0.2303877556,0.4904518077,0.2742672889,0.3892004751,0.5993870318,0.6834205494,0.1679429585,0.5006710745,0.6637886184,0.2575977995,0.0049269683,0.2808634188,0.5324648645,0.1293636953,0.5065743167,0.7032813556,0.0069342606,0.6455409619,0.1123153873,0.2228978079,0.1569258753,0.4070676142,0.1314377067,0.4468653559,0.1587602901,0.5403681057,0.503528848,0.0170408105,0.3136425468,0.2986349266,0.6207082522,0.4382099335,0.2868219565,0.3961274392,0.4207095151,0.2814622629,0.2363039529,0.369312497,0.0418018456,0.6349334286,0.5315653387,0.1545771864,0.1693602481,0.7018059681,0.4391526938,0.0869937821,0.6604120333,0.3053555374,0.253806649,0.2599968644,0.2373130629,0.6403681199,0.2474537898,0.4123238153,0.3092192968,0.0541712161,0.3808738997,0.3540013077,0.5599320374,0.2824815286,0.4817420739,0.5613491557,0.6738801105,0.4812053758,0.3519875943,0.6853077359,0.6856626687,0.0953604874,0.0191604641,0.4057702644,0.6490131265,0.6584850184,0.0263486501,0.015479008,0.4721171511,0.1502299254,0.0943367926,0.5707707167,0.0745562444,0.15908893,0.3935146548,0.0339019877,0.6015922009,0.3276027006,0.0066826891,0.6018021292,0.1305461296,0.2658708794,0.1450899227,0.1433428793,0.6633964234,0.5513093954,0.3494138822,0.4746560668,0.0590162012,0.6363400842,0.6681563523,0.0299831898,0.0787569375,0.0758805074,0.1121621802,0.1228102868,0.6923646193,0.5534778923,0.223590668,0.1190386095,0.3256934054,0.6121519487,0.5803258799,0.1854209007,0.2135032697,0.4722772347,0.6317844251,0.3344195305,0.0839327106,0.3715908036,0.4662891385,0.4748062419,0.017014566,0.6069094971,0.4986465962,0.1634833667,0.3612236877,0.4523700369,0.3576409379,-0.7000766509,0.3294546091,0.2540225396,0.1119967471,0.4948557864,0.0372685751,0.6515076425,0.5654036527,0.0542651873,0.3539214204,0.3406984074,0.161984879,0.524905155,0.3579411892,0.0289183489,0.6035886842,0.0038983943,0.3589013506,0.3312486579,0.073667186,0.423911796,0.0608252183,0.6505231408,0.1164710443,0.0696588694,0.6232398764,0.3998844962,0.0210286688,0.1821830134,0.5983052693,0.3183912507,0.2784320925,0.3700522704,0.0904241259,0.6511821579,0.2901726876,0.6584672668,0.0448960829,0.4535811887,0.2474880965,0.6144500795,0.1977161236,0.0450015744,0.1252128827,0.4985209585,0.5899524435,0.1967184153,0.2469174302,0.4611646738,0.3469640427,0.0418669864,0.5550148021,0.0330326975,0.6692688854,0.0414590621,0.2113331085,0.0953044831,0.3034137589,0.5841412065,0.5442339251,0.1216384098,0.4352540506,0.6540842603,0.5890801901,0.4115995683,0.4345787316,0.4040880718,0.6247112007,0.4944919783,0.1103019076,0.3973228589,0.2710941009,0.0312477175,0.088729369,0.6668668458,0.6903261158,0.6023403172,0.6171492495,0.6448857952,0.2695116442,0.565312124,0.675359873,0.3302898516,0.6786748563,0.2430499754,0.0818479395,0.1426692998,0.5867833363,0.4466625926,0.0763155983,0.024871871,0.5033765703,0.2258430225,0.1294952391,0.5343583345,0.0956800826,0.489350667,0.3691766222,0.2632691418,0.5352361787,0.5737452748,0.3564816958,0.6185018223,0.2159279684,0.0852350944,0.2282878248,0.684754453,0.3868280251,0.235952452,0.7016153221,0.1819271292,0.4810457203,0.5142341692,0.2357399191,0.2862475109,0.6067991898,0.6133946563,0.0469278939,0.2286854071,0.3349453204,0.1866509445,0.3843383687,0.469253584,0.2788816161,0.5388071647,0.5423437558,0.3215393084,0.7075244494,0.0192499896,0.504801135,0.3453968988,0.1886761572,0.5264144308,0.3518415674,0.3793321972,0.2641268638,0.3764927383,0.2908230373,0.0269074726,0.5114380936,0.3778572008,0.4015275002,0.2895476956,0.3004613128,0.100664748,0.1099884444,0.0329038182,0.1804890034,0.1270789126,0.1091424788,0.5635958529,-0.0977165947,0.1874784201,0.320206651,0.1744340343,0.4849743307,0.1121811627,0.2169017552,0.6267002681,0.3485343296,0.2927609399,0.1386872083,0.3276656012,0.1657882041,0.1218999422,0.4105760481,0.5311235651,0.5277803352,0.3565514443,0.5568765305,0.698968926,0.2054384993,0.5961300941,0.597373705,0.348625108,0.0645628658,0.6558156735,0.4152199927,0.3792910505,0.5620595283,0.2344953419,0.1892586083,0.3808900626,0.0220407936,0.3992515228,0.5934016722,0.4000827561,0.6542375276,0.2585407801,0.131869628,0.6067031235,0.5539395299,0.2435238482,0.5681946701,0.6385436642,0.3371448669,0.1516951358,0.5796495862,0.3706833469,0.0690846733,0.58207434,0.1527317102,0.300237622,0.2083608934,0.1935061543,0.0761610656,0.6353636408,0.2789051561,0.5657913051,0.6834240057,0.3952283579,0.4581432416,0.0084317652,0.6349481524,0.5750137241,0.0344173372,0.6914499517,0.6757816296,0.1881658648,0.6245388923,0.2748371133,0.4753040954,0.329680699,0.4103619115,0.056915484,0.5231369531,0.439726393,0.6853306189,0.6183943699,0.4133698736,0.3277706148,0.5244107244,0.6066030153,0.5509650511,0.4573805687,0.1692982175,0.66665397,0.3469391923,0.275305,0.2310105006,0.6892591873,0.0671225418,0.2352191874,0.4617456852,0.2733364339,0.5802302996,0.2560504094,0.3208439142,0.4212973152,0.2092279629,0.6541774804,0.1456051338,0.549596329,0.2503361439,0.0605878846,0.6007087418,0.5796786252,0.7106935098,0.3653892154,0.3491951891,0.6285264339,0.0815663414,0.0967186676,0.2933063789,0.639734777,0.543746379,0.0356837042,0.237682942,0.0079455664,0.3964214637,0.6196010507,0.6378209356,0.5108297283,0.1130780892,0.5626321007,0.4392209914,0.7076732905,0.3162648241,0.5009375594,0.0729480091,0.3865450484,0.4671313145,0.020384695,0.0750286949,0.4499661972,0.0161091335,0.5655027794,0.3402026186,0.3474656235,0.0342431018,0.621755972,0.0181200167,0.2710317779,0.4496015485,0.5070683484,0.4214739393,0.1549174534,0.6672402838,0.7150897945,0.0365632525,0.27802749,0.1760087691,-0.2395714387,0.2333237305,0.6272934369,0.6289246837,0.6152107725,0.3949791629,0.5490748864,0.2065849037,0.1706591102,0.6773383902,0.3715201541,0.1516762452,0.4311954771,0.3265051112,0.2955944489,0.4038895037,0.6370988653,0.4847529379,0.4222668101,0.5463235541,0.5587039629,0.0605943458,0.4267240134,0.1200468479,0.0046269101,0.5683987045,0.4733094831,0.2569922608,0.0513841701,0.1140150573,0.6850007029,0.4561921944,0.2388986341,0.3932728981,0.0118700487,0.4743540766,0.0402509163,0.6503745624,0.4973588305,0.2206419186,0.1481188808,0.530478193,0.5379888912,0.6601357583,0.2037307817,0.2453218681,0.4818551047,0.3904298218,0.7045122617,0.5182796694,0.6762233471,0.0095534559,0.4827087704,0.4490378109,0.4187159806,0.4732979528,0.4817284458,0.6681458583,0.132803075,0.1572334465,0.65066793,0.5551608866,0.5927785123,0.1420540512,0.4242303805,0.0016340858,0.1129297006,0.6506875594,0.0050446015,0.4480500287,0.0297894889,0.5752232522,0.0864226216,0.6731656963,0.138832951,0.4682743617,0.1701008166,0.006763857,0.5559759122,0.4737205563,0.4931805601,0.1625089473,0.4988934282,0.2445438786,0.691737857,0.2136621371,0.5059130307,0.6926262028,0.2928803435,0.2009939224,0.0760557934,0.1908019702,0.5879598773,0.7123801936,0.5366385253,0.3099327799,0.7035095326,0.4660244143,0.711431374,0.3137384045,0.5394627503,0.2415674102,0.6966519823,0.3774421588,0.1899624414,0.3638605383,0.0184860473,0.3483359288,0.6914521083,0.0146592475,0.036536371,0.1258557761,0.6934965321,0.672538068,0.385589962,0.42733391,0.5870296826,0.5725112701,0.0839610337,0.624279304,0.5806415194,0.2837056498,0.3694880178,0.4899141905,0.3999219801,0.2540194271,0.3035678522,0.6673895178,0.011236404,0.425722269,0.0198277121,0.6721272069,0.3303415606,0.4869502704,0.2797154587,0.2905886041,0.4174710227,0.3338030052,0.6454561062,0.191986824
   0.5828766368,0.3421652096,0.1021787384,0.4238216176,0.4245300428,0.6190525182,0.261791845,0.1206467926,0.0378707122,0.5483035711,0.3352631773,0.0535808269,0.3335811702,0.0480505349,0.7132919269,0.1143171446,0.0357275276,0.0858489687,0.6896880596,0.0282291022,0.2900465689,0.6721237011,0.6154065611,0.4424684622,0.2024493983,0.1721127644,0.3197837323,0.3256522358,0.5299677111,0.6721357811,0.3274017349,0.6022255234,0.4228276697,0.6596087711,0.1154937815,0.2236061412,0.2090016404,0.3390602773,0.6761699895,0.604483875,0.6497688051,0.470647952,0.3408643032,0.5587882796,0.0097166903,0.4870934667,0.1800262997,0.654446074,0.1857807599,0.6248003957,0.1936709578,0.0626742587,0.2257610293,0.4576862665,0.1021141355,0.1448803605,0.1531741555,0.1780814678,0.7008798913,0.682109675,0.35247205,0.144521888,0.1032596714,0.5701538896,0.6567051814,0.5001193704,0.3442424612,0.0290938381,0.4454994441,0.3400914794,0.163685888,0.6543896257,0.0071868317,0.5298573896,0.0541925879,0.1356549699,0.0176503617,0.6853274872,0.6058796652,0.194121832,0.1598879318,0.6793850323,0.0024821969,0.3134985233,0.5220484682,0.6650401059,0.3251438453,0.1765656933,0.3119429136,0.4232124325,0.2204250672,0.5499229526,0.249628734,0.4172330305,0.5395449349,0.3625906221,0.1164821166,0.0014746178,0.3015673907,0.4470274505,0.3761016668,0.6718798842,0.6193333821,0.1735634055,0.1912405409,0.020554596,0.1353081372,0.6691527471,0.3777386676,0.7031464135,0.4391030614,0.0473301298,0.4994195219,0.6370081391,0.6275167961,0.6579703299,0.121167798,0.6319067857,0.1268196031,0.4353961748,0.651833425,0.1374275858,0.6918641153,0.3172599364,0.6975739366,0.2056510869,0.4275762351,0.4951558343,0.3540046755,0.0223304924,0.4151052052,0.1129472645,0.0317739388,0.3184288625,0.5871703528,0.2260776686,0.0977630457,0.3728315964,0.0996740805,0.6975652429,0.1225572779,0.3538414332,0.5270212429,0.2547984768,0.6151219875,0.3978913866,0.24117397,0.0612762799,0.3949336264,0.7108578117,0.6277337421,0.3326924258,0.0261847056,0.6913599288,0.2581413204,0.6541123123,0.5085846336,0.2510271773,0.4267418701,0.1262421433,0.3551092332,0.3209431865,-0.2708045397,0.1600784097,0.3453083425,0.5482653322,0.0345699992,0.3386222743,0.4371783585,0.603967783,0.3182666292,0.6967254411,0.3288033022,0.6276208133,0.5168932057,0.6704618901,0.1289653906,0.3733962055,0.3805721939,0.6776672316,0.2117844579,0.614819345,0.4651769204,0.5995504705,0.0627393716,0.2904554742,0.0574403233,0.2255995296,0.3352652617,0.2888619231,0.5546032442,0.353847778,0.1525593026,0.1934074138,0.3720339316,0.5431943123,0.676409908,0.410348562,0.5730025197,0.5800934414,0.2997049746,0.3093543429,0.2063097308,0.4798774841,0.3713327069,0.059409955,0.3513024772,0.2328792501,0.0186421505,0.6986663615,0.4867255189,0.094629611,0.2119776627,0.3416816726,0.6038146029,0.2461955754,0.4728377202,0.2484232879,0.4080894555,0.2759394115,0.2068830129,0.2030601108,0.3717533088,0.2659097105,0.5314312123,0.6866168324,0.3896704768,0.0886526121,0.4422813307,0.5748808837,0.489621431,0.3394238503,0.1153129284,0.0233791425,0.5167272021,0.6411133295,0.3762195687,0.0504098175,0.4981013877,0.4751322209,0.701687453,0.2731689562,0.6533218898,0.6790880487,0.6752113479,0.2553824915,0.010914075,0.6494280065,0.7093609115,0.5810376122,0.0832194672,0.4988722504,0.6179994335,0.4874083394,0.290563982,0.2468976247,0.1058309216,0.1035384169,0.2777726915,0.3153512487,0.5897954497,0.5988183803,0.115056079,0.6272223217,0.6887029461,0.0590548013,0.5588562391,0.2533634739,0.3232709114,0.2760334991,0.3453353545,0.2401591738,0.0183529673,0.6415081049,0.1079787661,0.4603110251,0.0633277886,0.1864435898,0.55642339,0.4315921614,0.6855701456,0.6502769168,0.2373828941,0.1902087261,0.2755112493,0.5618561051,0.6066823969,0.5789542371,0.3873335459,0.5455195042,0.332090321,0.3567281772,0.1548492594,0.0527027708,0.3743760351,0.0021733191,0.708915358,0.4811948853,0.6039272936,0.1720730168,0.6468922808,0.2980195341,0.0445156251,0.6310693427,0.6683267639,0.1646043389,0.2749201539,0.1723390559,0.5237970064,0.6264892438,0.2680512687,0.1075075579,0.37893414,0.1796464357,0.0153710477,0.0578709603,0.1656296756,0.3174272131,0.4196369839,0.6611239226,0.2084114306,0.5292481989,0.5310767864,0.694225211,0.5354206212,0.6873280585,0.3191096341,0.5058735498,0.4242894486,0.4073280356,0.0684301617,0.0807965237,0.2609738584,0.4166580035,0.2585188638,0.3622135011,0.3949442469,0.1030912398,0.3418233162,0.0607207091,0.1434547906,0.0965112296,0.5438736149,0.643575458,0.1788060814,0.5197285401,0.0416798652,0.6431061823,0.630725864,0.3800832538,0.1603465939,0.5906617272,0.5973867725,0.5919953374,0.6451147772,0.2430487072,0.3331922495,0.4111055594,0.3029473327,0.0896090166,0.6789572221,0.0973490639,0.5383084201,0.0125280098,0.1635401437,0.3148388054,0.606983505,0.0581394115,0.4862077319,0.3747621769,0.0543979176,0.0224073497,0.3080870771,0.5020498143,0.6388961509,0.0811545966,0.3739027206,0.4579145431,0.4450977995,0.0753504982,0.494035661,0.1510171669,0.6744118575,0.2131972608,0.3022909391,0.413086311,0.118576942,0.4551368933,0.085965336,0.4996149752,0.6633588828,0.7135203528,0.0002485578,0.0746621971,0.0601284883,0.4748106968,0.0557070977,0.2168857857,0.4791544134,0.2544138823,0.4940522025,0.153533071,0.4465547432,0.1464673973,0.0231761727,0.0255407158,0.5263719438,0.1225484456,0.0421375967,0.4973098158,0.5981525254,0.3789684664,0.3019872106,0.1867169615,0.3429914285,0.6346375241,0.1856035757,0.2003158282,0.3996077572,0.6658347227,0.4314087271,0.4797329306,0.690736065,0.382268248,0.4626500941,0.0689617203,0.0450228314,0.514531102,0.3066977316,0.0297263682,0.2631064797,0.0357704247,0.5499912109,0.6635697561,0.1646118007,0.5074398768,0.04602919,0.2634169144,0.5701298563,0.0423681182,0.5733285389,0.4108759644,0.1606166865,0.1327337256,0.4956567571,0.4076087642,0.330191607,0.0800650924,0.4307055073,0.4900340764,0.3783405765,0.6967487413,0.174730834,0.418452425,0.3767368104,0.3133493329,0.3092160247,0.6751581373,0.194974234,0.4402511637,0.4358980266,0.2388157505,0.6846195473,0.4587927727,-0.6573933092
##end
biasActivation=0,1,1
[BASIC:ACTIVATION]
"org.encog.engine.network.activation.ActivationTANH"
"org.encog.engine.network.activation.ActivationTANH"
"org.encog.engine.network.activation.ActivationLinear"
