encog,BasicNetwork,java,3.4.0,1,1749943392956
[BASIC]
[BASIC:PARAMS]
[BASIC:NETWORK]
beginTraining=0
connectionLimit=0
contextTargetOffset=0,0,0
contextTargetSize=0,0,0
endTraining=2
hasContext=f
inputCount=150
layerCounts=1,31,151
layerFeedCounts=1,30,150
layerContextCount=0,0,0
layerIndex=0,1,32
output=0,0,0,0,0,0,0,0,0,0,0,0,0,0,0,0,0,0,0,0,0,0,0,0,0,0,0,0,0,0,0,1,0,0,0,0,0,0,0,0,0,0,0,0,0,0,0,0,0,0,0,0,0,0,0,0,0,0,0,0,0,0,0,0,0,0,0,0,0,0,0,0,0,0,0,0,0,0,0,0,0,0,0,0,0,0,0,0,0,0,0,0,0,0,0,0,0,0,0,0,0,0,0,0,0,0,0,0,0,0,0,0,0,0,0,0,0,0,0,0,0,0,0,0,0,0,0,0,0,0,0,0,0,0,0,0,0,0,0,0,0,0,0,0,0,0,0,0,0,0,0,0,0,0,0,0,0,0,0,0,0,0,0,0,0,0,0,0,0,0,0,0,0,0,0,0,0,0,0,0,0,0,1
outputCount=1
weightIndex=0,31,4561
weights=##0
##double#4561
   0.0035779014,0.3832162091,0.3260058044,0.1703430749,0.1070035177,0.0787407913,0.350333088,-0.249674274,0.0397215971,0.1451734894,0.0431568327,0.1229964674,-0.2502283187,-0.006419612,0.1422868198,0.0220945418,0.3824736253,-0.227367317,-0.0715159066,0.3509700489,0.0434533037,0.277041865,-0.1538457525,-0.2835048149,0.315811981,-0.2168604605,0.3656875959,0.2931585164,-0.2564814591,-0.2876352734,-0.7078277023,0.6163144412,0.0955528493,0.6466340826,0.4911935207,0.2901417022,0.416999709,0.5823092932,0.2658144883,0.029163706,0.4390644504,0.5293322082,0.7058530186,0.6974822702,0.6284467095,0.3135003705,0.1894491542,0.5331769959,0.4691573704,0.3208385317,0.0811140631,0.5782547021,0.6950370435,0.3025835797,0.2746010482,0.5797311448,0.5934314981,0.1028324288,0.5598230116,0.5253197126,0.1028094622,0.0117389848,0.4222584052,0.2274883348,0.5339514578,0.334528418,0.2796248275,0.0675145945,0.0556731869,0.2961031275,0.4248740654,0.6764081091,0.3062609819,0.2959258616,0.5630112744,0.3391158678,0.2650215302,0.5536023575,0.3374891545,0.0279218634,0.3936517562,0.1555845101,0.3687831619,0.0896626367,0.29814822,0.2944725364,0.565519937,0.0022062937,0.5191376204,0.5912869963,0.0797242278,0.4319618992,0.3422570801,0.5613124165,0.1076301107,0.4976001835,0.4266093049,0.3848209673,0.06932664,0.5994337087,0.3675005461,0.624272563,0.4986012778,0.0969388235,0.3054900594,0.709089751,0.2356026544,0.1732536394,0.6274891823,0.3444554076,0.5447983589,0.5794557923,0.3533348196,0.3515780202,0.5021523726,0.3144374963,0.595354492,0.6564122667,0.4492254779,0.3218064436,0.4055718471,0.6432614831,0.1030199498,0.1692330977,0.1111672963,0.1971910569,0.0184001109,0.0081598851,0.5219910936,0.5592828622,0.4690000399,0.4324367145,0.2500569998,0.3087727974,0.3126239831,0.3119513614,0.2157869598,0.6291523705,0.5564814874,0.0458042363,0.379307257,0.6084005375,0.2286332291,0.6146600321,0.6178317793,0.3554015072,0.0154853151,0.1696656399,0.1123093157,0.552585046,0.0192314145,0.3082479479,0.5745363188,0.2927317128,0.0599485838,0.3358272222,0.715170481,0.6794511572,0.3662993274,0.4917629047,0.40560104,0.1450032364,0.5711489308,0.2650593669,0.2936046502,0.1651307198,0.2732345445,0.543858908,0.5340534077,0.6399443504,0.696118007,0.3759929069,0.7041415942,0.523549591,0.3716296215,0.1093980668,0.4811510437,0.4865287489,0.3847088298,0.3014973184,0.3337910436,-0.018641037,0.6385900688,0.5719773763,0.1781368686,0.1251955824,0.2516754772,0.0462261597,0.0773769776,0.2336927109,0.0836352634,0.6860550117,0.6118034522,0.0082621931,0.1579301884,0.5349447099,0.333359274,0.306791208,0.0700906967,0.3662590837,0.1749842063,0.4201042871,0.0492708898,0.3937733512,0.5850948277,0.4489352298,0.1329419765,0.0687428063,0.3015437139,0.2241248726,0.4735956893,0.0960923291,0.150061353,0.128973928,0.6482739019,0.1487791037,0.2173582572,0.4908630138,0.693579522,0.5531457273,0.700763111,0.5298683433,0.5602768396,0.6727843335,0.2557039733,0.2390917306,0.0167049933,0.6404189504,0.1756465643,0.342641143,0.4103454029,0.3101019415,0.0268386353,0.3221331387,0.4691770815,0.333872605,0.669510274,0.2982126855,0.3960773085,0.2937416359,0.1749933967,0.6046250274,0.5966586882,0.0044389816,0.575809984,0.4428068159,0.5386606426,0.4652235786,0.2791550098,0.6138999862,0.0099193657,0.461174468,0.3534070879,0.4985654529,0.282562146,0.5680895025,0.621790139,0.1140349315,0.1628690576,0.3169672919,0.5786809615,0.0898722773,0.1396834892,0.2353875414,0.6720947953,0.4415103497,0.5568173057,0.2200253371,0.0213891386,0.0268248869,0.4752900445,0.612148302,0.6084508876,0.0869693431,0.6072212232,0.0566812969,0.6952253868,0.4430120059,0.0581942071,0.6190811849,0.6395801129,0.0051712138,0.0638740653,0.0427815065,0.4577163196,0.010560565,0.4922765695,0.0336921941,0.5203464509,0.2960704791,0.6151031476,0.3898979973,0.6299819126,0.6973800104,0.6546598673,0.36246589,0.5160384461,0.0912851638,0.2871022771,0.0647727632,0.3926859688,0.4248151615,0.1129924403,0.3359108978,0.5608800124,0.3999080691,0.3436034244,0.0863479609,0.0055056773,0.5867296237,0.6324967085,0.5780463511,0.3667315539,0.2210730265,0.6210168286,0.7121266582,0.5662910398,0.5651064681,0.3594220233,0.3703313473,0.5420482232,0.2399566042,0.3932345438,0.4032561778,0.0677818805,0.3486661585,0.5751476019,0.4621626664,0.5546145629,0.4638806177,0.0241844547,0.3777921569,0.1248701931,0.5886127127,0.0157868404,0.1800084203,0.4457924418,0.4088670955,0.111055035,0.1783894934,0.0235800126,0.3196523771,0.4664577044,0.3103087697,0.05311337,0.0279842121,0.1367351741,0.2956822327,0.2650444481,0.396766596,0.5684778254,0.6930345114,0.5919568472,0.4833372692,0.1230054857,0.4332596564,0.6560561378,0.6612255872,0.3690593239,0.4175089051,0.6232660856,0.5229358476,0.1606015054,0.1873800693,0.6790003742,0.0954167893,0.6743449803,0.1401999493,0.6796147903,0.407420972,0.0236295024,0.4641926522,0.1072567737,0.6797523975,0.2797823268,0.6971983797,0.4518328565,0.3021414892,0.4538581841,0.5383686508,0.4106887884,0.6015759588,0.4475441738,0.0369863719,0.409992785,0.1676500807,0.4167363271,0.1176014221,0.1332117665,0.0345475561,0.0313225813,0.4357151051,0.4352839931,0.3169029853,0.5142342033,0.0313272769,0.6447317511,0.4384360614,0.3565125325,0.4319876592,0.5424759222,0.3346162196,0.6429652978,0.2975508506,0.516350773,0.1546926384,0.6708043804,0.2500226051,0.0895223763,0.0450992628,0.6582907591,0.4896159826,0.6025511993,0.4707937815,0.2381395867,0.3583006789,0.0323563962,0.6259331004,0.4325662094,0.4676096915,0.2006297498,0.0058341301,0.5731759873,0.3072874582,0.7102167251,0.4636472521,0.1223739346,0.6364812579,0.6300202551,0.5876843304,0.3738680574,0.0918326181,0.2785531852,0.2766985131,0.5506639835,0.1858913025,0.3374544192,0.4757824309,0.1675820373,0.2802484685,0.04981437,0.6685318938,0.4767333255,0.1369375549,0.6204999558,0.3732100903,0.5881887178,0.1374468638,0.6099972489,0.2793259138,0.6060003212,0.6312129656,0.2614875363,0.070476493,0.4854648705,0.5812227086,0.6148416037,0.698829316,0.1110987182,0.614436282,0.5792902429,0.6554049991,0.2966316512,0.3941620808,0.0948637265,0.5684487118,0.1083048336,0.2767848386,0.4688114553,0.6292522184,0.5453720294,0.4321612313,0.1112864083,0.6331042828,0.6296605524,0.2238271514,0.2795142587,0.0582373244,0.2517137334,0.2407508432,0.2970024399,0.0525953037,0.1783821785,0.4542090233,0.1184076,0.11715822,0.5520757787,0.023493385,0.1027387234,0.3485244258,0.6006678101,0.0174040919,0.1555756683,0.0479415052,0.2430333093,0.210020328,0.6476288595,0.0300308509,0.1001072733,0.1115053153,0.4736642682,0.0002336317,0.5369179044,0.3595272879,0.5099554745,0.3018542548,0.0428985063,0.1517430532,0.372591886,0.3430839702,0.4071834179,0.3668240551,0.6076237152,0.0648731649,0.0944482061,0.0853870086,0.4921478421,0.3396594557,0.3563168766,0.46718042,0.378244998,0.5971287683,0.2180932884,0.2428354644,0.0300936338,0.6533041394,0.4120258032,0.117446885,0.1231993054,0.2767685275,0.499351368,0.4885907091,0.3172034954,0.0850317794,0.3217123078,0.6698503425,0.2622282527,0.251180124,0.2787687869,0.441206489,0.3133160948,0.6050241849,0.2943725027,0.4591010441,0.3798480303,0.5751268881,0.2506150646,0.3633903754,0.5522363788,0.2759374095,0.5704280327,0.1027969782,0.0017141706,0.4946629499,0.300257796,0.5764942533,0.618842313,0.2443238673,0.5107662772,0.6170639106,0.2304396003,0.3288828577,0.6446182284,0.7009045223,0.4326363675,0.0233025838,0.6889945563,0.5693329326,0.1504749314,0.4236363875,0.466796881,0.6471960189,0.5216299304,0.6032126018,0.5207659633,0.3917128415,0.1559157428,0.6844692507,0.6556230427,0.038917081,0.3184145041,0.4957008322,0.3975189856,0.7100298501,0.282374082,0.673130376,0.4776632402,0.5823408355,0.0708314389,0.4657799933,0.5122296922,0.201108092,0.3716663686,0.6998606523,0.5584451067,0.1030567803,0.6089722029,0.51953507,0.6420238915,0.0434855213,0.0405360718,0.3008388065,0.2552703118,0.6942317404,0.1595236607,0.6108650715,0.1622471145,0.2514332327,0.5708786434,0.4291086797,0.2538176066,0.6123639725,0.4101040619,0.6612081824,0.5797815441,0.0586464264,0.4969797437,0.1816570523,0.210978954,0.3534311652,0.5061396677,0.6455647862,0.7062183945,0.7102338785,0.5933574674,0.2251195771,0.2023210635,0.7111272175,0.1073015356,0.2983422681,0.453190552,0.0189433628,0.0771383935,0.1844525358,-0.5111840891,0.444114825,0.2360712855,0.4366096859,0.1716206529,0.699735577,0.308476588,0.5338746276,0.55479252,0.4807583215,0.3664122709,0.0710840219,0.2596505139,0.4668808434,0.5923967671,0.3098288502,0.0326465114,0.4857954371,0.0704771159,0.5066299364,0.2762944066,0.6399991134,0.0429424905,0.6616023382,0.4006159894,0.0603617169,0.6625095994,0.0918323859,0.5994558331,0.0087255748,0.5741732549,0.695003803,0.2984483343,0.157732552,0.6589876262,0.1176829676,0.3703121783,0.1748367582,0.2947435754,0.2298620506,0.1040045488,0.5043498967,0.5737320109,0.7131813562,0.0980361913,0.6840173695,0.3684924751,0.6271411135,0.665927607,0.1814076501,0.3206535118,0.4057574196,0.0128628032,0.114820829,0.4025634368,0.6690452932,0.2578157284,0.6229399255,0.6477799112,0.4999765535,0.4337397951,0.5628715087,0.1888566553,0.311294396,0.412329623,0.4035836972,0.502393678,0.173359476,0.3801889333,0.0684385245,0.5979754457,0.702720151,0.2621825008,0.3435319485,0.0519797659,0.6522413044,0.1345345257,0.5182404736,0.2503710609,0.0318062268,0.4617858153,0.6007428543,0.6600324428,0.3550564137,0.053291963,0.404809535,0.474370695,0.5296228586,0.1774432212,0.1550155695,0.5155433399,0.1921825234,0.581763954,0.0212214936,0.1115455912,0.4067553543,0.6567021712,0.35311432,0.1091135644,0.3616517762,0.4032223009,0.4151697493,0.1636198301,0.6479754196,0.1005737211,0.3107631351,0.0647581575,0.6796050853,0.3288171164,0.7003167717,0.6583220538,0.458102482,0.1175749588,0.0930589744,0.3905480005,0.3297870733,0.0188204971,0.2083415974,0.61880938,0.6104840879,0.4362558553,0.3001584306,0.7064503338,0.2912820522,0.0559431768,0.3272924049,0.6571550051,0.3717689375,0.1575189111,0.1841305446,0.5674732613,0.2634724256,0.2000903007,0.2266308194,0.6246331173,0.0774811131,0.4631386511,0.0871181943,0.2458304922,0.4693653599,0.4447767615,0.1448068788,0.034735685,0.4582546796,0.4599460218,0.4281897317,0.5624206769,0.3984365491,0.2793437642,0.2762828714,0.3354466973,0.2978216698,0.2611605679,0.1086471558,0.7090318266,0.5656983384,0.0479212391,0.0799333459,0.1725059528,0.7078390186,0.6133486609,0.1380477603,0.4169021671,0.6290948496,0.2383194814,0.7018430705,0.0884881598,0.1103672971,0.710446673,0.503492348,0.3952226034,0.352747687,0.308391281,0.5687040832,0.6280624019,0.3179417729,0.4573290624,0.253272806,0.6826207436,0.6772266565,0.6592623834,0.0972365113,0.6705267246,0.4243748049,0.3899670297,0.4755104175,0.6968686022,0.0813407114,0.4967156935,0.3399750096,0.712523084,0.5317770956,0.2206398652,0.0993432962,0.4655191562,0.3725085304,0.3541382649,0.6197978876,0.5054158481,0.2645854726,0.0959564178,0.3590221691,0.1360418562,0.4617730058,0.4429201798,0.402455677,0.1972796148,0.4893762994,0.0925642644,0.2263982989,0.5733881274,0.1072773497,0.1315889638,0.4891841321,0.7075906389,0.2667641393,0.3591486956,0.3357993754,0.6680699909,0.5454480103,0.7057308277,0.3198777311,0.1128396248,0.20462734,0.0731734804,0.2508427872,0.4546420397,0.2563581186,0.4275669284,0.7001104606,0.6885201593,0.1095593362,0.400827099,0.1672510492,0.66705902,0.6348408677,0.2513519986,0.4517724371,0.0925523668,0.128540972,0.7000768194,0.0191132966,0.4799181733,0.3995525833,0.3909399892,0.2809127065,0.0085872628,0.1686699228,0.4410539829,0.5553574738,0.7104120088,0.1837804045,0.4832321529,0.7119591535,0.1234512836,0.1866643939,0.510334092,0.3036242894,0.1448151277,0.2053261848,0.6393920487,0.3001682731,0.4623500986,0.1531981934,0.0065776963,0.2905516391,0.148959693,0.264200502,0.6005741724,0.5332572383,0.0875999097,0.2044165976,0.4887478233,0.6039369032,0.2976677953,0.538338134,0.181036079,0.1387996075,0.0246764833,0.322276321,0.3590219072,0.7118408297,0.3860321395,0.7072495922,0.435293412,0.0087441265,0.1718846553,0.2175144629,0.1021002887,0.489796391,0.0286943927,0.6979558858,0.336402327,0.0727958737,0.3065132045,0.0441662369,0.5997054675,0.4094666791,0.5881918049,0.4723630359,0.4944406316,0.3008295911,-0.6912287228,0.3108933584,0.2717077726,0.553299118,0.1926947981,0.3070725178,0.6384976955,0.5141082655,0.6538047222,0.133126118,0.5270575755,0.4701323682,0.4121245582,0.397776203,0.0554482758,0.268077288,0.5906623134,0.4761308975,0.0395334962,0.6705241446,0.2007886716,0.4885013305,0.5148825577,0.4182153825,0.3193142889,0.3243995781,0.4838964127,0.1180705976,0.2810794943,0.6064795656,0.4328812005,0.3697234072,0.6535219435,0.0978431748,0.1960432544,0.2004330169,0.0021016936,0.4033246882,0.2359040076,0.1668265281,0.6706355365,0.0422745414,0.342637929,0.6404524187,0.4702429228,0.5514515014,0.4603838642,0.145950998,0.1142939245,0.6655066339,0.3380149732,0.6204144439,0.4093641756,0.160175068,0.0732558787,0.0024922098,0.2382270576,0.4675621387,0.4389452894,0.4055626409,0.2361972945,0.6506291789,0.0894703747,0.11179142,0.1720597193,0.6065716853,0.107020388,0.5449228319,0.4906179937,0.2988045636,0.5250718192,0.0979942822,0.6267467245,0.0062370448,0.6619754432,0.5467137033,0.7099136389,0.5296075668,0.1460230069,0.4330475086,0.4218750073,0.6380629129,0.69027258,0.5782726534,0.0715804359,0.086995207,0.3968540096,0.1472570824,0.4131262365,0.3883986209,0.6392419452,0.0429731703,0.6155638833,0.3181641061,0.6491730579,0.0426143417,0.2825997505,0.182331351,0.3905503593,0.2473750321,0.3145724658,0.1420927904,0.293391821,0.3852849421,0.7027950394,0.345018262,0.3261769933,0.4852518449,0.5886448336,0.2990244687,0.6450919387,0.1774622795,0.6936771614,0.2631517603,0.4626430605,0.5599124425,0.3424808808,0.6506748004,0.662284589,0.0555313708,0.3236273897,0.1018857942,0.1486905173,0.2984330237,0.0896859049,0.0649965837,0.1761114993,0.2939296367,0.4921365291,0.4075632143,0.5187963843,0.3991777421,0.032049924,0.2123763108,0.5034950432,0.4911356014,0.1947802065,0.1345198034,0.6498119057,0.0603050285,0.3724370169,0.1534149747,0.5197244191,0.6399363461,0.4030828624,0.1980004178,0.2789276007,0.5927361294,0.5517351878,0.5874808815,0.4856840114,0.7127512974,0.2854778474,0.5350161287,0.2209610936,0.1915149386,0.6989851732,0.0083897599,0.5315448964,0.5602338398,0.2273441135,0.0501892472,0.5833538095,0.2798424117,0.5639372589,0.5925789521,0.427046616,0.4609949058,0.4235063269,0.5895738726,0.5027185579,0.3425465911,0.1635953638,0.6535034937,0.2731421731,0.6863170365,0.5957939775,0.6216991568,0.2442534517,0.6724283308,0.1791920316,0.5343226833,0.6073399055,0.1848858589,0.4495300653,0.4803763635,0.0727362955,0.4610818067,0.5835490359,0.5807155339,0.2677878053,0.6722258496,0.3076938808,0.4034214234,0.390420539,0.2977936058,0.1460865464,0.4729456962,0.4031748438,0.18350927,0.6442183503,0.1489673827,0.2725629717,0.1461389106,0.0014899636,0.1511229047,0.2959585625,0.7056134611,0.3489359937,0.6632106458,0.5088941538,0.0865411517,0.3238244025,0.2222734572,0.6206887567,0.5195336728,0.1744155281,0.3082900729,0.6466220435,0.1460917023,0.1883635268,0.4357209219,0.4793742854,0.2117060152,0.5203151183,0.1193094619,0.5550498091,0.0972746005,0.7098646771,0.5828073403,0.4646891677,0.5382265502,0.2218226227,0.1367556503,0.6195108796,0.1997990886,0.4840695395,0.6136284416,0.0919178331,0.3743203784,0.4888678526,0.093814002,0.3827161296,0.303712251,0.3869222243,0.6874134188,0.2274000151,0.3697365356,0.4471336314,0.1947120622,0.628599344,0.0606239485,0.2386469326,0.1853831088,0.2790961165,0.3047263612,0.0144607412,0.4043498744,0.4322110823,0.2205633322,0.3246955269,0.4432030795,0.3914607083,0.3045689649,0.0257553328,0.5133649874,0.6323767886,0.6232372289,0.013263615,0.6840393412,0.5588545385,0.0798254449,0.5804535361,0.2347534696,0.6388982088,0.6191970739,0.3418668557,0.5946100898,0.70573274,0.6524996375,0.2590269789,0.2663699708,0.0029967587,0.0014061796,0.255717571,0.2287543595,0.2580604902,0.1232184228,0.4186932575,0.0362024002,0.2227087859,0.6475844272,0.5577087994,0.015252708,0.635481421,0.6272387072,0.4404982542,0.7062070144,0.6487335037,0.1810884901,0.6264781629,0.0326808668,-0.2672531093,0.2797451255,0.3048620135,0.1845873672,0.6640452232,0.2895169618,0.4873735127,0.1369333409,0.3444005832,0.3776574971,0.00143226,0.702588473,0.1880388694,0.3960044392,0.368403188,0.2924564094,0.6839339533,0.312133714,0.5008895509,0.0734983498,0.2016019637,0.2811475937,0.0447723082,0.3012448119,0.0699578661,0.5216089812,0.681366295,0.2405491566,0.4312371298,0.0152742907,0.5903346056,0.0030557403,0.1598914321,0.285894791,0.6769477097,0.1116411768,0.1068673264,0.6682174853,0.1744744949,0.1415145038,0.1232627424,0.2643104464,0.1590431452,0.5450235837,0.0111256432,0.1392938605,0.2440163079,0.0021944097,0.5486810722,0.3719760324,0.1944433932,0.2549906705,0.1828239796,0.4875331978,0.6687133883,0.5521629133,0.1352274693,0.5723887155,0.094994218,0.079786324,0.5002298148,0.1726087103,0.146541926,0.1415108226,0.0822154335,0.0606254933,0.1870767557,0.4088267798,0.3809766934,0.5990040269,0.6384943692,0.3829872417,0.1910899024,0.3079616449,0.0473790815,0.065251261,0.4059049204,0.0414374833,0.2142951139,0.5024423264,0.2604806828,0.0384935724,0.0452772541,0.0204776251,0.0523207029,0.403785643,0.5362248025,0.053914204,0.2902437614,0.3158612427,0.4112937486,0.2806908815,0.6635165873,0.4074066841,0.3839860667,0.1265668206,0.5845121053,0.0230081124,0.5464220728,0.3641993156,0.0350701912,0.5376140734,0.0873945031,0.3198813583,0.2741223448,0.2111419676,0.4422518358,0.2336684929,0.3985542108,0.2502125095,0.6160439616,0.4492323831,0.2342511558,0.165462382,0.3175244003,0.6158387895,0.5933466678,0.6701821577,0.5960849877,0.2998641381,0.339060276,0.0387655628,0.6023822401,0.5466884687,0.2100561392,0.6987376146,0.4547856756,0.5753258592,0.3319306725,0.2612248625,0.1971726053,0.5611022716,0.4669217545,0.3629912106,0.4273505467,0.2187752369,0.6388953297,0.443531128,0.7085730364,0.1827507103,0.3145868013,0.6016639752,0.6106228339,0.359587776,0.7037154557,0.2294266988,0.5475229712,0.1683518643,0.138845286,0.5865393348,0.2386660918,-0.0143994323,0.4042783208,0.1565472453,0.527964568,0.5220544211,0.2239032787,0.2559699813,0.1123009172,0.2241356516,0.4648657463,0.257387215,0.4134111395,0.1958750741,0.3204686136,0.1154130943,0.4641366873,0.059994039,0.053089895,0.5661614466,0.1317478909,0.3565498255,0.0474736957,0.4364619674,0.0482462023,0.1390133736,0.4164744655,0.2603494346,0.4071836791,0.1473708672,0.3320398052,0.15595326,0.4430291531,0.1130406115,0.3582580443,0.4850424767,0.0152446565,0.32442489,0.4855435106,0.155983104,0.5164637216,0.4518581389,0.5549756443,0.4005198192,0.4471888682,0.2704897101,0.6172507732,0.1400008835,0.6743179476,0.1776755859,0.2633998653,0.1883330128,0.4371595759,0.1616665171,0.0381024403,0.3753501843,0.4356101859,0.2020158719,0.6821170107,0.1952357837,0.6552783784,0.3032143305,0.3908516388,0.5991004385,0.3898257059,0.1693954499,0.5004747091,0.3360785683,0.5586837539,0.2020379672,0.0356754775,0.3593280384,0.0118482386,0.2836205164,0.1766365516,0.1303746191,0.2236347687,0.1285618775,0.4685701459,0.1526090677,0.7008508862,0.2272740142,0.5446256373,0.6605255649,0.0540938307,0.616549337,0.4395778848,0.2337377697,0.5599051331,0.203671584,0.542938202,0.7053908467,0.605350954,0.244108287,0.000482619,0.2322682334,0.2781674677,0.1226677663,0.3733630567,0.5383963737,0.4417312222,0.2223804873,0.4714718243,0.6586334057,0.22123407,0.7035823036,0.2627845426,0.1445818406,0.5239443814,0.0931403575,0.3937756253,0.2647850313,0.5638698403,0.5055297186,0.402658021,0.5988276038,0.0591394118,0.2019265861,0.5174200443,0.6218208923,0.2613010011,0.3471320505,0.2328290332,0.7159033993,0.5620514984,0.5513262967,0.6319562231,0.2973617482,0.4585800305,0.4866169257,0.313431079,0.2316557094,0.5484774245,0.0234833442,0.1564462918,0.5785634927,0.0456462021,0.3076975836,0.5418478108,0.5472230839,0.0430561097,0.5052565686,0.6494963438,0.6918214089,0.587404896,0.4088677856,0.2018988972,0.3291765512,0.699187124,0.2143735172,0.5938769662,0.6027440724,-0.1476399255,0.4600612308,0.076474949,0.0125236564,0.0828187258,0.2364091703,0.5688257847,0.0039982188,0.3038014743,0.3896967402,0.2022409349,0.5765768343,0.6498151294,0.211373066,0.3935588791,0.2921580673,0.3647968017,0.4596641981,0.2771277883,0.4959092685,0.5065303761,0.4611735511,0.2571660709,0.1172051423,0.2434756089,0.5884979865,0.1648883062,0.3785231494,0.4757301686,0.1473819014,0.0721894589,0.4768074361,0.6139551897,0.0691750586,0.5573775066,0.0806857199,0.690292229,0.2923695963,0.5518561389,0.0126379288,0.6281023278,0.5193311539,0.0807248269,0.6032514266,0.2913032548,0.3632126829,0.6948742288,0.3020483529,0.607763401,0.0997747129,0.0618135574,0.043193394,0.3868568281,0.5964785913,0.1925160995,0.0649650059,0.1423072772,0.3620150972,0.3493303575,0.6465073466,0.517734104,0.346980133,0.6189998249,0.1005525977,0.6474376369,0.5426654113,0.0587866884,0.6977108464,0.2809980793,0.2028895253,0.0077126783,0.4301560358,0.1452736282,0.1371747268,0.1925260769,0.636332554,0.2419557121,0.4990690117,0.276055988,0.3833585266,0.0697880849,0.5989855436,0.0823521755,0.3464234964,0.3372668272,0.1440725814,0.0326808767,0.6249378072,0.6796148805,0.4951335951,0.2129222433,0.6935416412,0.6436510489,0.0640719747,0.4492278451,0.5689625893,0.567956682,0.0673902053,0.1255229418,0.3324301736,0.6596157564,0.3220059449,0.4723132794,0.6185435178,0.4968797797,0.1524125725,0.6564258985,0.3004243049,0.3884932219,0.3612403356,0.6474235339,0.5384174813,0.0880501792,0.1654978488,0.157193459,0.5369678557,0.0015004424,0.4534927736,0.0473044102,0.618787723,0.5921035805,0.3908068639,0.3866191637,0.3248159242,0.227339778,0.5606695714,0.6694248607,0.6944451854,0.4997797321,0.1348294523,0.6864469336,0.0943535946,0.3734436579,0.4379951434,0.5778822687,0.4907664408,0.439106288,0.6262106008,0.0021179093,0.6091077484,0.7020323061,0.5558884218,0.2767046243,0.0778133024,0.4705471622,0.1653137621,0.6253994457,0.5736594761,0.351609396,0.6974740764,0.6152029439,0.5335086596,0.2957108926,0.6932034711,0.3091970105,0.4799988888,0.4805294446,0.5885404839,0.5076474807,0.5544125291,0.4990032324,0.1434346931,0.3008784831,0.2962936877,0.3315188636,0.0761612992,0.2943036959,0.6369046008,0.2403636959,0.1484234467,0.3766318739,0.6121712655,0.0731382052,0.2682173796,0.4544424086,0.5132951835,0.0996324327,0.0522221365,0.4439480149,0.0644956104,0.4198453863,0.2998169841,0.0299474524,0.3068561298,0.6406896319,0.1369267074,0.4959339673,0.6967302781,0.4082193439,0.1779867372,0.4598156964,0.0590208778,0.5686509538,0.2169291575,0.4464288608,0.4688244854,0.2364339865,0.6813666194,0.0347113138,0.6055001546,0.4358292729,0.0870070869,0.0197733882,0.2293750788,0.0364092237,0.0795692843,0.6003818192,0.4987732629,0.2504266365,0.2430561208,0.4152049444,0.15120842,0.3961693137,0.2627442116,0.5558952403,0.4926394883,0.377805369,0.563109798,0.3360768717,0.4755044593,0.3902142076,0.0327167298,0.7147416226,0.3223961205,0.1216193817,0.4641047054,0.2721051746,0.2116675368,0.0993764793,0.2716664242,0.5153972468,0.52072408,0.3086037498,0.1712829179,0.09472233,0.3966477888,0.5043842038,0.3366697203,0.3981218898,0.1003685104,0.0668467375,0.5394087686,0.3772930535,0.1002485246,0.4689044046,0.1086337897,0.3122856263,0.597657,0.4084791108,0.5615637387,0.2919584722,0.26841459,0.6052631641,0.3904669912,0.4716632412,0.6474306236,0.507998411,0.4919158442,0.4224856863,0.6328240219,0.4233056796,0.6847134077,0.4867902081,0.1255156413,0.1215137583,0.0644505841,0.3218095878,0.4806783412,0.2862006857,0.1054601681,0.2659870709,0.6242048334,0.4024447534,0.2856961868,0.1662474981,0.3896141561,0.5747004389,0.1613170008,0.2409181553,0.2926124552,0.6705945895,0.017110472,0.2399264856,0.2915451387,0.5561427865,0.249931943,0.4310518718,0.1438044561,0.1994616108,0.4804582172,0.621676539,0.614315254,0.5095413806,0.5224434941,0.6260601797,0.4002355646,0.1679531865,0.6962287824,0.4930907978,0.1140743533,0.4380291475,0.6094886086,0.3550987612,0.1973571562,0.1653503426,0.6982399399,0.1468557974,0.6247302998,0.5361701924,0.6475639291,0.5772562291,0.2041601041,0.3866781775,0.349222553,0.6977267572,0.3840049872,0.0152323362,0.58303315,0.6095234136,0.7066461915,0.2294239304,0.1917355277,0.0032069919,0.4921125272,0.3541301267,0.4196731625,0.705830283,0.4346471355,0.0233224019,0.4666902141,0.3324489373,0.0848029017,0.6131258386,0.4246368813,0.4218953155,0.1845309836,0.1277352561,0.4557158987,0.7110482858,0.4036657019,0.6299149281,0.6270360831,0.3258376701,0.2378116587,0.621733564,0.5652309249,0.5040940158,0.016680651,0.646907991,0.4200778266,0.1046675371,0.2854736309,0.6229174106,0.2398066379,0.4168019869,0.4554462827,0.6455344244,0.658081523,0.0116717503,0.3582309953,0.3028836437,0.3868478628,0.6371230875,0.2831623342,0.1408015083,0.108409493,0.481049371,0.2051816777,0.6147463807,0.4848340514,0.5371394498,0.5070955699,0.1501657796,0.2219583966,0.0939218122,0.2009655987,0.5410099418,0.5319123246,0.3835016208,0.1211117789,0.5280909288,0.1458616469,0.5087167318,0.0192914003,0.6327964441,0.3842709465,0.4724707166,0.3595764836,0.5436999362,0.7100956003,0.078724747,0.1100419934,0.358077367,0.7131825646,0.602196533,0.7125569204,0.4291525211,0.4186710868,0.3369236511,0.351082369,0.1459381289,0.2005344973,0.1361652924,0.2587854142,0.0442762381,0.3054121867,0.5628215349,0.4179148767,0.2127688221,0.6807352167,0.3149955641,0.4457382661,0.037713495,0.2517408152,0.7013599336,0.6067377092,0.1835830236,0.292214472,0.3208280448,0.6272168953,0.558206579,0.626378233,0.3538877991,0.2430485482,0.6451423479,0.6073082592,0.1575380637,0.5906022935,0.2871896826,0.6522047863,0.179776753,0.5383797252,0.421914978,0.6462820843,0.5334269486,0.0790154471,0.2721512173,0.2668975777,0.2379737471,0.0219354833,0.4034888842,0.3054590964,0.0430008217,0.1858947969,0.5922873066,0.6861622929,0.2621034366,0.308251531,0.6357047575,0.3089734764,0.4267603311,0.2294850553,0.5170990876,0.5965311187,0.6341305076,0.6766078813,0.3303444829,0.7156236179,0.632377286,0.5932931316,0.6419430487,0.1246480514,0.3740035687,0.4033595317,0.3780136957,0.4815606186,0.6597231125,0.5757835871,0.0636899032,0.1083578125,0.6601262539,0.293343397,0.2248618064,0.4247005591,0.6643711465,0.2662388316,0.1768563906,0.3316554125,0.5091338153,0.6180222316,0.3058664185,0.6627827667,0.1117919963,0.3194543744,0.5996508103,0.4667058832,0.4665380048,0.3904951737,0.4789442909,0.5111562856,0.5760585401,0.3651982698,0.6969641131,0.4274689387,0.1716331852,0.5724999445,0.3136997938,0.1388886886,0.5139360905,0.4434889785,0.0893290196,0.6065469083,0.0952382436,0.0762025054,0.3887573491,0.4877406874,0.1537575901,0.6863399749
   0.4497110711,0.4368510703,0.6171385285,0.3506550248,0.4509094099,0.3307800902,0.3411957349,0.5303719134,0.175135799,0.3666417804,0.1451257763,0.2386377598,0.5473215182,0.0199654597,0.0411076005,0.4092962434,0.1959702843,0.2121272629,0.6824431964,0.1538640283,0.0915411078,0.3766922243,0.5958881501,0.0593712339,0.4570772846,0.6797533428,0.0462601363,0.7117752296,0.6686471419,0.6395786471,0.7133918135,0.2218530061,0.320631641,0.5916753357,0.0586772314,0.4804917153,0.4303563835,0.22805359,0.4671759219,0.2256756381,0.5700542496,0.1373745957,0.5744685239,0.6425412909,0.0073698094,0.5116382356,0.6603868552,0.0268468877,0.5066069778,0.6411236715,0.089343277,0.3752902986,0.1294026278,0.2314531136,0.5552932916,0.3384947825,0.4356407518,0.278755927,0.4329264122,0.5257339374,0.2524613744,0.5915548259,0.3308171386,0.0765974805,0.6632222281,0.3720890595,0.4306112875,0.0053753598,0.294449827,0.4866866511,0.2443629129,0.2261725099,0.0591938251,0.2724654427,0.6921988418,0.303098869,0.0866312641,0.5289625706,0.4957666552,0.7049236383,0.4842949156,0.6900292623,0.5509508256,0.3694862903,0.4069743848,0.1568740372,0.4487777357,0.5752592489,0.4757618378,0.3676837628,0.147188622,0.3042380287,0.4342640618,0.0000228947,0.041724023,0.5683834772,0.6734073026,0.3874151658,0.2587940569,0.4510248497,0.1165319847,0.1964139298,0.3308908,0.2774427834,0.1941333682,0.1861095857,0.5900741509,0.6301542596,0.5934899276,0.4543585064,0.0518780069,0.0393099789,0.4973264191,0.305065466,0.3612081708,0.3677718889,0.4308197715,0.1476124139,0.2983963226,0.0761432265,0.5082182541,0.1927161134,0.2306163113,0.3744020822,0.4028052582,0.4483390579,0.208914799,0.4766973749,0.5583121567,0.2515329266,0.1288228021,0.2611103837,0.3942567121,0.4223442706,0.0261941468,0.2064107087,0.0385558871,0.456879876,0.0429961898,0.676815942,0.1645199272,0.7110931731,0.2364283487,0.0463829909,0.2965608912,0.2416489991,0.1061156597,0.1128014574,0.4225734436,0.3380874201,0.0864478851,0.0999974096,0.0295086238,0.6863976576,0.6885311853,0.4812693863,0.2481085834,0.0897694918,0.0860478424,0.6723081655,0.0210132174,0.6855402891,0.4941998656,0.0514860366,0.2853570254,0.225896524,0.1747109499,0.3703985803,0.6691043111,0.6867086681,0.1528797147,0.3321205107,0.2619653932,0.5011567063,0.6383895392,0.2703933121,0.4276573563,0.4024419406,0.1522278268,0.1584416719,0.0099643318,0.0984496841,0.7055275939,0.6641164219,0.3122294777,0.2624879851,0.6097049793,0.6580803069,0.0454714339,0.4448838628,0.442665586,0.4460112505,0.3575047702,0.0264472475,0.2849440646,0.3865512043,0.4709594107,0.2578738761,0.1273729669,0.21795575,0.4780873269,0.3087378442,0.569662012,0.4398759164,0.6117510969,0.4647379248,0.2926907273,0.1845910052,0.324711775,0.0953375954,0.2612333278,0.0797226973,0.3929021189,0.3050446373,0.6491407677,0.5980746441,0.3722365761,0.1863610697,0.4998475994,0.603889682,0.2816384772,0.0703174023,0.2676393993,0.707289231,0.1239653109,0.5137451421,0.229028208,0.2593205301,0.2374889221,0.5327008918,0.5372963877,0.60022742,0.5316206834,0.1571951389,0.6502513803,0.5233557115,0.3032304751,0.1004469972,0.1008239698,0.3029812253,0.192345388,0.2608476931,0.596963458,0.5246026644,0.4899116687,0.2011870466,0.244996682,-0.2097148468,0.4425549854,0.273237655,0.5014781243,0.1720063769,0.5036224475,0.576529841,0.0422480089,0.4210490274,0.0039502718,0.5327098153,0.1454853166,0.2292863489,0.6806575161,0.3542870325,0.0854252847,0.0638919196,0.407266548,0.1285464811,0.242545392,0.5832946543,0.6357141184,0.3654507958,0.4800371388,0.188048472,0.5976199684,0.3931105303,0.1416244467,0.5999777623,0.0351473183,0.4272685746,0.3518327154,0.309270202,0.6503672512,0.3691165045,0.3637503428,0.6558919845,0.0682419701,0.5988564322,0.5302458244,0.5350810726,0.0467976526,0.5089477378,0.1479297352,0.5207606738,0.2635687441,0.167330273,0.4697352586,0.4763613511,0.0167236541,0.710946701,0.0164939243,0.188772281,0.2014229757,0.6829180746,0.0908403898,0.1007786261,0.5040830257,0.2467694403,0.0223556183,0.105934074,0.0652600863,0.4173260331,0.6377760532,0.2021519221,0.1144446447,0.584560984,0.1454117023,0.5493592526,0.7062895557,0.1157581988,0.1547231216,0.3022021806,0.0521235568,0.5950661596,0.575202772,0.2608508605,0.5221579377,0.0562593708,0.4161355745,0.1862230665,0.6763882961,0.6194245574,0.6980727376,0.4445996651,0.3110637952,0.1592685922,0.2295857985,0.1156718328,0.2303694264,0.3757249423,0.2027607201,0.5502552994,0.3606584494,0.3767812452,0.3662928604,0.0456265274,0.4717515238,0.0612925805,0.326759922,0.3548403415,0.1075174969,0.4721864128,0.3426962384,0.1186766005,0.5131681242,0.4580792763,0.1361560131,0.0464660874,0.3754631449,0.1599343828,0.3476743072,0.6917840572,0.5781842599,0.2630797467,0.7133912265,0.3050158654,0.3882582228,0.6271560826,0.7133909393,0.7026220161,0.5205292281,0.1869606327,0.5607992805,0.2219922615,0.694117114,0.6474817399,0.6658354998,0.6643566072,0.2744583088,0.3425850107,0.5950058988,0.5097963286,0.7086507796,0.1478954912,0.1082119668,0.1252991246,0.3325948277,0.466316374,0.5707133032,0.3551603143,0.2132585457,0.1536792809,0.4272027015,0.2695807953,0.6497841126,0.4524392763,0.3624359905,0.4227071767,0.5056836158,0.2906063749,0.6367319988,0.1471703564,0.2891543946,0.5294696082,0.5054308357,0.6928488574,0.2086327449,0.6113519667,0.0157157922,0.0648861503,0.5452129426,0.2530422681,0.5862579317,0.7139522578,0.5428571294,0.1685747623,0.0046200094,0.4774584391,0.1137399968,0.6229242451,0.5003487537,0.3621613354,0.2733318904,0.0004646716,0.0599421604,0.3350287622,0.4457862517,0.5138077263,0.1329608519,0.5100140117,0.4539536189,0.7104082484,0.3357122571,0.6763536298,0.6571789799,0.2295777124,0.0729743048,0.4763667454,0.2879837896,0.4864722446,0.6712291304,0.2074733093,0.6018996371,0.4286547916,0.0643194495,0.6591010894,0.3819448972,0.3945741197,0.4496806891,0.0283484246,0.0166975723,0.6573315694,0.3724431535,0.2891289541,0.0276527537,0.200891934,0.7123959765,0.0663404839,0.3340831534,0.1684904551,0.6785657003,0.1946218364,0.371432167,0.5372874294,0.4417963707,0.434813216,0.1268794875,0.7042428369,0.0241761035,0.4657952917,0.1693110341,0.0994235032,0.3667806189,0.380179048,0.6172082652,0.375007692,0.0613914182,0.627127269,0.4282192924,0.5632957372,0.6442594187,0.1633094811,0.4787329518,0.5731099949,0.2329391124,0.0698800451,0.663758544,0.1972696418,0.0750534871,0.5395433319,0.1933153625,0.2949304334,0.0520315285,0.4233543917,0.5016757043,0.6095153954,0.5308509942,0.4156064062,0.6969385596,0.555764405,0.4964374167,0.0669759522,0.0449749057,0.1055465161,0.3132718868,0.1642100827,0.5156761756,0.1277053988,0.2264526224,0.0277082847,0.3798122398,0.4048792796,0.0156981215,0.4543550857,0.4307772683,0.2068093668,0.3661636166,0.3900187731,0.6052270392,0.392774189,0.427296797,0.3869232218,0.0819331204,0.3756437206,0.2518254829,0.3385386468,0.0213771961,0.5183024347,0.7013866346,0.3101700328,0.4737271603,0.2735392391,0.5871244326,0.4554818994,0.4583296622,0.1361786789,0.066230384,0.455834314,0.3511817491,0.3381477675,0.4339267515,0.0632853159,0.2123186404,0.5416380377,0.1983338782,0.0320165639,0.4796019379,0.1855765721,0.3603941215,0.6780413396,0.4002206959,-0.4333364936,0.3160399798,0.6801988885,0.7073319389,0.0285007024,0.7077611024,0.2439113195,0.4925171465,0.4564292288,0.1610934891,0.5958628857,0.1615417449,0.6158698142,0.2025917535,0.2236119638,0.2655916394,0.3530804804,0.0396489336,0.4375789334,0.6476202851,0.3185835111,0.5048216943,0.1958274669,0.2887805404,0.188531829,0.4820105194,0.0757663306,0.1573411823,0.5492643991,0.5153714666,0.1565329799,0.4308651079,0.4041446693,0.7059746542,0.1023145277,0.3470608927,0.0151767653,0.50419056,0.6766745579,0.6347709203,0.5571028605,0.5523426146,0.5370951353,0.479252564,0.5878595417,0.6311579682,0.664100983,0.4373827682,0.1869931123,0.503334101,0.0107892875,0.2727463369,0.6939178755,0.6071043065,0.3629317828,0.2411352544,0.1844767987,0.5398598714,0.2110010815,0.574912275,0.3283007134,0.4444702593,0.3345658475,0.6822202183,0.3664971806,0.3062018384,0.2375172998,0.5464185904,0.1756288618,0.0821083517,0.0950311632,0.2493032488,0.5750854794,0.0785551021,0.4882162722,0.3964599821,0.0158055133,0.3519612594,0.2468580748,0.3647334058,0.1146039108,0.6001111876,0.3969329882,0.3107071756,0.1536375862,0.2546426705,0.1274844681,0.6594051432,0.1925993342,0.5760700369,0.6481076582,0.6657097044,0.1460894756,0.556243725,0.4990758745,0.6468435793,0.6727256587,0.6661462941,0.6530131511,0.1901268059,0.3908533615,0.5439783313,0.6957451188,0.4365971771,0.6261611386,0.4142580598,0.7154942825,0.3935486745,0.3951161482,0.0884901344,0.1219768429,0.6460356887,0.2958390707,0.3517813325,0.4607692947,0.3668933353,0.4186562685,0.3918243779,0.401160659,0.2148960758,0.4246213453,0.068252955,0.1361290753,0.5346300726,0.2090650779,0.4707293053,0.5521703272,0.481479284,0.6396474143,0.0469930222,0.1964661076,0.2797916206,0.7015708697,0.0112939033,0.470726319,0.675952643,0.1579440199,0.0947102698,0.5328782395,0.1083417904,0.121914536,0.695746141,0.6883329665,0.2205101789,0.4255339886,0.0698791763,0.2750529056,0.1439280694,0.3104996745,0.0020369822,0.3341095728,-0.6302250176,0.6544054116,0.6731776449,0.0153383341,0.0830657003,0.2504257523,0.1238019551,0.4828549965,0.0605169878,0.4939689437,0.1358008608,0.0880220889,0.2291298071,0.3891694627,0.0995039258,0.220737883,0.1148649439,0.0650296088,0.3913914058,0.044989738,0.7067372921,0.4690595956,0.6265855318,0.1674171753,0.5686549545,0.2967298708,0.3026838919,0.1749725247,0.1949903435,0.0845429425,0.3590604668,0.6381088109,0.5265497446,0.6851954818,0.1527035469,0.1419363872,0.5752733365,0.710598181,0.3468856695,0.6897287197,0.4158512101,0.6182036243,0.2037392716,0.1850750436,0.6719082832,0.0013034142,0.7152051101,0.1221845343,0.0915965971,0.2408047181,0.2889477701,0.1930039447,0.3577612029,0.1815001214,0.1488175589,0.5358217139,0.0443539616,0.1826082137,0.6186593064,0.4954164339,0.4018093298,0.2822481802,0.6780253837,0.675953224,0.2037802068,0.3209068309,0.1236409428,0.5105477241,0.3446452036,0.5269652954,0.4543560185,0.4890359758,0.1864122456,0.5397108745,0.5481317608,0.2558983562,0.5716970321,0.5423535712,0.0829201261,0.4850062325,0.1179908259,0.0370983462,0.6301647386,0.4698394871,0.6812666354,0.6501257022,0.4088566637,0.5581137882,0.2213769813,0.4613092257,0.5337509734,0.6175711771,0.1908714083,0.6086212659,0.5061010296,0.6451317552,0.1942780134,0.1087740388,0.2342011592,0.3021526595,0.6121252541,0.0163898074,0.4431444466,0.0055564235,0.2957062187,0.6728320422,0.3956274289,0.6828894381,0.4205303699,0.0900727463,0.4262039709,0.4084345189,0.0595505473,0.3914867033,0.141650465,0.6698402787,0.607145125,0.1377969821,0.1684042393,0.6528465495,0.0060801738,0.0531232204,0.120983728,0.3405785474,0.6742707127,0.0100277985,0.5550685881,0.6610438931,0.2751445536,0.1931126173,0.1187599212,0.1338728409,0.1008609573,0.674220724,0.2704656631,0.4251360451,0.324822324,0.3665416022,0.5006257147,0.465474287,0.5202166822,0.3229722684,0.0448576416,0.0108448913,0.2665099092,0.1435067679,0.1236779366,0.5733448382,0.3145335777,0.5120296423,0.3188056932,0.5518904965,0.5121076263,0.5358326848,0.4658979052,0.6781993502,0.3785828333,0.1079917783,0.0246852607,0.634558276,0.4791036433,0.0768908032,0.5755053576,0.4747490126,0.511040137,0.4796036723,0.0970162277,0.0313148203,0.4766762621,0.1671582545,0.638262539,0.5771823229,0.6467746828,0.5098478808,0.6217447457,0.4989413478,0.5754556848,0.292036507,0.1382038169,0.6829549745,0.19641277,0.2756019666,0.2830370568,0.2418765467,0.1944247618,0.0593387541,0.2392370733,0.2383415175,0.1024433744,0.6707151275,0.0821727945,0.0089204029,0.4662020885,0.1515813102,0.2130323195,0.6510148233,0.0470129614,0.2707009688,0.2660592395,0.422568273,0.0105597279,0.1909726008,0.1970339872,0.5442052059,0.4750116515,0.0599063484,0.1052829304,0.1212632824,0.078555737,0.6865622598,0.1768681303,0.7065262554,0.351200998,0.542048709,0.663942321,0.0450749371,0.5918294205,0.5421436965,0.0809660157,0.3732293817,0.4479291079,0.1399568531,0.3822119494,0.0576603996,0.7046969408,0.312196215,0.3928537764,0.6886525021,0.0126776771,0.3741892827,0.2156603743,0.13208334,0.4905776926,0.6155775164,0.0672755366,0.325133092,0.1868917182,0.5138855964,0.257616205,0.1190102246,0.4310919063,0.6527327113,0.3439263819,0.216755965,0.0055437118,0.0315205067,0.2383858292,0.4973034508,0.1936134303,0.4542921251,0.03985583,0.4664865824,0.5625297649,0.5050727841,0.3437428922,0.0250587067,0.0409925594,0.0124810098,0.6831315309,0.0388090144,0.1192602551,0.6333938471,0.0716920496,0.2611931351,0.3557002112,0.4867697093,0.2602323788,0.5689082062,0.6220220325,0.7074292574,0.2080987532,0.447502307,0.698846732,0.1509287113,0.0587571984,0.416532294,0.5536023445,0.2795434126,0.0873982177,0.2440186827,0.5882649606,0.5539759491,0.2050517937,0.3502814905,0.2284001686,0.0337986733,0.3731483643,0.6591268497,0.2153867581,0.4082663248,0.0752295036,0.2118919241,0.707018156,0.1798870869,0.1625651233,0.4617070146,0.2409400613,0.3380371803,0.407977144,0.1817880799,0.2513702364,0.002645115,0.1556235531,0.6861177497,0.5644389536,0.2530273485,0.4980457808,0.6625028547,0.1036280177,0.2498532895,0.3998705839,0.3274510848,0.2967853758,0.2552043201,0.1533299293,0.2505164805,0.5800859558,0.3772743732,0.0741395798,0.1025205042,0.2522405699,0.5475722463,0.6084300154,0.2470715367,0.1577827844,0.0597986377,0.3304923163,0.239921091,0.4916172575,0.3910571986,0.5737959482,0.2557735458,0.2043848746,0.6075648687,0.1886552319,0.4194945318,0.5344269645,0.6927095763,0.0216528508,0.3236090674,0.0221613003,0.6463496385,0.2128324522,0.6192901068,0.0459510158,0.1896510076,0.4133929067,0.2283445432,0.5979396774,0.0400632084,0.2847409058,0.1755777585,0.1709012341,0.0648392877,0.0034445745,0.4394297342,0.1438053607,0.5993955428,0.0985719726,0.5128585115,0.3531574244,0.6974616872,0.6034320593,0.3742202599,0.054635944,0.2619169422,0.6027427038,0.0476851525,0.6812973758,0.270496522,0.3086560797,0.400044931,0.352243672,0.4732406011,0.3660153834,0.5841567155,0.422520263,0.4511187498,0.4894548072,0.6860301048,0.6936723808,0.1990226911,0.2414365941,0.1685523191,0.0498463648,0.2874026616,0.0128457857,0.1958769995,0.0741966512,0.1075148984,0.6911644179,0.1205863612,0.0385408325,0.7009304704,0.1230503644,0.2175769534,0.0245065188,0.0957875672,0.7095327536,0.6164354533,0.0760641801,0.4693392021,0.3298814875,0.2715423657,0.1477597171,0.2575465533,0.1398784626,0.1518347613,0.3051428513,0.3833298838,0.5855715304,0.3572887979,0.3900413017,0.2871232153,0.2328504744,0.4047821298,0.0259144996,0.5430796951,0.6101685999,0.4671047474,0.4014644232,0.3834914221,0.5378433524,0.5581187038,0.3649810777,0.4909651224,0.2360518933,0.6158443797,0.6542850488,0.683019055,0.5715527505,0.3464230807,0.1730341007,0.5409213758,0.6795778624,0.0517970128,0.1711251878,0.5015323653,0.2558780291,0.0475303682,0.1853752304,0.6940264511,0.6647247259,0.0797862247,0.6475205733,0.5715635194,0.1551245701,0.6339036715,0.4660316409,0.2458739464,0.0518244882,0.6019504751,0.1763770298,-0.4470103907,0.2024228674,0.0723804599,0.0489189426,0.0887870613,0.2111927821,0.1920683204,0.6729055297,0.3104946249,0.6474050955,0.5178553786,0.4305483124,0.4299991121,0.5890232593,0.5830241372,0.1293119692,0.4574787793,0.1217648436,0.0351057089,0.4805317159,0.2333320931,0.0540765682,0.6607647895,0.4387167443,0.2933942929,0.2689210634,0.5287824883,0.5856748488,0.6145144363,0.4157301239,0.019376219,0.6962974593,0.274666326,0.6728406528,0.4888335159,0.5517836315,0.0167820406,0.691188422,0.0050437848,0.0087503099,0.0053810389,0.6760480934,0.3246218131,0.6775764165,0.0241144188,0.3900582033,0.7081471855,0.3372198978,0.077772649,0.4627482817,0.3002707695,0.3843255086,0.4183502689,0.130690541,0.457073294,0.5983529234,0.6232566988,0.6975263564,0.0410411183,0.382027086,0.5538293111,0.3473536496,0.107005388,0.2751404392,0.6641569001,0.6378776612,0.6810675024,0.5483222309,0.4738070034,0.4230151927,0.4357862066,0.6105377556,0.5912155951,0.4485083484,0.4286225767,0.584463972,0.0192105507,0.3675161682,0.219265378,0.2186919834,0.0115527676,0.3917470109,0.3617339448,0.3127877992,0.100524679,0.4240889845,0.1556278296,0.4807644184,0.2884190489,0.5643653828,0.3198468142,0.4160936198,0.2143427942,0.0183674413,0.2998011983,0.7131047282,0.1891831349,0.4965764647,0.1949776696,0.3690685073,0.3346762112,0.5201651622,0.2377556551,0.2108221714,0.1379701671,0.3310586104,0.0012350987,0.3365305676,0.6979576348,0.6381622961,0.6119660934,0.4798077867,0.3018190237,0.0010814999,0.3563845868,0.2270612933,0.527727992,0.0487538231,0.1739748703,0.195170705,0.6466187631,0.5696145685,0.2233969031,0.0446989554,0.1275184184,0.5920133942,0.3622870087,0.4426062682,0.6164814314,0.0227429731,0.5093185935,0.6172604383,0.390052018,0.0327008189,0.1601454165,0.6399824004,0.4830102495,0.1843566709,0.180078551,0.5633034004,0.2141253735,0.5770125016,0.4213298925,0.4218853251,0.5783702038,0.1984945793,0.1338533539,0.0009415977,0.1425987009,0.0403548196,0.2733983636,0.2508469035,0.0902313907,0.4899027062,0.2498670729,0.3847585747,0.6419780696,0.3249274116,0.0200037903,0.2605980989,0.5366453661,0.2521836423,0.0767393612,0.5249497178,0.2150918583,0.1140405583,0.1774458769,0.2490510964,0.2378046955,0.5757522939,0.3503158181,0.4454037584,0.0015125041,0.1668401851,0.1556222189,0.2911470867,0.5653009407,0.05670611,0.5171139168,0.4243888563,0.5346403257,0.5912571674,0.6148921699,0.545349693,0.4993229491,0.1919944764,0.4607862147,0.6328529307,0.6077126541,0.1216758822,0.5254547267,0.4167388908,0.3259854687,0.5215204317,0.0395398843,0.6647223353,0.0149745205,0.5383172314,0.4246350398,0.5952592317,0.4309776848,0.074325312,0.279502436,0.4539950578,0.6119047375,0.3607470774,0.6142655883,0.3152307415,0.7075729065,0.6788297045,0.507894089,0.4567462697,0.5022114012,0.5759392708,0.268257355,0.4662268438,0.5427484256,0.3865639908,0.6564721116,0.011707912,0.4380508407,0.5459323454,0.0674088073,0.2998313457,0.570709868,0.2004994723,0.2704722109,0.2671029056,0.5254086934,0.1022585793,0.0686438886,0.2469753955,0.3034293129,0.0707999949,0.3402678354,0.2051409411,0.2970441325,0.2259029402,0.2176788919,0.3549336582,0.3900837262,0.2579691231,0.0122855077,0.1771671971,0.2479215805,0.3518474859,0.6917627047,0.508527093,0.1237904796,0.5461242613,0.506820906,0.1405053675,0.1002496657,0.2745475448,0.2144777768,0.4443972912,0.3425368857,0.2717633336,0.4978354118,0.2004797523,0.3861654389,0.7109705291,0.6695465211,0.2320338478,0.0566611014,0.277584564,0.2388400949,0.3937253542,0.1565329822,0.1129750304,0.4065081917,0.5730303849,0.6939434148,0.4156875548,0.3100519969,0.5221876771,0.4237538836,0.2636418273,0.0300984922,0.4686556494,0.377704835,0.3947293701,0.511986998,0.3199983291,0.3196105125,0.4113198302,0.4930247936,0.5534564692,0.1782117658,0.1477796377,0.2664974325,0.2276980319,0.7119120698,0.2142787549,0.4607343777,0.2590826032,0.4218761511,0.6705474564,0.6973541456,0.4117759418,0.4828353544,0.6088312785,0.0039110148,0.454218439,0.2908332326,0.5762183495,0.3106689587,0.3672667814,0.5167385987,0.6791073207,0.5263020005,0.1930792661,0.5488949008,0.646623344,0.1985495388,0.4732869111,0.4140819601,0.4614235774,0.6935656381,0.5115248335,0.491524421,0.4409204209,0.1076462431,0.1894290596,0.150201811,0.4914941632,0.2746977414,0.517610977,0.3415927306,0.4429961126,0.4318265965,0.4054617014,0.099920247,0.6279487685,0.4462496471,0.2277837316,0.1020245719,0.1488401245,0.2166236758,0.6784503995,0.4478805007,0.1682487799,0.3871743705,0.2385971923,0.4802420604,0.5005486825,0.3801364373,0.297257848,0.2121636507,0.0242914915,0.6878874676,0.2510510606,0.4748726578,0.1324038001,0.5204514766,0.4536590637,0.3129370485,0.6538703274,0.0669243149,0.6319963396,0.1990035243,0.1141167602,0.0252436225,0.2973662008,0.3383698726,0.4311802191,0.0512586698,0.1986053012,0.0527480472,0.408810208,0.6292876228,0.5665411515,0.4215463025,0.4553403555,0.380582667,0.5138126871,0.0910559393,0.6638717457,0.4551633766,0.5567953042,0.4192510119,0.6091194627,0.6479626731,0.6495958229,0.0818879744,0.6917198358,0.63233987,0.1313835932,0.1830405508,0.1221008712,0.134376047,0.4358938472,0.7148179319,0.4483053477,0.3200221617,0.1419506404,0.3558866282,0.2746962339,0.6877885712,0.4546276344,0.3204770943,0.1363251474,0.6591011509,0.1878924687,0.6367438514,0.5456035862,0.2993755948,0.2364913032,0.524402772,0.165546263,0.5668067742,0.5548153411,0.0426886994,0.4431563769,0.6125193143,0.4639343618,0.569615819,0.3919550404,0.2718871611,0.3910145878,0.3457026232,0.0168558678,0.4960653895,0.0496817785,0.2174474237,0.312575463,0.0332718792,0.3865674874,0.411382992,0.285773517,0.5529697767,0.1815772289,0.4912797009,0.1087402839,0.4740676319,0.1639922091,0.2394216273,0.1076268969,0.5979896659,0.5343932169,0.0593867094,0.2012501433,0.2838531877,0.4663820789,0.0616243901,0.3435633705,0.7090558602,0.5241413041,0.2565476398,0.4834943183,0.6956519197,0.4933059086,0.4876608374,-0.2777675429,0.7089566572,0.27497878,0.2159511493,0.6734674273,0.3712539533,0.6646243148,0.6782769427,0.0069672122,0.5841749663,0.3984476314,0.4964592135,0.5178128223,0.3108488541,0.1763838129,0.5391993926,0.6717278153,0.3776304702,0.0645508783,0.3359452267,0.5891660652,0.493130044,0.0378164636,0.4183351103,0.6082766194,0.6829034517,0.3384855188,0.5504218437,0.5825257631,0.5120315585,0.1573089708,0.4984896725,0.0875180591,0.2547818452,0.0576327203,0.1695904791,0.5834376996,0.6207545849,0.2879101419,0.3243135611,0.0112565351,0.6135137795,0.5150919551,0.4393870117,0.1706245368,0.3994488593,0.4809799936,0.6851195694,0.5056859959,0.5430547305,0.5435350656,0.1724552629,0.222481545,0.1961121368,0.403747133,0.0865838421,0.3927188561,0.3255995389,0.0097448146,0.2051364456,0.0851592883,0.4850687297,0.2474113716,0.4485375327,0.5767236888,0.3520745892,0.4910282268,0.2220858866,0.6526311321,0.6138938791,0.3333860531,0.6280497258,0.3936192668,0.4848018908,0.6086252488,0.1212666443,0.0227670825,0.1280391943,0.6007154496,0.3542965286,0.5782328813,0.6314706941,0.5454342339,0.0647508242,0.4065875362,0.5710242109,0.442622759,0.3476393385,0.3861151599,0.6204141151,0.7011753895,0.059763002,0.4318327592,0.5686971813,0.4311763218,0.4941287807,0.5795437671,0.5910568498,0.4386115741,0.0022374766,0.5149630532,0.1027588402,0.1203180726,0.4825856225,0.4713324986,0.6359035103,0.619113147,0.3641983462,0.1479475325,0.520451899,0.6877760715,0.1388263755,0.3720969946,0.2215259634,0.568695463,0.3175183222,0.5939822571,0.589871211,0.3222692857,0.0754783019,0.0660377162,0.149729966,0.5923837283,0.1550533193,0.3543360498,0.4019385406,0.2715539781,0.146881187,0.2747511655,0.0875810587,0.4310967333,0.699726048,0.115557129,0.4366973374,0.1681582972,0.4833489039,0.5791717245,0.2579050695,0.168811952,0.5031110621,0.6844530346,0.3407621701,0.6590335557,0.4848640414,0.1426512426,0.6690954816,0.6590323995,0.2236439917,0.420142297,0.3297140018,0.4900358997,-0.3496304536,0.2154935541,0.6159440787,0.012507916,0.2164942844,0.4351306078,0.4809518983,0.1330446994,0.4267182115,0.4509689071,0.0402686193,0.1759147334,0.63011329,0.2508392086,0.4353150019,0.6556511893,0.6269784428,0.6551419857,0.2152326615,0.2619482743,0.2612460087,0.5226491711,0.4730514949,0.1547802302,0.5737781874,0.039513931,0.4801741869,0.3976383185,0.0618082535,0.3749426559,0.2424181291,0.5094651859,0.5083531951,0.1307672134,0.1564587379,0.4063119576,0.0226729107,0.2093397783,0.5229081128,0.4759816941,0.2221499744,0.5340702886,0.057955591,0.7074309288,0.0208719432,0.0906973181,0.5698503275,0.3365548001,0.5103637149,0.1961114097,0.709435103,0.4432660739,0.3631077429,0.166751317,0.2849882932,0.6403901348,0.0347834751,0.6399465372,0.497727413,0.0343937272,0.4858336933,0.0456606921,0.0324945954,0.1068770088,0.5828149281,0.4764438069,0.1081084056,0.4580322593,0.0073421106,0.3282102809,0.1756636467,0.0965129737,0.2945187484,0.2507704556,0.6570572165,0.6328726726,0.0971520136,0.6822314663,0.1662870611,0.0039124603,0.3091097151,0.560016862,0.6127342132,0.1067916902,0.4744100507,0.0890279746,0.1618669639,0.2557733941,0.2123099352,0.3314531553,0.0576832042,0.4200383456,0.4381660721,0.1155715362,0.0454078302,0.3083161472,0.4133235064,0.7131960896,0.3177631758,0.1260830921,0.0792165719,0.4160795434,0.6420292282,0.4226975287,0.4122839811,0.7046848238,0.672981855,0.6083401512,0.1249349292,0.1873028883,0.4723586518,0.4128401823,0.3006902897,0.0076955004,0.7125990048,0.1290601752,0.3733063607,0.4501197991,0.6528652045,0.0516245871,0.0192389108,0.3244582093,0.5687116467,0.210030198,0.6940837772,0.2731968569,0.6491124557,0.4678726561,0.5817354689,0.0995622819,0.3552119336,0.2616039146,0.6785013437,0.2675487681,0.4433786302,0.21507026,0.1378554092,0.2731255611,0.5136862371,0.6811354405,0.349756197,0.3418231284,0.6806595595,0.0050263599,0.0237198059,0.1105148173,0.0804908158,0.2861257189,0.2713609993,0.3173753472,0.2458193186,-0.6126419099,0.0837106251,0.3551108814,0.2071268833,0.4747787083,0.2716913374,0.5983569791,0.1430477522,0.6934823583,0.6651809431,0.3358065496,0.2850990795,0.3166850223,0.5893805027,0.0414618487,0.6900773988,0.302419966,0.5703593601,0.2140778655,0.5350720055,0.6646987796,0.0431670671,0.4254761931,0.2349298948,0.5696893528,0.2743318724,0.0075476109,0.6837527768,0.3069342238,0.0540915002,0.42589541,0.2806870936,0.1390861387,0.4843166998,0.4428019931,0.0351850052,0.0549568118,0.4106399136,0.5128153156,0.2153354698,0.5338923397,0.4214522829,0.6493226502,0.6690941605,0.5232901876,0.3840314059,0.2165100314,0.3421512606,0.6851214618,0.2989515763,0.0807252881,0.461427669,0.0901084277,0.127688553,0.1371597483,0.1059024909,0.282140538,0.1725311963,0.6614925613,0.381673278,0.4786032624,0.2556355554,0.1204634813,0.2475630556,0.4034304459,0.22648304,0.5007719108,0.1692204084,0.1170950203,0.2676362799,0.6408538536,0.1436301788,0.0388057259,0.6729515975,0.6815947987,0.1894917042,0.5277867116,0.3675339634,0.1174799415,0.628378502,0.5236182646,0.5493385451,0.2950407884,0.2493801538,0.5724186718,0.2716610615,0.2756159925,0.5435463791,0.4866864578,0.5650717328,0.0351327657,0.6677552784,0.1814653243,0.0722168613,0.4860828093,0.2143822262,0.2153610853,0.3057137854,0.1229734734,0.5586569704,0.0984205543,0.0371169175,0.0514914125,0.5554941302,0.4905217565,0.5705342319,0.5080345068,0.0128946174,0.0057922061,0.2042232811,0.1892119744,0.3400135918,0.0534991115,0.1079062913,0.5527296472,0.6431458217,0.0049768134,0.5684521601,0.084596313,0.4665654074,0.1388192793,0.5294128161,0.463374647,0.3780584225,0.3221758306,0.2149424178,0.3753198897,0.0837969923,0.4995727894,0.5827030745,0.4335983662,0.0082673205,0.5494605953,0.6302299088,0.5714365658,0.3934376224,0.3645938342,0.0852582144,0.6031806816,0.2507015853
   0.614257419,0.0236090409,0.2265149248,0.200298864,0.0302036078,0.2566696584,0.2941586887,0.4051578514,0.6463506049,0.1372636883,0.4783006975,0.345400882,0.6857824596,0.4154610151,0.1069643023,0.63567006,0.5564221269,0.4861564088,0.3611242654,0.1068035001,0.666574429,0.414809604,0.3829529168,0.174432696,0.0858059693,0.2075167738,0.4954880304,0.4032504927,0.6811368649,0.7094025453,0.1703093408,0.6189214414,0.6192934848,0.5122528055,0.4708274212,0.0705657162,0.4814880963,0.5283652404,0.4896542361,0.0821649134,0.3900317313,0.1708493315,0.3371944653,0.2453714716,0.4742689258,0.690577583,0.6777131188,0.3661669489,0.1070568003,0.4362907848,0.2617727214,0.2633223829,0.3700700845,0.6172132323,0.2995874091,0.1504638786,0.3405603683,0.1720764732,0.5039939464,0.2662722154,0.6079258955,0.4639515691,0.0035582782,0.4583848894,0.6362821975,0.2388893947,0.1105843467,0.3950687546,0.2843116589,0.202050376,0.5260222093,0.2359250247,0.2938077525,0.6383053096,0.6294176723,0.5425656544,0.6338034086,0.3203332577,0.5736684825,0.4692511195,0.2514610069,0.6985947776,0.6427784991,0.0052058274,0.4462652809,0.436232761,0.5650050936,0.4735240124,0.5824797951,0.1802500841,0.2705034136,0.2306272946,0.1227997536,0.6717123204,0.1327424885,0.5015408805,0.2580435991,0.2251101311,0.1534374787,0.2351922242,0.2612314457,0.2702093661,0.4468355662,0.2527964077,0.0403994143,0.059485949,0.1607009967,0.4903620254,0.0399598074,0.3727508276,0.3905053725,0.4088478798,0.2053103441,0.2867392789,0.3013238573,0.3138595715,0.4011508778,0.1937054115,0.3438681196,0.6841618148,0.6445167788,0.3756021897,0.4000554319,0.592206967,0.3285938906,0.0089122897,0.4459108015,0.6045844525,0.0568826749,0.0419496388,0.3811384784,0.3290783344,0.1553549434,0.2585246317,0.1332852276,0.3804583559,0.454930985,0.6366473055,0.2599328031,0.4751577448,0.2199459998,0.5361697148,0.034057691,0.7090351452,0.2712096783,0.6021303047,0.1838494971,0.2551197054,0.4968776035,0.1292274369,0.4937826777,0.0491717217,0.5132060273,0.4106938428,0.1285097034,0.016866864,0.2937221115,0.3756203199,0.6869524037,0.3386663517,0.2236924478,0.2244387569,-0.2546928389,0.4749721596,0.1063947301,0.2995911014,0.6804799758,0.5620276213,0.5159621197,0.0673580278,0.3627364552,0.080340243,0.6094237204,0.1612792893,0.3578944759,0.4600130368,0.0180713947,0.3970387864,0.1714610831,0.4700114713,0.3004157127,0.3109445473,0.2632136817,0.1408975393,0.1051652908,0.2955990825,0.4963569641,0.4396323758,0.2434988949,0.2172994681,0.3204865024,0.6003858974,0.2324758357,0.4724216441,0.4598778947,0.1898621256,0.5466665172,0.022821323,0.4219956998,0.5587690291,0.154984186,0.4717734986,0.4863454567,0.4386513387,0.3220487871,0.4937131517,0.4720983079,0.5311929984,0.6792471953,0.1001474272,0.3378431909,0.6944484989,0.5766446869,0.4507026432,0.0743941802,0.0566360207,0.6864085243,0.6521882451,0.593243994,0.3664826054,0.1790238925,0.1760187016,0.5001882494,0.4447240529,0.6304182234,0.6507996223,0.0208902896,0.7017233263,0.6328190851,0.1416549675,0.1718073012,0.7130232081,0.5341061871,0.2370485604,0.2053247416,0.3120427926,0.1770243359,0.1818441787,0.0448798125,0.3369686311,0.0200444621,0.2211204094,0.165141069,0.269703663,0.5087778888,0.327463649,0.2605229275,0.1499955391,0.1116894506,0.484562397,0.2936795502,0.0944500886,0.1307996131,0.1993129687,0.1051289503,0.1681234335,0.4808685811,0.6387600426,0.5469088597,0.4898834496,0.203649082,0.1517562058,0.5650703712,0.2042341982,0.3300554642,0.1706538809,0.2507222228,0.1279571314,0.2067389221,0.5336835576,0.2094608218,0.531278157,0.5500470251,0.0282503679,0.1878026715,0.1645359788,0.4688475427,0.2452195342,0.3032972259,0.1621198984,0.3094621307,0.3772221887,0.6285935639,0.41478994,0.2093396294,0.2941484707,0.6657405366,0.1153250439,0.5319051841,0.6428447304,0.2820434136,0.4954982647,0.6289890006,0.4914657795,0.407754371,0.4261313746,0.2994419293,0.2057526981,0.463454443,0.4570728673,0.6259695782,0.4424651898,0.0057597668,0.0891927576,0.0079458863,0.3381459987,0.2114418308,0.324257657,0.5462926128,0.1929130492,0.5196948519,0.1433396375,0.7067125689,-0.2541917189,0.0072568913,0.0588041526,0.1715376311,0.4424308081,0.1758993487,0.1374871245,0.3029279902,0.4400061458,0.1598616255,0.136386566,0.6388414344,0.5779409847,0.2007726734,0.6395146989,0.2897045592,0.225016672,0.5490333794,0.6573458177,0.1965194616,0.1344168946,0.0600528655,0.3666284069,0.053657878,0.4123180847,0.2182145671,0.5289859595,0.7073008739,0.3420476931,0.142641308,0.4351946021,0.3940835758,0.1825400042,0.1897015092,0.3400144572,0.5281038,0.2458941564,0.1887767811,0.3164186212,0.0182537772,0.2597457813,0.4365532495,0.2353251549,0.2270680969,0.329238288,0.0353653079,0.0884483961,0.1140971406,0.7140344836,0.0456901184,0.193920885,0.6312520684,0.0873846596,0.6913677513,0.2408616504,0.2430152594,0.5651153192,0.2111874627,0.2815659714,0.3394083995,0.696399243,0.5584355045,0.0047383223,0.6149954255,0.522722406,0.2013114141,0.2703507769,0.0980333978,0.2297548785,0.5869241725,0.6463033626,0.0230329315,0.4005697478,0.4790951108,0.2480212663,0.6041374428,0.2563773164,0.4466833657,0.5344853635,0.0818637554,0.3349793993,0.240410516,0.7143570819,0.4452905559,0.6167699691,0.0540965771,0.3207509057,0.5613337989,0.4347154422,0.1670555989,0.0316500341,0.1568032232,0.3535262982,0.4057363533,0.0207718892,0.5493797154,0.393722322,0.1444126073,0.5480814463,0.5144838495,0.5815667799,0.5674689491,0.3517858718,0.0416607705,0.3680516752,0.467310261,0.1130178522,0.4124507097,0.5618778287,0.1886108688,0.5647342884,0.6040107091,0.0063747984,0.468539969,0.0638370319,0.0655797556,0.2496270554,0.0276787968,0.3091927359,0.0071509918,0.037535629,0.6596285699,0.5089459657,0.2159471655,0.6135995342,0.2086780391,0.5176318897,0.4902729819,0.3101267027,0.1328323849,0.53178416,0.1018994361,0.0020716931,0.2001685938,0.0382655638,0.6992830403,0.6861465352,0.0655872617,0.5948301553,0.3740527872,0.2863934471,0.011370091,0.4308672711,0.3753361093,0.2670498774,0.3397073353,0.3468598543,0.2164313135,0.5588043613,0.1289528696,0.3409954886,-0.5330411472
##end
biasActivation=0,1,1
[BASIC:ACTIVATION]
"org.encog.engine.network.activation.ActivationTANH"
"org.encog.engine.network.activation.ActivationTANH"
"org.encog.engine.network.activation.ActivationLinear"
