encog,BasicNetwork,java,3.4.0,1,1750015551276
[BASIC]
[BASIC:PARAMS]
[BASIC:NETWORK]
beginTraining=0
connectionLimit=0
contextTargetOffset=0,0,0
contextTargetSize=0,0,0
endTraining=2
hasContext=f
inputCount=150
layerCounts=1,31,151
layerFeedCounts=1,30,150
layerContextCount=0,0,0
layerIndex=0,1,32
output=0,0,0,0,0,0,0,0,0,0,0,0,0,0,0,0,0,0,0,0,0,0,0,0,0,0,0,0,0,0,0,1,0,0,0,0,0,0,0,0,0,0,0,0,0,0,0,0,0,0,0,0,0,0,0,0,0,0,0,0,0,0,0,0,0,0,0,0,0,0,0,0,0,0,0,0,0,0,0,0,0,0,0,0,0,0,0,0,0,0,0,0,0,0,0,0,0,0,0,0,0,0,0,0,0,0,0,0,0,0,0,0,0,0,0,0,0,0,0,0,0,0,0,0,0,0,0,0,0,0,0,0,0,0,0,0,0,0,0,0,0,0,0,0,0,0,0,0,0,0,0,0,0,0,0,0,0,0,0,0,0,0,0,0,0,0,0,0,0,0,0,0,0,0,0,0,0,0,0,0,0,0,1
outputCount=1
weightIndex=0,31,4561
weights=##0
##double#4561
   -0.1023823751,0.0822450983,-0.2229438034,-0.0753269259,-0.0220609343,0.3590801707,-0.0633388263,0.1057923323,0.0399388428,0.3228547504,0.0661364942,0.3335440098,0.2134379475,-0.1629901218,-0.2747587441,0.3435058313,-0.1950209139,-0.2677641381,0.2464155299,-0.2537740329,-0.261640909,0.1558086457,-0.0664019789,-0.0608904708,0.4033825356,0.1864042869,-0.0926843889,0.1708523897,-0.1084144693,-0.0177522253,-0.5591033307,0.4798755186,0.4226502679,0.4470316215,0.2182826917,0.1395107439,0.7044284197,0.1050748399,0.5482257675,0.2820860864,0.6801985582,0.6793146307,0.5529956046,0.5690926676,0.6306305124,0.3542331934,0.153839876,0.5371305466,0.0816901302,0.1107507896,0.196536945,0.3716313136,0.4598301467,0.17994081,0.3453167232,0.5227122436,0.6695495476,0.3687400913,0.1555896228,0.3953279571,0.2612110294,0.3918894283,0.1020386255,0.2047239759,0.2653987439,0.365842684,0.2052538619,0.2875157587,0.4944266764,0.4970524857,0.149689189,0.7105830884,0.2874222079,0.3965630569,0.1152321303,0.3568895862,0.3043944675,0.6525235186,0.4257393979,0.2349550923,0.693584494,0.2468845477,0.6781979715,0.1729063775,0.6256122526,0.3967598547,0.0702774676,0.2788411032,0.6231943721,0.3421008578,0.0109349989,0.4634100564,0.2205884144,0.5212754789,0.3874355281,0.3464986444,0.3546762363,0.1791237576,0.4529515073,0.5701993117,0.2006615605,0.1352738367,0.5800246509,0.5162063017,0.037226279,0.2676073692,0.6602823334,0.5517536205,0.0002681394,0.3095090238,0.1704281088,0.2746459545,0.5653196585,0.2038853626,0.338847655,0.0268136814,0.3681196983,0.2019748432,0.4320234889,0.6146347663,0.0382087889,0.5609682187,0.3861123062,0.4625172656,0.5579510541,0.5036779685,0.2506243749,0.4728434615,0.3405096227,0.1311288926,0.5680610688,0.159913104,0.4337639545,0.3347635705,0.1817222947,0.0653244043,0.6627524954,0.5535856365,0.0280248825,0.6554036411,0.0727323674,0.1951804034,0.5591502533,0.7010789122,0.5606834901,0.2508782236,0.535880369,0.1313517613,0.1312147748,0.7051217835,0.2011703454,0.1497048503,0.3039334133,0.3412131654,0.6171274128,0.0701276351,0.6097389454,0.3462045907,0.0752005181,0.2818837933,0.1808691206,0.1354029923,0.3872182105,0.0543940166,0.2985352333,0.6413693109,0.2919063383,0.0481742164,0.4065491906,0.2989632777,0.417085301,0.3907134922,0.1967341586,0.3980412723,0.0246905862,0.490560171,0.6953404559,0.4152233171,0.3390187174,0.0710522149,0.5918036297,0.4895357225,0.6342168782,0.5048837326,0.2051267335,0.0377635123,0.6028777336,0.2060867778,0.6973099992,0.1143329661,0.5337576636,0.3911308062,0.4136011656,0.1716709498,0.5775710269,0.3101905323,0.0865711769,0.4549360289,0.4652073466,0.5072801102,0.2391123672,0.1445338292,0.4842842026,0.5722270052,0.5059275357,0.3990195892,0.4189739975,0.0743999195,0.5599962315,0.1648922506,0.1330179206,0.5763576568,0.3779743031,0.2641049991,0.3678209721,0.4689861218,0.5101154707,0.3956880654,0.2738010328,0.3852872747,0.6140684248,0.4026018219,0.3073369277,0.542589309,0.2910400976,0.3617243404,0.1093844852,0.4903455928,0.4809852446,0.5584606983,0.0879077181,0.3512339378,0.6885083061,0.3138461096,0.6042502426,0.1674584949,0.6567846526,0.6507975256,0.6094118284,0.1649270003,0.0990996087,0.5396314883,0.4762712997,0.2383337434,0.2037639019,0.483797608,0.2260282692,0.1143820703,0.4315218351,0.0200719928,0.6669251811,0.1687588743,0.7153547894,0.7044585076,0.0552091149,0.1563743984,0.2784420443,0.228829045,0.6165795458,0.280110821,0.0672095234,0.1755081101,0.4901677327,0.0802736079,0.6563077317,0.3683480613,0.3659626086,0.1905427548,0.5264312056,0.1958060587,0.1740180874,0.5944167433,0.2539743838,0.5542241844,0.1995052669,0.649734067,0.5064834555,0.1159580319,0.3876495885,0.5642618071,0.2778804054,0.634517684,0.1335840631,0.1493244148,0.09769512,0.3080590238,0.3863932275,0.5495660555,0.4940785933,0.3272463955,0.0278698881,0.1542957934,0.4251049729,0.0250961113,0.4223540256,0.0035912606,0.5659506647,0.15870164,0.4026880696,0.308293419,0.4203674416,0.0317384208,0.4406834372,0.5891698643,0.2107320668,0.496736436,0.6610578483,0.1761806491,0.0922552636,0.4303761098,0.1699026047,0.6112059763,0.4846496044,0.3826103563,0.1025347144,0.534410345,0.4702929395,0.709346653,0.6967340108,0.1911757659,0.2783659479,0.6070715224,0.5970603221,0.3659504808,0.3779174895,0.3083543657,0.099795183,0.6038241479,0.5404591417,0.4919492709,0.4757607811,0.6452648897,-0.5962696674,0.0494961059,0.2108941917,0.5073614001,0.459377671,0.6525655703,0.671985146,0.5398871903,0.6666500391,0.2504571174,0.1694755326,0.3570143432,0.6134028895,0.325299981,0.132335905,0.000773503,0.4923914181,0.4785432054,0.6086013167,0.2632122756,0.2339742836,0.4473366347,0.6777306334,0.6010456441,0.5645992299,0.0206596729,0.5156762798,0.1387597712,0.5613812301,0.0781595073,0.5585941426,0.4253965142,0.3869495573,0.3659846218,0.5483006979,0.0399459986,0.2885441689,0.5571775892,0.5214231674,0.4562907618,0.2943346981,0.0993259295,0.0257945259,0.391466009,0.4467132723,0.1811320154,0.0366518135,0.1853471577,0.7107360774,0.5479438772,0.0295771054,0.5751834867,0.0678025557,0.6703030433,0.4933286259,0.2313249762,0.2209544829,0.2232486161,0.7065792883,0.6535629662,0.59575147,0.7130178185,0.2265820122,0.2706503086,0.672494426,0.1458156574,0.6404888007,0.0639605038,0.46037145,0.0885898275,0.4959731949,0.1458554099,0.6796799575,0.5440639634,0.4716627797,0.6068253515,0.5314460619,0.0074765036,0.5754517815,0.6429112979,0.6492467746,0.2274142059,0.2733980861,0.2435150016,0.1594128363,0.1090525006,0.6861977997,0.6142004499,0.7126207938,0.0237637616,0.103284492,0.0254299629,0.5322223035,0.1031054673,0.3947065112,0.4904855128,0.6988263329,0.5836040072,0.5975517076,0.3813123373,0.043085381,0.5623176735,0.006054011,0.3433272963,0.7026071491,0.3431763738,0.0811814173,0.2814154109,0.4497038795,0.2312124062,0.1280047603,0.028496538,0.5979382866,0.5826092641,0.6637843022,0.2628810405,0.2903420744,0.4575364088,0.3461818949,0.6865576552,0.1740186048,0.3288844713,0.2112717907,0.0054462077,0.6801044867,0.0877756985,0.1262910367,0.1803442823,0.6601534437,0.080945429,0.3957192159,0.5158959541,0.4076708877,0.4837477434,0.4466987363,0.2953758475,0.2524744833,0.2893503066,0.5505628071,0.012370713,0.2590344257,0.3536429716,0.1000288389,0.1763761789,0.4210624849,0.6051817593,0.5171615389,0.1316515816,0.2868717214,0.118096911,0.0041591488,0.1364257952,0.3789754373,0.3167183947,0.3765485467,0.1936690387,0.2642363154,0.3352252591,0.169731386,0.1786052056,0.0584030442,0.3931022763,0.7108370384,0.0353170887,0.216211137,0.5624756045,0.6965975547,0.6326639372,0.0998720924,0.514003366,0.2054174297,0.2321712813,0.162370226,0.6072630725,0.4942822101,0.4258122264,0.3428000261,0.640718868,0.5621950233,0.5475941669,0.1944736257,0.3678035694,0.5828859521,0.0397443495,0.3171181892,0.5858179976,0.0597069133,0.1756056135,0.5265205643,0.1844226401,0.1170816663,0.0644807434,0.5592585229,0.2571120562,0.0850972232,0.0007111866,0.399383447,0.0704508701,0.5327712804,0.638011171,0.335526304,0.5295195107,0.581870716,0.130627282,0.6150358571,0.5912228093,0.1201988243,0.0662186627,0.6066764281,0.1597248556,0.370987326,0.483729198,0.2421752248,0.6823688095,0.2569464005,0.338068764,0.5265333353,0.5496091724,0.6345967085,0.1306116895,0.2378521963,0.040232403,0.2070416967,0.3160965531,0.6324775099,0.4914403159,0.3983278318,0.2792520612,0.4784071912,0.4780252093,0.3654738154,0.6469278883,0.0239497797,0.2724411602,0.1341083237,0.6218443797,0.1780339979,0.0335380589,0.062696821,0.0538386743,0.2390437403,0.61974275,0.3394817312,0.0126600789,0.6047614264,0.4594304218,0.3774102168,0.2691393268,0.0735929136,0.0471746613,0.0162046662,0.2180910436,0.6511005493,0.2553723115,0.4584021393,0.2515675475,0.6210864558,0.279168114,0.1541751759,0.1979566501,0.1779368408,0.5180396281,0.6146025367,0.4057571789,0.6633318955,0.4661250755,0.6662260947,0.4574488891,0.5743917605,0.0630873641,0.6717085613,0.2472323231,0.2839952723,0.5279891884,0.313949134,0.6451470513,0.4973869672,0.3715056132,0.5581224317,0.4809071581,0.3643691218,0.0064235169,0.6133678379,0.6833974401,0.6571840204,0.1600592955,0.5720657368,0.2873923744,0.1917360045,0.0407410081,0.0339928197,0.2306318669,0.4945058894,0.3674227111,0.5822792414,0.147579532,0.233813146,0.347228316,0.1838856719,0.0107792377,0.1078425808,0.5720076087,-0.5346673793,0.0118138282,0.1383632813,0.4874034692,0.3658231974,0.474485596,0.1781605141,0.4975051257,0.1349311577,0.1066280305,0.5164179457,0.6606483233,0.2742719207,0.2261319637,0.1931231704,0.6086358789,0.151683494,0.5141094324,0.568830547,0.1972627072,0.0058702436,0.6473499842,0.0926655317,0.4460335007,0.5092937493,0.0661480183,0.6330080138,0.0647617037,0.6559841399,0.2771270996,0.6234632752,0.2546287616,0.3251125545,0.2010018795,0.0371114811,0.2812754933,0.4975900984,0.6166480373,0.317702377,0.0469420972,0.2223232701,0.5922591659,0.3403542886,0.137787731,0.4729289707,0.1424872763,0.5946302585,0.6752828376,0.7018405684,0.0902168613,0.4208375252,0.5282982806,0.5644262433,0.3340782365,0.1684449644,0.1268033375,0.1605240596,0.430047688,0.1478665626,0.6227337681,0.5006711334,0.5240617013,0.4998255133,0.4182074131,0.2993821471,0.3448799983,0.4926872272,0.2874667074,0.2632836182,0.4061990514,0.2639596401,0.3353529371,0.4198896191,0.5233821364,0.1898728157,0.1383131435,0.6275938002,0.6587682935,0.4817641577,0.0688799115,0.6554982523,0.3601364039,0.4147736496,0.3334351614,0.6314272847,0.3299439926,0.2807449603,0.2020522815,0.2623600729,0.0716965085,0.0312809033,0.2151290494,0.3452209471,0.1823803874,0.5521624211,0.5683029575,0.5631933467,0.2567054217,0.6316937996,0.5792210057,0.0201551633,0.2442525438,0.3427894485,0.6573718563,0.6742221748,0.0574344511,0.4711034214,0.5532426016,0.4150293818,0.4226384027,0.3274993551,0.0374577025,0.5687391723,0.0330867415,0.6619586024,0.1892874053,0.7150565218,0.0511807614,0.619093826,0.4765845287,0.256328887,0.2136383603,0.4683302796,0.1965783995,0.4273747878,0.2220169547,0.7081308143,0.3157240093,0.0808485129,0.2485923951,0.4860397786,0.5132679319,0.1344412874,0.6379920247,0.5895512714,0.052338701,0.5297954106,0.5795448878,0.0250092679,0.1586397792,0.6376621911,0.2898166546,0.5635996633,0.4859769282,0.6684752107,0.2344178869,0.5156326971,0.1763799089,0.1200367965,0.6861891327,0.4021482972,0.6745403667,0.1103691416,0.3111404383,0.403881361,0.4991514372,0.6741119907,0.0835969224,0.7004585009,0.7026663189,0.0778108591,0.3166840654,0.3608283491,0.4922542415,0.6167188433,0.3859360014,0.080657636,0.4742429758,0.6842437604,0.5863394376,0.3498277019,0.3423563635,0.21876262,0.6112128327,0.4372072022,0.4271673246,0.5515205717,0.3322813844,0.1529508676,0.4592885682,0.3125722879,0.310589355,0.1780289328,0.0967055889,0.286539558,0.1826352576,0.2404638569,0.0104481337,0.0175173007,0.4517117997,0.1365482019,0.5300117476,0.0673134802,0.2500112362,0.0226102231,0.3505685434,0.2327033907,0.4671639632,0.5979628778,0.7006573542,0.5355550905,0.2248082993,0.6676183113,0.5718399516,0.4993582111,0.5269014969,0.4164476587,0.1198317878,0.5936053562,0.5181506269,0.5951009848,0.2470879652,0.4041163371,0.3600785175,0.538184671,0.6895011685,0.7107401173,0.3187235363,0.404814448,0.4955240595,0.7046155639,0.4129648531,0.266410017,0.5443229616,0.3905204684,0.6401475937,0.0095987732,0.3373203116,0.1431408831,0.4643281428,0.4878652132,0.2924504632,0.4381896891,0.5573229467,0.3665008237,0.2200804303,0.1517762201,0.1651001425,0.0947754003,0.0086511263,0.2096607713,0.0607211303,0.184222061,0.4325201453,0.6813674417,0.0093879688,0.2093161838,0.5586248952,0.0132067735,0.0307199531,0.0522816732,0.4859910358,0.6222833049,0.569626252,0.5056954718,0.4835775025,0.4470076089,0.4157333915,0.5583201282,0.4634068838,0.426354347,0.003055986,0.3037246181,0.1821690603,0.3370611865,0.0207488384,0.2880683828,0.4912201553,0.2261538594,0.1860763097,0.2468916857,0.3448737888,0.4073928623,0.0408471714,0.6307031021,0.6363010837,0.6457861937,0.3010296482,0.4663276435,0.6799595317,0.5930031955,0.1599986139,0.4830441226,0.70138731,0.2621871662,0.2303871427,0.6438477586,0.3138067015,0.4283488279,0.3737505696,0.2145061061,0.6252980783,0.2129557022,0.0869593966,0.29658396,0.580028425,0.1431372768,0.215091089,0.6638323342,0.580276921,0.2375499688,0.554504023,-0.6741399918,0.5805781434,0.1490776718,0.2077093598,0.1776142251,0.4082627821,0.5143502502,0.062855651,0.0434546386,0.5161704382,0.1235837193,0.1326567277,0.3545927714,0.0725693819,0.6693036141,0.3559845009,0.301259351,0.6777630241,0.3762190252,0.3307710711,0.1158983373,0.5560219764,0.039034544,0.0647769976,0.5073082441,0.3985177881,0.6548887661,0.2985027912,0.5681831223,0.4787676959,0.3479229381,0.2411076824,0.2718983848,0.667273882,0.2665653505,0.5338750738,0.2783595276,0.5156609635,0.5642603845,0.5186088733,0.5919884841,0.4415309388,0.4228370484,0.4213885468,0.2352611493,0.447969224,0.6773124432,0.4171626805,0.2919332489,0.5047372329,0.4456378957,0.3564081146,0.243077139,0.7098678093,0.3423386544,0.1113069823,0.253313565,0.5133584265,0.414686172,0.6855142765,0.2096968478,0.3736270553,0.1247138351,0.4077350073,0.1604245505,0.5432912982,0.0608012898,0.1946288567,0.666331935,0.0049907103,0.0896772871,0.5073736601,0.2540244663,0.2744653302,0.4967091766,0.4755781352,0.6323709907,0.0440195801,0.1307982472,0.308293861,0.5084903064,0.5825161961,0.3794209766,0.2392250152,0.0191550639,0.3452441255,0.7125889051,0.4929808285,0.0071647472,0.1068538349,0.5193481298,0.4378668936,0.4017329637,0.2289980963,0.0182981774,0.0135575616,0.0237837919,0.317195031,0.3365844058,0.0012095202,0.0705038009,0.1345795121,0.379817055,0.0413922287,0.3568089345,0.6685982764,0.2531752714,0.6903403634,0.6369219324,0.3682745419,0.1138224987,0.2011319423,0.6466131857,0.3227849878,0.2082328725,0.2051480516,0.4172357692,0.6600696102,0.6397790935,0.1469803287,0.4376792239,0.2664491216,0.5300947734,0.113650988,0.1737949045,0.1310641347,0.1877818616,0.0056418621,0.0338375834,0.3331403065,0.4477800209,0.552944106,0.2225513879,0.5342057483,0.5067504217,0.0291346237,0.3642594093,0.3772889773,0.2963429143,0.4688133983,0.6158553009,0.0386436493,0.4473200191,0.429255022,0.2843417179,0.0747114455,0.6856607069,0.00649687,0.5442385892,0.4459906879,0.1396451004,-0.2179638891,0.2585484678,0.3918186803,0.1474051756,0.5410835309,0.1965768108,0.2719512078,0.2276535444,0.0902701407,0.0976547899,0.1619049032,0.2548596411,0.1319926943,0.3670173375,0.1894860804,0.3904013693,0.1163858691,0.2417227938,0.0963975431,0.4383138468,0.2420215142,0.2526386591,0.4367640222,0.0719248456,0.0467519792,0.5851315223,0.6013659911,0.026880438,0.6269065011,0.0208094529,0.5739938188,0.633588838,0.2768144347,0.143094604,0.3834305891,0.4782433507,0.212364548,0.2366511233,0.591471105,0.224256107,0.0983277415,0.0941653716,0.3366174974,0.0161189164,0.1489658844,0.2541236475,0.1292401875,0.1357930575,0.0295408674,0.2528727552,0.2315883146,0.6712209276,0.2174598134,0.2199825849,0.4697114514,0.0069723396,0.3878200433,0.5157989213,0.3268573648,0.6700626235,0.0744664013,0.6091316397,0.6807185144,0.5171715308,0.3710372234,0.5067972485,0.1029025006,0.3924139576,0.4026163776,0.6834011005,0.5074426972,0.4591821847,0.2153176654,0.3040746083,0.413463456,0.0267389846,0.2769040249,0.0094048113,0.5434077095,0.3766758703,0.3790992214,0.1015324281,0.1410081313,0.1864468935,0.5261962915,0.6220498611,0.6096252688,0.0810375057,0.0204563519,0.213112222,0.0333353175,0.5365800246,0.1872307083,0.1883773282,0.4340942566,0.5922483459,0.2830139882,0.4451999556,0.6509667585,0.3976149391,0.1557772752,0.5404304053,0.2132185638,0.183236954,0.1660217715,0.705641879,0.2183290677,0.2317063489,0.6796626277,0.4110319961,0.0299745212,0.4345114374,0.650545616,0.1344956179,0.5676992822,0.0042649348,0.4622937039,0.0317487648,0.3144564194,0.4258474802,0.1088336069,0.018652577,0.3798831529,0.5465961357,0.6398375978,0.2444997708,0.1914610592,0.0663480911,0.026654402,0.3203547218,0.2271191386,0.0258018091,0.4773227244,0.0228574754,0.1485948457,0.2233308087,0.0580772265,0.5901829104,0.0839184198,0.4958029784,0.5845171213,0.5955120837,0.4258016086,0.4948850638,0.1734308787,0.2822450365,0.1465948833,0.1094249147,0.2779749305,0.3880777909,0.5849396711,0.1016149578,0.5895705616,0.3049893963,0.6136638977,0.1784254607,0.45114013,0.6529800277,0.2918899941,0.0410910776,0.0019163507,0.4933114986,0.2213439144,0.1794256153,0.5743373613,0.2971166399,0.4952990389,0.4717838748,0.0521434784,0.0396658136,0.6545370764,0.0201925307,0.2991995943,0.4885100614,0.2967282654,0.1765852621,0.5333206765,0.2007245669,0.0385414735,0.4026441798,0.4562537613,0.0425994625,0.0489850424,0.2323166783,0.1051711194,0.3756459001,0.1048582131,0.3119671188,0.1797374533,0.4435615132,0.7006445979,0.3549740967,0.6122641204,0.3608873951,0.1732991819,0.5258056405,0.5050656877,0.6945184901,0.3443527181,0.6121767761,0.5865735399,0.2155943166,0.4311918303,0.0996680975,0.7093084011,0.4366497493,0.0285897158,0.5437658346,0.3240362909,0.1198691735,0.1302589191,0.2708406483,0.6882067993,0.11621436,0.6768488267,0.5374960544,0.3628404132,0.0826302349,0.4828219189,0.018112763,0.5052652008,0.1355693107,0.6919652813,0.1655965862,0.0818077923,0.6637803204,0.6668314852,0.1295764196,0.4432411993,0.4228599964,0.6387889843,0.7121400581,0.1784864625,0.2786091758,0.0721326278,0.6116610234,0.1204315859,0.6878752126,0.6509008347,0.2686468151,0.2310742262,0.6103876676,0.2967509333,0.4928387895,0.284989422,0.4532095431,0.52940634,0.0153282561,0.267479799,0.4977973493,0.1221453084,0.4438441593,0.4251211124,0.2524137657,0.1735367483,0.4037453516,0.1338927954,0.4193830103,0.4376650238,0.1384400761,0.067769154,0.4934814741,0.2574376436,0.5026318321,0.6291692619,0.0357837449,0.3449609025,0.3419269048,0.5012226546,0.5194115814,0.3228218886,0.5680807192,0.2021918445,0.1175487679,0.4924805932,0.6046204126,0.3488291983,0.2167508726,0.3658926648,0.475081132,0.383768964,0.5546290002,0.3405580938,0.3613541333,0.4175328633,0.1401009621,0.3393638161,0.668082489,0.5332048182,0.5458341256,0.1641099745,0.27591416,0.5162435333,0.2187216065,0.7025577382,0.0158293983,0.1592763715,0.4437321881,0.3650422267,0.1818755867,0.096477705,0.028196316,0.0345340843,0.5878913214,0.6715514252,0.0771674347,0.5524206533,0.5673892634,0.1292186544,0.2049657891,0.1588882749,0.3476520779,0.657458093,0.5051176281,0.7094237274,0.3979801445,0.4396398597,0.0820479874,0.4259833097,0.5447458854,0.3751477397,0.2967374172,0.1980079974,0.4707824106,0.2820848463,0.2993440579,0.2423270018,0.0246305107,0.3195970209,0.1594792622,0.4869750378,0.3090792585,0.5791151067,0.4545587021,0.6845206426,0.4784471545,0.3409772291,0.4431180949,0.1058843609,0.6093623922,0.5338399031,0.0753303821,0.2568514754,0.518037451,0.2829690586,0.1134961428,0.2052072807,0.0586206947,0.3814576369,0.3551716225,0.4452580818,0.1830709485,0.3758016657,0.477922247,0.619860648,0.6348119705,0.3772757971,0.0180559097,0.197649779,0.4200478072,0.0955411351,0.4605944325,0.4314341445,0.2994965222,0.6636418797,0.6650056151,0.0623144777,0.0604985523,0.2685399665,0.0679227033,0.5991669036,0.4551590279,0.411769713,0.4080633594,0.0175382597,0.5012487204,0.666596915,0.4746839231,0.153956408,0.6973353945,0.3135790709,0.1175550871,0.6407783574,0.5437857307,0.0179251528,0.1431853084,0.2351648894,0.2348714383,0.1960052656,0.039430385,0.6747286008,0.5229539943,0.7135363774,0.5082830869,0.0363701151,0.6549196855,0.2657306001,0.1047110875,0.6324993097,0.5921983575,0.1652243971,0.5061669932,0.6849173552,0.5471283308,0.4566514363,0.3847545787,0.2124028749,0.0993980896,0.2563304955,0.201197994,0.2673154739,0.6735841703,0.1947532296,0.1449287513,0.3241195381,0.0640245641,0.111291443,0.4784910113,0.6541852262,0.4680302847,0.1864173211,0.5724202115,0.3128755542,0.3105878228,0.5402589067,0.3507915954,0.2818418313,0.6234913736,0.164240297,0.4470760172,0.2617070752,0.5042000326,0.4604662623,0.1260495701,0.5964357968,0.374007782,0.380371557,0.2326858335,0.5935309494,0.2029815212,0.0538158467,0.0539982261,0.42791795,0.2966165359,0.695975286,0.2855231272,0.179460324,0.3388102693,0.4563224028,0.3364455245,0.5610101231,0.7052452792,0.6257569363,-0.5687723292,0.4091462327,0.0476676196,0.1315390316,0.5075917769,0.1149125561,0.3803346311,0.1561414677,0.3458537657,0.1245856382,0.1978356699,0.5824095453,0.3365880417,0.474460078,0.0209558519,0.6354811138,0.5726260313,0.2630182531,0.0229149458,0.4207481679,0.273978849,0.4675176823,0.1298190005,0.0507901514,0.3282433615,0.5927416225,0.6483992283,0.1768134486,0.1270975596,0.0025847769,0.4975076994,0.2306480448,0.0810837497,0.0440059735,0.2501191766,0.4391751562,0.3002589667,0.6259022914,0.0400546387,0.2530324575,0.5108815547,0.178970599,0.0118506598,0.1456846197,0.2707197353,0.5823246673,0.2166585345,0.4269532004,0.3353623518,0.6082367176,0.4109833211,0.4899877254,0.2193538839,0.4809768153,0.5950396882,0.1685408457,0.1465872552,0.420841167,0.6027159647,0.3138071469,0.161761076,0.356541127,0.2894764316,0.2263068604,0.2318201106,0.086762917,0.5371388535,0.2005603324,0.157918661,0.460989186,0.3371821818,0.6094731389,0.2027969963,0.3162805457,0.0931014912,0.592294733,0.3307203968,0.2748772379,0.0976902877,0.6512787395,0.0631707117,0.6796801427,0.6339046749,0.2416361744,0.0721427647,0.0013472449,0.0992822055,0.0580793124,0.3388923911,0.4493972539,0.4282400354,0.2551606816,0.2106889186,0.5016850054,0.2674108753,0.5350366797,0.6461394884,0.0043009426,0.0718604027,0.3449610438,0.4064464615,0.4592842608,0.6082624884,0.3148975879,0.3673798219,0.0782530763,0.0323773035,0.6205989164,0.2478717261,0.6666229114,0.2320462373,0.0683456612,0.5776087295,0.2638074515,0.0324401459,0.0575938457,0.2401282828,0.6591417146,0.562817043,0.6078724314,0.1132941502,0.1325715581,0.5270206753,0.3479804706,0.440473812,0.4082379612,0.099119178,0.6715973074,0.1454677679,0.543027354,0.573721761,0.3894148963,0.1581620451,0.5362358838,0.0570119148,0.5396423988,0.2771232466,0.0412711099,0.2496393097,0.5631915145,0.2906708923,0.6133723872,0.360731667,0.1354405215,0.4901790435,0.6733194702,0.5044344117,0.1504046463,0.6928884495,0.663857933,0.6043492462,0.1253216435,0.1006540632,0.0525639338,0.4328621953,0.4957524063,0.3715772162,0.7004615622,0.4294930355,0.1748653045,0.3673576461,0.0690352574,0.2337492716,0.1845096053,0.0118176555,0.2380845487,0.1282540451,0.592937241,0.1256889081,0.0501104842,0.7027683986,0.4108541284,0.5392112319,0.0747336943,0.4432403966,0.3753595799,0.3529836394,0.3288979739,0.4018420542,0.3960178343,0.2491660166,0.5784750568,0.1512038304,0.4349076522,0.6263849819,0.599218229,0.2493889385,0.2950971496,0.4659210261,0.0052563658,0.6419366231,0.6257604165,0.3448708246,0.6810467765,0.0026148221,0.1435809717,0.678344688,0.0700059008,0.154517498,0.5450392519,0.607884213,0.6526707534,0.6404480321,0.6182595415,0.4432480464,0.6148229644,0.2299216933,0.4722339001,0.5216659613,0.6436283313,0.3387057003,0.4618820638,0.1261976252,0.362234579,0.4553836593,0.6565564985,0.6964744616,0.637784397,0.5965842151,0.4021409468,0.0404356285,0.2246002501,0.1660463796,0.7025162783,0.209887921,0.6799602664,0.6309022347,0.0635754406,0.6020254474,0.6299412797,0.2414721455,0.0565256746,0.2828445838,0.3259274453,0.6069997931,0.20661164,0.1889162894,0.3199020576,0.5415713061,0.109039373,0.5521551022,0.5341065858,0.5354350361,0.0279821462,0.0527385099,0.5847239034,0.4058726129,0.6679245433,0.7121216094,0.4106879409,0.5733597111,0.6568078967,0.1186358205,0.216125806,0.0735776973,0.4930251668,0.3745490418,0.4786696069,0.6646675765,0.6465744672,0.5992756019,0.5712927846,0.2924448788,0.7075339041,0.4988745468,0.6653040135,0.0118783409,0.4556309544,0.1753378542,0.3941233386,0.6336542265,0.3773218772,0.0474745695,0.4891116761,0.2298137367,0.6326963591,0.7149577599,0.5444443131,0.2652938274,0.4551977953,0.2964486332,0.1346064911,0.463670906,0.4212088728,0.3963010946,0.7028261543,0.6908991296,0.1975727994,0.2661874225,0.301407999,0.1495817929,0.5430685267,0.4089618718,0.5697799761,0.0071051648,0.0987518341,0.3003028871,0.079104557,0.1606252909,0.6479743483,0.0787009444,0.4143636275,-0.1753545578,0.6252622855,0.1232325589,0.1254393061,0.3393755122,0.7143592139,0.5564704984,0.4769667672,0.5261771089,0.3445326413,0.4396189765,0.3175626786,0.123473035,0.3787510115,0.1519807557,0.3539369005,0.3733203805,0.5913800836,0.3778013978,0.4039848746,0.196421183,0.3590649393,0.018963172,0.4343295297,0.2845368715,0.375139965,0.6187702503,0.2424371411,0.5421898536,0.4962579174,0.6329301418,0.2374175822,0.2981308442,0.381163719,0.4000087755,0.1088568779,0.0061189475,0.3279419158,0.077068286,0.5416469878,0.5987145762,0.5843565265,0.2512912239,0.6955353667,0.1537041941,0.3856718762,0.5703568668,0.1769473008,0.0331835868,0.6877785715,0.6696806327,0.6628091646,0.2686420835,0.1134887863,0.1548784069,0.2021502629,0.6242798273,0.1224911295,0.5647194518,0.3975403367,0.3640199734,0.3029218281,0.5529236065,0.2331560348,0.4717386633,0.0201508792,0.1763939333,0.6179261501,0.4725916588,0.7032920594,0.0435151215,0.0356290018,0.3566435602,0.0843999448,0.2391547141,0.0311144431,0.5168139571,0.3108004033,0.4138983009,0.0299739422,0.7082567279,0.1972392971,0.0615956901,0.4864431091,0.1925308912,0.3822017408,0.3544858729,0.0485666115,0.4009644484,0.3824138875,0.3148111114,0.2671709774,0.2675123287,0.2861272599,0.5912164425,0.1885022709,0.3824219965,0.3519460922,0.1827035045,0.2468597643,0.6128614148,0.6158676368,0.3655827042,0.199611298,0.5901748645,0.6580368727,0.3310420972,0.2070169136,0.149069487,0.0129938812,0.4923786673,0.3781127083,0.1705255563,0.0421502958,0.3201196522,0.0217086942,0.1282321249,0.5613928011,0.0890854972,0.6364205756,0.0692921512,0.0454955176,0.1684533227,0.143615687,0.1919686857,0.4157252939,0.682208507,0.6995026216,0.475505321,0.6795451046,0.6330294794,0.1732927261,0.2869992691,0.7001195255,0.1451041788,0.5862815492,0.6948542729,0.0700881792,0.0960145143,0.2559191533,0.5709311585,0.2586353385,0.607449627,0.1461806386,0.5295526737,0.3651376267,0.505616793,0.1999549952,0.2550250847,0.4641935351,0.0070470841,0.117199484,0.2217315487,0.5800098922,0.4234662411,0.4432986065,0.5630896249,0.1569934417,0.0177725546,0.3168187236,0.2840908369,0.5101588045,0.3564809564,0.5174752961,0.2445217425,0.4601681744,0.2370981091,0.2592493551,0.5557448894,0.0952887097,0.5531325577,0.6005630615,0.7067964062,0.4039231257,0.3809167873,0.5472933204,0.6886113122,0.3303569349,0.0746826033,0.2445683947,0.229994406,0.6108514679,0.4893530618,0.5911600709,0.6943101799,0.5994341803,0.1077743404,0.3080641183,0.0458311223,0.3748324443,0.1638269696,0.3474893741,0.296242013,0.7071924567,0.6726071968,0.702275673,0.1315988567,0.2079628421,0.228142118,0.5544299699,0.1002257583,0.0686398735,0.3247336245,0.1456957613,0.0059594596,0.2877618006
   0.5840376829,0.4147676109,0.6683434346,0.6256669188,0.4167131058,0.1169233287,0.0100539375,0.2471780968,0.3254125246,0.0587264132,0.0186737047,0.5088282147,0.4793128209,0.2999472097,0.1209666647,0.0350504754,0.6310322204,0.0355684787,0.0151702591,0.359054825,0.5796397025,0.4868493502,0.1868529062,0.5288653214,0.1099063286,0.0720842218,0.349573012,0.706514805,0.5783085854,0.1782012663,0.5835468896,0.1294358058,0.175503887,0.2653333958,0.2099590806,0.3328010093,0.1766283961,0.5162860305,0.0697487181,0.6607126935,0.584586835,0.0435762758,0.2666302379,0.6926021693,0.5052749866,0.6150364554,0.2890368644,0.5142284546,0.3967539957,0.2002890501,0.1177136003,0.6762008209,0.2355401055,0.1408236978,0.0161818671,0.7030825828,0.4254994231,0.5212666811,0.4240238548,0.5888218593,0.2542826459,0.5546145291,0.4314601812,0.5160844249,0.0185658691,0.0477317047,0.5440831385,0.2955422013,0.5463893434,0.183111756,0.2680345821,0.0682736366,0.3412041516,0.2028200922,0.2058953634,0.1861238573,0.2656789267,0.3790147351,0.4376730999,0.1285421768,0.7128691828,0.1154071237,0.1611952367,0.0662318375,0.5292778061,0.5025993704,0.053125443,0.1924870913,0.325276866,0.4066337948,0.1253200767,0.5756538851,0.3407496331,0.4838300702,0.1528587091,0.5252024291,0.6651360787,0.4537496001,0.1653311044,0.5182479394,0.1572925606,0.3114185047,0.0832083162,0.3718221018,0.5157483587,0.1669609311,0.3157886064,0.2938576405,0.6809322756,0.5168492535,0.2775712842,0.4495489619,0.1080251907,0.1032462366,0.4855426192,0.2414468357,0.6784227879,0.6127671017,0.3725578138,0.2103986999,0.1347274407,0.3769461871,0.6363847448,0.1579873413,0.0113178732,0.5300801101,0.3920817892,0.1505175965,0.4622464073,0.1465301864,0.4416092397,0.248480885,0.0722537759,0.7138068364,0.6141442071,0.3252289405,0.3226402922,0.1654722751,0.5194016149,0.240841085,0.6913085259,0.31896514,0.2741034481,0.4125505297,0.6969448498,0.3726974559,0.49545967,0.121513918,0.5691777528,0.0249253378,0.2231183721,0.3602497752,0.3735064046,0.1183040659,0.1461246109,0.6206982554,0.6492521766,0.3433915276,0.0722963552,0.3720632043,0.2262864587,0.4390642879,0.6790843797,0.6544223857,0.2829349359,0.1771692852,0.185834344,0.4823311606,0.5506965979,0.7057319812,0.4118996482,0.5933242686,0.0906056858,0.6922667136,0.3053438747,0.4252856182,0.0166843977,0.6489863023,0.1664970069,0.2913728938,0.2957679237,0.663706179,0.3481971106,0.2697887068,0.0764290383,0.1475174937,0.4894692862,0.5695226066,0.2981000197,0.1108135383,0.6471675798,0.4101159975,0.0651126675,0.3010625383,0.1816631636,0.5499694941,0.19921536,0.5708014491,0.548503562,0.5246763414,0.2482311361,0.1846351311,0.5949278943,0.2014141484,0.3575173482,0.4542989064,0.3047919927,0.5310348143,0.2844172714,0.54834396,0.2203534269,0.6834054279,0.1638342688,0.6940530568,0.5512632415,0.0350595908,0.0932692962,0.1478718705,0.3123215124,0.4526449947,0.6807278589,0.1964735635,0.4691479833,0.6975917823,0.2339719073,0.3844858423,0.6240473325,0.0966053058,0.2648943831,0.5606677372,0.5439831077,0.5158782618,0.1103058711,0.6143298954,0.5891494088,0.6482286707,0.6200938995,0.6961666469,0.5357734862,0.3040086019,0.1972313473,0.414143487,0.3613375519,0.5923882694,0.1674476712,0.3647585946,0.582464281,-0.468528877,0.4436063937,0.1536389602,0.5788955112,0.5583532315,0.6654420131,0.4847977278,0.3845877027,0.579284342,0.5118749512,0.4576765685,0.4643578172,0.3257073691,0.4909976146,0.0173504246,0.1781643771,0.119180502,0.1255751787,0.1973881649,0.2073887191,0.1483258192,0.3801474458,0.4084990874,0.5931041654,0.1039433576,0.52157293,0.3743104565,0.2335570754,0.583295912,0.5919068384,0.1279606667,0.2430643711,0.7066493429,0.5142654113,0.5639975973,0.5025048131,0.1774022715,0.021397759,0.0031901131,0.0894687317,0.3409278192,0.0694751241,0.2908067438,0.1449314642,0.6710464753,0.0993961468,0.0136571183,0.626782009,0.2852122141,0.034983668,0.1401069591,0.1127296483,0.267739663,0.0903866223,0.1528759775,0.6866150673,0.5746137099,0.2987719181,0.6539629604,0.3633293962,0.0312307215,0.1903547137,0.2512019835,0.6941951158,0.6407696716,0.4795832398,0.1754813289,0.2440237301,0.1782288768,0.445485844,0.348063234,0.2154359901,0.0761282173,0.1191934093,0.4574080774,0.0200851854,0.1176226466,0.5333924146,0.5534662592,0.0360086489,0.1410949941,0.2995412445,0.0273520092,0.1682623878,0.560783583,0.3479922787,0.67052146,0.3026085071,0.6376765727,0.576279003,0.7016538879,0.5799959046,0.6595349627,0.6234978851,0.1093373303,0.2285501917,0.3949708748,0.0124750257,0.1912047028,0.3089413048,0.5742702825,0.3348357891,0.2481726577,0.4528110211,0.4009389461,0.6322706479,0.0537020691,0.6351179581,0.5761338493,0.390324846,0.054207,0.640603885,0.686811545,0.5324408554,0.3210874602,0.1784469493,0.0154099085,0.1480960325,0.4223833289,0.4602779596,0.4195041826,0.5014674553,0.5505118351,0.6919649006,0.2077815859,0.4641120087,0.264053184,0.100178573,0.1070122223,0.1981334811,0.5580915627,0.5394029159,0.4999094449,0.3731578248,0.4008364323,0.2447512364,0.3639098119,0.072756479,0.4406008493,0.3136300484,0.4261634383,0.4118581067,0.2170040879,0.0142293728,0.6661332139,0.2735300342,0.1115274607,0.4269981562,0.3222553206,0.2020577986,0.3583337852,-0.1103474395,0.6814468462,0.2034501734,0.5680740917,0.1097639262,0.209594987,0.5753771613,0.2156583817,0.1249725132,0.0139869675,0.118922685,0.2294956849,0.5338761416,0.6102260135,0.5640580791,0.0047344202,0.0034693981,0.0673059666,0.4441341759,0.0141788011,0.5804075109,0.2243635798,0.0489687408,0.5091464786,0.4924415324,0.7070979384,0.0882681885,0.3679536568,0.0457856585,0.1952246746,0.6564197291,0.0289389512,0.2654238698,0.4966966986,0.5183155567,0.5662806115,0.1399841931,0.0879744651,0.2882655536,0.1760306465,0.5230811954,0.073311876,0.4127831823,0.167040005,0.5072983131,0.3818396212,0.253649199,0.3119833142,0.4886815946,0.6433633883,0.2321337265,0.2058893374,0.2387749824,0.1025183048,0.1411326851,0.4087320699,0.2873765092,0.5149030731,0.186385065,0.2654981477,0.325438929,0.394609329,0.2270080916,0.5397364748,0.252700351,0.1582137459,0.4306816708,0.0915432503,0.0878963995,0.2224668902,0.4083928683,0.5589174928,0.5788165872,0.2313783504,0.1860499715,0.3610053363,0.225867225,0.6697279606,0.4640515997,0.1854793157,0.5539022409,0.102042959,0.4313032865,0.0652899558,0.3566272697,0.0854584888,0.6326516435,0.4950137778,0.4245146248,0.4155625621,0.4773584652,0.0897888513,0.5389250983,0.1059279903,0.6792094493,0.4553133971,0.4242834572,0.1888397305,0.1732701202,0.5099834268,0.0439428759,0.4449545742,0.5864328424,0.3598893087,0.1341101893,0.6811631803,0.5719365777,0.5123303411,0.0762881415,0.2452512601,0.6937244845,0.2580299351,0.2361681092,0.6533545429,0.613952996,0.4824097626,0.0902336201,0.5937759416,0.034773854,0.5037625868,0.7097920482,0.0514451644,0.0241159386,0.3695576078,0.2686784988,0.4504889728,0.2549481194,0.4798839957,0.1814994479,0.1375281642,0.5522298812,0.3537445932,0.6106149468,0.6366049537,0.679940381,0.6702904673,0.4839923782,0.6744678107,0.6575059505,0.1780425976,0.3240214507,0.3482484217,0.3028060537,0.0603152069,0.0171788356,0.693142067,0.6961268294,0.6113920597,0.6914924657,0.028823961,0.3649516663,-0.151188747,0.3794148797,0.2067610222,0.3597286838,0.5779957284,0.6048843151,0.6460116364,0.7017324637,0.3772133326,0.4157663847,0.0748768997,0.4751955305,0.3544844673,0.4240216923,0.605473647,0.601468606,0.6913799404,0.4941444967,0.3251494939,0.5542046404,0.1235519469,0.6916627626,0.6651201883,0.4021153262,0.5282216769,0.5903007039,0.4561540322,0.5606380987,0.2661832837,0.0201874819,0.030208054,0.3253032498,0.3958567775,0.6231008046,0.6080410064,0.1286367357,0.3755928944,0.7102371567,0.0239998194,0.108742936,0.3128394624,0.2010532702,0.4860243168,0.2635875625,0.6751367852,0.3390446906,0.152939024,0.7024404446,0.4182807255,0.5820594448,0.465647178,0.6182025782,0.5112729439,0.4338507513,0.6405834197,0.5838910005,0.3760962745,0.6549208142,0.4000790218,0.4644215915,0.380561345,0.145171926,0.504605663,0.2628866234,0.0709915191,0.2242687839,0.6009920598,0.0902295309,0.4102719013,0.2802813872,0.4970480118,0.6544217362,0.3399620859,0.0934189247,0.3809330774,0.2821310976,0.6058960581,0.5388121199,0.1534908792,0.0298005313,0.6847963936,0.5689741374,0.3257675607,0.5732574271,0.1196157584,0.4277266026,0.6371372525,0.0614330805,0.2137620817,0.2553545397,0.3206712008,0.2394051385,0.3878329756,0.1077342191,0.5322470667,0.6328412184,0.2052598457,0.429936092,0.565182655,0.199065521,0.0438630487,0.2315002603,0.4547236184,0.1185654148,0.0124470833,0.0971593309,0.4563965585,0.3158657508,0.3122439012,0.44740249,0.3287073616,0.4160022665,0.6184365523,0.2108819864,0.1673996667,0.352116274,0.4250200748,0.5142404939,0.1525374284,0.6579284824,0.4053981112,0.0432159098,0.1813342172,0.5484065824,0.4111165463,0.313513953,0.5667978369,0.4287391242,0.0298760687,0.0547933228,0.0489463844,0.5674958819,0.5389782156,0.4285317046,0.1765113812,0.316708594,0.5686296767,0.5880234763,0.6155608902,0.0101237476,0.6783461116,0.5558647647,0.5149179298,0.5650740386,0.1256146745,0.6228627797,0.3081275254,0.2038600093,0.1520176395,0.5259883596,0.154260265,-0.5316949279,0.1704591515,0.6442657172,0.1886293852,0.1130436395,0.6848600193,0.5748997513,0.369484728,0.480956743,0.4661928832,0.2827372999,0.1295011567,0.3127032633,0.4253155895,0.321850975,0.5212942324,0.1183798578,0.054168577,0.1307376797,0.0647954946,0.3986406413,0.0102432578,0.6080431613,0.4155955137,0.2451911993,0.0779656278,0.4609819703,0.3328114015,0.5851680122,0.5283310474,0.1824704136,0.2754801452,0.2690699401,0.1663959957,0.4477978425,0.1343203657,0.3989806395,0.6542506438,0.1105824481,0.5081967689,0.2699412074,0.3453676286,0.6649059637,0.0845008537,0.2512005637,0.5465530517,0.1538298517,0.1856931843,0.6505228945,0.1371073493,0.2373057581,0.694272572,0.475283962,0.5374047273,0.3412323621,0.6895126397,0.6019764971,0.0724020927,0.3150704289,0.1157264692,0.6166882156,0.3579177891,0.5639075397,0.4660278722,0.2232507988,0.3491897953,0.5686737683,0.2544305735,0.1090559196,0.2940981856,0.1263054831,0.5425027435,0.4153767008,0.6154451964,0.3549376164,0.5428733865,0.4654503198,0.2324231541,0.1988215373,0.550778092,0.3150568008,0.055076635,0.3170122131,0.511123087,0.5188725346,0.4351141183,0.2804303973,0.1372051853,0.1999317976,0.0216306567,0.3698584105,0.3171733671,0.2025200293,0.5046823946,0.0940321723,0.4283941119,0.3509358048,0.144326763,0.7038559213,0.0590557949,0.0653485757,0.1567594098,0.5792921847,0.6902316415,0.2822680908,0.5250856169,0.5316305371,0.6971558056,0.4493449385,0.1768961808,0.202835951,0.159790183,0.4677487493,0.0697714593,0.5109039873,0.2854620263,0.52915385,0.5159109948,0.6715904144,0.1785351936,0.6317513448,0.3591823113,0.7139849056,0.1964230919,0.1054139567,0.1023004176,0.3177580703,0.0980640964,0.6633559583,0.2299802409,0.0707884634,0.6845953655,0.2733804676,0.6591757501,0.6346749928,0.1172990654,0.1864795142,0.0178731047,0.0838658704,0.3611684404,0.4271149492,0.2014530896,0.4316386656,0.0058355702,0.6121649264,0.2865204695,0.6322838188,0.0893647444,0.0386075326,0.368594472,0.7056387372,0.5780599385,0.192805916,0.2241906797,0.6654370205,0.6614738297,0.5568852911,0.4840590769,0.5369631771,0.3505208494,0.2030841131,0.0609709055,0.4284377347,0.7115541932,0.5094040081,0.2002458764,0.1875236371,0.6832440034,0.7158699695,0.1427007678,0.6287027746,0.5447804673,0.4150546444,0.2153069691,0.4892534566,0.4021133214,0.5504692965,0.0049455806,0.0641853058,0.1536012537,0.123964623,0.4368873759,0.4318672438,0.1509014238,0.0780309254,0.3874982443,0.6436143869,0.6124374481,0.6279467062,0.6278641812,0.3167244214,0.3912894139,0.5593428755,0.4003602061,0.4266071442,0.049187046,0.2642721121,0.6688469096,0.5424611582,0.2664333672,0.03527312,0.1080353512,0.6610327325,0.4013074944,0.3402593852,0.6462370771,0.4911350731,0.6393704508,0.2761271955,0.5645253881,0.4242879779,0.642815257,0.6934077636,0.2184367303,0.5383316723,0.4449597886,0.6001156913,0.619393548,0.1668608286,0.0555546024,0.3928404996,0.2878885502,0.3081916334,0.6885608107,0.3030008249,0.27874376,0.4824665019,0.3790135628,0.6484742594,0.3945433313,0.1865502946,0.0274079855,0.0714760664,0.683245362,0.6155943619,0.4735303277,0.2789601303,0.6192149867,0.5577000656,0.4006913152,0.2117825152,0.4697438871,0.4869099031,0.6719881816,0.5362726007,0.6881316943,0.6931573573,0.687205382,0.4873913843,0.0557983886,0.1545404405,0.2435544935,0.0241237425,0.6608359706,0.3803501155,0.008422265,0.3859005349,0.4803470343,0.0096089432,0.2973631906,0.0590170931,0.3750730738,0.5744644382,0.0596657065,0.2963573109,0.7100735542,0.370850617,0.1913843994,0.5434093401,0.6019099625,0.662069637,0.0455604726,0.5180492032,0.2342644686,0.6247845316,0.5364830547,0.363702516,0.2305295897,0.2241625469,0.0711279036,0.5392699327,0.6845607033,0.0020411528,0.0165535215,0.4463314446,0.091585266,0.0447501671,0.5914374662,0.6892589608,0.2415695866,0.5171635838,0.3944352615,0.3048035308,0.4362543246,0.1593939713,0.307990274,0.5020180206,0.4722834142,0.006654027,0.5045881562,0.057586023,0.0871798017,0.488644824,0.5621253109,0.151232358,0.0730860077,0.2135042761,0.366100899,0.1404398209,0.5895171914,0.2292161492,0.1644188194,0.2239462501,0.4008788856,0.5594953462,0.398224239,0.1634561081,0.1304547733,0.480113691,0.0385051271,0.645464348,0.3380774135,0.3569370202,0.2717320617,0.2119568952,0.4563165729,0.189753398,0.4959874368,0.2127515314,0.1228424259,0.1874900702,0.2207878721,0.5493497766,0.4103834654,0.0799004457,0.4823793931,0.6821557929,0.1627325748,0.559055356,0.1238337881,0.4133712479,0.6963974625,0.6138245566,0.5093650237,0.1006492399,0.0404018616,0.5380493341,0.6456336359,0.4768888355,0.7140674365,0.1339657212,0.1989204225,0.4677402664,0.3406009177,0.4038200788,0.329371439,0.2204364069,0.4396922092,0.3220808313,0.1835621512,0.6360091324,0.568591026,0.6030657534,0.6315297864,0.6802786451,0.5725081981,0.0819864238,0.5740228694,0.5036339715,0.0252942855,0.4972272175,0.6953712077,0.590916418,0.6562484004,0.6887774348,0.132110751,0.0518083706,0.5345183402,0.1018841906,0.2026515491,0.2683568864,0.5265127634,0.331815902,0.6613109781,0.0016654933,0.1555883165,0.5478752586,0.4362203246,0.6941165055,0.4250061641,0.27992765,0.102070893,0.6810314058,0.5149661375,0.5306270715,0.6744275216,0.3384140847,0.6273254706,0.6643511297,0.5794397437,0.3689792036,0.3385152087,0.3665461248,0.0425928026,0.5892773563,0.2561525515,0.3471512212,0.068947377,0.4838988792,0.5433278259,0.0932973265,0.5656115046,0.1870580543,0.4055352322,0.4458930707,0.0139647719,0.0694753616,0.4783246439,0.704885183,0.0094905975,0.5692064074,0.6935898019,0.3437594087,0.4994460571,0.2187742323,0.3576699701,0.1293022807,0.0715350396,0.4782139801,0.5899527054,0.1944394269,0.6849902972,0.2720282298,0.4821350341,0.3157287854,0.5932249775,0.1263401642,0.0007475125,0.1550899059,0.6808045884,0.0323375401,0.2555685564,0.0869943587,0.1251044686,0.2363780385,0.5244246667,0.1209360145,0.0507859192,0.4687288905,0.2660923009,0.2699123885,0.1771103943,0.4219781414,-0.6645770639,0.3337277846,0.4417972861,0.280480356,0.6638551584,0.4211210355,0.2700067989,0.0639168476,0.4201327212,0.3995689225,0.0282349591,0.3549899951,0.341836729,0.5212442419,0.2348828094,0.6532474291,0.370544161,0.6415235287,0.0138017755,0.2349383685,0.5390135102,0.1483430837,0.6842888734,0.1879611835,0.577907316,0.4042270589,0.4194295544,0.6959044506,0.6186409901,0.3978440686,0.2750849958,0.7153599291,0.1398758952,0.2108695717,0.0110442961,0.5129951485,0.0007438451,0.1840332322,0.3435194886,0.2436547326,0.3294628561,0.0967419205,0.5969529145,0.6280714229,0.2807617072,0.7081362378,0.4781636933,0.0831241237,0.3492553461,0.0194462452,0.6267643565,0.4574253816,0.653432672,0.4731591195,0.6863321919,0.0520648715,0.658689766,0.4328406659,0.6653735522,0.346012861,0.2069366491,0.4865208226,0.2226898053,0.0498117823,0.7019575342,0.4046607072,0.2172367337,0.4542979861,0.0321342811,0.5561545698,0.5845194213,0.0795336458,0.0130666042,0.2217622749,0.4269583607,0.696187666,0.37852856,0.4046048474,0.3207600856,0.116506446,0.1122498598,0.2094619905,0.4333727346,0.41330996,0.186936666,0.6559281533,0.5826542083,0.3010077921,0.2978006887,0.1228014232,0.6556600731,0.3019790389,0.0615925522,0.3391703879,0.0449466273,0.0684199014,0.514048163,0.3582411345,0.0617554325,0.5301004375,0.6143587825,0.3019728614,0.3553432176,0.0387820805,0.2083784023,0.5504268978,0.5212244839,0.4311596027,0.0279490104,0.5623312044,0.1476248993,0.2370067571,0.2256631543,0.6409897726,0.0940436676,0.5631199428,0.1758470255,0.0631152589,0.5998666822,0.0332024529,0.5228321415,0.115237799,0.1762898055,0.6602532876,0.7057763094,0.2194041137,0.7067957914,0.0831448775,0.3785156294,0.3138239995,0.5023536456,0.2416070636,0.0195924037,0.6904938414,0.4163680262,0.0227864214,0.0435492314,0.7157139215,0.40459079,0.2764358734,0.0410625862,0.2440939878,0.3954359301,0.5404224376,0.0874456446,0.3318408898,0.6611428832,0.409536695,0.7025923177,0.6400003364,0.2489342782,0.024623367,0.150457727,0.6397049761,0.1623576185,0.5126683595,0.0275426833,0.6534723156,0.3370742689,0.1055340382,0.4114949246,0.6354635071,0.3465732599,0.7040358027,0.6383128695,0.5792481607,0.409072712,0.5436438143,0.0482250243,0.5972860425,0.5372818722,0.4188169978,0.5115639517,0.5491662193,0.4957061385,0.2048068489,0.3862896324,0.6389126031,0.7060796569,0.2931086675,0.6291801593,0.6860985134,0.5795524861,0.3898582971,0.4450408656,0.192538866,0.0600278298,0.4468627959,0.6054064235,0.7136130638,0.6089843166,0.1471577189,0.6288198699,0.6808071928,0.2343888605,0.2514786074,0.2135491202,0.0756499995,0.4606100027,0.1133005181,0.4647238716,0.6749862136,0.1658050164,0.4724627206,0.5117148638,0.6348536419,0.5320767505,0.1019363776,0.2279439735,0.36828467,0.2019160901,0.13489617,0.098335646,0.5137786846,0.2141439147,0.6044342919,0.6066802922,0.277343116,0.2183323931,0.5079307628,0.6434319412,0.5633947232,0.6638437928,0.4423397224,0.2467119112,0.4995970429,0.4727211706,0.4342140902,0.0681636045,0.4090285305,0.3982148968,0.6747475324,0.258307747,0.1351933519,0.5579873916,0.7090410783,0.1378075721,0.18300603,0.0715070866,0.6468045234,0.4749570125,0.5375914497,0.3080549233,0.3949080386,0.3422037865,0.4375790553,0.0181982135,0.1454012924,0.3447089204,0.2657009328,0.2375549867,0.705528359,0.2834104372,0.4452871356,0.7064966271,0.2404594012,0.4093100725,0.2066016844,0.346254335,0.0042205263,0.60343269,0.1903592817,0.2614336059,0.1759404806,0.1044148992,0.3794812095,0.2202236527,0.0812812382,0.145118264,0.638873672,0.4190288733,0.0978884815,0.0020944814,0.4819134556,0.6951489288,0.4127555527,0.2017030225,0.4199529152,0.4659372989,0.294410827,0.2712208607,0.4887317716,0.4384083724,0.3321838884,0.224297224,0.5095466891,0.1776169574,0.2559979447,0.5735048915,0.269159175,0.161651232,0.1063786066,0.6157317255,0.0364113851,0.1557884002,0.4769937224,0.6083430637,0.2487961519,0.1320432223,0.0053077447,0.681617447,0.0310322465,-0.1409847183,0.3703186248,0.3701428741,0.683399714,0.6407223418,0.6411283184,0.1672263853,0.3646325154,0.5021551014,0.5114149574,0.1901550277,0.3622716613,0.1372277379,0.666503657,0.4954470211,0.2263991597,0.5548748961,0.2871266217,0.7043455095,0.133376705,0.4525504011,0.1053899074,0.0916747787,0.4647974838,0.0107176064,0.3679043555,0.2182874835,0.5660087566,0.6843735985,0.3824844122,0.6068486878,0.610899736,0.66385408,0.5552894671,0.24901953,0.1318368403,0.0584367143,0.13975252,0.204339703,0.6171729078,0.2805774954,0.6247137382,0.6124298641,0.383357344,0.3985285848,0.0329148852,0.1886012863,0.4484021269,0.199453191,0.2110693729,0.6028658075,0.6859261975,0.5976356403,0.6130685282,0.5677399879,0.5052008882,0.4469615753,0.6777922635,0.0496946625,0.0667736639,0.4854115643,0.4712846028,0.165526963,0.4203150518,0.3330571881,0.7078627103,0.0797056755,0.690888914,0.2217446747,0.6617049701,0.2982530905,0.3585185141,0.4910062369,0.378089042,0.2404022458,0.225054628,0.1339930461,0.5659550676,0.281746095,0.5457875716,0.2217519688,0.4951653276,0.1457400946,0.4342907049,0.1565659746,0.661161477,0.014462019,0.3246679616,0.0386510641,0.4289392018,0.6719582155,0.1056437691,0.6857260715,0.6187482468,0.499532428,0.6696928652,0.5947619376,0.3203094299,0.0881963309,0.3120427135,0.1396608009,0.0670344351,0.1035806605,0.5965900466,0.0501303079,0.3170768463,0.0307370411,0.6153183677,0.6474459345,0.5210905221,0.2741451534,0.1555878961,0.0239831994,0.2460615919,0.3273469732,0.6037381472,0.0859622914,0.326858372,0.6774881389,0.0387947836,0.1711102832,0.2629811836,0.0807715367,0.4161940323,0.6316557499,0.5269073211,0.6467365943,0.7159423071,0.6856245183,0.1404475907,0.0907955791,0.4795936889,0.6283115676,0.1441452206,0.6822153454,0.7152647774,0.1346024729,0.2052283237,0.0288114524,0.5401581559,0.3250943468,0.2844692121,0.5032871878,0.3059063324,0.5111132313,0.6375577149,0.2698139474,0.0042967497,0.2577145789,0.2644243203,0.5840877658,0.2876279411,0.6434180555,0.2034887707,0.5707562846,0.6121250149,0.4549467299,0.155727689,0.3510289674,0.469409074,0.2133477305,0.4005119544,0.4674444026,0.3991028552,0.224513578,0.4486909175,0.2147291136,0.7135321138,0.0128099399,0.6649514094,0.0521221414,0.1392739425,0.045116175,0.3531294984,0.4206839501,0.522609065,0.4305708169,0.3888992439,0.5389590688,0.0358203389,0.0752652209,0.4906409484,0.5088757899,0.2583918868,0.6962630303,0.5215795005,0.0031252721,0.6335756139,0.6701244664,0.0677493111,0.2821144175,0.4149205345,0.2792403552,0.5824847398,0.3131414446,0.1816835306,0.0332323972,0.6086670864,0.4690925571,0.6328067969,0.2521498798,0.657286307,0.4559751964,0.3294153566,0.0948537097,0.1746439762,0.474335886,0.5450755278,0.4965613344,0.1370898508,0.181181654,0.3859160795,0.3731011875,0.5746240099,0.5619883115,0.6283714977,0.6760712635,0.0147695931,0.2693073597,0.5939581581,0.5889181938,0.0793736121,0.2015823913,0.4582432678,0.236850823,0.1570454101,0.5363859234,0.49414078,0.7031485159,0.7154096529,0.1127296263,0.0861916976,0.6646531813,0.211676718,0.0178296304,0.3107821446,0.1124839538,0.1724102274,0.6604834229,0.0912497629,0.039180625,0.508672482,0.1532044427,0.0413764053,0.6909451404,0.2629379533,0.5969385037,0.0451970578,0.0458884728,0.6779307112,0.3321453984,0.3688998219,0.468553591,0.2069193744,0.4118972488,0.3710120783,0.6775627552,0.4594587015,0.3263449396,0.6196512199,0.4469308547,0.6927796881,0.6373893826,0.2795529065,0.3561918,0.6676982909,0.2266410225,0.4751313406,0.1357008847,0.2904025279,0.6231787331,0.600743751,0.6108921767,0.2828917132,0.0065259879,0.3379334696,0.5234624772,0.064154407,0.3020823333,0.0240584094,0.4041483184,0.6831964334,0.2712238124,0.4797868511,0.0718084986,0.6619097796,0.0810292188,0.4458973043,0.1138227769,0.1484109489,0.1058845969,0.5993856475,0.3797820026,0.0700331011,0.5742054277,0.0167249722,0.5270557339,0.6102785759,0.0108581174,0.483771874,0.065721323,0.225907916,0.4300760247,0.0342835984,0.5780200699,0.5758584381,0.0103251367,0.6956772738,0.2635237927,0.316950631,0.1929196114,0.3641284974,0.0184671073,0.0710038185,0.1793867399,0.2745098887,0.2854798109,0.0798204743,0.2993768983,0.2251469305,0.4179478613,0.2532041001,0.1608030421,0.5472988943,0.2793507849,0.1781793659,0.3792382114,0.6271666436,0.4247804052,0.3169348319,0.5542649572,0.0810753693,0.4213616736,0.0410137272,0.3487333152,0.3335434078,0.3186891165,0.5837150179,0.5883224606,0.4947636773,0.2108365187,0.6902854325,0.0405100398,0.0302149215,0.4586078506,0.4818858501,0.6402354886,0.2814543413,0.5083983433,0.5353507614,0.4418183433,0.6346649576,0.3013186183,0.4835425231,0.625732134,0.246515684,0.0331635455,0.5135227868,0.3349829236,0.6503962402,0.359193361,0.4936069153,0.4748714788,0.1567653988,0.1474903453,0.1384878584,0.2421114922,0.1973084023,0.3239594951,0.3402471217,0.3400517128,0.6310969436,0.6883642272,0.4725540611,0.3230451989,0.3751889907,0.6477739674,0.3598274515,0.2338565576,0.3155468244,0.1553459879,0.6147706861,0.6348682013,0.046231114,0.5313042845,0.3570616621,0.6539817901,0.478730352,0.3036455851,0.6288696726,0.6073542904,0.3431957101,0.4587402171,0.288434774,0.3779703264,0.3105430738,0.4684034424,0.2340198168,0.6551383264,0.194978565,0.0457240189,0.343442392,0.2180031574,0.7032583625,0.5220738239,0.5736346289,0.3766296781,0.4188360796,0.1088228453,0.4613932179,0.3301883792,0.32985319,0.5322374122,0.0177692967,0.6827673069,0.6738655971,0.5669892435,0.6162531817,0.6188856477,0.3990434193,0.090938952,0.2624716902,0.4532995893,0.4941223328,0.1861361167,0.6522184004,0.5389758879,0.0363611244,0.0129757422,0.1822004892,0.6555612337,0.6143874082,0.3859457498,0.3190406507,0.5631346031,0.3240942205,0.4466671675,0.6764495434,0.1386148722,0.078946836,0.5284111056,0.6181109903,0.3567790164,0.6029033652,0.5946927649,0.3337904176,0.4153039012,0.2181731584,0.0391940598,0.5433407842,0.3551838422,0.4055605084,0.2521828583,0.0646947287,0.4825736681,0.6976081471,0.4992571955,0.5336770783,0.2454350788,0.0574372995,0.7054995622,0.5471211871,0.2339221525,0.182682252,0.6531810512,0.6827319599,0.5729037733,0.1314317443,0.617969737,0.6119223987,0.2808581594,0.2677616778,0.1610919785,0.4222409805,0.2442212036,0.2345376216,0.6530382853,0.1753396281,0.603692144,0.035831799,0.4250461448,0.2676558275,0.1214661523,0.3568077628,0.4357467431,0.3754896674,0.0519626964,0.1679808146,0.7051352452,0.4090888338,0.323010888,0.6230001333,0.5229746925,0.6518570131,0.2696930573,0.4284324416,0.4319426556,0.7130552033,0.4669749961,0.5279375526,0.3314164508,0.1029600973,0.6382685718,0.6954821146,0.3200254729,0.3735110186,0.4104742547,0.1432542627,0.2663217635,0.4794682968,0.2364569244,0.6161719291,0.2662682762,0.6903791339,0.6505161952,0.27875288,0.1951391071,0.2553979109,0.4750883975,0.6387723743,0.4078028896,0.2121759025,0.3689120792,0.3242160845,0.3276881795,0.0714048751,0.5171571836,0.3841715274,0.174520873,0.1770958036,0.4797330178,0.6489609359,0.1997908658,0.6930378399,0.6872580198,0.4217893321,0.0797174112,0.3803901453,0.6729867708,0.300045524,0.4083911124,0.3134503956,0.1952109961,0.4522334202,0.0568600966,0.6943904068,0.3809512853,0.3570221326,0.6816433718,0.4245101973,0.3879782858,0.4058085726,0.615459561,0.0667771751,0.4845882607,0.3028190863,0.6372375247,0.2640753835,0.3471120763,0.5468633644,0.4616757694,0.3548584318,0.2647684909,0.1393643226,0.2996278792,0.2399924401,0.2978482737,0.4209157701,0.0481713731,0.4745648937,0.1678835418,0.1383383849,0.1942013644,0.449538154,0.2740133345,0.4892412542,0.1100711922,0.0781727892,0.3023850079,0.3101944843,0.5610301226,0.3987714126,0.2125819089,0.6843233238,0.519543883,0.4734214332,0.115451628,0.3802230046,0.3122428636,0.595557414,0.0676823885,0.6139991373,0.3267753216
   0.5920545449,0.0377747404,0.3176209595,0.1587572779,0.0595082778,0.4231357311,0.5896367473,0.6450506039,0.4347896783,0.0885863821,0.1178548306,0.1379927291,0.1745705612,0.4933724937,0.2543092992,0.5019712764,0.1633527379,0.3073631088,0.0516781735,0.5546426825,0.1130092675,0.3740657644,0.3195953729,0.4449473227,0.4272990021,0.5482291495,0.4730914149,0.2729077766,0.7091574198,0.5100442813,0.1535224102,0.1187209936,0.2399077618,0.1604112701,0.1545747771,0.573634043,0.010469735,0.4484355615,0.4257183414,0.1235067139,0.2020577486,0.229621418,0.4929338222,0.2516244061,0.6450119196,0.2952893048,0.6562877253,0.5003505393,0.1389516309,0.5192855527,0.1551774519,0.1366907429,0.231942098,0.6451987382,0.2097207555,0.5733640354,0.2871763422,0.211773256,0.1589038942,0.1182723144,0.6062999056,0.2915477128,0.6681649751,0.4052851841,0.1751500974,0.3235490242,0.3970666579,0.2841717397,0.4165058158,0.4744854299,0.120091593,0.1817858127,0.0648180663,0.2495498571,0.1949431575,0.3739155732,0.0419831487,0.5157251924,0.5146355881,0.3753973286,0.1009816884,0.3172439334,0.6968692962,0.6857653445,0.5691178475,0.3838463918,0.6893285898,0.202069424,0.3211586167,0.0748266365,0.0285520168,0.5414025957,0.2223525225,0.0916599273,0.3947513172,0.1670530901,0.5996788915,0.2535564633,0.5598079185,0.5459436793,0.381252103,0.1909881893,0.3048155205,0.4780432247,0.2336118932,0.6417264486,0.6474328374,0.6810486259,0.6419514971,0.4472416781,0.4384256627,0.2237750898,0.6846219606,0.3628337918,0.0637842803,0.2583829052,0.5572570373,0.2923609803,0.7116583884,0.4706705624,0.4317550561,0.3790934426,0.2637134542,0.466153655,0.2190787492,0.2983094092,0.0595734691,0.1000083534,0.6015064368,0.6523089009,0.5955507845,0.4659687321,0.3339096461,0.6695127665,0.0721757863,0.1429248684,0.3296013413,0.6703541817,0.6067753481,0.0534514237,0.2969279303,0.3183094481,0.521926136,0.4603492768,0.3156350931,0.3764532085,0.543156034,0.6607890453,0.0692350701,0.1645655541,0.7109400616,0.4290047612,0.2305262727,0.4700204832,0.3458401782,0.6911026767,0.1648461039,0.4896408346,0.6207628756,0.4840776304,0.3366758834,0.095015792,-0.0503733865,0.0336914048,0.642337181,0.1163957772,0.1581493583,0.4387462307,0.1953318317,0.2127613507,0.1278101396,0.1480056435,0.4637527659,0.6333086904,0.1100685807,0.1593258401,0.1731092436,0.2565237002,0.1471098102,0.7133958154,0.3073122117,0.1155416379,0.3984583219,0.0583967529,0.6058549421,0.0326561137,0.2471436533,0.2424021427,0.3508397256,0.4609324136,0.007937887,0.1901467754,0.084656103,0.2533321267,0.2513657012,0.2613298196,0.253939442,0.4858846573,0.1400018856,0.475554436,0.507373141,0.1420316718,0.7015210153,0.6045111913,0.6372135467,0.2471279714,0.0673675858,0.3091105079,0.3853264642,0.0350253937,0.6535201231,0.1263795535,0.0960483573,0.3891772185,0.0431629072,0.1802951624,0.5228272227,0.486751845,0.2282384609,0.3372180431,0.5620955866,0.4181711536,0.1219779719,0.4722096852,0.374793818,0.6925224005,0.6150244657,0.3016643611,0.128576261,0.0904962558,0.4093609481,0.1103316149,0.0998440187,0.4149255444,0.5553552319,0.0690043439,0.5091064183,0.2796297778,0.5863733748,0.5049043309,0.2249701685,0.0699453316,0.5887193659,0.0594329026,0.2643738203,0.3580254622,0.6059559185,0.5765987091,0.0236038059,0.5085087173,0.1334126733,0.0745000988,0.0760845371,0.518779872,0.2500046841,0.580640848,0.0289876138,0.6140743552,0.5696688925,0.5146848795,0.3669602134,0.1232617837,0.6587795277,0.4578834722,0.4363548057,0.371871202,0.5722286729,0.6181812781,0.5115788644,0.1060394905,0.1552637848,0.4996676108,0.0915196237,0.3567288335,0.4017337088,0.2496282618,0.3409073493,0.6084983105,0.1554239989,0.4085860251,0.2278822648,0.1053028328,0.1026265064,0.567041069,0.2822525415,0.5651420578,0.0733248268,0.3379397698,0.4575580323,0.3192015397,0.3383935522,0.5361631898,0.6757035422,0.0249261097,0.2421142367,0.341706456,0.2119373003,0.1892195029,0.2746010997,0.2768878226,0.7030656801,0.2951541947,0.1815595372,0.0594894904,0.3205015623,0.305124721,0.4746888934,0.3403483559,0.7076779598,0.4099760687,0.2062195703,0.3775510711,0.186294937,-0.4791398526,0.656834777,0.0458624002,0.1217604922,0.5550309036,0.4464953057,0.4684922988,0.2941193159,0.6969929242,0.5796728544,0.3019282645,0.2876686725,0.2221344862,0.6407720006,0.2115628971,0.2315663857,0.5523144214,0.4395037587,0.2929256632,0.4108238968,0.7038894785,0.5753228048,0.4041849419,0.4478216903,0.5495361814,0.4740302836,0.1107802854,0.0416409064,0.0838801614,0.4742730707,0.2063076135,0.1844957526,0.2343390524,0.032794417,0.0306071727,0.5474012716,0.6172230155,0.3362628297,0.1419789542,0.3551476641,0.3738419739,0.5113639081,0.6742870551,0.2477380257,0.3180519273,0.7048831931,0.2070494625,0.4930590901,0.3423078604,0.6609758189,0.0308969542,0.0059848275,0.0813315488,0.1053072807,0.3056857123,0.4775273681,0.482664824,0.5751927401,0.0942022082,0.228874609,0.6149320541,0.1903837513,0.0345860453,0.36417254,0.6156700918,0.5355445311,0.7031773341,0.3317940201,0.175067361,0.5746430076,0.2164234856,0.5252384676,0.1216761257,0.3623581197,0.3374431388,0.3999112402,0.1655397291,0.0685823606,0.3902378233,0.6122862277,0.223740644,0.5991132768,0.1402852823,0.6370893632,0.3078998143,0.3670643003,0.101338826,0.4510100525,0.3686608157,0.5893380725,0.1223480645,0.1315429992,0.1089704033,0.4217825017,0.0400723309,0.4444102439,0.5066207439,0.0774337372,0.0510916789,0.4830629396,0.0232568459,0.3518655177,0.1360722538,0.2626453351,0.5504268359,0.4715726758,0.2745536669,0.6727212,0.4811552271,0.5317071311,0.6433546483,0.5535204737,0.1026875804,0.3954249387,0.4869445092,0.1061661527,0.4943292421,0.0612106366,0.2433922596,0.1285184813,0.3571093404,0.0398499118,0.5759045978,0.5897149321,0.2063193333,0.2146201274,0.1307304898,0.100508738,0.6755780488,0.3950034611,0.6232112947,0.0778064104,0.1487504923,0.6809996936,0.1264232597,0.095575487,0.3605657119,0.0365015283,0.5120555868,0.3984936608,0.4200847163,0.4239002008,0.5044974554,0.4488789057,0.448128474,0.1104587757,0.5179535459,0.4345765759,0.6772881355,0.5322814338,0.3955040212,-0.4179924321
##end
biasActivation=0,1,1
[BASIC:ACTIVATION]
"org.encog.engine.network.activation.ActivationTANH"
"org.encog.engine.network.activation.ActivationTANH"
"org.encog.engine.network.activation.ActivationLinear"
