encog,BasicNetwork,java,3.4.0,1,1750017938529
[BASIC]
[BASIC:PARAMS]
[BASIC:NETWORK]
beginTraining=0
connectionLimit=0
contextTargetOffset=0,0,0
contextTargetSize=0,0,0
endTraining=2
hasContext=f
inputCount=150
layerCounts=1,31,151
layerFeedCounts=1,30,150
layerContextCount=0,0,0
layerIndex=0,1,32
output=0,0,0,0,0,0,0,0,0,0,0,0,0,0,0,0,0,0,0,0,0,0,0,0,0,0,0,0,0,0,0,1,0,0,0,0,0,0,0,0,0,0,0,0,0,0,0,0,0,0,0,0,0,0,0,0,0,0,0,0,0,0,0,0,0,0,0,0,0,0,0,0,0,0,0,0,0,0,0,0,0,0,0,0,0,0,0,0,0,0,0,0,0,0,0,0,0,0,0,0,0,0,0,0,0,0,0,0,0,0,0,0,0,0,0,0,0,0,0,0,0,0,0,0,0,0,0,0,0,0,0,0,0,0,0,0,0,0,0,0,0,0,0,0,0,0,0,0,0,0,0,0,0,0,0,0,0,0,0,0,0,0,0,0,0,0,0,0,0,0,0,0,0,0,0,0,0,0,0,0,0,0,1
outputCount=1
weightIndex=0,31,4561
weights=##0
##double#4561
   -0.2225005512,-0.1900090064,-0.1458916449,-0.3223455806,-0.2111892128,0.120317616,0.2047975011,0.3410418623,-0.1579258536,0.1945874066,0.1916657365,0.1495322639,0.19349089,0.2717206171,0.1009968348,-0.3283626625,-0.1755521448,0.1762460485,-0.1020903696,0.0631145849,0.2772780884,0.1620178146,0.0054476962,-0.0637379394,-0.2172528562,-0.1564484116,0.0252938575,-0.1102739751,-0.0929831708,0.1706956937,0.1942356529,0.2453878435,0.0351015826,0.6770262547,0.1176183868,0.7121529813,0.3336071899,0.3250936597,0.576801415,0.3255370718,0.2035809047,0.2453662293,0.179251298,0.3961076267,0.1603882554,0.4182832216,0.7050910268,0.4964600409,0.3471942946,0.3901846923,0.0945044131,0.4624619761,0.1230063538,0.3493537228,0.7022146916,0.6130988863,0.4393515839,0.6424678411,0.3080176191,0.2915677149,0.2893491791,0.2887346083,0.0377094418,0.1438396019,0.5114573104,0.2988847309,0.1558964698,0.5375326762,0.6425408368,0.1127915834,0.6246821765,0.541529437,0.0566962816,0.167222588,0.4887922477,0.3472310769,0.4995227015,0.3017242657,0.6721764677,0.0535197139,0.4014790659,0.2920422425,0.4165235709,0.3374025205,0.6128433338,0.1545869367,0.3896316642,0.2166724817,0.1398634538,0.2749245949,0.3711188157,0.3194703461,0.0263585963,0.5157010106,0.2016033367,0.1893444861,0.0184333957,0.2221080184,0.2348286436,0.1411999769,0.2662868314,0.4350834539,0.3356721123,0.2075242926,0.4560151504,0.319630844,0.4870447873,0.063698255,0.2838264652,0.526029362,0.4702468233,0.5513330128,0.5822538524,0.1080162057,0.2445372167,0.3632874955,0.0039531709,0.0651019773,0.5368890113,0.567390424,0.4756299571,0.4065690675,0.0982270306,0.0471618085,0.4439602914,0.268315478,0.0924689246,0.0147397948,0.0337383951,0.0824306696,0.441119041,0.2576637054,0.0773867035,0.5028149597,0.4256973394,0.4006703503,0.4872214425,0.5567653134,0.2316882942,0.4892685941,0.117542185,0.6683706164,0.1042926537,0.1135966566,0.6140019518,0.4202471796,0.4815819561,0.4432995819,0.6859564453,0.5303308554,0.4068621249,0.5229884939,0.1394085818,0.4055762113,0.4176456453,0.6147368798,0.1539627769,0.6064054294,0.3015061878,0.6156947019,0.6269400943,0.3329551044,0.5550071441,0.5270479246,0.1336728111,0.3011288733,0.481534998,0.7034136972,0.5074478916,0.6463852031,0.530056358,0.1005251738,0.5296779191,0.240735987,0.4844414264,0.4218286726,0.3139992695,0.0734767862,0.1751354256,0.4794443074,0.0916590879,-0.0014088086,0.5825290405,0.1973680366,0.6725754985,0.5210472217,0.0639722793,0.7041747579,0.1525707825,0.0239211793,0.3643908716,0.5494254364,0.2281780263,0.0173348062,0.2012064783,0.7031237959,0.0241929557,0.3347728421,0.0303483758,0.2627902299,0.3806909072,0.0077549573,0.1842265097,0.0286793885,0.0167334698,0.435467603,0.1740404953,0.2673483406,0.7047016765,0.6401431216,0.6552188012,0.5380139193,0.3965997208,0.3754053458,0.653809088,0.5088529732,0.5274383246,0.2173914492,0.5703272021,0.5112959362,0.641942753,0.3995946817,0.1008244636,0.3606505684,0.0600118606,0.1826600051,0.4319869354,0.0176489546,0.0375790121,0.0708970692,0.0148417749,0.4150514944,0.4593889997,0.2352265724,0.1050460283,0.5803550835,0.6916793533,0.6356861665,0.6523223242,0.4105164107,0.4557457246,0.1925394063,0.0770501227,0.1099665784,0.5114894569,0.0683555238,0.4535519014,0.0323999408,0.6125971159,0.383034805,0.5935586367,0.0310488162,0.1505734975,0.434357806,0.3731284961,0.6803927174,0.5166124103,0.0757738136,0.1359570774,0.400582029,0.4867908665,0.5776613348,0.4209690616,0.0414146076,0.0730490658,0.3078627747,0.3534693716,0.1274070114,0.3936661718,0.5595719627,0.0393213006,0.5125832877,0.4428669338,0.3001697984,0.5761932068,0.4168813069,0.4732998145,0.6407778916,0.6255149497,0.1059496999,0.580035863,0.3505738122,0.2846260662,0.2330678899,0.4943205132,0.652187495,0.2891332393,0.0125005626,0.0302852338,0.0257451148,0.5419810945,0.1616291534,0.5361754159,0.5650977602,0.0385277216,0.6577983676,0.5109670233,0.1088232246,0.6685875452,0.3336763724,0.6217567741,0.4093045408,0.3007976995,0.0840826318,0.19522738,0.0308589596,0.5829952097,0.5032265834,0.3731077845,0.2250523687,0.5143831246,0.1761143914,0.5736905032,0.2258140692,0.3356388611,0.4909050923,0.703506227,0.1765556015,0.4099663237,0.329469583,0.022078066,0.4955868416,0.1661253628,0.2319553665,0.6169629333,0.1460382955,0.0015953757,0.191496159,0.3107823676,0.5757484385,0.2297882419,0.0312946972,0.1733223421,0.0814752721,0.3547575081,0.2974983284,0.1281880972,0.594675028,0.3469712138,0.118311301,0.0767442964,0.3438357153,0.0590399393,0.1687692501,0.1119701953,0.7134776444,0.423454391,0.5729897924,0.0745959178,0.4366580073,0.7113732078,0.5438046003,0.1695744965,0.3883419929,0.6069711716,0.673649471,0.4355180209,0.1854820621,0.6479348044,0.63992599,0.7049709721,0.1527351123,0.3182804338,0.1914209641,0.6988467071,0.6402224244,0.3341562239,0.309495004,0.6681749106,0.1444690337,0.6553333028,0.6906123127,0.0175174602,0.0212725666,0.0302500976,0.4904205642,0.0174155329,0.5721926425,0.4267118615,0.5832505545,0.6060702005,0.0967103901,0.6410530683,0.2150975206,0.2884778723,0.212642655,0.6349158034,0.4486642228,0.4394198875,0.3600825382,0.715661266,0.0334265216,0.6160894773,0.5718028588,0.1419731212,0.1318267895,0.4130163714,0.1349345135,0.3843427884,0.5182250198,0.7006338636,0.2299973353,0.6248191639,0.3127212539,0.5495948047,0.39364964,0.5108081651,0.5950677788,0.1454918666,0.4474576791,0.684523752,0.6576518314,0.1448321704,0.3457937373,0.2967846143,0.2569017363,0.6687002588,0.7062907999,0.5344008513,0.2979487057,0.0156538261,0.7118477277,0.308696646,0.455630759,0.6818227035,0.1079695933,0.0569668351,0.213538145,0.3324564969,0.1877746256,0.0649656301,0.4650283779,0.0900001122,0.1130997515,0.4646743833,0.635709116,0.4709294748,0.5871335598,0.6467355118,0.5685673683,0.2142609968,0.1184855902,0.1300548702,0.5602910677,0.6359396569,0.4328285658,0.6226739368,0.0465515618,0.1381955658,0.1679964443,0.4800362191,0.0274598836,0.1841580733,0.0824084746,0.6291329561,0.0303023043,0.0908521833,0.4439463532,0.255648735,0.0409125159,0.2058106902,0.4703240496,0.2671437913,0.2430734199,0.3543571998,0.2114147687,0.1464417462,0.5746547384,0.4572670614,0.0646006503,0.4894021943,0.0022777484,0.2250055077,0.1652359563,0.6380147934,0.1968875809,0.257505075,0.5924649936,0.2131010768,0.518451744,0.4627613075,0.395463172,0.6890523882,0.467679039,0.5975219402,0.3394864596,0.3054338074,0.541852845,0.6154878808,0.4994610988,0.1661129763,0.6972840276,0.3775280858,0.5340726468,0.341734768,0.0508391174,0.1195321235,0.3011615042,0.0294454685,0.2933804709,0.7087204941,0.0346338505,0.609565871,0.1316373456,0.5679336858,0.5311213735,0.6358536849,0.7138416533,0.6015001835,0.1329535028,0.603131292,0.4925425835,0.2956906086,0.4981969142,0.1494972614,0.1545123481,0.1334697571,0.5920413453,0.3867651764,0.0761895653,0.5474013565,0.647329359,0.5690102893,0.2003697008,0.211696866,0.2044289513,0.7079049678,0.3649854056,0.3936346654,0.1441091499,0.4886923537,0.098704596,0.4138043934,0.6691052053,0.5928477989,0.3068268275,0.1251783785,0.184445773,0.4440336771,0.0610967021,0.1226959835,0.4746411897,0.5405736027,0.2061547695,0.3346115801,0.1046261513,0.3152435662,0.4812874926,0.3732833131,0.5434893826,0.2073416504,0.3474468722,0.2862763258,0.6603272295,0.0636496829,0.0403357562,0.6926150069,0.0420302609,0.2901193812,0.6650677413,0.416054896,0.2792310235,0.5251309877,0.0763012814,0.4499746402,0.1828991043,0.3842361139,0.3913638581,0.5655294429,0.449775334,0.6335130173,0.6158166372,0.5116208472,0.0882437024,0.6701599083,0.5931853861,0.2619252955,0.2908529275,0.3077438418,0.3508346086,0.4344876087,0.3989406667,0.2260104363,0.5449021404,0.5403750668,0.1725835755,0.0132932545,0.3298033619,0.383357271,0.6193141015,0.4709052516,0.0470581817,0.4681044553,0.2349578384,0.217452096,0.0332201801,0.573290704,0.1815456605,0.2852303824,0.2624407512,0.6617143484,0.0790617921,0.4813158204,0.335990778,0.3706799078,0.3952617659,0.0161616676,0.1179202232,0.6095012575,0.4929873916,0.3025702981,0.0208260506,0.0744679315,0.6211717503,0.3636854492,0.5388729595,0.4187632914,0.6617510177,0.7144284042,0.418115976,0.2462295785,0.6912311707,0.524780241,0.4701128483,0.6902166742,0.1863959098,0.0565136372,0.5200299111,0.1280882156,0.6688056651,0.0957713273,0.5738224555,0.2992835396,0.7084515863,-0.068310829,0.4561686357,0.0715840804,0.4935462516,0.2000229088,0.5955917266,0.3781460444,0.6176477795,0.0985864283,0.1206428832,0.2800256252,0.5593003243,0.0474746724,0.151251252,0.4746983382,0.3158942724,0.3516216348,0.3564333717,0.1281802117,0.5896583948,0.5966048317,0.1803659444,0.3895174121,0.1948292461,0.1932723485,0.6644333559,0.4271373074,0.505666372,0.3760393647,0.6875001746,0.4504110168,0.7003283105,0.0597807948,0.6150100099,0.1365023897,0.2927034181,0.3225661102,0.4425795428,0.1317425099,0.3719583463,0.5281049842,0.4643111542,0.5216045953,0.6630074184,0.0458894014,0.6108424799,0.1097748622,0.6506830894,0.5114297174,0.6606452203,0.5147425443,0.5305096312,0.3311276141,0.0024006847,0.4849168749,0.5257936239,0.0387721656,0.3264560984,0.295263382,0.485794859,0.4661790364,0.2709253617,0.2865180894,0.555908576,0.5067688692,0.2919317399,0.4611556271,0.4421665309,0.5577163632,0.1009544605,0.3802188336,0.310983603,0.0786877748,0.3830050531,0.0158036266,0.3691152085,0.250205322,0.6011654328,0.1752471669,0.4951528506,0.2336228386,0.352589789,0.1331079392,0.3961401907,0.4083013321,0.1827160744,0.7002240222,0.1655304631,0.6914190219,0.535131729,0.3525665947,0.3414860839,0.2926619873,0.45433508,0.1169630642,0.131101611,0.5849227546,0.6455312639,0.3873260514,0.3724889104,0.4930827964,0.6496145334,0.4782835754,0.0303052242,0.2490592874,0.6243703292,0.5083252373,0.3664339151,0.074293685,0.130153912,0.5450965081,0.5098136904,0.343911886,0.3392369183,0.5730478698,0.679837176,0.5966468026,0.1130278801,0.3841294896,0.4457693123,0.5214807545,0.3052086116,0.6587316345,0.6946282489,0.2145254947,0.5018322477,0.3756533391,0.2480595192,0.3959095779,0.413669175,0.2731375162,0.1978503642,0.528483324,0.3555709825,0.1335100333,0.3770976881,0.2945959456,0.2183245019,0.432654858,0.6924807033,0.2279050208,0.5319713341,0.2058869838,0.1147161779,0.6232672096,0.0110007984,0.0447584589,0.369055123,0.0898405602,0.5664032052,0.6537744247,-0.5746110092,0.4470813729,0.5084162713,0.0314536076,0.0911247279,0.1694299984,0.2184015323,0.4096766741,0.6015881321,0.3101165768,0.5052395118,0.3452770681,0.4344928475,0.0516351608,0.3800079451,0.2865600389,0.3479729538,0.5871037129,0.135337256,0.5561049587,0.3406202579,0.5383723411,0.0756955303,0.5940859466,0.5223430902,0.5273045794,0.5167508855,0.3922084436,0.3890337141,0.4918299653,0.0621018869,0.4121378611,0.2624123677,0.0979941241,0.4988439226,0.1953635892,0.0451182342,0.039654005,0.5381717483,0.2763123803,0.5896989106,0.52129073,0.2492458047,0.0968325993,0.5992135492,0.4726026935,0.506188401,0.071660187,0.1769500283,0.2462043282,0.4132134191,0.1705221651,0.0542688889,0.4875763507,0.1999403347,0.2519866412,0.4404812235,0.6036982503,0.6167003957,0.0386638148,0.2718337529,0.6602816473,0.5332949212,0.6537101859,0.0521344129,0.3984298986,0.0251157995,0.1832944819,0.4840696676,0.0456411919,0.3326686504,0.6811263518,0.6763225301,0.3683647513,0.5009391718,0.3041180659,0.2628103748,0.4929841615,0.0337270588,0.5499025707,0.6363885723,0.1308770066,0.3140364367,0.2153636602,0.603512961,0.6798914637,0.6952191094,0.438942207,0.2852141133,0.3546959487,0.6699119191,0.142054146,0.6505748007,0.4567524506,0.6241062864,0.0282290721,0.2127194285,0.4131605918,0.2652522342,0.4958905303,0.3113198123,0.3663755414,0.7068778598,0.0218659467,0.404229294,0.2514942572,0.5169878715,0.0343724857,0.213981737,0.4989592609,0.2393205509,0.3634355935,0.0340459774,0.442987785,0.3666855356,0.4959045222,0.3255023865,0.0148416185,0.2474485809,0.5352145682,0.3927758929,0.2712331666,0.025723373,0.6857934527,0.5122568782,0.0327666742,0.1566605689,0.2251150388,0.346759808,0.4244919988,0.6591487876,0.139296679,0.4937442259,0.0719329524,0.6032431801,0.2368075516,0.2052962272,0.2512775291,0.5257855099,0.4659821268,0.5006250057,0.4618792127,0.5949812615,0.1976849864,0.588176433,0.2732119116,0.4531421009,0.3539575111,0.4418950073,0.5667201633,0.3879675705,0.5205683284,0.3029589438,0.098844662,0.2424549882,0.159924733,0.4729702496,0.4126636152,0.1067060481,0.0217507024,0.4493782361,0.700321103,0.1325024476,0.1163142066,0.3406420702,0.6165941407,0.3749400915,0.1944776611,0.6598812074,0.0331961999,0.5136761476,0.6131541844,0.2884787154,0.4061839379,0.3955639021,0.2344131708,0.3945045015,0.0351029434,0.4470434983,0.1709761281,0.2683193747,0.6439606034,0.5976943486,0.0888083843,0.5974601802,0.6563014401,0.0407675803,0.2459272983,0.0288151739,0.2905019913,0.6424967295,0.3541153232,0.5144196808,0.0933799122,0.4032866068,0.657263077,0.4657774504,0.4229743097,0.7047297874,0.2469801348,0.322636926,0.349149173,0.2168720897,0.1793765651,0.0816953524,0.0652886556,0.691765819,0.4928053841,0.2782837691,0.1133424439,0.3579897974,0.6553399459,0.3800866075,0.4293306515,0.0249855298,0.5169308946,0.1520026448,0.2552143282,0.2124953976,0.5972174261,0.1904568346,0.1850875484,0.4051642688,0.5408583444,0.6645052267,0.6210934913,0.3419382286,0.3497865981,0.3781476948,0.2982128026,0.2047870508,0.6351275055,0.0286784157,0.4146380829,0.1651716297,0.5409328535,0.168452797,0.4015318317,0.2549055039,0.0067142489,0.2515426427,0.4693509135,0.1269974088,0.4742285674,0.2691142717,0.1715422816,0.6482961684,0.6129881784,0.4834274349,0.1125338156,0.0784824018,0.4272632898,0.0268207253,0.0115578526,0.6282174383,0.1054686734,0.4389014072,0.5125840193,0.6800284,0.2465386392,0.0164060229,0.1341624708,0.452092556,0.4599721587,0.1377145066,0.2097739941,0.1567767491,0.3209197557,0.2097323414,0.4978379708,0.6970076132,0.3037155333,0.6986494643,0.3470167952,0.4895597111,0.0892180818,0.6748299524,0.3662776203,0.6656578622,0.1435651988,0.6918384679,0.2331522822,0.2049291376,0.7009510948,0.6037083672,0.2621645629,0.6743459288,0.1439720244,0.2815337986,0.6087615589,0.6499254827,0.1518680209,0.3746395599,0.2576530014,0.2200611119,0.4611505318,0.5364123701,0.3106752896,0.3744911598,0.5104330922,0.6031014185,0.1739393629,0.6205664855,0.3830759388,0.3426128657,0.0897932258,0.6790580733,0.6430222448,0.5529051152,0.0553361001,0.2339954563,0.349318559,0.1786228767,0.0537448411,0.518206565,0.1224194224,0.0646726835,0.6499546709,0.2049489802,0.2818479767,0.0252423996,0.3013799867,0.4453373174,0.2748728611,0.6032372322,0.3346175211,0.3128022439,0.4910765273,0.5683820945,0.6137428514,0.485346573,0.2786196572,0.4508105564,0.0140530231,0.1281515383,0.1388432548,0.0584288524,0.2278727839,0.3499917083,0.6531368075,0.0288957081,0.618434652,0.5767574877,0.0612753833,0.3226915959,0.2531644359,0.1563545477,0.0622966746,0.3039012444,0.6059282149,0.693301032,0.5467629066,0.1179209377,0.2471253758,0.0598490811,0.7016540625,0.511286259,0.5294718249,0.0817286979,0.1830675318,0.0866824428,0.3946960813,0.238561261,0.6823348717,0.6147009506,0.6486533943,0.0132197454,0.532371958,0.2186901118,0.5789757517,0.4664373127,0.6002284108,0.6142411753,0.4495918836,0.4008879421,0.7095981193,0.5476554143,0.2868112667,0.2381406475,0.5441318265,0.1283561166,0.0500189583,0.5032699653,0.6418780111,0.1591979021,0.2570682159,0.4375913807,0.6034763958,0.1396795523,0.516121032,0.2081098845,0.616944919,0.3817376806,0.2988799604,0.5372809746,0.1893952457,0.4953077284,0.3162724554,0.4401211611,0.0540206133,0.3537926124,0.6816641537,0.3331197914,0.0248444303,0.6507728637,0.0185617088,0.223591269,0.5429978465,0.4144568374,0.242762825,0.2882496322,0.6056729047,0.4147080004,0.1209361764,0.2988317011,0.0542199998,0.1074309555,0.600793673,0.4743361518,0.6250396543,0.1136093115,0.6628315491,0.6713112198,0.2179792483,0.2356401203,0.3792094552,0.3614816212,0.1544314017,0.2435368298,0.0572503088,0.5766897154,0.5934345085,0.319124331,0.3045509562,0.6113909689,0.4929486925,0.7005590981,0.6007293631,0.1788857025,0.1188394017,0.0503292271,0.2925688373,0.1113832861,0.266868934,0.3165746353,0.6169180485,0.2692215423,0.3716925079,0.4832104094,0.1336675931,0.0364809901,0.6212678528,0.6915628602,0.5924771898,0.0146071706,0.056659566,0.4468929712,0.5088085066,0.3341461268,0.1331957472,0.4039762693,0.3230881138,0.5662302798,0.4951656483,0.3019099449,0.2971540568,0.3152930048,0.2163351343,0.3000242802,0.6085372409,0.614924887,0.0289566541,0.5320278067,0.1540627074,0.0399902954,0.05963051,0.1303777017,0.1806982458,0.3250756422,0.0489771457,0.5118418211,0.6905608395,0.1350130689,0.2959650006,0.628386877,0.1972430911,0.6054953517,0.5053359275,0.3018439342,0.4188557481,0.0712679805,0.4251068803,0.1937904387,0.1432593472,0.1897244565,0.4601677337,0.520389624,0.5256218205,0.4714838882,0.6017933751,0.2326546657,0.0211056034,0.4474481834,0.4030138701,0.0410114322,0.3315159948,0.0986046201,0.3658406326,0.605060962,0.661581093,0.5464224392,0.6361637942,0.4068382829,0.0560275588,0.4841444958,0.1731418384,0.0110369815,0.4779356143,0.1473883338,0.0407380938,0.5748841105,0.4210877858,0.1420767283,0.5577534426,0.3223220871,0.2994894389,0.3353925348,0.6051601459,0.3378503674,0.0619007791,0.5904905094,0.0149210644,0.6283948326,0.5623179199,0.4578691315,0.4678881605,0.2175701283,0.6689670228,0.0466166936,0.1465296551,0.544957219,0.6526593379,0.6715703667,0.2508725506,0.0869230689,0.301084318,0.140912027,0.158520659,0.4796799323,0.4664358237,0.503440974,0.2376119972,0.4164575986,0.3426623445,0.2671613348,0.6057445748,0.5238677483,0.6966262648,0.1987057131,0.4392030687,0.0864521757,0.4572099153,0.6954309321,0.6672195997,0.7030461588,0.4591318366,0.139630662,0.0583572158,0.6586563786,0.337557781,0.2101131489,0.5456463461,0.6506066466,0.1283572012,0.5693631853,0.4526356725,0.0316271624,0.5488857494,0.3702885881,0.5359956876,0.6974252975,0.2679584656,0.2135806253,0.6560408983,0.0452637526,0.4330026095,0.1541284923,0.2018390953,0.187821819,0.2538733495,0.1361830613,0.6682456304,0.3260661335,0.6957439785,0.2549408696,0.1902401374,0.0230453923,0.3527953733,0.1996039616,0.4905238972,0.2581901232,0.4484035921,0.3959055932,0.543825622,-0.6343558711,0.390897932,0.4745679423,0.2697788678,0.2105853013,0.2350724049,0.2640106757,0.4045352385,0.506222304,0.6524894632,0.2931994498,0.2328849941,0.3956075759,0.5622342972,0.6391908673,0.4186835496,0.4166331092,0.1738964106,0.0359552292,0.514741946,0.318346512,0.3874076591,0.6824655953,0.1168565255,0.2413591161,0.3778517597,0.1978181276,0.2087961704,0.5332119544,0.2188553647,0.4138269007,0.6564481407,0.6078501997,0.6229945949,0.0659060289,0.1023858242,0.5440380323,0.4052238908,0.5715823275,0.1943192933,0.5038286082,0.4601356118,0.3634189502,0.3004525539,0.6689294532,0.6758380694,0.0106734175,0.048174574,0.3051613279,0.3282880601,0.1696714773,0.5037606221,0.0497926427,0.4140445246,0.4271367391,0.0201628525,0.415548172,0.0119372996,0.1875485762,0.3228143467,0.3518618061,0.1306127542,0.2987361402,0.3153277711,0.6324247751,0.5781364937,0.2546496548,0.6380640808,0.3258464994,0.0853085103,0.4842900472,0.3490622435,0.5934038279,0.1703865486,0.1982463666,0.0659753644,0.5726750789,0.3454839788,0.6700893351,0.0764264002,0.6907598478,0.6738584967,0.5741364548,0.245251751,0.2765916313,0.5182384711,0.1941617379,0.0247616543,0.17857236,0.3933388548,0.6376334853,0.4772107187,0.194632297,0.5161428831,0.0117288122,0.0299221218,0.2548462165,0.0860833388,0.2961418799,0.7129467685,0.549081429,0.6308860355,0.2233179039,0.1633479178,0.3378729241,0.6255094227,0.1577662152,0.2405134152,0.694863063,0.1693281663,0.0124225138,0.2157110936,0.1579737269,0.5821802011,0.3914071543,0.5143488072,0.527262175,0.3451573172,0.4430855403,0.0400948876,0.1432256884,0.1225417407,0.2417273739,0.2977211453,0.3286804991,0.1634125485,0.2230969385,0.4280701416,0.2456634907,0.252399186,0.6629033046,0.1028932053,0.6710171145,0.1620244451,0.1468634273,0.0501267902,0.089091719,0.1377911527,0.2433951774,0.0005898172,0.5051587706,0.6914684913,0.4558562288,0.6531182,0.2943905983,0.4871328807,0.2114492978,0.1794424828,0.5398926674,0.5492762198,0.6837278458,-0.081460062,0.2463621532,0.2429051275,0.006818317,0.6885389598,0.1595678542,0.57084318,0.4270379185,0.1253669461,0.2902316848,0.3321562682,0.3579975948,0.2926885662,0.1991424599,0.0969504158,0.0153832585,0.4348758408,0.3934259731,0.6776333612,0.5875194234,0.2886811513,0.0860435463,0.1126722592,0.4683359458,0.5146804598,0.5147673202,0.1091509074,0.439338321,0.6272850166,0.4397150236,0.0491894056,0.516348522,0.4109652279,0.3008231041,0.6969082581,0.7073358798,0.0333521714,0.0697713759,0.5238153644,0.1311384944,0.0237895449,0.5114687408,0.0265641021,0.6006100458,0.4316821367,0.0222086186,0.2938077778,0.0102903933,0.4388930815,0.1198335502,0.2190933286,0.3649399448,0.2267259928,0.0476059168,0.56910126,0.4339403168,0.0042525612,0.5662391673,0.3013320239,0.0937243942,0.4041779698,0.3384168379,0.2484008547,0.6466065871,0.5384999779,0.3591044244,0.2498641105,0.1201366899,0.2561037264,0.0175442462,0.2508085854,0.4911961022,0.0080042157,0.0876528134,0.6885309117,0.3341122041,0.0038683283,0.0886704243,0.5687246235,0.3207792734,0.1478282002,0.5317711533,0.055894656,0.6945485952,0.4900854847,0.6337745816,0.1854025956,0.0442422595,0.6122209165,0.4458468683,0.1553809456,0.1389008805,0.3055469387,0.4209173612,0.5157841436,0.4084814964,0.1188778739,0.2780431405,0.5776042963,0.3131202854,0.5599802331,0.5417956344,0.530361419,0.6837715076,0.2495667939,0.13858247,0.6844381988,0.1077176552,0.6100331818,0.3105245996,0.4266463239,0.2065714239,0.4505861719,0.5087548268,0.344463577,0.2643333412,0.6271811524,0.4644966936,0.3876174659,0.4162934764,0.1598853263,0.33099879,0.2416686594,0.2515914953,0.5937195019,0.5715436777,0.2663361336,0.4544928564,0.5310465864,0.34484298,0.0809223656,0.6770665092,0.1902562049,0.2573237926,0.5858788115,0.4434935506,0.394403583,0.4519680863,0.5137068842,0.1571624001,0.5295743478,0.1394439575,0.4534953759,0.056846782,0.6198792423,0.3094034228,0.6398782018,0.4924406207,0.5248383004,0.0495383385,0.6114884491,0.070485594,0.2676538498,0.4346530529,0.3010733645,0.5709604241,0.6940055207,0.6529791815,0.2879217846,0.3313293555,0.1708405881,0.4881293271,0.5197843119,0.5230836242,0.541866049,0.6188655716,0.6112595291,0.4713664066,0.1058334227,0.2293880518,0.5768844031,0.2596805994,0.0699629864,0.2655498198,0.1178092552,0.1099330297,0.7159016852,0.1500910925,0.1840251781,0.3203427108,0.2368583601,0.6965176499,0.3609971443,0.0179778379,0.3410327338,0.1071578868,0.294861027,0.6585373023,0.4324252605,0.2835362731,0.5510082444,0.3112859583,0.492469805,0.1292719156,0.4962269854,0.2102726425,0.6819704817,0.0963296525,0.2669110612,0.2941152941,0.3931081836,0.562308034,0.4154155223,0.5937790546,0.1592230072,0.087351359,0.7070211496,0.5045069238,0.1599257953,0.1326593571,0.2922638155,0.0267773095,0.5561392748,0.254458833,0.3046166828,0.522116916,0.3183347418,0.5387539655,0.2766267797,0.5300452336,0.0526217823,0.3836146984,0.6593278451,0.4949275511,0.4152105209,0.4309548834,0.1447118964,0.5233292199,0.5296170981,0.5330183948,0.5414647236,0.6169018506,0.4392624592,0.6754368515,0.6756884145,0.5679730218,0.2044273519,0.3242371372,0.2559743603,0.5150281561,0.4641795854,0.0611600874,0.0818617925,0.4587009121,0.554745213,0.3382100813,0.0963143241,0.2272399007,0.5753917467,0.1086058176,0.3419765246,0.2808605005,0.6373888266,0.4456673983,0.398796618,0.4616358321,0.2446041106,0.1501121189,0.3907635789,0.4823328442,0.0444248907,0.5662543769,0.155186021,0.2785623936,0.3152017847,0.1371008221,0.6951174573,0.0947485432,0.214631588,0.0898542325,0.0458472703,0.5718327945,0.2252892007,0.197075614,0.2452250449,0.6503953022,0.4175238582,0.041884475,0.2759247418,0.2251672972,0.4119154523,0.2834928082,0.4120364298,0.1246631506,0.55798794,0.3305092621,0.362514481,0.6538555902,0.4648447643,0.4532752258,0.3406961413,0.6410189292,0.6236489673,0.427905576,0.0087804999,0.1857914167,0.1708187701,0.2897360694,0.1927035755,0.1830560605,0.4416273591,0.2849402345,0.050044141,0.3649771457,0.0731979228,0.3807526766,0.1925741682,0.4486462466,0.5789011556,0.0646876316,0.1641716572,0.3346761417,0.0300408295,0.1712394378,0.399027765,0.0506126062,0.1861027399,0.6319807727,0.5042308695,0.5899862695,0.6176897101,0.3120125193,0.3820910192,0.3683870428,0.6512879,0.4692933851,0.220769896,0.5145039435,0.6660853567,0.477669322,0.1732078243,0.1661729522,0.3004754294,0.3537924763,0.576681517,0.3291223091,0.2593829033,0.0586034112,0.0591255971,0.4581990361,0.518642477,0.4442454316,0.1076633777,0.6518461581,0.3054762172,0.3029773143,0.293611155,0.251458622,0.5083850584,0.7144517166,0.5435976118,0.6647791304,0.6546781463,0.5243975942,0.2563515506,0.23486514,0.4032865681,0.0319210962,0.5451444456,0.2501913906,0.2078857091,0.6836335739,0.1533896565,0.1972706247,0.4608701558,0.5654626429,0.4198758922,0.2579065329,0.261990718,0.1441390177,0.6383434912,0.3537162422,0.5871501606,0.1394769712,0.2883537671,0.4609991372,0.6831331773,0.1111562447,0.700524514,0.0706333352,0.3753880893,0.5675646936,0.1825490426,0.1577460964,0.1074319309,0.3434597111,0.1990404468,0.2653714369,0.4973928235,0.4345344392,0.0760848242,0.0392539381,0.0674175837,0.4590988271,0.3762983427,0.6150478341,0.3134856753,0.1413926845,0.0681085621,0.6630432865,0.2073665588,0.5723513599,0.5040781432,0.4833649184,0.6790134083,0.2073954828,0.4861720516,0.1373857946,0.1020135367,0.0828780008,0.0786881782,0.1266011729,0.3626170889,0.6028014511,0.525794492,0.156509406,0.2724814477,0.11773217,0.1561039882,0.2449500949,0.0736804711,0.6632797811,0.6147074542,0.3078483399,0.0237279513,0.4006190855,0.0601140317,0.3615116457,0.4807953791,0.0273445313,0.2636549411,0.204144181,0.5351060087,0.3512482764,0.1360460533,0.2175092113,0.0272691588,0.6387708375,0.3372814843,0.4575273351,0.438152334,0.3523840633,0.0520747193,0.6116370962,0.5956738799,0.2367305137,0.4024229092,0.4588885334,0.5091121936,0.6966771797,0.6647260104,0.2146528084,0.4285334158,0.0108807861,0.3102987518,0.5448726541,0.4663970904,0.4707185831,0.017230958,0.6697331,0.087379646,0.1931264409,0.6120126259,0.0155460934,0.2441270845,0.2925996624,0.09330423,0.1143091897,0.5034048174,0.5324571414,0.6459755443,0.3906512854,0.4275871975,0.6187400577,0.31333793,0.2231292542,0.5079221184,0.2901937684,0.7111242468,0.3494882804,0.3711898145,0.0935640723,0.1332597404,0.3139507614,0.179184641,0.3370291437,0.4062047227,0.2415358634,0.6166876359,0.453503287,0.2968671674,0.45779358,0.7015083215,0.2947960892,0.286432277,0.0795117836,0.223141385,0.2558304547,0.6335455497,0.3029825855,0.492741436,0.6163148564,0.6514415222,0.6302402347,0.6756585274,0.6603025637,0.2364609265,0.1713898893
   0.6429056309,0.167105986,0.1819625263,0.3095358676,0.1827405687,0.5309996278,0.2986994487,0.380073008,0.4233221718,0.2015685361,0.4239055731,0.612739546,0.1756898106,0.283837544,0.4350889125,0.3758149834,0.4909362566,0.4664490402,0.586520484,0.4340336194,0.0765891686,0.3839523714,0.3607377265,0.3086850901,0.5026348598,0.63294741,0.6278510715,0.6597799275,0.4853727391,0.292920719,0.5271909362,0.4054553456,0.4945827285,0.504367031,0.2155694881,0.4548000487,0.6167755754,0.560625788,0.4919019629,0.5614684753,0.5294429459,0.6067156154,0.2671036546,0.4216742132,0.5113646689,0.3650414647,0.0117818422,0.4710484174,0.0193527273,0.1610118436,0.6045550047,0.6883160579,0.148114518,0.6467531273,0.455573395,0.2883234115,0.712976236,0.2211141822,0.4308763005,0.6487796724,0.1324737283,0.1218466883,0.4747874905,0.5741902683,0.516305885,0.3990965155,0.1918303912,0.1770515274,0.5860293017,0.1877165251,0.6558388665,0.0924836984,0.2875883985,0.6258421487,0.4000360414,0.1337855957,0.4041864752,0.5813970588,0.2964303206,0.1505571941,0.2834583446,0.1832254552,0.0054013467,0.083126896,0.6367647602,0.6266825176,0.1454915559,0.2988214281,0.0915660117,0.4192749815,0.6339972145,0.4461093635,0.2910567025,0.3573900165,0.7034328356,0.6398483956,-0.1742438677,0.1963353598,0.4848566524,0.1329323425,0.4456042142,0.6144422776,0.4970495965,0.3707786221,0.5500327317,0.4547989891,0.5262598405,0.0747182174,0.5394811874,0.5756474093,0.4357522404,0.6737574893,0.4154792135,0.3605616317,0.2252472059,0.2959183882,0.5091889993,0.0345090157,0.2155386097,0.3689874408,0.0611794901,0.2827839851,0.2447264496,0.3980130938,0.1864478269,0.2764082889,0.0665891957,0.2667589586,0.6925596853,0.6981013013,0.5915779419,0.6695380698,0.6797025199,0.022525432,0.3173032294,0.1918663283,0.6505859489,0.3232426967,0.0884376537,0.5823291804,0.483846634,0.5483979741,0.5762201078,0.1827044309,0.1246597985,0.4741192885,0.0171796604,0.5193649493,0.2680216069,0.2718394656,0.6464291428,0.4212811066,0.4432051712,0.1739065134,0.1020941783,0.250205734,0.1819826056,0.2455273683,0.3945607285,0.2334829947,0.5088267768,0.6174233522,0.2511464611,0.1918852503,0.0842899632,0.5247137122,0.4227879793,0.4958741205,0.4261578808,0.3994531816,0.3731412842,0.1357643669,0.3053693891,0.0757904962,0.4935628192,0.2130721775,0.5536009905,0.526789067,0.4769869227,0.4355803958,0.6794178337,0.4822232967,0.3684298566,0.3686161834,0.1181133165,0.5307642008,0.1255505364,0.5627188349,0.2527225473,0.4168004149,0.2444089806,0.0851829581,0.4872847812,0.4042163575,0.2030598172,0.5144413694,0.6187365415,0.3781280105,0.5457707615,0.4316251431,0.2187485684,0.3223233627,0.5318376298,0.6062188041,0.4493004347,0.6273163644,0.1480209803,0.5657743943,0.6741657135,0.5081018818,0.0074418283,0.1141740695,0.4497891424,0.0300396998,0.1166396141,0.05691629,0.3100922633,0.0974802551,0.4114947194,0.1014373027,0.1693421689,0.1512014213,0.6325469689,0.6953681385,0.2289763242,0.4460737955,0.5887040066,0.6978093076,0.4150044813,0.1703526098,0.3739641503,0.3989206714,0.0212717925,0.0908587844,0.3241889787,0.2022827984,0.6910593652,0.3298055364,0.3943449261,0.1467397902,0.0604580327,0.4901922582,0.0323880998,0.2704353195,0.2556857362,0.551576328,0.2305617216,-0.0893820609,0.400357925,0.4304819572,0.0207763285,0.4456055689,0.5582091459,0.0862122424,0.5670112154,0.7009897615,0.6049515417,0.3278310089,0.4985747275,0.1717911726,0.5423810524,0.4575463792,0.3436664749,0.1116055138,0.1890066987,0.1976451712,0.2024329459,0.5731222747,0.5517166188,0.1211276427,0.3087120908,0.6502084889,0.6692802452,0.4788888993,0.6780773814,0.488194368,0.1376985949,0.1275295379,0.443184156,0.2217631845,0.098076132,0.6111948002,0.7090375521,0.6779899106,0.2382978706,0.6598361935,0.587706049,0.1624642281,0.6118628897,0.0256474195,0.4629967712,0.670707566,0.5176981229,0.5830610922,0.1698614391,0.2564580235,0.2481227136,0.2882190549,0.3522128258,0.1757475772,0.1090209254,0.457768073,0.0590301614,0.3445988244,0.5517100568,0.3756300824,0.1367604723,0.4877330706,0.5752678322,0.6657881682,0.2360447898,0.1150406242,0.1856221538,0.0969077232,0.0378174088,0.0170697327,0.1747651167,0.11769196,0.2508924878,0.0115637123,0.3306960066,0.0219538233,0.1404175164,0.0304258091,0.1042253333,0.1117440952,0.3747511028,0.6590894177,0.1358829224,0.3767302336,0.6019992797,0.5612815628,0.4014038659,0.0669231509,0.6488129162,0.4713793351,0.18593729,0.2868623639,0.4215877489,0.2391682548,0.1812415292,0.0515744375,0.5493127806,0.5882930988,0.5784626491,0.162012907,0.5022422602,0.1272855281,0.6995951766,0.3093141548,0.4893137939,0.4483817822,0.6178041375,0.2023529769,0.5609182624,0.6149877518,0.3721856393,0.1594769357,0.3282753894,0.5459401069,0.4792763473,0.5130515308,0.2112862464,0.1822559277,0.5955343927,0.5026072666,0.0862667919,0.1841309174,0.0880797046,0.6123010395,0.2252302726,0.2430324851,0.2037109841,0.4979541311,0.2201454165,0.2180590418,0.6978651905,0.1021273726,0.0490106128,0.5531025234,0.5232336417,0.0777363072,0.6669001081,0.4432598884,0.360392385,0.2130328377,0.229651765,0.3414269822,0.5162719956,0.5055145274,0.4027022207,0.6636459409,0.6044543967,0.0925100172,0.1779007497,0.5338478796,0.5888876779,0.3714395307,0.2651535938,0.1460803101,0.1359261292,0.2792522813,0.4139724719,0.6456890234,0.0487835681,0.0665524476,0.7001061131,0.2079882483,0.5270593011,0.3585979509,0.2270785616,0.241448659,0.6811845628,0.391603706,0.330392167,0.6332558874,0.2275033574,0.4849315044,0.2685046515,0.4403977827,0.6229030207,0.6804279902,0.3687436948,0.6336128432,0.5740440561,0.2769446336,0.5185988586,0.0539985341,0.6423613198,0.0072468407,0.3636561381,0.6171024447,0.4967551445,0.0114493384,0.5710849494,0.3915184634,0.6255832051,0.2107512712,0.6662391465,0.4066060977,0.1918128215,0.2455712976,0.5059228966,0.513533704,0.5263914019,0.1247797316,0.0312359924,0.4275394851,0.5277365014,0.698137372,0.0683079718,0.5178552683,0.2336482725,0.4825179114,0.4107556858,0.5691085443,0.6768555769,0.5362917853,0.0914751022,0.0403905278,0.5566405634,0.1629521898,0.0038754086,0.7090499104,0.3578166082,0.3904472273,0.2374832454,0.3737777572,0.2710032862,0.1691365826,0.5388677189,0.4412496954,0.0055911409,0.5204570316,0.4527085698,0.4853893586,0.2191629239,0.2193549761,0.4304792374,0.671800198,0.2879242633,0.6462789842,0.6406714625,0.2216959347,0.1499993143,0.0226190165,0.0161451943,0.2641676384,0.0155317398,0.1541807589,0.3680214321,0.3332799706,0.1179290707,0.5319282309,0.6452758317,0.5502592656,0.5819770956,0.5676584296,0.3222549977,0.1708079847,0.3208597269,0.1463153955,0.0222200864,0.1736095375,0.7016122391,0.4563713303,0.1918550113,0.7129471186,0.0993374324,0.6465835895,0.0778632316,0.7093893816,0.4556732756,0.6224743133,0.0166411594,0.3931503923,0.3428166454,0.0194148002,0.7027211069,0.6802739879,0.2608582625,0.6088304315,0.3361256334,0.5023083226,0.5101193137,0.2949069827,0.4871724623,0.615401958,0.3154606328,0.1898664805,0.7140420655,0.2998878925,0.7080887623,0.5160916037,0.4323743901,0.1633667519,0.3988002288,0.6075805086,0.4424731285,0.680008334,0.6246363823,0.5981815264,0.0818963871,0.180266614,0.5073843285,0.5345701364,0.6984205161,0.1881719275,0.3379800851,-0.0644354919,0.7004817226,0.2388989857,0.0081806019,0.4307252864,0.7054858799,0.6245854428,0.0065424233,0.073854653,0.2858334402,0.3174332741,0.1462739136,0.6206742892,0.479562075,0.374942117,0.5561909275,0.7100264533,0.3940296584,0.6399978821,0.5412679886,0.0791919564,0.1013925314,0.2943139677,0.2430636445,0.0862900583,0.1458665748,0.1334112305,0.1761781382,0.2200076715,0.2499720133,0.5928054314,0.2647725019,0.0377351156,0.3438269462,0.1523192286,0.4650337196,0.4109223499,0.4193407168,0.424906934,0.0098695122,0.5758029337,0.5385454287,0.1566280269,0.378364708,0.3447635306,0.2888509131,0.5433978513,0.5067256625,0.0922436222,0.2824639529,0.2297907727,0.6845579673,0.3703182815,0.697437819,0.3061642925,0.405139503,0.3232677994,0.1945257086,0.3077613069,0.2714429468,0.3276346173,0.0122450516,0.5325302519,0.3064244439,0.4461060672,0.2643997719,0.1463549482,0.2835342131,0.2143528278,0.4644056884,0.5561598308,0.4800071683,0.6272830275,0.589743056,0.6077679926,0.49784104,0.6446525092,0.0651210772,0.1391456644,0.3027357858,0.1086902042,0.0170196594,0.2511975981,0.0895005758,0.3378604332,0.5370981122,0.1879216752,0.4919064918,0.4023237223,0.2091999607,0.3937327244,0.4658872914,0.3018383013,0.2631771713,0.1457462919,0.2871356801,0.018913137,0.1685546234,0.5769108572,0.406828342,0.549726118,0.2757958573,0.0963338706,0.679570038,0.5761486489,0.4972408336,0.0065286282,0.0749989283,0.2741326592,0.3895814882,0.159245131,0.0843577746,0.0993800514,0.6051204169,0.0151965799,0.2686757325,0.454635864,0.476574083,0.6501721556,0.1599761929,0.6120705851,0.5732932514,0.0452026567,0.6824743769,0.2774905468,0.15165151,0.4268708922,0.0559118884,0.2420840674,0.2530941082,0.3138137746,0.1080183816,0.6048794119,0.5601587254,0.0200481684,0.4621022785,0.0817232884,0.0390732191,0.0309186725,0.28424191,0.6760160993,0.6781332338,0.6328267331,0.3113714772,0.5693622799,0.6143126415,0.5880511859,0.5789865365,0.5600195627,0.4672034299,0.6524516029,0.4166821524,0.0990296016,0.1022246412,0.187934221,0.2293074239,0.6306845151,0.4644347888,0.1704223771,0.6289256776,0.2369975085,0.6400028062,0.3064229028,0.1323455856,0.2366736548,0.5733990577,0.6237773814,0.2617957584,0.2766482264,0.2779110894,0.0188907008,0.1435694267,0.3506595403,0.6382244564,0.5595025138,0.6357363184,0.5292691721,0.5088827915,0.3285957137,0.3146248794,0.2329688884,0.592445554,0.7002530104,0.087394738,0.4374246795,0.4904491316,0.6557884646,0.2959729442,0.5982798888,0.1956489066,0.1636782137,0.6982306819,0.2275302798,0.2408537841,0.6722812296,0.3700568513,0.709941096,0.5756500586,0.3211730358,0.3838277416,0.6040621079,0.2224078377,0.5720964685,0.1388296651,0.3109340423,0.1160341792,0.2952288386,0.5483684159,0.259966638,0.1794247478,0.5042270529,0.6931511465,0.2335720925,0.590769839,0.0611523847,0.5101563356,0.1649030647,0.5142341479,0.1970339572,0.1176618295,0.2288527841,0.5035773793,0.2940076355,0.2751514978,0.2436268475,0.0286100163,0.2960687489,0.2785412401,0.4824130382,0.3911835332,0.5825002088,0.0855532065,0.7131899148,0.1037683944,0.256973898,0.0343059245,0.2679457947,0.2154943553,0.296722845,0.3421486682,0.664188807,0.3170714586,0.5849291888,0.0165697811,0.566030063,0.114345366,0.5807477502,0.4690923068,0.6427783627,0.1656783597,0.3394226409,0.0322265353,0.4364748903,0.4788774531,0.0438289399,0.0267861706,0.471255211,0.6730595856,0.5517510876,0.2978979518,0.5448297032,0.0173653858,0.0282337343,0.2220035329,0.1195138564,0.2478816772,0.1612344478,0.1389502875,0.3118397491,0.4518273972,0.0271495087,0.0470304194,0.5656605349,0.2677912981,0.2364652653,0.3735068889,0.4331568032,0.5281399727,0.2814810286,0.357096103,0.2574802895,0.0387000091,0.3594900259,0.1940636708,0.1490146445,0.7026232484,0.4808220837,0.1476623151,0.0513823556,0.6584476391,0.6529544869,0.5397323061,0.082910159,0.0883461039,0.5419534094,0.1542529643,0.0749587902,0.4543361696,0.1018457447,0.1774651048,0.3871368182,0.0732782641,0.1077598817,0.4732510643,0.5243266019,0.3206104507,0.5369500852,0.4109905313,0.4063558369,0.1078945712,0.4755246952,0.5378566804,0.1067763083,0.6907065754,0.0894970139,0.2947919335,0.4501963741,0.2720997072,0.3350300179,0.578682393,0.5806778894,0.2392507159,0.5739535606,0.0465894922,0.1752023441,0.2816862698,0.0759112855,0.6881109528,0.6438630696,0.5729124086,0.3156109026,0.1939073627,0.4704146535,0.5711711073,0.1170850356,0.7004219538,0.5624671337,0.6054211798,0.3577671142,0.2027011651,0.6627657222,0.6086677802,0.6724894124,0.4110600432,0.2892440932,0.511041069,0.0398981323,0.3378604887,0.0621081468,0.1973723188,0.487220025,0.1353417081,0.3627489141,0.209277509,0.3394260647,0.0990054349,0.3042050217,0.564260124,0.5805297349,0.6374304611,0.4645697409,0.050966968,0.5797717988,0.4254255996,0.2320064522,0.365137096,0.5098578713,0.6426602017,0.1138866115,0.5837796639,0.0934445075,0.4712492747,0.3380245376,0.4563468093,0.125944829,0.417675303,0.5809219171,0.2040459624,0.0258517288,0.3755299638,0.058345759,0.5997653026,0.2443284417,0.0422775597,0.1955610565,0.4760470483,0.707832596,0.4862378375,0.0105808077,0.0596385285,0.6615420447,0.1961881301,0.0254436388,0.2802897117,0.2756946743,0.5747794092,0.4887661321,0.6117282399,0.4129349458,0.1830964587,0.291091084,0.5341095484,0.0382832993,0.6096594148,0.3164999327,0.16195377,0.2887542198,0.6139225707,0.0006309236,0.5702560105,0.2663277423,0.0164412454,0.5101320198,0.4489423594,0.344617454,0.1785417136,0.6535276068,0.1932969501,0.3549716957,0.3120976769,0.4193264083,0.3890121357,0.4558007992,0.256733567,0.7103969525,0.3741950871,0.0654962099,0.0759581632,0.4099486678,0.5908774245,0.6910042677,0.1993579308,0.5376748761,0.5522507013,0.104185353,0.4871691343,0.4109826211,0.4260766015,0.1660728976,0.4547140495,0.6418277617,0.2542851869,0.2138794685,0.6202338663,0.5794339763,0.4471997536,0.1261537301,0.4792155666,0.6130935658,0.4560448711,0.1433749692,0.2776121571,0.0303561161,0.7037663307,0.1430216302,0.1229144209,0.1241403545,0.1948063874,0.0404191261,0.3643230143,0.1988491558,0.2168862843,0.550453478,0.1653706383,0.2869169699,0.5450332856,0.6082804494,0.0336407814,0.0803024708,0.0236928194,0.0848447323,0.0542057923,0.1113518331,0.2832573619,0.6684746471,0.5685875254,0.5736881734,0.7004519737,0.2513881217,0.1401237219,0.43185105,0.6581657366,0.2750809835,0.6690556116,0.0038939045,0.0627307036,0.6565291714,0.5344610876,0.6649967135,0.5253238877,0.3020591519,0.5142848681,0.6072359834,0.5887432734,0.1688734366,0.0013060464,0.469708063,0.6971764599,0.1506001662,0.537942981,0.2814538851,0.1279325602,0.1571333921,0.6401843328,0.0443360848,0.0834161114,0.3467203568,0.1329013062,0.123982094,0.3328804826,0.01223785,0.1331729923,0.3288543933,0.4093351585,0.4661119381,0.6463220926,0.6082373872,0.5029977255,0.4463475279,0.6250736587,0.6013903801,0.5552396122,0.5487846296,0.0080892458,0.5912707269,0.0040438539,0.4567541359,0.0917467032,0.647349245,0.2489494888,0.2514770154,0.1802825047,0.4192284948,0.1233543257,0.5409639491,0.2571150607,0.4935263214,0.2353797162,0.302207005,0.6606986556,0.3607550465,0.4351792243,0.3866081411,0.631855855,0.207295941,0.026403423,0.1487922659,0.438248766,0.6997076522,0.4396342486,0.3432733351,0.4353593931,0.2091946923,0.2318960636,0.2758027008,0.5951719349,0.1855624898,0.1922687987,0.3900891633,0.5908041492,0.0504960916,0.1913614549,0.6706849833,0.1237906595,0.4809403906,0.1201867819,0.1758962407,0.5499110339,0.2938498151,0.360128994,0.1806088543,0.6516697443,0.0365672344,0.5650069061,0.1095104678,0.3681669544,0.3611474237,0.3910108489,0.3431115976,0.11349654,0.4907913174,0.6940360847,0.2446433231,0.2755446714,0.7086387077,0.1078515114,0.2196560856,0.3204822428,0.3494602447,0.2609121594,0.3367052057,0.3324035219,0.6733866662,0.2705334806,0.5639205001,0.606173636,0.5309757355,0.353259434,0.0918337645,0.335274173,0.020909431,0.2397003975,0.6828582342,0.1819018799,-0.6680092588,0.7052567008,0.4963208998,0.5627384345,0.2180536424,0.107858038,0.602180808,0.1163801826,0.3318330614,0.2374369582,0.0166068066,0.0116397655,0.5742380928,0.2310733423,0.632736022,0.2570842091,0.4178176929,0.4870872006,0.5851354209,0.0539691032,0.4988267547,0.1316922651,0.4512335767,0.6265500721,0.7014119634,0.0763255169,0.5112660966,0.6413996133,0.1438695852,0.1468589313,0.1793476909,0.1097020621,0.5244261685,0.4387434203,0.0785008443,0.5400730014,0.5549990439,0.4283720395,0.3131006721,0.0721826172,0.5781471328,0.4281831065,0.4231663152,0.2741275217,0.1155280621,0.6988219247,0.2819005025,0.5247033934,0.3363351789,0.6205642752,0.5167972043,0.6293104538,0.5293314672,0.2994190911,0.6165255392,0.6424553683,0.3403422338,0.0566299819,0.4008217287,0.2590159181,0.5749922622,0.1293967814,0.4804809337,0.1659811935,0.5348019431,0.3695843442,0.2182060467,0.6486319796,0.213846326,0.2423611684,0.3105392929,0.5545366516,0.1029899548,0.222755593,0.1525293164,0.0252627355,0.1098748776,0.1034159532,0.508944643,0.5316250143,0.0050021693,0.2938091465,0.4721148398,0.5678581663,0.488905333,0.6665425002,0.6567566969,0.0201918554,0.3890607892,0.705175259,0.5587981257,0.2443899613,0.0155512762,0.5888293299,0.3472028057,0.2585232513,0.1461590348,0.2901303527,0.146605012,0.5861703931,0.5593254544,0.200554003,0.4342967498,0.4387022319,0.5770047167,0.0886022011,0.1457730024,0.4446062836,0.3940178995,0.4901856506,0.2039574647,0.0537311348,0.6732976598,0.5800813764,0.3474619604,0.389732222,0.4137379554,0.2058336575,0.0101272378,0.0141052448,0.6745067635,0.282570343,0.6628000546,0.3582794665,0.5942553578,0.1478550275,0.1795216221,0.086722191,0.3609814252,0.0370733674,0.104402233,0.3906688222,0.0105159882,0.476488872,0.0002222362,0.4306627167,0.2550907647,0.2647095423,0.5417364395,0.4012282552,0.4821973465,0.6558721149,0.2464949031,0.385686467,0.6066726118,0.2217560506,0.3922194461,0.4432963409,0.5139365557,0.6460112673,0.2404673242,0.6128346371,0.3962138802,0.2497802782,0.0554168997,0.3353272946,0.4539277093,0.0803238582,0.1313249642,0.4147394462,0.2189161212,0.2926433588,0.4402848839,0.4902023987,0.6176324201,0.071221732,0.4137405947,0.275879653,0.6922206861,0.6257441075,0.6928484724,0.3092904779,0.3040743925,0.370625001,0.518860043,0.4674928048,0.1484687324,0.4119778457,0.0145584208,0.2841615056,0.1997848677,0.6411895111,0.6318171959,0.4500506456,0.2565238513,0.5842223526,0.2449459593,0.5477245688,0.5503229443,0.3698123617,0.4116675264,0.2187972344,0.1564697987,0.0227769308,0.2317261101,0.1813621306,0.6809773221,0.0353494416,0.2527893347,0.6115735212,0.2559502425,0.6191277661,0.4214822421,0.5480527222,0.3363277737,0.1441939462,0.1571456231,0.0948344028,0.4771619799,0.67796217,0.2991181038,0.5189609723,0.4237576895,0.4192239977,0.1524358432,0.0327095693,0.4819491405,0.1703191137,0.3022896295,0.1010889195,0.351791806,0.4499522058,0.1986673712,0.6808685838,0.6434423499,0.6768654684,0.6027887494,0.6525407004,0.1574456188,0.246405111,0.4363859324,0.166621241,0.1125524118,0.2853048606,0.0721155517,0.0406399702,0.3990566125,0.2662741579,0.6503562335,0.300378821,0.6322889166,0.4169109506,0.2860772175,0.258297141,0.2553949814,0.5046534016,0.5287480077,0.7149966569,0.3006816381,0.2197346044,0.2787546897,0.421095257,0.3903940989,0.1576792293,0.1174525309,0.6240579868,0.4812960473,0.3820602314,0.1549207011,0.0374981476,0.2739554377,0.0248139612,0.372959707,0.1531681784,0.6174189898,0.7114577196,0.197339007,0.6901465142,0.523192559,0.2213924715,0.0658979028,0.3842967371,0.4465728873,0.4633246898,0.0288634313,0.6854890765,0.6679530378,0.5964594106,0.5394916144,0.1001612451,0.0693093401,0.1440331501,0.5730899233,0.4278104433,0.1523944717,0.4951247643,0.1547982091,0.4687262661,0.5864203983,0.5840701891,0.6413221881,0.6208366539,0.5550273836,0.2900453684,0.1052900577,0.2350920473,0.2862867245,0.2312058972,0.6282527365,0.5879291729,0.3983493974,0.4915659501,0.6843697809,0.6683049531,0.0008513706,0.1877630601,0.4396398893,0.2061936047,0.3290915005,0.4284864277,0.5879456926,0.1533330297,0.1849007774,0.2980638227,0.1106479023,0.1913466785,0.2785924013,0.2757173886,0.5239526354,0.4837913259,0.421011228,0.2674597187,0.3658859064,0.3243210772,0.3538306794,0.5182921662,0.5929224464,0.610610066,0.2444092537,0.6328779188,0.1569802254,0.4383726223,0.3110295811,0.7157618124,0.3398684391,0.0265833543,0.7080396843,0.2835923826,0.697911597,0.2602824217,0.0430237203,0.3252157264,0.4150204415,0.1970777258,0.201263677,0.2686985537,0.0843068557,0.3396510057,0.2516845515,0.495990303,0.3538615791,0.5385564328,0.0720597219,0.2436174329,0.2399912827,0.2234124548,0.6457074632,0.0699201925,0.0555812176,0.1038229678,0.0233602788,0.6821757933,0.3298197205,0.0023856109,0.2717923874,0.1747426246,0.2476107861,0.01241409,0.651720438,0.0362964729,0.2058619933,0.0502108606,0.2469744127,0.546000533,0.1776508798,0.2600504397,0.1981105329,0.5524208366,0.2108620143,0.5969846734,0.4311772047,0.3023343235,0.3615335242,0.3151073704,0.4474297869,0.258047929,0.7119287184,0.5874067666,0.3265888076,0.4729012795,0.6061626082,0.4984928732,0.5463845951,0.6298904778,0.3304548005,0.2384106943,0.407109629,0.7116742108,0.4428750388,0.3606178656,0.4539302488,0.7070496251,0.5546148814,0.1623212556,0.0829275241,0.6068320805,0.6600269034,0.2399731701,0.0572921572,0.3803973285,0.6156491248,0.1835631653,0.7100308883,0.5652920722,0.3123723379,0.0264135461,0.3419968731,0.6867982164,0.2433690079,0.2146419358,0.3424743129,0.0881499533,0.1759093684,0.0852920662,0.6124637869,0.1371024922,0.3983107172,0.6133896246,0.2166295245,0.4976449902,0.4528855051,0.5096044866,0.7108905844,0.0751186587,0.029084816,0.5580011522,0.253478306,0.5463469397,0.6690419309,0.6751208034,0.3234841302,0.4299651964,0.2420676571,0.3179788623,0.3104971146,0.090268306,0.4508016505,0.1911829138,0.1126497925,0.271265483,0.3432630785,0.2524220195,0.1633120686,-0.0223116964,0.1127860867,0.3024771612,0.646599787,0.5010555482,0.0597005352,0.0628362995,0.5927971774,0.2257062096,0.5851330342,0.2113030649,0.0401823272,0.2097256193,0.0945103196,0.5413006243,0.6005115033,0.2452791834,0.3444655825,0.1020115871,0.6540450553,0.3745076991,0.0945847129,0.252606042,0.251128139,0.7128562624,0.0838842128,0.000497228,0.5945205273,0.3283817958,0.2303671382,0.1721686545,0.3150342024,0.4248320636,0.0051577847,0.1130088312,0.0429261038,0.1172100508,0.1494228487,0.5814469695,0.3847289873,0.5485291479,0.258796237,0.6521122667,0.4299075202,0.277066292,0.0644369595,0.4354698298,0.6782207603,0.3184738058,0.3026131365,0.6719935481,0.5981889607,0.20281007,0.2851614311,0.5532279359,0.3460903361,0.6684196031,0.7119737427,0.1460287812,0.4732470166,0.5795588271,0.1224807517,0.5332626896,0.1264551796,0.5375969666,0.6431094307,0.024879996,0.2724316011,0.353253408,0.670037438,0.1685940062,0.2773178696,0.1586456015,0.2444966856,0.3463580725,0.3972045546,0.2675192951,0.7107613205,0.3751435385,0.2578851298,0.3318085068,0.4402586727,0.5392888954,0.5995694635,0.4122020373,0.0237887767,0.4354499703,0.4932338075,0.2915941051,0.5715218901,0.1332769219,0.5777273877,0.1373379351,0.4624089887,0.2026056517,0.3107807051,0.4470858859,0.7060361855,0.1805348466,0.0247733666,0.0586811558,0.31016294,0.5323055384,0.4552480068,0.4138434405,0.6268196091,0.1480601892,0.3483541598,0.1942845228,0.6086909356,0.1932229627,0.3211105906,0.2523072326,0.2521535421,0.3766662309,0.0221861058,0.0641756004,0.491984864,0.3990227844,0.6630336093,0.5017388966,0.6459908737,0.6550947446,0.4614254568,0.6719657575,0.3353065469,0.2393539549,0.5401012203,0.4984350664,0.0812484713,0.4751499398,0.3923677611,0.1782202863,0.3441192696,0.6810568973,0.6055309327,0.0292734756,0.6960934322,0.5328195167,0.5510896512,0.497001496,0.6912028835,0.4231495049,0.5660511493,0.5784264574,0.2291644831,0.5447694832,0.2256822434,0.4426659722,0.3437509054,0.2079894742,-0.1864075104,0.4999316206,0.4713867876,0.2367039866,0.4556689292,0.4034122744,0.711921471,0.5276680863,0.6864027809,0.472047693,0.3697121055,0.4000421365,0.5008820521,0.0614813755,0.6304279992,0.4468895286,0.3507251901,0.230643772,0.7085307749,0.6421509488,0.3738427606,0.2382828627,0.5503451318,0.3276719651,0.4989660354,0.4722262684,0.2523672874,0.6058268053,0.0651419139,0.4546140177,0.3162071715,0.0396569175,0.616853291,0.4942793936,0.0830872826,0.1718481951,0.6330991402,0.4589736718,0.5740611345,0.3291057236,0.2873145253,0.1692557031,0.5474250152,0.0607423471,0.6487599438,0.3943480172,0.4159348508,0.227559131,0.2310181992,0.0030611507,0.1381303118,0.238448125,0.0941130057,0.6177157224,0.1792478795,0.4076627373,0.5631706702,0.3946191442,0.655702652,0.3143336762,0.1904972043,0.3675807365,0.510478521,0.2482707184,0.4477512782,0.3455914089,0.0517032668,0.6885597825,0.2180796937,0.6105702156,0.5334048285,0.48868968,0.6503144052,0.5136912555,0.1865620954,0.3787737008,0.4926217452,0.3089735148,0.2855800089,0.6276358089,0.6785460377,0.7057638812,0.0144608688,0.702926637,0.608096442,0.3440914568,0.2139527576,0.7016596365,0.6235825269,0.6397698969,0.3467491971,0.5930091336,0.1803560697,0.672381683,0.0444692467,0.4256228917,0.5734484805,0.1549016508,0.5833451303,0.164681169,0.1641497099,0.6442819245,0.6332316986,0.4526349859,0.0311878426,0.6663213299,0.4730665933,0.2481970096,0.4417158372,0.1929973369,0.3459009041,0.5817295126,0.6795827966,0.2914192012,0.1269991933,0.0589002006,0.2360941373,0.5493194893,0.1664513126,0.5875568617,0.3897207074,0.0207075707,0.0287370988,0.0793688082,0.4394924437,0.541064874,0.5238796448,0.5202747274,0.4545796485,0.0863618376,0.2447751782,0.2849227024,0.3858322758,0.1635222658,0.0681809393,0.6318035427,0.6437947716,0.4318973329,0.4868008315,0.3958670945,0.5091978835,0.6739972236,0.1353064892,0.3426188712,0.2660402628,0.5897680822,0.2373603906,0.1045598937,0.3845933769,0.5335895544,0.6375089729,0.7055607697,0.3935752868,0.1268341761,0.3972750795,0.3738719038,0.5101299876,0.5766560917,0.1188060168,0.0415135397,0.6044338856,0.4072227577,0.1845211505,0.6982536825,0.6681485512,0.5518741402,0.0295039926,0.0282539074,0.0070550769,0.6169165588,0.3784008292,0.399515916,0.5781429049,0.1856397243,0.1870516925,0.4804306865,0.1351728623,0.6845940558,0.3201346362,0.123049577,0.2741152883,0.4579055722,0.0339317127,0.5936686287,0.6961246446,0.4361743115,0.6272687909,0.7120166112,0.6160155553,0.0292880912,0.1908607135,0.3018316065,0.4170031951,0.4316941162,0.1035686693,0.2478154897,0.4083906313,0.7141279261,0.0136339603,0.5537971627,0.2964365009,0.1540993931,0.4789513123,0.4314717095,0.4312148347,0.4731774944,0.355424375,0.289798969,0.6769895093,0.270589349,0.2771776211,0.0339486512,0.4284888459,0.6631764211,0.1198063804,0.0371610293,0.2503059622,0.3857027493,0.2663798835,0.4356304318,0.0829523958,0.5228863638,0.6086152665,0.0610498963,0.2374975162,0.468524453,0.5446269574,0.2289630935,0.0765636749,0.0356091976,0.6834819223,0.3633823853,0.3545976577,0.1794709235,0.2866460598,0.2826930181,0.4024302289,0.200657035,0.5257387861,0.1116874309,0.121619245,0.2255745601,0.6597478189,0.3908796866,0.2981511276,0.1496319007,0.5126901639,0.6754796302,0.6883564085,0.3568922021,0.6764437229,0.425616909,0.1886313839,0.4585179968,0.6772978999,0.5621498253,0.5095561766,0.0181629153,0.0677771087,0.1306795209,0.5138366417,0.2209763294,0.6280168729,0.0470614862,0.3575822978,0.059276677,0.5256433745,0.3644239935,0.7123483888,0.0334167257,0.1158705817,0.1731811366,0.2021157846,0.3293780158,0.4132353862,0.1098635815,0.7045644737,0.3451149497,0.0209509673,0.3993820258,0.0712797122,0.1298790957,0.2996167691,0.2649971828,0.6625980446,0.274721712,0.3722532431,0.190963279,0.2242740571,0.2187415495,0.6858136198
   0.4501716272,0.407712347,0.6912250993,0.0645260893,0.422618781,0.5134952531,0.5452403593,0.1588573605,0.0310840144,0.2394782079,0.4603152428,0.6409946803,0.4679362691,0.2508366311,0.2238279025,0.1069854148,0.3854070146,0.2312244642,0.5079156749,0.1308310388,0.4659364326,0.5961340281,0.3348788876,0.1795362814,0.1487815812,0.4541444235,0.0208061097,0.6028704821,0.6185765822,0.4727717011,0.0771334051,0.5624140531,0.6654609266,0.0712520384,0.66069546,0.2668913174,0.1722035182,0.3692104592,0.1775518233,0.1021665991,0.001927085,0.6802786591,0.4785508677,0.6431349123,0.1822803669,0.0585470626,0.5288901605,0.1630947243,0.0981333894,0.5767217106,0.3504892432,0.0291017965,0.4318202962,0.5235635466,0.6861744316,0.5709050093,0.6717593343,0.032327125,0.6957238034,0.3937899498,0.5017368427,0.5330777613,0.1528297244,0.6130159292,0.0776868635,0.6478782361,0.2594481873,0.2363142026,0.530235354,0.4029581428,0.6983484455,0.6884849646,0.083482348,0.6589640906,0.4523051382,0.1493352197,0.1490881551,0.3890885672,0.17478135,0.3179798179,0.3991212632,0.135850541,0.3001320914,0.4067949737,0.3151984014,0.4286739877,0.3082364858,0.2350732997,0.287859286,0.5589847919,0.5795608667,0.4764187088,0.3119022005,0.2745182071,0.2724293293,0.4090927386,0.0215785115,0.4215205456,0.2785706318,0.1686774589,0.3262885972,0.4333778905,0.501139508,0.2308751111,0.5351488404,0.043762711,0.2347577333,0.4672273837,0.6818978948,0.5853766991,0.6743419834,0.1071049824,0.7045441727,0.0299289456,0.4483396955,0.1342546755,0.2221813831,0.4613085513,0.2414871088,0.3055176459,0.4646446118,0.2414281008,0.0738989851,0.1284253587,0.1927614278,0.3105695398,0.713073825,0.0700857073,0.4934355537,0.3156801415,0.7124434694,0.5873596647,0.5842848284,0.5438792765,0.5362799677,0.4688523768,0.1660026148,0.1221840993,0.6290495872,0.2908454282,0.6085440565,0.3174676961,0.6025976361,0.3000502741,0.6802280653,0.0886450711,0.5387707663,0.0132690104,0.66545824,0.2766951024,0.3895373945,0.0487882586,0.0866048232,0.5910377953,0.1243278584,0.1860802683,0.6289542877,0.1181809549,0.3299859964,0.5518919916,0.3705072051,0.2805716924,0.2203572216,0.5980839443,0.5461891159,0.4933662745,0.0633096953,0.489949881,0.2458573704,0.090927935,0.5200547496,0.6579971576,0.3381974259,0.537424328,0.2361845556,0.6790963043,0.2002109534,0.6112732423,0.3060969756,0.632878481,0.4040958551,0.3264918926,0.5831438884,0.225542261,0.5807283099,0.3272566777,0.301827172,0.691762386,0.6838812651,0.0549513661,0.7037701786,0.296756125,0.125864337,0.0734799707,0.3334466162,0.1268078427,0.4863817216,0.2151867405,0.1541492957,0.0638017358,0.1936729194,0.1950708878,0.1479081716,0.0473428977,0.2761875744,0.3564337518,0.2144982717,0.6915181039,0.4279730011,0.0377991786,0.2678383599,0.2318007282,0.2527211565,0.5939804167,0.2338772246,0.0285152062,0.1416804558,0.4422211681,0.2267549357,0.233295341,0.2155314216,0.4998073501,0.5467082321,0.4932235356,0.5140395116,0.6393902464,0.3821811824,0.6143861701,0.6199827669,0.6590621203,0.0196749236,0.2543654695,0.5781022778,0.1685135939,0.1611240754,0.5806701165,0.6963862086,0.6766350613,0.5808486519,0.1214655629,0.1656598135,0.4164883563,0.5968814048,0.1663147721,0.0593804308,0.5037110245,0.259000755,0.2460165252,0.4638353476,0.475117753,0.462845176,0.6552103708,0.0154919611,0.5983228545,0.3717474387,0.1702503527,0.7003674126,0.3911463345,0.0929818006,0.6016152127,0.6576328907,0.5700419715,0.2522198276,0.079357309,0.4153311988,0.1992945575,0.6660425155,0.2461984564,0.4268997712,0.5854943172,0.6205847668,0.5724344962,0.1695108531,0.1561351556,0.1032028015,0.4714613814,0.1335102151,0.0583773053,0.1313100358,0.0809321122,0.4021253782,0.0407274367,0.0019970577,0.1404229781,0.3340237069,0.6499716771,0.2896364011,0.7123624524,0.4635234796,0.5134351342,0.6426290218,0.1506669219,0.6285633426,0.0620701416,0.6898041514,0.5362159627,0.5029803171,0.6602689976,0.1308860992,0.1782976218,0.6210155259,0.4511796795,0.0291928802,0.1139839888,0.0043900636,0.4829574647,0.1706475396,0.3193829945,0.4141834071,0.5317668561,0.2273187761,0.5468315085,0.1389996945,-0.3212584636,0.3069829885,0.5848488553,0.596822823,0.072567047,0.4985387528,0.2180991061,0.4616609216,0.0079206266,0.5284237246,0.613412177,0.3490577388,0.5791204555,0.1253280565,0.4802628389,0.3581384358,0.1398951178,0.6692892119,0.4387652646,0.3725350976,0.2404024366,0.5375884677,0.5094204214,0.6193096731,0.3192115131,0.2539884709,0.2509421399,0.2006770085,0.139693112,0.1670500868,0.3861428197,0.4414097221,0.2838058306,0.2341514106,0.7032357208,0.5910419601,0.4170538947,0.218737555,0.675464478,0.1828201867,0.5134827931,0.3468564924,0.0694026191,0.6737612006,0.3035824879,0.2868783697,0.1931035896,0.1405271079,0.5128169754,0.2939386756,0.4886292987,0.5886861254,0.6066234893,0.2620495368,0.4473534686,0.0771946459,0.1825687159,0.6105449102,0.118758225,0.1206560196,0.4528112171,0.3344342856,0.4044246807,0.1188870023,0.0613969083,0.6868953379,0.3622585236,0.0254528577,0.2526922844,0.4802041387,0.6532493526,0.5542175808,0.3819698673,0.1532190735,0.192551006,0.6022257611,0.7091452709,0.4344732959,0.2241074765,0.3428847761,0.2169933954,0.2125406272,0.1662974202,0.3823112713,0.4214315446,0.4299773839,0.0816784146,0.3605411886,0.3360177322,0.2796197221,0.4238385652,0.5754734213,0.3223661902,0.5798790443,0.1879939224,0.2688959567,0.4661938606,0.5936285765,0.203889918,0.2423329716,0.2832666543,0.0582779186,0.1758198648,0.2152148065,0.5332666715,0.169788425,0.4057883332,0.2063893314,0.1789160349,0.52659925,0.2848727367,0.6497700296,0.2674656304,0.1181726476,0.3338584279,0.4910343488,0.6045450312,0.6561582594,0.0968632782,0.0175531289,0.2794158765,0.1909246468,0.2176750131,0.5041279143,0.1961794084,0.3911550304,0.6881762296,0.2407724503,0.1512244944,0.1065691378,0.7062612667,0.6813335778,0.3062051105,0.1312125267,0.321172595,0.0037737115,0.4408982859,0.4841957854,0.3188704826,0.0467380146,0.5685964165,0.5882630495,0.0967540008,0.4342468147,0.0615539759,0.2713100238,0.5365711723,0.008341647,0.6345918897,0.107354203,0.0125414501,-0.1547975356
##end
biasActivation=0,1,1
[BASIC:ACTIVATION]
"org.encog.engine.network.activation.ActivationTANH"
"org.encog.engine.network.activation.ActivationTANH"
"org.encog.engine.network.activation.ActivationLinear"
