encog,BasicNetwork,java,3.4.0,1,1750017929685
[BASIC]
[BASIC:PARAMS]
[BASIC:NETWORK]
beginTraining=0
connectionLimit=0
contextTargetOffset=0,0,0
contextTargetSize=0,0,0
endTraining=2
hasContext=f
inputCount=150
layerCounts=1,31,151
layerFeedCounts=1,30,150
layerContextCount=0,0,0
layerIndex=0,1,32
output=0,0,0,0,0,0,0,0,0,0,0,0,0,0,0,0,0,0,0,0,0,0,0,0,0,0,0,0,0,0,0,1,0,0,0,0,0,0,0,0,0,0,0,0,0,0,0,0,0,0,0,0,0,0,0,0,0,0,0,0,0,0,0,0,0,0,0,0,0,0,0,0,0,0,0,0,0,0,0,0,0,0,0,0,0,0,0,0,0,0,0,0,0,0,0,0,0,0,0,0,0,0,0,0,0,0,0,0,0,0,0,0,0,0,0,0,0,0,0,0,0,0,0,0,0,0,0,0,0,0,0,0,0,0,0,0,0,0,0,0,0,0,0,0,0,0,0,0,0,0,0,0,0,0,0,0,0,0,0,0,0,0,0,0,0,0,0,0,0,0,0,0,0,0,0,0,0,0,0,0,0,0,1
outputCount=1
weightIndex=0,31,4561
weights=##0
##double#4561
   -0.3302503043,-0.1220854735,0.2874490602,0.2429200353,0.2644505047,0.224581417,-0.212185437,0.2856675426,0.1952328801,-0.2550711528,-0.1491849372,0.1500523263,-0.0029132053,-0.0704670658,-0.2558871366,-0.1940792997,-0.0670454323,-0.1066805524,-0.12828128,-0.1222782125,-0.2088161342,-0.1673451179,-0.1919308041,0.0036555736,-0.1933944785,0.13598576,0.1087601653,0.1531167243,0.1756752671,-0.1767878376,0.0236390644,0.5993611776,0.5600200029,0.182981163,0.4529370954,0.3876700875,0.0417512734,0.529446105,0.0942239571,0.5127169116,0.1011928092,0.1989556192,0.490634515,0.2796114803,0.3077548182,0.2389873104,0.3188356466,0.4766349174,0.3416715495,0.1082092649,0.4801946892,0.1194707753,0.435493448,0.5200485222,0.6485721786,0.1763599764,0.70786119,0.6469114412,0.4218106387,0.6149373502,0.2353793364,0.2672240255,0.3201038741,0.489745719,0.6693394387,0.59731691,0.5382892877,0.6330774962,0.0364561835,0.1582377759,0.2495017858,0.5347757418,0.0444955863,0.3711536663,0.2101324082,0.0022875783,0.0349914126,0.6566822422,0.4940419147,0.180296226,0.0652148639,0.3362662775,0.1923790543,0.6364427294,0.3393507651,0.6108606026,0.6401577587,0.3182390798,0.0956193487,0.0159374187,0.4634431079,0.2134372336,0.6032397374,0.2560617444,0.5551140779,0.613048056,0.6806099164,0.300045605,0.3598692987,0.1892257572,0.3492072419,0.2405898691,0.7051355559,0.7060343868,0.4521020452,0.1181898865,0.017309318,0.426269673,0.5805464214,0.2139215164,0.5198314252,0.7108209519,0.533744172,0.0028795771,0.543273212,0.2475666348,0.2147086817,0.5426319521,0.1245755862,0.0544601325,0.2162142509,0.0450760112,0.4566795421,0.5301277688,0.0581451947,0.2831786464,0.0185431312,0.451397815,0.0030135271,0.3176401715,0.5679330951,0.2656311478,0.1772810229,0.542870731,0.2881629551,0.3612201466,0.0116290164,0.6549744392,0.6361977218,0.091339055,0.3419206463,0.2234584944,0.6060240676,0.5445407534,0.1615029607,0.3884040154,0.236336714,0.3712424003,0.1662159328,0.027781302,0.0656297512,0.1688575513,0.3899116553,0.0440424526,0.5371321116,0.1585482064,0.2906057224,0.2507822561,0.3607991911,0.3865879722,0.3529384841,0.3985756379,0.0636725845,0.2586092303,0.1903356175,0.6237779122,0.4529908035,0.3820042752,0.3750609765,0.6603312196,0.0589931465,0.6580513076,0.4763411989,0.2532497949,0.3149068831,0.527919031,0.5337370231,0.3356910695,0.3626052413,0.0684149264,0.4803155388,-0.401091127,0.1629555066,0.5117170857,0.7033461837,0.0327901772,0.6759332648,0.1586672571,0.2229147804,0.4489508177,0.5103461736,0.3381994491,0.5782507214,0.1161962214,0.583993464,0.1490862094,0.5926401626,0.2949278744,0.5428664654,0.6345540173,0.3343438703,0.5686929122,0.6069326004,0.7152802724,0.4390186864,0.0327823753,0.3951633811,0.524227082,0.5879642012,0.581320622,0.3584689971,0.6781378954,0.0609864025,0.261741131,0.6568661238,0.0986674989,0.3550799001,0.3157151461,0.3124074459,0.1531587885,0.6022075524,0.5464236279,0.385088811,0.476060577,0.1646205854,0.3987221663,0.5363051537,0.3551109955,0.1171544523,0.4917343694,0.0119651251,0.0381507326,0.2907197115,0.6600864334,0.5062700375,0.2848812182,0.3764049689,0.6618831088,0.7102119121,0.6369503445,0.294757432,0.3302829946,0.2973000895,0.5911970165,0.383305703,0.1286884699,0.1914608776,0.1078950837,0.4552309572,0.6509729751,0.1949748771,0.4323334118,0.5740912311,0.2780070546,0.4609817735,0.1759765723,0.0337579794,0.6540477141,0.4052526175,0.5710245848,0.534755097,0.6794753685,0.6201986433,0.3609115322,0.2552773999,0.0473893143,0.6919765474,0.3882350186,0.4240797609,0.4585230206,0.0134637541,0.5974126051,0.154073835,0.2129029059,0.6838703621,0.5061612511,0.211496822,0.3815490845,0.5591524626,0.216897039,0.3538738837,0.5124336226,0.7083184484,0.4458840177,0.5834373912,0.6149140953,0.5186569545,0.5984381961,0.3357158873,0.4805281858,0.0905873381,0.5310531943,0.0231573038,0.4781217576,0.5281498472,0.0257405408,0.5868034707,0.3247143408,0.6602553241,0.2037290142,0.5023803118,0.293757643,0.420778285,0.4818814048,0.1911284647,0.6816901892,0.6261675178,0.0441710096,0.4395991686,0.5172991158,0.0778718767,0.6360954881,0.477403829,0.4415074559,0.3326394717,0.348838259,0.385457374,0.478900175,0.262589673,0.0436452846,0.3741800245,0.3697231527,0.028797905,0.4405154409,0.2170698345,0.3538021958,0.201599301,0.5456813883,0.340726476,0.5524358919,0.4340405789,0.1873369633,-0.2753449026,0.4473551373,0.574137664,0.5028332369,0.2026699088,0.4220390727,0.6398082803,0.6253513667,0.6140894576,0.1288084204,0.2409382575,0.4006900979,0.0174837657,0.504240672,0.5080479182,0.295486909,0.6816668177,0.0260104318,0.144779287,0.3462029035,0.107077705,0.1670326944,0.2355276684,0.266795788,0.0129648629,0.0174707016,0.4172205296,0.102130041,0.3838341132,0.6393371118,0.5707530284,0.7091361129,0.2834135483,0.0533639194,0.5140123947,0.4882552234,0.072432179,0.1752637203,0.705088396,0.0618719409,0.2912251058,0.4311304218,0.4314033142,0.3505038106,0.0216311625,0.690664263,0.1248667,0.0092141354,0.5541234486,0.3896118155,0.6835077076,0.2675752276,0.0329276842,0.3986624709,0.3613568731,0.4290154802,0.2363037067,0.1070938282,0.505748244,0.215223991,0.2164294226,0.492533947,0.4673902124,0.5994658862,0.1463746917,0.4039868291,0.5104632266,0.4330594763,0.3510464791,0.1931913145,0.5216881071,0.2993330566,0.4879964521,0.4538030983,0.4711315699,0.6794043601,0.5187174212,0.4169363194,0.4815570201,0.1790328993,0.0473574633,0.2656564279,0.249050451,0.6733300179,0.3196912443,0.2289454097,0.0370022613,0.0321085162,0.0177988465,0.0785432961,0.4777331272,0.4681558461,0.1638402445,0.541778959,0.069667373,0.6615933031,0.1359720921,0.2763847675,0.5489893162,0.5468501568,0.1292110959,0.4794367795,0.5949980856,0.509315331,0.5965903056,0.2347075224,0.5493342368,0.4078177082,0.6631192298,0.1705491542,0.3294589917,0.4009058709,0.0180732842,0.3743277283,0.1416093325,0.4894955387,0.1931700673,0.1537232895,0.6673525411,0.35394909,0.2644502976,0.2099024221,0.5313996712,0.2697814047,0.5363690731,0.4569069004,0.4514086308,0.2748217643,0.2781836698,0.3300949756,0.2903010538,0.3545639957,0.0990056576,0.0346767731,0.0746513186,0.1884626993,0.6940261385,0.050907687,0.0208797346,0.6053441106,0.2970027357,0.0998266755,0.1033229864,0.0132967565,0.5741151198,0.5705808213,0.3982297959,0.3965521432,0.3206961617,0.255630594,0.0396874942,0.3267269528,0.3661748246,0.2981686895,0.5460055233,0.5911415416,0.3115750329,0.3704637663,0.2178870398,0.1078893952,0.6725984767,0.3807266918,0.03934579,0.4339465395,0.3959925976,0.5552627314,0.7126277468,0.1675375511,0.3358044778,0.3164561978,0.6051036222,0.4749838813,0.437287613,0.3827066126,0.6851334993,0.5323598847,0.1425130088,0.6204715779,0.3924705907,0.6072420088,0.5627625789,0.047448326,0.0282695335,0.447379726,0.5264487015,0.1138214686,0.4962283647,0.3321228427,0.2693299043,0.0512606024,0.3052173372,0.6620514961,0.0830733353,0.1695196152,0.2772670029,0.4000272538,0.5313302634,0.4574070071,0.1559559316,0.1777537563,0.283530421,0.4534650222,0.149615262,0.452987581,0.6032711526,0.3566813341,0.1258074527,0.3037089487,0.1050184546,0.6902115731,0.3571697446,0.6387423749,0.2950908912,0.3894966815,0.5140348114,0.1272940887,0.0982959139,0.0625405346,0.0141194365,0.2445114074,0.6697490814,0.3943846001,0.701328821,0.0361516258,0.596844524,0.0191582821,0.69564042,0.4322503345,0.6026664375,0.4823754134,0.1921851939,0.0585805688,0.4837888318,0.0236114632,0.3484313045,0.3491800373,0.5625382456,0.2166238462,0.3628595275,0.3158662992,0.5199624994,0.5722006448,0.1941094384,0.4399327966,0.5535662797,0.2048741965,0.2425809497,0.4349676594,0.4757574681,0.1212599423,0.0107731659,0.1234015787,0.2215651248,0.2863277893,0.3209131124,0.174584036,0.0438047299,0.080423145,0.4493247844,0.3424793494,0.0564483698,0.3375483288,0.4347979551,0.5398583072,0.5326806937,0.0224216746,0.5118365957,0.156429305,0.0984015306,0.4299593559,0.6965307929,0.6290498211,0.0232822755,0.3038422452,0.3259306418,0.1565600599,0.0979225226,0.6392874638,0.2426681431,0.0100312474,0.2846985349,0.4101401481,0.0575588147,0.5325186217,0.0675594788,0.0900665266,0.2852730265,0.6390655331,0.4168552382,0.3023482884,0.5092550217,0.2646001086,0.3386364158,0.4100894936,0.0877117899,0.4714098833,0.5893095906,0.6001297558,0.3192917229,0.1427061136,0.4074698263,0.5883184666,-0.068387066,0.4923945331,0.4826431938,0.549451245,0.3479585188,0.1314760712,0.3256917503,0.2310889993,0.1090470012,0.3410184595,0.303004052,0.6436251661,0.4923287432,0.1316899393,0.2761129712,0.2211637018,0.3312334262,0.1581869452,0.7000661264,0.0549140485,0.1992380006,0.6363235002,0.0403856677,0.4963956845,0.647949599,0.6448517162,0.3354058997,0.0120030204,0.0571573386,0.1384447937,0.5603286926,0.0302322808,0.1129910574,0.3444499264,0.2978004063,0.0216693022,0.0689177741,0.5306329969,0.5359213413,0.6345567634,0.5148853098,0.0289021025,0.4990754906,0.1308421247,0.3311709507,0.4803816327,0.1409186429,0.2832464648,0.1585097993,0.2966472325,0.2930933875,0.6352050081,0.2013610462,0.3907605239,0.1646346066,0.6843882443,0.1805730771,0.6153089841,0.0352490078,0.5514224492,0.6293309335,0.0366627413,0.4769239876,0.5151646667,0.0090749715,0.578742841,0.633566253,0.387246986,0.3335946631,0.5643912192,0.4430926147,0.0866875869,0.6550862198,0.4311420658,0.6292917951,0.5210334888,0.5863154033,0.4652301665,0.0845755132,0.3932640587,0.1523440552,0.1283917639,0.3655676293,0.0350264219,0.0675324457,0.5359864547,0.126338287,0.4767675664,0.3000655832,0.529448113,0.0057013002,0.2660069721,0.3817536909,0.4271536606,0.5325131565,0.1132225465,0.3418761683,0.3023013723,0.6149564934,0.3482355135,0.5629969938,0.630867546,0.1045428653,0.4507946631,0.6318833724,0.1178209204,0.482906463,0.313823893,0.3827247147,0.6064439877,0.6249805942,0.0531097486,0.6625161106,0.0098348696,0.5930130809,0.2787923418,0.3559323174,0.7005982751,0.047743489,0.3020230455,0.3317067173,0.0110338278,0.4595750564,0.479135933,0.5903851008,0.5347416756,0.5034953951,0.2096477475,0.2315865233,0.017737469,0.6262195964,0.2804388917,0.1299422271,0.0450637151,0.2652174951,0.6819529417,0.6987338718,0.1231528918,0.1368919726,0.0482897643,0.3841704489,0.0778448649,0.6543389515,0.1350451116,0.3754500534,0.1918587199,0.0376577295,0.1142081784,0.0080212646,0.7001407382,0.2411472641,-0.1458367215,0.3243705472,0.3763911029,0.5216470161,0.0334320439,0.0051101581,0.5288688521,0.6844438661,0.0443357433,0.0062280855,0.3937198737,0.6035188251,0.302355324,0.3659797357,0.4834322485,0.0892282046,0.3188727217,0.5696780877,0.5255963506,0.276631267,0.0764050091,0.2811925133,0.4695425869,0.1218747031,0.2593290462,0.1089805018,0.0511282715,0.6547288681,0.6322827604,0.5993534303,0.4635724632,0.18298842,0.5511995108,0.6653796061,0.7101000934,0.6007639167,0.3353530684,0.087836527,0.0724007868,0.1064685867,0.1059050455,0.4311135287,0.1377933407,0.1146141179,0.6239116823,0.6637093905,0.6232685244,0.0410673706,0.3626078419,0.6014681452,0.3734812598,0.3609980575,0.0132397441,0.3668957636,0.5540288822,0.3804199789,0.3841630114,0.167113603,0.5665102044,0.2063156577,0.3479010091,0.3576226018,0.1186181147,0.518367539,0.6984791598,0.5844623083,0.1213793973,0.3534299443,0.5462130909,0.7092076781,0.2615928428,0.4829817316,0.5238393665,0.5791405536,0.5891919976,0.2114866016,0.4565701311,0.2418675269,0.0715226946,0.2092120677,0.326997318,0.0009082246,0.251755992,0.0436708931,0.1397579489,0.0233805458,0.4218954503,0.2523090924,0.1722915879,0.3089184397,0.1616242408,0.4343334811,0.2278001317,0.2638598545,0.3127334212,0.2848253483,0.5629366232,0.104890211,0.512465943,0.2977880481,0.0085038045,0.3594803754,0.2350708255,0.5715028074,0.4798275652,0.2067511847,0.6738268235,0.0962953846,0.5999645556,0.3250799032,0.1529912016,0.6467086636,0.7085907176,0.073424518,0.6779933621,0.0092848742,0.6028425241,0.2576090719,0.0868001575,0.6701926031,0.6556064582,0.2985264784,0.3068891123,0.6018911546,0.14455941,0.6876172095,0.0802524792,0.136363146,0.5087723999,0.6577460754,0.134087291,0.5623718583,0.4216097051,0.3817720409,0.661783102,0.3045566561,0.1115881065,0.0803490092,0.6956682978,0.4592233907,0.1745994172,0.1472872273,0.0127560359,0.2609439743,0.6111526336,0.1103735355,0.2761038676,0.2894205032,0.654119525,0.2614656008,0.1818785618,-0.6505134151,0.3826986784,0.0818125829,0.4239321823,0.4751901546,0.2189184685,0.6813213807,0.2268807217,0.6921324232,0.5786722669,0.6388110593,0.326157342,0.0505811229,0.1658956888,0.4517193159,0.5689174016,0.2541518072,0.2738843523,0.2093699485,0.2322006272,0.1302464833,0.5835978709,0.7018522873,0.0578468294,0.2780964266,0.6184452055,0.2886179251,0.1184451856,0.2092324205,0.5968827543,0.0383015605,0.1478721917,0.5198071009,0.21230953,0.654958141,0.5099525271,0.7076713598,0.4913543094,0.4863782053,0.0881100737,0.1831425159,0.7021899453,0.3353224015,0.0034589223,0.4844476479,0.5632938702,0.5951062086,0.0196837116,0.5112530003,0.4547300463,0.4425902357,0.3405466542,0.3333376526,0.3557426138,0.0381099126,0.3590411621,0.5484969932,0.4065550348,0.1439036924,0.2060082916,0.1515439409,0.4503266686,0.4102163995,0.5436633494,0.569617247,0.150222651,0.1045699616,0.1012840869,0.2389072341,0.5613799458,0.6606352479,0.4351963269,0.1496500311,0.4018373223,0.086468508,0.1175809045,0.4662990656,0.3124648268,0.4326394271,0.0275859504,0.0340582153,0.3481921608,0.5961475602,0.1187608071,0.6627831766,0.3502602061,0.5477516098,0.6238441083,0.4454055222,0.2124711541,0.4867664152,0.4362785252,0.3497998245,0.0029414918,0.0585421167,0.0949622889,0.4779130325,0.3597540411,0.3225617236,0.0869958826,0.6479436704,0.40470848,0.5893239679,0.6851110894,0.0583989544,0.5465444916,0.1365422629,0.3745952662,0.1951562254,0.6891340121,0.4657092478,0.5013659332,0.4310707513,0.4495176623,0.3894712243,0.4410782116,0.4401643587,0.0940485892,0.7040200253,0.252812275,0.0816840132,0.0406406618,0.1735280596,0.6436709001,0.0687110307,0.5043045019,0.6663525225,0.2175033616,0.1730286464,0.6078133855,0.6664327984,0.4964582708,0.7152475681,0.680625455,0.4897089611,0.2873173616,0.3052015619,0.1370013866,0.6160326117,0.4835014684,0.6499212276,0.639895408,0.1295489222,0.275156415,0.5592958159,0.4686326608,0.6346504008,0.6117513204,0.7065987726,0.1282902632,0.5900256162,-0.2406917883,0.3448755416,0.6204068392,0.6353537637,0.0577755494,0.3806675351,0.2982524525,0.5749593211,0.0396211729,0.4820641738,0.2993345737,0.1851437831,0.3003101253,0.2742856082,0.1826503264,0.2307573853,0.1343675916,0.5245111191,0.2610889737,0.1772337183,0.4040152121,0.5580657064,0.5408284554,0.1904018858,0.5784466193,0.0778296646,0.5613552068,0.2729240595,0.2272024985,0.3976428346,0.3264653511,0.3745294463,0.6058611574,0.1844820084,0.0196207363,0.2798602771,0.4927382396,0.5508631253,0.6990047894,0.6380220579,0.2640680286,0.0320644604,0.0756756931,0.6808774003,0.421532054,0.6630739298,0.1173793327,0.3984764589,0.310301785,0.7020210127,0.5442754277,0.0803282957,0.5978617935,0.4187033155,0.306148662,0.4494659994,0.6352981151,0.3655733093,0.0826592573,0.5865524372,0.4150159135,0.1425199545,0.1401151075,0.641327269,0.7036191721,0.1694633129,0.1089654468,0.6407887615,0.423225906,0.5408438814,0.6871206833,0.4908854497,0.6125910929,0.330674322,0.5045173065,0.6295536186,0.0341697048,0.6835312971,0.5880711173,0.5608915416,0.5250517745,0.6171876238,0.4394173819,0.3827825155,0.5029201989,0.1330255683,0.2159114595,0.5428471347,0.4705911721,0.5203630498,0.6551981195,0.3792530009,0.3974693324,0.3269215569,0.3007921026,0.2069650579,0.5369446611,0.1218147014,0.5776007714,0.1042513667,0.4059187442,0.1772534519,0.6356060556,0.3679964566,0.3477004621,0.3837362574,0.6205608826,0.3537330379,0.1735809269,0.3370862739,0.2926922738,0.6457417128,0.3003952921,0.213629204,0.3066320111,0.2729189304,0.5045879144,0.3206576584,0.2540251416,0.5667098422,0.3481049169,0.6502726132,0.4092835029,0.6739364271,0.074663128,0.5647089968,0.2909659745,0.3762629739,0.3534033303,0.1222413785,0.0962724682,0.3000260849,0.5806715122,0.064568908,0.3350640037,0.461672845,0.700438374,0.2828403664,0.5586175742,0.0172065055,0.2916456329,0.5242801601,0.5234243053,0.3380902736,0.2924670405,0.0889795465,0.685632845,0.6548301044,0.0080115413,0.45933773,0.6217943888,-0.0040585716,0.0865244719,0.3934007574,0.6071671153,0.4371763017,0.5111465788,0.6484764881,0.0840325307,0.6652129211,0.6295211183,0.6340147877,0.4096404501,0.6783601898,0.2762440673,0.0393776972,0.5409708431,0.2691437436,0.4114487104,0.4122593875,0.2154658851,0.0384561459,0.4226781786,0.3879062276,0.4914458253,0.1692883192,0.0485424957,0.489249226,0.5381759738,0.0765151127,0.0929830077,0.2848535837,0.0380997998,0.7036368524,0.3846123368,0.5976650379,0.126475437,0.1638176713,0.6830946918,0.155856469,0.2340023151,0.3371266106,0.2800814111,0.5954434503,0.5415047746,0.2860487828,0.0583360851,0.1587530204,0.0308189167,0.5839165246,0.5726466501,0.1334011793,0.262738804,0.2145783007,0.014938656,0.6891283867,0.4561429631,0.6079195065,0.690782405,0.6849404961,0.1499579364,0.5400181483,0.4957208387,0.0190002978,0.2789691879,0.164356675,0.7067859491,0.170339856,0.0569116911,0.0465965207,0.4795824953,0.2708409603,0.6575243957,0.3499725243,0.2525564217,0.5165685638,0.4461546411,0.5918509521,0.1928658007,0.3792212016,0.262010888,0.236740315,0.3656751123,0.4140064665,0.3299944118,0.6806750477,0.7150177518,0.5477446275,0.6630979375,0.3651439981,0.1723352461,0.42448217,0.2495478642,0.1652238416,0.7110991252,0.1679850536,0.3190383785,0.4869838349,0.5116448393,0.0333465046,0.2684276562,0.6431149496,0.3828205763,0.0440366101,0.6425076008,0.2395180605,0.3605475502,0.5786078782,0.1788041493,0.0908632664,0.2754823574,0.6600767063,0.4675002153,0.5843028359,0.3622908761,0.4693449029,0.210115187,0.6641553566,0.2191273623,0.6416848017,0.1142543375,0.2512544555,0.0229442009,0.0967126285,0.2788470269,0.6150137866,0.1071999622,0.5120083814,0.0316820547,0.6001837605,0.1879413273,0.5365590075,0.6402629782,0.4359506349,0.1609330363,0.0726070657,0.4524974687,0.3537015788,0.0312599578,0.5370594212,0.3979273857,0.178698165,0.4694491088,0.3551819573,0.2907766564,0.6029899478,0.1372208494,0.3584403305,0.6258370544,0.2802612419,0.0202190842,0.4746585754,0.5665575974,0.6639380303,0.3825679085,0.1201419254,0.3158561523,0.195353189,0.2568400705,0.5097768049,0.6980894436,0.2992546614,0.4996627799,0.4544830046,0.6351650842,0.0025569117,0.0922321114,0.6442549385,0.4441100781,0.3341170409,0.5601073375,0.0904178014,0.3708532688,0.4359816992,0.0817865585,0.0711349822,0.6634986303,0.3598271735,0.4512252318,0.1686655079,0.3597007206,0.5117782028,0.1729400509,0.4939783626,0.4139886134,0.1343411544,0.1681998984,0.3707470782,0.6580222774,0.1997308863,0.6354435301,0.3416385217,0.1438057862,0.5449734308,0.2904111234,0.0341133779,0.3868656656,0.233607807,0.3223128864,0.3856134273,0.6488560628,0.1196026959,0.476620314,0.1179417457,0.3708086928,0.3614485797,0.6100391469,0.299378288,0.553366019,0.3767003231,0.2201104035,0.0495194994,0.2779891175,0.2010418446,0.0800211617,0.413492971,0.6084111628,0.6875649462,0.1480210006,0.4384653437,0.6031517688,0.4863489169,0.0734367254,0.0466993329,0.4403892761,0.243521397,0.1608500775,0.6993699367,0.2052507018,0.3091447213,0.0194787761,0.2475821957,0.0792439494,0.3731657367,0.0133783396,0.5365584013,0.7022650005,0.3654774389,0.0741591425,0.1171708475,0.5784246405,0.7072929872,0.2630392979,0.4910278466,0.200172007,0.5848088123,0.5098707691,0.202380173,0.4768497136,0.2281738858,0.1967019591,0.165153437,0.6574417038,0.3913936359,0.6584627142,0.3634787371,0.2249280494,0.2158189367,0.2077290994,0.3618537588,0.0432394618,0.5375447589,0.4682047868,0.2693865131,0.2649377819,0.6694221425,0.0862536025,0.6230394263,0.2388749756,0.3126956003,0.4628016763,0.3799699834,0.6705340415,0.2465864469,0.5211100774,0.2426939471,0.3199445156,0.4347126151,0.541506457,0.6695916826,0.0040777381,0.6930327724,0.0725526844,0.6790989219,0.6930477364,0.129013201,0.1785184454,0.3916139604,0.0830128108,0.713702071,0.2494570848,0.1726997565,0.566752699,0.6437411541,0.4085573533,0.0750512516,0.2279348453,0.4296599397,0.1282960457,0.0269891666,0.4687209297,0.6881110491,0.5679042343,0.3360940341,0.3701819892,0.4587983982,0.4254602911,0.0807486422,0.5375146502,0.5451565668,0.525262462,0.4178654682,0.1913457742,0.4173187645,0.3142937134,0.6027893755,0.2923053313,0.2459720932,0.6453472747,0.5755304037,0.5499966756,0.2530811101,0.0784191118,0.0941854477,0.493446206,0.6991681636,0.2211619262,0.0958447248,0.3299703516,0.4709068631,0.1849466067,0.0146436411,0.7132909967,0.4065544936,0.5785472749,0.1875471641,0.3266731354,0.038862618,0.5580639236,0.0108320608,0.1399504391,0.0916185985,0.6852848436,0.6631841398,0.6345783804,0.484895382,0.5654588382,0.0448677763,0.221386202,0.2182058043,0.1817141058,0.4058104082,0.4239779062,0.2255881315,0.3789482633,0.1141804784,0.6547551306,0.6368269345,0.3779022496,0.3543023097,0.1117915744,0.7011922682,0.5850699331,0.5956946092,0.6259082391,0.0409672277,0.6338205158,0.3201329905,0.2823625919,0.4737995851,0.0840476979,0.2732289269,0.1463840486,0.0780669909,0.0510236859,0.6563333023,0.1164774576,0.2986180685,0.2819028705,0.2152737136,0.6733855371,0.6446810523,0.2056176516,0.1931846256,0.0780953446,0.3110732687,0.1444571534,0.4468959357,0.0399241581,0.2546823584,0.4166497858,0.4290455241,0.4502519303,0.708047245,0.0408413333,0.0678775835,0.6609635376,0.2422572846,0.0011137917,0.5389334076,0.159331865,0.3837356036,0.3344931431,0.4472478443,0.7079260224,0.4574288071,0.004700177,0.2925111209,0.3261282704,0.3424984527,0.6736997245,0.3720818539,0.6904426362,0.3056597189,0.6295640923,0.4509131902,0.2093251468,0.6133651006,0.6086360876,0.5466338546,0.3452697677,0.4167075145,0.2032352424,0.3345935374,0.1441934634,0.2523796453,0.5821554669,0.0646120995,0.2652550205,0.3821704095,0.4219667716,0.5972381961,0.5969372873,0.0336375993,0.2581631967,0.6631724994,0.4866150389,0.4031970113,0.1369269524,0.6348277093,0.4330121604,0.3125692304,0.5241655289,0.6908641106,0.1141560041,0.2984019609,0.2320118181,0.1111171531,0.1774890573,0.2352290695,0.1573305408,0.0834102046,0.4141252829,0.3443605997,0.5572538152,0.5180471717,0.0150848508,0.1351319281,0.1937606319,0.6362236895,0.6024675155,0.6029697386,0.4135308141,0.5200088097,0.6778569562,0.5444146963,0.5804466375,0.2981936141,0.3028629986,0.3367139729,0.0654479695,0.1723474987,0.6253114308,0.3624984184,0.1033566281,0.0491031317,0.540262468,0.2370182227,0.2224253941,0.5232550374,0.047048827,0.1570704048,0.5788595204,0.1287434161,0.3992864173,0.3685991685,0.5726592436,0.1646187719,0.1743588607,0.6174705949,0.4590708159,0.6981919299,0.1248405986,0.4786310621,0.0098994962,0.0071670427,0.5693754211,0.5393983765,0.2246678469,0.1121054628,0.14627063,0.6005405291,0.3654025032,0.128027789,0.0794100056,0.2733580497,0.659910168,0.0389163154,0.1400383585,0.2770872434,0.7083190578,0.5770221307,0.1520135335,0.2103142138,0.1939523343,0.4089649682,0.1538621425,0.2260512875,0.1615723007,0.3264434221,0.2033460119,0.0271345632,0.610889037,0.4741748288,0.1730444624,0.7033433218,0.1171459293,0.5774483327,0.2323337253,0.6964438318,0.2969995919,0.2740198085,0.3893289758,0.4786475324,0.4472430123,0.163421215,0.382208494,0.6308208598,0.5216730477,0.4849815426,0.1223289257,0.2955338028,0.1621503415,0.2086507974,0.0491122934,0.3321536736,0.156329189,0.2788749294,0.0766102622,0.6904456494,0.4124697718,0.305819596,0.0452540154,0.2087447734,0.2054683961,0.1276769266,0.4379353533,0.1317333841,0.3756108328,0.1093978065,0.5124777078,0.2578079073,0.1103662601,0.4265755133,0.094608989,0.2709717669,0.5243552209,0.6538713174,0.6222220028,0.2004759513,0.0413356897,0.472011017,0.1265943251,0.4953611661,0.0829456782,0.3629457383,0.3659796992,0.5192020763,0.2141399232,0.1407767276,0.1415283879,0.1419858887,0.0381919496,0.1397697681,0.0090395333,0.5482785759,0.2112950096,0.2350405411,0.2381494842,0.2045763069,0.041855863,0.3758016823,0.179261251,0.172233137,0.6569067671,0.6672280421,0.6942329964,0.6116704138,0.3964517631,0.0532444334,0.222861361,0.2957490686,0.2350429883,0.4209804708,0.4948150564,-0.7081944512,0.1458635934,0.3690114056,0.0511699267,0.1968563638,0.619733075,0.6368832173,0.5309728064,0.0427334168,0.4373166798,0.5667127694,0.0494086085,0.1278483454,0.0801780257,0.4732469089,0.1438578931,0.602927443,0.6673839786,0.7073723552,0.0824885476,0.6974584073,0.1244388296,0.6028290546,0.6032602925,0.3003260702,0.6676301288,0.133863078,0.3450972719,0.5880061247,0.062158779,0.6245842606,0.1721143211,0.6713781568,0.1480220168,0.3514186393,0.4133025749,0.215187705,0.6799144036,0.2061556621,0.4727119532,0.0630255271,0.0124013385,0.6750811079,0.4965871895,0.1262469591,0.086670968,0.1867550334,0.063665608,0.2637598333,0.333652211,0.3342677441,0.1405744655,0.4487992625,0.0920399215,0.3729375853,0.3992648537,0.4760502179,0.292085897,0.7079876867,0.600621638,0.5126171709,0.4024619125,0.4187923724,0.0266740497,0.4635991814,0.1660589421,0.2562742149,0.1984555437,0.6590883111,0.6849522683,0.1561025266,0.0818751196,0.6964101745,0.1956827317,0.0374522554,0.3280099323,0.2476071636,0.7056892959,0.3872135185,0.2911631616,0.0744800672,0.6982535447,0.5901675804,0.2928329192,0.6742208537,0.4347880004,0.5907985936,0.0916773046,0.638865812,0.6001510996,0.2291639982,0.1991170887,0.5510666153,0.5414802538,0.5443035651,0.4298442408,0.7123071643,0.4820337994,0.4511954772,0.2539102651,0.5252084062,0.0397215321,0.3657283707,0.5743537487,0.4041647091,0.0205918045,0.1641791039,0.414011971,0.3874679499,0.0599055908,0.564879456,0.338368182,0.018652367,0.0881239979,0.0698836643,0.2092121832,0.5510151682,0.4039007648,0.6862890143,0.4099267693,0.6080202722,0.5129440814,0.4560996116,0.5178307257,0.2146386367,0.5380882413,0.217429813,0.4026405876,0.3749355858,0.6632324459,0.6579610588,0.2225121923,0.2434718343,0.4581924833,0.5640499238,0.0198567793,0.0227462314,0.0698146001,0.430097587,0.1151299715,0.5478262657,0.149429712,0.3441017381,0.4013500402,0.2364448763,0.1125145878,0.6634626773,0.5666383604,0.6241295426,0.5595772886,0.5482502363,-0.1272702674,0.5420324921,0.4430480577,0.5883594039,0.012464209,0.4871288166,0.5146165781,0.4812605612,0.5686214535,0.7050633102,0.4023054,0.5124613749,0.4871487215,0.3652095823,0.1209272609,0.6142632553,0.4429521603,0.5105371807,0.5715611035,0.3147919722,0.1028746979,0.5544437868,0.2137221057,0.5245670687,0.3736709713,0.0902685098,0.0022021994,0.1828433192,0.0519720359,0.6090710527,0.1138263305,0.1452012385,0.603410544,0.7089111995,0.1655911041,0.6359728104,0.7085171402,0.1350352235,0.3630009977,0.3151493283,0.0997547608,0.0748867969,0.3560335819,0.4845316111,0.4424049338,0.5958837445,0.103734752,0.3112005775,0.1450298935,0.4605793295,0.3887391806,0.1373034336,0.1026842964,0.4503396814,0.481502757
   0.0667910816,0.4771495653,0.4557054845,0.0649067039,0.5069474975,0.6158556335,0.2286614879,0.603772231,0.436367032,0.0447298152,0.3307483401,0.438561793,0.4530759401,0.7074957451,0.4357911274,0.0499322424,0.7025013783,0.4626415193,0.5014344165,0.2369342438,0.6674150305,0.4174807438,0.5821694736,0.4310746173,0.1940166772,0.1847605599,0.5226339428,0.2622428996,0.6134815345,0.0352043276,0.5058204195,0.3431936261,0.2756056215,0.6299353795,0.4842545924,0.5625055108,0.4975451,0.089484614,0.3878329134,0.068417176,0.3947092885,0.125647246,0.1719540247,0.3196249626,0.3301951503,0.510160344,0.5170494521,0.492015211,0.6846713402,0.5301037234,0.0967567973,0.0786278891,0.5904452947,0.4223183065,0.3626915776,0.3852789952,0.2080008178,0.2085563467,0.3234794506,0.2524216078,0.334749369,0.2339609707,0.5197424859,0.3294674059,0.7062962152,0.0777576658,0.0809403865,0.1469084159,0.5920562334,0.5023144438,0.0771098316,0.6202186529,0.561102467,0.0304415563,0.2577243168,0.2096747917,0.0540073989,0.0190615664,0.4884843151,0.148406819,0.4863515519,0.5445617513,0.3738987936,0.4780888232,0.2166911471,0.1581409083,0.4738567511,0.0719919791,0.5792006836,0.1636662313,0.602515336,0.5241699753,0.0600556032,0.531573172,0.1777284467,0.5690467026,-0.6025108186,0.2538279169,0.4165783159,0.233138379,0.0084112052,0.6903460508,0.6639590468,0.6800540108,0.1727137521,0.3388109215,0.0615815719,0.2479451263,0.6868406255,0.5187139363,0.1761727163,0.0387758112,0.3589093819,0.2333981347,0.2373459745,0.6938775091,0.1769773508,0.6075413846,0.1344251631,0.4898338446,0.5189217136,0.2425762233,0.6167766887,0.372417146,0.3541591866,0.4973741757,0.2558499693,0.6363453306,0.4256054728,0.4601043673,0.4537515644,0.082433847,0.1067469426,0.3114144049,0.5360880484,0.4391553077,0.417881233,0.3516167731,0.3612468831,0.6593644751,0.2418373371,0.585685987,0.118054757,0.4939019594,0.2131963082,0.3422446719,0.3468513321,0.4331953752,0.4477644366,0.450496217,0.4408823136,0.1723546339,0.3964307526,0.4550948491,0.576679353,0.0609073143,0.3516354751,0.4146963085,0.1247926455,0.2428635407,0.0854634814,0.3570793252,0.5371316123,0.5530707082,0.4634348897,0.655742158,0.3379607873,0.30606496,0.5593984475,0.0969923062,0.3356373202,0.5195799121,0.540377518,0.117897189,0.6890972662,0.475666939,0.0474262137,0.2450876552,0.7148712303,0.1084893287,0.466209038,0.5758698182,0.6416998331,0.5573746894,0.6129004433,0.1810419832,0.5452016072,0.6785917027,0.380249323,0.2514492253,0.4721428072,0.4834390958,0.2292826737,0.3584932261,0.6008536635,0.2654689956,0.4898765257,0.6612727023,0.1953378831,0.154870813,0.3501345804,0.2930689162,0.3446514566,0.4261580248,0.1275312253,0.5506001157,0.6916459227,0.6049895278,0.057703182,0.3940066195,0.4546624777,0.5167025861,0.3423729723,0.4413567736,0.218022515,0.5674370193,0.7159099216,0.2786355613,0.4721322463,0.085908962,0.160038004,0.6944514303,0.5953260506,0.5555461871,0.7092440402,0.5363929971,0.4009111828,0.6740347464,0.2910741281,0.0702626168,0.0825244875,0.2042543205,0.1888367454,0.5072439324,0.204958145,0.4081750532,0.1352602656,0.5575896698,0.1277294362,0.439193046,0.080279131,0.5491942483,0.1852317924,0.7122957502,0.1452035875,0.2776397432,0.3190470914,-0.708613711,0.1383564966,0.35680938,0.1380561977,0.6628868811,0.0824808939,0.6122747534,0.1822130299,0.2279093813,0.2466282578,0.3575451466,0.5285913553,0.1827093057,0.1462163515,0.0505765228,0.506109056,0.2284347366,0.5961351305,0.2481819649,0.0869547681,0.5135179969,0.3662638541,0.6009713948,0.3436112445,0.1182451908,0.147652144,0.114605737,0.398238346,0.1436609469,0.2232512747,0.6182986616,0.3966672383,0.5202216467,0.329772168,0.693223342,0.4125829162,0.2503596423,0.4909388984,0.3189255782,0.2479106034,0.2558513699,0.5351864388,0.3770600073,0.4049365293,0.5954370117,0.4953161603,0.2448225738,0.6981185107,0.244703723,0.5884020519,0.1663181911,0.4876860768,0.2528994372,0.2642925281,0.0125098483,0.1348276213,0.2876647547,0.0341572973,0.3228538559,0.0640608358,0.6008969222,0.5707791989,0.2451562812,0.4448542993,0.0696124678,0.2760205469,0.1852157251,0.4690178115,0.0041955271,0.3539702655,0.416256988,0.6047437924,0.3219374317,0.4476734857,0.6357998987,0.217617834,0.6251868171,0.3275340445,0.1673834718,0.423040252,0.55675516,0.5002953013,0.6643190783,0.4471929147,0.2616004502,0.4273712754,0.0021631907,0.4772957083,0.2066884239,0.2486250196,0.4564722778,0.1359356485,0.0176831666,0.7091009532,0.4102750966,0.01077163,0.6614449272,0.0955110466,0.2905115714,0.3218212711,0.6125408995,0.0731096668,0.6524117863,0.455877498,0.3854668399,0.501039092,0.4190441626,0.1339931441,0.6095884958,0.1259734655,0.6121726751,0.0265815501,0.192963915,0.381010667,0.1076928591,0.2802700613,0.2789092531,0.1808949746,0.1514992641,0.3272987844,0.5680270939,0.3304854658,0.4909896905,0.2545826098,0.7059283927,0.1326280106,0.1287244141,0.340005009,0.5179039924,0.0523212106,0.1137016339,0.3109855381,0.2133786325,0.1763741495,0.0368166392,0.4049708821,0.6996775191,0.2157851159,0.4555167379,0.0349715863,0.5515998924,0.4458077115,0.0234747092,0.2189036571,0.1097652363,0.1732025208,0.5050795024,0.1262713618,0.084465816,0.0962794166,0.1358986492,0.3020115616,0.5047083899,0.0915764985,0.1523730149,0.6095086984,0.6671616339,0.093644108,0.4867720176,0.2577077409,0.6764660302,0.133823545,0.645198501,0.039410819,0.2749460991,0.1140158027,0.4001240383,0.4874989622,0.466638368,0.086959064,0.2607871839,0.6665571782,0.3053058893,0.0497151261,0.4332665013,0.679245711,0.2385312987,0.3992137066,0.4620643451,0.5820283615,0.700707775,0.2944291386,0.3389147054,0.2681335181,0.1907800374,0.5219169355,0.5663721927,0.4317350735,0.0985780761,0.0976284452,0.3518511648,0.5087098697,0.057892173,0.0995964687,0.5989111399,0.1393729374,0.5108144728,0.4245371035,0.6417854533,0.4046567128,0.2509874394,0.2696094846,0.0571423281,0.6402647501,0.2905439604,0.2138009596,0.5251362251,0.3956153474,0.6625516678,0.0354217592,0.2712023111,0.5431975513,0.275475634,0.4335328787,0.3256273987,0.2466916711,0.2863097313,0.4825154761,0.4537518232,0.4258172124,0.6108550531,0.2850858409,0.4327504107,0.2791375743,0.2801417438,0.3373724228,0.5275305546,0.3153735843,0.4298974858,0.5642322689,0.5275281499,0.6301035157,0.1861102029,0.4173976013,0.1034163659,0.7135138106,0.3239787944,0.5069772007,0.2897692322,0.3748577625,0.6123589881,0.2305991444,0.3752937104,0.4467358127,0.6624628254,0.3878069949,0.5789545876,0.5726717295,0.3462518874,0.4704721562,0.1295654888,0.5352049927,0.3685682134,0.1626373327,0.0751051376,0.4145868287,0.6533884741,0.3619923659,0.3053897416,0.0217730889,0.2160660408,0.6609566015,0.2949929336,0.5815042065,0.2410974917,0.4178389094,0.4466869248,0.6231444,0.214808909,0.5823108169,0.4151934197,0.3079914191,0.6227653119,0.5659197021,0.2093010178,0.1223845573,0.5695356155,0.5070981806,0.2787003155,0.6274577294,0.0664384106,0.0196405003,0.2324222156,0.5192416995,0.1506998221,0.493409603,0.2237402883,0.3521008544,0.1393231392,0.3249225787,0.6959339576,0.0342024716,0.1383381284,0.3748393203,0.6642767596,0.1365989886,0.1748992461,0.3180731593,0.536658848,0.6298211462,0.1512900684,0.0862614665,0.0069560606,0.5958105237,0.3652339091,0.2921211445,0.0635852746,0.472899783,0.4687643264,0.0824694374,0.0381205159,0.0800035407,0.6652646062,0.1621258365,0.4618375055,0.6212663859,0.4063713818,0.4818247779,0.3328331113,0.400798583,0.176004845,0.5162621972,0.5363639949,0.5392999491,0.1500661309,0.0503451995,0.2834996138,0.6618648216,0.6385203743,0.5143933804,0.0993215259,0.0474493145,0.0809320138,0.4060442651,0.590036713,0.6992274531,0.7122490621,0.56659022,0.2988681497,0.5561654415,0.6109189462,0.4350260623,0.3071361806,0.5615914897,0.3166850463,0.1215217348,0.1318815755,0.1631247,0.1673408168,0.1530405051,0.1717699094,0.6816086166,0.2760121011,0.5251812622,0.4820789088,0.1532524289,0.6579776012,0.0834940885,0.5739742355,0.4052229728,0.185100496,0.5303319086,0.3221273554,0.4948227644,0.0317620772,0.6682202359,0.4209545789,0.4837353612,0.3477767355,0.2287603684,0.6314637982,0.5851246581,0.507454846,0.6811611443,0.3308115352,0.0513511054,0.0136875848,0.2980894328,0.1934694541,0.6657601497,0.3706372595,0.1809371367,0.4069718656,0.0592846813,0.7143577068,0.156563814,0.1251253033,0.4001048623,0.4670199439,0.5141907066,0.1416819438,0.5746442902,0.379465431,0.0895721371,0.047981593,0.310857696,0.6535280402,0.2131773343,0.1935543232,0.1978081854,0.2181074347,0.4947012064,0.2967723248,0.4664787393,0.3478244467,0.6576803755,0.362271788,0.4169368735,0.0039337986,0.4207091816,0.3814858079,0.3768957745,0.3032367474,0.5091782171,0.3776879469,0.5360480607,0.5445400401,0.4639894689,0.2089161787,0.5511226315,0.4879699151,0.4623260617,0.2087286325,0.3421770809,0.7032720152,0.0577473629,0.5502540145,0.2347612245,0.6656074365,0.3975247889,0.2437651546,0.3067521326,0.0302369605,0.571645694,0.6643413659,0.4852874995,0.2251792275,0.0294973738,0.1122275919,0.0869260977,0.3001524377,0.1031737767,0.4657711443,0.0351719264,0.3627604607,0.1024621536,0.4361784914,0.4959650873,0.5233097532,0.6440356774,0.5607015973,0.1931486757,0.5167550082,0.6612157093,0.597498753,0.4416747923,0.6055859372,0.3492652676,0.0183344501,0.1988821984,0.1110927884,0.6212644319,0.2014599417,0.4748684852,0.5588343253,0.5833665059,0.0665344617,0.0260861379,0.5489204638,0.317059772,0.1033672425,0.3519689311,0.1651115734,0.5867862307,0.197368576,0.6697191,0.6146518307,0.5956137434,0.2961596573,0.4853081763,0.3443143051,0.1009017579,0.5432796856,0.5503685554,0.5738052691,0.6187892554,0.1893854059,0.6004568371,0.5280882192,0.4682840365,0.1415999253,0.1323882792,0.5069039314,0.655410416,0.2724362124,0.6959809226,0.3590608652,0.2811046836,0.2502022355,0.0655623253,0.518189756,0.6369769607,0.2616676688,0.3352465506,0.5025612397,0.0573080902,0.6166537775,0.0782019745,0.6557337578,0.1972120069,0.1808303913,0.0070658051,0.0669324026,0.5523030563,0.5150778661,0.0159559493,0.3773406626,0.2442717514,0.1602829563,0.6811109357,0.4764556236,0.0596175491,0.0094736625,0.2306017233,0.2360295479,0.1574582095,0.6138529949,0.1888180809,0.43302846,0.018284592,0.4799161355,0.2679702855,0.4386063421,0.6758048642,0.20353451,0.6241632758,0.6882050982,0.2939446914,0.23468449,0.578262296,0.4816022196,0.3016947349,0.3979740631,0.5397713909,0.6496681883,0.2219228714,0.5515458744,0.6291635637,0.2255852305,0.2610820094,0.6538859462,0.0826597321,0.7073351284,0.2363089608,0.5080397943,0.1578046418,0.6531668426,0.3450866634,0.1850803561,0.4524205278,0.0764201665,0.4526589948,0.0838802531,0.4535326638,0.0405153392,0.6018761105,0.2734190665,0.6013754064,0.0238575951,0.4868569307,0.0433629526,0.0914793586,0.1072998365,0.1169730563,0.1162925042,0.15233057,0.2710320327,0.1281817593,0.2729610878,0.2424042666,0.5170224397,0.4634379519,0.4617797719,0.383785239,0.260688103,0.2625619411,0.6850209562,0.6799211983,0.2959499607,0.2902292487,0.589944501,0.7138829527,0.2617432792,0.4817472034,0.0693774767,0.4199202916,0.5266163412,0.3043454259,0.143923683,0.3664375007,0.0984911328,0.4984151375,0.5117136883,0.4575558326,-0.3800271958,0.1008140916,0.6323907344,0.1382029694,0.2421782677,0.0887492666,0.4444519592,0.0492562145,0.1317303364,0.2326090674,0.2977321984,0.0548778999,0.5481042391,0.2329477302,0.6751487124,0.2443875612,0.1523107157,0.047820951,0.6531111451,0.5413374571,0.1752816385,0.3454227325,0.1635488803,0.5005884522,0.475668853,0.4975976482,0.7142513126,0.5702312145,0.4336975825,0.3374324036,0.6688638623,0.1729934388,0.0132484754,0.2217891579,0.5493233254,0.3274572594,0.6822873453,0.6174187132,0.6168569066,0.1544417267,0.4729719449,0.1902649975,0.1987938553,0.6256153424,0.04413415,0.4966695135,0.2625221176,0.386897891,0.3502436895,0.5713917404,0.1476143505,0.2217970562,0.1185612344,0.1859465559,0.4194137335,0.2365618047,0.3803984803,0.0680114172,0.4937440222,0.0454684767,0.2702780515,0.2288276368,0.1316979778,0.5153831608,0.5742102348,0.1264053115,0.6911456574,0.3577458543,0.1063613413,0.1460178106,0.7127765247,0.6537233504,0.0895132926,0.5888567997,0.7004526681,0.550582337,0.1089054272,0.6050561031,0.3167635452,0.3667439345,0.5385703274,0.5323533281,0.6772263969,0.5414277121,0.335641561,0.6810025828,0.0370382996,0.282288489,0.6442065606,0.3523145272,0.5740511182,0.0722935548,0.1528335527,0.4692831152,0.6086650612,0.6803548469,0.4368611108,0.5103331346,0.6454011861,0.5913660538,0.4760537234,0.4459630348,0.2726450865,0.6328526405,0.088960584,0.2154176205,0.1606149357,0.3483680701,0.3228812547,0.1452386146,0.6693246255,0.4648999337,0.5311050512,0.1863525828,0.6267104063,0.4640876453,0.3054026261,0.0688977024,0.1817802338,0.6231210579,0.025267303,0.7053138489,0.0532942258,0.5339964419,0.2579103187,0.3479144002,0.3054634148,0.0702168813,0.3326776748,0.117823951,0.1312928058,0.5367668624,0.3579009634,0.3482383496,0.249012936,0.0502721353,0.2483353846,0.0486262938,0.4993129433,0.3241380063,0.5959158686,0.7061060832,0.4692920989,0.5942390546,0.4161913955,0.4840012662,0.5796630271,0.0912432791,0.0304191092,0.4512641688,0.0311636916,0.2387236777,0.5704168532,0.5031271881,0.3672997028,0.4348474725,0.1397090033,0.1342299286,0.2162280889,0.6184570467,0.1181600793,0.1251657413,0.4989733205,0.620830847,0.4420119078,0.0504919265,0.6698483917,0.3758310197,0.3909496182,0.2512080366,0.4026350244,0.5506555161,0.1844542256,0.3162391816,0.7136237635,0.2995711107,0.4383162793,0.6778237262,0.3130870099,0.2977950266,0.7153656415,0.1496142617,0.6320947722,0.5178914691,0.6201998398,0.5560251861,0.3088820038,0.5097286353,0.1243889693,0.147654068,0.3878196,0.2491916325,0.4301263323,0.6500856296,0.4813852641,0.4441203124,0.2974648815,0.5509527535,0.1041196802,0.6338489024,0.0723952882,0.1409396187,0.2531349412,0.2950091577,0.4748407768,0.3567639392,0.3277058628,0.4787551509,0.240458923,0.1008729713,0.3929499373,0.0904447886,0.3688311426,0.3146893854,0.4422943366,0.3385606108,0.1120652734,0.2301367313,0.0379481982,0.1115075404,0.5381204425,0.0287713448,0.027717259,0.0327618169,0.3695624295,0.3689297131,0.6213985539,0.2522872304,0.5961852393,0.4102107373,0.4253407195,0.5924065177,0.4524690624,0.3394547805,0.554048513,0.6661735509,0.5094027297,0.3229246908,0.616151188,0.3240179171,0.2067040167,0.6711775896,0.6465969264,0.2906144048,0.478545144,0.133267056,0.3205135399,0.2161358737,0.4210533275,0.2344488561,0.1421188588,0.1580735962,0.3608558297,0.3208249678,0.3975871759,0.1972341488,0.4248165094,0.6578444333,0.2512601796,0.197520461,0.1623631459,0.1930489268,0.1019304723,0.3279362345,0.0483428297,0.1090431382,0.3031817041,0.0297819845,0.2261062603,0.372802088,0.5137149235,0.5193271791,0.5282148543,0.3590977353,0.6801203306,0.246624402,0.3021940797,0.7122304457,0.2515365582,0.6027334856,0.2787751416,0.0240841241,0.6158426135,0.5435341175,0.4119964014,0.01084481,0.4948396954,0.0626335081,0.09134178,0.5155833468,0.3901085493,0.1061411705,0.5080902224,0.5720346198,0.7081917475,0.5746848974,0.2342858459,0.587695347,0.3014942303,0.0158892232,0.5056251761,0.3027935393,0.0300793211,0.417111128,0.1828489297,0.1496334119,0.1528073126,0.2791941815,0.0003403676,0.2206113068,0.6636743684,0.6630949583,0.0195675353,0.247289725,0.0611312252,0.6681181003,0.3326852301,0.0409761298,0.4375614155,0.531548971,0.6690734929,0.1763088018,0.0766000303,0.21093923,0.3199796562,0.349376337,0.7003934017,0.2465554468,0.2911978544,0.3251198524,0.1666423593,0.2051073123,0.401978681,0.4941079591,0.0064965298,0.1944397846,0.5595386706,0.4344870289,0.4523822875,0.151900379,0.2495210189,0.6094417297,0.1351235137,0.4171529963,0.3095530912,0.1218835303,0.2104294434,0.2745855256,0.3405442122,0.4160180806,0.5175753347,0.1546388306,0.532985361,0.6177524655,0.1849225031,0.2161359375,0.6284068838,0.485119039,0.0717774543,0.1830022371,0.369908135,0.4608226528,0.6948528341,0.4279174882,0.2532669561,0.3632308718,0.5055655275,0.0710393476,0.5062299631,0.0582526837,0.5264456808,0.5759380475,0.430601709,0.7041949898,0.3266926068,0.4641201096,0.4468782445,0.5411759921,0.6646365911,0.5973719064,0.7042167876,0.3960301722,0.5414513408,0.0489392269,0.499245253,0.3288687992,0.1106757415,0.6319819165,0.0574077496,0.6918019323,0.513272415,0.6878908015,0.0696409304,0.6112488132,0.6733123863,0.6768273992,0.0503868674,0.6399090899,0.6367028564,0.598814883,0.1215407128,0.5131790397,0.4445659273,0.181777447,0.5483497019,0.5042445896,0.586023863,0.683275517,0.5934605594,0.117047419,0.0540506778,0.3855639717,0.6702564432,0.6753989177,0.3830856625,0.1809615019,0.6677884567,0.1036807504,0.3488430332,0.2473249493,0.5349393373,0.1082521026,0.2737683917,0.5703676667,0.6991330799,0.0540691812,0.0697371189,0.0744768394,0.0462435129,0.1142616439,0.2839597368,0.1655959709,0.4080513442,0.6440538112,0.0029081347,0.0319393766,0.2614192449,0.6645559996,0.5485325907,0.136828432,0.1449372115,0.5100373413,0.2777432139,0.0929668142,0.186394616,0.4365697998,0.3422960768,0.4872113961,0.272338946,0.1470523444,0.0846197932,0.0180629793,0.2523089966,-0.2134513072,0.4576262706,0.6354613106,0.4900677987,0.405759878,0.4457847647,0.508609446,0.3760620944,0.0099619857,0.4022019237,0.4100197317,0.4091512885,0.6789831416,0.4654891803,0.3578631183,0.0036826136,0.4228429969,0.1860829509,0.385739243,0.5698862369,0.1484680899,0.4863486551,0.4986797876,0.400238445,0.4591716769,0.5643927003,0.444152944,0.423017355,0.065224335,0.3566802906,0.5441739553,0.3259802149,0.1764771535,0.5815948007,0.1865586851,0.2615888765,0.3227286748,0.1149654729,0.5975061005,0.3684321801,0.6223880915,0.452091927,0.0776857788,0.1677084001,0.4618125331,0.0208020481,0.2338820016,0.3334075776,0.408820862,0.3538827893,0.167251441,0.3906491075,0.0096942239,0.3525657563,0.5309117008,0.0544649355,0.2699909282,0.0462015838,0.2486492218,0.3881233542,0.5849362464,0.0773765879,0.6603213056,0.5837827797,0.5396457234,0.3279229783,0.6485525173,0.3612062033,0.5930622179,0.3739677626,0.4935520725,0.5265802474,0.0582504876,0.7155701927,0.0354084516,0.1617051199,0.3471857543,0.4906898716,0.5110333198,0.0964986073,0.3625131451,0.5456212513,0.0430305952,0.402848016,0.4678199289,0.0208308887,0.5532663491,0.3413932901,0.4391480454,0.1517865597,0.6806921011,0.2085671362,0.0136240953,0.3742947307,0.1970148404,0.4236326509,0.6716877528,0.5921869086,0.6652422325,0.3040717627,0.1901176144,0.2858298934,0.3498055933,0.4126484446,0.1649904913,0.6798356442,0.5657859954,0.6993873969,0.1929836434,0.1550314494,0.051176174,0.6942500938,0.3123285863,0.0062210263,0.1409381118,0.4276357595,0.5789991394,0.2537429809,0.2828787646,0.0390576197,0.5963700791,0.6087287156,0.0038186583,0.2054169656,0.4388803167,0.0666834269,0.0498813887,0.6112536278,0.509596129,0.5826343029,0.3658630475,0.3990370193,0.1635293715,0.6583469423,0.0721576795,0.7010685547,0.4957534856,0.5835152548,0.1309568838,0.337035316,0.6720456181,0.2952851134,0.06060361,0.4758220602,0.6056708067,0.6595617745,0.4388188793,0.094802597,0.016632917,0.0148244355,0.4363727126,-0.4229116242,0.6629442366,0.6089648844,0.6663662871,0.5228121002,0.2819812294,0.3120586726,0.4314953986,0.0972763761,0.3324387818,0.4000088319,0.5748442603,0.2954273896,0.1597839048,0.5905952342,0.0123771136,0.4473798705,0.1201523659,0.4056654777,0.504748034,0.2077757806,0.0943965941,0.1549057363,0.5853840473,0.1748741932,0.4935006699,0.5498705819,0.6095163488,0.1655828155,0.4853413706,0.2230167085,0.6939168237,0.0840923184,0.5850939743,0.6578622323,0.1809072735,0.2755097161,0.3694798245,0.2747079878,0.5248497218,0.0926711442,0.0375504078,0.2377992233,0.0297416766,0.2762298857,0.5538007765,0.5467195517,0.598657147,0.0507904292,0.6047757933,0.1896269707,0.4702366233,0.3530222929,0.0585297019,0.3356652104,0.0496197167,0.6985188849,0.0139950736,0.4844747372,0.487831236,0.4372338146,0.1492776703,0.6311748928,0.5974725677,0.4510989394,0.3333461798,0.3109694035,0.3077576049,0.5955563622,0.0268823139,0.0202726882,0.6249841874,0.182501248,0.5228210268,0.1235196399,0.1709680174,0.1071334937,0.1931659206,0.5730168994,0.0985533343,0.3815149576,0.0738403863,0.4507306457,0.2258201483,0.2029579916,0.3579081972,0.3995024995,0.3074042172,0.59473158,0.7137015556,0.2376905489,0.1498039973,0.3153834187,0.0237972432,0.023465238,0.1883939793,0.2734093826,0.2089907341,0.132069981,0.5112639636,0.3899991384,0.5091090615,0.2067916438,0.0570054049,0.6517015714,0.5482021572,0.4269093933,0.7039668922,0.2827221898,0.029519065,0.3986311212,0.4377157225,0.6595076172,0.3637127178,0.6110117316,0.6231605921,0.1850400942,0.6696676866,0.0164040134,0.1016320493,0.049608981,0.4909770928,0.0684033894,0.27544801,0.219145577,0.6055119771,0.0856568286,0.2160620228,0.2846704413,0.51363698,0.2409175704,0.029710722,0.3612091708,0.2739436147,0.0941313942,0.3132911153,0.4597117767,0.192838036,0.561500879,0.252503125,0.3587196816,0.2188734414,0.5419491197,0.4098417881,0.2365361404,0.3856142106,0.5849179879,0.5237060737,0.2685817247,0.4566164414,0.1512075388,0.1178489893,0.0050763113,0.1615656912,0.0421282673,0.3774907523,0.5683271301,0.5414080583,0.009901789,0.2713252252,0.4550982075,0.4557215481,0.224121398,0.558355334,0.6501934226,0.3568606807,0.707628606,0.1511525204,0.0799184841,0.0716863312,0.5909986836,0.6689644205,0.540055532,0.0280716639,0.6800567129,0.3338787989,0.5930905247,0.3635897681,0.2297067648,0.4142087846,0.5721652756,0.2736466752,0.0305629165,0.2782302553,0.5665734326,0.301405305,0.1916925178,0.6821844208,0.3392419404,0.3046058002,0.3721516697,0.3341803343,0.4934226134,0.0970997707,0.2049424162,0.5772073722,0.4009309464,0.6745349554,0.027472927,0.6761566789,0.0877361566,0.4548829032,0.4662192202,0.0417289286,0.539815991,0.1650424245,0.3459435702,0.5132989703,0.3747994601,0.0486885228,0.6195997931,0.3774444244,0.3457473683,0.068136605,0.5722466511,0.7070717047,0.7129000693,0.3909782906,0.1883823963,0.3389919105,0.6149115106,0.6844311417,0.0480339365,0.3589069736,0.3492241419,0.4096703817,0.4359291526,0.261897871,0.3783924942,0.2290375847,0.4642999544,0.6651185815,0.3717840775,0.4049913275,0.4175921007,0.5363635373,0.1637469386,0.2580931232,0.0370283866,0.0348113238,0.441286396,0.059466146,0.689898944,0.6802008808,0.5434331723,0.4150416846,0.1555798797,0.52177715,0.4519776702,0.6502274411,0.4830527261,0.3020752426,0.5175815594,0.136266219,0.3533176475,0.1284488926,0.6666164509,0.2347408599,0.022820298,0.0451783184,0.5824702587,0.3374901008,0.1097208635,0.0466124203,0.2884987102,0.4948061695,0.2465426079,0.1819804846,0.4173586009,0.6387590152,0.0739711553,0.5507274506,0.3203876243,0.6034467107,0.075367683,0.6546960469,0.1869655148,0.6677312262,0.2183878374,0.0395438266,0.432071041,0.3131202192,0.2878404683,0.5261889475,0.5347545136,0.2046979077,0.3081624116,0.3794724941,0.3800112188,0.2045929528,0.0916132716,0.5185428525,0.005336184,0.3618785888,0.4502607852,0.0030453308,0.1989138421,0.015717774,0.5701858038,0.5209508878,0.6507568596,0.0350854051,0.6794738134,0.3312684623,0.4171536169,0.1321669483,0.1279960832,0.6256785558,0.5497918111,0.3266216405,0.4900725089,0.1229556048,0.7120700371,0.5672602939,0.630267198,0.1604546415,0.084033304,0.1448800094,0.5863610547,0.3067393367,0.4084430636,0.0068281825,0.3305932691,0.5932479178,0.6390528116,0.0638536631,0.0981418511,0.2736366657,0.0032892509,0.5236275984,0.190814759,0.4369943468,0.5103300801,0.6129310576,0.1801689678,0.044736786,0.0323022741,0.0026874912,0.5800940827,0.4487454582,0.0748387495,0.36438876,0.4484508641,0.1935501595,0.1414126086,0.5697728054,0.5340637029,0.3286609901,0.0616538096,0.5744767581,0.0280255854,0.6690824494,0.6098504397,0.2030134492,0.5126777541,0.0512150635,0.0785698937,0.0822038383,0.4988419038,0.5123290512,0.6958977267,0.5036769776,0.6047753242,0.0563555701,0.0809821699,0.3332554859,0.0658823772,0.6783926131,0.1225457354,0.3310562062,0.5237686621,0.2059030907,0.3231238035,0.0437557087,0.1469164094,0.1530982736,0.1607261173,0.1982846229,0.2388434885,0.4662649445,0.1475929196,0.5129906076,0.3726280842,0.5401647274,0.6102900693,0.3771520135,0.3752728754,0.5818074752,0.2229302279,0.6719695405,0.4128408456,0.5564136423,0.0125376811,0.1633672314,0.0776308742,0.527223302,0.1016421287,0.237989944,0.3360863705,0.3947004338,0.2951488558,0.6378506696,0.1644230303,0.3639470844,0.3137199277,0.6389430617,0.0584559745,0.333041235,0.4479008586,0.1142445413,0.248467663,0.4114259498,0.5540145679,0.2837641895,0.7113265159,0.4272724523,0.6025256572,0.2059694047,0.5759936414,0.7111975928,0.666315776,0.4170374576,0.2382206004,0.7012304558,0.1072223512,0.0723304365,0.4934749203,0.1163170522,0.4251631324,0.3584185433,0.2620398943,0.4239228531,0.1811338124,0.63653815,0.503948073,0.1424386784,0.2335312803,0.1115585833,0.3240333993,0.5055552579,0.0819324476,0.3843284071,0.5995948297,0.5901839218,0.5758763157,0.3577918809,0.0321557708,0.6975097298,0.52157963,0.0145493997,0.4880685217,0.2190803605,0.5057070095,-0.6468749548,0.3261949732,0.6748827771,0.4573029107,0.1644467995,0.6256852865,0.0489105144,0.2687194266,0.0875713846,0.0372425956,0.3078071306,0.268861873,0.4194482441,0.6242189613,0.699918604,0.0023755531,0.2544053238,0.6173635347,0.1739756865,0.3874838234,0.4324366356,0.5399816241,0.4538306888,0.2794958181,0.7104226336,0.1506136129,0.2275839229,0.1693488889,0.6181518248,0.2975835858,0.6365089267,0.204708802,0.4951603469,0.4280013976,0.1950723443,0.3130760901,0.6951919677,0.21835759,0.2755676936,0.666227878,0.3047524646,0.2271851736,0.0305378948,0.4658561117,0.6475444599,0.3136884355,0.1246842482,0.2333927367,0.2032751655,0.0182725155,0.0729015266,0.5739067311,0.0494653428,0.2564122398,0.4178734722,0.0675717991,0.4758998722,0.1666714508,0.5474483257,0.4540894543,0.2655749093,0.3646699701,0.3820817467,0.4620127631,0.3735485973,0.6414989428,0.5287986894,0.2356827329,0.0737386222,0.5674575803,0.1643363184,0.0444323302,0.0219992958,0.2057125225,0.4378170178,0.2444730044,0.0237272596,0.4746522643,0.4774342519,0.3063710099,0.5540408826,0.5217738353,0.339378514,0.4685282022,0.2358987211,0.0188098734,0.5822644517,0.6975231871,0.450178527,0.4391990274,0.5944461677,0.2145907925,0.5478231003,0.3618715055,0.431918982,0.5764338264,0.3939237606,0.609296433,0.1361345368,0.2158589839,0.4613790557,0.1186858502,0.353332628,0.1333386889,0.2493714539,0.3900287767,0.4608340333,0.6182483076,0.6338779873,0.1543839914,0.6767870324,0.0005553837,0.2021865429,0.0525376002,0.2989784315,0.4399264586,0.581219099,0.214597062,0.379969071,0.2488736497,0.1503638479,0.0998944282,0.1542030229,0.2895893711,0.0715805067,0.4192535463,0.0890775292,0.1392313098,0.5935890959,0.1802211707,0.4325289631,0.1941311513,0.6522386788,0.0682023567,0.1277597124,0.4939194407,0.591346385,0.1272698889,0.0047081235,0.2283262198
   0.5577365806,0.358727335,0.0582895531,0.203228765,0.6986027296,0.0931761328,0.3189988818,0.6721418813,0.4863164104,0.683396697,0.2928558113,0.3152812248,0.0704403534,0.5859037619,0.026719191,0.5157903769,0.1259514931,0.6734747086,0.4034461299,0.2523141456,0.4558408391,0.1385818536,0.6965780445,0.6355857245,0.6281142381,0.6658856104,0.4692597013,0.3744486371,0.0266807927,0.6065764383,0.0889177005,0.0854866035,0.0417526033,0.1602447338,0.2386184517,0.6514896388,0.0824462607,0.7088780342,0.653599759,0.6106041244,0.211065819,0.5755591027,0.5602356567,0.5847866972,0.445011927,0.4966641326,0.3435148122,0.5431286358,0.4680921858,0.1652149351,0.6173224109,0.0324829685,0.0250424598,0.651108333,0.2306708928,0.4777844161,0.6249977974,0.0965233765,0.2451717514,0.5272864316,0.0000491796,0.250860705,0.3319805277,0.4242810499,0.1413615565,0.0560939389,0.0663647399,0.1516414142,0.5608543504,0.5321878128,0.5240076532,0.5018375303,0.1759574395,0.019820395,0.2072131442,0.508676782,0.2897703614,0.1169127859,0.5380596031,0.6256536197,0.4633079777,0.5781193742,0.0438263837,0.3733132643,0.0506596747,0.3422309071,0.5436508663,0.5587699471,0.6701065796,0.3483330454,0.2493153755,0.0924436211,0.5086524972,0.3716310824,0.4053708844,0.2294675567,0.0427140608,0.3495096009,0.3732750339,0.4273533137,0.0491495176,0.5698719906,0.3698333486,0.1266337109,0.546073112,0.4756149918,0.6676869498,0.6711915135,0.0039962199,0.4201050653,0.4785832666,0.5029276102,0.057147482,0.0898174153,0.2013746196,0.2224993877,0.0787800825,0.6066583164,0.1727225988,0.1858492108,0.6966025779,0.3991258518,0.1829054494,0.5679828313,0.015445071,0.7151907829,0.3805821615,0.3111249042,0.0984110056,0.30586939,0.3470144729,0.5942153755,0.2579623636,0.6315965811,0.7058018294,0.179253003,0.7138027793,0.2101886422,0.5239656569,0.5035496762,0.5790417244,0.2714574087,0.5416201023,0.3514110962,0.6892584969,0.3635702239,0.2231879214,0.6848367338,0.2259052845,0.5936176765,0.6515972796,0.0417666413,0.2435455136,0.3457744743,0.0528097026,0.5669785729,0.0983800727,0.5127446709,0.2933062148,0.4411808678,0.2324363817,0.3391940726,0.395438605,0.1143703965,0.6296473419,0.2626958136,0.5184120208,0.1358747747,0.4653157065,0.0708879258,0.5747576946,0.0952954266,0.1658351134,0.6048476225,0.5394841074,0.0252098801,0.4332749331,0.3741072525,0.6299688294,0.5913175519,0.4994177556,0.6738858029,0.215213753,0.7014313417,0.3823768058,0.4504991265,0.1175098947,0.5928957271,0.4981856402,0.6414531188,0.4373516647,0.2270688287,0.4288960506,0.4669021214,0.1704555182,0.6814988852,0.412740178,0.2954262701,0.1293714845,0.3067957612,0.6233185683,0.2075110454,0.192994257,0.2816510039,0.2814460101,0.1821650026,0.5081646052,0.5321180284,0.4385563297,0.0178688364,0.4754251547,0.3582470748,0.0422077795,0.4163525395,0.0884497908,0.1395622845,0.5330819644,0.4894318313,0.4007411013,0.4162200158,0.6129954588,0.67043681,0.1979723385,0.5459684557,0.6657229305,0.2756240679,0.7008780539,0.3600998972,0.6311824696,0.5763798372,0.5737910618,0.273576858,0.1235092094,0.6882108118,0.6180982938,0.1612608201,0.0882883232,0.3539002166,0.0293964948,0.036836655,0.4103315272,0.343363236,0.7044877238,0.1807370034,0.4654142544,0.6845925372,0.2144167446,0.2983436799,0.685711167,0.4275245991,0.5585921133,0.1865457539,0.6461892245,0.5788821261,0.6247490345,0.5657912139,0.3037512244,0.1319322452,0.0387735947,0.1602106473,0.4886394492,0.6500729411,0.4198534183,0.2311391957,0.3986796362,0.1702183236,0.2308672716,0.4640811007,0.2866819706,0.5531172531,0.4484429192,0.1952131612,0.5415953228,0.3988632892,0.5407045888,0.6460999805,0.3771903534,0.498175052,0.2904718854,0.5161390645,0.4817142691,0.029360301,0.2657674869,0.0984356981,0.3101348914,0.2396925958,0.7097067934,0.5003655206,0.5787614994,0.1562604129,0.2433717085,0.6510444853,0.6155315059,0.1619220487,0.5739460092,0.4105556623,0.2299036322,0.5045362756,0.5871131251,0.4059473039,0.1456433507,0.349578927,0.1469309859,0.6263439892,0.4690717811,0.5681496549,0.2859025419,0.0428287568,0.3101499676,0.6722154073,0.1787052929,0.0000179096,0.6737032823,-0.4398132263,0.5883926585,0.0702008899,0.6385210336,0.4051323078,0.5366112499,0.7028251043,0.4023210583,0.6740464796,0.4424986275,0.3025756671,0.6675270137,0.3063495583,0.2109579145,0.2327689179,0.3661178413,0.0899432278,0.6236442918,0.6873150488,0.4096473573,0.279553747,0.1475939919,0.4216370099,0.5996910507,0.590210862,0.3668238752,0.3330429812,0.0281805988,0.347464054,0.3174859898,0.4399408359,0.6906665608,0.4584086378,0.5223995803,0.453135556,0.3849109478,0.1760176428,0.5612217308,0.3499766416,0.2675464045,0.3835237246,0.5228697013,0.0549299719,0.4256156672,0.0784605821,0.4115043753,0.0911480336,0.0376389194,0.550012168,0.1324817595,0.6494507393,0.5731867391,0.0972614948,0.5629116608,0.4420988066,0.5366216417,0.2904621544,0.6268641972,0.0489808404,0.5757723672,0.2414269717,0.0750342215,0.2515847876,0.007106427,0.6598245308,0.2687578475,0.2412286305,0.6204767202,0.5200193687,0.3810938121,0.1403471722,0.2430142472,0.3699772163,0.1597506247,0.6802173973,0.097290264,0.6990377596,0.674617722,0.1840062666,0.5724555524,0.3931866915,0.2786429356,0.131418765,0.545498502,0.398937988,0.152844829,0.4428137059,0.4628826165,0.5893449697,0.2452519308,0.3899326474,0.4249707955,0.088778688,0.3666574982,0.2854653247,0.0455114531,0.4790007185,0.5993291343,0.199167271,0.5125921943,0.3723203653,0.2633841193,0.4194248264,0.3723488197,0.4627213737,0.3220487497,0.0961094954,0.2255691259,0.1521492351,0.2579794376,0.4040945312,0.6426900352,0.1744121801,0.5264822419,0.2889177308,0.5576375715,0.368764476,0.3581761182,0.1132588658,0.3895012418,0.0004120891,0.0209018425,0.5094633938,0.4002214499,0.5027740376,0.1754258595,0.1792277055,0.1973744626,0.221221266,0.4112866735,0.3149998434,0.0506266204,0.6982506832,0.5673957848,0.1685991832,0.5067687754,0.0776685058,0.5782535394,0.1787086356,0.0321049679,0.4198065309,0.1694024661,0.6032784123,0.595417484,0.4690136897,0.2437086608,0.1297500043,0.6877426033,0.2286855332,0.062412077,0.5685684843,-0.2763911919
##end
biasActivation=0,1,1
[BASIC:ACTIVATION]
"org.encog.engine.network.activation.ActivationTANH"
"org.encog.engine.network.activation.ActivationTANH"
"org.encog.engine.network.activation.ActivationLinear"
