encog,BasicNetwork,java,3.4.0,1,1749582423622
[BASIC]
[BASIC:PARAMS]
[BASIC:NETWORK]
beginTraining=0
connectionLimit=0
contextTargetOffset=0,0,0
contextTargetSize=0,0,0
endTraining=2
hasContext=f
inputCount=150
layerCounts=1,31,151
layerFeedCounts=1,30,150
layerContextCount=0,0,0
layerIndex=0,1,32
output=0,0,0,0,0,0,0,0,0,0,0,0,0,0,0,0,0,0,0,0,0,0,0,0,0,0,0,0,0,0,0,1,0,0,0,0,0,0,0,0,0,0,0,0,0,0,0,0,0,0,0,0,0,0,0,0,0,0,0,0,0,0,0,0,0,0,0,0,0,0,0,0,0,0,0,0,0,0,0,0,0,0,0,0,0,0,0,0,0,0,0,0,0,0,0,0,0,0,0,0,0,0,0,0,0,0,0,0,0,0,0,0,0,0,0,0,0,0,0,0,0,0,0,0,0,0,0,0,0,0,0,0,0,0,0,0,0,0,0,0,0,0,0,0,0,0,0,0,0,0,0,0,0,0,0,0,0,0,0,0,0,0,0,0,0,0,0,0,0,0,0,0,0,0,0,0,0,0,0,0,0,0,1
outputCount=1
weightIndex=0,31,4561
weights=##0
##double#4561
   0.3152791507,-0.2064037449,0.1267676186,0.279405653,-0.1414397988,0.1399845802,-0.2099870977,-0.1907395453,0.1334377454,-0.0778350415,0.3667804887,-0.1598084093,0.2469994675,-0.2150225233,0.3926966714,-0.2371594305,-0.128675388,0.1763712053,-0.2035275958,0.0050303556,0.2104843774,-0.102391123,-0.159883571,0.260724183,0.0374481765,0.1461467456,0.2539650045,-0.2233075064,0.3364138972,-0.0802750506,-0.9498096097,0.2855703981,0.5273021469,0.5998719726,0.6925517588,0.2147897986,0.1176080834,0.5541240734,0.3550073276,0.0027989875,0.3525849943,0.2369270881,0.6712175988,0.5098666989,0.5345435331,0.6800192359,0.443607175,0.5350927346,0.5583852313,0.2207538522,0.2662253428,0.2771552723,0.0785975462,0.2329962334,0.0023967936,0.2934224402,0.660729603,0.2583394602,0.1074053251,0.5702352701,0.0448959001,0.2969613896,0.3640764561,0.0747310948,0.0525138448,0.0421039465,0.3126579846,0.1702612851,0.6487157179,0.145038186,0.2238722189,0.0366453842,0.0279170573,0.0412542401,0.5065632145,0.2419519272,0.4247276191,0.5054173504,0.1893929308,0.5980548398,0.2827541621,0.0881918056,0.532833184,0.221746101,0.6913628229,0.4179529035,0.0753174367,0.5451249233,0.5614702117,0.5314597662,0.6863016683,0.4549902929,0.3667597654,0.0321997465,0.0176910112,0.1463012867,0.3503341795,0.1189201204,0.291225071,0.1492043615,0.5528448985,0.5191720615,0.6188946647,0.193053833,0.1480876029,0.6470600157,0.1697709738,0.615915605,0.0740738674,0.0836245725,0.5344384288,0.0662430389,0.684702159,0.6119375207,0.4669210399,0.1320582783,0.0782809312,0.5638066003,0.5801060372,0.2408683462,0.3590701899,0.5296989912,0.3378173385,0.0853954063,0.6505475833,0.0381918741,0.4014869287,0.4356723687,0.1338297952,0.3863599643,0.5513770453,0.5376189753,0.1303683807,0.5950032137,0.0322208473,0.643958651,0.2470224924,0.3064481763,0.3437364916,0.5241872664,0.0894566945,0.0150656597,0.1868496314,0.2946913234,0.6068101351,0.3735727932,0.3309041438,0.4805175594,0.536236485,0.0078643552,0.0314159565,0.0156769957,0.5962218313,0.3099020282,0.2282588282,0.6104960541,0.7075360982,0.4073223432,0.5134526039,0.2327594046,0.0876857064,0.6654455295,0.4113294856,0.5988393089,0.6739450248,0.3301864166,0.2441127413,0.3985626543,0.2504121701,0.5041128013,0.3627989295,0.4829902076,0.0431904087,0.4670424822,0.3245050685,0.4087640574,0.3963370066,0.3120059096,0.7061315594,0.6484773925,0.5141710785,-0.4624204451,0.3662200408,0.6830666483,0.2188753114,0.0330011568,0.6335039481,0.4974267125,0.0286474955,0.0393928935,0.5812267478,0.0559352364,0.3033581387,0.1742316594,0.4695801422,0.0937813542,0.5604434033,0.6954518718,0.5059532617,0.5666198121,0.1197112752,0.2591080534,0.2126561026,0.70271981,0.6323698029,0.1015094671,0.5365218222,0.0437503155,0.6241163637,0.1373372355,0.216591658,0.1112962067,0.4056489724,0.6854291222,0.5851511218,0.2815167481,0.1335378616,0.6726303846,0.230394096,0.5488612456,0.1904619596,0.2337066723,0.5291490725,0.6541276309,0.0294019169,0.0014780125,0.3263501256,0.2628757032,0.4413934649,0.200850962,0.0452938743,0.3746608332,0.4016925129,0.2219229743,0.632627599,0.5972376095,0.3311770874,0.5665832412,0.1600714319,0.6879207625,0.2823913972,0.429338819,0.6229807665,0.5117758047,0.0489597753,0.6534371144,0.4948321626,0.5081907314,0.613250465,0.5280091117,0.3647377376,0.4373347963,0.1374929315,0.0245101493,0.4450290084,0.4640998754,0.3101584274,0.5458258786,0.617295178,0.1626938809,0.2570669687,0.5674656144,0.1153753209,0.5404596803,0.0910315993,0.3293764067,0.3355333137,0.5105954329,0.1402101483,0.4101877666,0.5533079028,0.4967533083,0.5591194777,0.1008761123,0.1263792395,0.5765515016,0.1231664559,0.6411067239,0.2008727872,0.5571374923,0.5400746853,0.5728658261,0.4169094161,0.6991603693,0.3647470868,0.0453402519,0.7049753208,0.0922776936,0.1025232563,0.2425864546,0.4420598126,0.4069138054,0.49871936,0.530157476,0.6937456187,0.1410814451,0.43706236,0.5237904602,0.5708889949,0.2285772509,0.2139253571,0.2402528263,0.5366276817,0.305326088,0.1035432047,0.1561968219,0.4322355257,0.2165643624,0.4846197395,0.0215655492,0.7092230458,0.0448706273,0.5340088824,0.3825977591,0.3418600109,0.3083999221,0.2624726823,0.6794111326,0.6111059781,0.0791000924,0.0361093601,0.4700162277,0.4043074053,0.5196321678,0.361524004,0.0303093972,0.5874868051,0.291851014,0.5066532449,0.195206102,0.5735806452,0.3520626222,0.3020634917,0.3602718447,0.077747774,0.1168009904,0.086192095,0.3443932064,0.4028181558,0.5420606895,0.4771000123,0.260639154,0.2632522831,0.0525760345,0.6512822579,0.6047290592,0.5241317776,0.5720639274,0.6937290791,0.299102954,0.1693174077,0.4957703851,0.1075096541,0.6695519343,0.682518388,0.2560948234,0.6658727772,0.4704764217,0.1337216658,0.6446474386,0.4739895268,0.4346345453,0.2011138847,0.6487465677,0.156635388,0.1405596133,0.3833498176,0.1497248721,0.4586708873,0.2081207274,0.4760374903,0.0705616994,0.3724521055,0.1699648345,0.3005538349,0.7140950564,0.6868388008,0.1691129784,0.3799768866,0.7008887813,0.6432726223,0.4492604852,0.2637259297,0.6631704543,0.0324898619,0.0973673966,0.0980689549,0.1306772429,0.4025243371,0.3598205802,0.3113786972,0.225645083,0.6756720726,0.3648864047,0.4704035546,0.2075539248,0.4898515296,0.3930175758,0.6115878871,0.3663560293,0.6159041241,0.6458984379,0.6975848196,0.3007681969,0.4785560651,0.1569365218,0.0116815442,0.618177278,0.5161532747,0.0016208829,0.1213072947,0.1147556409,0.0313414007,0.5751458834,0.663262751,0.3457924044,0.4410050406,0.4374955212,0.4354429415,0.0545401532,0.4002304643,0.6111923281,0.1681763169,0.6428404677,0.1886923363,0.2435148323,0.1270347172,0.0978629905,0.5651679032,0.6503232713,0.031233114,0.7039812892,0.2879176315,0.3344799428,0.3373615563,0.7022728431,0.6282259128,0.5834927659,0.2694776846,0.2288651341,0.2907109817,0.5335398746,0.4441369379,0.5005369028,0.0325509152,0.3173260555,0.6061214642,0.1248342138,0.181280009,0.6747676866,0.5880643772,0.6848727553,0.5433116224,0.374923322,0.713028439,0.0053483185,0.6240960057,0.3439114441,0.5914075348,0.3612705694,0.2051390879,0.5291438242,0.709580749,0.1329227475,0.6786755604,0.6032882673,0.5287665973,0.7046295521,0.1371116759,0.1403014501,0.6659881992,0.4860290111,0.2067024472,0.1523526311,0.2268054175,0.2762518262,0.1204405938,0.3026343283,0.3764690728,0.5013479186,0.6834478606,0.32400945,0.4353757555,0.634920629,0.1579236218,0.3398296017,0.142051016,0.3603557436,0.1234823531,0.4519754624,0.5434747606,0.7079405199,0.4111238147,0.3108461836,0.5875728764,0.3200942498,0.4243140531,0.3487299555,0.293142229,0.4877775112,0.4183110076,0.0099024734,0.0656479577,0.2050166155,0.6110210941,0.2991917607,0.5799287425,0.5582637445,0.1345593431,0.1432707951,0.3538289908,0.0181025775,0.1414407843,0.5456487656,0.5783280951,0.2742517459,0.3540426847,0.2930712598,0.6569222158,0.4121060707,0.3435346007,0.0704538424,0.1790924815,0.0455361765,0.1240221531,0.3568539955,0.5189919592,0.4554826726,0.3439435717,0.4688031377,0.1622601905,0.279386203,0.1258961167,0.5701249109,0.254367144,0.476588248,0.6730172738,0.346947152,0.6926306958,0.0417683248,0.291413852,0.4351420851,0.4543149958,0.6351654364,0.6096918149,0.6813102547,0.7062756928,0.647201443,0.688795862,0.1381907093,0.3461503816,0.4880332689,0.3142838172,0.1667408635,0.6988791218,0.2950720645,0.4745684182,0.6211586647,0.4736754704,0.154564086,0.1294550203,0.2562540582,0.3666201069,0.0934357827,0.2940926186,0.6268904985,0.3844944916,0.3910138261,0.282286457,0.4753907784,0.4730995705,0.1874796708,0.70584644,0.4335055198,0.0457123857,0.4650102704,0.3388279314,0.1921538799,0.0093986256,0.5306916893,0.2377232493,0.6387621044,0.3130755324,0.6074716968,0.2209188615,0.3801272659,0.2041076751,0.344234803,0.1336615447,0.4863871431,0.0992309446,0.1381485603,0.5582668828,0.547931686,0.5487146364,0.562024296,0.3463359124,0.0884978984,0.3872381407,0.2823150424,0.0795870366,0.1268060689,0.3848775699,0.3254629538,0.5126997514,0.3361394449,0.2873522393,0.2697246887,0.3216536115,0.0468888004,0.2959249633,0.0873454445,0.0389347546,0.1314193655,0.4524665272,0.6139517665,0.3173466955,0.5165212977,0.1039515579,0.6209586644,0.4624309589,0.2703124489,0.4126725562,0.5570866832,0.6482204537,0.3065633159,0.653378207,0.4641832503,0.5024405884,0.313995188,0.294756474,0.6452046169,0.4219397468,0.0106643008,-0.4187957284,0.3290418775,0.6743422594,0.0935698772,0.6830248325,0.2795000567,0.5476541439,0.5895262144,0.0154379115,0.0087486295,0.2974358655,0.1833411984,0.5085311374,0.2330388617,0.2766508017,0.4417281382,0.3482614628,0.5789570898,0.5983852454,0.6924337697,0.0681095601,0.2498349035,0.3431163347,0.6402689855,0.6831700624,0.6453945908,0.1471258765,0.059321742,0.4227879814,0.2326347433,0.0977583138,0.1697778653,0.3391260662,0.0173579412,0.3056359429,0.3490993434,0.0532710677,0.4034485736,0.5418532117,0.1843128601,0.0599609811,0.4155090226,0.3288517161,0.3493000078,0.7135703021,0.1206018745,0.0684447974,0.1190603365,0.4102078615,0.3632815216,0.612296256,0.1371950992,0.1374940127,0.5134003559,0.6805779864,0.2121610903,0.0335477864,0.0742301516,0.1082475993,0.5998296553,0.2200861327,0.0439871848,0.5889242724,0.6555911663,0.428080263,0.449135696,0.4968920374,0.681686104,0.5577544102,0.4136505097,0.2114856395,0.1268726694,0.1501785842,0.2879028407,0.5439379175,0.2324850536,0.0144268175,0.1433554362,0.6831322018,0.0173477997,0.0355402473,0.5054708579,0.2598054201,0.3117112128,0.6747329901,0.256820129,0.1041948071,0.5800147083,0.0028863326,0.0350903,0.6752338388,0.0294338301,0.3455515739,0.2334333388,0.201321962,0.238831189,0.6161303707,0.5317589698,0.4334190999,0.1710135266,0.5453441888,0.5295659824,0.1300978294,0.3459027803,0.6822198491,0.4536594927,0.3917650851,0.4314789954,0.6237032504,0.6395648497,0.4066969428,0.3191753317,0.393093882,0.0671078575,0.6359988514,0.5486236778,0.1381241514,0.0128331372,0.2949308868,0.7088258208,0.3870509439,0.5737547912,0.237600558,0.1326786073,0.5611662244,0.2890706652,0.5329189928,0.4558411659,0.4685308779,0.6828043338,0.1471015446,0.2075880328,0.4826952549,0.0541764884,0.6170478503,0.5982051085,0.4587270022,0.1133743931,0.5418788074,0.7021564075,0.4084494182,0.4941844461,0.3966069867,0.1065355098,0.1980048784,0.1515255233,0.0955998272,0.2826888787,0.4298828773,0.553098951,0.5861887907,-0.6775700005,0.6673803733,0.5116315836,0.0146699852,0.6626209654,0.069532559,0.6740826091,0.1969525658,0.1275152233,0.481097115,0.1818271675,0.689791538,0.390532841,0.182626682,0.5670359879,0.0115174289,0.1930878221,0.1323504054,0.2615187632,0.146922493,0.0420928768,0.2228887286,0.518288107,0.7025448585,0.145845109,0.2388647879,0.3305553476,0.5202181369,0.2717447948,0.281469727,0.1371233657,0.0789126616,0.4571031984,0.6719204127,0.3104819589,0.2267848421,0.1192657461,0.7028454742,0.5093986498,0.2211260543,0.5133145295,0.0160691212,0.3511586431,0.6529427973,0.4645923485,0.2047026454,0.0778085265,0.1209676419,0.3444627978,0.1914790245,0.3839076935,0.4314759792,0.6891159434,0.3371334497,0.3069153675,0.2994545214,0.6378775037,0.003198527,0.571016206,0.45715851,0.1359125857,0.1930179123,0.479015568,0.4722036273,0.0767333129,0.0560385969,0.1837665306,0.4598127614,0.4553171067,0.5599097233,0.140927448,0.5846610787,0.1406622772,0.5940450427,0.6942984163,0.1543793415,0.3941396049,0.6911289886,0.144889993,0.3017558951,0.5411259528,0.1329905632,0.5733816328,0.4181610217,0.1481506212,0.5417782564,0.0486774358,0.3021486648,0.0595206823,0.2002888268,0.6936647217,0.5526289295,0.6770958647,0.2078457946,0.6002633722,0.050397438,0.3904318031,0.0202171078,0.6013716063,0.376689708,0.1673538483,0.4960496435,0.1487041612,0.584673785,0.1967750781,0.4073187699,0.5704439905,0.2051713001,0.0772020499,0.2424454225,0.1169319959,0.6141701525,0.0851083812,0.1238047613,0.1413051985,0.6915146649,0.3027103575,0.4386687623,0.2549731117,0.0023238214,0.2763171085,0.0027212741,0.4098079363,0.212763187,0.0266476033,0.4174495613,0.5438025,0.4923857612,0.1829757538,0.6093725555,0.7076054219,0.1710577955,0.2965172104,0.2195149407,0.6029647606,0.0771096024,0.643978148,0.3618816243,0.3293875459,0.0450700755,0.0165415296,0.4847726124,0.1326646959,0.3382997581,0.0723725543,0.2617319551,0.6627214923,0.5441303521,0.0876330659,0.1317362245,0.1113243407,-0.7111044531,0.1973793111,0.1057790174,0.2122748131,0.485501865,0.2139485663,0.2528437298,0.4543779024,0.2517417602,0.4762396318,0.6955041974,0.3196583239,0.3234333434,0.3665006104,0.6365032414,0.1457546815,0.6980016553,0.3990927806,0.6561074974,0.1778451533,0.4869849057,0.4001562612,0.5013086422,0.0105261866,0.0535083249,0.3181597622,0.0112187648,0.2988136982,0.0153204802,0.7087067185,0.0191685512,0.6717145774,0.415197079,0.3239779274,0.5260905806,0.319095956,0.2520726216,0.6752236649,0.1406054417,0.703507594,0.2057574505,0.4506303309,0.4991356015,0.6678401305,0.6450811034,0.0355010469,0.6776474284,0.2266949428,0.564376563,0.1697025606,0.1779204163,0.0550439209,0.20016375,0.1790056348,0.3898237391,0.5430791653,0.1576475081,0.2601986462,0.1806491549,0.5233778149,0.0240056955,0.0252171554,0.4042708488,0.3113884471,0.1039134639,0.0307035034,0.0002713086,0.3995678313,0.1047060249,0.1650139293,0.5544563672,0.6400014212,0.145239076,0.2695565168,0.0268965152,0.311265994,0.6090305132,0.4991079268,0.0876338899,0.1589581894,0.1690211238,0.6936425295,0.0410258767,0.3650082033,0.2967855804,0.642315717,0.2885672212,0.0515812172,0.3382656678,0.0520602382,0.6144529795,0.5109622568,0.4218790043,0.710039187,0.5258507468,0.1929212541,0.1526302387,0.5652420588,0.2537342366,0.5314510216,0.170948766,0.6566505847,0.5245720592,0.3762457677,0.6594044619,0.5043466088,0.6385411282,0.2603099725,0.3953576002,0.5684158015,0.6659239284,0.7150143736,0.2013537885,0.5395708302,0.1482717958,0.232746314,0.4309188458,0.5058697853,0.1353189506,0.6945570407,0.4206412194,0.3414792785,0.2748044673,0.6872768486,0.6473811278,0.4951810219,0.6866381333,0.0986719079,0.6924362314,0.3306187233,0.3302884091,0.2175432218,0.3046479537,0.4922398315,0.0938385973,0.0005444649,0.7158821175,0.0800563013,0.5249892648,0.4063541066,0.6309998002,0.18693581,0.5227997031,0.0937664938,0.2933536198,0.6337299536,0.7094101535,0.5074106473,0.387891493,0.584527211,0.5280507851,-0.4408567717,0.2372579743,0.2458846982,0.0843982675,0.4242020208,0.0820430285,0.2347495456,0.6070201231,0.3800006634,0.132811836,0.3545695135,0.2501315207,0.0059904744,0.1973897385,0.4010444085,0.1180376208,0.0890200976,0.5786445309,0.4484553907,0.5042142179,0.1108231794,0.1119990206,0.0324981258,0.5848214061,0.082932028,0.0318898941,0.5287127639,0.46920657,0.4559790563,0.4626370833,0.420232515,0.4079307449,0.2177052728,0.1013025491,0.1873352194,0.5709126813,0.09198439,0.5197233762,0.4061441772,0.6051815739,0.6778974595,0.3233689532,0.1843018385,0.2963079001,0.3688828853,0.0111844285,0.0272702856,0.0136657184,0.1718313574,0.5470428209,0.1803192209,0.2063531731,0.2704804404,0.3906857198,0.3857042429,0.1153142625,0.3554715867,0.179938539,0.208348024,0.1133303009,0.330014593,0.0369464488,0.0132220105,0.4481863681,0.5819523577,0.6894067043,0.3202142562,0.3072735835,0.6532210738,0.3335939854,0.2635296268,0.1063480278,0.1787141965,0.5100636957,0.326798318,0.1583316717,0.6276146638,0.5766623873,0.1902965255,0.0443388375,0.1934766249,0.1211019763,0.3880444105,0.0088288083,0.2561435354,0.3396966892,0.6996085212,0.3331658469,0.676072189,0.5128163243,0.5967073415,0.7062250643,0.0117127531,0.6716191071,0.5288096596,0.0013742298,0.3345582638,0.1037836494,0.4381196252,0.4440889194,0.6449406984,0.5344185332,0.0085287452,0.516728063,0.2787717184,0.1633985191,0.4675930914,0.6382160795,0.3682430274,0.4727684758,0.0819983619,0.1043445179,0.2594470113,0.335956646,0.6090642803,0.00631492,0.2571288115,0.598598015,0.6811794972,0.5566123003,0.6871082606,0.5976213853,0.2459571161,0.0495824569,0.6621485787,0.517028064,0.310923504,0.6951930593,0.3824912069,0.4351324557,0.2293695857,0.0303823016,0.3209556081,0.443817311,0.6241672321,0.5057558221,0.5532510241,0.6431290347,0.0630360546,0.6993174051,0.0642490549,0.5671256989,0.4848192369,0.6983859273,0.1773444186,0.4630551362,0.5826202171,0.4323535696,0.0115983489,0.1042983241,0.1735828713,0.6891611099,0.3337552371,0.32342637,0.5942376871,0.0856455893,0.3842421552,0.2190566702,0.1633947663,0.3364875767,0.3836311687,0.4274000298,0.6548681182,0.5573482861,0.594137682,0.4795627457,0.5556156511,0.6488120764,0.199284907,0.0358992352,0.6832669278,0.4693393196,0.4394690878,0.1183152051,0.4674000691,0.7010148559,0.1972461606,0.1966742921,0.0450250199,0.3253346966,0.4917163052,0.160713638,0.0249483438,0.3806747612,0.4649129396,0.2118222818,0.0731511212,0.514274597,0.4981650179,0.4339444376,0.0873309532,0.1003447086,0.0197516422,0.017947759,0.3663619274,0.5068160278,0.6746359404,0.1684726908,0.6098720314,0.1876932665,0.0806209475,0.615160257,0.2069013493,0.2829800165,0.0385411583,0.5369719103,0.6252990405,0.1164553059,0.1602857142,0.4092208826,0.5510660838,0.7158221173,0.3518955756,0.4266856042,0.1887161919,0.367297124,0.2482786925,0.4246141109,0.0381396202,0.0080434579,0.0738046711,0.4979309536,0.446294681,0.2119482286,0.0162489923,0.3563820703,0.2317666149,0.0792668342,0.609319051,0.0243515464,0.0509916932,0.5292048255,0.7131410135,0.5557905305,0.5293720591,0.2333558146,0.0916040364,0.0518898274,0.6211121069,0.1071140376,0.6396991941,0.2853925069,0.282029306,0.5922170154,0.0282539692,0.3743094956,0.5462148906,0.0567223339,0.4345350797,0.4108449409,0.0023665305,0.2347027552,0.2979512476,0.0810786471,0.352016785,0.4185542925,0.5824602668,0.2167789956,0.6249644382,0.3790341614,0.6276502725,0.211327771,0.308480861,0.3809310048,0.0864967573,0.1293783196,0.4648340359,0.3534469892,0.5582537336,0.0431241232,0.4215354694,0.1290434055,0.4228384131,0.3705810609,0.0642534535,0.1931684275,0.5487569711,0.5865331375,0.1474899855,0.4067885161,0.3316726754,0.0873712305,0.6867792786,0.5494462606,0.4968522852,0.2885369713,0.5188497376,0.3593804692,0.1037176294,0.5954570708,0.0385246751,0.4810528848,0.3187730049,0.4424937304,0.3838629995,0.4216647876,0.273343336,0.647156091,0.0068948538,0.5875162937,0.4330433086,0.1065165088,0.2796699377,0.0542072145,0.5555279589,0.5814176457,0.3472459426,0.421196939,0.1023531675,0.4606644621,0.0189345371,0.365196458,0.0536480121,0.0660721132,0.2405455402,0.3537969981,0.5698734777,0.6690358177,0.3798581707,0.5965015997,0.2123383309,0.1204423168,0.2821762244,0.6028157088,0.0540354499,0.7118120974,0.2353044913,0.2915101981,0.4411524144,0.3715239037,0.1137895205,0.2405925514,0.2364855085,0.4106355719,0.0443357454,0.1782530698,0.3317707548,0.0636755136,0.3905720462,0.5868900432,0.1425029355,0.0866210545,0.3932622475,0.4431680943,0.4523615792,0.1665719758,0.5107781846,0.0569497174,0.3785178302,0.2733974828,0.6062326005,0.3638439927,0.2551723352,0.6691307555,0.3401197396,0.4064810932,0.2430618183,0.0628213723,0.1601811034,0.0821163663,0.1372767831,0.4500417032,0.3064273289,0.2962566523,0.4839290005,0.3246484622,0.2014395654,0.5048324975,0.2406908526,0.2369693883,0.2168738238,0.0336093151,0.0306199133,0.0427284827,0.3944065122,0.6210034941,0.0671884252,0.6734830733,0.3662466845,0.6253206288,0.7094647843,0.1804834944,0.4602497408,0.4037416487,0.4184479931,0.5883878356,0.5696974051,0.2772343155,0.0451990343,0.0986291254,0.0566932769,0.3659740566,0.0588328058,0.0569590997,0.148856688,0.507690803,0.6716092932,0.030670759,0.1502761114,0.1608910972,0.1610384678,0.653974131,0.4939527881,0.4449279239,0.1223761766,0.4914317529,0.1771454033,0.6432706476,0.3944672182,0.4347421847,0.1190751067,0.2836379312,0.4249277633,0.1677198128,0.5762661876,0.5523523254,0.0904065622,0.2760088858,0.4713699065,0.5109430532,0.5066854549,0.1264269,0.6469187753,0.6776553357,0.3287528975,0.5111062768,0.1615578148,0.5902859706,0.6715418784,0.2433773729,0.6590400236,0.6326440065,0.2276204647,0.4599899888,0.0674434182,0.5959474367,0.5453816186,0.3127144998,0.048160866,0.0398616261,0.6351633894,0.3185498004,0.5241875123,0.3550403855,0.5743956932,0.4040939898,0.4323566239,0.5288091912,0.0998607541,0.264082465,0.2671797035,0.2436777461,0.0021805659,0.4373408028,0.3891284886,0.3300796009,0.2896155105,0.107017191,0.0330448177,0.1291160337,0.3786277118,0.5572399157,0.3819031108,0.0075063517,0.0903926782,0.0191048972,0.6656125831,0.5004290512,0.1074557629,0.6786057634,0.2225539487,0.5865352912,0.1747036371,0.6684384875,0.3341393925,0.5049070421,0.6838227278,0.0999067117,0.3092705141,0.1722471057,0.4429320832,0.3330846893,0.6094874623,0.4328004593,0.6419522744,0.5065405915,0.6688684507,0.6613076754,0.3956318474,0.6435179324,0.5821230247,0.2830088511,0.0162313853,0.2016628321,0.5031206052,0.4072903839,0.5439055799,0.2142413833,0.2581835223,0.5262278001,0.0537259155,0.3390739741,0.0383845505,0.678368784,0.1390803352,0.0015150444,0.4465793447,0.3001795065,0.2237469332,0.0664178754,0.5900512986,0.5554451284,0.2188112115,0.3279535747,0.2388816903,0.6946914585,0.3106283933,0.211614167,0.5526607787,0.6150572464,0.0358563138,0.0544903219,0.4720545472,0.157776146,0.0017443047,0.3872829219,0.6804841949,0.6024645555,0.5204848077,0.3148847112,0.2660312454,0.6441838819,0.5389175862,0.5293790554,0.6317126447,0.5733883985,0.1445061061,0.2571639374,0.6158314519,0.2036981459,0.6424117492,0.2223605225,0.3886785656,0.6161600108,0.1946903724,0.3500818209,0.3977603134,0.3975129079,0.2508355747,0.4434304932,0.0418716989,0.0684630805,0.3857987806,0.3350223701,0.5243102339,0.3446388542,0.081449108,0.4223934493,0.6833669318,0.0045771599,0.3385244965,0.5670163514,0.338372824,0.4279158039,0.2004670626,0.5052508333,0.0979925719,0.5072931272,0.3620893495,0.3418926343,0.174459104,0.3657749497,0.1952019261,0.2326801539,0.7009139096,0.3802559145,0.4736940333,0.011795612,0.3561219033,0.1500746236,0.652052414,0.1303746051,0.30448835,0.3443939039,0.2962839661,0.318707687,0.6893274686,0.19461832,0.4330730896,0.2999672114,0.6050607539,0.0330845556,0.5533186643,0.112516823,0.270392205,0.4847674436,0.111625451,0.0880378185,0.3223877217,0.137372448,0.0404866919,0.4637795277,0.1487023625,0.2510574382,-0.3201572931,0.575444436,0.4032156577,0.6344822661,0.5946367825,0.0941907472,0.7065728849,0.4033751936,0.0031553976,0.2013520366,0.3054385818,0.4517239968,0.0420967916,0.1565363275,0.2416063741,0.116852443,0.6272152271,0.1405279934,0.3664000808,0.2262811778,0.4042829765,0.0908130064,0.6767315752,0.4167793687,0.4776159474,0.0434207144,0.4254243549,0.3822307978,0.5742158304,0.4135842939,0.0171208767,0.4963508312,0.117284593,0.2565176817,0.0248346255,0.2832402875,0.0363607762,0.4098362552,0.7153252259,0.3915104797,0.2532082976,0.0170410624,0.0084795334,0.0768833474,0.439473024,0.1478228442,0.5752900179,0.3071171834,0.3230725696,0.6040530843,0.7061775622,0.5442220432,0.248592593,0.4715791746,0.133107333,0.6973472182,0.2463588624,0.4230698767,0.1326915171,0.2110675545,0.2174258587,0.1301929331,0.5972232047,0.2521239846,0.3942677056,0.6941608515,0.2050187288,0.3907048073,0.5855347862,0.2155792688,0.559424484,0.5264693951,0.305701811,0.2475505481,0.5490359254,0.6736180425,0.0664972505,0.3068168475,0.50381674,0.5377298155,0.0220403359,0.608246856,0.004599965,0.6777829816,0.0905937828,0.3062203337,0.5957741723,0.5362033095,0.5923076405,0.1564157203,0.0206214698,0.4440545605,0.2385072023,0.5185514186,0.5362367885,0.0861266214,0.0542448576,0.2934673954,0.06552061,0.3296687659,0.2110611571,0.2181149113,0.4715519951,0.4153817728,0.5351940656,0.2086199665,0.7101604921,0.3656759395,0.5507872933,0.4906016355,0.4503517709,0.1593986715,0.1514248185,0.6312160517,0.2829827378,0.0323066849,0.1498576147,0.6723442936,0.0905206475,0.1842624497,0.5651020825,0.6657217729,0.1572748091,0.0886869631,0.6425619539,0.6256540272,0.3197965457,0.032593962,0.654333753,0.0739359536,0.2784910219,0.0240578365,0.669037557,0.5763182545,0.5276636117,0.0684753319,0.3821915726,0.5185941825,0.2562300762,0.695676047,0.1678337603,0.5717938317,0.3149465855,0.2348691113,0.3623543682,0.4859050739,0.0049682769,0.5678196057,0.6291242992,0.0605507748,0.5233096075,-0.0876707867,0.6823213323,0.4574464679,0.4800638691,0.0466327611,0.0934296797,0.0305514022,0.4565745883,0.6165978108,0.0785707528,0.4115227007,0.608162527,0.1605233091,0.0234271798,0.4824713041,0.5544500807,0.4251299868,0.4497145587,0.2927930452,0.3222858096,0.0473297309,0.7110352169,0.0496723218,0.1599770241,0.5679288486,0.5768916269,0.4697496647,0.623072359,0.2498814416,0.1659179101,0.533733912,0.2638774325,0.4213054714,0.1256633784,0.6864138477,0.5622493961,0.5817440993,0.646196983,0.6507843446,0.4389977457,0.090831887,0.3969729477,0.0388612666,0.3645614734,0.6856915989,0.5310655826,0.0073805899,0.6318630533,0.2559365877,0.1135232141,0.394719557,0.1286202415,0.5196692381,0.2378954589,0.5021533555,0.1419827794,0.0233595261,0.5967674214,0.0867520064,0.0386660649,0.4553290968,0.3880777688,0.5049495925,0.1523782457,0.4457202885,0.48856228,0.3520090926,0.125614535,0.6342550418,0.1174245623,0.1990644546,0.092784562,0.5153332139,0.4274107854,0.6738492124,0.1389589896,0.6087002131,0.169481444,0.6815810364,0.1979822776,0.1729268956,0.6261480301,0.2430011137,0.3403274665,0.6530960499,0.3891652476,0.5152535009,0.0769485827,0.6417709778,0.3393895052,0.4327427557,0.3396228498,0.4064637987,0.0064266775,0.0170908991,0.6850029804,0.5313788011,0.6571211329,0.4336545901,0.3285513097,0.5649875674,0.1873075503,0.3433970268,0.0188300002,0.6857012237,0.2758338764,0.3011385983,0.6678005922,0.3679641561,0.0537728138,0.5366017218,0.530383049,0.4727067188,0.3717234411,0.2445265281,0.1941812122,0.6348470058,0.1005225317,0.0535803722,0.2263649296,0.2803831481,0.5047765463,0.4689480314,0.2744573127,0.6062232711,0.552058137,0.2995198567,0.1178581164,0.0452427472,0.4961570475,0.0314689379,0.2771573631,0.2593241272,0.3709546698,0.4550927945,0.28353624,0.1743344558,0.0197942283,0.1121561567,0.0873730674,0.0976681309,0.5188658959,0.4385254241,0.4434160872,0.5811866852,0.4555847051,0.5180758371,0.3223670009,0.4948856022,0.0340691941,0.5033395535,0.6720158981,0.1356308408,0.2206614983,0.4106099173,0.5005542729,0.3889360933,0.1461511189,0.3274163271,0.0447158307,0.3031716888,0.1656646547,0.4800974173,0.3370160649,0.6810250552,0.2789340045,0.132606063,0.1100208303,0.3932149193,0.6363849023,0.0760641649,0.2999890941,0.0161667856,0.0971184957,0.3736949026,0.5730758172,0.1308140631,0.5720579227,0.1576405402,0.1353649557,0.3468235993,0.3003302355,0.1584770204,0.5472911646,0.2371904961,0.0225652298,0.427213098,0.1552410404,0.0162245436,0.2452904616,0.5706921841,0.0273049384,0.2111952556,0.1223485615,0.4361020825,0.4763409422,0.3958884732,0.6756835153,0.6932378194,0.0307380942,0.4142282383,0.7070775302,0.0038295039,0.6652782011,0.0282543807,0.5057716172
   0.4402737664,0.4312802288,0.4205200597,0.2078198897,0.0871478577,0.03448497,0.3103088986,0.2221952198,0.5672430334,0.2749478915,0.1799315609,0.3537489562,0.2518643049,0.1932496948,0.4908394287,0.4694641389,0.0392954729,0.5135842738,0.095197933,0.1378533913,0.6655106358,0.154186561,0.040545271,0.6112739751,0.529578516,0.0287070049,0.4036676577,0.5341320987,0.0223682659,0.0449942677,0.0105349069,0.6364759571,0.6754895912,0.3163730548,0.6348568541,0.2569293014,0.6754309949,0.2189628793,0.6343890952,0.4675866335,0.1477462249,0.0668367771,0.4832136692,0.6038283715,0.2404078963,0.3590082923,0.0852515831,0.5977428037,0.2052708128,0.3267906823,0.4788557912,0.0741246481,0.49242925,0.239401648,0.1090671843,0.3907462022,0.2420214941,0.2528490673,0.3447517194,0.420161995,0.2486187685,0.5008002324,0.2198556807,0.6533301018,0.1031800605,0.3340208268,0.6143912642,0.0696042916,0.1192738973,0.2537965851,0.1293633137,0.3079385479,0.3324708677,0.1049582086,0.2639284742,0.2975878821,0.2540658034,0.6541445094,0.0455489931,0.4879827032,0.1696381736,0.6524819923,0.2457081455,0.3701845183,0.3939866971,0.1880795523,0.6913904327,0.5308212718,0.3505421659,0.6008371934,0.0354026948,0.6868530721,0.6707188342,0.2164459485,0.1016984152,0.5998031598,-0.5302107543,0.1956091369,0.2162879597,0.0984621034,0.0698257927,0.4789244292,0.0013181171,0.4430965403,0.2236371236,0.3651976359,0.5812235041,0.4934992437,0.5318256095,0.4633541501,0.3808695094,0.6836682588,0.4011350517,0.58203056,0.3403704046,0.2944049125,0.0615440321,0.4683735675,0.5084296619,0.4358677421,0.097835873,0.1457843372,0.3286549339,0.5207560705,0.7048882752,0.5340824972,0.4211014243,0.0933491425,0.2584910396,0.1286737064,0.3970154286,0.1474834343,0.0758581188,0.013051182,0.2386975609,0.6252787429,0.4680625143,0.4389804495,0.6190882068,0.3958551107,0.2806803053,0.0615430069,0.3680595212,0.4266449862,0.5183039219,0.6933333919,0.6926543013,0.4877844306,0.4538428291,0.2898453286,0.399169969,0.6721094785,0.504703559,0.2715088946,0.1133692916,0.2359228748,0.6476929322,0.0736818213,0.1945936056,0.1790652322,0.6589801046,0.3997892012,0.4720117443,0.3262317705,0.6150143576,0.506071089,0.7137748441,0.3587663703,0.69125721,0.3419519971,0.64187658,0.303225024,0.7003888508,0.4170525297,0.1133558736,0.4663307447,0.0670357455,0.6211442274,0.1975353603,0.5987065004,0.2322805239,0.4690940035,0.1247093137,0.0249808943,0.6400155979,0.6208362309,0.4760237701,0.3345046254,0.6311495813,0.2970242452,0.0485926285,0.3906989144,0.4586106033,0.6944838035,0.0305522425,0.394257137,0.1132500752,0.0308467281,0.0545966913,0.0622673993,0.2337095008,0.2533681597,0.4191951161,0.6445841961,0.3554712741,0.6613617253,0.6145583768,0.5072732257,0.3167824381,0.1166176565,0.5640089142,0.1484534953,0.4342903219,0.0758980737,0.2332301373,0.0483678613,0.1363747323,0.1102518418,0.4752777571,0.6598497183,0.4236486889,0.0922987187,0.5879030311,0.3024980308,0.2611880544,0.2526778354,0.4361408069,0.6121397322,0.3610346064,0.3998260545,0.2196753503,0.4491033484,0.4968275351,0.283677039,0.231120088,0.007291348,0.6052703008,0.5611859869,0.3945618247,0.4064546623,0.0169340358,0.6651133162,0.3668030155,0.57405267,0.3239253929,0.5671236333,0.1949458897,0.4693001743,0.4084866684,0.6018803994,0.4188483126,0.4759172226,0.6996415403,0.2158678353,0.19864794,0.5303030875,0.2828688184,0.6160648597,0.2890123415,0.6858569833,0.1669688641,0.1785092176,0.2312370848,0.3845662923,0.0644577508,0.1600303701,0.5620016192,0.2983907212,0.7064520682,0.0510648266,0.4099464262,0.3418412239,0.2492273039,0.3662258393,0.1471770069,0.1064780235,0.0275733125,0.6972334195,0.6474014087,0.4204522279,0.4096078994,0.7061821314,0.2408568272,0.5753110403,0.695439256,0.6767401,0.3126183975,0.170572667,0.3593096763,0.6047943579,0.2288961637,0.4933931744,0.0771843006,0.2705886779,0.3250699496,0.6098871273,0.2262751617,0.6056465799,0.6036903356,0.7046565461,0.2229148984,0.5579246782,0.0964016321,0.1324809124,0.0576561644,0.3643919721,0.0185752982,0.0238855442,0.3563087663,0.53673123,0.3753470433,0.3310103672,0.2517670978,0.4082269791,0.7110100398,0.4837603602,0.6729270847,0.6425929782,0.2347455617,0.6898438179,0.6551624149,0.4404817835,0.23592523,0.6153035693,0.6935518162,0.1737058503,0.4370904851,0.0055543523,0.6554500031,0.1492774167,0.6689104518,0.363504355,0.7011096366,0.0724321674,0.0484084108,0.1065974985,0.0289805343,0.0462250402,0.4769238219,0.0381755645,0.3125813335,0.2449883712,0.6529406994,0.1668218419,0.2332692393,0.7090059183,0.0831250301,0.0755795968,0.4388016503,0.4238509967,0.5993310919,0.2106623852,0.3082596665,0.5016268029,0.1151796606,0.6939211963,0.5886227551,0.0862117256,0.1356067023,0.3326798498,0.6997655847,0.616571371,0.0935320119,0.5337638671,0.1265073132,0.1647313011,0.6697234923,0.449807985,0.0293900354,0.632066789,0.6547054496,0.1221780888,0.2112485694,0.5335326299,0.6515285287,0.0419853435,0.1539843248,0.1974221298,0.0823101022,0.6910320987,0.1410056175,0.6650660545,0.1847051071,0.3039651974,0.5537786955,0.2225320345,0.2749387962,0.1144489969,0.2974794877,0.1551953443,0.3015456106,0.628594829,0.2719066651,0.2671691827,0.3705577173,0.1691618906,0.2444277971,0.2623475358,-0.5476723967,0.4255243168,0.5747805771,0.6778336641,0.4263349443,0.3547616091,0.5846755193,0.2561776364,0.1925415525,0.3209905269,0.0261564991,0.0655536332,0.4635865241,0.0442501734,0.0858859596,0.5349539114,0.2052291116,0.4349437243,0.2813322702,0.3548256801,0.5099422346,0.2911393909,0.4373563501,0.1123016335,0.0288434287,0.333274373,0.0279641161,0.6103609941,0.2822156437,0.3294902634,0.4753523377,0.2016366999,0.4547401806,0.1202794636,0.4601798163,0.4024026733,0.3674936368,0.6675191243,0.2778423971,0.3201816005,0.1493676024,0.1595542599,0.003513814,0.4375756763,0.2693675022,0.1682524693,0.6321698463,0.1499881651,0.3947362178,0.6957408066,0.4468469409,0.2537144457,0.626977792,0.1785750369,0.6219074397,0.0671081188,0.281096625,0.2467766464,0.2571779631,0.0098020501,0.3329316459,0.5749747611,0.0955996636,0.1079919861,0.6870582688,0.2351430733,0.0307513514,0.5093213028,0.5036118333,0.2971249245,0.300201425,0.4575324071,0.4696513774,0.4361386582,0.1212394584,0.1006553268,0.0288740844,0.6652303969,0.5819174158,0.4213667109,0.1390256374,0.3450410706,0.5451897306,0.5504861246,0.0402912978,0.1995936761,0.5584235749,0.0113277029,0.2410244955,0.0896121139,0.6220942947,0.1366499027,0.1790625862,0.0709913085,0.1561672498,0.5834869211,0.2790104547,0.3625125161,0.5732714137,0.3899693696,0.4496644726,0.4883187317,0.5213192296,0.5687034755,0.4596981403,0.4742151148,0.4015313953,0.5417126055,0.106686254,0.1249786476,0.1093544843,0.1220603057,0.2087768716,0.1058764705,0.3013400252,0.4908184264,0.5019605251,0.4690582599,0.283823093,0.4741625845,0.3373042615,0.101002612,0.1016902017,0.3353790537,0.6765851993,0.0094300506,0.1406088585,0.6969726183,0.5256441499,0.2654215972,0.5032002427,0.2680410086,0.0279254618,0.4913125996,0.6537562534,0.6893419861,0.2022837426,0.5449215953,0.2650860827,0.0439526174,0.223633443,0.1907021409,0.0162055944,0.3204349484,0.5649307545,0.6312032022,0.2659836501,0.4019097805,0.061129145,0.0844958594,0.0854041956,0.2888593637,0.540652683,0.2051799802,0.0076175546,0.4754063828,0.3454774488,0.3494564511,0.1291882292,0.2153566278,0.1687018862,0.5227536283,0.267477217,0.2677200363,0.7113438279,0.3038523007,0.5438911884,0.497987929,0.0309172655,0.423079613,0.0977218472,0.2318832167,0.447854763,0.7043592433,0.1978659567,0.6766262799,0.0841556381,0.4986545368,0.4070419432,0.5438858918,0.4998209757,0.6746320664,0.4573594219,0.0425946467,0.1492496417,0.6613670303,0.1381035593,0.3408987989,0.6822349264,0.6289357592,0.2864267674,0.0918978157,0.6890748579,0.571619469,0.6725783924,0.2967719834,0.7158492896,0.0095746461,0.2816289284,0.6910832094,0.0795961853,0.3162128825,0.0489912167,0.1013257488,0.5597668256,0.0376346619,0.4084089443,0.4219474077,0.2458856797,0.640219806,0.6567762407,0.5374367319,0.0845700008,0.2172157706,0.2980976895,0.4584519522,0.3230687148,0.5210358237,0.560539038,0.14040861,0.0531921723,0.1450629406,0.6557665141,0.0646384915,0.2834970984,0.1895992871,0.0427158448,0.4931552783,0.6271386798,0.2322266081,0.2461720208,0.2499111542,0.0421991464,0.4701073033,0.1588467098,0.6506747494,0.1686206156,0.3849121047,0.5328325598,0.0990858873,0.0679190221,0.4189668689,0.092732244,0.2609279757,0.3638924865,0.5451881942,0.1474423361,0.3304506851,0.5194007393,0.5121107631,0.6550363236,0.3965918776,0.0031192847,0.3386646415,0.049076715,0.4779197723,0.3802305138,0.6747174473,0.5435713877,0.0886583007,0.3659081923,0.4206029943,0.6409910763,0.3596465838,0.3365718397,0.0250906349,0.36871993,0.6559617682,0.0297534982,0.7117858883,0.1382620203,0.1941121195,0.2993829534,0.1968810202,0.5982413848,0.1414446319,0.1473065336,0.1657222628,0.5323225291,0.1225203258,0.3185596346,0.7013016815,0.6703486034,0.1589537512,0.7117975137,0.4688708573,0.5407767193,0.1945390151,0.3730691569,0.1724927221,0.5162542581,0.5115767333,0.4011397188,0.150563847,0.1244783399,0.4592675589,0.3228983885,0.5626556377,0.7069241366,0.0425526175,0.0965703927,0.3019461299,0.044474131,0.5101254277,0.3335311714,0.2910013074,0.3758108223,0.1777339208,0.1801503156,0.4257357263,0.1944862282,0.0676701342,0.0612998876,0.0132760459,0.5930104615,0.7113669454,0.240786723,0.2135139805,0.2687178988,0.2029222484,0.6042277338,0.241866975,0.1620219954,0.4168042019,0.2319046569,0.5535626493,0.3415276347,0.6093703579,0.0584334035,0.448925726,0.4754241171,0.4666074763,0.6877847313,0.560717071,0.2900329705,0.2016104739,0.0969843926,0.4205729667,0.4868415359,0.5888726499,0.5742796358,0.4616293753,0.5735619679,0.1262181037,0.6514092616,0.6181034371,0.1518507711,0.2255046083,0.1188385739,0.3925055611,0.2282948693,0.6569581765,0.4292088799,0.5452536003,0.120470032,0.1548567003,0.0344628895,0.3013512507,0.6777474192,0.178277681,0.0706874031,0.712272848,0.6671575964,0.1438724127,0.4290849637,0.2853664114,0.6249752341,0.4799447469,0.4987054803,0.3822266842,0.4698246202,0.6990879309,0.3112727557,0.2657430227,0.1626242359,0.197035418,0.2775473538,0.0955934059,0.4214838518,0.1036877851,0.3255351544,0.0852914836,0.3311321812,0.0202173167,0.4971055377,0.3186409996,0.1328071573,0.3116786682,0.0213786155,0.6425038037,0.1571555834,0.3916126157,0.3410588414,0.6519059305,0.0921546997,0.106015633,0.5568264788,0.2678558586,0.278465653,0.3783250274,0.4638782164,0.496662998,0.0993863722,0.4295399394,0.1857833004,0.3419044007,0.1313099758,0.357931357,0.5404081469,0.0689466179,0.6392660007,0.2220135095,0.5779683458,0.6995240274,0.1919690925,0.5865109452,0.4252353732,0.5921749956,0.6294289255,0.4346195764,0.2551332347,0.3001653548,0.4439345836,0.2648191923,0.1617383422,0.0858866243,0.4727218334,0.1036470504,0.5974599188,0.4783531504,0.4672251849,0.3123705463,0.4276631617,0.4663773796,0.3390580139,0.4383814381,0.7154605152,0.6510680796,0.3154363145,0.3984672439,0.6751180791,0.0774135908,0.1735870163,0.6681908557,0.3443425991,0.5568994329,0.362382976,0.5968412545,0.607212325,0.2915093297,0.1884360158,0.2052973526,0.3322616255,-0.2989330377,0.5197479501,0.2285952964,0.0041901297,0.0087670356,0.6501057371,0.0161727184,0.2513052208,0.0104309775,0.1318383638,0.0030534608,0.2241657284,0.5645767323,0.0904603292,0.4025071078,0.2132146312,0.31154527,0.3334203163,0.4022040113,0.2419955172,0.0318521765,0.1989834008,0.1664130784,0.1930452728,0.5722145319,0.3935060573,0.4079375718,0.0734832513,0.4544745921,0.3568832789,0.0920742239,0.1281904394,0.5879085865,0.2418630483,0.4843487915,0.3029313592,0.6167342191,0.4473991433,0.3309214698,0.0731898489,0.3485514255,0.155537936,0.6609038561,0.5213950375,0.4268628827,0.5473091363,0.5274861173,0.0606817494,0.1775635855,0.0643847684,0.2224329504,0.5428031823,0.4261521637,0.1331717057,0.4246066734,0.398094637,0.0032533112,0.3478898665,0.6133751174,0.3112772805,0.6726026145,0.2266040887,0.0789884767,0.0842505096,0.4123189492,0.2425062111,0.6499386547,0.6761326809,0.5583372655,0.5314896427,0.5636297483,0.31897375,0.0288625637,0.1163009857,0.1570860994,0.2539403504,0.0726016299,0.1557134474,0.6581118016,0.4094034306,0.0462024623,0.1487491382,0.1572633973,0.2324724576,0.0669510481,0.1145550739,0.4607389123,0.3027423508,0.4201841102,0.4000779311,0.0652930144,0.5044011836,0.1639090114,0.0999221729,0.2973488262,0.4367613278,0.3501744578,0.5456720888,0.4288361052,0.5674255854,0.0006354002,0.016984668,0.3642347108,0.523914349,0.0554664079,0.5354419002,0.5522092195,0.4805200472,0.0618495416,0.4158716024,0.4745777638,0.5294852983,0.4275261264,0.6089829957,0.5827891852,0.6411448944,0.2559945691,0.0580179356,0.4762581243,0.6628781511,0.474742034,0.31521329,0.263860304,0.2501694948,0.0213791936,0.0092987266,0.6351230443,0.3761167516,0.1748166989,0.2934844487,0.1290588251,0.5041053333,0.2307560719,0.4569828447,0.2624540527,0.1378641895,0.6242746856,0.329228248,0.662138314,0.4728126637,0.4112734062,0.4857283029,0.3871803606,0.1786173001,0.3011438922,0.1293481161,0.0036270219,0.4522793343,0.2398893554,0.3458124548,0.2115785294,-0.0786003715,0.0212179924,0.3454279983,0.1785739004,0.0270743714,0.0518569338,0.7006952004,0.6206016519,0.435349137,0.2242945686,0.6713785325,0.4430888603,0.6631487491,0.1494426791,0.4244265549,0.4253099399,0.0981614532,0.079101534,0.1042310204,0.6141686028,0.4642003502,0.6648446079,0.0183751076,0.7052645279,0.264875093,0.5733333804,0.0820443164,0.0210633012,0.1123384546,0.1191121757,0.0480748456,0.2856936546,0.1016368287,0.192428561,0.08190308,0.1721712206,0.274471033,0.1963382722,0.5826689218,0.0412314094,0.0074309115,0.18321853,0.6892718849,0.2520370648,0.448186701,0.0973729724,0.1799027914,0.4995839597,0.3119336749,0.1313091531,0.21811576,0.2375528118,0.285396802,0.7038966139,0.1224309446,0.4103054185,0.0920758361,0.4054827185,0.2306025265,0.1084676578,0.1582755081,0.2906000652,0.321373382,0.5298983639,0.4511555359,0.231177337,0.0204236876,0.1049416768,0.6339628786,0.6051690296,0.6919561952,0.192515461,0.254236298,0.4607225371,0.5756703615,0.6802588824,0.3758012654,0.0924595432,0.2497370932,0.2828790023,0.2010577093,0.1482665085,0.6912145802,0.3940884736,0.3229750506,0.6986208661,0.6674144682,0.3767468281,0.3018954151,0.017506169,0.5489776752,0.112243877,0.7104829706,0.5240880177,0.4985833882,0.2149001277,0.2096136535,0.3742059153,0.0412381486,0.363587384,0.4502875747,0.2358937275,0.6955767001,0.0013122771,0.4953732441,0.600058795,0.326973178,0.1479846712,0.6632817532,0.1433301477,0.246490167,0.1792167549,0.3346312711,0.0284774509,0.3421707799,0.1131876651,0.4055826947,0.4860403384,0.1735639811,0.1930668192,0.4276244274,0.3211716626,0.4927361838,0.5140858785,0.083276951,0.3108103927,0.5938573872,0.6299883246,0.2809493538,0.5672170976,0.4741352304,0.2604742622,0.4627991338,0.0045679128,0.0057414405,0.0955138771,0.2124752726,0.2154723609,0.2108850723,0.0936688662,0.0125343085,0.4232269976,0.6267859709,0.6985684238,0.0423281896,0.2882149272,0.6783065556,0.1793309173,0.2689582942,0.6428815962,0.1107715841,-0.1235168056,0.5627198022,0.4707713641,0.3824077055,0.3236832028,0.0356322215,0.183383608,0.1402381485,0.1043677041,0.6829339893,0.0620307556,0.0439599738,0.2639585724,0.447566103,0.2810541347,0.3757325115,0.3670150607,0.6319216715,0.6309180357,0.1661699169,0.6424986496,0.2388465695,0.1594715791,0.250719048,0.228659087,0.0683871259,0.5627695835,0.0940395565,0.5810519862,0.6290588755,0.7032646094,0.3724514334,0.3939269516,0.3468362263,0.2696814215,0.4087630043,0.5735681824,0.1131729438,0.4251469525,0.2490573752,0.064136144,0.5951811937,0.4980905464,0.6746022317,0.6599555693,0.6703882214,0.1253398689,0.3702816882,0.2872532413,0.4540506303,0.3630024096,0.2070510024,0.1593835282,0.0412774401,0.1116234648,0.1972818291,0.0190244306,0.5167550732,0.3109909476,0.0917815802,0.4121387831,0.3989166867,0.3883980922,0.6340698966,0.22565463,0.6208408102,0.3492547558,0.1840064828,0.6583386393,0.3992308019,0.1131266699,0.4218887279,0.0575661611,0.6783298149,0.3289942369,0.0695983577,0.481566528,0.6039333332,0.5845566307,0.5258051238,0.3473409591,0.179802003,0.5615127296,0.0659404526,0.2287282037,0.5377420051,0.6642229853,0.2215829164,0.3820368684,0.5938973283,0.6422903057,0.2789491294,0.166294138,0.1914395367,0.5108245939,0.4666172658,0.2735769395,0.3957709131,0.1908563007,0.1963258877,0.1176627726,0.5766878561,0.0290862782,0.3597605645,0.1212150249,0.4915695417,0.1231247422,0.453445479,0.2288578101,0.6058390349,0.531398928,0.6737389995,0.0674646158,0.1773648158,0.2156944526,0.6073291922,0.663617479,0.6252603177,0.2358696778,0.4640151253,0.2408464637,0.0999172277,0.0368757608,0.2222940221,0.5079937916,0.5433269905,0.4404674398,0.54127895,0.1392678363,0.0294344553,0.4281564438,0.1671432994,0.1221146075,0.5721331062,0.4723821393,0.3525445608,0.1751092313,0.5710849604,0.1043675447,0.0665428737,0.2623004331,0.2713464526,0.568096741,0.4492067344,0.4695326144,0.1581931708,0.0191750866,0.6378693868,0.3002066876,0.2177449874,0.5205734447,0.546088802,0.4081780768,0.173465359,0.2192244058,0.6857654005,0.1461883717,0.4370674731,0.1098879995,0.2177015714,0.6077035366,0.1994506825,0.2312924722,0.1910078752,0.4542736579,0.6101122503,0.6987007522,0.3045715404,0.1649363439,0.579483773,0.2040304633,0.5351054992,0.2657471573,0.6279285068,0.3987656068,0.1205805245,0.2612915851,0.255660843,0.202822563,0.4135390827,0.3931646506,0.0893598001,0.1740493781,0.5325441098,0.6924549386,0.6046497489,0.5851267243,0.4836757411,0.2814950141,0.416941436,0.07803321,0.3517248653,0.1955584459,0.6405197066,0.5039005091,0.4650223573,0.0731689435,0.5782730148,0.1106645287,0.6845733157,0.1761607286,0.4736865871,0.0828597142,0.2986963966,0.5396392664,0.1107310075,0.4923770188,0.4094760916,0.3733332373,0.3666519256,0.217107441,0.298697703,0.3282718481,0.0763911711,0.0309749505,0.5463147377,0.0254861271,0.2593219884,0.4075981866,0.2987363692,0.612211925,0.0075030573,0.2599074106,0.0168782323,0.1427555151,0.0239752948,0.5004108461,0.5702214774,0.2968570629,0.6420389275,0.4111227097,0.0722325857,0.0838527768,0.1009084986,0.3316152773,0.4722982452,0.3632640022,0.1356611482,0.4680294952,0.5890749461,0.1718285168,0.5834093079,0.4439547991,0.5238849756,0.5672774491,0.6416531949,0.1069270444,0.5281581248,0.6295497173,0.019494735,0.0148536181,0.4045279217,0.6750199434,0.6432477501,0.0472285709,0.0114023779,0.5985798814,0.2298135443,0.5332639305,0.0226241507,0.0671257222,0.3912673238,0.5960171693,0.3394004876,0.2896454873,0.4909627717,0.71074189,0.2918099857,0.2985948517,0.1589447452,0.5575783215,0.2392849482,0.3201896699,0.2381680332,0.1807538046,0.6153547257,0.3197664464,0.2882066664,0.5341223632,0.686751918,0.5543672666,0.0918001026,0.1812599234,0.4019735519,0.0261470018,0.0372254342,0.6312502766,0.5987846589,0.2464541561,0.1523243332,0.407911927,0.2142619171,0.0861389124,0.6732087454,0.3212186696,0.5706294804,0.4405336105,0.534027758,0.6871015945,0.3344088777,0.4102852257,0.6558839491,0.6795145154,0.6993264783,0.5050858354,0.2728553221,0.4795117485,0.7115282772,0.34203021,0.0965556124,0.031455098,0.1755946063,0.1975187234,0.6100319216,0.2086316183,0.4664872936,0.656353535,0.5482254891,0.3549055478,0.0477011472,0.257669337,0.2272124847,0.4261156542,0.2205898426,0.6924028409,0.6277990057,0.453282964,0.676250939,0.5255126654,0.2148065183,0.5077350961,0.3575906603,0.2987836844,0.3046591842,0.3383916902,0.6317653987,0.6571828548,0.4931915621,0.0050066136,0.3879257997,0.5157422865,0.0323955168,0.1096873967,0.6233418486,0.6037489611,0.6870038812,0.0549541272,0.1693615685,0.3965219832,0.4174803559,0.1707828769,0.3584271752,0.0168980645,0.3779794799,0.5832487889,0.3410297266,0.2995090292,0.2804979016,0.3088502391,0.0519114427,0.5623712694,0.2367761537,0.5729683426,0.5386627334,0.5853437148,0.1154164621,0.3366466164,0.6670287851,0.2926185062,0.7129088149,0.5135273512,0.1869499133,0.4253211723,0.2841633427,0.0120968879,0.4456823463,0.0786138632,0.3580266701,0.4246866051,0.6353207691,0.2173306461,0.4097891012,0.1632385747,0.1433995376,0.43989881,0.3738675042,0.3984731493,0.0969517557,0.6078001819,0.6359123184,0.3367043893,0.0096035632,0.5640296683,0.1581346993,0.1902299669,0.1911394011,0.3222585838,0.1800650957,0.7100737581,0.1146077605,0.5815667722,0.2902314509,0.0981654035,0.7044457348,0.2036039881,0.3084657518,0.5611080556,0.5208318953,0.0211541845,0.7048621869,0.0777040847,0.5440205659,0.0553972293,0.1099060028,0.618151669,0.2588193581,0.3194270911,0.5472543845,0.5677982946,0.3401866966,0.0631513367,0.098015565,0.091019806,0.2990667565,0.4030685208,0.711179612,0.3544871662,0.5010555053,0.3454794997,0.2360568933,0.6951182192,0.4842798177,0.2739170441,0.6927441463,0.6772633301,0.2521779904,0.1600330075,0.4165606969,0.6112367667,0.4214334495,0.0620385821,0.2504233448,0.3103599076,0.0421572365,0.6939263282,0.7123477585,0.5890417998,0.5049988798,0.1857743017,0.4365982557,0.5999612889,0.2580465706,0.6744444085,0.0481987318,0.1339147804,0.1096121396,0.483631698,0.6307297598,0.0670047353,0.5870129635,0.0851678356,0.6284000084,0.7031621719,0.4499681767,0.5772987982,0.6999313966,0.3287649485,0.4385074163,0.2915591423,0.3443355376,0.3161862628,0.6809717541,0.565163385,0.5343328472,0.2493370608,0.4959105544,0.0999493881,0.0848404042,0.1360632034,0.6756823561,0.0925116972,0.1398551488,0.6687042459,0.1741148605,0.2394164473,0.5996616784,0.275247675,0.4819725617,0.3167775814,0.3392312993,0.659468876,0.6889246163,0.1903589582,0.7085071791,0.5406896216,0.2663882963,0.1201319868,0.4134500641,0.1385817781,0.0336839888,0.464571138,0.3657550572,0.1768377453,0.6724102905,0.6577430217,0.3543904144,0.6766855046,0.0550077426,0.1490631961,0.4657153668,0.2769639482,0.1071277209,0.6242439767,0.4563436277,0.2082574211,0.0234107266,0.5331326901,0.2843211511,0.2686026709,0.5701911242,0.0381714065,0.3090239224,0.6026353227,0.265259388,0.1638650559,0.64608499,0.0749420987,0.2468198518,0.0608059094,0.0299111334,0.2447050239,0.1546183196,0.555164062,0.6448561573,0.1945462283,0.5983854109,0.2897043582,0.125395246,0.5509750981,0.6572811848,0.6774659387,0.2645381017,0.2504536293,0.6010060998,0.5203505908,0.0046712478,0.0175763171,0.182827663,0.3926748095,0.0361486801,0.6124759149,0.3345337072,0.6653606129,0.179212457,0.3552418982,0.0467111072,0.5483612888,0.031550377,0.1468013076,0.0232702857,0.0436250314,0.2101270513,0.4935503175,0.5291518516,0.6909590719,0.1520513428,0.6781717129,0.5412221037,0.6367488414,0.1169415176,0.0554040401,0.2143619225,0.5836681862,0.0876567484,0.5659224765,0.6764651667,0.3017846567,0.4442083029,0.7039477233,0.0159991185,0.0558299988,0.4024571065,0.287340237,0.5258314345,0.3431207644,0.1005380029,0.4646043109,0.4154588371,0.4316384722,0.5640443098,0.1307522607,0.4337271298,0.2362984754,0.1690439718,0.3468874616,0.7007978809,0.2714945521,0.0598163318,0.6733633743,0.0487474975,0.5271600142,0.4495270456,0.5996215789,0.4658678884,-0.4968586084,0.1473937843,0.7083240695,0.1482019366,0.2680412164,0.2974010403,0.0285061479,0.2122173448,0.1933719593,0.4460814561,0.1548476545,0.0570196268,0.3767393819,0.1173746413,0.6887528036,0.1696470766,0.4031346426,0.3940774711,0.5063182361,0.4709206744,0.564652629,0.3992928582,0.0754971494,0.2843218462,0.6673332047,0.0915313817,0.1118150486,0.4012970826,0.5031468475,0.3023326633,0.2621144755,0.6330533985,0.3394985034,0.1073821694,0.0878614118,0.33293528,0.2941054993,0.2637047811,0.2572009492,0.1018129501,0.4879363756,0.5770192203,0.0619156155,0.2637690113,0.5774582774,0.3319501829,0.391097278,0.325774034,0.4764499292,0.5536591482,0.3946572395,0.6851497054,0.6733714979,0.114254798,0.3635286038,0.6801562688,0.3610582491,0.0015451984,0.5586421168,0.1088320338,0.1747301836,0.433744908,0.3296139709,0.3585543564,0.1874158028,0.6518166516,0.345085371,0.0964778139,0.1399760789,0.0943808392,0.5941087446,0.1137502418,0.1635849625,0.3442703422,0.5117313363,0.2591743186,0.190049803,0.4383590858,0.3369573165,0.2678763402,0.4441364143,0.0222885901,0.2952960939,0.6265974686,0.4234683485,0.2079267488,0.6546754677,0.3981182151,0.0883741161,0.6511208626,0.4543787869,0.1982995467,0.1921627858,0.0908231366,0.0547969868,0.3421721907,0.3293164778,0.0769685935,0.4853331899,0.7017060449,0.0251322623,0.3076453552,0.5408381598,0.4786555035,0.3835497733,0.5117158159,0.1755114796,0.409026883,0.5574359825,0.0608039441,0.1063299376,0.3829540677,0.4787863935,0.645875437,0.4575578872,0.0960926346,0.318856567,0.5334425658,0.4693060775,0.4308954184,0.3296062043,0.1829753985,0.7070033614,0.0346027752,0.1838828285,0.6175457195,0.0842863203,0.3005088995,0.5302296011,0.4846639058,0.4396409469,0.7089135255,0.2665385709,0.2427186615,0.3813990759,0.5608057547,0.2649516164,0.0134144648,0.0942448136,0.0380380021,0.6386633629,0.0835095097,0.0490112406,0.6854358949,0.6364043312,0.3954462827,0.7093572025,0.5248956815,0.5397499044,0.4218508419,0.6504742227,-0.2710078531,0.1864366789,0.3340615145,0.0089822282,0.5444531523,0.3463208589,0.6071293782,0.1007674378,0.1933281209,0.3596731486,0.3104826697,0.6736814404,0.5569813686,0.0675955603,0.4166152356,0.3783180276,0.2100571102,0.2239320471,0.012854647,0.2027660125,0.0590577076,0.4129689567,0.5973275854,0.4376160628,0.2148564176,0.1023408421,0.2895912482,0.0700777593,0.4314162917,0.0020560736,0.5182807305,0.3136255837,0.6979432299,0.6847501355,0.0244361514,0.4278279434,0.2231392617,0.3316826512,0.3371650571,0.0429641137,0.2276960019,0.4369334511,0.703301388,0.2329833043,0.5806607264,0.6913852297,0.3082728889,0.1072522877,0.3803079314,0.1308855762,0.2062394562,0.0987603182,0.1486558958,0.2268693001,0.5401597698,0.4572632759,0.3012641473,0.2855584841,0.6792528095,0.60495956,0.0810936112,0.1744572572,0.1945839323,0.6929459302,0.1707728732,0.5052131527,0.7153281599,0.314744414,0.00256618,0.1012814067,0.6307305296,0.594294075,0.6649314054,0.2441487673,0.0487337679,0.6326370285,0.6938269073,0.6302916377,0.2717245146,0.1865291923,0.0374283574,0.7153054654,0.1043555834,0.6700891418,0.698142443,0.1843009471,0.5901547795,0.1686694757,0.065964688,0.5976585162,0.2556521958,0.067943751,0.285645508,0.5529593804,0.3112247576,0.6315930332,0.6672333181,0.4053116638,0.572982547,0.0923657975,0.0651080467,0.5900076542,0.0521612584,0.1748926941,0.6145295214,0.4940327742,0.3109715018,0.4721676723,0.6508773105,0.3813440675,0.1879613227,0.1164629526,0.108317866,0.1698865387,0.2715528387,0.6303402559,0.6796223781,0.3080449798,0.393240834,0.0596598848,0.5110002391,0.7147209263,0.2082590791,0.3750988922,0.3780663897,0.117143444,0.029445744,0.1669374121,0.2148109215,0.081429998,0.2228883194,0.4350995922,0.30801918,0.1114683294,0.1666018125,0.2250809663,0.5805007147,0.0773067459,0.054878329,0.3715026122
   0.6435249246,0.3257149357,0.0060043447,0.6234423743,0.5957438327,0.3749435292,0.3364831374,0.6078821013,0.1690984928,0.0403131491,0.0466980276,-0.3097890538,0.4634713452,0.4272220264,0.1657346235,0.2982759106,0.7066582667,0.4264843558,0.0167974667,0.3675648467,0.458817857,0.1956970368,0.647332795,0.3380695076,0.3755651997,0.0299334604,0.3387355151,0.312248106,0.3662780259,0.2202419779,0.2524427017,0.5735450472,0.2808807283,0.0422360991,0.562475013,0.5540617132,0.6338340816,0.4031083767,0.1730916285,0.3165304589,0.7040115499,0.6941727608,0.0211204149,0.6805331044,0.5960873362,0.330252437,0.1442478778,0.0634991911,0.5270242648,0.4910692935,0.619606526,0.5515706296,0.3342760609,0.0727371492,0.2344724631,0.7061871385,0.0564575892,0.0172787045,0.4137668867,0.6805960914,0.5032091938,0.2999297457,0.6416290045,0.5945102297,0.7115138437,0.2871147771,0.2880670248,0.5832059709,0.5778565129,0.5003752547,0.444188537,0.586043779,0.0520974888,0.4502608611,0.2779276491,0.4617478422,0.4399906692,0.0204020622,0.5227484136,0.5676985768,0.3945729278,0.303303338,0.3252019824,0.0444018723,0.0581557938,0.0701598115,0.5326830486,0.4303991728,0.5768007658,0.5747139309,0.2165697464,0.6950186152,0.188202266,0.5021750498,0.3177602047,0.4792750143,0.0451242022,0.3148311027,0.2375721273,0.6057882901,0.1203924169,0.5765282086,0.393306583,0.5620936517,0.1730655577,0.7079139179,0.4760721551,0.3150952443,0.2096591879,0.4344978315,0.1308946981,0.6580279678,0.4721398652,0.4922384012,0.2964961855,0.3399253152,0.4206040464,0.1535328683,0.6415191074,0.4488367658,0.6153415595,0.4065964702,0.5980332488,0.2341241601,0.1430848687,0.6968844127,0.5978537493,0.6515092371,0.3609939462,0.6115408042,0.6859263956,0.2904737969,0.2442020322,0.1943645171,0.6324897747,0.3209988131,0.2442877911,0.0092890386,0.1198546907,0.4532648013,0.2262140544,0.0837668794,0.2570761019,0.1353201929,0.647577517,0.1377484829,0.4660231548,0.0706462432,0.2135092027,0.1451633354,0.208704117,0.5396165153,0.450511667,0.1424850554,0.0030562463,0.3614200125,0.3868785462,0.6249222517,0.5944828776,0.0037440807,0.2418771842,0.4212657051,0.4654699138,0.6855858099,0.5617042908,0.1274968458,0.2745305028,0.1195762901,0.0412557349,0.518772919,0.5931963562,0.6784228313,0.1280714105,0.4026596878,0.0305719622,0.2318370004,0.1881595923,0.3148797011,0.5428273828,0.4836752111,0.1983168302,0.2825804112,0.1390181064,0.6687052881,0.4117074258,0.7010617189,0.1801945511,0.4009197332,0.1253454387,0.2691726173,0.4887869353,0.1552102285,0.4578659361,0.7075331797,0.0828145419,0.4098792058,0.0188148114,0.1361695967,0.5191310373,0.0264073099,0.2256276948,0.4602833567,0.1869953474,0.3773991553,0.4643534396,0.3918190299,0.4197071744,0.6394997518,0.0262059585,0.2431928978,0.1786197123,0.2192515313,0.0904512521,0.5478360303,0.1261662966,0.562542267,0.6989296879,0.4032865682,0.4873047492,0.3597409913,0.0114725329,0.1408798407,0.3719979031,0.4064984942,0.3030259596,0.3190810492,0.2645197433,0.1966879053,0.1705255593,0.2455243954,0.0896630408,0.6269885454,0.713752046,0.7069471332,0.5794227843,0.0637939547,0.4102706278,0.0556794057,0.2721187255,0.3540523925,0.5247465617,0.2417205166,0.6456648669,0.6356044458,0.0558045874,0.0663385367,0.1096667589,0.103516472,0.649731197,0.449892812,0.4118912154,0.6519937937,0.275849001,0.5158556784,0.5870231126,0.4805204594,0.5277839695,0.2872734856,0.0610986128,0.4173598359,0.4803677471,0.1648304855,0.2604866128,0.144622712,0.493419241,0.3619192444,0.2903481796,0.4407090708,0.28464771,0.573670296,0.6058889284,0.4160111019,0.3186745206,0.223089631,0.7066156911,0.0438626176,0.6273344405,0.031927519,0.1862496831,0.0671906342,0.4225133226,0.5390738643,0.2507142897,0.4019207672,0.5864653471,0.115005753,0.7155530717,0.2832172344,0.5306586457,0.0144926942,0.0155628883,0.0220694069,0.473816026,0.3366451143,0.0832384695,0.6611444623,0.2035317204,0.1461732394,0.368552235,0.4485915865,0.5356624025,0.4347148821,0.0381929693,0.3598109925,0.1305231546,0.3434098005,0.5347172397,0.0032996153,0.0886111248,0.4268432083,0.6059224796,0.1294388038,0.1321912884,0.581673371,0.7157215616,0.4453601287,0.3037199655,0.4585853759,0.4991179773,0.6631134146,0.5781405037,0.6991584341,0.641825112,0.4720699249,0.5952806228,0.4828114395,0.1644227459,0.0058801852,0.6046915111,0.6366507629,0.301303056,0.4842677373,0.3569663292,0.4173985171,0.6122167644,0.294121073,0.053557192,0.1344127548,0.5019368209,0.0978554457,0.6093447142,0.6029640225,0.4685193865,0.6412119201,0.4234681135,0.2110494697,0.2809203811,0.6417893857,0.402524379,0.1864865777,0.093051169,0.4455480789,0.6335205064,0.5811163323,0.4434637089,0.3081456736,0.4487126077,0.1868475196,0.419954168,0.0140241225,0.160330746,0.3627364371,0.131989246,0.1192183905,0.584348039,0.2046964119,0.168133143,0.6583197074,0.5463947138,0.5985315364,0.004944946,0.2816360525,0.6166424897,0.1312692349,0.1161383369,0.4725740918,0.714160762,0.6238155737,0.1486696768,0.3377172763,0.4863245985,0.0847501002,0.6344594618,0.4488967003,0.7036866198,0.4999756006,0.0287387369,0.3820327315,0.4222534646,0.0385956433,0.4728650293,0.5157718967,0.1724711858,0.2199044884,0.3709752573,0.1073790168,0.5972223753,0.1116308128,0.6879847428,0.1962010662,0.5379272129,0.6501546732,0.510982855,0.1699249805,0.33402406,0.2124873166,0.7142249748,0.5573996904,0.4393707531,0.5147522024,0.3941263681,0.38476072,0.1880716787,0.3971569429,0.6379537549,0.1192712316,0.3621765284,0.3872258629,0.4328200509,0.5417954772,0.4828376766,0.577637737,0.0516256605,0.5245230423,0.3615558976,0.6268008556,0.2201926924,0.1408062491,0.3535889384,0.4762241531,0.4860230106,0.5263502996,0.0258700739,0.0082425466,0.5328337139,0.4971658294,0.6331372016,0.2701310753,0.5004118247,0.5230619555,0.2243634869,0.4348406396,0.2961940454,0.3199160121,0.0784002142,0.233410955,0.175062181,0.2086366177,0.580953208,0.5004632669,0.3238618928,0.2575650971,0.1997427498,0.4200579954,0.242317367,0.4661214528,0.0501470558,0.4382784646,0.6469784436,0.462711441,0.1220317851,0.618435513,0.703430036,0.7035365025,-0.6797919728
##end
biasActivation=0,1,1
[BASIC:ACTIVATION]
"org.encog.engine.network.activation.ActivationTANH"
"org.encog.engine.network.activation.ActivationTANH"
"org.encog.engine.network.activation.ActivationLinear"
