encog,BasicNetwork,java,3.4.0,1,1749593915659
[BASIC]
[BASIC:PARAMS]
[BASIC:NETWORK]
beginTraining=0
connectionLimit=0
contextTargetOffset=0,0,0
contextTargetSize=0,0,0
endTraining=2
hasContext=f
inputCount=150
layerCounts=1,31,151
layerFeedCounts=1,30,150
layerContextCount=0,0,0
layerIndex=0,1,32
output=0,0,0,0,0,0,0,0,0,0,0,0,0,0,0,0,0,0,0,0,0,0,0,0,0,0,0,0,0,0,0,1,0,0,0,0,0,0,0,0,0,0,0,0,0,0,0,0,0,0,0,0,0,0,0,0,0,0,0,0,0,0,0,0,0,0,0,0,0,0,0,0,0,0,0,0,0,0,0,0,0,0,0,0,0,0,0,0,0,0,0,0,0,0,0,0,0,0,0,0,0,0,0,0,0,0,0,0,0,0,0,0,0,0,0,0,0,0,0,0,0,0,0,0,0,0,0,0,0,0,0,0,0,0,0,0,0,0,0,0,0,0,0,0,0,0,0,0,0,0,0,0,0,0,0,0,0,0,0,0,0,0,0,0,0,0,0,0,0,0,0,0,0,0,0,0,0,0,0,0,0,0,1
outputCount=1
weightIndex=0,31,4561
weights=##0
##double#4561
   -0.0048139271,0.1697642966,0.1943266834,-0.3953634776,0.086351188,-0.0491530469,-0.4479921724,0.1462129338,0.0653634608,0.062821054,0.0185011145,-0.3490450649,-0.1066093385,0.1149235825,-0.0261484962,-0.3276863998,0.1389200942,0.1107996751,-0.3361851383,0.103363161,0.1777925806,0.1900727834,-0.3420629153,0.0140651687,-0.2590171701,-0.0788989965,-0.0445739358,-0.0063909493,0.0971918795,-0.3270736647,-0.1858773624,0.161628528,0.416032094,0.2895481135,0.6314851233,0.5301257753,0.33047878,0.1532406199,0.1494611134,0.4060969058,0.2859647614,0.6603323962,0.091409388,0.5096321844,0.2503600978,0.688803117,0.432128758,0.3090619971,0.4926177595,0.4197458505,0.3453948811,0.0374593682,0.3437469729,0.4697179359,0.5248054775,0.0934627206,0.2246830095,0.5603814974,0.3403360087,0.2683628859,0.3828855907,0.1984641974,0.539639264,0.0740298163,0.2760167496,0.4566645819,0.2211179104,0.2095534554,0.583606845,0.5534850918,0.6085166194,0.5702066375,0.6375222578,0.6971856241,0.0414677736,0.6840379171,0.3640078177,0.7145548825,0.1703623737,0.0097252498,0.1285705206,0.0295706788,0.6896525756,0.2785984927,0.0372915889,0.1649399146,0.5550596904,0.4461886303,0.6188015977,0.6647862388,0.6257079562,0.0476911949,0.6541369476,0.2249228804,0.3651045056,0.2809851592,0.170887553,0.0462597862,0.4647467785,0.2826503819,0.4625537431,0.5727025266,0.1857693558,0.3545370997,0.6631903316,0.1590535226,0.2328589149,0.197429481,0.4845710085,0.2338859476,0.013192383,0.5972169409,0.3766926528,0.2600715052,0.0106536087,0.2928468024,0.3462993442,0.5698540552,0.1025620245,0.3044865863,0.3807000401,0.0203959494,0.6971651335,0.1502767605,0.6524070894,0.3991085994,0.12816079,0.176820583,0.7139633344,0.3864310733,0.6740495298,0.4388308868,0.520336138,0.1274438501,0.1656131907,0.2755834455,0.6877820773,0.0100468861,0.3827151979,0.2778484843,0.2651537135,0.2009746047,0.2702872151,0.2353762357,0.2636432339,0.2226376666,0.6232733088,0.6476531282,0.4686041849,0.049870317,0.6352891309,0.0687097016,0.7114471706,0.3759964257,0.3814768952,0.1003317648,0.6619750295,0.3711966589,0.4463824836,0.3660875127,0.189978701,0.3025348035,0.642116474,0.629876639,0.1490129231,0.6120221515,0.2619734256,0.4036712173,0.4241870355,0.413027295,0.3728741667,0.0143087224,0.3592596346,0.2339761332,0.498007152,0.5877095194,0.5657229612,0.0696533543,0.2337252487,0.4460581824,0.1866577706,-0.4263078581,0.6096157225,0.5497030913,0.1999297843,0.6656233777,0.4446633301,0.2768925441,0.4687059428,0.0901887802,0.1443690598,0.3370238266,0.5168991682,0.6356268242,0.2269040687,0.0650349334,0.3770525396,0.6980830139,0.4807577511,0.0456370299,0.610020995,0.1753577377,0.3687125184,0.2032027523,0.6598333182,0.4800200463,0.6203650452,0.0703657121,0.6191799651,0.0543027918,0.2853922367,0.649997277,0.2481360645,0.3092841805,0.3678924208,0.0293324515,0.1522226957,0.3247437252,0.376164359,0.3384194782,0.1314071402,0.650102089,0.2877892465,0.3111316678,0.3948733211,0.5838218241,0.3772602925,0.0356011848,0.3157587281,0.6781241783,0.698825127,0.366984288,0.4378014598,0.2283859399,0.0290233231,0.237076435,0.487901821,0.5978008993,0.1219272597,0.3472687365,0.6701614381,0.2455281292,0.0975668562,0.6588995878,0.2745272611,0.1770011699,0.4625704515,0.1184087717,0.6536917997,0.0135723967,0.1542087056,0.2807846946,0.3931953049,0.1156723318,0.0569279951,0.5731919447,0.3451075401,0.4682908129,0.7089672278,0.1443336834,0.7062445148,0.2075769873,0.1033377898,0.3452858135,0.0771238925,0.4840608817,0.0743129003,0.073627503,0.7012041291,0.706544527,0.6712135572,0.4598538548,0.5191176494,0.5188891583,0.1520142443,0.5044038481,0.5440206851,0.6842442269,0.2145169507,0.6543462463,0.2399446932,0.582339695,0.5828862169,0.2568542231,0.3663869406,0.0018367026,0.3902825452,0.280351972,0.645024624,0.2084049372,0.0174924806,0.215619713,0.2067320509,0.2795276718,0.3755740186,0.3697674654,0.1704618951,0.1317361757,0.1439186455,0.045314497,0.4566216967,0.4381454284,0.6175765878,0.5361117225,0.2066515683,0.0213170724,0.4507524791,0.0331942995,0.2902576125,0.4550048917,0.58104161,0.641471505,0.1091335852,0.2291841125,0.1572318275,0.4304206482,0.5642743851,0.2907263712,0.6729882416,0.4980674176,0.5993856144,0.1024747752,0.2088726377,0.5617808065,0.548191005,0.4853685347,0.4813724761,0.5032191221,0.4699163121,0.2591549855,0.4318037053,0.1889505553,0.5620488487,0.1540916014,0.6564755626,0.0104451103,0.4648772092,0.3607556973,0.5592821018,0.4146679589,0.1521064329,0.440570921,0.4747730572,0.0965120304,0.6685716438,0.1724675822,0.3730984962,0.6393979553,0.6818371361,0.2892141104,0.5674846479,0.5427418793,0.3333901728,0.6714992617,0.0838491317,0.3597850859,0.6945482756,0.5003014983,0.2370607789,0.6630883715,0.2231752651,0.1647603336,0.5150976732,0.4735912233,0.5563693479,0.0150304121,0.451885199,0.5720395382,0.6798881849,0.21466396,0.2715934984,0.5225111057,0.6359671419,0.1823237111,0.5707806178,0.0809062224,0.2102563276,0.3397195295,0.1148735463,0.3265811722,0.3641038417,0.3121967498,0.3077875924,0.2139083316,0.7067647819,0.3766576113,0.1718549904,0.6989687066,0.5978282735,0.318151574,0.6608893233,0.6532424441,0.2450711021,0.6543564702,0.2196191308,0.4233195364,0.3353680146,0.707824704,0.5837075604,0.2066272662,0.0061027683,0.4135847209,0.6667267263,0.687412624,0.3975717979,0.3331194634,0.430043993,0.5538311299,0.2535661153,0.2764147654,0.6530068617,0.4479605064,0.6443948002,0.6214736408,0.6011997946,0.3485850517,0.0812542794,0.1142281715,0.5086357694,0.4443766408,0.2354874651,0.2995722068,0.4520329198,0.6902032028,0.1975191777,0.0045753277,0.3964871374,0.3493601119,0.3094560966,0.6202434579,0.5387272682,0.4236813286,0.5905333428,0.211504156,0.4734213385,0.6475679739,0.0631285703,0.4913291227,0.0399517322,0.4048349996,0.584506281,0.4746430085,0.4507678076,0.6714251785,0.2586098541,0.5897061496,0.5779374197,0.695482687,0.400995085,0.4970679233,0.4746718462,0.5742227434,0.4904385486,0.2145410461,0.5559962056,0.6749531052,0.0322575167,0.7147341308,0.3386898932,0.4375497445,0.5191403314,0.1139457048,0.598616806,0.1201241711,0.1757627142,0.124194605,0.5970835358,0.3491562691,0.012334336,0.5831842551,0.4926360468,0.4545161473,0.0249086975,0.1569425545,0.1938482204,0.0305481843,0.4368246884,0.6736386637,0.1967104621,0.4341223394,0.4760543166,0.50778971,0.5359781639,0.1915839823,0.623827025,0.6815722194,0.0603146465,0.5249095581,0.1204234606,0.2295349647,0.3450597761,0.5749823455,0.5779061559,0.3067483144,0.6937762049,0.499265218,0.2102059634,0.6694174913,0.526991084,0.4008918951,0.1362583719,0.0234980174,0.6081714207,0.6891877773,0.5486262401,0.3118023575,0.0222270827,0.2772574058,0.0787989696,0.395050423,0.3258540278,0.6405660444,0.1971896466,0.1827233258,0.1141266644,0.2114242111,0.4432738155,0.2505840386,0.3418016537,0.0929311773,0.435349289,0.2018354967,0.29429981,0.1742109128,0.3716479473,0.0344861181,0.6070966719,0.1578092008,0.4000321774,0.469858448,0.5158491638,0.0366234618,0.431078432,0.6698641577,0.697133232,0.1682941514,0.0944962532,0.6438380539,0.6079001315,0.4980763946,0.1123877405,0.4290820236,0.4937506803,0.6913665873,0.0211807203,0.1217344616,0.2929693212,0.5483951657,0.3007867762,0.3834131773,0.3048485511,0.3396371935,0.3443538958,0.0191832091,0.0292065256,0.4206392455,0.5039501222,0.3466677436,0.0183010552,0.0125975256,0.6423259347,0.6067848043,0.0583233178,0.0446904713,0.2759360683,0.4517333864,0.3858513673,0.5690403934,0.4025675866,0.4344522668,0.0214283014,0.4261599707,0.2976517588,0.1049569557,0.5175567276,0.1640144443,0.1405709437,0.4140708478,0.0361069084,0.0116242975,0.5468483644,0.2087141354,0.1661395623,0.1256290097,0.0364637354,0.3027733729,0.497154302,0.5077875819,0.4107837233,0.2674900316,0.1139937453,0.0333523869,0.5167953365,0.2782868169,0.7087615885,0.2722188222,0.5438522099,0.6081350346,0.7152279007,0.2587223282,0.6580137944,0.2235078189,0.7080870688,0.2644540818,0.1438741312,0.334496866,0.1699628166,0.4962711813,0.2240567075,0.2335501767,0.52443296,0.6809945818,0.5808822565,0.4349013085,0.2879920328,0.4828770546,0.5192869013,0.6794935973,0.2959429499,0.3948487028,0.6304722217,0.5697454233,0.0809813846,0.2801721798,0.7035820077,0.3837403895,0.6620657017,0.1200785679,0.2632908516,0.4514178877,0.0621425958,0.4434283846,0.5417951038,0.1338373397,0.2519775139,0.5025628736,0.6761420468,0.5313167149,0.1193488814,0.4525488065,0.2125562774,0.0660485088,0.1275121109,0.3765996024,0.2115302773,0.6819968604,0.1092522229,0.1302915706,0.0082418979,0.4210985934,0.2408627004,0.3345985434,0.0037486296,0.182596784,0.4095036896,0.2263908908,0.1397236227,0.3065393593,0.5933941983,0.1264204103,0.6904212754,0.6741750165,0.2441517664,0.1556038726,0.1472180228,0.1250370114,0.4941331955,0.4121399323,0.5579644634,0.3679131953,0.5432656724,0.1499573807,0.4920220425,0.4737887235,0.2418845771,0.5343194682,0.3359389007,0.5189739911,0.512697993,0.3443430324,0.2061608752,0.038172612,0.3678808861,0.4414143264,0.6400264279,0.2030978328,0.0283563636,0.1769432583,0.277147778,0.138276885,0.1871848275,0.039405085,0.3877502585,0.1270616118,0.3873131561,0.5178755202,0.4521827172,0.1974822061,0.3193332713,0.3621659992,0.2789830435,0.0777364371,0.0491553439,0.3716921604,0.2014956403,0.1815713944,0.6962425197,0.5105832805,0.0457636263,0.0616278126,0.0305125552,0.4041225091,0.3126797421,0.2146785896,0.0291681438,0.6486471345,0.3732112071,0.0601384321,0.619960092,0.5527345304,0.1284297097,0.0078063142,0.6152874283,0.5885493334,0.0958515271,0.0728054817,0.6391124385,0.1150112035,0.6114640202,0.6296191383,0.2459356407,0.1609377766,0.6257486424,0.4069451683,0.0087192845,0.2842508331,0.6777348357,0.4006826111,0.3267880644,0.0285962558,0.3528294474,0.1510444282,0.4342868614,0.5908889756,0.0251197005,0.2814139049,0.5965396956,0.5782117323,0.2390292917,0.63165204,0.1208233424,0.1586080045,0.0323486367,0.2853775967,0.5903980872,0.2918239525,0.1240711413,0.6684364532,0.4414047966,0.3240443383,0.0952547349,0.6843813231,0.0820236493,0.1278966454,0.1898634193,0.1110790511,0.6282734687,0.2021229545,0.5001775386,0.6441237856,0.1366863861,0.1223402993,0.1800602612,0.288285172,0.102118368,0.0866440401,0.6244253788,0.0606360272,0.2822741421,0.6795659139,0.5589717102,0.119910733,0.2991326654,0.0729044121,0.0201192714,-0.3547693607,0.2507501241,0.69365197,0.6875987719,0.269881545,0.4148009709,0.4020300057,0.306143506,0.6464802578,0.3457492415,0.6789146249,0.2618029456,0.687625636,0.1691305695,0.3250370883,0.413701844,0.4677535571,0.1100487136,0.5337324383,0.2401276367,0.0467278623,0.4976530071,0.0598157886,0.2344770932,0.5211153753,0.0031470227,0.400210747,0.1516752563,0.2061101897,0.0328846678,0.6920215105,0.5739708131,0.7080973265,0.0076131054,0.1841948439,0.4813836514,0.4109461467,0.3808491032,0.5105768459,0.1931628934,0.2536632366,0.5247129171,0.4448732348,0.0789690773,0.6883489301,0.1397867936,0.5085418945,0.443013652,0.0786051453,0.0033853705,0.2036092943,0.3495325646,0.089374541,0.4770767225,0.2704374713,0.27084224,0.2672792087,0.5508101487,0.6385282024,0.3564144325,0.2347516885,0.2742820165,0.2051528478,0.0668357387,0.5887945414,0.1084976519,0.3192247531,0.288670512,0.1344362392,0.0950538888,0.2524499728,0.0560386265,0.1408430339,0.54018548,0.2007530478,0.5775260329,0.6407064544,0.2553863165,0.3103090589,0.5504111132,0.4384164809,0.3504430045,0.6450053831,0.4830719102,0.5488595274,0.0704324127,0.0613376857,0.3112741288,0.4828485383,0.5067969817,0.0520814918,0.6241889519,0.464622353,0.0121105077,0.0986151512,0.2528823434,0.47527839,0.4986533739,0.0983598604,0.3863288684,0.0079672673,0.7095603326,0.380301202,0.4455353026,0.3354523747,0.2115194703,0.6344871935,0.5489262909,0.5558428641,0.6765668809,0.1952635253,0.0402202944,0.1951547157,0.6371799157,0.6928241511,0.5856706831,0.3468953764,0.195588795,0.1840649873,0.6890275023,0.1521264904,0.5683789782,0.5053334851,0.0184012132,0.3389975825,0.0813518158,0.2218532269,0.127614505,0.0830247105,0.1634339334,0.3917271867,0.043521178,0.0042674646,0.5177641074,0.5243298537,0.1424370026,0.0611097228,0.7101716703,0.4057628716,0.5481330162,0.1106300653,0.1074738913,0.5499364106,0.0759059021,0.3640660931,0.3176308711,0.151855133,0.0960259761,0.4225683494,0.1598612055,0.2825835365,-0.5760390561,0.3220960266,0.7133509217,0.1276171797,0.5821606354,0.19483497,0.6046560128,0.1282602379,0.5869893284,0.0547970193,0.308816544,0.3145987325,0.7039463285,0.2313334316,0.2296053536,0.1570876749,0.4146620539,0.6997605251,0.4834611437,0.649768692,0.5080687663,0.3699101241,0.3345033117,0.0202169683,0.127070019,0.2041971976,0.2961760332,0.6982733765,0.6084905039,0.2325199371,0.250480609,0.2949972443,0.0770294388,0.2643424339,0.3832539005,0.2192556221,0.1272371278,0.1077892915,0.59068818,0.6438522235,0.6575950486,0.2072568959,0.5116635963,0.692479175,0.1061498639,0.4738981679,0.0604196161,0.5092379647,0.5762605624,0.2100202371,0.638582809,0.1663785,0.6243162872,0.1322318784,0.0239647426,0.3650017525,0.4010834862,0.6229070021,0.154249853,0.2245515473,0.5642798221,0.4888747326,0.5993880945,0.6859320365,0.2835590353,0.184948675,0.0672697378,0.5648853892,0.0485982132,0.5710703688,0.2244069026,0.357508936,0.3373864664,0.3927233449,0.4607302817,0.5281188512,0.6458004758,0.5951418068,0.4407336921,0.5442573694,0.6444325307,0.6118593535,0.08936006,0.5686724247,0.3135764848,0.4428784084,0.7046654776,0.6503212825,0.1914596585,0.2077461186,0.1789162736,0.1535579474,0.1120597128,0.2584901777,0.3724190837,0.0267304288,0.3731362917,0.2384228967,0.2133521284,0.7074960938,0.1699514137,0.3752816572,0.1123342269,0.1570094358,0.3607342729,0.2488360503,0.1833323097,0.6978640155,0.2681070844,0.240961622,0.2226976372,0.2975162907,0.4207486068,0.1567419094,0.1089869178,0.5145499687,0.0613135913,0.6868029507,0.4225526074,0.0934344261,0.4177488015,0.4542031846,0.0989430224,0.3646662067,0.1453193885,0.5529521155,0.5283061805,0.4723513388,0.1541529385,0.1223107177,0.3628241541,0.5463392929,0.1633368823,0.682923911,0.2414339339,0.2662076928,0.5238429555,0.7098756726,0.6381130369,0.1432111448,0.6216047879,0.264672217,0.6929018138,0.2132911349,0.3200057367,0.0954743561,0.1082356228,0.2070603787,0.5905784942,0.0638606044,0.1401543436,0.2902946055,0.0149679745,0.4416230363,0.4197714222,0.0900120431,0.3013412117,0.067737731,0.5518338307,0.1653538938,0.0042703977,0.0995729559,0.4686431127,0.5858484496,0.4721845449,0.1961378133,0.5495010899,0.0129753614,0.4359104715,0.6939651745,0.5485091914,0.4092556101,0.3340050474,0.1958295457,0.2838622772,0.5918150534,0.6852053872,0.7073006803,0.4237180392,0.1072636944,0.4627452436,0.2877293774,0.6970667503,0.0935750079,0.0394890177,0.5762274559,0.3274150256,0.1219369083,0.3154475249,0.4993091789,0.0289656674,0.7054674267,0.1377587205,0.5740218894,0.4402495711,0.3508537066,0.5990047537,0.0127648098,0.2401039595,0.4107907944,0.2173227733,0.3388528304,0.0623126538,0.450745741,0.1898344751,0.4460061558,0.642714181,0.2049880573,0.4281842738,0.5266344222,0.4156674467,0.0975979355,0.1189931763,0.0996459724,0.1004038629,0.5640312962,0.5745649303,0.5949483187,0.1855446923,0.1096798683,0.6796320936,0.6615999044,0.2383311741,0.2851262543,0.6946316819,0.6778442383,0.3916315464,0.38499166,0.1718503745,0.6642839584,0.4715334304,0.438994676,0.378238401,0.3744982542,0.0767914641,0.6530947643,0.6816343293,0.2933331386,0.1212020951,0.215257967,0.5616486678,0.2017674519,0.5643176971,0.2333521178,0.3051075883,0.0514617359,0.5714378444,0.1873374213,0.0484647963,0.4180749485,0.0471961417,0.5118877444,0.6676812434,0.1207966775,0.5665248416,0.4139501481,0.1042440249,0.5005612271,0.5046481762,0.7128569738,0.1080728547,0.4633311509,0.0307415531,0.1661264717,0.5253350204,0.7135733402,0.59514394,0.2569676728,0.2655833901,0.0885878595,0.0504768119,0.1894416275,0.6842589855,0.6426541642,0.6743382012,0.3410040946,0.0204230427,0.2039194612,0.3365287591,0.068623104,0.6947213604,0.5253084976,0.1569553565,0.485014264,0.3787554067,0.1862695131,0.5730306756,0.4666537646,0.0649022727,0.6726738763,0.3223544282,0.4208108768,0.3541304078,0.5101545981,0.6209576439,0.3264454116,0.5797130841,0.564272564,0.5178176168,0.6413457386,0.1315428916,0.4376984484,-0.1350901308,0.6862221403,0.4773243131,0.0218603358,0.6814027004,0.3660374163,0.6576226348,0.6738902872,0.344707472,0.6215442512,0.0355214881,0.2153121628,0.0629102963,0.1333166338,0.6124462602,0.3910958796,0.2304312058,0.1187939177,0.6608053542,0.3256455077,0.7009879001,0.1386335123,0.6977009085,0.1874276307,0.3112296395,0.416252921,0.5018141452,0.6858069468,0.0576373939,0.2366177598,0.0227754802,0.5890638846,0.4984825962,0.6237450637,0.0373433992,0.399810052,0.2199799023,0.5770931075,0.0891720095,0.3582957384,0.7091513182,0.3365202894,0.267619689,0.1415227054,0.1863193463,0.4164840882,0.3808828795,0.647720494,0.7064539217,0.0962844621,0.053274193,0.2008491349,0.5076791907,0.3896590865,0.0729066803,0.0603297368,0.1090924725,0.5275287369,0.2432901818,0.3388539538,0.2069780617,0.4660847447,0.1871347485,0.6101659525,0.3037825868,0.5167349764,0.6420213731,0.5135459582,0.2598149173,0.5484879367,0.0507458587,0.7115416813,0.5611255333,0.2178667095,0.664218674,0.6997350579,0.033621576,0.4440454404,0.512648154,0.2531495237,0.6094214196,0.3388794794,0.4414355035,0.4741605521,0.4504951095,0.6534988721,0.050338948,0.4803827678,0.2473562961,0.2347517034,0.2384361611,0.5388763882,0.1169358751,0.249626257,0.5134360138,0.3085141989,0.6532070528,0.2824129613,0.2730881283,0.6262136265,0.1073726902,0.3000273946,0.4538993893,0.141937728,0.2405343087,0.2354747123,0.5353159897,0.1649616041,0.372207924,0.3229933441,0.0625269411,0.2521205776,0.2014490519,0.7083091822,0.0187800682,0.5649599677,0.4139186065,0.4753938651,0.1167412303,0.5848513905,0.0196240478,0.4691459522,0.0947049791,0.6089363122,0.5453813081,0.6623523536,0.6024471746,0.6385172341,0.0894744465,0.6827318156,0.3680284997,0.3520632045,0.3893104695,0.4722449872,0.483134453,0.018227585,0.0470814186,0.2003233081,0.0085281417,0.5688243223,0.4123093455,0.4938131694,0.3454065452,0.0276578356,0.5638377354,0.2488470228,0.5719232853,0.6199939652,0.400822539,0.1132799456,0.1975915045,-0.7108310491,0.3160462106,0.5565465142,0.5520272068,0.6550161528,0.277215482,0.2147756416,0.3229030489,0.1939553597,0.0744154928,0.3538862812,0.0472585334,0.6271583435,0.4121262365,0.0030770918,0.4490507665,0.5704872114,0.4701411458,0.638233318,0.3220402985,0.2623057659,0.6735542541,0.0011212032,0.709254479,0.2278517121,0.1050302427,0.5554512626,0.1634964605,0.5031786331,0.5342062943,0.0798976991,0.1038574181,0.5488059555,0.709836665,0.5782635041,0.1485269249,0.4742792875,0.0197355877,0.6437496109,0.3939332675,0.2641474304,0.0890479132,0.6860807362,0.1923896923,0.1711852295,0.4367293369,0.5914601444,0.5838992029,0.606990708,0.3083224066,0.1361026429,0.0658111285,0.0585481484,0.2119663513,0.3986125732,0.6080654422,0.2805173778,0.484174754,0.6486828219,0.3149404178,0.0925659659,0.6636555775,0.2411519615,0.6078648572,0.670928608,0.5420471598,0.5826440466,0.5125686073,0.5669128375,0.3846700846,0.2527814323,0.3703761293,0.309426514,0.4850442643,0.7075258717,0.4383482155,0.6138299849,0.2515810967,0.6233593747,0.0396615251,0.6590254366,0.5401753932,0.6177613253,0.4518673751,0.1134255651,0.248701624,0.1003161777,0.4409462914,0.0852118051,0.295474719,0.5850175904,0.405918366,0.1973077482,0.4552876934,0.0258439923,0.0849659454,0.547593112,0.6953171562,0.0698871335,0.4077441932,0.396707176,0.4918179283,0.4520079093,0.1289679426,0.4684058985,0.1758730872,0.0022624933,0.5215730774,0.6613578889,0.6413508009,0.4323866603,0.3660543188,0.6324229174,0.5727348656,0.5405312692,0.4821404428,0.6534375874,0.6860869951,0.434733291,0.2775257033,0.451179093,0.1109485763,0.549268676,0.0112097775,0.5399322838,0.2115639295,0.3932389831,0.4553127541,0.6567610885,0.1136501595,0.2173391516,0.249747523,0.0888457712,0.3635752656,0.3744335585,0.566980656,0.3204181977,0.0014268741,0.1527152452,0.4882828254,0.4754434401,0.6466848148,0.1684995368,0.3043945605,0.2873453261,0.2993745011,0.1380470918,0.2916382875,0.4427223918,0.180666277,0.6335813746,-0.3695518016,0.2660298613,0.5423054177,0.3583196325,0.3642699557,0.4475274885,0.2151695059,0.2696215722,0.4463896838,0.2057406422,0.1665982277,0.2497861583,0.0612323989,0.5688391852,0.0199033272,0.7141753611,0.0151642806,0.5441753526,0.0498615128,0.2913751571,0.4493235214,0.1264073894,0.0809493409,0.3104263004,0.4308100699,0.010924932,0.6162516963,0.5296218458,0.394433053,0.7023881157,0.4328727606,0.0490957693,0.4433316463,0.5873655891,0.6251097099,0.0276402221,0.3387655512,0.554579983,0.0354637616,0.3658468785,0.3353363792,0.3587580919,0.3866503832,0.1114351712,0.1006935737,0.2476492237,0.542802468,0.1144895713,0.6274042237,0.0783309765,0.3287273959,0.3350322122,0.6417144772,0.2340042958,0.2104911632,0.5884490662,0.3811695449,0.612601799,0.6066783964,0.153367173,0.3121495264,0.0744187453,0.1947555705,0.5959782421,0.0146412005,0.1821873013,0.3935116974,0.284764674,0.3771258271,0.3226026066,0.1496172892,0.6316065162,0.4601671078,0.5886940262,0.5823143379,0.313707663,0.0923628622,0.7153027693,0.4043587156,0.5575231605,0.5861390408,0.5787248581,0.1250364792,0.3970792025,0.0901465507,0.6711535553,0.4269737334,0.2041483447,0.7094574762,0.5485103274,0.4352273189,0.5777640562,0.1835668303,0.5213460358,0.2595386233,0.6560704148,0.3808264418,0.0733416115,0.6361595038,0.5604769492,0.1214348231,0.0293299817,0.4628438939,0.0420426296,0.366934245,0.3667032513,0.5612260219,0.6149283073,0.3815802986,0.131736064,0.4417279549,0.5324801376,0.5259411576,0.5299706843,0.2593625901,0.3086197286,0.6792536535,0.0004911889,0.3416218793,0.7132952007,0.4394469885,0.0590945473,0.5698368636,0.5092152857,0.109365558,0.3377353826,0.0652969719,0.1282999835,0.5990623164,0.4597554148,0.0711898679,0.5928097212,0.2415923155,0.2397556912,0.1664853981,0.6824372765,0.0779481544,0.587618618,0.6988101225,0.1181268289,0.7153836705,0.5368212821,0.5466409317,0.3129477328,0.7098039692,0.6551079765,0.6106234899,0.3990346777,0.5592918123,0.3950898986,0.5489445715,0.655066744,0.5543679576,0.5807166521,0.4154693611,0.276954593,0.6436211717,0.3773508737,0.3292938915,0.6985149946,0.0695939476,0.5997211494,0.6972328797,0.0342365704,0.0231132735,0.6960682519,0.1785277281,0.263980778,0.0740291641,0.451247852,0.0169745568,0.6412038123,0.2984380436,0.5389472006,0.132930097,0.5096258024,0.2223455814,0.3443617115,0.4070210913,0.5649799484,0.5003533961,0.5972479073,0.1328154734,0.2536372671,0.5000694156,0.0698076875,0.4175915361,0.031882899,0.2674243679,0.7126284234,0.2792310643,0.1971554105,0.3602665709,0.6938359099,0.217580505,0.0084302743,0.5145578401,0.2711039615,0.7034138673,0.6185438679,0.6207520904,0.5365962177,0.1598786206,0.3464409888,0.1197339798,0.0327645498,0.6422695652,0.2900188534,0.0157741913,0.3857549036,0.3512574573,0.3143076804,0.7029712775,0.4062888068,0.4747903771,0.5088590733,0.5261601193,0.0396306769,0.3365558342,0.2953988705,0.080290426,0.3818785513,0.6701016698,0.1905199243,0.517891632,0.2881267368,0.5635205021,0.6640704213,0.450909828,0.0366658989,0.7044498949,0.2787568036,0.4280422731,0.4982608388,0.3183078691,0.610742344,0.1496258221,0.1442802005,0.3859433737,0.7080245284,0.670364467,0.1312009405,0.371838908,0.5290779519,0.351526515,0.0697462707,0.2091439993,0.0260150584,0.554836294,0.0763208284,0.6870344836,0.0583696466,0.4601225651,0.5940467147,0.0791873096,0.0443494638,0.0836215235,0.3128359569,0.4242371281,0.0658311051,0.3052716987,0.3882922233,0.0710111717,0.0608015958,0.0525011973,0.2461031539,0.5289551252,0.218806067,0.0747424289,0.3072801559,0.3555739103,0.5795985581,0.0372703812,0.5972656943,0.5734837513,0.49503812,0.5564074083,0.1714273657,0.3529350999,0.1464872003,0.2701784381,0.3159730306,0.2120152781,0.1250501573,0.3950646889,0.5125433592,0.2636930853,0.6502167988,0.4263950764,0.1159058204,0.3846151459,0.3192702358,0.2317720867,0.660657773,0.5272665596,0.4731831329,0.4437626105,0.1532072277,0.5606924533,0.1967710933,0.3478016052,0.3726099088,-0.5973811772,0.0355194706,0.3847882066,0.30678535,0.250978084,0.5018985287,0.0910663174,0.2067907256,0.6427496644,0.0899937552,0.4978190701,0.4017680646,0.5651744489,0.7049133983,0.616097165,0.3170833925,0.0935227622,0.1760411373,0.3074936189,0.3889558714,0.0814625944,0.0186906004,0.2347493552,0.4055133375,0.6376159327,0.4715684193,0.5405074238,0.1146326524,0.3586064569,0.5462143571,0.443723546,0.181775396,0.3018074323,0.6053492503,0.2629160922,0.3851137871,0.4485323433,0.6547116429,0.575652225,0.0751991323,0.340220277,0.6035297525,0.4869829345,0.645908146,0.3514590375,0.4590389172,0.4216150626,0.2519132067,0.2939165604,0.239002285,0.258974133,0.3572525735,0.4286024741,0.0945438115,0.0343374448,0.7019119806,0.330001292,0.0329802747,0.3532599486,0.1473576478,0.3890150914,0.5003295056,0.2628486416,0.2163728252,0.3308207707,0.5417827576,0.1979338049,0.0318368398,0.3576267579,0.525591741,0.108069739,0.6875202749,0.2910445021,0.4586768723,0.3819633058,0.0653582599,0.104699045,0.5315445584,0.4932864224,0.231233564,0.2162005247,0.3684599036,0.4545588055,0.4838818953,0.0801604454,0.2270536515,0.1079647837,0.4066228987,0.2731621271,0.6696568878,0.1359855896,0.0518556814,0.1686891267,0.1999315017,0.5447419504,0.3716421705,0.5351035495,0.517628754,0.1142070903,0.2796419687,0.4672510017,0.0500047034,0.3101353238,0.5104340987,0.2317754811,0.3770285301,0.1837417012,0.1553012909,0.3049533,0.6266905964,0.3263067748,0.5793962659,0.2820514828,0.5643352844,0.6475995605,0.0928208424,0.6044839124,0.2397825238,0.6623085874,0.492692535,0.1312797319,0.294620767,0.6768913859,0.2357495049,0.5304700407,0.2011425451,0.529369032,0.4662660858,0.5175681307,0.5470460894,0.3339231287,0.6012701603,0.6736635471,0.3266419885,0.3782660198,0.6777395957,0.6815836439,0.412147142,0.6607191006,0.5642949847,0.0742072168,0.254189325,0.4649560555,0.4285096064,0.3586679572,0.4838087057,0.5049327089,0.3984352752,0.6776148058,0.5015563417,0.0885448056,-0.4572800832,0.4306109788,0.5240388949,0.2833280389,0.5993315149,0.5482543653,0.6747602182,0.1986196979,0.0056412621,0.5755789273,0.6943255755,0.5107978918,0.084139603,0.0520910836,0.6477670453,0.5036625066,0.6601315036,0.1305971253,0.3260707822,0.4140499376,0.55630511,0.0689400237,0.4614585464,0.6093729839,0.3811650895,0.1552206758,0.3354981203,0.2170676788,0.6282081457,0.1793479226,0.4244490174,0.2055975678,0.0303003152,0.4211261755,0.5518717679,0.1138800765,0.0574380549,0.7044563444,0.3251046992,0.4925215379,0.4392629145,0.2992448346,0.263092727,0.3856196146,0.3796205327,0.4091834868,0.4392287568,0.7055808603,0.1434205517,0.451905996,0.6559654635,0.6414436438,0.4671762943,0.2039382674,0.109120616
   0.1382617295,0.0974909168,0.4720831998,0.2960799396,0.4441220555,0.559531804,0.0350728599,0.0916067466,0.4935648638,0.6160947782,0.0512130537,0.1398243165,0.242429782,0.256250049,0.3571648648,0.1453145537,0.3311423932,0.1084361275,0.3704866382,0.6826185,0.1984163581,0.4246148233,0.5312384114,0.1380114149,0.5166241284,0.4960844966,0.5518847731,0.0997631344,0.0411995931,0.3192513468,0.6828558742,0.215566117,0.5283088344,0.0925698748,0.0649418953,0.5630647374,0.1391960953,0.0450405994,0.1181016314,0.2938644376,0.4568387283,0.3122215943,0.0011790806,0.4397283204,0.0855266527,0.3621129978,0.6086355106,0.3982312179,0.0308157261,0.1933046758,0.3042818794,0.4819078791,0.1034259911,0.583913359,0.0559156096,0.4765393144,0.1896931699,0.3831253424,0.0640221086,0.262393459,0.6757284693,0.1955528,0.6215201294,0.4820080983,0.2145329089,0.4127405839,0.5966163588,0.5310709595,0.6852035331,0.203589987,0.6813336018,0.488579616,0.5258581937,0.0315492844,0.4206608357,0.3261636893,0.5593980806,0.5096863269,0.5315875989,0.3379795696,0.2482519479,0.5727759209,0.3151007555,0.2788744272,0.6601998777,0.6709536469,0.6282685775,0.7050475318,0.5873723222,0.1875544147,0.5748555576,0.6432500466,0.5350166733,0.5552376392,0.211318491,0.4152155668,-0.5553431533,0.5021141277,0.025994518,0.2397281799,0.568294203,0.6757393537,0.1330828473,0.3129401541,0.599927004,0.4525753476,0.2300515103,0.4629600874,0.4418530161,0.6074864805,0.042273483,0.4969107773,0.3932671722,0.6583688028,0.5314381697,0.0474423415,0.2368786009,0.0364722433,0.5213160415,0.2509505477,0.431218134,0.192091356,0.2415563513,0.5932815037,0.5974368296,0.3723934322,0.1663541334,0.3201496598,0.1874839025,0.4219833322,0.5572881205,0.2974679993,0.2683058478,0.2462694178,0.3980938911,0.1574103171,0.6893690451,0.6240673734,0.3492024679,0.4939286822,0.2229384568,0.2687716276,0.3740405755,0.1206338023,0.3952194603,0.0252834326,0.1098795999,0.0885846927,0.5172454438,0.1269583475,0.4867553898,0.2629907261,0.6690069209,0.0045134169,0.2445093831,0.3176025941,0.0687392022,0.6681295576,0.5508179603,0.0776693537,0.22771296,0.6898072492,0.5232671802,0.3104018304,0.4221746352,0.2564772247,0.5443782392,0.6439210741,0.1711776262,0.2131571705,0.0103447053,0.1637730981,0.6367951642,0.587877054,0.0849807429,0.4367517517,0.5622133623,0.2971829611,0.2746938083,0.4288619927,0.4531675095,0.4794302745,0.27540188,0.2750442762,0.6102181031,0.3970639032,0.075715719,0.6604090704,0.357151088,0.4267997859,0.182924806,0.1616120835,0.6320554709,0.5957407743,0.0024078583,0.6558735179,0.4226158011,0.6433693191,0.3808593704,0.4071776929,0.1229026272,0.0131223129,0.4818767145,0.7135147987,0.5796677537,0.1184531605,0.1483012498,0.0861997048,0.0562266692,0.0771796005,0.1395657169,0.5765746131,0.4624902067,0.6831834981,0.4618185372,0.6299107568,0.3123797716,0.063556998,0.5824909354,0.4389660711,0.2388109872,0.0801307575,0.0953559507,0.5050928383,0.6879867397,0.5076207413,0.30528213,0.6168370216,0.2208612416,0.1665792121,0.3260995816,0.6163279227,0.2261308509,0.4341409105,0.6372511119,0.2771101453,0.369412669,0.4150309388,0.710016131,0.1737952031,0.6990055237,0.5288999611,0.3343574768,0.0365704141,0.2281569615,0.6552438381,0.1761352377,-0.0080988288,0.5923963529,0.587790797,0.5247719128,0.6634741014,0.6199758878,0.4953080807,0.5834436858,0.2834437872,0.3508502071,0.7090144234,0.0897193597,0.1750466227,0.6783467966,0.6316426987,0.6407565466,0.5906194612,0.5578788873,0.106381457,0.4984202172,0.0038337465,0.6103355457,0.446829956,0.3236826299,0.3440664862,0.4702735278,0.1436630623,0.2465715191,0.7022084249,0.4906443913,0.2971057524,0.4884848549,0.3385336021,0.5540321573,0.2627579647,0.1402580713,0.6422403073,0.2736555774,0.0743275043,0.6720042974,0.4641389658,0.3943847018,0.4707256639,0.0501895992,0.4665357448,0.4349718144,0.4358942303,0.4827233455,0.5239821351,0.1058581304,0.0088367332,0.0385627974,0.4827217268,0.4025359455,0.6624827461,0.5797607364,0.178790648,0.6942589817,0.1670581079,0.7071908751,0.5936312282,0.0754743799,0.2000883843,0.1784108275,0.017219022,0.3182085094,0.5201758906,0.3391428953,0.1071888977,0.3306621793,0.5018080759,0.3033541038,0.017974461,0.0758638292,0.2995936388,0.6663819554,0.0045128203,0.6587112409,0.5127093472,0.0387868783,0.1892263593,0.4001508372,0.5148168889,0.1569483097,0.0793375547,0.2974640939,0.5455425875,0.2726891943,0.0896123282,0.1283571149,0.6954604275,0.3664863146,0.6612354741,0.1517800955,0.3471779491,0.6266990654,0.4493495979,0.6782665494,0.6548633364,0.647067922,0.583816146,0.3345364321,0.483127032,0.2976297784,0.184315328,0.3677289649,0.3977106688,0.4969099847,0.2687663094,0.4027284103,0.0478930938,0.3152446772,0.1694874804,0.4183983837,0.0933785722,0.3431660591,0.144362723,0.3693659607,0.2870354319,0.0441632674,0.4505775685,0.4942795891,0.0238238668,0.0065183642,0.1774033842,0.1586351589,0.0722324743,0.2414292212,0.010943126,0.6852814614,0.3469615995,0.0551169276,0.6520870544,0.7046836215,0.1360050077,0.3568968753,0.2960834397,0.4720929974,0.1620276987,0.5849203839,0.6184536061,0.3084738583,0.2047866364,0.5565973439,0.2152419385,0.6841940186,0.1664105115,0.0629731317,0.412157952,0.5107248529,0.7048783923,-0.6546692637,0.707258165,0.4586176693,0.5935406491,0.3730711434,0.0387643576,0.5797196135,0.3004328843,0.4625621075,0.6701348688,0.391923947,0.1888336166,0.4678919695,0.1667800246,0.6489379088,0.4256934697,0.1867223982,0.214217864,0.6132270772,0.0604416272,0.2486071521,0.5235455091,0.0845532829,0.6820847055,0.0101182996,0.7002190231,0.0339072522,0.6207945126,0.3244999328,0.6925557195,0.3634670665,0.599186174,0.688030149,0.028264795,0.5661369827,0.6792818503,0.6943905664,0.6973769902,0.261154949,0.3029946311,0.5228109516,0.259845702,0.0038231331,0.1927342417,0.5268057639,0.4468983013,0.0425409069,0.2092145878,0.3384689541,0.592009815,0.081466137,0.1864346048,0.4916721177,0.4183521702,0.084759897,0.4518106111,0.5355914114,0.0503681925,0.0963440979,0.1462946894,0.1437276789,0.7027574649,0.6562912308,0.353402207,0.3569554894,0.0558084475,0.1736197601,0.092193009,0.1689960929,0.1971179872,0.1564948467,0.32354598,0.645341472,0.3528659909,0.3561960581,0.2640838604,0.7158939799,0.3303207993,0.0302259144,0.5821776403,0.2468465456,0.1013096704,0.6231272752,0.0482998255,0.1235557754,0.2306459216,0.1972343295,0.5032211704,0.4649482713,0.3368054128,0.2597462094,0.3939701415,0.3260573333,0.5868970624,0.2099569455,0.5191248382,0.7089736203,0.1391461721,0.0141074618,0.7147530379,0.5220087105,0.512589098,0.0661708649,0.0614190535,0.5639910777,0.5300337402,0.3915354412,0.1732719437,0.0196682357,0.1343716858,0.4503645816,0.3299600785,0.2363382182,0.6251597155,0.1346416667,0.5713814099,0.669918597,0.0988301941,0.0751328611,0.5877374544,0.4837207974,0.6804392199,0.1686333457,0.6472192957,0.0479278822,0.344171825,0.6999898078,0.3202802675,0.0950373538,0.1331580928,0.2075704426,0.526878438,0.0857374621,0.2283099129,0.164741309,0.2473949577,0.2224652189,0.3744118126,0.3031542518,0.4260707443,0.6292369714,0.6214732709,0.2610223889,0.3166233521,0.4517093511,0.5867347245,0.5419347406,0.5076651055,0.0894754376,0.4159385452,0.1353638613,0.579937343,0.4237886567,0.2069785847,0.6136704459,0.1322160764,0.1670705892,0.1976998595,0.2951654513,0.3637505987,0.4979755847,0.5210418146,0.0226958528,0.0915576548,0.3816197927,0.0007500261,0.3395780914,0.7039288609,0.0025751559,0.0947782572,0.091047469,0.0739918515,0.3219817022,0.4168973429,0.4608931188,0.0929490798,0.1011874977,0.0968448693,0.6727088898,0.4448843571,0.0297301889,0.3585128529,0.3412008455,0.1077247124,0.3595196248,0.6143572855,0.6769736744,0.668133363,0.1147528983,0.600531485,0.4133428568,0.3989901984,0.6014086857,0.5666122943,0.4222045802,0.573271686,0.1560438965,0.4772558595,0.4439307386,0.5491956487,0.6581615865,0.1794906378,0.3141469678,0.6175704834,0.3957623125,0.2330030503,0.3822185085,0.591629773,0.6824906522,0.4425455027,0.2807042445,0.5027199644,0.275514313,0.7018343345,0.6591540018,0.1647333437,0.2364857606,0.3770749983,0.0076548351,0.0179137006,0.5914721988,0.175458746,0.4960756636,0.3287077528,0.5574565591,0.4147228909,0.3519429792,0.0537870701,0.379341492,0.4815770546,0.350391719,0.14315791,0.6471468793,0.0824207528,0.5360349453,0.4565965057,0.1787909476,0.7124554092,0.096908458,0.0819506455,0.0404014683,0.7061631756,0.3489458698,0.7040970989,0.1068429748,0.19979753,0.0918872078,0.5895364336,0.5101446067,0.0045030765,0.1576593233,0.5134781416,0.477294854,0.004591655,0.1730803557,0.6633805564,0.4836511789,0.4063204169,0.1335024773,0.6345077137,0.1917214443,0.4069938237,0.4156651041,0.6752345231,0.173921482,0.3902249278,0.6341594053,0.3538556195,0.620314182,0.3962080619,0.4432511481,0.4521598732,0.1773258229,0.4682952944,0.2796331938,0.5560304255,0.0759335457,0.068735565,0.5994340671,0.0058072143,0.5669976523,0.2469958401,0.6472562791,0.3588328573,0.0269129977,0.1549189103,0.6444781421,0.6328932998,0.6858166597,0.4800959226,0.4207365906,0.2978438664,0.2114527959,0.1548269513,0.2235792849,0.145467454,0.6610084775,0.4802901995,0.2977569343,0.2987054485,0.6755148575,0.0278251257,-0.1476580585,0.6807143895,0.6977879857,0.1008762225,0.0022560073,0.0313720038,0.5261044542,0.0532585511,0.4202035937,0.594528436,0.1050538054,0.4486035166,0.6832311885,0.5158304804,0.4912232912,0.6077754195,0.3935805013,0.2393490096,0.3930242637,0.6220823952,0.7032766872,0.4982666942,0.6496772688,0.3002739216,0.3447054935,0.3537916544,0.6333772576,0.4176280509,0.4050498139,0.1630756245,0.3999973436,0.1898647678,0.036934735,0.5342257506,0.0596361834,0.1912913036,0.5327846131,0.2246086434,0.225858641,0.6459310615,0.5991337585,0.4983747942,0.3004540789,0.0725634294,0.0652050919,0.6054442973,0.0986147933,0.3438232988,0.5149772835,0.0707637671,0.4716315761,0.569256311,0.2101307406,0.2422669309,0.536721852,0.378472524,0.2713927278,0.6153909581,0.4865706202,0.2347494314,0.614606645,0.3991145027,0.2024004305,0.6115801948,0.4466181614,0.7129372532,0.6731687572,0.2399352269,0.594584078,0.0979633187,0.346365378,0.3791432113,0.4207630893,0.2553733015,0.5971579121,0.3149431273,0.5050908305,0.4112401502,0.6799049306,0.6230552126,0.6578653272,0.3544710346,0.338394418,0.6658651068,0.6361940926,0.1101226237,0.0849492807,0.3769430082,0.4699016072,0.0610527652,0.4229401547,0.7151904835,0.3501119019,0.3022635406,0.4814702512,0.2461970963,0.4063181248,0.1308640872,0.0429361578,0.0612954146,0.6704876898,0.0749842466,0.286545468,0.1601903597,0.0130612015,0.3248815118,0.1813226142,0.4282611689,0.7158835529,0.5486803604,0.4686565362,0.1351461942,0.4887576857,0.5749481335,0.3016844848,0.3746606562,0.5185488182,0.3961271184,0.4627515651,0.20917757,0.4343092378,0.4595046586,0.2411878787,0.2334148784,0.6654794567,0.6276916491,0.0470862849,0.3178922595,0.4567845851,0.6105370364,0.2835609875,0.0409562425,0.3353223992,0.4533607689,0.3079583398,0.7005021022,0.144149877,0.2792812065,0.0588326444,0.2297131407,0.2785661542,0.5631567363,0.4796556562,0.6098116569,0.1972568681,0.6465581224,0.5823272994,0.4140997089,0.6779400296,0.2122343271,0.1563433204,0.2297558785,0.4830790609,0.649468913,0.2573379529,0.2605018119,0.6800953096,0.4203392862,0.5748321277,0.3610068185,0.4272890262,0.2364464475,0.4255793726,0.5072793356,0.1268253105,0.5403753516,0.7149719885,0.5491321954,0.1380877659,0.0650580165,0.4345459987,0.1499232446,0.590545627,0.1562165005,0.5758297434,0.2977956902,0.3301931939,0.4417451427,0.4183742545,0.172251801,0.1903316139,0.1184594642,0.4604368446,0.3437826014,0.3685323958,0.1922933349,0.0560196443,0.5571947403,0.0988888601,0.283559857,0.5202889404,0.3812113692,0.5456597447,0.1099386587,0.3859948726,0.1246095125,0.4669936798,0.0153384359,0.5717831753,0.6364546176,0.0069207293,0.1128283669,0.4448916047,0.1764645252,0.010773962,0.3698424994,0.0284960629,0.2383099209,0.4006784769,0.2401440691,0.198788327,0.7121724962,0.3566372426,0.6377232199,0.3956359238,0.26416421,0.447460215,0.5756193537,0.6333156323,0.1800969738,0.3082534125,0.5833104154,0.1055092897,0.3978418946,0.5007812601,0.5750144204,0.5186730057,0.4022232536,0.2305667258,0.0222955359,0.4025009062,0.3270079998,0.4136628532,0.3413180434,0.06980726,0.3834909511,0.4212522594,0.3937109346,0.4540851725,0.56238831,0.1278543121,0.6477947065,0.133585405,0.5330745686,0.5465970692,0.44147932,0.0294515517,0.0134558761,0.4741616272,0.6153868237,0.7124284163,0.2358276449,0.2341703761,0.0250061892,0.329364977,0.3479403981,0.1859576889,0.5219204786,0.1246128821,0.6370139241,0.0487851641,0.1796383623,0.3187622467,0.073585441,0.6664486643,0.6236647634,0.4262692483,0.5395492762,0.405804661,0.1038740762,0.0117054418,0.1745729422,0.3345302872,0.4090370809,0.0765977517,0.2804638344,0.067229548,0.5368584372,0.2942469797,0.6680204925,0.7091435968,0.2229138906,0.4294766881,0.6021550449,0.6163952426,0.6478442703,0.3764989131,0.1642104145,0.4513079215,0.4636543339,0.311839382,0.4983801649,0.1218008134,0.6089747622,0.1336752548,0.0003682252,0.2714319405,0.0456225813,0.2364919119,0.5706323307,0.3547715813,0.5428533691,-0.0592536931,0.203389341,0.0323367745,0.6519799104,0.5833645134,0.2348472257,0.1111030057,0.5448152447,0.5903625214,0.2020176355,0.3360456257,0.1371473075,0.6360131592,0.2159967988,0.2513375535,0.4863691822,0.1170534139,0.1704684411,0.0202688379,0.1472070743,0.5348008017,0.23034612,0.2179481271,0.3339057034,0.4274753368,0.5982691107,0.4907223089,0.1461706618,0.4078230964,0.405298894,0.1021349027,0.3623443845,0.0795200859,0.1918791521,0.2693394592,0.0154670155,0.4752026601,0.3565698306,0.0167050033,0.6371547962,0.3940184467,0.1083199154,0.1841775948,0.6921483115,0.3168364483,0.3754662545,0.237167172,0.264949076,0.2342562114,0.363961768,0.3784220108,0.1849961263,0.441801424,0.3612983772,0.0747754181,0.5263722927,0.0233878252,0.0267795505,0.0068171827,0.6470062769,0.0768873473,0.1545696489,0.0878632498,0.3962567262,0.1716192089,0.6749812453,0.3633544044,0.1584824244,0.5204054245,0.2882276178,0.0643980265,0.7033214104,0.0021380008,0.5640426597,0.0587752859,0.6292271343,0.3922440773,0.6178086317,0.5731852892,0.5295974521,0.0855315676,0.6015524864,0.4741429927,0.5306060844,0.275020774,0.0853058003,0.0139561555,0.4997789102,0.5249442952,0.1623597887,0.3223807842,0.1312159621,0.6860542352,0.6229821524,0.2054154233,0.04848116,0.135063951,0.5649509414,0.5357637364,0.4701310195,0.3423004786,0.2829701378,0.4431443235,0.5092156603,0.5296452788,0.1808878122,0.0492592062,0.0834093203,0.4042061278,0.373475901,0.1358587701,0.1363455812,0.0260478022,0.3319898447,0.1932330988,0.4302708356,0.6277040722,0.5273704303,0.2830433031,0.119942056,0.4168233877,0.1865785409,0.5408613044,0.4235967815,0.6950961263,0.3699021391,0.3931014827,0.2975405053,0.1379964091,0.5468350885,0.2121526981,0.6246379441,0.5551037283,0.2609591081,0.4741145541,0.0890623346,0.2507018866,0.1058827293,0.3211602196,0.6431594137,0.7034903764,0.5146706395,0.6755385903,0.4026395727,0.3153366976,0.4428089946,0.339213775,0.6698759413,0.7039432858,0.0515490057,0.1082485942,-0.6496473151,0.1256019558,0.2447408154,0.0515784978,0.1308422311,0.0844750725,0.6296492621,0.5363553688,0.0580103014,0.1736690065,0.0315622213,0.3006231156,0.1190759164,0.5918973467,0.6134676184,0.3679691056,0.1130335277,0.4213714079,0.3101688952,0.6672670106,0.6037526252,0.1490760371,0.5452790673,0.3258802636,0.2060245421,0.663869436,0.5979776283,0.5099128906,0.0939560014,0.6864989854,0.518315049,0.2070133186,0.4939774479,0.0403114093,0.4675642696,0.2988197824,0.1707312592,0.1910381186,0.2019343349,0.1328075835,0.4750626927,0.3076685859,0.5296885244,0.0727692916,0.261259837,0.1899638828,0.2731007774,0.0606850804,0.0679989815,0.5004655935,0.1687352122,0.5316293384,0.4685225617,0.1149195974,0.1479192736,0.1266624032,0.4112471833,0.2794271356,0.7128915161,0.2782043067,0.5216690605,0.3779583631,0.5347653848,0.4648234927,0.4832696969,0.5030121948,0.4849963911,0.3513772859,0.0877375809,0.2505773838,0.5613379603,0.1222663065,0.5399295236,0.0773903789,0.3581795124,0.4889579707,0.6511640217,0.0032194342,0.034217847,0.153122853,0.4628300442,0.1361811259,0.661484539,0.0423813489,0.347328825,0.059904854,0.6546860882,0.5084630108,0.5521461022,0.5151391484,0.454153549,0.5462622312,0.2007243565,0.3741518102,0.6735144811,0.075112175,0.5187517223,0.5940324783,0.4733932054,0.2113001776,0.2344480278,0.3020477543,0.2330707752,0.5939229879,0.3170381813,0.6466718783,0.1349351861,0.1237413688,0.2216911531,0.008406533,0.052052164,0.6175198381,0.0820408116,0.0525160035,0.0122735668,0.1980240477,0.2059558222,0.4739058599,0.054361313,0.6648886278,0.5615755799,0.0908920513,0.4652771002,0.5419111886,0.4575527947,0.0142732276,0.0242600802,0.126940921,0.111706862,0.2187537647,0.2485303317,0.6974871665,0.4811593931,0.0172662879,0.0316021874,0.1822627216,0.3527384579,0.6642906008,0.1207369275,0.6346451406,0.5914276643,0.1354076599,0.6425678925,0.1290527554,0.0724575897,0.2751745935,0.3457759069,0.3351176899,0.4022680178,0.306768598,0.0770432495,-0.0519784582,0.0484001323,0.4122753059,0.1608025628,0.6141319287,0.0672149462,0.0804109819,0.2849404636,0.6220246903,0.6605514497,0.2948993901,0.4617906625,0.0385908069,0.1379292173,0.4113263456,0.498165835,0.4911532015,0.544709063,0.4010085025,0.314668626,0.5898674647,0.1376095266,0.6033768113,0.4033803437,0.458447705,0.4904926492,0.1292395157,0.5019996551,0.0234191811,0.3331691051,0.0114610529,0.2477535627,0.4180128173,0.3176658632,0.4265371989,0.602295654,0.6179590354,0.2604888786,0.709804576,0.2233991549,0.1471053786,0.1745196593,0.0713106135,0.1444464653,0.0976879787,0.0170823849,0.504134917,0.270491414,0.5473267447,0.5797688762,0.2179935964,0.2927195641,0.5229394341,0.368040949,0.1282008509,0.3529457276,0.6244445377,0.4867381233,0.6374763008,0.6274413561,0.4301271251,0.2533604181,0.6496278648,0.0043858217,0.055533796,0.5219169658,0.7009309526,0.6552446151,0.1743505457,0.3027475141,0.1901121937,0.4537170856,0.5123026766,0.4574832206,0.6250748264,0.580343813,0.0111571155,0.5659573671,0.4033080816,0.6693587988,0.4763033988,0.3097140835,0.4255853978,0.2053444134,0.5402694893,0.2101915932,0.2137020914,0.1141900567,0.4389547696,0.11349768,0.427916365,0.6702166363,0.1810745908,0.2048125636,0.4460367906,0.431094281,0.1175618477,0.3371898414,0.498772281,0.2460452118,0.1153477835,0.0083696673,0.6671892842,0.5033447902,0.3326460537,0.3429280898,0.0358268613,0.6197731652,0.4523820105,0.2014819529,0.5776719755,0.1048096725,0.6071727266,0.5411833479,0.3859847072,0.1469112019,0.4548212119,0.249272452,0.3562610323,0.0844535745,0.3106307208,0.1390300975,0.0832867301,0.0940457573,0.2090558348,0.0369102007,0.0767598889,0.0079949083,0.4775393541,0.582763513,0.1629862598,0.0732547807,0.1090920277,0.0235488373,0.4518223096,0.2533298689,0.6703024159,0.582447596,0.381899387,0.1183942873,0.4207571905,0.0540326667,0.6001915582,0.1571333041,0.3416147567,0.0003623003,0.5709044573,0.1421399624,0.0894400407,0.4722872696,0.5374159222,0.03973773,0.5756810474,0.4293605454,0.3108746097,0.1840027797,0.5511643454,0.5237376428,0.5184864857,0.3235763983,0.250127942,0.0635790402,0.4107139504,0.5951551677,0.6918601157,0.6383054414,0.1776265693,0.5168100807,0.3259736938,0.146081271,0.2161742296,0.4430506732,0.4198943459,0.4087742244,0.2903254381,0.6652971932,0.6826704696,0.0446656797,0.6893124229,0.2382799131,0.3049374853,0.4540846864,0.375649465,0.336722448,0.1238782652,0.6027074427,0.0676024632,0.3508909797,0.4506888729,0.2078909809,0.5606303075,0.5986373422,0.5122531753,0.4085839174,0.0795398156,0.7143529288,0.4008354842,0.4273524546,0.2520381295,0.4444082129,0.2448767307,0.0412257174,0.482831228,0.311927316,0.2756167146,0.0650864557,0.6225395747,0.2330364864,0.6954044736,0.0107972744,0.4466050869,0.4342472953,0.6932602123,0.3002099673,0.189291438,0.6400967457,0.2429175616,0.6659230612,0.1125664229,0.0704431965,0.4203650598,0.5677033978,0.4666279202,0.6555386539,0.0758200407,0.0700254,0.6171382262,0.6820664794,0.0535884796,0.7037275972,0.4592628386,0.5035662017,0.0619555442,0.1905982646,0.0495289831,0.5859489082,0.1094129743,0.3946348813,0.4652514933,0.5581481875,0.4736888337,0.3607265275,0.2074802768,0.1630755625,0.5082483963,0.0371606133,0.6511256684,0.5471946373,0.4003657609,0.1529765869,0.1782190469,0.0057451745,0.4093155556,0.0493451028,0.4571934089,0.2381486415,0.6570738494,0.6893000923,0.2882513108,0.542097505,0.3369906371,0.0208140298,0.5261185083,0.4835528902,0.3420677594,0.7060851419,0.7026099742,0.0501309066,0.6136805249,0.5647779772,0.0317940621,0.3833937218,0.3335126655,0.3481402691,0.0761124473,0.286388727,0.5553135019,0.5531692832,0.3714667097,0.1511149017,0.354559505,0.1769335105,0.2494301386,0.6725590363,0.2779548929,0.5663326028,0.1974732294,0.6292764575,0.2866429979,0.0879092273,0.4841213884,0.5846114277,0.1510538609,0.5067650538,0.5358712724,0.6265747124,0.5403918818,0.4859398383,0.1127972669,0.3003532453,0.5098190772,0.3489271179,-0.0635037,0.1061672659,0.1588163049,0.4939772671,0.6624889199,0.0494215524,0.5361207479,0.1087903077,0.2657022452,0.3910665437,0.2965499056,0.2878625883,0.6149417918,0.5536176505,0.2075530791,0.3781054498,0.3020625609,0.4664309719,0.2353153955,0.3016327122,0.3591560584,0.1748452189,0.0677427816,0.0811325284,0.5484928534,0.0988534936,0.3719203766,0.3779539642,0.1100606643,0.0038269849,0.6221597521,0.4781396293,0.7103847707,0.6060642299,0.1990724187,0.4982856629,0.2790218307,0.6881303472,0.2867356801,0.5114049182,0.3433420665,0.422292604,0.121060064,0.4102399702,0.4602464575,0.4087866886,0.2237516542,0.3536111301,0.344840168,0.4093834588,0.3559013729,0.4570567134,0.4620920364,0.1541577638,0.6443015997,0.0433487843,0.6789823812,0.616292809,0.5478821535,0.3721161465,0.3149617946,0.2172373971,0.1296895458,0.3622791533,0.4570289896,0.231505087,0.1863395917,0.0704147217,0.0819588246,0.3567925137,0.1416410414,0.5867124978,0.387858816,0.2409682231,0.0995949754,0.1247486902,0.6031616408,0.4983032021,0.0980224338,0.5335805695,0.1270602319,0.6230321105,0.4080863136,0.4272672532,0.6073433257,0.0995512643,0.662750812,0.3520304042,0.351869293,0.4177223805,0.1253823237,0.3993772635,0.0328969342,0.0179624869,0.1666412871,0.6983621781,0.0216514156,0.2913718051,0.5121332809,0.3868883131,0.6864856374,0.603524509,0.6345257272,0.2554994156,0.5286740835,0.2795976218,0.0996602516,0.549920515,0.2072639577,0.6319336792,0.4175532266,0.1064475353,0.0452125299,0.5677435968,0.2372188924,0.1036508918,0.4042324998,0.3494094258,0.204125115,0.4327725818,0.1973508845,0.4339122387,0.0508587943,0.4687871728,0.0547200333,0.6519691233,0.0477070601,0.4306216262,0.2161894743,0.2750959719,0.4269205602,0.3069355013,0.0226560369,0.5683383946,0.7032891629,0.3100374434,0.4197731814,0.1395837574,0.2750271358,0.0061102953,0.4149046818,0.0624498443,0.6328764832,0.1780814138,0.5616613782,0.4786117881,0.6615284957,0.5335348428,0.1832949669,0.168099298,0.5494832608,-0.670737101,0.6192911139,0.354266406,0.2019861102,0.5412041412,0.4370769373,0.0523776412,0.6747880489,0.362292143,0.6995303723,0.1363834852,0.374574538,0.0695622311,0.6776983977,0.3123110705,0.4799044289,0.3880671943,0.4346079227,0.3579872777,0.4795602257,0.5338457578,0.377404639,0.278949149,0.0796717117,0.0827279268,0.1875892908,0.1181387254,0.1303814018,0.2895621927,0.4668984536,0.3273685064,0.3779439575,0.6257998461,0.0189112416,0.5757313511,0.1032815621,0.5174043143,0.6360154225,0.2928266381,0.0020367564,0.225412948,0.4824480198,0.619137191,0.04807623,0.5294765494,0.542107019,0.1709665261,0.1953419205,0.2954869462,0.3698634365,0.1096074479,0.357093973,0.4618935826,0.3727086661,0.2579297111,0.4306654299,0.3073884014,0.3003553534,0.1174403859,0.2587870798,0.5053947783,0.1546119917,0.0946166375,0.2990449042,0.1722311893,0.4368603182,0.2365159449,0.4231318705,0.2612471001,0.4339204917,0.0317350945,0.4452178331,0.3550169797,0.4428574911,0.4010503491,0.0674114645,0.2189411398,0.5208455186,0.4282116085,0.490155373,0.6409208596,0.4674500625,0.2611108873,0.6911822933,0.6192110295,0.4712253185,0.5447656847,0.4394916514,0.3083087837,0.3080062723,0.0402088039,0.1176668886,0.6216414317,0.3332062357,0.086837588,0.0840313182,0.3034707436,0.0117505144,0.1900351107,0.4063225222,0.2745811544,0.6942389392,0.6015771415,0.5517411424,0.2664727662,0.0948363476,0.68957257,0.3377013454,0.5263556409,0.2252184252,0.2258780755,0.2889135888,0.4903708536,0.1865422799,0.5861192426,0.067714459,0.0253616229,0.0313555264,0.2092098029,0.0188919436,0.5699330934,0.7067921428,0.0654694235,0.5443937023,0.2477547492,0.105986169,0.1580538826,0.6649940212,0.1512760418,0.5924837628,0.6852185257,0.4826907708,0.3549445566,0.2251700371,0.2680399566,0.3189249743,0.5369585823,0.5872685865,0.3163132066,0.655165125,0.6221184185,0.0600936759,0.2968922562,0.6516370402,0.1012375332,0.0555704873,0.6383817318,0.3944030785,0.0354327121,0.5166048787,0.4087635324,-0.4486018322,0.5342128567,0.6322493993,0.0271202436,0.3820467911,0.6564706376,0.6403721396,0.0660110124,0.5724473775,0.4059965258,0.1986613985,0.4219074417,0.6846653382,0.6971601606,0.0229722096,0.1016749659,0.0055273163,0.3855397146,0.517742991,0.6350568832,0.1540201907,0.6845279195,0.5746408074,0.4137995722,0.5406337131,0.1775089406,0.1030490534,0.1242678631,0.2711980969,0.6018595047,0.3650531087,0.2082504046,0.6277677492,0.6709471816,0.3524401244,0.0215542009,0.0483429002,0.667632514,0.1089645912,0.4907783576,0.6774846885,0.4386856056,0.5541372659,0.4159797316,0.2422601969,0.466649458,0.4203049026,0.5345159141,0.0626355312,0.4240311999,0.4908654615,0.2738059332,0.3518792329,0.6653599709,0.6703073896,0.1831118615,0.0106155778,0.220628583,0.4904703874,0.5447557201,0.3296297244,0.1439737082,0.2028453896,0.1178185575,0.0185931456,0.5680861353,0.1077968056,0.5240798506,0.4727422513,0.5695705777,0.4928590559,0.2162824911,0.0695357746,0.5519512791,0.3300493596,0.6182935722,0.48384251,0.2940272652,0.0127608425,0.3335922996,0.0276654449,0.3866910339,0.1048644898,0.1114080678,0.5936706538,0.4597470731,0.4770179898,0.6571209394,0.6382709406,0.4616386056,0.4056633743,0.291718767,0.1734409148,0.2901043129,0.3992768824,0.4657686409,0.3840890764,0.6094093505,0.2178181683,0.2959482175,0.6658527842,0.5439979973,0.2169942333,0.6145696208,0.6218416752,0.1583471721,0.007664941,0.1763170394,0.2461705138,0.7096243081,0.0201909528,0.0279634989,0.2610514565,0.5641702755,0.5180999429,0.0727169875,0.5822976229,0.6279366917,0.0887743336,0.2686169969,0.3265443421,0.7055781876,0.3822380451,0.6701866081,0.147956333,0.254932182,0.0221465064,0.4983497801,0.2738977842,0.302185314,0.0752217718,0.4625952358,0.6289843098,0.6911958914,0.2244129282,0.4036118504,0.6347000356,0.525262784,0.1813143536,0.1653715129
   0.1838116998,0.4205791777,0.5585563274,0.3820725044,0.6654290495,0.6633276424,0.5944790287,0.4372860325,0.5171851708,0.2275817956,0.5787208612,0.0624185397,0.4276826018,0.032287347,0.5767374478,0.0808093068,0.4193001812,0.4690597086,0.0672287219,0.1086058362,0.2243948534,0.6146152717,0.2615893479,0.1915883092,0.4279063752,0.6882085636,0.7016088409,0.5532938974,0.3431569588,0.4480031809,0.0750850882,0.5801302042,0.506415307,0.6916452327,0.1728810821,0.5986174388,0.3833086358,0.0776264975,0.2684646668,0.1268236527,0.5674850428,0.0535856887,0.6537162798,0.3871108724,0.4496428216,0.5414209729,0.4160123181,0.1777128304,0.5013181447,0.0149589529,0.6170959531,0.075720462,0.0313668999,0.5379287349,0.2377661665,0.4406804861,0.4270317658,0.4596662261,0.270976127,0.4756278263,0.5991815796,0.2273855083,0.4678928441,0.4131779574,0.3524907223,0.7123757116,0.6673905698,0.1835301142,0.5931663357,0.4493998671,0.1306749456,0.5491456741,0.3580069678,0.1248745639,0.3679429592,0.1497395679,0.4072716447,0.3426448718,0.3248091868,0.630060731,0.3472097649,0.4057451342,0.0104915339,0.1201221808,0.0190551702,0.4754299235,0.2981944263,0.0363004142,0.2499739052,0.3287997413,0.2723665172,0.0335885721,0.5199460039,0.5415681943,0.2076296411,0.0530682365,0.1777322097,0.0704394152,0.2284967048,0.4130531578,0.659000649,0.4319646002,0.594831162,0.2014627243,0.0295804944,0.6385402863,0.0911915451,0.2383419777,0.4969779744,0.0104208263,0.2888936521,0.5882337207,0.3821202644,0.4047557045,0.246503458,0.6963435775,0.4789918463,0.1968038571,0.3220427366,0.2869329254,0.3580867443,0.5227908098,0.2840454417,0.6320598166,0.4500695672,0.4749860659,0.4279293055,0.2650528995,0.3815168088,0.1719162843,0.3192150802,0.115828138,0.3473326008,0.0267101631,0.1003844456,0.0624138281,0.2933280661,0.4713863428,0.2678143063,0.6874088834,0.2665053698,0.500062443,0.3728265197,0.2588836507,0.3107567717,0.3562897932,0.1451955616,0.6432158341,0.1481763508,0.2746970396,0.0144911206,0.4882388552,0.1449959747,0.5388819448,0.6928604568,0.3015088458,0.358347071,0.3254011393,0.1960492526,0.5259872285,0.5825639088,0.0277755042,-0.6029599713,0.3149629002,0.3578600636,0.2223393624,0.7119852481,0.4150454776,0.5295671144,0.6413657836,0.1029716659,0.0563146111,0.07997866,0.4186404607,0.6985526007,0.5933255678,0.3518595573,0.0367628627,0.6501510198,0.3619128216,0.6476813266,0.2075783214,0.1830968811,0.246628823,0.1110967546,0.5720394355,0.6556012587,0.6430157396,0.5979986505,0.6264713767,0.2409844369,0.3108492799,0.3955735872,0.3976042288,0.6466679612,0.2535263628,0.1832103273,0.2600858295,0.2260766948,0.1170219347,0.0467146365,0.1860192085,0.4445320905,0.0001346888,0.4297989237,0.1233959322,0.5286895746,0.3267632111,0.3232639656,0.4046038174,0.5906682968,0.6061446882,0.2136104813,0.7052941528,0.0866179298,0.1135563996,0.2579129502,0.360164914,0.4550703889,0.7037293798,0.4470583543,0.0482694724,0.0338061059,0.4967129592,0.1796283267,0.4365999856,0.2770653864,0.4859951982,0.5494327375,0.156830685,0.5476937351,0.6202416088,0.489118071,0.33886443,0.2067599109,0.0524867382,0.1520612364,0.1469364582,0.0558006795,0.6549618329,0.3529449909,0.1214375621,0.5464070509,0.3088073447,0.6972244373,0.0951666178,0.3381364529,0.1143316614,0.1028906998,0.21168487,0.2850611782,0.4506069435,0.1935013715,0.3510102257,0.5486987344,0.1342328898,0.4079286215,0.199671754,0.0923782609,0.0725292181,0.3895349794,0.0615869609,0.6083178816,0.0875231533,0.2767381393,0.4616812631,0.0576674965,0.6575637335,0.6207195216,0.4787326469,0.2172738353,0.2792245279,0.5911585392,0.0926125583,0.029768378,0.3048396972,0.0633102164,0.0658062382,0.1672940469,0.4920507602,0.0697009607,0.6042552708,0.0367702525,0.3689420546,0.2185283183,0.5050531045,0.0643450906,0.2075371453,0.0320146209,0.5617189111,0.51812364,0.2937490072,0.0643806544,0.1966675931,0.4998641869,0.2901351487,0.5125107426,0.3713753321,0.6498564495,0.0247225474,0.4777566453,0.2079939904,0.5098215923,0.6192695883,0.1586433643,0.6203122929,0.3046774346,0.180269613,0.5553318178,0.6745345469,0.6041794769,0.0173984178,0.4004700939,0.6268396936,0.5011785406,0.6532097758,0.2468634425,0.1310915548,0.3239259519,0.0768015847,0.1784790341,0.0824675263,0.2863511851,0.064020896,0.3845570357,0.4803998562,0.3313159427,0.2204131766,0.2515924419,0.0711957174,0.2451976816,0.1080561137,0.3246503142,0.3303135725,0.2232759498,0.2558463104,0.1570996963,0.4046836868,0.5201933964,0.242128734,0.0988839368,0.5482577642,0.4240235688,0.4889882465,0.336400153,0.5593853953,0.3470876281,0.126039958,0.4677167786,0.6680169881,0.018567697,0.680708684,0.6672240583,0.2857831754,0.2921560153,0.1308448485,0.6214840068,0.0723958011,0.0769051423,0.0465367198,0.3692924732,0.2662069376,0.150419917,0.0920050286,0.3015017102,0.0823509841,0.6273940036,0.4653711089,0.1618945661,0.2005820391,0.0588968016,0.1513966893,0.3564276483,0.489200582,0.5147582731,0.1595566533,0.4168263031,0.5781366103,0.5105496584,0.0724759654,0.2601603122,0.3458543405,0.5282561025,0.5469030112,0.0778235656,0.5386649851,0.3961699276,0.5972923484,0.4753338757,0.2786368981,0.4479312734,0.3963700785,0.6279220868,0.6892385851,0.6629790512,0.5256374881,0.2312935888,0.1648423085,0.3597905782,0.2952676665,0.6728502904,0.3224080537,0.4094102512,0.3473200847,0.7030674934,0.3304621096,0.4799905339,0.3235014165,0.5049984589,0.1776072802,0.4846330188,0.3554453462,0.4952553432,0.3862217193,0.5378568473,0.1129913573,0.0032458044,0.3354972703,0.1647291803,0.5190047888,0.3477704773,0.4883602883,0.3546498411,0.0009124399,0.189167043,0.3069300753,0.428288301,0.2254210959,0.1186630853,0.0437860571,0.2939910371,0.0689599565,0.2605724971,0.1560852048,0.4936841731,0.0572173401,0.5973502319,0.0670644834,0.2890483915,0.3400186515,0.5313484221,0.7132080748,0.125746453,0.0347723304,0.3021801791,0.6224863544,0.1472321402,0.5070508475,0.5031982522,0.5882018384,0.3341587745,0.4360662292,0.3225073788,0.6084710119,0.4509883183,0.3277592822,0.3742322029,0.5224413178,0.6601586051,0.2289885632,0.1614440948,0.003462601,0.2535478188,0.6229740037,-0.6733641062
##end
biasActivation=0,1,1
[BASIC:ACTIVATION]
"org.encog.engine.network.activation.ActivationTANH"
"org.encog.engine.network.activation.ActivationTANH"
"org.encog.engine.network.activation.ActivationLinear"
