encog,BasicNetwork,java,3.4.0,1,1748898842360
[BASIC]
[BASIC:PARAMS]
[BASIC:NETWORK]
beginTraining=0
connectionLimit=0
contextTargetOffset=0,0,0,0
contextTargetSize=0,0,0,0
endTraining=3
hasContext=f
inputCount=600
layerCounts=1,26,51,601
layerFeedCounts=1,25,50,600
layerContextCount=0,0,0,0
layerIndex=0,1,27,78
output=0,0,0,0,0,0,0,0,0,0,0,0,0,0,0,0,0,0,0,0,0,0,0,0,0,0,1,0,0,0,0,0,0,0,0,0,0,0,0,0,0,0,0,0,0,0,0,0,0,0,0,0,0,0,0,0,0,0,0,0,0,0,0,0,0,0,0,0,0,0,0,0,0,0,0,0,0,1,0,0,0,0,0,0,0,0,0,0,0,0,0,0,0,0,0,0,0,0,0,0,0,0,0,0,0,0,0,0,0,0,0,0,0,0,0,0,0,0,0,0,0,0,0,0,0,0,0,0,0,0,0,0,0,0,0,0,0,0,0,0,0,0,0,0,0,0,0,0,0,0,0,0,0,0,0,0,0,0,0,0,0,0,0,0,0,0,0,0,0,0,0,0,0,0,0,0,0,0,0,0,0,0,0,0,0,0,0,0,0,0,0,0,0,0,0,0,0,0,0,0,0,0,0,0,0,0,0,0,0,0,0,0,0,0,0,0,0,0,0,0,0,0,0,0,0,0,0,0,0,0,0,0,0,0,0,0,0,0,0,0,0,0,0,0,0,0,0,0,0,0,0,0,0,0,0,0,0,0,0,0,0,0,0,0,0,0,0,0,0,0,0,0,0,0,0,0,0,0,0,0,0,0,0,0,0,0,0,0,0,0,0,0,0,0,0,0,0,0,0,0,0,0,0,0,0,0,0,0,0,0,0,0,0,0,0,0,0,0,0,0,0,0,0,0,0,0,0,0,0,0,0,0,0,0,0,0,0,0,0,0,0,0,0,0,0,0,0,0,0,0,0,0,0,0,0,0,0,0,0,0,0,0,0,0,0,0,0,0,0,0,0,0,0,0,0,0,0,0,0,0,0,0,0,0,0,0,0,0,0,0,0,0,0,0,0,0,0,0,0,0,0,0,0,0,0,0,0,0,0,0,0,0,0,0,0,0,0,0,0,0,0,0,0,0,0,0,0,0,0,0,0,0,0,0,0,0,0,0,0,0,0,0,0,0,0,0,0,0,0,0,0,0,0,0,0,0,0,0,0,0,0,0,0,0,0,0,0,0,0,0,0,0,0,0,0,0,0,0,0,0,0,0,0,0,0,0,0,0,0,0,0,0,0,0,0,0,0,0,0,0,0,0,0,0,0,0,0,0,0,0,0,0,0,0,0,0,0,0,0,0,0,0,0,0,0,0,0,0,0,0,0,0,0,0,0,0,0,0,0,0,0,0,0,0,0,0,0,0,0,0,0,0,0,0,0,0,0,0,0,0,0,0,0,0,0,0,0,0,0,0,0,0,0,0,0,0,0,0,0,0,0,0,0,0,0,0,0,0,0,0,0,0,0,0,0,0,0,0,0,0,0,0,0,0,0,0,0,0,0,0,0,0,0,0,0,0,0,0,0,0,0,0,0,0,0,0,0,0,0,0,0,0,0,0,0,0,0,0,0,0,0,0,0,0,0,0,0,0,0,0,0,0,0,0,0,0,0,0,0,0,0,0,0,0,0,0,0,0,0,0,0,0,0,0,0,0,0,0,1
outputCount=1
weightIndex=0,26,1301,31351
weights=##0
##double#31351
   -0.3015367767,-0.9812136681,0.8485619368,0.0327863856,0.4952494967,-0.412531253,0.9010372591,0.6103026228,-0.2912860408,0.0848614809,0.6183713068,0.1873451692,-0.9251334466,-0.228129891,0.3794020351,-0.4883406123,-0.877016621,0.5333034708,-0.7377280414,0.7485756996,-0.6871069635,0.6413916325,0.6901011624,0.328041141,0.3118094635,-0.7287118055,-0.7525598141,0.9702250339,-0.4167623593,-0.3129933761,-0.9764172102,-0.0774834897,0.641208576,0.9546091733,-0.2403279269,0.7802773945,-0.4893045115,0.6068948875,0.2648298752,-0.8292830567,-0.4715543735,0.3785997457,0.9101988182,0.0797509887,0.8926534419,0.0900824088,0.1531860457,-0.1462384958,-0.5770744189,-0.5734915821,0.1854953804,-0.8261319788,-0.8482973974,-0.0048104502,-0.7548293867,-0.6488960535,0.8434665278,-0.786070508,0.9646005484,-0.2711842221,-0.477907937,0.4214183913,0.0536490947,-0.1648027926,0.3740293555,0.0779075258,0.5567598277,-0.828349255,-0.5094061716,-0.1843685674,-0.0429717868,0.8727387185,0.789257246,-0.9644957202,-0.8734326275,0.5811576567,0.3243904993,0.0042266417,0.7895964199,0.6918847169,-0.5290420445,-0.684998021,0.2967381257,0.3183369944,0.1349454473,-0.5391065035,0.0103547728,0.5899172262,0.048108807,-0.3105563315,-0.9170383619,-0.0222679786,-0.6764815954,-0.3468165253,0.2811519955,-0.4335658535,0.6254059652,0.5186174559,0.8289378971,0.4839190402,0.0084274119,0.9863095637,0.9092795034,0.6406394991,-0.4627342031,0.693212857,-0.8888175699,-0.5412967121,-0.8691798138,-0.3520785547,-0.8842411062,0.7772641783,0.0029815509,-0.7491523892,-0.6303226985,-0.4114914603,0.9427702345,0.0565472833,-0.6688119554,-0.0675685768,0.8147113453,-0.7388695661,-0.0697265212,0.8589637521,0.3914984679,0.3930619275,0.1731929588,-0.516158466,-0.7737592621,-0.4091558803,0.0170779025,0.2696739539,0.1570769601,-0.2464271383,-0.276780424,-0.2434484043,-0.1220502743,-0.7987066171,-0.3890185166,-0.6140140378,-0.0495336165,-0.7823354314,-0.1445547847,0.3126624287,0.934018366,-0.3577996814,-0.8138862084,-0.5733579112,-0.9386101814,-0.1319404005,-0.1397411204,0.9174873348,0.6290640143,-0.6489307024,0.2647015626,0.763750331,0.6860950205,0.3550242763,0.2008515192,0.1070886774,0.4158128267,-0.2298388228,-0.5416927171,0.2929773211,-0.4978976633,-0.8430896004,-0.7836591648,0.7447846983,-0.763024873,-0.4250470426,0.9748963561,0.9340758203,0.1542265371,0.7829875019,-0.9803490895,-0.5713903666,0.9333565678,-0.9657689521,0.1017967231,0.8630558556,-0.1564231572,0.9844672687,-0.0304904108,-0.0649903703,-0.3478586391,0.633532754,0.9813493174,-0.2624032122,-0.5227437356,-0.1774755666,-0.7880217788,-0.5621134535,0.6153598061,0.8529471198,0.2927649175,0.7858059927,-0.9166775075,0.4231897865,-0.4952646706,0.4820640919,0.1160352948,-0.5030896884,-0.2438871113,-0.7817975129,0.7285828992,-0.2385124541,0.2343492549,0.5504264734,-0.9117099575,0.9242197925,0.4393389386,-0.0483300959,-0.7165764796,-0.9764951088,0.447433326,0.0838601334,-0.5186868032,-0.044616021,-0.1941757286,0.7892899007,0.8342793165,0.0514937081,-0.7654435773,-0.8910133386,0.0684041242,0.9896589827,0.5262601541,0.2223341209,0.4980813594,-0.3634605969,0.960580235,-0.8173235292,-0.7582791388,0.0721720261,0.2820023511,-0.5747745071,0.1661429287,0.6955864679,0.5131565703,0.3735127065,-0.7883595916,-0.211459835,0.5859902377,-0.7899511874,-0.2834483787,-0.1847553121,-0.9309799264,-0.4124925476,0.9507882447,0.2426983559,-0.3228313704,0.9120279064,0.5567877896,0.8673051194,0.5678669399,0.5057322192,0.9817861153,-0.6776267187,0.6779762766,0.110985726,-0.4089916164,0.0005715206,-0.0117952745,0.4301239214,-0.6317273275,0.4846504845,-0.3369661356,-0.5271970444,0.5368102525,-0.2552692959,0.4919773648,-0.1637865308,0.9186790002,-0.2633380092,-0.790120944,0.51760301,-0.9361928617,-0.0219813355,0.5140957094,-0.0064910859,-0.6624773485,0.6484426187,-0.4326334295,-0.0163282544,-0.0079506362,-0.19435092,0.2071784187,-0.4441794417,0.8709742229,0.2215221903,-0.8480148955,0.2726560443,-0.3400722196,-0.812294868,-0.1805217387,0.2449548141,0.8470134441,0.9960173698,0.7757998816,-0.2681295722,-0.436052318,0.6741398538,-0.5866855055,-0.1933996436,-0.0941113221,-0.7943992779,0.5666587173,0.699012456,0.190824226,0.0440461429,-0.766684134,-0.8721926319,0.6641619305,0.1545045703,0.1232324624,0.6864747638,-0.9880719987,-0.789224459,0.0540206392,-0.1703539335,0.237472138,0.416314218,0.0109170735,0.8968653803,0.4234979939,-0.942155782,-0.4711675146,0.3133629016,-0.6430794966,-0.6065508807,-0.9711374338,-0.1238754273,0.3425505449,0.6529315097,0.0840853046,-0.696059514,0.4117723609,0.4728315455,0.4746891986,0.3292755858,0.6351002502,0.663250239,0.8126110285,-0.5406644311,-0.8087098689,-0.1843156751,0.6080013797,-0.797714601,0.0017011881,-0.9266026065,-0.4670817159,-0.9264852939,0.0548806292,0.0818031827,-0.6021812844,-0.2535429605,-0.0927824967,-0.3914944326,0.2035111793,-0.3220570823,0.4149589131,0.9557045907,0.2262423311,-0.6520820643,-0.5115871783,-0.6449954523,0.0903509249,-0.6039334301,0.8191302242,-0.3277170856,-0.8402872344,0.2690074165,-0.7750640418,-0.7030964391,0.1060693823,0.7376485747,0.2156719694,-0.5708291043,0.8013746114,-0.5992905627,-0.4203249081,-0.4992046786,0.8427133846,-0.2736495202,-0.7404027061,-0.5124311206,-0.1268786988,-0.3010589424,0.7750753804,-0.9501117388,0.2141983836,0.5602703346,0.6089264022,0.2707500724,0.5976410293,-0.2043900529,-0.6895683062,0.3857888765,-0.4043175186,0.2366081692,0.5907518189,-0.64836117,-0.6813686257,-0.1483738914,0.5213404134,0.2311435733,0.4901018416,-0.148065983,-0.1117502197,-0.5478429431,-0.8604276201,0.2992970171,0.4304471936,-0.3118211632,0.0579320146,-0.8894859893,0.9512486791,-0.8884350396,0.5856581169,0.43048222,0.9970562464,0.794161022,-0.6445864034,0.2027283996,0.3387393963,-0.8795237994,0.9655466534,-0.2839632496,0.6460318857,-0.5964320415,-0.1783827495,0.8929354165,0.8942675254,-0.4215294417,0.7822856442,-0.1976124488,0.1577777734,0.8554861631,-0.4853766446,-0.0068026629,-0.0738027968,0.1643604155,-0.6656831198,-0.1852886921,0.1626312897,-0.0142943138,-0.3156919441,0.8604445024,0.8200433878,0.5387478546,-0.8283916947,0.666898519,-0.9437584308,0.8836614013,0.3277736575,0.6251877692,0.9770143667,0.208504309,0.4373646167,0.9884621916,0.572374177,0.213161763,0.9532969283,-0.1256863667,-0.2606801353,0.3091789376,-0.5737672042,-0.6863656211,-0.5769396853,-0.9778196189,-0.1868900594,0.1397156602,0.6258197749,-0.6264512319,-0.3758280106,0.7281488067,0.7686100634,0.5395701257,0.9778114817,0.4961816592,0.8139260898,-0.3659710211,0.5798809901,0.8581970553,0.7095786629,-0.2135129404,-0.5909921045,-0.2812536246,-0.6724451069,-0.6191352144,0.2101268814,-0.1905144685,-0.8536435636,-0.5758417811,0.5443029038,-0.4853824485,0.0989370033,-0.9498528082,-0.9465085049,-0.0985574549,0.5131365005,-0.4885134735,-0.3565674235,0.9996528872,0.2814666701,0.9449009879,0.2406390784,-0.1141323073,-0.0144520834,0.4115926505,0.964489998,-0.4641393294,-0.4868893562,-0.3114680551,-0.0048292974,0.6779374646,-0.6636174848,0.6878801579,-0.8322574106,-0.467024698,-0.2199205373,0.8492119305,-0.1441720992,0.9041749851,0.3029856926,0.7998170037,-0.118011718,-0.4514808908,-0.9418073557,-0.7688964662,-0.0074844404,0.8172139167,0.5423436813,0.0773339485,0.0339137313,-0.5465344342,-0.3010530828,-0.9550242617,0.0022742678,0.221430068,0.9113617201,0.3233324907,0.2872288336,-0.5586588575,0.04235961,-0.6485266556,0.1189709187,-0.9625313565,-0.5371518929,-0.2431207656,0.5498486641,-0.9121019787,0.3305746748,0.675494644,0.9721238297,-0.3383979564,0.2847773187,0.8957877189,-0.1188474579,-0.4633676483,0.795073907,-0.2850072513,0.5808993558,-0.3952452383,-0.7944209433,-0.1420955076,0.6825762289,-0.6771133087,-0.4535339627,-0.7987681756,0.7437064321,0.2313728239,-0.0804059601,0.16409425,0.6291563135,-0.9478627971,-0.7626992415,-0.5498725931,0.1976519118,-0.6224157383,0.3848832728,-0.7057120575,0.2828697782,-0.3752813812,0.8281871217,0.4954422423,-0.1515410385,0.7586386273,0.789761472,0.9457844054,0.1472023236,-0.930507343,-0.6689831533,-0.1464378726,-0.2030232295,0.1686684042,-0.2791863647,-0.8366751997,-0.1014887407,0.7506711971,-0.777315503,-0.4056785895,-0.8943621093,0.7860280857,-0.9171587567,0.186202219,-0.3848681282,-0.8648225681,0.1418148633,-0.9193584639,0.4061065039,-0.6776110627,0.2751885551,0.2916687291,-0.1222192488,0.5205815945,-0.5822311629,0.4633685799,-0.5060063711,0.2450812675,-0.3996313278,0.9578912208,-0.4205767738,-0.0454937741,-0.2546531656,0.8821413796,-0.4452443806,0.7113094288,0.9997755515,0.5352458649,0.6226518121,-0.7732335738,-0.4072790683,-0.9281587698,0.5145599045,0.5769859825,-0.9370198569,-0.5272592328,0.059074252,0.783793879,-0.2959378092,-0.6337880555,-0.20970457,-0.0268814767,0.325620944,0.7996697542,-0.7917994034,-0.6463401347,-0.0698428956,-0.3306531624,-0.2341448056,0.4174322014,0.2585975727,-0.2197779848,-0.7789505171,-0.4854563211,-0.1846981451,0.8582320923,0.0720861666,0.4656969331,-0.0065447567,-0.0061886085,-0.9424958672,0.2291613387,0.2821425153,-0.5333168586,-0.5971578757,0.0791177737,0.3131159101,-0.0372648073,0.5682346828,0.6451597558,0.2258176295,0.5616922394,-0.4700581476,-0.6104912449,-0.8288905226,0.9024585736,-0.5073571197,0.3568667277,-0.8092066455,-0.6728470238,-0.5299820234,0.8427772265,-0.7382736131,0.5684783094,-0.0125934551,-0.2741424568,0.1638100873,-0.3970044656,-0.4520007251,0.4556090697,-0.3073814986,-0.5509628564,-0.3483295405,0.2251883491,0.9272242816,-0.3806011644,0.6517733553,0.7441497776,-0.6546592864,0.1333751869,-0.7497645984,0.7361053037,-0.3198426312,0.7535156265,-0.2120018423,0.8891811181,0.0105423177,0.0165847368,-0.5314863006,-0.4544896083,-0.7885963675,-0.1271711141,0.8840203475,-0.8428595468,0.1199253521,-0.0382933843,-0.5193405965,-0.8962652162,0.9783535592,0.8969961951,-0.6778740483,-0.3545817553,0.0746654365,-0.1840431085,-0.6148200189,-0.8160781121,0.1106239131,0.7537189554,-0.8022394098,-0.2359840338,0.200703947,0.2589824184,0.6802727731,-0.9587485911,-0.2120990546,0.6090896543,0.888646708,0.2457142095,0.1746407952,-0.4360481258,-0.5621790948,-0.1695322328,-0.7986138491,-0.2824878582,0.6373474528,0.9711374548,0.2500206394,-0.4709469225,0.5093044056,0.2234783549,0.8291749418,0.9631534222,0.3280868542,-0.7420960141,0.1180913846,0.6500389802,0.3229790502,-0.1810115417,-0.8470609955,-0.3449173175,-0.1358879907,-0.0839373094,-0.1942900638,0.81943478,0.9869974359,0.5521754457,-0.3475388432,-0.3740810073,0.9275726479,-0.4905422941,0.4492795729,0.5700648803,0.5448992017,0.0376387102,0.7320597833,0.488491202,0.5009770025,0.1160101901,0.9686220739,-0.9443087341,0.4277997235,0.8846657949,-0.0374973357,-0.0269674017,-0.481391101,-0.5542986355,0.6836377648,-0.5987861079,0.836006519,0.8761959747,0.8275066409,0.3425612633,-0.2584443456,0.499676757,-0.0673337002,-0.8926435001,0.1379786778,-0.5396190598,-0.3869281643,-0.9273245715,-0.229186571,0.0150772797,-0.6758169177,0.1766150263,0.316599152,0.2094793934,-0.8504112496,-0.372060257,0.4410670073,-0.4774958275,0.9405515114,0.8376276805,-0.480470803,0.6797540102,-0.753878329,0.6731138283,0.3057248162,-0.396106072,0.7420497902,-0.1663985327,-0.6884937816,-0.5748344713,0.7440318312,-0.61692093,-0.5337052999,-0.6434159224,-0.9489194692,0.2062146607,-0.9799730274,0.0364902693,0.5499044152,-0.8042262304,0.6736230528,-0.8479337199,0.205128444,-0.2099779681,0.7022313486,0.8969471669,-0.5211280541,0.1383811199,0.1376480918,0.3710398361,0.6252837278,0.7047286762,0.279133112,-0.5359487724,0.6483422419,-0.523147262,-0.1371984555,-0.0482939511,-0.767831681,-0.4932846137,0.5402653946,0.2523275771,-0.7617966423,-0.9370675525,0.5317885283,-0.5487768832,0.1255073966,0.5346336848,0.1718635593,0.491902252,-0.7193158539,0.0369440109,-0.3631819748,0.5093466385,-0.480105239,0.0679751548,0.7570598487,-0.801764717,-0.0591421578,0.6849905511,-0.8950022485,-0.8088769414,-0.0479187574,-0.6462130351,-0.7208314109,-0.6483230998,0.4597279544,-0.6975864623,-0.9864575412,0.5144267296,0.00408934,-0.1373916712,0.6747410582,0.8238058341,0.3100041634,-0.8855583619,0.5755031217,-0.5710188252,-0.2700298139,0.6196891359,-0.600251953,-0.1000856987,0.6084167404,0.8997603095,-0.9931716674,-0.9706480581,-0.0867801235,-0.3133208216,0.5086792384,-0.2891354273,-0.0453178209,0.6899267017,-0.7827219946,-0.9311198271,0.0889127744,0.327986993,-0.2497086775,-0.3805367291,0.5799509232,-0.2061759549,0.8170932298,0.3172319635,0.3769886123,0.6500382206,0.9142109529,-0.139829392,0.9476528994,-0.5549580944,0.960563329,-0.6647655029,-0.2503159367,0.9415078777,0.7804066429,0.5074284387,0.4293559085,0.7902854625,-0.0322567976,0.4915740647,-0.4173062678,0.3213272633,0.2957531634,0.5846137941,-0.3250736658,0.7879538004,0.9159490819,0.6001535778,-0.542320895,0.2339009366,-0.5925984318,-0.9646417076,-0.174370751,0.9091438832,-0.3493810571,0.5440555782,-0.1629927647,-0.8580035252,-0.7937485769,0.5521328518,-0.9356497137,-0.5753046016,0.2859135768,0.7705121296,0.8944052955,0.3588199343,0.1377805596,-0.2730216265,0.6859491497,0.1378325955,0.5424008321,0.6717765102,0.6505253774,0.7994437966,-0.6353803212,0.2947961721,-0.4145350944,-0.044276277,-0.9897196694,-0.2211006356,-0.5815787363,0.2309836369,0.556582218,0.7844751943,0.5166714992,-0.7589435656,0.5569868788,-0.6537451372,-0.4183844375,0.9086813684,-0.8678635199,0.9693264269,-0.5607786735,0.1142541292,0.9326070251,-0.9054633069,-0.1311374159,0.9202176888,0.0965253731,-0.6160236159,-0.2830089412,-0.685977438,-0.2911876578,0.2187725054,0.1123855249,0.9108074717,0.1268185199,-0.7973166398,0.1450726759,-0.8209640456,0.6352336342,-0.8569140737,0.0567829792,-0.6897660568,0.6169912439,-0.1111789005,-0.0168310271,0.633954176,-0.4638640679,-0.6506323555,0.630906223,-0.952874895,0.5096250546,-0.4235973543,-0.2535447541,0.4635186059,0.4732901477,0.1345800968,-0.7634692032,0.9844023364,-0.8153327141,0.5700582126,0.9831647496,-0.8354066373,-0.5922230077,0.9601468662,0.8649165499,-0.3498999026,-0.6636461559,-0.7136320157,0.8445910898,-0.1820306084,-0.7922960724,-0.2454055316,0.5130164472,0.3593247268,-0.8245926001,-0.1309267986,0.1386141782,0.2008602372,0.7109135643,-0.1752888382,0.4808874089,0.9759277268,0.4526574886,0.2266507562,0.1674652404,-0.7622859888,-0.6333729526,0.4134088653,0.2013212231,-0.6043278051,0.5367663805,-0.6025342488,-0.8189199155,-0.3829708184,0.7021122693,0.5704071799,0.8993376102,-0.8395627475,0.6832607328,0.4985571952,0.1033780897,-0.0331947171,0.4975013083,-0.2483292462,0.0912548657,-0.8171389674,-0.0475897303,0.8044512664,0.274433055,0.8537372759,-0.0271214309,0.1564294565,-0.4665409872,-0.0070883304,-0.7720599554,0.5614546357,-0.8381583425,-0.9814464068,0.9022002719,0.5948725926,-0.300677771,0.6586680002,-0.1240535422,0.6982341596,-0.7812337245,-0.1828804014,-0.9452257385,0.4085966122,-0.9810691158,0.2478657611,0.7911174856,0.3455583453,-0.683846774,0.438071857,-0.5610869554,-0.222902474,0.5449104324,-0.1384890315,-0.1657020197,-0.627599587,0.3767696948,-0.6649181225,-0.5822375712,-0.1811565199,0.9283333587,-0.3636432418,-0.8442780151,-0.1754289286,0.9945266367,0.3849868484,-0.8022149137,0.194231543,-0.6917684114,-0.1062864175,-0.8833995526,0.4227085891,-0.4497871425,-0.2550751707,0.1874714029,-0.9907735202,0.0749030377,-0.3344643169,0.1517026653,-0.7407275443,-0.000726187,0.8718562059,0.8470857142,-0.0822995187,-0.7162714384,-0.8329013592,0.6112136689,-0.2038489616,-0.2397201939,0.8068469322,-0.6755502002,0.422464203,0.9215944947,-0.9918425831,-0.0054879502,-0.9984630233,0.4136118916,-0.2656563143,0.6817511362,-0.5063435599,0.8222816598,0.5519941228,-0.6044117581,0.7285648335,0.1180565785,-0.1686853731,-0.6830227688,0.6494411715,-0.600092754,-0.2154470105,-0.3855630185,0.5848714147,0.8170095017,0.9750459979,0.2899451244,-0.04494569,-0.4899431485,-0.0376007501,-0.8267671021,0.1424381922,0.1026541912,0.1862257743,0.1052507794,-0.3716486409,0.6939156034,-0.7931021887,0.0659651336,0.6487637964,-0.9140997163,-0.0237896449,0.5311197309,-0.6786424026,0.3395875954,-0.5387537515,0.4259078818,0.6460796051,-0.913475204,0.9600469445,-0.6613680693,-0.8752271861,-0.2430517175,-0.280766791,0.7590117689,-0.858169878,-0.0655059506,0.4172261303,0.7860534912,0.464900829,-0.9837444887,0.4042827544,-0.9277287439,-0.2373394751,-0.3616168554,-0.3308192128,0.7204646043,0.842360368,-0.5438483358,-0.6161095499,-0.9680582034,-0.4784554579,0.6511866679,0.6450431774,-0.3042543688,-0.9546993698,-0.8729021179,-0.9873708577,-0.0700431027,-0.3355253285,-0.7492856223,0.0877386788,-0.092508448,-0.6860571811,-0.1493678854,-0.5436528045,0.2028981699,0.4769806609,-0.3461585833,-0.2450512688,-0.1826596997,-0.1756039451,0.0155973281,0.486485502,-0.3445180625,0.0593191445,0.0542022779,-0.1852131792,-0.1857794927,-0.6443267377,-0.9836480534,0.9102834148,0.741272664,-0.5633103388,-0.255087054,0.8926255526,-0.5103119166,0.1551722269,0.239258237,0.4254116304,-0.6117187603,-0.1596826653,-0.9995426078,-0.4942868796,-0.1623411527,0.5841903948,0.1842400325,-0.6669574335,0.8753066296,0.0114433648,0.7042421088,0.174084742,-0.4704239661,0.9045096316,0.9817681663,0.3799262268,0.5401164115,0.6914455367,0.6685725032,-0.7714750256,-0.8369810521,0.4394768661,0.8034760802,0.610498094,0.8160922517,0.0805018519,-0.819659246,-0.1881455849,0.0984381367,0.9759818138,-0.1287745553,0.4826537952,0.7261362844,-0.0284387192,0.5798922845,-0.4143423043,-0.4140128238,0.4249488097,-0.0809032716,-0.6033866921,-0.2588385292,0.0383137826,0.2604680757,-0.5885156249,0.4323546346,0.0232161669,0.8963249786,-0.9301116203,0.6365859082,0.7818581747,-0.3749621686,0.3250172915,-0.3834293419,0.4214740905,-0.8022673582,-0.3829419837,-0.2598554231,-0.8854010894,-0.9088795939,-0.0068572815,-0.7414209723,-0.4746981137,0.6453434023,-0.3039542381,-0.1302388656,-0.23896401,0.0127856374,0.6828080143,0.9408108628,0.720728737,-0.0393651444,-0.2066091471,0.2107653236,-0.0980022631,-0.4662049545,0.6524284463,-0.7233054711,-0.0384681146,-0.4856333611,0.9300088625,-0.2448319386,-0.040382973,-0.8912223178,-0.3322646917,-0.7945197429,0.9688330573,-0.7002425013,0.4699518768,0.1796426647,-0.0034973419,-0.1853714904,-0.0126363875,0.1653724886,-0.8994261617,-0.4689102296,-0.9083942601,-0.2735402591,0.0996555776,-0.2229316059,-0.5976963454,0.2887426585,-0.4895941192,-0.8334195789,0.9321158736,0.2646434879,-0.0886065987,-0.9466406478,0.252300513,-0.446549012,-0.2060517744,-0.699157977,-0.3163089845,-0.6880557864,0.0961205265,-0.9393913751,0.0986949574,-0.8046517726,0.6679648521,0.0576803346,0.2735443255,-0.1998723941,-0.942240629,-0.6829492056,-0.0742707651,-0.8116152539,-0.8622012948,0.349616721,0.1207248641,-0.8544271919,-0.6819819589,0.9344388575,-0.0090567978,0.0563560242,0.9139572953,-0.2667191133,-0.5762834862,-0.7732828624,0.7190516687,-0.6548766564,-0.1468570357,0.4174110335,0.5501601071,0.020805744,0.2398542824,0.4353338097,0.6331925791,-0.0885066246,0.7805536785,-0.2194053848,0.2014635537,0.1409198466,-0.2791639046,-0.9575524246,0.4352951914,-0.9229096315,0.9253727592,0.9782353663,-0.7939729977,0.9880116723,-0.2147894372,-0.7553150419,0.5318074248,0.5378679887,-0.5832023685,0.1476345905,0.1967939883,0.2783097216,-0.3059819338,-0.5395556827,-0.5636276867,-0.6442726591,-0.8298290247,0.8916924499,0.3639060804,0.3949272235,0.0341360441,0.0049223512,0.7827185465,0.8282815674,0.1091053581,0.6865543185,0.5479132471,0.3932248572,0.0358513476,0.9129440305,0.8403229282,0.590349332,-0.6941984454,-0.7704769331,0.4987794077,-0.6930365254,0.2571681161,0.6692269891,-0.4580515688,-0.5086485276,0.7664472223,0.111870432,0.9383835579,-0.4438089907,0.1268263433,-0.8704451366,0.0289035246,-0.0086257663,-0.9127905353,0.8539185627,0.167852366,0.834815358,-0.0246353263,0.1592437104,0.3862190967,-0.3467202282,0.1083765195,0.022485737,0.9731084242,0.8984970445,-0.4797563201,0.0216185813,0.1734230416,-0.4145113,-0.5551807611,-0.4071901437,-0.4855757855,-0.4664156958,-0.386112796,0.9062187824,0.0569253991,-0.3628596048,-0.9053250714,-0.6846144232,0.1213956911,0.2071176507,0.2068105897,0.3016476415,0.3734229311,0.8193934773,0.2224857866,-0.5800207161,-0.4506574452,-0.9548205898,0.234424752,-0.6181568703,0.5728457408,0.2133675383,-0.9113935639,-0.5789087026,0.1160765493,-0.7923970874,-0.2752466853,-0.2014829189,-0.960533408,0.1679303174,-0.511124072,-0.7555721884,-0.048857503,-0.9278856621,0.0430582608,-0.3192997188,0.6793044365,-0.8095894196,0.0390944644,0.4381302969,-0.9970494569,0.780419745,-0.7053568892,-0.2143091476,0.7493457369,-0.103636931,-0.7951597925,-0.5047572016,0.8726681251,-0.3572006068,0.5682825426,-0.4472013666,0.9861408371,-0.0413570715,0.3076117953,-0.0188408732,-0.4793129568,-0.9368109746,-0.4144064869,0.2487378696,0.2593508549,0.72616001,0.0787016137,-0.0500062795,-0.7257087749,0.2094376846,-0.0375047732,-0.7282128537,-0.1307178651,-0.9619379372,-0.7878327107,0.0629183028,0.0181817746,0.1096110672,0.4235519795,0.1557751643,-0.6835772634,-0.7646769764,-0.7672851145,0.6074439093,-0.4556271944,0.5521613232,-0.9818073744,-0.4388094587,0.2121450271,0.5938393923,-0.3927515557,0.9066571215,0.0747481466,0.8230804767,-0.1554144993,-0.9030314177,-0.0687686975,-0.675774706,-0.9367791333,-0.5948992286,-0.8414726265,-0.4669102969,-0.4189280957,-0.0972359251,-0.8653878716,-0.6865258981,0.979967199,-0.2533564753,-0.9387972391,-0.5313000623,0.0993945806,0.8502519184,-0.9842527246,-0.7570026338,-0.4084790957,-0.5080702395,0.5598430803,0.0044025114,0.7008933578,-0.3426176564,-0.8100666822,0.5535806702,-0.8138222323,-0.7247295774,-0.9677201255,0.9665831246,-0.6699097452,-0.9414316745,0.9794531914,0.0302025711,-0.7291563686,-0.2183485026,0.1774790508,0.68736498,-0.7369871559,0.1696921752,0.6600685917,-0.2269568262,0.9494518446,0.7744280253,-0.0642161757,0.8888999131,-0.7278004839,-0.5102434601,-0.7505875988,0.1291181293,0.6338673551,-0.5310182048,0.0026062612,-0.0115406568,-0.92368072,-0.9000201015,0.5131894984,0.2365882966,0.2286367683,0.179251978,0.8066840226,-0.7175680263,-0.8959451983,0.5639871533,0.4614738499,0.3062284989,-0.3550688224,0.0110413676,0.3408249148,0.708155553,0.3448064888,0.8764266895,-0.876463126,0.4147983898,-0.908232923,-0.6445537818,-0.1283448752,0.0147936692,-0.339345028,0.1854154719,0.2837432799,0.4554524331,-0.1785309491,-0.2648624453,-0.4770570869,-0.7660554977,0.691794623,-0.3603732386,-0.1011273482,0.6609808958,-0.5950421652,-0.1288213721,-0.8325094101,-0.7384747268,-0.3354925824,-0.7637912523,0.9468166581,-0.9806147168,-0.3588892599,-0.1441003812,0.2257421453,-0.7401190837,0.6273961785,-0.6671307139,-0.4103686194,0.9516375354,0.4656645887,0.4489365792,-0.3656040452,0.1969396393,-0.9298720109,-0.8562001048,0.1547327647,0.6323475056,-0.5905814674,-0.8847997456,0.2701251276,0.4536624739,0.6370601092,0.0079571662,-0.0200028812,0.6268353408,0.2876350777,-0.144193462,-0.0323737299,0.0020270387,0.9435770202,0.6777096419,0.911384072,0.9513228292,0.0158561072,0.0326265684,0.9757557468,-0.2725914689,0.4189258891,-0.8888002128,0.1717794045,0.942401383,-0.2283458579,-0.4505924706,0.1538069022,0.4149084554,-0.0012438287,0.2246624688,0.7660309551,-0.9896280369,0.1862251737,-0.4618016222,-0.8295153512,0.5150590431,-0.2718267371,0.821383055,-0.8642711101,-0.9968979807,-0.8010499307,-0.9954692245,-0.9118905081,0.430428489,0.3114215051,0.7022647992,0.0901384601,0.9685037822,0.954166339,0.7931399558,-0.1584539223,-0.236482702,-0.8509471202,0.0109886002,-0.3059682045,0.0299074231,0.1444806044,-0.4945343477,0.6283602136,-0.1612384163,-0.6262902926,-0.0156578833,-0.5107188136,0.3976832072,0.1996820861,-0.0213295622,-0.486744327,0.9330450966,-0.9077000668,0.5723175542,0.0847915798,0.1733336201,0.8920584832,0.7024742687,-0.4727169901,0.59679901,-0.1538428486,-0.611368349,0.7316620005,0.8740719935,-0.3469469535,-0.1889612398,-0.9284472329,-0.1221012113,-0.9825399626,-0.1687326967,0.687047751,0.3277851341,-0.9338640029,-0.9253107707,0.2011524489,0.772098805,-0.2199723979,0.5245450323,0.1133253286,-0.5883286077,0.2589257413,0.5408261546,-0.0508396765,0.2046531316,0.2603286971,-0.1187300067,0.5445217908,-0.2403269679,-0.2292605054,0.3265719191,-0.5045276465,-0.2492436846,0.9302981826,-0.3637799123,-0.8684075753,0.2450528621,-0.6900765225,-0.0069319655,0.3984990566,-0.5234080067,-0.1133849024,-0.6842516246,0.4216846733,-0.6703153793,0.9354090331,-0.8247175632,0.6359153443,0.1017877157,0.5678634854,-0.7232396947,-0.6555267067,0.7570733155,0.4891326697,-0.1454863293,-0.2658815579,0.4950896377,0.2808479785,0.714107994,-0.7644879839,0.5094946958,0.0088161855,0.0104706792,0.3986720523,0.6355461539,0.9661046795,-0.5687118379,-0.6626616394,0.9695629741,0.7129861697,-0.3440114313,-0.6901173426,0.5663387591,0.4035998957,0.0332619707,0.0909932462,0.1467245035,-0.5811872442,-0.5984134901,-0.8358844073,0.4581691198,0.1790082647,0.4809050442,-0.5025738587,-0.9529575057,-0.1281971809,0.405539519,-0.122649159,0.050285723,0.1367606584,0.2518214595,0.1780810503,0.405195543,0.9640093719,0.6552904968,0.6838570849,-0.1161890183,0.8816595176,0.9359269637,0.3069700253,-0.0035594411,0.8429869635,0.1204107317,0.6881953951,-0.4214892588,0.5126678479,0.9067440503,-0.4340627795,0.1442011492,-0.4893890514,0.4325413256,0.9849909354,-0.5039232704,0.2238848382,-0.9013344562,-0.4908375997,-0.3127326284,0.5371635163,-0.309666451,0.7079614537,0.9028708993,0.4711896604,-0.6973763859,-0.249783851,-0.9775380439,0.9842707382,-0.4858452694,0.7661178056,0.279643372,-0.4218635004,-0.9042112797,-0.4025535441,0.1721880079,-0.5154945678,-0.3236557101,-0.5712789715,-0.3103703677,-0.6019871038,-0.5288814989,-0.8882696078,0.7650144895,-0.829707165,-0.0891294461,0.1507882918,-0.533908196,-0.3493450462,-0.0230856606,-0.7879744236,0.8011691867,-0.7531709967,0.4483759034,0.7521123194,-0.4614188399,-0.2497627405,0.1011692514,-0.6871830863,0.9205704289,-0.8824142515,0.0553708557,-0.1591735401,-0.6678070025,0.7948578895,0.2147390996,-0.1451696562,0.0565511895,0.5299459833,-0.3951140003,0.5975084767,-0.0500131761,-0.037923526,-0.0616856476,0.4014469704,0.1166125413,-0.5154419677,0.463986768,-0.4474106003,-0.4702973991,-0.8628174052,-0.409523616,-0.5087146569,0.4064830067,0.8592002321,-0.3393824094,0.9325913443,0.8110598204,-0.7500004688,-0.5112869194,0.0276419484,0.308150127,0.8476978296,0.0353770033,-0.5262780276,-0.579826524,-0.867033174,0.8271353372,-0.975291576,0.3292118473,-0.1609748026,0.0056280742,-0.0153221965,0.3772963245,0.6556703825,0.2915398758,0.6681401942,0.9477702703,0.6625803953,-0.3229269882,-0.5325760323,-0.3341358527,-0.8463524394,0.4503008733,0.5064045136,-0.0645024921,-0.8299851542,0.6881269448,0.6700759789,-0.7949833795,0.9407276223,-0.7984583937,-0.8830749771,-0.7962015738,0.2604335611,-0.0084829092,0.5994804373,-0.3759440847,-0.5142389022,-0.7771662007,-0.9805194264,0.3505578338,-0.7255712758,0.0631895178,-0.440285488,-0.2280948,-0.545331987,0.1107203748,-0.898862933,0.3921209797,-0.1670400361,-0.6556026032,-0.4886825084,0.8701846768,0.5421580691,-0.6030845919,0.9217082717,-0.6083727113,-0.475640837,0.5685428209,-0.505121327,-0.1396244382,-0.9784384589,-0.241322582,0.8482137208,0.8601150666,0.1801337508,0.2013068783,0.3850496761,0.138967044,0.7022340369,-0.6251241851,-0.2457997329,-0.7546966536,0.5880292612,0.0036491554,0.2713044668,-0.6822860996,-0.8521114319,-0.2900813577,0.5659066891,0.3605831611,-0.4200308341,0.0818727735,0.048364864,-0.1914734793,0.1700746087,-0.1451550502,-0.6985181438,-0.6406186613,-0.479903434,0.4144200728,-0.003146339,0.2092899763,-0.0905633019,0.4609421009,0.4665632194,0.5048178497,0.9435098445,-0.43567178,0.7139295689,0.2577185004,-0.3313482808,0.3080061865,-0.6974263859,-0.8068001944,-0.1150184761,0.2150440024,0.3762843284,-0.2391618548,0.4681033115,0.5152062103,0.1182639297
   0.2638345249,-0.4823517193,0.2668019038,-0.8115962322,-0.5916466259,0.8374464125,0.2160568417,0.6443700869,-0.0499910158,0.7699052935,-0.1960264452,-0.2210824244,-0.1999649801,0.4886710916,0.9859549287,-0.9656092828,0.856510999,-0.3275450835,0.3915144053,-0.8291435819,-0.0689376455,0.0441466337,-0.1513048922,0.8921721215,-0.8526136704,-0.3023133196,0.5982368202,0.0654854269,0.2304256283,-0.4498633448,-0.8367347457,-0.1494535032,-0.4991214923,0.202963238,-0.1454107363,0.6691640354,0.7184259922,0.1658986029,0.1039179071,0.4952304437,-0.3201145289,0.4886587322,0.0776500897,0.0380043353,0.7350306986,0.2343667744,-0.0436658411,-0.1511235975,0.3674496565,0.2074224013,0.9525603306,0.8288727339,-0.3109558791,-0.5261663892,0.8415684962,-0.9196204329,-0.3074639405,0.2845524045,-0.1224342497,-0.477270488,0.8169966481,-0.8832218921,-0.6928028371,0.8896518169,0.2813953928,0.8161285314,0.5098998679,0.7970053667,0.0757089933,-0.4099767445,0.635641498,0.2832176941,0.5530054631,-0.6924745439,-0.7909747142,-0.9900469258,0.8934921464,-0.1190607832,0.3758364742,0.6867715446,0.501027633,-0.3077146882,-0.4169828943,-0.5056588029,0.6084098715,0.2610164422,-0.8015306969,-0.818659962,0.7894204433,-0.5160889952,-0.6933770697,-0.0874274549,0.0061370949,-0.9051523285,0.5472004266,0.513012251,0.4388170869,-0.2394763154,0.4227695902,0.0768874448,0.6713149122,0.7866151172,-0.3145070522,-0.0646826142,-0.0145294101,-0.2550682721,0.2675203147,0.505611228,0.3598891169,-0.4666817993,0.9227299628,-0.1663737459,0.0534492182,-0.5762098876,-0.2329424392,0.1690180605,0.3678982466,0.0714906998,0.5805297339,-0.32735799,0.8493035284,-0.3916949683,0.3305296434,0.9845790738,0.4707111661,-0.1988990985,-0.907378627,-0.9044755277,-0.6287621032,-0.6824830751,0.003213271,0.2171130371,-0.4600947827,-0.4963287621,0.6262924531,-0.3876575039,-0.6151030585,-0.6055984645,-0.3498010797,-0.5461952964,-0.1811128148,-0.4379260791,0.9738760387,-0.8358743118,-0.6492712478,-0.0515171782,-0.4824180416,-0.9476789318,-0.1264650859,0.6772724198,-0.7791317218,-0.7015958235,0.408877802,-0.4785682375,0.6066207055,-0.6584190005,0.2779842339,-0.0763715834,-0.4494444093,0.6555971404,-0.9747647792,0.2469850788,-0.8513148547,0.1382162401,0.7986378535,0.8370646613,-0.6722014918,-0.3151744001,-0.5484800309,-0.2534537071,0.0511603705,0.1609005577,0.0117613758,0.3151935708,0.9128241126,-0.75996305,0.1267922077,-0.8817733845,0.696005238,-0.1731101875,0.5687018132,-0.3386753837,-0.3803850696,-0.5758017441,0.1032353225,0.8904704278,-0.4213561644,0.9943372848,0.3069101251,0.8371269406,0.2283838801,0.0688733225,0.7937660296,-0.2976470623,-0.0662210682,-0.9704352708,0.3175492979,-0.7272115798,-0.0850854036,-0.7474916538,0.2866839954,0.9170540947,-0.9825182397,0.1305451445,0.4931713223,0.2126797021,0.7116452221,-0.5586813191,-0.1042791803,-0.3168675893,0.8566411447,0.7299097565,-0.1165644462,0.3810033609,0.7999021521,-0.4029655528,0.2886003121,-0.8012155181,0.6060273653,0.6015451778,-0.2199390141,0.4043792955,-0.7864367327,0.0745047548,0.8663515275,0.9125224158,-0.5195792047,0.8957205176,0.1310491182,-0.6932080132,-0.5880037784,0.4305620031,0.5720296444,0.3920621472,0.6456001428,-0.3544995157,-0.5711339278,0.7668362131,0.7062790286,0.6674069596,-0.6452658226,0.054426786,-0.9281564183,0.5511351099,0.9994440161,-0.5624983376,0.6313742299,0.9862348999,0.0543461252,0.2295514491,0.7629354055,0.3728168966,0.7173949496,-0.9514700625,0.9983680606,-0.0177042745,-0.8981450246,-0.967729421,0.7530726061,0.4927411617,-0.0256663539,0.0333666321,-0.1225153989,0.6150181923,-0.6112809417,-0.2857017935,-0.5093646885,0.2419636765,-0.194811616,-0.5197476248,-0.0149633066,-0.4272730712,0.6004892401,0.5387471173,0.7686287515,0.9788746707,0.1560761322,0.4862166949,0.9575596824,-0.1195067057,0.897863446,0.3100678024,-0.0294055487,0.9630390159,-0.6778673352,0.4777741226,0.6934744147,0.6261964761,-0.7644569862,-0.1919054118,0.8353971153,-0.0090386036,0.0825879139,0.6385801568,0.467398281,0.5001457948,0.7400874388,-0.4536784895,0.4607291176,-0.9720800292,-0.0931617284,-0.3627908686,0.4717973885,0.3973150291,0.3624505106,-0.6144510389,-0.9446369905,0.6942770021,-0.6329070034,-0.739062934,0.9466553008,0.7196518643,-0.8137996292,0.2002897224,0.5320645774,0.9346974801,0.6215581301,-0.386942836,-0.3871080029,0.0724438151,0.3924478937,-0.1720361171,-0.1237544596,0.2066796725,-0.7937789196,-0.5191613754,-0.7310874887,0.6036976607,0.0552950581,0.2391810944,0.5379785102,-0.8480570708,-0.5797891309,-0.1243289871,0.0107400708,0.3715392389,-0.7862351828,0.7327085004,-0.6249429231,-0.5280262704,-0.9601101736,0.3848306107,-0.2062849159,0.9352278785,0.4770486533,0.239429485,-0.4789886321,0.6736048115,-0.0029412482,0.7696812159,-0.8790870667,0.5780338267,0.7470599384,-0.0170215296,-0.8150107505,-0.9845957464,-0.205884382,-0.7055905435,0.3350009283,-0.8255682585,0.0021805784,-0.2780910651,-0.3095024938,0.9138131655,0.0833272056,-0.9673121488,0.1542376523,0.9670750977,0.572095154,-0.906513459,-0.9858215946,0.4240604098,0.5858145289,-0.3142201625,0.1960097341,0.8579856942,-0.0779749871,-0.7458556383,-0.9072185762,-0.7580726065,-0.0849343844,0.4610997511,0.1536006295,0.3382258261,0.2654474634,-0.3787543822,0.5964235058,0.9453654668,0.4694208171,-0.9440555881,0.9390257855,-0.141592957,0.5688329309,-0.122842389,0.0626015594,0.9310240502,-0.4910862618,-0.4323540308,-0.844829072,0.3445712254,-0.7848268723,-0.2414432086,0.7001460681,-0.7522363408,-0.5604026463,-0.1595428846,0.620560169,0.869616063,-0.0483551331,0.1148225273,-0.5728187707,0.8828907179,-0.791968587,0.2841844514,0.58428968,0.9476193308,0.8167701434,-0.8960880978,0.6047677529,-0.4777337575,-0.3313451778,-0.3141288782,0.3280401274,0.4458571991,-0.4908270458,-0.0021803793,0.507099695,-0.6026705755,0.7046964793,0.9655087243,0.1372004377,0.620772383,-0.0944719586,-0.9655928411,-0.953852305,-0.3485785334,0.3121327417,-0.1267609228,-0.3507271786,-0.5179866309,0.4812738366,-0.631762748,-0.3140575015,-0.4788959234,0.8229798839,-0.3591590766,-0.1975211665,-0.3730719891,0.7850850446,0.7704851923,-0.8425378507,-0.134118046,-0.0166899189,0.153135622,0.0144354355,0.3789104641,0.1070655065,-0.8371926863,0.7261485607,0.7164178925,-0.2288763203,0.2231374831,0.1078107773,-0.927404127,-0.9339966328,-0.2367667107,0.6155058614,0.4896962848,-0.3683344799,0.1925449843,-0.120796047,0.7044757635,0.9867159482,0.9621679551,-0.2027526552,-0.3794995556,0.2670334876,0.5211221129,0.2829153512,0.4420386313,-0.3427252949,-0.3660921593,-0.7667035911,0.1637293523,0.8403793745,0.5380560532,0.4483147269,0.4747338938,0.0748977221,-0.6370314606,-0.1007534812,-0.3725638539,-0.6733032287,0.8812263952,0.2884077946,0.566930051,0.6439046236,0.1312429145,0.5693773054,0.6871876851,0.3482235835,-0.3655436974,0.8366239004,-0.5907065524,0.0076341053,-0.907200055,0.5551668385,0.5777278955,0.9993996925,0.5702431044,-0.2304572008,0.6671118938,0.09971048,0.3872365248,0.5795080059,0.9519240247,0.7269178749,-0.9314849562,0.1077255229,-0.1484714735,-0.2860900694,0.0193619766,0.096176393,0.491743316,0.8327654885,-0.9237048361,-0.3991156186,0.0712414457,-0.5210572162,-0.1421727911,0.5528917593,-0.10119234,-0.6419229273,0.2923658516,-0.1152607932,0.5481400985,-0.8960638772,0.5079671709,-0.110376949,-0.6235659513,-0.4727317823,0.8691747381,-0.8714467515,-0.4569544178,-0.4973920404,-0.1810411484,0.378531215,-0.8417043269,-0.7491610984,0.2103265519,0.0967368573,0.6731257373,0.6885394514,0.8159262562,0.8235570953,-0.0945072424,0.467290213,-0.3714205647,0.2666303836,0.8108351555,0.443040664,0.7707934306,0.6630078376,0.2235146396,0.3969786699,0.0946345469,0.1680939537,0.9474425664,0.300198905,0.5730321315,0.4747741342,-0.2163466539,-0.9054698803,0.4318882385,-0.4166785825,0.2349614587,-0.6599700376,0.6683274267,0.3868606773,-0.3470290802,-0.0623645652,0.4366190181,0.1723372953,-0.1623836209,0.8565895578,0.5762172544,0.5502376519,0.5244355135,-0.4491619775,0.551210653,-0.9161385934,-0.5010995264,0.2920954693,-0.8890370409,0.3233059154,0.4716972301,-0.9889329517,-0.1491583955,0.4879797728,-0.0609607581,0.4928045082,-0.0302899335,-0.6347356804,-0.4082027306,0.606698666,-0.3670333711,0.582083422,0.0469400682,-0.0216231104,0.3539899225,-0.1493575994,0.1280661726,-0.4564567945,-0.6664085721,0.1226902758,0.1035189294,-0.9313801472,-0.9414458079,0.8066252083,-0.2815956039,-0.4081300298,0.1511095023,0.4349885715,-0.7015246751,0.0095667024,0.4912485194,0.1725319595,0.3163218567,-0.0710984145,0.8739351039,-0.3429169576,0.6638595506,0.3897295924,0.1848359625,0.6192895484,0.9017128341,-0.6441419642,0.5230536257,-0.5775076639,0.4518208499,-0.4744704092,-0.332774674,0.264580374,0.3936556315,-0.5370843648,-0.3933323751,0.808425994,0.7906801576,0.7991162095,0.4802851597,0.046764286,-0.7023414825,0.0284646663,0.5712131783,0.8190782891,0.76929599,0.4504579331,-0.856685791,0.6337753391,-0.4805675897,0.9075641304,-0.1534729683,0.6819877504,0.093498433,-0.4896533366,0.6416977855,-0.6769373404,-0.7833178981,0.4139375006,-0.6845161701,0.265854769,-0.3425677079,-0.66605039,-0.906178188,0.3947873598,0.6530372955,0.885027036,-0.8782656164,-0.3923668781,-0.4987153256,-0.7282677371,-0.6993743639,0.8019465269,-0.4703830561,0.8281280606,0.9484640257,-0.7815582425,0.4935253833,-0.7807012942,-0.3281232091,-0.6012840254,0.056534672,0.2229222084,-0.1612473851,0.1592251956,0.1196447808,-0.6619013233,0.318339932,0.3102532763,-0.1026620853,-0.7125348012,0.8070272603,-0.6088312712,0.6871842001,-0.0647263143,0.7795981565,0.7392872879,0.8890500574,0.0638406488,0.6646702662,-0.0440558948,-0.1697952423,0.1132696092,-0.7671353503,0.8672530533,-0.7557738121,-0.4192598008,-0.8874755065,0.8947818925,0.8474325647,0.5949324508,0.8988000238,0.276649258,-0.9884939282,0.7014148113,-0.8700109256,0.860114513,-0.9434176947,-0.7862582115,0.6374637575,-0.3239322484,-0.4410410911,-0.7946943426,-0.0168024212,0.6204508399,0.573216833,-0.5042488596,0.700826799,0.8870020783,-0.9733447819,0.1575689823,0.6068522193,-0.2167923702,-0.9762680892,-0.7460605565,-0.6984356131,-0.7925279373,0.9496986729,0.2075251555,-0.5029041184,-0.5960554784,-0.4994367343,-0.5816278321,-0.7077776286,-0.61281303,-0.3904167073,-0.1582318481,-0.1753217195,0.214797096,0.1750732763,0.3529372438,-0.8982259906,-0.0329922904,0.4427620754,0.35091636,-0.7413393843,0.768361467,0.7423100683,-0.4296740739,-0.001803751,-0.6157184923,0.1806055445,0.7386766579,0.471896102,-0.298018786,0.7209290592,0.4555872888,0.0106813713,-0.2851478937,-0.1398295037,0.4230975917,0.8322997482,-0.7283456964,-0.7151210401,0.1940231531,-0.4537163483,0.0252539261,0.7540892681,0.3663126195,-0.3996012699,-0.1022567101,-0.7526714796,-0.6616580364,-0.8358640686,0.6196348693,-0.1600498111,-0.4215172505,-0.5261726916,-0.3132219305,0.7852965114,-0.2667592484,0.224159049,0.371867757,0.9542578472,0.4815901585,-0.6609722637,-0.5877479779,0.1549632217,0.9750079447,-0.685858455,-0.8081603852,-0.2217288384,-0.4096814078,0.0353649547,0.2427603742,0.8559644614,0.8222963833,0.2267162924,0.4159558429,0.4125206155,-0.3862471422,-0.543035335,0.4399360469,0.3980423833,-0.2655827483,0.5471783517,0.8901632814,-0.9070793421,0.0801560396,-0.6307607364,0.9620239186,0.6608672006,0.8859908799,0.5342257133,-0.2022240805,-0.1954359084,-0.9171375978,-0.7035115949,0.2800242016,0.7865734249,-0.1443221771,0.9154404289,-0.110167903,-0.024932283,-0.5502140186,0.4521499673,0.5489798134,0.5482421491,0.3473396995,-0.4536509739,-0.2275108671,-0.5688193027,0.301055921,0.3290285188,-0.5823071466,-0.9312411371,0.5361686567,-0.3503368311,-0.5308815597,-0.9191301402,-0.819562978,-0.7095773739,0.909349988,0.7400591971,0.0605889859,-0.1225644406,0.910892949,-0.9284488894,0.1259657134,0.410179832,0.0380166965,-0.1388046882,0.0654456692,0.0715911549,-0.4073431282,-0.4998648164,-0.5081710684,0.3858034088,0.2182633107,-0.092353611,-0.0586361598,0.4249351273,0.6042439134,0.4035961901,-0.308129061,0.7520705468,-0.1726798422,-0.7279918634,0.2972744123,-0.4686309723,0.9320480585,-0.0646053005,0.792102,-0.2309728354,0.0417832087,-0.7264764663,0.3001024009,0.5176888385,-0.4141182238,0.0188724733,0.123518625,-0.3464151283,0.9555527156,-0.5641537325,0.6293341013,-0.6881638805,0.3563026643,-0.5280566431,-0.7713119492,0.0830965333,0.4146139214,0.1230109195,0.3816067261,-0.0689331873,0.6519112675,0.2883233177,0.855357269,-0.9136052668,-0.0642787925,-0.4296860492,-0.1874867337,0.077179384,0.9428600787,-0.3970249476,-0.8324437113,-0.7235503151,0.9890749113,0.1756097003,-0.7885446087,0.3364202509,-0.9187184547,-0.1559034398,-0.4893386334,0.2781786606,0.9405552872,-0.9805463912,0.015465321,-0.5556217017,0.8073404511,-0.5787823176,0.3129482265,-0.2971751209,0.5413194089,0.1772383261,-0.4589907727,0.506411552,0.8414777885,0.6578250858,-0.1066679116,0.8861870831,-0.2798581092,-0.9007666551,0.7846582453,0.7100843528,-0.9068284626,0.5219491838,0.869185982,0.5148056144,0.6019587362,-0.0255922288,0.3192404247,-0.4111615486,-0.229724555,-0.2826504554,0.1556077226,-0.9318295975,-0.6924916118,-0.1861000704,0.3515150622,-0.851406484,0.2687788808,-0.7814461604,-0.0532241211,-0.0716358918,-0.1992532151,0.1910955343,0.9148584213,0.7646169435,0.2029147584,0.8958143838,0.7811509282,0.1286126036,-0.8318123649,-0.4432759591,0.8806639748,-0.3596348205,-0.7799097111,-0.8556919747,-0.3985961914,-0.8394205691,0.6164682024,-0.7356385751,0.8021585836,-0.8342889727,0.6644463203,-0.9523873546,-0.292750212,-0.3092901134,-0.6536912086,0.7391520574,-0.4184143783,0.8612890511,0.9708251401,0.2251821989,-0.463685804,0.7390154941,-0.5341317613,0.4406196044,0.8632033967,0.4889836873,-0.5914210927,0.9351709917,0.1766831598,0.7221230608,-0.4004020023,-0.7534606801,0.3755975076,0.0710993441,0.8915393983,-0.9638138012,-0.4282271659,0.9136926194,0.7446654415,0.6264709329,0.6201271754,0.1266980112,0.0625902494,-0.3323664408,-0.1099744905,0.5911699848,-0.4706513999,-0.4249549076,0.9350302353,-0.7068466586,-0.030322697,0.8318795597,-0.6356342706,0.7525957411,-0.7093102175,-0.7811583413,0.8446940247,0.5585613267,0.0888235197,0.2438153096,0.5031821269,-0.1379123821,-0.7850360295,0.1490772594,0.0803230177,-0.3268337886,-0.0726804301,0.210712361,0.9019781851,0.6787448697,0.2348277604,0.9261040386,-0.924661818,-0.2273259162,-0.8594690796,0.3482795584,0.1864433639,0.7515268844,-0.1592464568,-0.3800920233,-0.5244926535,0.7854550321,-0.6329537765,0.896760014,0.3987011624,-0.8067704325,0.7083333831,-0.9165816373,-0.5975805513,-0.7954265654,-0.982405142,-0.1575080518,-0.0757674351,0.4181370637,0.24564363,-0.0816167216,0.4607851591,-0.5955878645,-0.3175009009,0.3374196944,0.7704689818,-0.7711705398,-0.9872388728,0.6078698893,0.8555110711,-0.8133477738,-0.7766472822,-0.9475413482,0.8201017256,-0.1219232881,0.550787683,0.8386411431,0.4641462395,0.0036707954,-0.006180479,0.8701098472,0.1883827946,0.8716366705,0.892200256,0.4449275124,0.4978091876,-0.7904535603,0.6226492157,0.719683749,-0.362104569,-0.4092168826,-0.385260036,-0.6176940396,-0.8955608643,-0.8933704671,-0.6662454208,-0.5348863426,0.1584160176,0.3401514465,0.7096154827,0.9761074929,0.0363777958,-0.4276009185,0.8687756763,-0.2729852001,0.9058240824,-0.5143745363,-0.3921508703,-0.2234429395,-0.6686876596,0.6919294008,-0.0957752301,-0.3001319344,-0.7203193182,-0.6512883058,0.4227487408,0.0615770365,0.2688814047,-0.8651252897,0.7011867016,-0.7916293433,0.7781147405,-0.4229402677,-0.5363651532,-0.5916741861,0.9929260135,-0.534673632,0.3784822114,0.5324731912,0.5572154789,0.871081979,-0.6088969082,0.6405451229,-0.9184560245,0.7925939821,-0.3233968515,0.9439220403,0.85958915,0.8540666013,0.2121172916,0.987973858,0.68171312,-0.6412740294,0.2939256035,0.4163765974,-0.3931107321,0.1014581685,-0.164753254,-0.4841445236,0.855259772,-0.8094044154,0.4940407592,0.1710652015,-0.1010532089,-0.5773805898,0.2185177883,-0.467481367,0.8894534334,-0.8309934419,0.4547689881,-0.9742406593,0.9400471813,0.0228657423,0.9024884053,0.6367844133,-0.1598753564,-0.25791088,0.5502655509,0.5535319249,0.2930950665,0.3926603599,0.3345264874,-0.1288634905,0.7225856968,0.3664607132,0.7857808748,0.2122661309,0.4336855993,-0.475011693,-0.7358210331,-0.907447423,0.7434751053,0.0743163733,0.669923157,-0.6782891721,0.0609209362,0.9779586135,0.5614226806,-0.8108335019,-0.4689493477,-0.9282069692,0.7573956415,0.3325112818,-0.6437042087,0.6685219357,-0.5556948494,0.4193907939,-0.274739977,0.8751755893,0.2942065272,-0.2006722843,0.9606442767,0.0124455245,0.2643142508,0.7048402223,0.5715047831,-0.1989684005,-0.6904374939,-0.7879265977,0.4137492072,-0.7015550104,-0.9078755351,-0.4938795359,-0.0836828742,0.1747415007,-0.7842588611,-0.0890594872,0.2328284099,-0.8388942527,-0.8238578294,0.2173975993,0.0844242417,0.4025783331,-0.8010274938,-0.4776777857,0.6952131406,0.6571608431,-0.9089818592,0.6090767014,-0.3474609257,-0.5545453594,0.7349371288,-0.0874369003,-0.9542461965,0.1766735299,0.6649608129,-0.13278753,0.2600038889,0.6113445671,0.8101504185,-0.2719595971,0.0901287021,-0.6121746122,-0.0097401525,-0.7351658897,-0.8735093774,0.0111129285,0.2736252244,0.6458473241,0.343015185,0.3535685883,0.1145657622,-0.1356673966,0.0633054369,-0.2146745491,-0.9470156782,0.8403775298,-0.8802869859,-0.3534803512,0.8559475386,0.6906309834,0.2353435409,0.0655153809,-0.7791435999,0.1947414105,0.9850772909,0.6820696823,0.9066869863,0.0295609418,-0.6060463998,0.5233473511,0.9504852847,-0.520877841,0.5243589132,0.4235152972,-0.5730169862,0.0502099919,0.5781086133,0.3169933828,-0.7023866353,0.449190915,0.1433915575,-0.1892362933,-0.2030965966,0.0202694058,-0.5079938699,-0.7450929973,-0.6678399687,-0.5609290997,0.2041368789,0.1691796734,0.1438543245,0.1601089413,-0.4878594534,-0.955439733,-0.8863242282,0.9614481557,-0.9935273349,0.7665929818,0.0988596841,0.6305635906,0.3749740848,0.8299643298,0.718113833,0.7002250146,0.9279114012,-0.7961710588,-0.7512071223,0.6536550363,0.4998151712,0.4458661805,-0.6329411417,0.9396108075,0.5211237941,-0.1643603684,0.5504710036,0.4356084038,-0.619544696,0.0353135071,-0.9500264413,-0.6236513288,-0.9504520312,-0.9882123571,0.9925017276,-0.6370873817,-0.1896370214,0.3830865359,-0.1394852216,0.1034595086,-0.1773369719,0.5121508616,-0.9597281008,0.8940190755,-0.949190849,0.9095695065,-0.3527431953,0.336501877,0.1455114524,0.2154717997,0.9718788613,-0.7400301905,0.8546662775,0.5739563145,0.2115475518,-0.8002230728,-0.2719202073,-0.1912031639,-0.3089556332,-0.7295591749,-0.0233885734,0.9541029822,-0.522176865,-0.6050100378,0.4151661955,0.8214824634,-0.1652956099,0.2499775005,0.7954957116,0.7635323041,0.0397598797,0.0864742737,-0.937670672,0.8879815497,-0.3060859676,0.9718615879,0.9146241934,0.6623488829,-0.449366546,0.2770670976,0.6137051421,0.5792996886,0.4980555853,0.0986880122,0.5009390838,-0.3631898136,0.9422923403,0.3562460319,0.7488997918,-0.0518103324,-0.2427141877,0.8376715198,0.9957466015,0.2646808645,0.1974431921,-0.9625761808,0.1733701074,0.0762854205,0.0454269212,-0.6849642757,-0.9879677001,0.1598282377,-0.6355212039,0.9962072524,-0.6356901864,-0.3331321811,0.7424748473,0.6042150702,0.6848949546,-0.506654049,0.2200012184,0.2286370306,-0.622836019,0.9208749921,0.7485388614,-0.7632687101,0.4338802454,-0.6472921783,-0.8689780935,0.9947699687,-0.918647645,-0.6371147246,0.9746603052,0.0335781377,-0.2794477131,0.2270023784,0.3828209133,0.902961235,-0.3557264525,0.4857446339,-0.598919132,0.6292759746,-0.8131416355,0.5375653512,-0.4406686917,0.5361997125,-0.8697091618,-0.83949394,-0.6906967688,-0.119662044,0.4413911752,-0.3238973482,-0.1531782948,-0.0685627065,-0.1073423253,-0.4108983342,0.0369297381,0.7798755027,-0.5345262785,0.5735549674,-0.4305142148,0.5892161128,0.9026727363,-0.3585280537,0.3244459768,0.6548626553,0.8449813565,-0.3683761414,0.9925484394,0.5486372486,-0.2317205432,0.9799412773,0.3084407956,-0.8206213486,-0.4071310022,0.5031286591,0.0877575382,0.5819480777,0.5369276695,-0.4974870689,-0.9044220813,-0.2731919963,-0.0124413139,0.1535208888,0.4862298008,-0.3132940178,-0.4715737024,-0.0999362148,-0.0211723755,0.6213137846,-0.0503833706,-0.1038555338,-0.5609991666,0.3166194762,-0.7510201265,0.7649139507,0.6821851506,0.5235795462,0.6945545673,0.9558606673,0.5206540434,-0.3135739419,0.9177486455,0.3464908221,0.1243969854,-0.0740305418,0.8182671812,0.8120763397,0.1405867915,-0.9338278703,0.6238839195,0.0018072193,-0.3785600585,0.662711498,-0.2902738801,0.700064638,0.3813116664,-0.4961020701,-0.6833870726,0.2505275094,0.1864176497,-0.1503356399,-0.5010390988,-0.2054039108,-0.1976141978,-0.4630690578,-0.0588936434,0.1948877803,0.5236709493,0.2080729698,-0.744748789,0.7673107589,0.0606176754,-0.7537623681,0.1179569324,-0.4842157341,-0.5636817559,0.5347204449,-0.1772379387,0.7070150353,0.6554108255,0.0362833642,0.2156271652,0.4845628789,0.1130877197,-0.3561858549,0.4676007283,-0.1564265039,-0.5670877885,-0.0951429905,-0.9955846341,0.5631260585,0.2088742804,-0.1322463192,-0.3082915393,0.6133175205,0.394057451,-0.0422855193,0.8519459202,0.3815111603,-0.9587613189,0.0557407413,-0.6134283064,0.9989077002,-0.1654302346,-0.0058852017,-0.0896351434,-0.8877895783,0.1277218512,0.9547363862,0.1036567554,0.9184295173,0.8988199263,-0.8413873353,-0.1684234434,-0.2820458496,-0.2654069327,-0.9312473548,-0.2235032105,0.2352466775,0.8446121911,-0.3668229142,0.4646313798,-0.9195358133,0.6019772825,0.3803513893,-0.9699333159,-0.4037670635,0.8465799041,0.906151219,-0.120855422,-0.7311111384,-0.077774432,0.1994390962,0.6790547018,0.6162965652,-0.0034425322,0.4449373476,-0.9589857257,0.1927856352,0.7491222504,0.9346806602,0.0400185847,0.84691998,-0.6615500052,0.7539613067,0.3798517255,0.4086426152,0.9945400944,-0.3501343521,-0.493883166,0.7141874628,0.1358327325,-0.2416620282,-0.9641763001,0.5480108842,-0.714237145,-0.2496873907,-0.4938486415,0.8629130222,-0.8716942934,-0.6838716274,-0.7998941638,0.8308234115,0.49275126,0.3318461269,0.3024350652,0.7088956418,0.3865193864,0.4446618089,-0.2377111937,0.5487892399,0.8258476061,0.5350823775,-0.7827821935,0.4481382596,-0.5990041868,0.7732815011,-0.7583971774,0.4674424376,0.7714492735,0.7786030053,-0.7688943793,-0.0239165009,0.9961504896,0.8726886256,-0.4459520495,0.3557299344,0.3449428587,-0.5564495307,0.1817107147,0.6009213496,-0.1820100142,0.3862955331,0.7174738267,0.4120387249,-0.8568535575,-0.8423355647,-0.2620670142,0.7364468038,-0.7077117839,-0.7196319081,0.753570574,0.7587860618,0.1195798719,0.5121395147,-0.526208759,-0.8477914026,0.2037498703,0.77183564,0.7797021616,0.012355757,-0.6893587865,-0.4380102646,-0.2681220258,0.5311608146,0.5831866485,-0.1358144917,-0.8164805846,0.1411977879,-0.3133380943,0.9631812317,-0.2882872931,-0.0907914806,0.8563448088,-0.5460640939,0.9650863081,0.6637599848,-0.792299579,0.9273722471,0.3396076974,0.8220415799,0.7332969992,0.8209252398,-0.6115147375,0.8774478775,-0.5212214867,0.5344405314,0.0952754994,-0.740549881,-0.7184246814,0.1643560957,0.4573008936,-0.1096506254,0.4605491659,-0.4038007482,0.7518297469,0.7041084473,0.5487951537,0.8832095093,0.3073525046,0.3277340937,0.9788817227,-0.0384866955,-0.0699478893,0.2152670563,0.2617884306,0.770038174,-0.70181988,0.0845653284,0.9608726956,0.2086819458,0.0929071886,0.9422173805,-0.0668918734,-0.6024142784,0.2974166188,0.8503007208,0.4521664871,0.6387342681,-0.3021437462,-0.6936268968,-0.6905342233,0.1601059281,0.3092059182,0.1866803017,-0.905429558,-0.8217862425,0.6190027201,-0.1021751892,-0.761548236,0.9921888364,0.1597220913,-0.0175727072,0.0560271595,-0.0165860452,-0.4574535242,-0.1914805142,0.4006935233,-0.2167307495,-0.4937649725,0.2129453166,0.8950106657,-0.8154932089,-0.1776715385,0.3094015471,-0.7603266476,-0.4471496329,-0.0779995927,0.3965077747,-0.7642462801,0.3417798588,-0.6675504241,0.5349556664,-0.552908106,-0.0281321177,-0.454058627,-0.3577984374,0.3377888045,0.1439957699,-0.0616749621,0.5143290023,-0.5009254442,-0.9066715267,0.1070769318,-0.8055513997,-0.8205587549,-0.0220804471,-0.2569891254,0.9608837744,0.1893561364,-0.9312188303,-0.6296949909,0.6576475551,-0.2669261612,0.2590294348,-0.1547243931,0.3268285595,0.3523005363,0.6382703891,0.4967115765,0.1645958786,-0.9537115541,-0.3597418039,-0.5280881506,0.7231294261,0.6830878181,-0.0726503759,-0.1443426401,0.1752399787,-0.6314737612,0.6327476628,0.6839329598,0.2230746286,-0.3600625743,-0.0817221504,0.967383018,0.5698450987,-0.284436643,0.2182784444,-0.1656571504,-0.0789818428,-0.191127911,-0.2479572843,0.8805250325,-0.1426948908,0.5970435311,0.517067891,-0.68831417,0.3242053942,-0.9566665373,0.078919421,-0.4148489478,0.7662565319,-0.3524451929,-0.638889442,-0.6365295059,0.4850974088,-0.1303323814,-0.9331795935,-0.7659591586,-0.9617211737,-0.6006191398,-0.2789734121,-0.0777354818,0.5075380722,0.5047724921,-0.2034325555,0.8863928039,-0.7211110155,0.6206689798,0.6577174388,-0.3985301378,-0.7086302843,0.3400977243,-0.7273390044,-0.50764168,0.0664249984,-0.6031591209,-0.6510773876,0.1624830432,0.8690524373,0.0511924766,0.6604973006,-0.4397348036,-0.1522818878,-0.428463217,-0.2008769241,-0.478341905,-0.2270307892,-0.6214226589,0.1084100335,-0.4904355668,-0.4022975557,-0.5540638347,0.9664081199,0.4825675637,0.2731322935,0.9294288066,-0.5130353245,0.6096670279,-0.9130557658,0.1095835335,0.5786890037,-0.4964462488,-0.8553123742,-0.8194456298,0.9507342494,0.2084417045,0.975469241,0.2947239705,-0.9095586545,0.8277761615,-0.0231516673,-0.7241358262,0.0101737479,-0.3024721147,-0.9762214812,-0.2569410365,0.1287192949,0.6288341565,0.9170149998,0.6057136658,0.4368387298,-0.9588078625,-0.659547832,0.8638369141,-0.5153401202,0.919110127,-0.8497526343,0.6167785426,-0.1948172678,-0.551934439,0.3981160017,-0.7665258526,0.680181262,-0.3308933062,0.6644409576,-0.6483292581,0.5771420785,0.0215229284,0.0408561599,-0.7135362458,-0.2463202089,-0.4948912038,-0.1293419385,-0.8283715364,-0.9904974083,0.3093337555,0.2544584346,-0.848315166,0.0218566528,-0.9987303426,-0.2027934922,-0.419811007,0.3515929414,0.7954082689,-0.755694634,-0.6721275765,0.657652462,-0.0717246395,0.2267468159,0.3399459573,0.5776924946,-0.8058606458,-0.5649115317,0.3448690542,0.6348979217,-0.4476485726,0.5652059656,0.9360379521,-0.9702028586,-0.4928423042,-0.0915352746,0.3637478136,-0.184131005,0.1726214169,0.3522234901,0.9950137089,0.6969382981,0.4276623644,-0.3406143426,-0.2233384914,-0.9131467738,-0.5018695581,0.8979080736,0.0831725577,-0.2215491622,-0.467921021,-0.5651825398,0.6098934007,-0.7813232918,0.2318682261,0.8191046278,0.511585751,-0.8657478124,0.5640463018,0.3554871235,0.7022593006,0.8415492655,-0.9373251665,0.903712245,0.2897738601,-0.1026313754,0.0890726748,0.674990127,-0.6195306575,0.8927338598,-0.5338498704,0.016302481,-0.4763323902,-0.833645145,0.7166247016,-0.7456177339,0.8483362901,-0.3262299561,0.3864093585,-0.1382180014,-0.3007048914,-0.8827527271,-0.4662346375,0.9372498709,0.3286965244,-0.7377328184,-0.1560785359,-0.6269321486,-0.9166307503,-0.7762723209,-0.3132403888,-0.8765776765,0.6000477454,0.1421833498,0.0278789505,-0.9346256588,-0.9401192916,0.7240129687,-0.5453691588,0.4827275104,0.2810542603,0.0167871609,0.3296962392,-0.5667276845,0.2662989349,0.8398151904,0.9539127953,-0.5930359891,0.0310941711,0.8499975683,-0.7373300417,-0.1547916031,-0.3540139508,-0.1046198747,0.0609103289,0.4332726605,-0.2865908949,0.9860270876,-0.4844568971,-0.4783674947,0.0705667891,0.5405835236,0.2310657371,-0.3740613444,0.0586267371,0.9877584093,0.0153039361,-0.0874899255,-0.9487628104,0.9110871463,0.106063881,-0.6751342207,-0.2616454102,0.5898689937,-0.0391200754,0.2661900886,0.727354619,0.2352952864,-0.4013202576,-0.337586361,-0.9181233761,0.9371997964
   0.8487137012,0.9486940285,0.265202602,-0.9000167233,-0.4929225778,-0.1111074666,-0.1241449631,-0.1329597254,0.7370145862,-0.4571487372,0.7817976381,-0.1777180623,-0.4382003066,-0.6011250416,0.5798987555,-0.5414328055,0.5239580467,0.9428757056,-0.3609580668,0.7636640035,0.9151471659,-0.4525145639,-0.5439402757,-0.3903444759,0.8417666346,0.8815324366,-0.4183239629,0.2220036561,0.4020539185,0.7180435508,-0.9826442034,-0.754267361,-0.6290544262,0.2426814944,-0.5907729528,0.3632768738,0.29332722,-0.908154584,0.7205223304,-0.6198891243,0.9713879494,-0.5270365263,0.7698519671,-0.7245825587,-0.1027971142,-0.1160122977,0.6941699099,-0.9226771693,-0.395139408,0.3389875918,0.67660314,0.690674967,-0.5537058275,0.4275365077,0.1166729345,-0.2355394973,0.5880919879,0.2297592537,0.9830185669,0.1892531402,-0.5923022481,-0.6995668153,-0.68442504,-0.5253548703,-0.781648279,-0.4290661054,-0.7941733758,0.9230601753,0.9018813359,-0.4119382869,-0.7994653181,-0.4646655228,-0.6834907055,0.2172820821,-0.4373193796,0.5700716399,-0.4020473409,-0.8579458646,-0.6338073184,0.4727779184,-0.3499509579,-0.57942089,0.6641279556,-0.7567053187,0.0744290955,-0.655738917,0.9231252549,-0.4445769023,-0.4046845093,0.1370336848,-0.6500655429,0.299470412,0.8030296742,0.9055385254,-0.2021330545,0.6163295123,-0.4702592599,0.6370423436,-0.6904419858,-0.2367844817,0.4474529284,0.1554255967,0.6870129075,-0.394797845,-0.2417831325,0.7395504783,-0.6977596078,-0.6216462909,-0.7493971353,-0.0133954896,0.283522962,0.1487089737,-0.2487253967,0.1339339796,-0.7143805474,0.6854520065,0.012686387,-0.3957389831,0.7026557046,-0.1562255952,-0.8871835862,-0.683375474,-0.4806322283,0.1667422104,0.2166097052,0.486758702,-0.22221741,-0.9948263022,-0.2595329681,0.6573783374,0.6167103759,-0.5684688863,-0.1710668405,-0.8078644774,0.513416658,0.4904653231,-0.3396063376,0.4010652733,-0.0310139046,0.29903139,0.3994416718,0.7962870727,-0.6541889106,0.5872231042,0.094189804,0.5763285436,-0.241389872,0.1572152276,0.4169628569,0.9844352377,0.7353076956,0.4813636457,0.8096037191,0.4205219279,-0.1369563226,-0.1244603194,-0.6290450028,0.0355965557,-0.6871014975,-0.8191496242,-0.9050633251,0.2299634331,0.8102663047,-0.5346168011,0.8962884945,0.1572155612,-0.9960054396,-0.0784939319,0.2901690553,-0.4126454651,-0.5885917677,-0.3119432311,-0.3003253358,0.2623378105,-0.0096513392,-0.3708562597,0.3601977259,-0.0242703108,0.9119706647,0.5886513304,0.762123776,0.0452594629,-0.5985915424,0.4180630572,-0.4960549533,-0.8603703559,0.4542695487,0.1448418366,0.5025370534,0.2782914024,-0.9816818967,0.7763690639,-0.7068444598,0.7246031346,-0.1788833148,0.1932500035,0.9822399276,-0.212748352,-0.8525564524,0.0782297427,-0.8260635801,-0.2491475184,0.5823869567,0.3882054374,-0.2589471582,0.6091661103,-0.3114648473,0.583627515,-0.859066251,0.4102873944,0.5402575148,0.3132751806,-0.7243716209,-0.645039129,-0.6850281942,0.0377617064,0.4710483203,0.1173885929,0.7005909143,0.1875282032,-0.6799639574,-0.8624069946,0.9900790022,-0.6330431956,-0.846455798,-0.680667045,-0.8444642445,-0.9854302558,0.549801343,0.4267619112,0.1850968551,-0.0399842712,0.2411657323,0.8028375853,-0.1468908112,0.7352573599,0.5288951243,0.2827463125,0.7183931032,-0.1705062666,-0.0348084207,0.0460768402,0.4267877593,0.4358274547,0.4469856789,0.6619730749,-0.7327670892,-0.7820729915,-0.7036446749,0.7325746221,-0.2870947615,0.1501595773,0.3302256595,0.3538952443,-0.9539605498,-0.7002521185,-0.5983630847,-0.771503431,0.3289466367,0.516122123,-0.1557538873,0.7415478936,0.8144910687,0.775694236,0.9955695655,0.8245497607,-0.964406039,0.0480876903,-0.5332772846,0.6134928587,0.2031763206,0.8032693426,-0.4274469747,0.1359402908,0.844957645,0.4108417588,0.2958287634,-0.8247817786,-0.5307559448,-0.6055063105,0.2311954372,-0.0289450395,-0.2021974643,0.597876651,0.7068547862,0.5523795472,0.6614663172,0.8840367545,-0.3704687914,-0.2092749138,0.2488596345,-0.7885891794,-0.4257427312,0.6430243398,-0.1360816835,0.6347176425,0.1469200437,0.5589785746,0.7220895429,0.1242379165,0.6544242746,-0.5612080674,0.7644604622,-0.9535167556,0.5439059401,-0.2320144386,0.8521417676,0.1111968794,-0.6673799535,-0.8543313532,-0.3546382771,0.2447368324,0.1600654801,0.9054908251,-0.5113461244,0.7637039239,-0.813991167,0.7713920266,-0.1613231457,0.1148958969,-0.1032280753,0.3504195642,0.3266199064,-0.9993749863,-0.7106823186,0.97429826,0.740447726,0.3358034839,-0.5515267729,0.5892395995,0.3856706741,0.568669971,-0.6581544943,0.6009594627,-0.3038620276,0.5500899903,-0.1671531121,-0.7889012841,-0.8489635378,-0.1385937742,0.0607162974,-0.5020722068,-0.8109864255,-0.4382723775,0.0156925291,-0.5904315129,0.478281421,-0.8638298491,0.0751875271,-0.2700031048,-0.0237565592,-0.4772184541,-0.4994549401,0.0596525163,0.4018266219,-0.2422450731,-0.1056811156,0.9179561331,0.121129442,-0.816753881,0.7234200345,-0.5795344939,-0.7411643143,-0.2478639765,-0.8333595828,-0.2572584777,-0.4600601313,0.5202373969,-0.3836505514,-0.2504207873,0.5873314041,0.8670990461,-0.1962556132,0.5080558475,-0.0745814496,-0.7178660802,0.4553250202,-0.0261922198,0.1666703848,0.7411260053,0.4148410154,0.232619994,-0.4737212234,-0.8029578804,-0.631222192,0.6485065243,-0.0297770408,-0.8122818743,-0.3256416554,-0.1783972388,0.3206856402,-0.0198172593,-0.5565293124,-0.7203341672,0.7414188998,-0.5014409972,-0.9571295935,-0.0846646306,0.6570232301,-0.8978418317,0.8773572855,-0.4907458481,0.964096877,0.610601375,-0.573405499,0.1751532664,-0.553978095,0.0335417919,0.9926741161,0.5805547907,0.9666533647,0.8040833131,0.9869363691,-0.9032035925,-0.138574531,-0.5043732174,0.4405075122,0.1938756374,0.7793636054,0.2365066899,-0.9136286069,0.3714159149,0.2346956035,0.9629213436,0.123578155,-0.5779032673,0.6058246037,0.1579934618,-0.8083134685,-0.3493095261,0.8026100839,-0.6303352428,-0.5924171817,-0.8213541174,-0.1159073053,0.7169228851,-0.9917517466,-0.4000257371,0.2701017402,0.2769493093,-0.6288445062,-0.9181583264,0.6954902605,0.16982133,0.265451623,0.4266549469,-0.4829728099,0.5033914909,0.8912228524,-0.8287484763,-0.2411409393,0.3167944137,-0.418818008,-0.5624529249,0.1453707885,0.983782003,0.9042528388,-0.6217586099,-0.6619323036,-0.0315876386,0.1372975633,0.4289109327,0.2927082664,0.7980012111,-0.812411762,0.3758178022,0.0298252398,-0.4335226861,0.0502280294,0.7359018097,0.1013968616,-0.4958750031,-0.2334028796,-0.3445209266,0.0350280032,-0.9073502092,-0.0605100565,0.1946787056,-0.1971768056,0.0030905995,0.8216747899,-0.7631928079,0.0743451005,0.4911320608,-0.2600157218,0.9787731149,-0.3357149013,-0.2638252732,0.015082223,-0.6841290305,0.5357587665,-0.9324824661,0.4623303092,0.6856443673,0.2828578124,0.4545986255,0.7575225466,0.6024306822,0.7307372736,-0.3787253857,0.857527458,0.6549218196,0.5949215079,0.6563529611,-0.2439495373,0.2480341804,0.2324484567,0.6761433639,0.5336748289,-0.8962263034,-0.8201304348,0.2602472161,-0.7103894982,0.460501268,0.7195522914,-0.365613722,-0.8813589443,-0.5281070162,-0.0906337072,0.3964022475,-0.5888264373,-0.3978601021,0.1615795322,0.8609199339,-0.8982506324,0.0756915235,0.6978247312,0.2824457269,-0.6192400151,-0.3521929521,-0.3640976661,0.0864766026,0.9010282231,0.3355408434,-0.3292037547,-0.6540352621,0.232122933,-0.400923933,-0.0683460248,0.9728014943,-0.5396373044,-0.7324913879,0.5955487613,0.7382888361,0.5990795556,0.1605703668,0.7257933559,-0.5846630178,-0.9793900905,-0.0347308034,-0.8702384106,0.9669596474,-0.793790169,0.3406509842,0.3113863621,0.0597192513,0.6775679295,0.3954216488,-0.2429879172,0.2941127935,0.3872563263,0.0285124905,-0.7504029286,0.4277030472,0.2728448407,0.0189854229,-0.3114489627,0.1675589681,-0.0162455292,-0.0165846675,-0.8780225519,0.0830801487,-0.7798481587,-0.6500637712,0.2367755873,-0.2755090361,-0.4209568417,0.1800474059,0.060181658,-0.7769363377,0.777153819,-0.5827989072,0.1669567319,-0.1731977536,-0.0525779787,-0.8713789635,-0.1217660075,0.3640414617,-0.7165370782,-0.48237458,0.0729819955,-0.2536259753,0.9851751369,-0.5070151958,-0.9140581425,0.3437465641,-0.0058965803,-0.5485937928,0.8838565758,0.3244623596,0.2492080172,-0.5712999584,0.2173618587,-0.9254063598,-0.8236788577,0.2972383444,0.4071873208,0.7206057932,0.3695664477,-0.4925732569,0.1108128912,0.2472198068,-0.6830404939,-0.9984748675,0.967319544,0.7769781162,0.049001095,0.4142819234,-0.7921954562,0.6063147497,0.7722894256,-0.4470247063,-0.159532365,0.3805957161,0.9893354439,-0.1470691095,-0.7193688728,-0.0923658657,0.9068567146,-0.996104487,-0.4172317724,-0.2008116617,0.3663546894,0.188770626,0.5383011125,0.8733733315,-0.1096215286,0.4489646202,-0.5060612634,-0.2355668145,0.6609076315,-0.4676632793,0.2426647419,0.1648395483,-0.3806168005,0.9061914976,0.9160823632,0.8317485273,-0.4531589629,0.3464305945,-0.0767428823,0.8097547628,-0.4795210681,0.1737526536,0.3523114025,-0.2841198767,0.8907720644,0.3277006595,-0.9378682853,0.1781640632,-0.2300566541,0.7911569172,0.6014014772,-0.5312565941,-0.4738661713,0.7267984552,0.9320486138,-0.6009108141,0.8713757303,0.6919818615,-0.7578387072,-0.4164204453,-0.8928017568,0.0839726229,-0.4606855535,-0.8756335731,0.0271273239,-0.5796812374,0.9475710513,-0.7798364987,0.5765033364,0.2588058756,0.943599775,-0.6939393845,-0.1611801714,-0.5117225076,-0.6272601458,-0.5005725101,-0.1483089309,0.1360729834,-0.0103616222,-0.2665172638,-0.5924144889,-0.8310228441,0.8188407792,0.2119430921,0.8486504288,0.1390586034,-0.558165663,0.7316613051,-0.0461442093,0.3902989665,0.6833406451,0.1877630826,-0.0011674659,0.298995028,0.2818025407,-0.4248280202,-0.1829729406,-0.5429463823,0.4374314186,-0.2852811573,-0.6948276695,0.9348560366,-0.9735121941,-0.382522639,0.2906467506,0.7617773736,-0.447115882,0.4165332661,-0.062365889,-0.5687272106,0.5231717598,0.2712715166,0.7374837545,-0.8078485139,0.5727884809,-0.8178953505,0.838603644,-0.6250723016,0.1031697854,-0.6020821782,-0.7940919464,-0.135784876,0.8834481098,-0.6620437219,-0.789165772,0.2031793474,-0.3203203283,-0.9795041603,-0.5222965059,-0.9292047258,-0.149011534,0.8654874924,0.9716587795,-0.8131845974,-0.1259308221,0.4782211749,-0.3728137229,-0.5457464023,-0.7807373574,-0.7107109921,0.6026806283,0.9587395395,-0.594320956,0.5822978045,0.6501188775,0.6480632115,0.4002234405,-0.8777897284,0.6870194814,-0.9120089756,-0.899791881,-0.9791142537,-0.638689836,-0.1147241702,0.96910561,0.2299264526,0.3935322806,-0.9929168966,0.8726214104,-0.5518963172,-0.6845282727,0.527285537,-0.8095375975,-0.9862938687,-0.904131079,0.78015655,0.1731362595,-0.8249041984,-0.0670808884,-0.0891377834,0.00954053,0.5907240795,-0.5135606664,0.8841369083,-0.7268657017,-0.0332466999,0.0866703041,-0.2216942577,-0.9180366623,-0.4628204891,-0.8317906512,-0.8468047999,-0.7118008627,-0.924782669,0.4194577632,0.9854027315,-0.8120130735,-0.7755802696,-0.8016130737,0.6778658916,0.4631689477,0.6787011655,0.1321530721,0.7814146519,-0.5225716364,0.4608298318,0.1071038669,-0.4623732842,0.9469061308,-0.4953000031,-0.1534315351,0.6063151464,-0.3489573362,0.4991452883,0.398079264,0.7705157904,-0.1396846299,0.4617507286,0.4465655606,-0.3989519562,-0.3303623507,-0.3761421702,0.802764605,-0.3040812374,0.3897508581,0.264848669,0.0937959785,-0.0211905457,0.1554417872,0.2418179835,0.5412974725,0.9938239955,-0.090089008,-0.4872747547,0.6757154903,-0.1426895099,-0.9660358482,-0.4535192854,-0.2445590991,-0.030667824,-0.5382429918,-0.1556880499,-0.0812829508,0.8243845489,0.95781233,0.5338475146,0.1499283539,-0.2151084077,0.6880308076,-0.8708227065,-0.595110304,0.3176680559,-0.7723572543,-0.206085927,0.2969449543,-0.3210665645,-0.386303765,-0.2978113119,0.7620838113,0.451281559,0.5448445053,0.3741215924,0.9335440529,0.9828153619,0.3071090952,-0.5119793968,0.371144984,-0.6903447424,0.5961689075,-0.6167431067,-0.4711540015,0.7360248242,-0.0661696409,-0.2386725263,0.4300474755,0.3398975244,0.9108495159,-0.4842728916,0.6468113049,0.1227276067,-0.8534207466,0.5491346461,-0.9768521954,-0.4985457371,0.2080723012,-0.5188289226,-0.7704941564,-0.4083044087,0.6303150628,0.7111401769,0.4266576752,0.8210378068,-0.8558609979,-0.7809930297,-0.8021546309,-0.0247324353,0.1451773788,0.2994390879,-0.9387031755,-0.2257523189,-0.9859195352,0.8148626074,0.501911803,0.8318363478,0.6110020108,0.9297745835,-0.4019770733,-0.2956977943,-0.9214180036,0.3492363203,-0.8955524994,-0.7413835745,0.794055587,0.6573133148,-0.1195540063,-0.9649218009,0.8565121551,-0.4506393943,-0.1334511709,0.3133895982,-0.3520027569,-0.645948737,-0.7688185662,-0.2070018732,-0.2196346005,-0.6384513569,-0.9426620189,0.7755362424,0.2218498259,0.0938879744,0.7405319781,0.5947481577,0.4114623317,0.8071133007,-0.253440509,-0.7884203998,-0.898423472,-0.0701578333,-0.7699482352,0.7644458635,-0.71403746,0.7533090404,0.9448101174,0.7207390787,0.8306935633,-0.5033061768,0.5842661034,-0.1983098164,-0.4865996696,-0.0029865845,-0.5001386126,-0.2306413288,-0.4628477763,-0.1430048425,-0.4990870117,0.5783418461,0.4384575792,-0.3610744245,0.9741551907,0.6959460782,-0.5373331686,0.8195194646,0.0415143776,-0.6718915744,-0.250688417,0.8381401007,0.6872118924,-0.4512550993,0.5221741257,0.8474118999,0.2214318114,-0.5926680933,-0.5123348296,-0.4485611127,0.9570253218,-0.5143904683,0.9124220154,-0.0520300608,0.1755665212,0.8603154456,0.2203975543,0.5344121121,-0.8263321163,-0.293816319,-0.2732255992,-0.8827724081,-0.0493381803,-0.3999809884,-0.1395038598,0.8913229741,-0.6193726909,0.8260641302,-0.8825561389,0.3613729611,-0.7245000268,0.6445555072,0.0461781813,0.5687332434,0.5709977118,-0.0827781568,-0.4626251718,0.2314891562,-0.166841804,0.6331386129,-0.8055091189,-0.5863596475,-0.0798623727,0.3439323186,-0.8407376409,0.2959771,0.7123901118,0.7737274107,-0.6916601368,-0.4116827266,0.6420242413,0.0123457481,-0.9899015683,0.5608396144,0.1890597804,0.478003609,-0.6319759779,0.3909169344,-0.9591117493,-0.7318012002,0.7907002667,-0.19208471,-0.7620221657,-0.7170314534,-0.1124668028,0.0084327999,0.969582103,0.688032675,-0.4111952763,0.5251736382,0.3410244171,-0.1108446212,0.8318804081,0.6227530358,-0.5210755839,-0.9997907313,0.762285958,0.9915811857,-0.9352129565,-0.6093576545,-0.2002031734,0.8953873038,-0.2547076939,0.5422576695,0.7890405454,0.791452874,0.7189194822,0.635736361,-0.424193754,-0.3457070496,0.0874455347,-0.06695447,0.9872144525,0.3568220738,0.5540406108,0.7903711546,-0.5000730825,0.5145520567,-0.1797680306,0.7792376653,-0.583910685,-0.6106909112,0.1159604902,0.3578615465,-0.8604484727,0.7533308061,-0.8132739523,0.0923316136,0.4351923529,-0.8758088011,-0.3092936812,0.1964047083,-0.0126313988,-0.5397387735,0.3726881828,-0.2908809593,-0.5676987578,-0.1870120146,-0.0497858649,0.0867294746,-0.6959273559,0.9373550065,0.4341123982,0.5851613801,0.9771849821,0.0538601915,0.2591771625,-0.5810235988,-0.4893321764,0.8922636634,-0.302398257,0.7725336402,0.611561774,0.1055692479,-0.9096960652,-0.1276321405,-0.4076569706,-0.6301997027,-0.4867803564,-0.1599211702,0.7699930022,0.8883150775,0.9066280874,-0.366264651,-0.9789902981,-0.5273186125,-0.8195304584,0.5548879343,-0.4365920305,-0.4717406121,0.9463478676,0.7361496441,-0.4173904146,0.0848894634,0.7797135067,0.4599092254,0.2327705015,-0.8911067669,0.9779165789,0.7864162838,-0.7047608576,0.7899003955,-0.0993569904,-0.9115540676,0.0221901269,-0.0346307673,0.9142134579,0.3380433751,-0.2542202774,0.1338504223,0.7497245327,-0.5859711017,0.8192026289,-0.3440682287,-0.580926183,0.1274161828,-0.7793033019,-0.5795536998,-0.8066313748,-0.1978097824,0.7630611785,-0.1469405595,0.15013948,-0.5648407981,-0.4907948968,0.4597190639,-0.1924612939,-0.1593005151,0.1750578701,-0.2903493559,0.8999873595,-0.1775603255,0.2979119223,-0.6623050002,-0.8907285648,-0.8948308519,0.992499289,-0.21366148,-0.2089160041,0.6627947211,0.9482360773,-0.3167925006,0.1010905859,0.8760108395,0.9994146279,0.3208656802,-0.1533828618,-0.2921649912,-0.673396553,0.3139765232,0.4038626536,-0.9457146793,0.9172440257,-0.3767063516,-0.6828782391,0.0520058871,0.8102162156,-0.6608593869,0.6080164666,-0.8435004374,-0.3099753296,0.9287832325,0.5718702404,-0.936909293,-0.9067880985,0.4590515468,0.2912508597,-0.3629957786,-0.2842661563,-0.4317505712,-0.5275733132,0.0868893933,0.0982003137,0.3705162509,0.2726247683,-0.5935227346,-0.4948578821,-0.5913890527,-0.4868804986,0.9480351519,0.246135081,-0.3810502648,0.8903058551,0.6905618746,-0.7320744891,0.7590259757,0.8392464933,-0.2293807587,-0.4865298974,0.7677433518,0.084654373,0.5359387924,0.6289726517,0.4505103157,-0.7132933232,0.5435772119,-0.1194234433,-0.5098231216,0.6614720937,0.6117441503,-0.6732753695,0.720889901,-0.2627505671,0.3731110661,-0.8018893153,0.5526067038,0.805008189,0.766989948,0.9437403775,-0.129654334,0.057712189,0.1172924913,-0.4992006735,-0.4302671331,0.4657448939,-0.4198625338,0.9796568027,-0.7530124933,0.2316594678,0.588638041,-0.7096622226,-0.2421950347,0.1413211208,-0.4463285387,-0.1789966428,0.7581134299,0.8757374572,0.7790852151,0.4135863166,-0.4073795982,-0.9475949272,0.3165100533,0.2161402098,0.5292617969,-0.1426311015,0.5461251919,0.7214027051,0.6724459924,-0.6669759469,-0.7928636466,0.7208130565,-0.2821883252,0.2598176877,0.4722929935,0.2747938067,-0.0314617239,-0.2166573476,-0.2325134958,-0.0433025762,-0.5992138512,0.9533027946,0.2016080445,0.8517150176,0.5629437183,0.408723692,-0.0498429623,0.6242213028,0.7302973448,-0.9720365215,0.8514463567,-0.2685775579,-0.3756956245,0.2859214098,0.3065201693,-0.2241565015,-0.0444965854,0.388834366,0.139931921,-0.0637350974,0.3903875945,-0.6351667288,0.9461425878,-0.5387496319,0.942912033,0.2313497376,0.8281428049,0.5292052743,0.0389003086,-0.6676571158,-0.3414975271,0.2625803413,-0.4357949431,0.9208763104,0.0871424874,0.9210215206,-0.591727825,-0.5008212603,-0.591609134,-0.5868065621,0.4650260321,-0.233507606,-0.543469072,0.1786941798,0.8139749714,-0.0064197202,0.6191113707,0.5438097228,-0.1188801609,0.9061914063,-0.5854468666,0.5879326552,-0.4551154917,-0.5089954881,-0.6165479103,-0.3317982841,-0.0253251611,-0.7592683047,0.9026377031,-0.190822371,0.8666491479,-0.6622620669,-0.7569583472,0.0672005512,0.7220338659,0.6773708399,0.2730081813,-0.9569910417,0.9736652202,-0.0919548287,-0.8982306263,0.0752880288,-0.2247379088,0.7906276049,0.003042998,-0.9065727839,-0.0266139873,-0.8132022403,-0.4821201007,-0.7115601748,-0.2874308624,0.1089490382,0.8227014396,0.1032825494,0.4247434532,-0.7319664994,-0.6731471558,-0.8120005484,0.7918996376,-0.1582060922,-0.8296953505,0.6820348339,0.0608199867,0.4129904083,0.893869279,0.4921714359,-0.0150421155,-0.4464228072,0.0994035131,-0.8840213796,-0.4907722359,-0.3769215578,0.6553410292,-0.2315261471,-0.2152674638,-0.0926672868,0.8156729768,-0.5055240987,-0.0856859568,0.7788532717,-0.1695517727,-0.4801674652,0.5286888962,-0.6820374375,0.496572211,-0.1749178577,0.1998039202,0.1004073672,0.1587332614,0.9932354111,-0.4086826533,-0.1545457391,-0.5218313165,-0.1204023273,-0.926523613,-0.117055939,-0.4032318495,0.7681233728,-0.6223895877,-0.0746622287,0.5975658212,-0.2593248039,-0.9980390511,-0.4870886488,-0.4008589391,0.744081075,0.3368680242,0.9455898128,0.2365588371,0.5871223527,0.4448787078,0.1889535536,0.9734256877,-0.2550347501,0.7013238819,-0.9998132501,-0.3581454159,-0.9090330521,0.6782747845,-0.5466678968,0.5583108237,0.2819341861,-0.2961185172,0.614297357,0.8737833909,-0.4123632237,0.2326051155,-0.9596972061,-0.9309946387,-0.8588890445,0.1629931226,0.0244487098,-0.818722235,0.1289105062,-0.7203473964,0.0841882098,0.392903946,-0.3871678568,0.2428727242,-0.7393816366,0.4826408846,-0.0234724485,-0.8687772994,-0.3455156144,0.0598903438,-0.7220879713,0.3698301113,-0.3877824936,-0.8910499427,-0.6109404593,0.7036442989,0.9236225791,-0.6269054914,-0.4668243616,-0.0086680199,0.4138298969,0.6218730876,0.7372900924,0.4769113863,0.416827033,-0.4933671187,-0.0749999338,0.5058471228,-0.8898529274,0.0846135559,0.4965364975,-0.2791677879,-0.0379944504,0.4696176134,-0.7540482386,-0.095337093,-0.3875567357,0.1433119031,-0.2645144032,0.1712472925,-0.66659488,-0.6586352052,-0.5580836553,-0.6114661309,-0.0812484684,0.5415610772,0.7579618621,0.0984426104,-0.5173887058,-0.1183452886,-0.5433577505,-0.1275531822,0.1229502868,-0.5001251561,0.8184522464,0.8120870492,0.4303727709,-0.3637575406,-0.113170933,-0.446687375,0.7908885519,0.337710809,0.933803806,-0.3833710206,0.8514147812,-0.8581442571,0.5717945957,-0.3489499145,0.4937553224,-0.2471353993,0.4734219073,-0.4655953438,0.2379131556,0.4197849271,0.7273002217,0.273082601,-0.7740319209,-0.20041374,0.2980854843,-0.7444789923,-0.3030787793,0.8496947255,0.3125316781,0.6777798656,-0.3358613913,0.8349358274,0.6509790834,-0.9319771592,-0.1422237703,0.7651689449,0.7633192953,-0.9883463202,0.6272308809,-0.4731857747,0.7515635421,0.0797070834,-0.9821993677,0.8850044049,0.8786072059,0.6174293586,-0.375387984,-0.9365883865,0.3170399867,0.643133698,0.2444196231,-0.5610355037,-0.2759003297,-0.5298271298,-0.1434168434,-0.3570827538,-0.3540620732,-0.3960779643,-0.293113239,-0.1005127996,-0.9230224211,-0.9352355811,-0.4698128582,-0.5128299551,0.6683080815,0.9015943822,0.057110403,-0.9832605416,-0.8682698332,-0.5467180904,0.9597242513,-0.2673196558,0.0920798601,-0.0816127815,-0.2122690534,-0.7879241049,-0.8673848267,0.0300297886,0.529908615,-0.0343450459,-0.5801754985,-0.559540264,-0.0317534952,-0.4934723054,0.6545085078,-0.1606898443,-0.4459193266,-0.7062595078,-0.8839641889,-0.8111738265,0.0038581367,-0.9132400507,0.4625092612,-0.4927514687,-0.5274817629,-0.8949338476,0.2561284607,-0.3438111191,-0.5653916415,-0.2324970708,-0.920298173,0.6208641551,0.3875997968,0.8292639293,0.4003334374,-0.0468755815,0.8954244623,0.7867527679,-0.1496306363,0.8947617719,0.4992542376,-0.3727943902,0.0478704754,-0.8610861514,0.1904065963,0.2841711716,-0.9500390259,-0.3012616399,-0.4688637107,-0.3490181779,0.9943298024,-0.2468121934,-0.7872785901,0.3882104541,-0.4612963147,0.270860795,-0.0964833816,0.2074989022,0.0361084818,-0.3229270153,0.8627993712,0.4633484291,-0.3001657278,-0.3323032372,0.7525748565,0.0254202985,0.3834495253,-0.5266772442,-0.2107594906,0.1775002416,-0.3225096243,-0.182240801,0.11746892,-0.011974419,-0.3142608658,-0.1620941778,-0.1765824502,0.9373100554,0.2439603686,-0.9097692616,-0.2160245665,0.5967377374,0.2959948002,0.3927946032,0.7302284895,0.9454617982,-0.6501777732,-0.2568585954,-0.3903684532,-0.4590594997,-0.9530352333,-0.0864319447,-0.2068841808,-0.4790333512,0.2114320576,0.1238521988,-0.3291022621,-0.6394078848,0.3429546685,0.4903852501,-0.3996833549,-0.2209963703,-0.2738454847,0.9955596587,0.6134266949,-0.9671597531,-0.0958182922,0.5792374473,0.1745051074,-0.6193069526,-0.9818245779,-0.9329160555,-0.3793052165,-0.1429581712,0.8499812616,-0.4464186528,0.8625729203,0.8602836593,0.067780011,0.7518263692,0.3783815652,0.0431799722,0.4918823775,0.9569208458,-0.244684028,0.0890119456,0.8288317873,-0.825456761,0.6132094023,-0.8430787613,-0.8501107603,0.9286493838,-0.1995039566,0.8192435885,-0.3386259881,0.9179097032,0.3503418579,-0.9469226445,0.8916127549,0.2075492329,0.5366581284,-0.5750716896,0.7379989907,0.993898164,0.1864156584,0.0082208156,0.1730820291,-0.7592979993,0.3599874522,-0.0868639049,-0.8963961891,-0.8009468302,0.4533682909,0.7683737281,0.2730256903,-0.1664847683,-0.7387782436,-0.0979459266,-0.6963376162,0.3501957639,-0.2672199765,-0.1850335157,-0.4721049304,-0.4909750915,-0.6470151472,-0.6638894213,-0.44111537,0.3746739739,-0.6484678673,-0.8698694299,0.1420007795,0.8718841809,-0.3544276098,-0.8647015475,0.8304551358,0.1433967797,0.126751354,0.2025208773,0.6268513924,0.9453263054,0.9338010144,0.9536751289,-0.0699298003,-0.1969346006,-0.0200792158,0.9727251119,0.4690633401,0.81099754,-0.5309951633,-0.0880625318,-0.1711388909,-0.3648739578,-0.0928635009,-0.2374133649,0.3289172178,0.2713442288,-0.3769650272,0.0192036922,0.8544036379,-0.6593273839,-0.0861531723,0.1405400323,-0.5821327473,0.6841539441,-0.9974217276,0.7472428129,0.602534151,-0.3009616513,-0.3098964135,0.5436861821,0.5269318633,0.0536050695,0.4437770829,-0.3714200275,0.397588066,0.1792479934,0.8508923537,-0.2517650488,-0.5547586779,0.0790198024,0.7762235808,0.6428474946,0.3021965987,0.1500296588,-0.7096151536,-0.7945475725,-0.0361583423,-0.6338619233,-0.5291893698,0.7069508053,0.0523819917,-0.4200464825,0.4078481352,-0.8093253877,-0.0065852606,0.3073357068,0.3206715372,0.2891700569,-0.5208053952,0.7212582274,0.8518780581,0.2836465779,-0.008234795,-0.4266887592,-0.0652881769,0.6640006588,-0.0522719604,-0.7863353427,0.3223563842,-0.1440371732,0.9580608809,0.5665453699,-0.4000181613,0.2661511212,0.5164135546,0.7610907371,-0.4875553372,0.9570322828,0.3516116643,0.3122955706,0.877574193,0.9489688386,0.8763418751,-0.5421536503,-0.4861020534,0.618573961,-0.943349173,0.8780647187,0.8188411578,0.8451432847,0.3457422055,0.2215887489,-0.1073374538,-0.2074751198,-0.5832819414,0.362146203,-0.7528100272,0.9176337807,-0.8397163687,-0.6525194576,-0.6614799865,-0.0731509329,-0.737972467,0.978683166,0.2990505858,-0.6346483193,0.7936062033,-0.1593995729,-0.8769070893,-0.5340289872,0.1280424739,-0.9700639181,-0.5428181558,0.3214666252,0.7174479076,0.3888458772,-0.2008144548,-0.2518365332,0.119632018,-0.4465052064,-0.0426324739,0.7169696999,0.4228654789,0.1778420076,-0.9630146038,0.5799638925,0.2267148982,0.7467928266,-0.3161113689,-0.5162098807,0.5643799646,-0.3386211646,-0.9674610496,-0.1361358623,-0.3317780952,0.3847434539,-0.7510920833,0.2857337135,0.5023155794,0.66439226,0.6923718129,0.4341145397,-0.9692719808,0.3212907211,-0.1867850893,-0.1053356499,0.2055562017,0.3590638343,0.7356694324,0.7137119214,-0.0874700024,-0.6195490504,-0.1207619134,-0.0276252875,-0.8990461596,0.1895063568,-0.8996882045,0.2680718213,0.5899614893,-0.745168797,0.9288610416,0.1448108566,-0.7431375914,0.1553007641,-0.8087175436,0.7512611903,0.9379056076,0.7988022078,0.442509194,-0.9752005988,0.2509496157,-0.2381238975,-0.9657045523,-0.0193216853,0.817608415,-0.6360858139,0.6673697854,0.3172269187,-0.6585034159,0.4859318491,-0.3162792218,-0.5208895889,0.7596807526,0.7863217778,-0.5525976258,-0.8375998191,0.3497421912,0.158254264,-0.5662967742,-0.5059959688,-0.8962684846,-0.0569215614,-0.5682195587,-0.8716910804,0.7701111578,0.5637175686,0.6484830101,-0.1493087602,-0.2768614828,0.6684082859,0.6653132433,-0.1873925366,-0.874515968,0.0130257722,0.593681738,0.4507233736,0.0473854566,-0.4812431851,0.6949972918,-0.131327451,0.4436985975,0.9631090972,0.9898695532,0.4997441707,-0.5559896143,0.8969654538,-0.8243742291,-0.7859979714,-0.9303460866,0.2034846802,-0.0914969991,0.8219588384,0.1068315878,-0.5241894526,0.4469919721,0.5480631477,-0.2045329864,-0.3144339395,-0.6649435493,0.422869406,-0.7777675195,-0.7201480424,-0.6908475499,0.7123136421,-0.3746105515,0.3365405092,-0.710661898,-0.708199649,0.6000787571,0.9252459597,-0.5148288573,0.2698904315,-0.7581134658,0.821342684,-0.9442315367,0.0654772316,-0.8790657159,0.4747897576,-0.6630577303,-0.941363986,0.1605845705,-0.7086811797,0.9368676697,-0.5596158625,0.3175984824,-0.0087444199,0.5289286044,0.3562882448,0.8293448869,0.8837156321,-0.847173468,-0.6650002337,-0.7552522254,-0.5624032861,0.0598679184,-0.2267013982,0.2292572991,-0.1905989625,0.5154749263,0.0627462574,0.0632919781,0.3452144336,-0.3066958837,-0.9133480006,-0.3285696484,0.9549284333,-0.1932694176,-0.1592289136,-0.5463925618,0.9425838451,-0.5756138788,-0.9889632812,-0.6221346094,-0.237412122,-0.3250779463,-0.9338179118,0.3466768038,-0.2183872204,0.2452543403,0.0790509902,0.2488937221,0.3654224444,0.9653711245,0.1472566354,-0.56455137,0.296515693,0.133173832,-0.8944963356,-0.6829152975,-0.2739249588,-0.796069812,0.1757503055,0.2771864454,0.6439899023
