encog,BasicNetwork,java,3.4.0,1,1749582409499
[BASIC]
[BASIC:PARAMS]
[BASIC:NETWORK]
beginTraining=0
connectionLimit=0
contextTargetOffset=0,0,0
contextTargetSize=0,0,0
endTraining=2
hasContext=f
inputCount=150
layerCounts=1,31,151
layerFeedCounts=1,30,150
layerContextCount=0,0,0
layerIndex=0,1,32
output=0,0,0,0,0,0,0,0,0,0,0,0,0,0,0,0,0,0,0,0,0,0,0,0,0,0,0,0,0,0,0,1,0,0,0,0,0,0,0,0,0,0,0,0,0,0,0,0,0,0,0,0,0,0,0,0,0,0,0,0,0,0,0,0,0,0,0,0,0,0,0,0,0,0,0,0,0,0,0,0,0,0,0,0,0,0,0,0,0,0,0,0,0,0,0,0,0,0,0,0,0,0,0,0,0,0,0,0,0,0,0,0,0,0,0,0,0,0,0,0,0,0,0,0,0,0,0,0,0,0,0,0,0,0,0,0,0,0,0,0,0,0,0,0,0,0,0,0,0,0,0,0,0,0,0,0,0,0,0,0,0,0,0,0,0,0,0,0,0,0,0,0,0,0,0,0,0,0,0,0,0,0,1
outputCount=1
weightIndex=0,31,4561
weights=##0
##double#4561
   0.1390342621,-0.2137698855,0.2735954147,0.1101815593,-0.3497586109,0.1674596497,-0.0219693278,0.1349968285,0.0698772982,0.2560070946,-0.1476019457,-0.3431551104,-0.2542442812,0.1066796656,0.2263638743,0.0035565106,0.2475255376,-0.35905271,0.2197278802,0.206149213,0.2228036515,-0.3603701757,0.1961356396,0.0829838365,0.0599940286,-0.3343524582,0.1648610413,-0.356616863,0.304557706,0.2216027719,-0.9823626491,0.2373924754,0.2583342821,0.0634383593,0.2368192745,0.6379419445,0.4791603692,0.2944380047,0.3428013984,0.3172707877,0.4213297818,0.7145759778,0.6901300598,0.3380515597,0.6414993509,0.5774229023,0.3868841225,0.4132649792,0.2844141548,0.4690619367,0.3665088151,0.2699104801,0.4768350914,0.2398474741,0.4958738451,0.5921558004,0.0588563567,0.1097780838,0.4654071234,0.2685036128,0.6408028907,0.6962806465,0.2101842909,0.074396658,0.6074238015,0.1384125271,0.675646426,0.0009023726,0.6735780372,0.1283473633,0.0875836982,0.2813130612,0.230100431,0.5854496324,0.6024619355,0.1864321615,0.1073346413,0.7025608332,0.639534439,0.4265377872,0.2291973027,0.2701193218,0.3908304589,0.446375601,0.3321733274,0.5230896178,0.2677058859,0.3075948571,0.4718655644,0.6959103984,0.5331932704,0.2395111696,0.2852617448,0.2356592538,0.605759873,0.5680105012,0.1857823659,0.5796115992,0.2479484455,0.2035482058,0.3347075465,0.0231544349,0.4064754369,0.4204043817,0.4530848062,0.3790360517,0.623112029,0.320153638,0.1286678175,0.1318744337,0.2897653294,0.1991955184,0.1102756612,0.0761373399,0.3796063569,0.3023614782,0.4925977079,0.5487884073,0.329204082,0.2303986601,0.6795666089,0.2129945781,0.3329402765,0.1358287711,0.5048351559,0.3067239341,0.1636996686,0.4058866793,0.094835243,0.2524694696,0.6001580621,0.4111563805,0.6053498878,0.1557571276,0.5433524867,0.4620806538,0.3259530827,0.6702605361,0.2053726819,0.2962954098,0.303170588,0.5877003177,0.4730349835,0.5490116407,0.0353944921,0.3910373824,0.2124043292,0.0944975873,0.1162040311,0.0068772968,0.3628353197,0.4692481343,0.3599886243,0.1821429015,0.0328090478,0.0669020472,0.0385007944,0.2898738954,0.0543048129,0.5057352132,0.0675233807,0.4660133462,0.3654314799,0.0723212217,0.0361875031,0.0779368703,0.4654712333,0.0640129291,0.1484205177,0.366333595,0.0974373004,0.2050371534,0.7054906167,0.2778863437,0.63610224,0.4154394547,0.5657086257,0.4611214269,0.4749562207,0.277054058,0.5187562912,0.0317550683,0.1072328422,0.1464829707,0.2052958838,0.3224333701,0.372438203,0.7114744988,0.3943940959,0.2534738316,0.4305401974,0.5413786533,0.3163120498,0.4058724966,0.1173116311,0.5797568419,0.1494007425,0.0938206911,0.3748665639,0.2274664139,0.0636305267,0.4695993959,0.1261484932,0.0903722882,0.5957536857,0.045139011,0.4761884571,0.1514924166,0.3353735815,0.1015550342,0.6275026375,0.4744859876,0.5500573013,0.0036042982,0.1045532442,0.5223280844,0.0547651154,0.617924029,0.5727497417,0.0815403246,0.2511347168,0.1483282348,0.3729159285,0.5441441631,0.4565710668,0.097771187,0.2465961925,0.2390741009,0.7041508771,0.4660741029,0.0574552855,0.4068226457,0.5732537106,0.3233981488,0.2813888906,0.1626628201,0.0591619416,0.2441689564,0.6442939177,0.0046419849,0.1724757641,0.5552220976,0.2000965887,0.2792653427,0.3521065909,0.3486754532,0.6150966652,0.6294703639,0.4744818754,0.4163439543,0.696393216,0.5846706763,0.5461154817,0.5427256277,0.2836532031,0.3273431461,0.2232043184,0.11436104,0.6570634738,0.3233909837,0.1200255431,0.1380126363,0.0714421814,0.3899972075,0.02707076,0.4270745856,0.0591710635,0.2380922559,0.6314322478,0.5214617896,0.5003726655,0.5445368398,0.3933597706,0.6234138529,0.0763657336,0.4090103706,0.6942841116,0.4973610382,0.5966947991,0.1701979452,0.1811035795,0.2852208895,0.1336128328,0.6229589843,0.2740723826,0.6151260725,0.4121652936,0.5473990824,0.6040300071,0.2393437498,0.4078654302,0.1724502675,0.2325352692,0.2239387873,0.2644132316,0.6410260424,0.4367947808,0.0439637929,0.1548380526,0.5039385949,0.1402878752,0.5335515712,0.5562657313,0.056280877,0.5044376729,0.1065436687,0.5044383266,0.1582002423,0.4267171282,0.5660937653,0.3046152325,0.6485095501,0.6718188959,0.2146124518,0.097749401,0.6248078942,0.2581162027,0.4073352723,0.3446209705,0.1798624968,0.7033450743,0.2958818081,0.1190937879,0.7108637804,0.1576902952,0.4247534833,0.051602222,0.2198722673,0.4654746788,0.3273284783,0.4553942496,0.288817003,0.6071343272,0.3462709345,0.5882725382,0.1740013984,0.2374946648,0.0458875041,0.1951794397,0.1438767419,0.2610879796,0.2767970724,0.5274719781,0.1173157755,0.2098118687,0.5677430683,0.3002922183,0.2508025638,0.0679581218,0.5130672767,0.2184761864,0.6349278994,0.508497092,0.2146786501,0.0244420208,0.2076569807,0.3714719109,0.5769854423,0.2011531338,0.0236254334,0.4564212762,0.4193134307,0.1315014818,0.0232823547,0.6855392542,0.2980162088,0.3458385603,0.1491709596,0.3120714648,0.1216255151,0.5855002597,0.0085337502,0.6591385659,0.2123548458,0.0589267257,0.1260300732,0.1087818669,0.3788175293,0.5187301528,0.4868426316,0.1718168798,0.6699048697,0.5017079236,0.4227185029,0.5050330353,0.6600832083,0.3572960927,0.6064680557,0.1805836044,0.1805454472,0.3448188966,0.045218113,0.1830813725,0.2102148374,0.5777405298,0.4014757649,0.5809571057,0.5632396391,0.3028933603,0.127003816,0.0032917079,0.1338527589,0.0784169236,0.3225012223,0.2195002533,0.3709854131,0.6217565212,0.2130913232,0.5353591657,0.5010063305,0.4034511124,0.3448891254,0.2427227803,0.4289302502,0.342142514,0.5852390901,0.6600415641,0.2287837343,0.6095844451,0.6917664437,0.3185634193,0.0704271577,0.4514287705,0.5074068986,0.2513670973,0.6485731106,0.3137092359,0.2168456511,0.2256260186,0.6608982662,0.4487952685,0.1566901012,0.1472370321,0.5419181566,0.1991746845,0.1280819557,0.1559571623,0.0267867265,0.6165135322,0.1482887395,0.0373766074,0.0180575393,0.6019508528,0.6769164336,0.5151328764,0.1485679914,0.2274817351,0.5961388683,0.1214501638,0.1303727557,0.0134577254,0.1485173005,0.676775505,0.0338015288,0.0305672382,0.066992263,0.0488790858,0.4358650596,0.4349653933,0.5055642164,0.6348403154,0.1616541035,0.0340291172,0.1739556495,0.2320964064,0.3169657686,0.2569703215,0.5561872106,0.5833558471,0.1402537172,0.2130275975,0.1332368076,0.100992913,0.1062722908,0.0143542916,0.5515134891,0.1806625819,0.1669443548,0.5340274792,0.4995367326,0.5212387316,0.6533502834,0.5420429174,0.5293326618,0.2816845371,0.1439616086,0.61514535,0.0018847769,0.0460733976,0.5261842255,0.6736811876,0.6136657084,0.7100528251,0.6176397679,0.3281016775,0.1386074031,0.2425673816,0.6287691414,0.4224767484,0.5975251837,0.43932967,0.2794937616,0.0556491907,0.681590862,0.5844680638,0.1582212819,0.3003148512,0.0642007506,0.4984716695,0.4422216636,0.0549399564,0.3246198662,0.6007758083,0.5888165035,0.2105819937,0.3574617143,0.280333835,0.0575314005,0.2993167924,0.261518641,0.667736533,0.4688185801,0.3845656867,0.6915698124,0.2396792511,0.5772307118,0.0065477997,0.6430843257,0.4721335969,0.062191116,0.268727379,0.5590929973,0.2823131822,0.6559617456,0.101446895,0.4273328603,0.1036323754,0.3093149629,0.4794852038,0.0078152041,0.3161478325,0.630548272,0.5868770785,0.2194079539,0.2745319873,0.1006513197,0.3556053989,0.3371777241,0.2921364502,0.4956657101,0.4871148304,0.3701389636,0.4166738025,0.1885839251,0.4705151338,0.507362083,0.106825344,0.308626187,0.4381325666,0.1919641105,0.1424501353,0.6585380489,0.1928395019,0.542636258,0.2663191524,0.5165417062,0.2314851173,0.087675548,0.2110427944,0.1938061496,0.6124590021,0.1242092713,0.6221760961,0.1622215658,0.4136404411,0.4176558476,0.5635522006,0.6005128331,0.5283095782,0.0895212476,0.0700924463,0.0046715446,0.1189094835,0.0472502039,0.2472212678,0.3922491111,0.0751887022,0.0497675002,0.715506255,0.3672935251,0.5416333651,0.3206304565,0.1739123695,0.2876280602,0.6666194856,0.5481363021,0.0358252252,0.419442344,0.1435438167,0.6120919483,0.3009983036,0.5509793767,0.4449647337,0.3969020033,0.1664571323,0.2350948863,0.4627680339,0.0215532413,0.5266037137,0.0337218031,0.2147661144,0.134449864,0.2041101068,0.5790139925,0.0429407193,0.1717130837,0.6817457739,0.212282707,0.5137567645,0.5438056178,0.5639828823,0.0494618738,0.3987620134,0.0877239257,0.3488511547,0.1362240551,0.7056741861,0.3124288458,0.1422208495,0.2459779872,0.382858471,0.3819379348,0.5660403759,0.1539912895,-0.6945191398,0.2395161285,0.3472896827,0.1761854832,0.5750418932,0.5403568151,0.3032901414,0.4371604449,0.2536897069,0.5298400998,0.6858669439,0.5094326946,0.6717547652,0.1123748777,0.4907077883,0.2144218217,0.6957312324,0.6918991052,0.4612302803,0.3890082472,0.0621979784,0.6064509702,0.5297515728,0.3716302589,0.5497061953,0.3916424978,0.4940473012,0.0906266639,0.3820402212,0.6665885113,0.3313894966,0.374463782,0.4336709397,0.4440593607,0.2439346693,0.1044922696,0.0655322546,0.4837483814,0.3230773479,0.4166120592,0.6511705414,0.4866818431,0.1681396914,0.2704859707,0.2203786959,0.0006345099,0.5910645525,0.2921974774,0.2549412409,0.4035948573,0.0711338519,0.5706957839,0.3345442594,0.5509233379,0.490025854,0.6723843065,0.6519973384,0.5374298382,0.0278050025,0.522591827,0.4510844909,0.7128473337,0.2016622783,0.2349326456,0.7000641293,0.2607813482,0.0483204273,0.0527696451,0.5402274829,0.4274085411,0.5948074053,0.6150253993,0.6798889231,0.0745060719,0.1852689976,0.3203807057,0.1125814553,0.2502123557,0.103164302,0.2861699821,0.2625290724,0.1461995801,0.0168543374,0.5769137691,0.127030593,0.4358985601,0.0129908979,0.0557386402,0.270690164,0.3150381099,0.1778947174,0.6796985238,0.7122334956,0.0607942247,0.398557482,0.3435774124,0.2691304111,0.5094228418,0.2453969251,0.4293810558,0.0625737323,0.1230429241,0.4234587761,0.28400907,0.7122715047,0.6396997912,0.6547184699,0.3488088895,0.300854704,0.5497545265,0.2608414693,0.6110201388,0.6224865875,0.6760270049,0.0665345903,0.2747705266,0.3782012972,0.4802938115,0.4109721869,0.5195836272,0.1959499623,0.6171943645,0.5448500711,0.6284914804,0.3702161316,0.0735513897,0.4842288525,0.2656838816,0.3805988384,0.2059931486,0.1430339976,0.3471180586,0.6509020844,0.0849483561,0.4733699064,0.2824039039,0.1045131986,0.2549623387,0.3500419997,0.2140057744,0.2762807176,0.4915431497,0.657123145,0.1770541407,0.5742469502,0.0523233604,0.5629745084,0.1303526638,0.6703563072,0.5529641135,0.6158720745,0.7088861541,0.5435074054,0.2280700893,0.2859531057,0.3887395257,0.3339861699,0.1481863115,0.4465169173,0.1376129427,0.026078757,0.6733795616,0.2714940102,0.4384835713,0.50051236,0.0044975978,0.5350538224,0.1439256153,0.2610417376,0.1994723511,0.3248369691,0.0775349623,0.3291925943,0.1947057343,0.2778951397,0.1013528408,0.5935090791,0.2254973835,0.4080743387,0.6258540004,0.1850716218,0.5979038527,0.7046181675,0.6901514357,0.4436004534,0.4352852946,0.2720459801,0.4778816092,0.4149242702,0.6910665288,0.162432125,0.4908383646,0.5877107712,0.0880522958,0.4494820093,0.5364212272,0.2871315819,0.0855452267,0.5713072237,0.5944904261,0.5614294489,0.2633183639,0.3458053626,0.7092802294,0.1982461829,0.6244446977,0.4279639613,0.5503966147,0.5970524247,0.3589573195,0.3224652614,0.5314186211,0.2677205023,0.483889232,0.3313473482,0.3136788093,0.4153975993,0.1040800936,0.5736162816,0.1220997049,0.69499597,0.3416279966,0.5779404532,0.393545664,0.533413988,0.6321442804,0.3325361344,0.7020880479,0.5694711208,0.1187931293,0.2467462029,0.3390784164,0.0707403015,0.0461908049,0.6777637595,0.5447768253,0.3970535777,0.2162687034,0.7124462402,0.7098929995,0.0131161123,0.4874605238,0.647170273,0.2977140724,0.5271137939,0.0708101679,0.6615976487,0.0990309755,0.1835387937,0.6163467641,0.5507309589,0.6485780046,0.107906369,0.5493928076,0.4633602867,0.4641054221,0.1560567078,0.1328182863,0.5302129253,0.2004504309,0.2359263896,0.0064789713,0.6394605772,0.127093561,0.2938756975,0.5665767647,0.1136015146,0.5756067714,0.0101332039,0.3977206712,0.0042260088,0.2963825029,0.6477276842,0.2898936945,0.1389681789,0.096049212,0.6146568971,0.4433739458,0.2834627021,0.558713648,0.1927885727,0.6100803553,0.5381477657,0.4009863078,0.5529504645,0.220249657,0.0473423001,0.2080754919,0.5266277098,0.057630115,0.0331862555,0.4913116217,0.1794224865,0.2549689344,0.5349051738,0.7042667581,0.1798755822,0.410222471,0.1806651898,0.1941217604,0.6170076811,0.0546585501,0.6952601296,0.6327944042,0.1008676509,0.1105835383,0.0369251018,0.6026473597,0.1364091109,0.2279425774,0.5895018865,0.6103218608,0.1498683235,0.0364436923,0.4009564558,0.4002702622,0.4539771768,0.2781897484,0.2390969113,0.5763781195,0.4464666687,0.1546341198,0.4459271408,0.0002556221,0.5161251831,0.7078080853,0.6849191817,0.6300345812,0.3542527804,0.6079805557,0.394168175,0.4907824096,0.2329362281,0.286736957,0.364726288,0.4959103781,0.340419918,0.3368392261,0.2139901635,0.2830729496,0.6381096051,0.161209229,0.4218619304,0.0707684898,0.3759419658,0.2579058448,0.1185811745,0.1910279369,0.3641954877,0.3659299813,0.3674469289,0.2100167589,0.2750273902,0.3673882366,0.1693964592,0.5443628177,0.5857793533,0.2224527035,0.0805106261,0.4390084477,0.5531967499,0.4936417982,0.3021408789,0.3299300731,0.0217275304,0.357952609,0.4695299129,0.0191926665,0.2206391019,0.0466256454,0.1014539299,0.6807497328,0.2715426288,0.4356343377,0.6376818889,0.1701784256,0.3775648627,0.3933780746,0.6330692385,0.0128338943,0.5853882285,0.5096907699,0.4049982777,0.4921267913,0.1467779126,0.3106086496,0.6341576007,0.1732358224,0.683339591,0.1340292783,0.673442888,0.2211226037,0.2170616187,0.0538411175,0.3211607272,0.7009655048,0.1418217135,0.2155403455,0.4913306754,0.5579229382,0.6257153513,0.110348225,0.5141920445,0.3861782824,0.2630213879,0.385717922,0.1950222313,0.3407773344,0.1111186857,0.0528256784,0.1031022795,0.6299713139,0.5623532978,0.2502668117,0.3980244763,0.3291271614,0.5068838961,0.1195340465,0.0295166912,0.6035018082,0.4847115145,0.4414773061,0.4357587392,0.4563543743,0.5512765936,0.0643528771,0.03097936,0.3981010882,0.0335169256,0.3198103097,0.0038824571,0.3749793844,0.2990063541,0.1171141478,0.0202285294,0.2775002277,0.1064830542,0.3494058299,0.0959814811,0.3359792731,0.0377711188,0.4070451733,0.651715708,0.2378762563,0.695940441,0.6898689979,0.427392638,0.2304148608,0.7051654805,0.5346011358,0.5543481601,0.1121499169,0.5380598044,0.6929729333,0.1774981759,0.5299694462,0.0234087575,0.2603802888,0.3201455811,0.6037590409,0.2609485384,0.6092352182,0.3515383815,0.6260392341,0.2143226873,0.6117766284,0.3568363309,0.5038992137,0.3050883012,0.076775711,0.4958683838,0.4102492782,0.3533618661,0.0310295574,0.6689752398,0.3008606269,0.210386435,0.6516319823,0.6185281016,0.0445833974,0.2631076246,0.0685321964,0.10846561,0.6955781454,0.5741683167,0.169736852,0.6407581171,0.2806186585,0.5739233597,0.5616236426,0.0752922801,0.20822081,0.2329154579,0.2797835814,0.0415454718,0.6097202347,0.0293246332,0.660626865,0.5931402955,0.1492230676,0.324775605,0.2277265221,0.6716234962,0.0583965597,0.0144296128,0.1815051488,0.5045155989,0.2772171879,0.4418098281,0.6262047491,0.321172548,0.4093862306,0.3524557935,0.0782662396,0.366669635,0.5280646836,0.3253017211,0.3843847176,0.6641253142,0.0194796163,0.3163724222,0.0653401721,0.3595960794,0.4596258523,0.5445353514,0.6645905948,0.0864087372,0.2438821388,0.1258007898,0.6929100309,0.3770773222,0.5768243245,0.4137597775,0.5606311939,0.0021861402,0.0914759972,0.1289475638,0.0096486023,0.2133923414,0.6336031505,0.7137288592,0.3290345758,0.7103063613,0.4697776415,0.3904119932,0.6114547747,0.143927536,0.3657448563,0.1191873989,0.0859912183,0.6163492917,0.6611772844,0.2035397438,0.1499842055,0.0447610577,0.4477893479,0.4901148399,0.4255478238,0.2353129296,0.6239322258,0.2831431054,0.1309821,0.0999315394,0.6457799921,0.5529964545,0.5626457631,0.1481574821,0.5154195734,0.2502151659,0.6653972336,0.3875007181,0.6987240565,0.1437838109,0.3444065548,0.5288836367,0.1980884389,0.403128718,0.2412966206,0.1948462666,0.391408742,0.2706553869,0.5775022163,0.2085977936,0.6588743431,0.56308446,0.0357075988,0.6791362399,0.3667082236,0.4606866225,0.5184337767,0.2425469593,0.2410045328,0.4370146966,0.297752853,0.3258543374,0.6022231105,0.2003616535,0.0716760003,0.3679872586,0.6241416117,0.7125867313,0.6517445939,0.6881742694,0.673365218,0.7110221436,0.012944886,0.1290178817,0.0787578768,0.3057327502,0.328718579,0.1038615914,0.4167055629,0.3744543622,0.278375217,0.1937810244,0.1287872144,0.4471225594,0.4197920504,0.5991185473,0.5726658293,0.123794456,0.0148862955,0.6699120245,0.0376854811,0.2517743754,0.6152971957,0.5628842325,0.2216366055,0.5618696217,0.3880909512,0.1521119293,0.0671770927,0.4055962359,0.498237056,0.1322770584,0.5730102722,0.6528412346,0.6920152473,0.3955589776,0.3161211376,0.2162409531,0.3495195827,0.6159620641,0.6095001215,0.105301339,0.1691046491,0.2107803861,0.0076680869,0.0074970617,0.2795056353,0.1654987561,0.6324062359,0.5043687489,0.2216919573,0.6681102291,0.0421756215,0.0685676973,0.590187993,0.0205095332,0.4193920202,0.3335395984,0.1470129631,0.7018593197,0.6103237325,0.1202163331,0.5754877349,0.2264694135,0.0505638565,0.0744121902,0.1677382846,0.1599157995,0.3504009526,0.1774916568,0.5132478013,0.0063771869,0.095745311,0.4201680034,0.1596545379,0.0801037636,0.320008476,0.5300336357,0.6011849343,0.1910951698,0.3617036935,0.0031072347,0.1328655019,0.3718473761,0.2089581345,0.0231312362,0.1644242639,0.0563682434,0.537500755,0.0750761696,0.3667813252,0.1222225316,0.7129468777,0.4549732463,0.5292715528,0.3039255419,0.6186067278,0.1391704883,0.3148319298,0.5687625452,0.1031616806,0.1763577174,0.7123598203,0.3439532067,0.1065049329,0.3049018153,0.0338744619,0.1933121491,0.0542129359,0.3745819948,0.1029321452,0.6745049385,0.3862923666,0.1256455156,0.3818352033,0.4142871248,0.1827955013,0.3771561033,0.2582891324,0.1131498258,0.0288459553,0.6505948567,0.5260968352,0.6755444941,0.3984331181,0.6130496591,0.2749736326,0.5068082857,0.0780878608,0.0391060178,0.0329260818,0.0298587393,0.1236106287,0.3157255991,0.6736381686,0.1635990843,0.6591874125,0.4003556505,0.2976695197,0.6430073444,0.1790726421,0.7101288219,0.1363442498,0.3499789019,0.0832990889,0.5058834183,0.6224367142,0.1840913937,0.1184437614,0.3762231246,0.3925643918,0.3561980343,-0.6969947092,0.0433823886,0.2691101925,0.0170009323,0.3631199866,0.2914189984,0.4745496834,0.2147894773,0.1720872891,0.3769901751,0.2925404691,0.7132860141,0.7080736868,0.2819251889,0.4211119826,0.4440297507,0.0430572205,0.6690809005,0.4868446606,0.0984451348,0.1403276217,0.3203955201,0.5033940149,0.0008828113,0.5600802328,0.339838639,0.2922656615,0.3050731894,0.2041535629,0.159679067,0.0850573032,0.6970505146,0.1656884129,0.5268806809,0.2409788274,0.0361846842,0.3025954466,0.5106465016,0.6863950269,0.5891245742,0.1499620752,0.4871842655,0.3978836014,0.0469095147,0.1979860572,0.1277605693,0.5885624637,0.2901363657,0.6296458815,0.604802246,0.1742754516,0.6205397053,0.7002635267,0.7132293592,0.0391710836,0.0073964317,0.3070021046,0.0726187811,0.4534114897,0.433030095,0.6789450168,0.2917994325,0.0514683236,0.6112787662,0.0689381116,0.4296479554,0.2453430357,0.3446031735,0.5909317489,0.6571271079,0.5908470685,0.2683526807,0.0592693778,0.332136398,0.071663786,0.1797102689,0.1948463123,0.0831947963,0.2772685567,0.2770358874,0.6070505341,0.520426335,0.0336099595,0.4810231475,0.6449350581,0.0267397819,0.0290167487,0.542068668,0.1821317711,0.5010619071,0.4936735187,0.5730106032,0.4761419814,0.2340392708,0.142680238,0.4082875191,0.4441842631,0.3192013504,0.1452352197,0.4339281468,0.0231880748,0.6613752633,0.4938994882,0.0457652729,0.1170511233,0.1331577539,0.1268432455,0.225383225,0.4735056211,0.2606134189,0.5405518443,0.374360442,0.2555144229,0.280916501,0.4191618918,0.0508611908,0.1317727506,0.1367739731,0.7127571272,0.0178950682,0.0773538208,0.4155219998,0.5528726282,0.4097837121,0.4242111903,0.2593156497,0.4202565201,0.0545494151,0.190402864,0.208251864,0.6870754284,0.2652641184,0.4848899715,0.5296432178,0.6358086822,0.3203116198,0.2995549408,0.6212857388,0.1167994216,0.0095692696,0.4916303821,0.6935422507,0.1487261681,0.1021962149,0.7103161189,0.7104639076,0.1773178652,0.56968406,0.4420736086,0.0261523457,0.4745976802,0.0947890939,0.5993316214,0.6579954608,0.2907355565,0.0689961203,0.536951273,0.4683621651,0.206072829,0.4045106269,0.2331915214,0.5540210407,0.0062188643,0.4096135156,0.2856837859,0.6783745805,0.1307284402,0.3874017715,0.1740734885,0.6888940992,0.1677878084,0.2537158194,0.1683470559,0.0704103172,0.3460772293,0.1482797247,0.5092294508,0.6286270074,0.4567855443,0.6272061312,0.5055956721,0.0680671866,0.2662249955,0.6427687199,0.1724248905,0.1393507417,0.6089809286,0.6321507224,0.1051619715,0.12338677,0.4394954491,0.3310960406,0.0705753618,0.6989320846,0.6169162485,0.3715310317,0.7053472664,0.4591674355,0.1705258146,0.0996140053,0.3145327336,0.6200083985,0.0576369235,0.6564804459,0.1759143088,0.1688589455,0.6405129033,0.1679478507,0.6179726928,0.5039163953,0.0300627695,0.0201401049,0.1696005614,0.3152500662,0.0474790492,0.2877640811,0.1256848357,0.1333842814,0.2256181529,0.6573727009,0.0517540136,0.4919523693,0.6142252983,0.4344527439,0.3015975679,0.3580593272,0.1378056082,0.1065801567,0.0689430699,0.2016369158,0.1673405348,0.4356145792,0.4537345713,0.4910738639,0.1180047596,0.5079606846,0.5847232895,0.4267449391,0.6247604162,0.2670175602,0.6848566276,0.0789148375,0.4648514062,0.2040681603,0.0217597666,0.4606857463,0.1357282685,0.4534974836,0.5795259473,0.5045675148,0.4854602389,0.101233601,0.6722784141,0.484416501,0.0921325612,0.0828907523,0.3284889029,0.6701538642,0.3868665539,0.0203205706,0.5638244275,0.4278560813,0.0226491749,0.0747915314,0.0230343337,0.532673636,0.5209206922,0.5304539539,0.3930209735,0.6262750005,0.6511645369,0.2036715748,0.0159280005,0.6491514377,0.0971817467,0.5063757757,0.4917053421,0.6341269301,0.0933041089,0.1129345596,0.3814211328,0.4076328136,0.4310803006,0.3837618274,0.3697490455,0.319040806,0.2395136008,0.4579581627,0.1643442195,0.3415250031,0.5706281747,0.4175851962,0.2891951455,0.3877583114,0.0295958543,0.0726013552,0.2637273473,0.3168067893,0.0387109061,0.394159589,0.2995687225,0.106262297,0.4877305196,0.4458876926,0.7050051581,0.5401293474,0.4776611317,0.3615808122,0.1193582445,0.6168410077,0.0251854981,0.2528579652,0.5389490609,0.4628993225,0.0264946764,0.3126520418,0.4738121704,0.3716824625,0.4522450874,0.4240865561,0.1374115218,0.6559538043,0.229718628,0.262570093,0.2512002515,0.3009424927,0.1789788703,0.103416887,0.0125872623,0.1410977673,0.5750128718,0.3262601969,0.0071034356,0.0289756352,0.6455151878,0.5836255323,0.3147373585,0.05084975,0.5775852223,0.0894689911,0.2450271138,0.2050476106,0.6994177795,0.5565959809,0.2985072549,0.0960328273,0.0421428847,0.1742709528,0.7072865616,0.4553549873,0.0474370167,0.6074528257,0.4982548967,0.3975183694,0.5460493091,0.4041991273,0.6811186662,0.3583921218,0.0743197182,0.2150063644,0.5581806383,0.0249578352,0.1571907381,0.659390759,0.191307041,0.069833214,0.4842070461,0.304786862,0.5159920014,0.2145804438,0.0461337104,0.0990391231,0.6842048913,0.2917526563,0.1152249982,0.4552985996,0.2656551188,0.1429439011,0.1700392087,0.5302390584,0.1728144349,0.0048292232,0.7148131842,0.3757864093,0.4732986618,0.4700294199,0.189634534,0.6439177521,0.6667313385,0.242930992,0.3725623236,0.5449275485,0.2774079886,0.5685488076,0.3965563366,0.4035623743,0.5082848903,0.1731839474,0.4803694974,0.3632649149,0.5165862677,0.7141977231,0.3132569596,0.2539540993,0.4662231807,0.0824618901,0.6095711084,0.3975623678,0.3475440121,0.1857306074,0.436113906,0.4827802518,0.6043297451,0.3453558598,0.1970220081,0.7140093162,0.0718258481,0.320582423,0.2660783036,0.5823711106,0.0530890324,0.4426280433,0.3368600886,0.3530577943,0.3003414089,0.6527251163,0.2563828069,0.1537657978,0.3711146342,0.4268883476,0.3836538858,0.0167888744,0.0869269866,0.3536203162,0.5261788347,0.6808315397,0.1747591645,0.4858148159,0.4966715149,0.4090830729,0.1747752642,0.6155502869,0.0592801938,0.6826986026,0.1165232799,0.4439692904,0.0860776396,0.326581286,0.1289993201,0.699796664,0.4338565481,0.696849742,0.2252952555,0.4275204974,0.5148639031,0.1547443671,0.2986339317,0.0822072568,0.3794830406,0.4970742913,0.634991981,0.43182093,0.4049281073,0.1194026558,0.3995097049,0.4591823535,0.5292567043,0.5658091156,0.4022454556,0.4730433856,0.6129371328,0.1408062818,0.3663245175,0.5496317917,0.6535427723,0.4310310082,0.6692272582,0.2256127208,0.1625636626,0.3980349364,0.059051716,0.4265281545,0.2183267197,0.13917743,0.4150566046,0.2196349196,0.6520520312,0.0217369584,0.2123835323,0.6843199504,0.7055907127,0.5490947155,0.2684326237,0.6881172783,0.286336083,0.0241378423,0.6165722012,0.2446639479,0.6162164828,0.0307735397,0.6219949924,0.0535497083,0.7031940241,0.6937597764,0.0976583137,0.035211223,0.608819627,0.0209043312,0.2778109044,0.0943780925,0.0872552257,0.4860384927,0.5973588226,0.2965117901,0.590086671,0.3153448636,0.6028134107,0.3064628421,0.2708849338,0.1798912118,0.7030520349,0.3901859941,0.0769909947,0.4492675093,0.4620378469,0.5243617482,0.2295702437,0.6099812368,0.5749793058,0.256275576,0.5969641755,0.2761699774,0.0230091406,0.1720417208,0.3319452226,0.1093241909,0.4478690639,0.4418869924,0.3714464808,0.6299850495,0.4958994953,0.0434414902,0.193603376,0.3140709287,0.4292435282,0.6719636704,0.3135814654,0.4311203912,0.0383123568,0.1821635356,0.0351739663,0.1581495449,0.094490649,0.6299441619,0.4255425862,0.239581656,0.0620773246,0.4703015675,0.7132447936,0.2516736953,0.0594755275,0.053288907,0.5463323291,0.4399255576,0.5526360175,0.16201046,0.3374784493,0.2806002408,0.3362708124,0.3575091691,0.4461662638,0.4363702299,0.4031544473,0.0981573065,0.6092416067,0.4128340655,0.4642005419,0.624486461,0.6245585461,0.4087868298,0.3755789527,0.3005698152,0.6125792024,0.1542941294,0.4597498279,0.3883045761,0.6107375622,0.0244106164,0.00481915,0.3377464005,0.4915991651,0.464778682,0.6803818408,0.4786649855,0.1096852127,0.1835716565,0.4045525703,0.6498552929,0.0358125291,0.1573528444,0.0939983275,0.2943895315,0.3283151621,0.0590420286,0.4533613536,0.3884420817,0.3635015703,0.2076362243,0.2568034984,0.2188357614,0.3290720154,0.5588207297,0.2248854066,0.0216361507,0.5226348307,0.0007986362,0.1243603071,0.1471921222,0.018368578,0.6154109493,0.437090943,0.5848256187,0.5926174302,0.1612883839,0.0786984759,0.0416666472,0.3334721218,0.6470326415,0.1503065459,0.2153764631,0.1730897091,0.2706122605,0.0552806716,0.0318136125,0.4485834411,0.7076361793,0.3176517136,0.4811959944,0.598263968,0.5554991413,0.1050723277,0.5035513448,0.1324080966,0.1684206621,0.599096802,0.4380616476,0.5770018118,0.011052655,0.5019708446,0.0952750893,0.5298707167,0.2480341992,0.3944507285,0.6195564209,0.1832944998,0.4353053911,0.2206310171,0.6562983983,0.1448445904
   0.0572455465,0.6888186865,0.0135011302,0.0785890471,0.6726912076,0.391191291,0.5400935494,0.5233755309,0.3221652045,0.0153118075,0.5153877765,0.5341361526,0.3762204167,0.1237635164,0.0814212316,0.0708038834,0.6012993778,0.3046458315,0.5895343585,0.1755541962,0.4522622221,0.6538093067,0.4008129596,0.6005355722,0.069785168,0.3555547675,0.0161683499,0.3109263533,0.6652380172,0.585562811,0.1195268888,0.2102507423,0.5577167911,0.2695631951,0.1180698126,0.5637535223,0.063823456,0.0293905437,0.3348708115,0.3826484888,0.6345879159,0.5958622786,0.4038472716,0.324675244,0.3433970564,0.686927471,0.6360556893,0.0880891162,0.0187036059,0.0489870328,0.290402232,0.5552539232,0.1947624376,0.1930944709,0.461499477,0.4875778815,0.1381168503,0.4182518689,0.0272624471,0.2146104368,0.3242155488,0.6889705166,0.6973560275,0.6445794774,0.2622998495,0.0528902597,0.0129564127,0.1130681369,0.2088460207,0.620274351,0.141344996,0.0318528251,0.6216569809,0.335330453,0.5734279352,0.2923181189,0.5241755964,0.0004227931,0.4774800631,0.0410606299,0.6295089636,0.0993265219,0.6779765708,0.4465620039,0.0331976026,0.5573386929,0.3278295659,0.5419106506,0.0622567817,0.5310300657,0.6778107039,0.0005706296,0.3110476647,0.0786432503,0.603128985,0.2248996793,0.6694573981,0.2384440625,0.5724992966,0.0367088581,0.5440120689,0.0076088916,0.5022809897,0.3410629936,0.1395066034,0.171359215,0.5329605074,0.5365481325,0.0064892045,0.3246108279,0.4248408802,0.5919407847,0.0292320885,0.1534842299,0.610385127,0.614679249,0.2368366275,0.3962862075,0.3532089147,0.3209116501,0.0611075847,0.1007259359,0.5124225831,0.3630565889,0.0336678602,0.0943265376,0.6082561881,0.1250865199,0.4794152679,0.3440549836,0.67949561,0.617882761,0.3908472461,0.5184759744,0.6427399649,0.321195239,0.5350115604,0.1839353335,0.3193397381,0.392498935,0.0377619184,0.2395734026,0.575194262,0.6892750697,0.1895085753,0.1804005337,0.008990694,0.2232157548,0.4963933851,0.4174108395,0.096843488,0.6428550963,0.2166138498,0.1838555776,0.3256827407,0.7147322202,0.5012259895,0.243211381,0.2483533245,0.5293093673,0.555955966,0.5937407707,0.6627450519,0.4402626636,0.2164905927,0.7062117392,0.3215526677,0.2642504463,0.3252949978,0.3045336481,0.3635812965,0.3417860641,0.4023720787,0.3230395593,0.5174889326,0.0687272895,0.1808937952,0.5439004542,0.0746874145,0.0517140408,0.1301811774,0.3412009528,0.3029855005,0.6143335863,0.4521678259,0.1882442455,0.2366724554,0.3594113851,0.2812324141,0.2636962723,0.2988117976,0.0473732322,0.6969331599,0.0361061198,0.0066514681,0.061738741,0.0809494451,0.4541965517,0.6601052712,0.1775057773,0.5684846162,0.622203961,0.6551275093,0.6277599134,0.6003341029,0.2288414989,0.2185971871,0.6660583691,0.2306509639,0.6218079276,0.2629954049,0.5175645982,0.1938541869,0.1799366997,0.3714084617,0.5940383158,0.6427633575,0.2862427956,0.4954831933,0.4284038492,0.1008143987,0.0890451202,0.3755526278,0.5984612779,0.1242517381,0.4826520087,0.5768919759,0.6538237849,0.2618054446,0.0664349226,0.0043910786,0.5500727895,0.2692740557,0.0614650457,0.2271367855,0.4199643066,0.0932028336,0.3466700361,0.3676520754,0.2584524574,0.5769321595,0.2317104905,0.2439618586,0.1757014938,0.6429524207,0.2174636046,0.691844993,-0.4802208893,0.3041489343,0.4900939455,0.056511847,0.5537154089,0.6449813089,0.1178998137,0.2665806892,0.132843728,0.495796114,0.193455729,0.4653553665,0.2047977089,0.6268639505,0.6639778909,0.1683216798,0.1820782586,0.5434940413,0.168372688,0.0304769199,0.3522258653,0.1217821386,0.1475867201,0.309272948,0.5478673728,0.3235163122,0.2561882467,0.5920847235,0.0504702655,0.2991601264,0.3534344762,0.5796003888,0.1255267479,0.1503410086,0.2609289755,0.2891339512,0.2485796317,0.5602594064,0.5601718386,0.3259463403,0.5264947697,0.6012329798,0.4176422882,0.2403115454,0.3897535034,0.2638322526,0.5991745953,0.0822045326,0.3346784687,0.1769739467,0.0695451247,0.301684773,0.2119824804,0.0559174135,0.5411373871,0.2990309116,0.0093228484,0.547995459,0.2044086383,0.3449291605,0.6723841249,0.5231519172,0.2571012518,0.1348410267,0.0922294885,0.1752222028,0.0606221249,0.2605668795,0.432339213,0.37817352,0.5072154745,0.2795669013,0.270687715,0.1703792487,0.2212848496,0.2492290231,0.2507863473,0.0343133859,0.6129361671,0.7097976551,0.4962446071,0.6609535378,0.4906199215,0.233295641,0.381554055,0.640979484,0.044537355,0.5038300939,0.5888583417,0.5128620026,0.5449700197,0.5478544815,0.0868471622,0.2494004674,0.5985293687,0.1508106785,0.4635371854,0.5557268604,0.155565242,0.1090864833,0.2633990053,0.0101347238,0.3945938154,0.2406982472,0.7096396798,0.0335025201,0.0386394271,0.4154254339,0.5414693121,0.0394529759,0.3410758143,0.4882362948,0.6839761984,0.4215373551,0.206672101,0.1840401551,0.5576040037,0.0679445939,0.3895195158,0.1137867657,0.4008549315,0.7101148094,0.0026813353,0.3569212908,0.6513703368,0.4393790646,0.6914677469,0.3038867784,0.1497977844,0.11587547,0.2950044949,0.1641041122,0.3694612867,0.6281900036,0.1616737394,0.4832642715,0.5555222188,0.2285635871,0.580453736,0.1894395347,0.3574697124,0.5537487446,0.4681574707,0.0273883224,0.3495318305,0.3181926318,0.3673887225,0.4612328435,0.2928741871,0.5075047921,0.2478813134,-0.2281668123,0.3138096883,0.48233337,0.4606441733,0.3632358792,0.4265506788,0.0157647413,0.643459363,0.690869076,0.5793362754,0.2289037046,0.705896975,0.5079710849,0.3567674926,0.5872787264,0.560811024,0.0333336559,0.1904141484,0.6401075082,0.6000454897,0.6532329709,0.6680679139,0.1483603786,0.2499392522,0.0433598848,0.5047935408,0.6122817616,0.3959823317,0.6357578625,0.518926963,0.4466859869,0.3206148333,0.425139692,0.4765530255,0.0266447844,0.0447306432,0.1202864064,0.6895275909,0.4531176617,0.3760947369,0.4907543967,0.6513082522,0.0313885626,0.6545016455,0.5286837084,0.0251597651,0.353925994,0.1902439522,0.6567675453,0.2584565516,0.3682458013,0.6230229171,0.0916455869,0.1114826689,0.5681875642,0.2553753178,0.033163822,0.4467772069,0.5254138615,0.454218679,0.5100550308,0.145101615,0.4505675148,0.5415033115,0.6731462704,0.0967201299,0.1514475737,0.0367555458,0.4747990978,0.441119398,0.1639090483,0.0562764236,0.3633311736,0.2691632353,0.1914539583,0.408414796,0.5197244751,0.1865568795,0.3716999982,0.3744867017,0.2018632247,0.0025749356,0.3361693657,0.281907665,0.271970688,0.4440012696,0.5985320357,0.1636551254,0.2534215354,0.5785259975,0.615629835,0.214576269,0.035414601,0.1785753254,0.6656754552,0.0008752629,0.683810391,0.568411932,0.1264154814,0.5565880398,0.4372334066,0.0321892131,0.0368236157,0.7145098428,0.3200227708,0.2443890609,0.7025810207,0.0862700207,0.1889986071,0.0113521422,0.044209144,0.1784921537,0.3215879179,0.1072656352,0.5393513513,0.6413289176,0.5430751259,0.5789186021,0.3926398413,0.333399441,0.0768123862,0.28150485,0.4069126991,0.0393376531,0.4488258197,0.1707074612,0.5392542941,0.2150155468,0.2904622017,0.2014305807,0.6893993012,0.3380270434,0.5709070527,0.4431309949,0.1376300242,0.304229321,0.3963842482,0.1220455905,0.374657565,0.3171371709,0.5837497797,0.6651729893,0.4680551453,0.2540003805,0.6773644557,0.4363790062,0.4772667438,0.3193839167,0.1132091195,0.208032565,0.5593937916,-0.3441680989,0.6009530546,0.2043498781,0.376148723,0.1840196314,0.2905128285,0.2290708885,0.4992875738,0.5467226194,0.0688759168,0.680501954,0.1008958768,0.2930800619,0.6721114395,0.2325439499,0.2956241047,0.2065348471,0.0761782102,0.1383763509,0.2520592802,0.214601334,0.6894664179,0.4948487275,0.2421859467,0.1272042181,0.0338650302,0.0946450335,0.3901447726,0.663567393,0.7014426571,0.6191267289,0.4240464522,0.5935470703,0.2049315527,0.2010798034,0.288233913,0.5929232999,0.4742834998,0.4127065069,0.4779789511,0.5265117551,0.3453234785,0.282955353,0.0862870902,0.1890756277,0.5708747026,0.3092939458,0.6259814358,0.4650351485,0.1911505313,0.2678851795,0.3297228753,0.7055125548,0.2020004721,0.0456688425,0.2021178116,0.4450333182,0.0147269399,0.6343928238,0.2619315148,0.2119103006,0.5440060686,0.2845840309,0.6354311939,0.2329067351,0.0584082445,0.3850950285,0.6696360612,0.3933428502,0.534219465,0.6146503455,0.1408721614,0.5959723191,0.388954519,0.3948434686,0.3338480202,0.6771946815,0.0453805651,0.4998234018,0.669488673,0.0016334301,0.073109083,0.3871240819,0.2051465365,0.6508849501,0.2598142548,0.3864348845,0.2993134176,0.1901876938,0.5347248825,0.0208056119,0.2630730216,0.1086687072,0.6479430304,0.3657832964,0.1616578257,0.4666656575,0.416806138,0.0626586006,0.5131574984,0.2053208551,0.6582019625,0.4750803917,0.6670379817,0.1689160241,0.6379788881,0.5701075966,0.6300794121,0.1891724978,0.4941938734,0.1894657967,0.5546798454,0.07540901,0.0716566578,0.3816898071,0.2948812478,0.3790602275,0.4004609059,0.3522366137,0.0262659541,0.3842002337,0.4525387975,0.6238365606,0.2321884223,0.4151633879,0.1291334045,0.6857129696,0.4601543455,0.6866541378,0.4119631646,0.4175989008,0.4433683987,0.2534347286,0.5881566407,0.0911128794,0.4347430506,0.3837533226,0.0922281085,0.5237825329,0.3962493317,0.2680283488,0.4957895374,0.3745239609,0.5172074169,0.1283549597,0.2288183891,0.3858932858,0.615615097,0.3203538089,0.6364758075,0.1314215792,0.123417005,0.5392260933,0.0721668893,0.4548646329,0.0985388995,0.143788052,0.0446794475,0.3160467633,0.3134066086,0.4744551952,0.1472973039,0.4632353912,0.3288153183,0.5241071075,0.0567236412,0.628243711,0.4719949887,0.3417183502,0.0900291705,0.4482016414,0.1558749186,0.3937681519,0.694214535,0.1811558535,0.3927398688,0.0121416702,0.5031464842,0.3835152408,0.2975562298,0.0374169664,0.3693858906,0.6255122526,0.079154117,0.6426141276,0.1145363644,0.4617273762,0.2497608263,0.4492376408,0.6756851165,0.6050392657,0.2829807904,0.5321699873,0.5988345712,0.2125473844,0.2572977871,0.6863222909,0.0414397711,0.4445013146,0.2517734099,0.4558387801,0.6120766686,0.1097083996,0.4800512,0.7073083275,0.6267229301,0.5852764979,0.3613687853,0.3423706262,0.0802927646,0.4591070286,0.4406430093,0.2786183742,0.5728385901,0.0812541907,0.0661920066,0.6206119646,0.4979842406,0.0696348076,0.6175246861,0.0862481625,0.7043213707,0.6613506483,0.5976771306,0.3485874605,0.6172459927,0.5450289763,0.4411892632,0.2164168474,0.4746794498,0.3679368712,0.4418271504,0.2958880783,0.4132676876,0.5990320902,0.1780174724,0.573496088,0.0919969409,0.4455671298,0.5494401177,0.5425665742,0.6551862565,0.4455868942,0.1075513683,0.4744507237,0.5070261388,0.3453972775,0.3038583074,0.4085065625,0.4450140127,0.0370705411,0.3622488717,0.1543408327,0.3465139467,0.4628372214,0.0149604603,0.0127034995,0.0713214367,0.5222866586,0.117266516,0.7028149189,0.5613973891,0.4794674839,0.1499515231,0.5343506467,0.4514226246,0.2592663302,0.1063573521,0.1098090733,0.3964171502,0.2402102495,0.1801226916,0.3166940375,0.0357979019,0.282843303,0.0969284453,0.0429415978,0.0363562892,0.7138859994,0.0351417501,0.1039562184,0.7155691223,0.5495200664,0.0751063153,0.4081255801,0.38988941,0.1040763186,0.4928333064,0.1062127553,0.6880023758,0.6029569614,0.1447227197,0.109625267,0.1728166071,0.4060317524,0.1231782827,0.2995847866,0.3992099197,0.5370599497,0.4073604687,0.5147746524,0.1902860293,0.1655371418,0.3001196168,0.4298353976,0.3257704834,0.1097732064,0.2931206756,0.6221411925,0.396273155,0.0679561668,0.6746243335,0.5146266807,0.2372994624,0.14807937,0.6772284619,0.2165251155,0.3679441626,0.2232609835,0.2691133865,0.4092901115,0.3158897393,0.0226405916,0.6014417696,0.2242813414,0.1955889943,0.0637519953,0.0813439281,0.6758805356,0.5009918153,0.3370715008,0.3138839977,0.4852402493,0.7135408092,0.6706666079,0.1849542903,0.1523693233,0.2712602932,0.4897689394,0.32432963,0.4246094371,0.3792959686,0.5324883807,0.2102760737,0.1455189904,0.1216968831,0.317266007,0.4264424082,0.6995083536,0.0638340331,0.1848791774,0.6753370452,0.4001404473,0.4329761505,0.650698051,0.0403482461,0.3480263396,0.3436894883,0.039901523,0.6701600459,0.0215325203,0.6691996963,0.1019972878,0.2259319668,0.6763776893,0.7098884815,0.2134370526,0.0141170658,0.4951215576,0.2186218332,0.2667116433,0.0565974843,0.4660192504,0.449647342,0.4786270098,0.55528743,0.2036116793,0.6942567931,0.4387861616,0.4501515599,0.5822032588,0.6697509343,0.2245382797,0.2382704109,0.1651090683,0.3062297023,0.030936463,0.2794165225,0.1722552329,0.3180527042,0.180415958,0.3994701549,0.2705416316,0.5165986295,0.0471091624,0.2439238489,0.5954724232,0.6508028418,0.4596367226,0.3284856332,0.522469296,0.566181659,0.3960964871,0.5521227636,0.1250056834,0.1226799916,0.6711946045,0.3628141724,0.3716212366,0.2130792667,0.4157233335,0.3778459128,0.2641653288,0.2760454912,0.370528583,0.7063595441,0.6576333763,0.5665916184,0.5716053132,0.4307500553,0.1184806523,0.7146169898,0.0247595697,0.6608561614,0.3474679732,0.5796113263,0.5710476553,0.5068722457,0.5726148206,0.4793751256,0.0012935192,0.6112557579,0.5097857378,0.0595413215,0.6088589244,0.6975547935,0.2069147347,0.2281058499,0.6292176575,0.4526178518,0.6287854406,0.0146793037,0.628554957,0.3744273798,0.2025667392,0.6103806715,0.4709999374,0.1994958976,0.5997953433,0.0364825394,0.1683031955,0.1371851826,0.5025642711,0.2482674057,0.0159292064,0.0992701689,0.6868711865,0.0381029467,0.6794743815,0.6144288059,0.4520024126,0.4072974993,0.4666698848,0.441899805,0.2666300797,0.0917748014,0.6841711125,0.0103235412,0.0995612561,0.2048710299,0.473966742,0.1993675109,0.2430491722,0.5519374468,0.1419656933,0.3510735007,0.0658342326,0.3771512187,0.4122946522,0.3708110437,0.3581222364,0.6542822512,0.4244062288,0.0075959844,0.5064844752,0.5981372841,0.04422252,0.3167082067,0.6396164728,0.3524856157,0.1124914479,0.6255812737,0.3264515603,0.2422157793,0.3253989332,0.0274709059,0.6846975653,0.2384274965,0.5978782035,0.3839360276,0.0598733416,0.1223659067,0.5528544914,0.6425854551,0.1973493388,0.0629050601,0.5822307954,0.3887389047,0.3771911012,0.6107793815,0.5696317476,0.2152443622,0.3124668982,0.1896470613,0.122742273,0.4428796386,0.0680677459,0.0738732795,0.5144732647,0.0988664614,0.2558453722,0.404323003,0.6176082561,0.0192706013,0.4868578778,0.384693306,0.0247366755,0.4738312344,0.4901406096,0.3283040006,0.6437700455,0.6787284048,0.0691467989,0.5864659971,0.5846487526,0.1034092796,0.0120514166,0.1136292442,0.2753278754,0.5623094456,0.0546306053,0.2972636215,0.5690560896,0.0170534726,0.2846179227,0.1412346079,0.1721622232,0.2002030062,0.3201232199,0.6694521165,0.0271921509,0.6300693237,0.6625044909,0.3914564129,0.0551747194,0.0114545352,0.265255191,0.6182568578,0.3007225946,0.2718441648,0.1095032316,0.6262681646,0.3559872593,0.5601562446,0.0209190925,0.0238687744,0.3858397651,0.001399901,0.4668378131,0.2710986813,0.2735524648,0.4907993349,0.5012276974,0.3648314404,0.0154391802,0.5262651172,0.4693536302,0.3997904824,0.6107130915,0.4326638288,0.5625838668,0.2972281853,0.0178181827,0.353456884,0.4164026166,0.3952723699,0.1938562615,0.2692769609,0.3086460153,0.194723548,0.6121321039,0.2664180073,0.0478979952,0.4904419574,0.581402596,0.0286102795,0.2255187857,0.4452354786,0.6244738531,0.2309725964,0.0118613905,0.5183934738,0.2880256338,0.1036526149,0.1984966201,0.4595401412,0.3701531153,0.0551755346,0.1996738603,0.105579355,0.0415980264,0.4548860878,0.5490687899,0.0827209405,0.1228893955,0.6476381144,0.0169241515,0.5156510066,0.3712127534,0.2636009703,0.2767385773,0.2989540446,0.3075032283,0.4094596645,0.0378574354,0.0610740054,0.7091485811,0.268799756,0.0112482619,0.3302113344,0.2694312576,0.3022720303,0.3756095175,0.5051120577,0.0182142988,0.6258097322,0.4153749102,0.1034936237,0.2818986915,0.4772320329,0.1373174726,0.579944717,0.568679529,0.5959536108,0.2334789414,0.0153808025,0.1243745135,0.2074595424,0.4338103728,0.1873233444,0.2743313233,0.0685323863,0.3378199087,0.354346798,0.1037305314,0.5733650744,0.7130633306,0.7123353452,0.6569257491,0.1881543873,0.6754388894,0.3906228078,0.6673255919,0.6936663458,0.3222347532,0.1508329277,0.4469299291,0.0476755744,0.3646324077,0.4620210752,0.0402946028,0.1011467362,0.1236097999,0.2143723324,0.1066592119,0.6911970746,0.6747864725,0.1859866076,0.1313222351,0.4576963141,0.3334300108,0.4692167243,0.0666785586,0.5433186174,0.024419398,0.2214781504,0.3408435858,0.6845393056,0.300502726,0.5731507507,0.3166269821,0.1560962365,0.1725033915,0.0416097982,0.1670637505,0.5544065224,0.3300574279,0.0778789227,0.1776712094,0.0716894819,0.3594247604,0.0170708515,0.6312165949,0.4955899669,0.3039932025,0.170545002,0.361105049,0.1942376206,0.1713815106,0.2246810508,0.2851185461,0.1558389845,0.6083057622,0.0888779665,0.2133899465,0.3743211747,0.6871721222,0.4761951722,0.1285959816,0.596906127,0.1045319112,0.4892939583,0.2910460768,0.5708740578,0.3961204608,0.3997798508,0.4330965995,0.1196919754,0.3008028867,0.2256523753,0.4098154495,0.037050746,0.08955454,0.2805446875,0.448270387,0.0044004329,0.5722593993,0.288987327,0.2609575487,0.3612612922,0.293872219,0.1050066202,0.0896407408,0.2579964073,0.2670773626,0.0087547811,0.5470913164,0.2305839619,0.0238946079,0.5933502655,0.5980661553,0.4975433688,0.0062825034,0.5511985975,0.0438474202,0.527669838,0.0149462358,0.0655910345,0.4548852863,0.3876232658,0.2993298572,0.1565823689,0.1323114536,0.175397076,0.6834480954,0.1170748264,0.0456244792,0.1290962189,0.0480764065,0.1698849123,0.1150519629,0.3685065201,0.5282255456,0.4070175529,0.4065248434,0.0904260256,0.3731074663,0.1519751662,0.2275408405,0.703613176,0.5951407316,0.6666985447,0.4539844874,0.0033817284,0.685344348,0.441094163,0.1116173841,0.1799553269,0.0686541079,0.3622326402,0.4397798647,0.5895427464,0.5111957314,0.5731759744,0.4797316581,0.0348431179,0.5037041935,0.4221111129,0.2849857238,0.273600199,0.5471435797,0.25625196,0.649242709,0.0320281476,0.0120920426,0.422491743,0.3486244961,0.1805813182,0.5896401674,0.5796681726,0.1764936432,0.0268869994,0.0433646314,0.0426176164,0.5950381088,0.5277730904,0.2012179019,0.2215664032,0.5951897877,0.2287506982,0.1264522397,0.47582373,0.431734112,0.5985374443,0.1816759582,0.4658883818,0.3512420552,0.5173634497,0.5776056884,0.0773437444,0.0108482117,0.6133343086,0.6950510804,0.2519204033,0.0908364376,0.1065317544,0.1421679398,0.0779285976,0.6727166273,0.1209409637,0.0430703713,0.6271009578,0.2434216716,0.1517452698,0.557984409,0.6143024698,0.2964080872,0.0858725559,0.6940587694,0.1305829855,0.6515796816,0.1311358751,0.6899336563,0.1918148059,0.2622584795,0.0194384897,0.328322652,0.1154157612,0.1339158169,0.6839561798,0.0716480305,0.2198782612,0.0880022699,0.3133489985,0.3327573096,0.0637707768,0.4222095971,0.4559444164,0.217501017,0.697758891,0.4021299337,0.1252812642,0.3274541989,0.314746151,0.4269672744,0.3907170562,0.0910746815,0.0900222377,0.0510341207,0.3919671264,0.0519409058,0.2188660779,0.6504227107,0.1272016521,0.3413080398,0.0146024626,0.547149313,0.6741669696,0.1292099988,0.6683489792,0.4789218639,0.1879148269,0.2929398756,0.528785482,0.1508196549,0.383181904,0.2011535188,0.1899780891,0.2221091241,0.5559269878,0.0188143456,0.6583923198,0.61818428,0.495947281,0.4341314882,0.0300058553,-0.2183929081,0.6702997927,0.1438711347,0.2226976951,0.0588656459,0.7059580378,0.5538401911,0.477078354,0.6842433867,0.3675689916,0.383053397,0.6053902892,0.0656265512,0.1722389406,0.6514872212,0.1198151632,0.6831350002,0.6338872583,0.6215576632,0.6385612352,0.6939880688,0.6718929447,0.3453537971,0.0413817502,0.146454694,0.4628724,0.6816099753,0.3844111649,0.3564718553,0.0505107319,0.3129429967,0.3941045377,0.3432032522,0.3158048488,0.1998987184,0.1248877432,0.2216029315,0.3741293839,0.1326185664,0.6718054933,0.3141324515,0.344516096,0.511047354,0.2873055815,0.6325850962,0.2983411572,0.2288001222,0.2723313202,0.0588849008,0.3403917839,0.470428045,0.5142969855,0.2559192654,0.1741593236,0.2627428082,0.6938088939,0.1892409951,0.4729537465,0.242271344,0.679027249,0.7040632409,0.0593759242,0.1502953144,0.4909123719,0.2787598836,0.4551972868,0.2311262204,0.3180339846,0.6841447118,0.1228195682,0.2017342253,0.6537676745,0.506363921,0.4008967945,0.6259641664,0.6449958515,0.0917797431,0.5699950612,0.0807339244,0.3962438506,0.2438452917,0.3734440612,0.3627144713,0.5048183936,0.493720366,0.5316646854,0.4584063026,0.6513285576,0.4233868214,0.2557857304,0.417057492,0.6677960013,0.2271928343,0.2739357435,0.6450483549,0.03427308,0.1961566005,0.0761683556,0.0972081716,0.5880568918,0.2320189146,0.6033376815,0.2288664748,0.1767599027,0.0116153141,0.6268721039,0.7045334424,0.5480163401,0.5727141901,0.4518685191,0.6185891231,0.6304634897,0.6361078764,0.3710612338,0.5542882848,0.1152893241,0.2658091181,0.5163478994,0.000170687,0.5821848402,0.076654028,0.5493100369,0.6084564511,0.3560440015,0.4217968855,0.3035780912,0.3992478853,0.2571380096,0.3096283222,0.0087797228,0.600636836,0.0630943147,0.7133065557,0.4456719227,0.4898018944,0.5579973487,0.6564395977,0.5984011546,0.7158625742,0.3883640473,0.2296091277,0.0343468646,0.1180978444,0.055737128,0.4292869888,0.4398705308,0.2599081438,0.4289087487,0.34115591,0.5098271938,0.0117740149,-0.3946929042,0.6396557127,0.1611230154,0.3770666344,0.139593825,0.0886349069,0.6219667307,0.5391801988,0.027014423,0.4271355955,0.6341153995,0.455150579,0.3789063022,0.508507867,0.2824639568,0.0244302882,0.0457016697,0.0957657089,0.5504632003,0.4482807108,0.4771150573,0.2822858021,0.3791960606,0.3694485641,0.2568644223,0.6481761121,0.2164471745,0.0118533429,0.4351795762,0.0059677127,0.2225952336,0.304944897,0.5967438288,0.618492967,0.686157452,0.5201026854,0.0640038093,0.2502216511,0.3289105659,0.4467749034,0.2416993574,0.1625052992,0.5401441442,0.0465026802,0.5093950626,0.4621821631,0.5687645113,0.38260899,0.4603987835,0.4477581529,0.2142071036,0.6222409673,0.2784910936,0.1900507295,0.1589923153,0.0404571293,0.6723963827,0.0691212149,0.0998794484,0.0585300156,0.643298917,0.0859933981,0.0656212395,0.0013624368,0.0323988774,0.0109117223,0.3562663228,0.4697812069,0.1297778271,0.3247405423,0.3142097889,0.2234739766,0.6169295802,0.1292561363,0.0532719293,0.5123608659,0.1999942244,0.6116365573,0.5783005468,0.3260294431,0.5872926486,0.569581852,0.471230887,0.0716580007,0.4590084092,0.2862317506,0.1296883498,0.1290659912,0.1540946058,0.5140705804,0.5954750496,0.4948914635,0.2313132825,0.0008064468,0.4283191406,0.6737120276,0.2250837082,0.3104017693,0.4144747878,0.321531272,0.2718971516,0.6800762119,0.1046155608,0.6398848099,0.0263772426,0.3047134017,0.4395045043,0.3791719411,0.6700980048,0.396743039,0.5927980719,0.4190082926,0.0488137165,0.4186570363,0.5045514845,0.1940304203,0.4457155241,0.6215082024,0.2467421355,0.1741885892,0.5950999911,0.5640540049,0.6599945442,0.6295202787,0.0360290073,0.2941415494,0.6607235868,0.0671309182,0.1550851372,0.5043561015,0.6634221723,0.5372472462,0.2534419826,0.0772278699,0.378117542,0.3702272436,0.0162584098,0.5320146294,0.1356675667,0.2469108152,0.2723959243,0.4682094867,0.2313742915,0.3853401993,0.7080441711,0.0288383846,0.2458740583,0.6661540874,0.2943679114,0.5335740879,0.2678224421,0.4201796622,0.2147480743,0.6068247589,0.4687785693,0.0061657382,0.6178059326,0.1923244297,0.2617787418,0.5758324409,0.2836977259,0.4307088483,0.208264483,0.2645788561,0.2008918315,0.092052221,0.4894956957,0.1242811633,0.6318120476,0.1147551505,0.3431258895,0.3512130086,0.3762144129,0.4439189244,0.5302695683,0.5179930684,0.0378840112,0.5884407555,0.4770763321,0.1716213062,0.625647796,0.2985198583,0.1009680337,0.4839451523,0.4090075912,0.3777392924,0.4831330216,0.5361513042,0.5870233449,0.1765039085,0.2164193543,0.7022798718,0.3914721971,0.448141027,0.0496484665,0.0692542083,0.4309315019,0.4159482729,0.0724728684,0.1514030424,0.0566604517,0.6026887034,0.4179767496,0.396742948,0.3440675253,0.5748162126,0.2226797164,0.1965451646,0.2799711675,0.3995723069,0.1310915641,0.2970112558,0.037689812,0.5244516107,0.0242931571,0.5596477519,0.1278875068,0.0679170615,0.5055275946,0.4159889609,0.0642437613,0.6559576732,0.0959511385,0.0995250545,0.3996777027,0.0872374664,0.1163737937,0.6547416924,0.0252255927,0.3871091858,0.0974462966,0.0377855898,0.1666591722,0.0746677889,0.5902991,0.0067912401,0.2223195871,0.3085562993,0.5430950651,0.1168861116,0.0727958862,0.5895135893,0.1592087899,0.5752366485,0.0176466087,0.0600193255,0.4332842937,0.0910850993,0.2141549335,0.4346877928,0.0325248607,0.4334439708,0.4474325785,0.0533164665,0.3817609969,0.1088460058,0.0565405776,0.5751589901,0.0949172417,0.1450922002,0.6292317292,0.3132809823,0.2268086136,0.2230632272,0.6231670246,0.4011125052,0.384229069,0.06126592,0.3342325432,0.105758657,0.5050762813,0.3270382101,0.0228543306,0.3249423259,0.4078489193,0.031904121,0.0665089076,0.3045753287,0.6315567071,0.3344985748,0.7042808237,0.3676034051,0.0208816752,0.1713695325,0.5005359004,0.6646913614,0.3378131696,0.4389777816,0.2119349589,0.0919023465,0.6662120712,0.018978758,0.4536138313,0.2369218356,0.59863675,0.6040118438,0.6161025471,0.4804843103,0.2991257115,0.5962347391,0.2927196851,0.107363538,-0.6279104322,0.3979593981,0.3309908034,0.157753412,0.6352769885,0.1821826171,0.2284509208,0.3108009629,0.3533380544,0.6594856014,0.6912167345,0.1357121818,0.1612326736,0.004446479,0.0331919384,0.5689790613,0.6818909854,0.6026726783,0.6571885925,0.5737850271,0.2576948362,0.56270742,0.0385312414,0.5055827777,0.3283965595,0.4542119877,0.6043182453,0.3102150781,0.6612841432,0.3672812644,0.0681570254,0.1900026679,0.4669368259,0.3441610181,0.6471500641,0.4398021797,0.5658825164,0.2712122447,0.2477307255,0.3167120074,0.1090330609,0.5984295623,0.1725473318,0.1752220411,0.5517183907,0.2307194746,0.1604119398,0.0685041581,0.0071053823,0.287347794,0.6520610915,0.5035458059,0.7148097496,0.2116559829,0.6979263481,0.3361720729,0.4345289339,0.605167353,0.4051645256,0.132447629,0.1334432753,0.1305264182,0.645989867,0.4505557262,0.458970001,0.6653352112,0.5175050089,0.5311590381,0.1787272258,0.0392526748,0.2717214242,0.5846678537,0.3853237936,0.5140009011,0.4814190041,0.475650954,0.397924354,0.2886810619,0.4870225872,0.5760553398,0.1179593754,0.1976583316,0.6099955096,0.6335961581,0.5861662445,0.6370187053,0.1903071778,0.5736903319,0.2704344714,0.6942800588,0.5717553525,0.0736327896,0.1896862764,0.3516074619,0.443836104,0.5196184428,0.5710985732,0.3579207731,0.1337179927,0.0034853346,0.1644757137,0.0762921704,0.0692603109,0.0000506672,0.5267847981,0.4969692872,0.1614201516,0.1389356724,0.3665978152,0.4529906906,0.6879297521,0.2478839037,0.6421029356,0.2412567331,0.4030504766,0.7060800721,0.1831771882,0.1785938634,0.2461188517,0.1159762469,0.3897893348,0.7098649118,0.0352943675,0.1937162357,0.468952808,0.0230332149,0.1541384186,0.6481033284,0.097109182,0.0281168083,0.2006474788,0.0430127847,0.427216434,0.0214638198,0.1317099144,0.6040936196,0.709596439,0.6041381967,0.143053624,0.4950392086
   0.2668283701,0.3279210967,0.125627299,0.2601661354,0.3262040362,0.0272937243,0.3509596112,0.5746232731,0.2892416802,0.1165731662,0.1218485606,0.1625922402,0.3767329265,0.2646420829,0.5789231993,0.5918308416,0.1324622604,0.54812944,0.4114171049,0.6239266522,0.5868084836,0.1015035348,0.2211751761,0.2748429841,0.0666789047,0.1494661134,0.134981182,0.4876799845,0.3497041029,0.5927982469,0.1191378347,0.2395401973,0.3283546861,0.5867035697,0.5005550367,0.460889632,0.1719516443,0.510766734,0.6095126648,0.1794644516,0.4930827504,0.1419044941,0.6471726967,0.7106229259,0.4971831066,0.5331354372,0.3556960736,0.1885792714,0.6068439552,0.5634520515,0.6141759415,0.137637275,0.1133924893,0.3571231792,0.4840195281,0.6230420399,0.5009305302,0.0746284815,0.5668462424,0.1405798461,0.694697786,0.0585561238,0.0880558283,0.7118757183,0.440980839,0.3935401162,0.6482748037,0.3775703695,0.2270101419,0.3798753602,0.0859111323,0.5370849745,0.6726273417,0.3394425641,0.1937908761,0.5355979387,0.3350565128,0.1996051009,0.707815142,0.5097405843,0.4292306177,0.6930706973,0.0942932516,0.6541943811,0.5028714542,0.2731996191,0.602571438,0.1605022212,0.4816161359,0.3155242811,0.5285176812,0.4291261638,0.2549139439,0.6644693829,0.5605561947,0.6682108136,0.2491009052,0.1232796841,0.4280789952,0.5912634538,0.4991653603,0.0682066142,0.1343561373,0.7087044928,0.2849253613,0.5050762474,0.6963441282,0.5756591802,0.4208132034,0.7118864215,0.4435464647,0.3401316531,0.6062341408,0.4387568436,0.6720720289,0.4362744908,0.0460043514,0.3627582858,0.1634821306,0.2395229008,0.6979400731,0.4060895169,0.2481661867,0.0447569509,0.398779742,0.1274519387,0.4854310234,0.7153735726,0.5427107501,0.3304069976,0.4822311,0.5124076757,0.4395060515,0.4409643626,0.6891991017,0.3351735522,0.3365907128,0.1393126087,0.5782660994,0.4705145541,0.5798088482,0.0133600641,0.5680147702,0.3505246379,0.5982750052,0.4039908271,0.6902580779,0.3994318551,0.6545316599,0.1227568148,0.2650956499,0.0212226835,0.0852751476,0.2319076252,0.5943551434,0.3766296327,0.6073419823,0.5864648885,0.6005292355,0.3819599116,0.2988572636,0.0814357669,-0.0574246688,0.0881248518,0.369946455,0.0887119661,0.6202694406,0.2973483544,0.0867970293,0.3291373869,0.3988420715,0.5641000411,0.5077021688,0.1670684131,0.4830606909,0.1331758927,0.1714988912,0.3458301541,0.2722351376,0.3852650092,0.1934306117,0.5435476753,0.0229553014,0.1815505919,0.4996678327,0.2090428198,0.2404946014,0.010774359,0.3187161426,0.6088467447,0.0757222638,0.6279301391,0.1562016233,0.3991563603,0.1130390308,0.565695318,0.2800212392,0.0166895432,0.3632388602,0.2846285792,0.0291347088,0.1701644656,0.2501901738,0.6487782495,0.1229087637,0.2453626394,0.3413179917,0.4390830141,0.3300018902,0.0825060338,0.6541659675,0.4626317903,0.3652693809,0.0266355775,0.2945262412,0.2681153252,0.4569745769,0.5647391231,0.0611745055,0.5520345176,0.5497733079,0.2662645537,0.6748237766,0.3904422262,0.3229484144,0.563288039,0.713528146,0.3042634501,0.4259413975,0.2950291151,0.6366883844,0.2052549997,0.4534560443,0.6823895238,0.4069711592,0.5516677804,0.4548638025,0.4029982324,0.3472665082,0.6343542618,0.4921835536,0.1685977161,0.6863316657,0.1997731715,0.0802136875,0.1777445209,0.0622506978,0.1421892685,0.1711050794,0.565814817,0.0932856231,0.6055214973,0.6946995205,0.6694677094,0.0716998244,0.5866514068,0.4871675103,0.1691408299,0.2780303416,0.3806710823,0.0135739669,0.4732316652,0.5327427228,0.2658381507,0.6806100813,0.2111093604,0.0316395713,0.2112326617,0.0221118384,0.6712986088,0.4431801126,0.5060144503,0.3368263759,0.0929324371,0.5853129073,0.2592691735,0.5756710417,0.6987703526,0.3062653949,0.4731276734,0.0185625128,0.1656834796,0.4769209583,0.3325264523,0.2273333998,0.2476086263,0.1082317507,0.2083265724,0.3835192878,0.6355443039,0.6626948827,0.4423114772,0.6172992415,0.6589697561,0.0763218584,0.5679502336,0.3467249635,0.2368627523,0.1447740819,0.4155501011,0.2872532122,0.2242021232,0.1132129917,0.1449692499,0.2921551872,0.6320190223,0.0768728434,0.0738316851,0.1112728877,0.5983767597,0.4067010633,0.2930724766,0.0158967116,0.1288430021,0.544029364,0.3309626308,0.2826602058,0.1169595069,0.0905906707,0.3971501542,0.2453859899,0.0674179509,0.2583616195,0.5086605169,0.2624533024,0.4031525752,0.0961942691,0.3098799762,0.1475610177,0.2344872292,0.499140661,0.5751812542,0.0043987739,0.2096178932,0.2486629281,0.278711937,0.422204356,0.0941816388,0.0456245429,0.0977154161,0.2114456811,0.2028824477,0.145922871,0.2842393413,0.377929195,0.323438776,0.5111317377,0.4049411879,0.3166402127,0.3001599103,0.0329438721,0.6489626503,0.6672315291,0.0568707111,0.710471367,0.0270287485,0.5790067065,0.0812494357,0.2144487199,0.0116561018,0.3463514556,0.072657899,0.5365171844,0.4243463053,0.4554645709,0.5670282049,0.0331709602,0.5996397509,0.325097325,0.3605674037,0.016040411,0.1338474417,0.3853132653,0.61325091,0.4278543818,0.161582383,0.4854312779,0.4636148535,0.5605814559,0.5331305339,0.2171469872,0.1309325005,0.4514872672,0.6672294113,0.1597085924,0.3963777988,0.3028807685,0.6565587638,0.0196219407,0.1096204769,0.002664543,0.2334372035,0.1526585407,0.2511225613,0.3072126207,0.4697804954,0.4637736981,0.0124672356,0.1073215974,0.0697180304,0.0365462567,0.0390884445,0.2604866413,0.0152641134,0.3044185259,0.4517035331,0.3838248112,0.0194074559,0.5690485375,0.7124168387,0.0447014637,0.0843508762,0.7029952891,0.1382063366,0.3399706444,0.6104673446,0.3125878673,0.5508276146,0.0161264536,0.0713279532,0.0120771879,0.6685942087,0.464332876,0.137422827,0.7112891004,0.4065634969,0.5195325956,0.0456682937,0.2894800716,0.5139725677,0.1654874392,0.0462960582,0.0660137373,0.1433077769,0.677401647,0.1130227352,0.1359736486,0.3873266433,0.1896447803,0.4060553691,0.6142047048,0.4636266988,0.4527693381,0.2662882447,0.0618375685,0.0423392987,0.2866752648,0.4831376342,0.4415076044,0.086497297,0.3610616251,0.6632575937,0.1279622199,0.406674704,0.252417631,0.1213658642,0.4175874537,0.482406884,0.6863471447,0.0927555006,0.077515058,0.5233788285,0.147067471,0.5763181806,0.4412137042
##end
biasActivation=0,1,1
[BASIC:ACTIVATION]
"org.encog.engine.network.activation.ActivationTANH"
"org.encog.engine.network.activation.ActivationTANH"
"org.encog.engine.network.activation.ActivationLinear"
