encog,BasicNetwork,java,3.4.0,1,1748898841822
[BASIC]
[BASIC:PARAMS]
[BASIC:NETWORK]
beginTraining=0
connectionLimit=0
contextTargetOffset=0,0,0,0
contextTargetSize=0,0,0,0
endTraining=3
hasContext=f
inputCount=600
layerCounts=1,26,51,601
layerFeedCounts=1,25,50,600
layerContextCount=0,0,0,0
layerIndex=0,1,27,78
output=0,0,0,0,0,0,0,0,0,0,0,0,0,0,0,0,0,0,0,0,0,0,0,0,0,0,1,0,0,0,0,0,0,0,0,0,0,0,0,0,0,0,0,0,0,0,0,0,0,0,0,0,0,0,0,0,0,0,0,0,0,0,0,0,0,0,0,0,0,0,0,0,0,0,0,0,0,1,0,0,0,0,0,0,0,0,0,0,0,0,0,0,0,0,0,0,0,0,0,0,0,0,0,0,0,0,0,0,0,0,0,0,0,0,0,0,0,0,0,0,0,0,0,0,0,0,0,0,0,0,0,0,0,0,0,0,0,0,0,0,0,0,0,0,0,0,0,0,0,0,0,0,0,0,0,0,0,0,0,0,0,0,0,0,0,0,0,0,0,0,0,0,0,0,0,0,0,0,0,0,0,0,0,0,0,0,0,0,0,0,0,0,0,0,0,0,0,0,0,0,0,0,0,0,0,0,0,0,0,0,0,0,0,0,0,0,0,0,0,0,0,0,0,0,0,0,0,0,0,0,0,0,0,0,0,0,0,0,0,0,0,0,0,0,0,0,0,0,0,0,0,0,0,0,0,0,0,0,0,0,0,0,0,0,0,0,0,0,0,0,0,0,0,0,0,0,0,0,0,0,0,0,0,0,0,0,0,0,0,0,0,0,0,0,0,0,0,0,0,0,0,0,0,0,0,0,0,0,0,0,0,0,0,0,0,0,0,0,0,0,0,0,0,0,0,0,0,0,0,0,0,0,0,0,0,0,0,0,0,0,0,0,0,0,0,0,0,0,0,0,0,0,0,0,0,0,0,0,0,0,0,0,0,0,0,0,0,0,0,0,0,0,0,0,0,0,0,0,0,0,0,0,0,0,0,0,0,0,0,0,0,0,0,0,0,0,0,0,0,0,0,0,0,0,0,0,0,0,0,0,0,0,0,0,0,0,0,0,0,0,0,0,0,0,0,0,0,0,0,0,0,0,0,0,0,0,0,0,0,0,0,0,0,0,0,0,0,0,0,0,0,0,0,0,0,0,0,0,0,0,0,0,0,0,0,0,0,0,0,0,0,0,0,0,0,0,0,0,0,0,0,0,0,0,0,0,0,0,0,0,0,0,0,0,0,0,0,0,0,0,0,0,0,0,0,0,0,0,0,0,0,0,0,0,0,0,0,0,0,0,0,0,0,0,0,0,0,0,0,0,0,0,0,0,0,0,0,0,0,0,0,0,0,0,0,0,0,0,0,0,0,0,0,0,0,0,0,0,0,0,0,0,0,0,0,0,0,0,0,0,0,0,0,0,0,0,0,0,0,0,0,0,0,0,0,0,0,0,0,0,0,0,0,0,0,0,0,0,0,0,0,0,0,0,0,0,0,0,0,0,0,0,0,0,0,0,0,0,0,0,0,0,0,0,0,0,0,0,0,0,0,0,0,0,0,0,0,0,0,0,0,0,0,0,0,0,0,0,0,0,0,0,0,0,0,0,0,0,0,0,0,0,0,0,0,0,0,0,0,0,0,0,0,0,0,0,0,0,1
outputCount=1
weightIndex=0,26,1301,31351
weights=##0
##double#31351
   0.7824813611,0.0904084944,-0.3255030687,0.2711801471,0.6211564706,-0.5611555503,0.1054938705,0.8586091714,-0.4189919426,0.6792293762,-0.1755612139,-0.8345015334,0.0991027223,0.6823838604,-0.6119144477,0.2051119911,0.4335922363,-0.791197278,0.4727191041,0.5901083433,-0.7489642451,0.6895723239,0.9361154014,-0.9384500084,-0.162303442,-0.9794609555,-0.3714232105,-0.9579148736,-0.9778127247,-0.5391247944,-0.7800543255,0.1673476126,0.1448979435,-0.8222783223,-0.7292931315,-0.2694386408,-0.0138576624,0.7811628744,-0.9807087455,0.7229490607,-0.2842752947,0.97337344,-0.0704305057,-0.0139682452,-0.6905223981,0.1964575557,-0.7000190793,-0.6940451014,0.6038153504,0.7035190299,-0.4578247092,0.5433205764,0.8419524149,0.6667318104,-0.7499596,0.643708126,-0.3375507142,0.1597202621,0.1565797035,0.7370923407,0.9851566268,0.7803952939,0.4005943647,0.2913973076,0.8127495081,0.8770510255,0.9061328401,0.7900298477,0.5111089735,-0.0471216911,0.5000908256,-0.5567405842,0.0928346001,0.8751409498,-0.9303849583,0.6004480943,-0.6271283206,-0.3543582862,0.1838475727,-0.8356293893,0.4276016456,0.3757900298,0.0503252094,-0.2806986868,-0.9341229312,-0.6005308245,-0.5514291894,0.7308903061,0.3284013211,-0.8862672404,-0.3327242215,0.8937633638,0.9276073411,0.9055561411,0.2848203495,0.8573005401,-0.335853819,0.2106818785,-0.331403827,-0.1273259499,0.5733365918,-0.0040659112,0.3437614575,-0.9801940991,-0.4452737105,0.6995130426,0.2612147957,-0.2573295657,-0.4878028805,0.2038136189,-0.814697277,-0.907643747,-0.2999259528,0.4522084428,0.3378407534,-0.3851386217,-0.5228672793,0.6218695945,-0.5549039594,0.6519587052,0.3039145416,0.1525586627,0.5481854589,-0.0580534561,0.0116559309,-0.9726803002,0.5186593605,-0.2857417329,-0.2076339167,0.7460130314,-0.1684079449,0.7701015506,-0.3182279367,0.0554147926,0.0605096825,-0.3481818571,-0.3797227716,-0.5186030041,-0.2886032639,0.1726822536,-0.6892245958,0.7527161225,0.5522189289,-0.4882351469,-0.8542787014,-0.9090209807,0.4272028202,0.1751976419,-0.1948629593,0.8502896874,0.1136699757,-0.584541884,0.3828044392,0.146795886,0.4843319085,0.035865735,-0.0420770873,0.8000799215,-0.9951280147,-0.2401030458,0.7089856423,-0.220930001,0.3905868966,0.5383610742,0.8970330268,0.994027106,0.3453598185,-0.8238837437,0.5601561732,0.6109248265,0.0664913442,0.9165270623,-0.0326661645,-0.2280133562,0.119178146,-0.9203440089,-0.0197019179,-0.4510004628,-0.4705064079,-0.4948035728,0.4903800014,-0.0319232951,0.6163115265,0.026358269,-0.2380868526,0.9526029466,-0.1409934792,0.7344314321,-0.73045958,0.5214575852,-0.9978197237,-0.141359802,0.6747898461,-0.2643578859,0.0404569562,-0.8025179412,0.6202632663,-0.9754476661,-0.786884168,0.8969875597,0.189406812,0.2711406962,-0.3009880618,0.513878786,0.4367867546,0.5555162841,-0.0108346619,-0.1595507189,-0.421763919,0.8066247793,0.2292920725,-0.5738447491,0.7469089713,0.4489246353,0.6594916319,0.8649260358,0.4904927159,0.4644256934,-0.9681866058,-0.060640434,-0.5455582466,-0.0598585219,0.1013519029,-0.7929536339,-0.2237716028,0.0471763404,-0.4193942496,-0.6786023337,0.1359364604,-0.9796912792,-0.0938846641,0.0791916777,0.1428101913,0.8866607361,0.6597182932,-0.5406555443,-0.6345249963,0.5902686694,-0.513681927,-0.6762384062,-0.6337828585,-0.4438170197,0.5099645372,0.6626348509,-0.4022718412,0.2404789112,0.133006587,-0.5745431741,-0.0648982832,-0.2693386997,0.3425280973,-0.6423144476,0.3987889945,-0.4088801736,-0.0272432482,-0.0641928794,-0.7320718518,0.8212100023,0.3685314016,-0.035229432,-0.0457256242,-0.2566475904,-0.9104127303,-0.5385067561,0.6770263967,-0.4212042756,0.7156611861,-0.461908588,-0.3442216381,0.9670655609,0.2046946679,-0.68065314,0.0232376644,0.2791958148,0.8004807674,-0.5471392418,0.5895750389,-0.6854489992,-0.3529735266,-0.8000505611,-0.568668899,-0.8428361641,-0.9871098297,-0.4617522873,0.0322224617,0.4561574811,0.1078583756,-0.3290294347,-0.1031942426,0.5727913344,-0.0209466857,-0.9918632536,-0.399107863,-0.9177198719,-0.4925599081,-0.7578242631,-0.4604356196,-0.218190782,-0.1786241506,-0.4011344595,-0.5229190518,0.6892597904,0.5542374236,0.054153213,-0.5267464212,-0.3294707044,-0.1942941863,0.544062041,0.2558607025,0.3034311667,0.9182297837,0.6705729859,0.4093031266,0.931941811,-0.8374714536,0.1429382471,-0.4902442033,0.4215298021,0.289260737,0.2138708112,-0.9209496761,0.2762035944,-0.5048725574,-0.1193718085,0.3377781481,-0.7790595776,-0.6517982817,-0.3716693139,-0.4306993116,-0.0602941534,-0.8463878884,0.9963922448,-0.4333592786,0.8748244437,-0.8710033479,0.9881484728,0.5569995465,-0.0649910187,-0.3150024643,-0.8582187237,0.7858142903,-0.9139227748,0.0156968039,-0.0667843338,0.7104895464,-0.1695046197,-0.9902887451,0.7490278322,-0.4474892697,0.0262166935,0.5670118057,0.3046543031,-0.7300974778,0.6284952229,0.9075625942,-0.6593999607,0.932155635,0.9723182502,-0.8923572677,-0.4222184484,-0.0215507117,-0.3296970229,0.1926591156,0.3825320802,0.9844282918,0.8841625291,0.2740627773,0.6639339403,-0.5725753058,0.1294406824,-0.2956114417,-0.1946935253,-0.5817471917,-0.9550254366,-0.6988184253,-0.7561316167,0.7508032287,0.5598382558,-0.3227412671,-0.2043722628,0.3488519678,0.1865578461,-0.3212622578,0.9094920419,-0.6636639866,-0.8876357018,-0.9207088081,0.4417882795,0.7580151801,-0.1530808823,-0.8050841502,0.12146907,0.1685336586,0.0584330699,-0.2197266377,-0.3157938629,0.6758755063,0.3511775508,0.4642142138,0.3023466371,-0.0997714059,0.189062205,0.9295719755,-0.9321542938,-0.5316612796,-0.4143088185,0.1590157346,0.6829085376,-0.9548284365,0.7790007095,0.4775355178,-0.9337320681,0.6805553594,0.8714440596,-0.689341117,-0.2952100209,0.2922463982,-0.334121648,0.5676703225,-0.9960293814,0.1203674738,0.7122494127,-0.0301107772,0.7444997758,0.0305473606,-0.2122095435,0.6254265972,-0.8195108168,-0.8543348569,0.5856536749,0.3118760111,0.4218958951,-0.3886394613,0.6949265129,0.60399375,0.0321332859,-0.1995524087,0.2973674086,0.6577092554,-0.4458894582,-0.1747018161,0.1283001756,-0.529438797,-0.5588282168,0.9536857539,-0.0223065045,-0.3096812178,0.8200532544,-0.8463452875,-0.2004414769,0.7331397413,0.0188782855,0.6107119215,-0.7321365315,0.5902451141,0.4342741135,0.0681620405,0.093525737,0.5606388607,-0.7415776161,0.0609312229,0.2776452676,-0.2059088422,-0.4398074175,-0.2986839992,-0.8119485863,-0.8381173793,0.4942965604,0.8661571989,-0.9454691644,0.1130597825,-0.2294690854,0.662425592,0.6090893544,0.3528027653,0.2103896237,0.6564110268,0.9347154506,-0.3502061436,0.5382352912,-0.2680916812,0.093058012,0.5142157909,0.4816210661,0.3999092822,0.9810996786,0.204645749,-0.0214324408,0.6565033337,-0.1259423126,-0.8172106101,-0.7636216054,-0.4891905206,0.4257258742,-0.11040217,0.990261553,0.7192052125,0.1701037083,0.3344352732,0.0337481085,0.300149775,-0.8541281447,0.7651362519,-0.8478513918,-0.8135802196,0.9136586591,-0.2773347092,-0.5094219632,-0.8976055486,-0.4888263938,0.4138976471,0.0062865256,0.6875167147,-0.1045222099,0.8749138995,0.6111646729,0.7707730904,0.6453578024,-0.5574765924,0.6978775914,0.9367633445,0.7786501294,0.7737024106,-0.817242433,0.6607220608,0.4469365716,-0.2014945279,-0.6408097044,0.3619482945,-0.4463323678,-0.0285142037,-0.590202771,-0.8946874501,-0.6745265635,-0.4083528379,-0.3548323315,-0.4882366679,-0.7195036637,0.6369586256,0.3908398093,0.3538625894,-0.4687394337,-0.3059169006,0.4265882786,0.2366835146,-0.8825921277,0.6100741351,0.6959132769,0.177412404,-0.3823508008,0.2616877356,-0.3790397037,0.6344845163,-0.2564115151,0.3888217374,-0.1586869075,-0.1660377147,0.1710257874,-0.3076118641,-0.8008234196,-0.0312198933,0.3416369622,-0.2815893263,0.1803456359,-0.9291898997,0.8638114017,-0.6905570092,0.4480961388,0.7907819671,-0.71493458,0.4736061507,0.5120447636,-0.8613497364,-0.3957122144,-0.0514415068,0.1962702046,-0.6106634983,-0.3073694076,-0.1030662591,0.9325006329,-0.274084461,-0.4989577179,0.9105902291,0.9027717175,-0.6690382225,-0.7490563595,-0.3135772165,-0.7686344446,0.8235355977,-0.6612592175,0.113348136,-0.0629610316,0.0162363362,-0.3658551556,0.111354614,-0.155456951,-0.9895206901,0.3975835778,0.1069511738,-0.3801369397,-0.713683983,0.6353954443,-0.3895394415,0.9857701575,-0.7971170817,-0.7352635427,0.7200408919,0.1812323146,0.091571447,-0.1916247982,0.1231082287,0.2655824296,0.4027247546,-0.3384647389,-0.3197890985,0.9866640788,-0.5186410627,0.5445549453,0.2771970344,-0.8148576366,0.8382029863,0.9788800895,0.1388879133,0.5327966519,0.1108380117,-0.4945299911,0.7519114845,0.416922405,-0.6058138179,0.9863022907,0.1317216451,0.618106451,0.4880409466,0.9409925375,0.8000756855,0.0758651501,0.6366826117,-0.7980739469,0.1352634282,0.6272404753,-0.3414817629,0.5816681638,0.8358025069,0.0884042334,-0.750794185,-0.1771693981,-0.7492387613,0.2820912073,0.6987243419,0.8082981017,0.5919612683,0.6894455077,-0.099898157,-0.1471753598,-0.3629757708,0.2591276503,-0.5948484087,-0.3853332727,-0.4011019885,0.5333280638,-0.2920721185,0.7346055388,0.1037797496,-0.9681696563,-0.6269134631,-0.2724959563,0.2880493879,-0.9540345272,0.5249901953,0.34408019,-0.6438766713,0.9579030797,0.76356849,-0.9524721991,-0.3744840993,0.6911902334,-0.0627586593,-0.0438971005,0.355094021,0.1272934495,0.0161037127,-0.5285984334,-0.4915089829,0.4435704916,0.4563580071,-0.5893894904,-0.0171765681,-0.6375201884,0.8929339163,0.003447588,0.5929744202,-0.9161161728,-0.7751814146,-0.6372035538,-0.4766201856,0.154915954,0.4121889076,0.8655357848,-0.9143406725,-0.7810083754,0.652971725,-0.4761583718,-0.1820436984,0.4203266072,-0.6568514551,-0.3441064737,-0.6062188849,-0.2353714486,-0.3964516398,0.0103452098,0.5517368608,-0.4275101161,0.8864357542,-0.6645321655,0.9720205732,-0.9657078859,0.3625179871,-0.551110457,-0.0032328964,-0.0650154627,-0.8139722012,0.4182502561,-0.7615339139,-0.9099458166,-0.6886984548,-0.7046675885,0.7306934584,0.0922588859,-0.6315821099,0.6093513792,-0.3855969577,0.0669986076,-0.0832466773,-0.206566467,0.0381226067,-0.3433655601,-0.8088297142,-0.5515925099,0.2263913576,0.1063713468,-0.8038775641,0.6913091765,0.5886371092,-0.0945074615,-0.2887375275,0.2737878271,-0.8874707745,0.0552861875,0.2611746482,0.9233518571,0.4827983457,-0.3265251106,-0.4226252766,-0.0234520705,0.2486271794,0.685701893,-0.5279072938,0.8687136005,0.5859958285,0.7681195057,0.7352748106,-0.1462250852,0.3326588722,-0.1549415573,0.6196579129,0.9718979035,-0.5541467848,0.4810507019,-0.099950876,0.1619493017,-0.9393988959,-0.9957349825,0.0566788194,0.0972828669,0.3765331739,0.5566503966,0.9908512542,0.2533683842,-0.0661293382,-0.4035747649,0.4812741866,0.2937839877,-0.1120904775,0.9370386512,0.172210332,-0.5381332189,-0.5953021993,-0.6545405719,0.1790362915,0.6569703656,-0.8570738013,0.6640066573,-0.4020192379,0.4728621835,-0.6167168014,0.8341024904,0.6048519393,-0.5413424591,0.2633358414,-0.9933927769,-0.0189882334,0.2977118768,-0.5504061164,-0.9929692728,0.3505830241,0.1402911087,0.3433934402,-0.9379700354,0.8095416136,0.5248041454,0.6156701864,-0.6208420178,-0.6018347559,-0.7069482594,0.0034091948,-0.7133376826,-0.6744324921,0.4593407815,0.1388935375,-0.6396738488,-0.9949134683,0.3084056554,0.9553891858,-0.5849316809,-0.9107157807,0.019691798,0.1311689065,-0.9302991312,-0.0924122432,-0.1167870096,-0.7564384357,0.0063782477,0.7557806138,0.7963959124,-0.9990903672,0.2606900254,0.4568156378,-0.3771948095,0.0552914642,-0.7367308056,-0.9550906352,-0.2900478049,-0.1468465246,-0.4288572523,-0.6626387001,0.512013048,0.5114593023,-0.4819352874,-0.4120540706,0.8309705815,-0.2051468533,-0.4368853188,0.2616234163,-0.3528122349,0.4914131518,0.5763171658,0.9595578344,-0.1565948811,-0.7420977308,0.7170991831,0.1790651745,-0.1241227992,0.839062844,0.6705510912,-0.0766229939,-0.1826469857,-0.1564666821,0.6331753276,0.0392875191,0.5221172515,-0.3199237929,-0.204438421,-0.3237122662,0.7203248352,0.54144089,0.9956317797,-0.2639724562,0.0528550892,-0.5364861732,0.0671709105,-0.8263418439,-0.8493400356,-0.6458205697,0.2934240452,0.1311923327,0.3908027915,0.4298993228,0.0857080746,0.48149932,-0.5478122275,0.8991040159,0.2228807904,-0.998234853,0.6603574867,-0.0207059919,-0.6422181639,-0.0073669695,-0.5604983768,-0.8689744844,-0.9422872068,-0.226754664,-0.0610071623,0.7855483012,-0.8355804386,-0.8075709099,0.02718333,-0.2918624845,0.9966752369,0.4341986213,0.428751452,-0.863567554,-0.3927036146,-0.9847333675,-0.4202376811,-0.1102111615,0.5919733359,-0.829575262,-0.6579841551,-0.6513494124,0.4805759026,-0.60005066,0.109233167,-0.2289544492,-0.8492313514,0.9882041295,-0.887558485,-0.6125273314,0.2387134449,-0.6385380709,0.8376580114,0.1890904023,-0.132145061,0.1675706094,0.9377508138,-0.6037925802,-0.0427149662,0.565333907,0.1059728775,-0.9115034722,0.3326499321,0.2945150638,0.8694063466,0.1895233129,0.5064095408,-0.1510490441,0.0305297758,-0.8670901415,-0.6974323364,0.8167956356,-0.8101873387,-0.9694087616,-0.2277919401,0.1001478408,-0.6970531676,-0.9737326291,0.0984029722,-0.0840179842,-0.8617142045,-0.4749446879,-0.9630707201,-0.4917054261,-0.4847844087,-0.0393390432,-0.8467175375,0.7098416253,0.2583803873,-0.7220371096,-0.6618605493,0.4834786084,-0.3900088516,0.3332315885,0.158440302,0.0371495924,-0.3360921543,0.8136262565,0.9959550528,0.9393110809,-0.0400557924,0.3341331141,0.1445769856,-0.5378047308,-0.2296608372,0.3908335096,-0.4760634501,-0.6829310638,0.6364042433,-0.4076413084,-0.3593838873,-0.6863366148,-0.9320882264,0.4416939616,0.9413003071,-0.3747935923,-0.6496846064,-0.8503187024,-0.4308710555,-0.3932780147,0.3361475339,-0.5532107978,0.9835060879,-0.5957393783,-0.4361951816,0.3637941334,0.0822406242,0.7189004689,-0.2652126006,-0.8024730134,0.1694055379,-0.4383269415,-0.8243805005,-0.4718307401,-0.1964271639,0.6289601745,0.6598828078,0.6174809783,0.3470445205,0.6572438929,0.2963644567,-0.4257050948,0.6492361865,0.2028141745,0.9580077498,-0.4895018852,0.8625743219,0.6828819335,0.9761742091,-0.1542102107,0.0697292053,-0.4875840699,0.5114185802,-0.1532741812,-0.8669791134,0.6387593314,-0.8319610209,-0.213212554,-0.3500940405,0.3782576566,0.8884102934,0.7541315598,0.6210467263,0.6519195135,-0.8169294726,-0.0277450288,0.8579754755,-0.6092947285,0.3444938731,-0.2985820537,0.6659157174,0.0267347765,0.4639682817,0.1449807551,-0.9780118407,0.9016669232,-0.3746651189,0.175546877,0.3169552036,0.5728445477,0.6475079846,0.8964272308,0.3919122879,-0.4439068145,0.6320216631,-0.090572697,-0.4633129213,-0.1635317358,-0.5848292196,0.5744922469,-0.0523198865,-0.0973694968,-0.2922001853,-0.3485538445,-0.406115883,0.8559522582,-0.2949673945,0.5031615919,-0.0408245177,0.0048990995,0.2334324171,0.0474373349,-0.3303293007,0.3001124749,-0.8747184645,0.9650296849,-0.002526936,0.3911000284,-0.1533482915,0.1933397999,-0.4225611941,-0.9944049144,0.3880674898,-0.9199727953,-0.6402816162,-0.3195347245,0.3637189991,0.339058748,-0.3739715522,0.9496919019,-0.9657150884,-0.1072031684,-0.2448235272,-0.3870665547,0.0936464775,-0.8327650672,0.5454017447,-0.7822277722,-0.8065263815,-0.4507931563,0.0720396611,-0.0342080766,-0.3672065003,-0.7045839816,-0.1425077539,-0.0084692382,-0.5599187537,-0.9382994793,-0.5343614809,0.9261131698,0.4528684371,-0.8527528086,0.6232061712,-0.0772394853,-0.2384480683,-0.1482586348,0.6967890804,-0.779603955,-0.7891849866,0.6190803527,0.2705967364,0.914829931,0.7439645755,-0.8627176426,-0.1706641145,-0.6217409295,-0.9295285636,-0.3113223766,-0.3302432038,0.2452174828,0.2774384193,0.581258315,-0.381162291,-0.8941677044,0.71292157,0.9709731273,-0.4627047661,-0.5939905643,0.0976787978,0.2041712375,-0.6410007848,-0.6344937427,0.1533778272,-0.7656894201,-0.194804371,0.792650284,-0.0212323876,-0.8825107449,-0.925814508,-0.9187534522,-0.9818326083,-0.7131942407,-0.6500805632,-0.245931285,0.4797472287,0.2559022002,-0.8777511474,0.4899578183,-0.0192375783,0.8989196125,0.6346191281,0.2057464438,-0.9995368636,-0.1913644557,-0.7502878128,0.0272367534,-0.469524628,-0.8039454112,-0.1177714419,0.0983673893,-0.3719782069,-0.7586267408,-0.3243800972,-0.6907576052,0.41288216,-0.5881750979,0.6012232177,0.1631367372,0.9313794874,-0.168858212,-0.9388158478,-0.6866206587,0.8878939881,0.9267978285,-0.1310153644,0.234487059,0.4545811064,0.1356066816,-0.4389760125,0.4273663221,0.039272814,-0.5767198847,0.6259351588,-0.9961608701,-0.5191629437,0.9526983973,-0.6948557341,0.1125105846,-0.5632373535,0.7609230088,-0.7981909107,-0.5998836634,-0.8108769342,0.1505660551,-0.3283460537,0.7938308665,-0.615831961,0.7838365643,0.5165188055,-0.2115668999,0.6519717232,-0.9988732573,0.3563829864,-0.3895576756,0.7999393253,-0.8610932553,-0.2544340802,-0.2796081643,-0.8737477525,0.0575717718,0.0043017326,0.1797612916,0.9139435575,-0.9873069634,-0.1650504599,0.761707416,0.0336384052,0.7693921422,-0.5962007689,-0.26706616,-0.1690970589,-0.1363917415,0.8436267525,0.4524881112,-0.4451637778,-0.4352774562,-0.4427669586,-0.8425959741,-0.9448126802,-0.8636860289,0.7651409922,-0.6533659644,0.3956125857,0.5787772533,-0.059671676,0.1817178729,0.6649683745,-0.0127776377,-0.9462502072,0.9621099203,-0.2321222809,0.2947037196,0.7155164627,-0.2270283343,0.5862497227,-0.0196883867,-0.3420335319,0.3053911998,0.4923399532,0.4985321433,0.2909165031,-0.3488051796,0.7718146908,-0.9598769707,0.2383182595,0.6737742888,0.7712237282,-0.358862776,0.2738087494,-0.7632050073,0.893245968,0.2553038478,0.5689996735,0.6536499767,-0.1633717601,-0.4145757422,0.7992279591,-0.2164176988,-0.8014807186,0.8574147811,-0.4249673019,0.8598133577,-0.5531392811,0.3800999233,-0.2126238346,-0.8134392975,0.525954123,0.3308108319,0.0197690913,-0.7058259725,-0.0687862841,0.3132154275,0.1755198533,0.5439740721,-0.8870466356,-0.2429068575,0.6712071655,0.8633812351,-0.1051025783,-0.3791653824,0.5718372673,0.313332187,-0.6787530341,-0.5490976987,0.9077642628,-0.2063998367,0.3104046465,0.5832212945,-0.6385074221,-0.8167166372,0.6584929067,-0.6374143728,-0.4628060736,0.9264582951,-0.0674188625,-0.591136019,-0.8585895711,-0.5768468352,-0.4310558612,0.9916588788,-0.8052287771,0.889581174,-0.5755012972,-0.7754426457,0.9819083837,-0.7752861658,-0.0689747332,-0.2581392676,-0.3427037586,-0.3703598556,-0.370424692,0.7627673422,0.349978024,-0.3339854691,-0.3089711178,-0.2232148539,0.7857855851,-0.9874026881,-0.018835034,-0.5561999951,-0.3679515067,0.4208476897,-0.6070087312,0.8270784871,0.7923913262,0.4764646063,0.9357279238,-0.0694346844,-0.7655518721,-0.0955677884,-0.4673380858,0.4541504365,-0.2981056461,-0.470285569,0.0516870137,-0.1957385648,0.9697784217,-0.7202616126,-0.3509705079,-0.0814010419,0.6560756654,0.2928885462,0.82544924,0.6678172908,-0.4636399585,-0.2953853172,-0.3931412034,0.5235413537,-0.4394209379,-0.8492125814,-0.5466814435,0.890143779,0.5756438434,0.3742975639,0.4518636184,-0.8781588573,0.4071258327,-0.3194020365,0.8726334038,-0.0870291762,-0.2662573503,-0.2779655888,-0.9085671201,-0.0818326411,0.3636027567,0.0433981323,-0.7751043145,0.3048433244,-0.1140783378,-0.9256584545,-0.6410094973,-0.3697373582,0.5633042901,-0.0343390931,-0.3231567556,-0.252644082,0.6125685909,0.8548072323,0.2783999375,0.3649470827,-0.3364895795,-0.7901463416,0.7184884373,-0.5404725856,0.7267975418,0.346612567,-0.9121168927,0.3252715119,0.4535637325,0.2883766027,-0.0359928538,-0.642282879,0.3313976287,-0.0186250707,-0.0977772547,0.8132718037,0.3024287931,0.8472024623,0.7088208904,0.3540835198,0.3176938141,-0.0876113872,0.4970708574,-0.3362154695,-0.7876149169,0.7220945924,-0.1531232969,-0.6948178191,-0.0074612898,-0.7868606816,0.8783071383,-0.0320388504,-0.7767902081,-0.3632511215,0.6648586759,0.430663314,-0.4294530453,0.2117272994,-0.7882791261,-0.6680681794,0.3550472773,-0.7444205206,0.1563810621,0.7513549811,-0.2122969379,-0.2537913339,-0.4476688396,-0.9091484163,-0.8056020844,-0.889515926,0.5762060933,0.7537148823,-0.6184946469,-0.0555605979,-0.0501301398,0.5623382767,-0.0509069333,-0.4392321434,-0.7475404769,-0.4610984057,0.089939742,-0.6104435283,0.9494680189,-0.3547551877,0.7239809138,0.8190779998,-0.4860753492,-0.1901578792,0.3757137848,0.4868982347,0.4233947033,-0.0150220664,-0.5126588543,0.5848677613,0.5688645641,0.383048033,0.6517507036,0.0582544611,0.1158349338,0.4922939578,0.836219724,-0.4697148735,-0.300196934,-0.6492319534,0.6270727106,0.6552562894,-0.0631903894,-0.1184628728,0.150733221,0.1663981311,-0.2435354259,0.0326417961,0.1880404914,0.6109086044,-0.7176584333,0.9018068562,-0.2897383808,-0.288139052,-0.2728535312,0.6053251122,0.6128878047,0.196823214,0.1370736115,-0.2102056533,-0.675797588,-0.3512573581,0.1016391816,0.8188986148,0.0706966018,-0.8757575885,-0.3983792718,0.5416944449,0.0597727019,0.8406171888,-0.6632374072,-0.8280162555,-0.3424318436,-0.9192602485,-0.5019766125,-0.3117633555,0.4011482324,-0.8477254795,0.5520417096,-0.196210201,0.2291515971,0.3197385679,-0.5679224372,0.7483878146,-0.8859451735,-0.3139921841,0.0132691245,-0.3919124497,-0.7698822257,0.3801543509,-0.428067771,-0.650512202,-0.7365259181,0.7154528021,0.7558849452,-0.1260131472,-0.7541892845,0.312957675,0.4362470114,-0.3408053279,0.2210531648,-0.2407578195,-0.6184464319,-0.9156244541,0.0843068147,-0.4314452145,0.6151649635,-0.4552973464,-0.0698181683,-0.6790480927,-0.0814191114,0.9702815997,-0.9881886458,0.4617793343,0.1150469767,-0.5488762509,0.5175854666,-0.3771928322,0.0277464718,0.8433918408,-0.3252559901,0.1477443204,-0.7352949621,-0.7361305966,0.1453410355,-0.4109665444,-0.8852830341,0.6156903364,-0.9978361626,-0.3026481796,0.7729738652,-0.9706293477,-0.1170416669,-0.7298681477,-0.1047824211,-0.431914247,-0.779215587,0.4376864873,0.7898372289,-0.31104293,-0.3006145968,0.7105139106,-0.842275865,0.4634981159,-0.5134066649,0.2703199338,-0.155785639,-0.7798239796,0.0156835657,0.0411824145,0.188561648,-0.6444055572,0.9679897551,-0.8817932986,-0.2946108396,0.3004727718,-0.1795571173,0.8323211898,0.9860707114,0.4000080145,-0.8695930291,-0.1613046597,-0.4601168878,-0.5789919382,0.3350444009,-0.5451769044,0.8796107174,-0.9095220516,-0.3881803684,0.3106606341,0.8430011165,-0.7610041699,-0.2288190008,-0.0373595374,-0.0180549993,0.4333768805,0.779535063,-0.1587896191,-0.9775141757,0.117094202,0.980553704,-0.888092803,-0.9721508729,0.3311595206,0.8606374172,-0.9073539845,-0.3316826877,0.9293111346,0.091338995,0.737372078,-0.8291047581,-0.9536109067,0.1321269154,-0.3281532641,0.5511531924,-0.9445070972,-0.9693014567,0.5328190536,0.1402062169,0.15979223,0.6352156341,0.5177461739,0.8280593715,0.6770703927,-0.0038232988,-0.1618873755,-0.5654808533,0.4662967688,0.9096143994,0.3449593957,-0.8121892214,0.4816422462,0.1063215647,0.5039206209,-0.5298797857,0.4921710477,0.2142038552,0.9086249706,-0.1822987945,-0.8205097532,0.9981537027,0.2184733793,0.4128110428,-0.4541448983,0.2565416387,0.266813548,0.0324854886,0.7199665511,0.8940840149,0.25636552,-0.2023224612,-0.7918711614,-0.2526526516,0.9225027532,-0.2646149012,0.9348350751,0.2469347211,-0.5408069563,0.9474560542,0.9127651766,0.4008451601,0.2278234484,-0.8371755174,0.8766012531,-0.00114213,-0.7014926075,-0.6544164255,-0.7679901606,-0.3999084931,0.6629508065,-0.4883223347,0.6803467297,-0.5882682697,0.9361216375,0.5174670387,-0.8014489822,-0.5748002583,-0.0498484056,-0.0073705883,0.1349499672,-0.0845109843,0.3195070805,0.735662097,0.6955279995,-0.2517695701,0.316795744,0.860947392,0.1253194455,0.2613289716,-0.0066289677,0.9718082205,0.279637869,-0.5763261211,-0.8563257135,-0.9886590998,0.9613866872,-0.9387237178,-0.3409337278,0.0807045979,0.923753375,-0.6370182541,-0.3807857785,-0.5334756401,-0.3875135611,0.9574176777,0.2099962355,0.4807441373,-0.3855914031,-0.7855246207,-0.722466004,-0.276993207,-0.3223719975,-0.6093944896,-0.7823545792,-0.4156874128,-0.6749720537,0.4120661261,-0.4754166492,-0.3406563632,-0.2937351798,-0.7180485446,-0.6124775377,0.4181216689,-0.291244456,0.3123187922,-0.4588571393,-0.1234611371,0.8126899616,0.1246840509,-0.005199818,0.5416772666,-0.867697865,0.951148893,-0.1924658169,0.1342862688,0.972426937,0.394490065,-0.2047716338,0.9595034992,0.4127131752,-0.8126275185,0.5428239326,0.0978544832,-0.7821262639,-0.7027299057,0.8288804136,-0.5003305914,0.2947789152,0.7948908799,0.0697424254,0.6656516819,0.1168374138,-0.698193408,0.9370001868,-0.4217271022,-0.9512073508,0.910323813,0.2371708315,-0.3784078516,-0.9296065131,-0.1318344447,0.2705404611,-0.3806027072,-0.0750142652,0.3328259696,-0.4166285116,-0.5797942659,0.473523602,0.7204236843,-0.4175235762,0.9674633916,0.6220947074,0.2255918974,0.9521670714,0.2446538063,0.8593594485,-0.0067025062,0.0439314482,0.9834679351,-0.9342857763,-0.3327731326,-0.3871606079,-0.0542951305,-0.2296860727,-0.6377218721,0.5962038988,-0.5799983045,-0.5240433789,0.1024351308,0.5657258404,-0.1910269844,-0.0933109717,0.6889038739,0.2654675615,-0.0855345362,0.4968100394,-0.0873450712,0.6802894903,-0.1246138045,0.9226431391,0.1712688255,-0.6721851329,0.9822715874,0.0647271157,-0.474752584,-0.3495798978,-0.1803729886,-0.0950304217,0.3574928578,-0.6235249619,0.4449296816,0.5391871043,-0.8422734367,0.0495270611,0.081303024,0.7540228221,-0.4212675548,-0.0488517649,0.3960538548,-0.1101714702,-0.5888856697,-0.4049929097,0.4835537854,-0.2439166919,-0.9427628549,0.2985991443,-0.7959366857,0.8294571482,-0.8901981715,-0.9244585903,-0.0250275462,0.5228809692,-0.4926924211,-0.138879751,0.6771268456,-0.2652214363,-0.6744081539,0.0472073091,-0.1874876625,-0.2797255024,-0.6296085128,0.5281578377,0.4308294659,0.1974484196,-0.4998971822,-0.7688639279,0.4016809257,-0.2166908316,-0.4706974555,0.7009537647,-0.5010644942,0.1642792245,0.198985339,-0.8154215954,-0.7525415114,-0.3291727867,-0.5156091329,0.4086113688,0.4670174915,0.244831628,0.5090618641,0.1531037265,0.0176515086,0.7721446964,0.1363599821,0.4803897149,-0.4877472195,-0.1380208286,-0.0772625524,0.0124514542,0.3239959428,0.9695365348,-0.1190845593,0.6282661111,-0.4694858194,-0.7798388049,-0.4768436777,0.1947470825,-0.5618969573,-0.4611396439,0.96396519,-0.4727942378,0.7963807309,0.4497854457,0.718778498,-0.0947882479,0.5541583366,0.7407560256,0.8155271015,0.8332828616,-0.9027106226,0.1071703667,-0.9770433656,-0.4685526382,-0.1877977828,-0.5202554382,0.5170894217,0.8655259595,-0.4437432925,-0.1925648586,0.027752573,0.8564010241,0.4848203692,0.283669089,-0.698839523,0.5552936433,0.0924985607,0.9679886598,-0.0794537033,0.9826429329,0.0730257998,-0.834258873,0.1824182683,0.5682518223,0.7341065831,0.3628877233,-0.1417031829,-0.114167108,-0.1635583259,-0.2844447031,-0.2895758053,0.1674232439,-0.2072616536,0.9712338277,-0.8284653605,0.8713050798,0.5393826728,-0.7254656322,0.1318538555,-0.7587950639,0.6602444206,0.1371906555,0.8927226397,0.2302895774,-0.058455917,0.4960694371,0.2680182929,-0.7153922105,0.924433279,-0.5563679978,-0.2752616309,0.3101368794,0.5463021895,-0.461677359,0.4266931653,-0.7198041668,0.5369519388,0.3436986492,-0.742890959,-0.2781018272,-0.9222945019,0.0236229341,-0.2477746305,-0.3839585594,-0.6103838547,0.9143562544,-0.8999519199,0.973064456,0.8080859467,0.9720606654,-0.1189078382,-0.0431877207,-0.6872630496,0.9859183696,-0.1180080946,0.3581366911,-0.472688959,-0.7116687561,-0.3575063589,0.8007564806,0.876806956,-0.0828802284,-0.0797003343,0.563389376,0.7109883978,-0.8574124461,-0.6779415458,-0.6503374671,-0.8037659912,0.9036329685,-0.0055242865,0.0764571621,0.211645219,-0.2912220143,0.3414044797,-0.6727530611,0.3081108383,0.6326417229,-0.3468472544,0.0531200404,0.063917239,0.1668981824,0.7476966624,0.0687469813,0.098276862,0.6491868205,-0.5162885384,0.5788289109,-0.34378286,-0.9568978864,-0.5233127266,0.0462988819,0.4638391149,-0.0296107078,0.7371371646,-0.073876946,0.6371890739,0.2998643679,0.7922390099,0.0188884051,-0.023877029,0.7359611015,0.7842247076,0.6256523707,-0.5161543143,-0.2616614787,0.5645729205
   -0.3844846372,-0.8331062866,0.1154872818,0.4360243647,0.1489365047,-0.6607234573,-0.1332241369,-0.8680271913,-0.3950198034,-0.5098233226,-0.5637008001,0.6296696972,0.2905494253,-0.539503625,-0.7297205409,-0.7458421138,0.3893493087,0.6299820199,0.5671226256,0.8768248152,0.0940222161,0.8095964406,0.2742194284,0.3902166687,-0.1604283123,-0.1302772247,0.5073275611,0.7914331186,0.7407000965,-0.7433245669,0.3694847088,0.9517474806,-0.5194020851,0.6509592065,0.4417847186,-0.2592604378,-0.8698601998,0.9738540029,0.9956594098,0.6457473695,0.6841017198,-0.4635443722,0.7721792242,0.5163761994,0.7487759851,-0.4857649187,-0.3570350222,-0.0185413365,-0.0186158018,0.9668849315,0.7188927486,-0.2914205902,0.465168927,-0.403838841,0.9170545602,0.3188890462,0.1276293258,0.1396063209,0.7929913566,-0.3775169205,-0.0983546921,-0.1258052027,-0.8953050142,0.8022782266,-0.5873651732,0.1560304121,-0.291414231,-0.9298969165,0.8873004961,0.9289575969,-0.8819944061,0.7871669864,-0.4620215525,0.690663092,-0.4720342522,-0.8688544904,0.601543157,-0.2905190617,0.0976839903,0.1910443102,-0.759762921,-0.3631411039,-0.6475290459,0.8475402087,-0.2411408099,-0.2057518002,0.4579233752,0.4870713804,0.0945510059,0.6187063946,0.5190281254,0.7555517139,-0.4445489408,-0.6544658416,0.3365651662,-0.3579647422,-0.2231012843,-0.3637945126,-0.5076768353,0.3138509451,-0.6815029281,0.4974537521,-0.1686270868,0.3133840192,-0.8510385339,0.9762321864,0.8367586079,-0.7626672123,0.3438820422,0.9643182279,-0.1448099046,0.1536372494,0.1009234233,0.9191778703,-0.5527092111,-0.6520582517,0.4757468147,0.1432468998,0.7771827627,-0.109843203,-0.1932881766,0.6714260062,-0.532554094,-0.4867716763,-0.6342539172,0.3030911908,-0.5688060163,0.2949323322,0.0968964495,0.4827717909,0.1332220834,0.8687829289,0.5013142803,-0.7216612732,0.4009819938,0.0185740127,-0.2950267076,-0.1889263893,-0.8720280059,0.2760614692,0.3821553814,-0.1986113231,0.0930151909,-0.5750683939,0.2150237169,-0.8661827159,-0.0057369882,-0.7569133744,0.3674848099,0.5893605019,-0.7987761534,-0.8700883246,-0.4577739659,0.3944084588,-0.3820820771,0.7648152228,-0.7544634378,0.7705508452,0.8349920421,0.060367746,-0.4110624605,-0.6309728489,-0.450506521,-0.428454298,-0.5829531292,0.5239619534,0.7744430342,0.6260130895,-0.266611189,0.8008387205,0.5356720875,-0.5912018212,0.3373554516,-0.7513030707,0.6850097234,-0.2877484992,-0.9354783552,0.7445771781,0.5641693149,-0.8273289114,-0.1720356739,-0.7541614747,-0.1345097066,-0.3871344045,-0.5007903068,-0.2695962419,-0.4530913008,0.3953347132,-0.12857465,-0.0962780971,-0.1910210885,-0.2496688321,-0.1064421291,0.6678492778,-0.4363622003,0.689785521,-0.201047217,-0.9548363683,0.4628998494,0.8515751035,0.4307219549,-0.0570947732,-0.7799444207,0.9591770648,0.3600751141,-0.6795964542,0.5156585182,-0.1593927435,-0.8884499218,0.7284479015,-0.9755142842,0.0456017201,0.7651710774,0.4586702148,-0.0079294421,-0.2906625942,-0.6143853679,-0.9228678396,-0.159226879,0.1470745582,-0.212414364,0.3050880743,0.1160552491,0.530531502,-0.4514418597,-0.8965526346,-0.917893672,0.3174703082,0.2745810976,-0.8953561938,0.7065936713,0.4355655068,0.7996853892,-0.6335418202,0.1964162967,0.4945855124,-0.5779311351,-0.6656726929,0.4776734571,0.6583447779,0.2142868611,0.3608468726,-0.478796729,0.0648001583,0.4894040962,-0.0146144461,-0.4217237749,0.0910691858,0.1410029092,0.5587793314,0.0489996732,0.6247228768,0.7158621487,0.2362938852,-0.4465045066,-0.5454968264,0.6022453004,0.8548512912,-0.7346478523,0.8655013126,-0.7404418885,-0.5217924531,0.28991793,-0.8872472508,-0.6860966366,-0.7392811448,0.1670515725,-0.3929336943,0.8005566174,-0.1175682263,-0.2864444111,-0.8958156965,0.2316437219,-0.2065360701,-0.8859138207,0.4700811648,0.074367066,-0.6757837504,-0.2646718795,-0.1619091413,0.0089148004,0.6241841163,0.4334710659,-0.4729438449,-0.716134397,0.5205364792,-0.348259039,-0.5142001863,0.9052017303,0.1419011129,0.8142406655,0.655557223,0.8142074127,-0.1582637699,0.4267163523,0.1637035159,-0.3421003829,-0.3082272793,0.8014571548,0.2686892315,0.9180247939,0.0821694877,0.2604407234,0.9489721922,-0.5455391351,-0.0567698726,0.0517456187,-0.4387298672,-0.0935805314,-0.1172089388,0.8711744039,0.1320398757,-0.0073167944,0.3396250954,0.1266163438,-0.354217463,-0.8513663062,0.493431777,0.2214247689,-0.973308764,-0.7168892042,-0.1869867914,-0.0477984653,-0.7121531557,-0.017994952,0.9340078251,-0.4310508117,-0.6309395403,0.4162384949,-0.9724866048,-0.4068573097,-0.4733633027,-0.1905904508,-0.1146285218,-0.0854877748,0.2663240689,0.2372549927,0.0287551327,0.9684141526,0.2749134405,-0.3923904366,0.1919724798,-0.2959176231,-0.2797549239,-0.0245227414,-0.942175031,0.8959488942,0.7284269335,-0.7221338845,-0.1788335431,-0.8908103048,-0.7366317505,0.4233799383,0.5541115522,-0.2389495554,-0.0045709377,0.9114318231,-0.9579177422,0.3484428714,-0.6049620792,-0.2520691555,-0.3142491438,-0.7788390318,0.1793106873,0.7169659062,-0.1151335534,0.7262824225,0.2464330846,0.111272954,-0.5103167895,-0.2910219232,0.7202208247,0.6022999506,0.540966143,-0.9762514557,-0.0196169982,-0.1368682113,0.7506496949,-0.8607359432,0.0120010723,-0.5599435041,0.8332413154,0.0385484545,0.1906740452,0.1031210708,0.6252260451,-0.490271173,0.3237493983,-0.730420392,0.7008952385,-0.4971951389,0.0602097716,-0.2472257197,-0.6597114244,0.0771207121,-0.5339981917,0.2457668995,-0.2394380332,0.5035433523,-0.2966064092,0.4784264051,0.0359713425,0.8644139698,-0.7835584158,-0.958001705,-0.1522969763,0.1314720887,0.5886292683,-0.3023754944,0.5580529621,0.5982275972,0.6951677764,-0.6556421691,-0.3030281432,-0.6200710443,-0.0918211288,-0.7966209125,-0.5538662827,-0.3848305337,-0.5167036112,-0.222417681,-0.6754232208,-0.5947030579,0.8033360311,-0.7196862029,0.5514263833,-0.5710811886,-0.4941603616,0.9861519763,-0.9373559278,0.1076533606,0.8808809102,0.4569006559,0.7373080676,-0.1072292528,-0.4941917237,0.6579227402,-0.5903549893,-0.7046454795,0.0789155794,0.7646234035,0.6665175799,-0.1669837928,-0.9132244533,0.7029199385,0.7596890064,0.3161319605,-0.6631331759,0.9938262033,0.477959082,0.1665548352,-0.1731023912,0.2371566474,-0.5779258579,0.2491669216,-0.7061687595,0.995618708,-0.2236710784,0.80727768,-0.7130750719,-0.5536509527,0.220205537,0.0518115274,-0.6454423027,0.8299518154,-0.4729671884,-0.1557129087,-0.8763099372,-0.0033914207,0.1712770852,-0.511722012,-0.1329963514,-0.6351231809,0.2646575551,0.3480232481,0.4030051653,-0.5892298313,0.567076901,-0.8129829273,0.8156009379,-0.6771730399,0.287892018,-0.2826604513,-0.1358784252,-0.1624075062,-0.5977065089,0.3210910932,-0.4922201109,0.937046556,-0.8760989477,-0.2986299006,-0.4202295013,0.9081943657,-0.3663538048,0.44231686,0.3761691496,0.9175532943,0.4083800283,-0.3320652168,0.21096487,-0.3648195375,-0.2507378737,-0.0643352515,0.1348982424,0.0959319423,-0.8111768322,0.5451927215,-0.1427638868,0.382425674,0.7211186793,-0.4877874652,-0.8632600168,0.3468338804,-0.2087568175,-0.9163576972,-0.101782938,0.577477663,0.460991764,-0.228722968,0.9848992611,0.665135017,-0.3260481036,0.2947830439,-0.427457191,0.2822003202,-0.9675353259,0.0873643502,0.1718287724,-0.6165181365,0.2499180505,0.4257153087,0.9220861336,0.3267923103,-0.2285568033,0.6874163287,-0.122490866,-0.3911769732,-0.2858113199,-0.5343516591,0.951679982,0.8806444993,0.6466002422,-0.6489446978,-0.7381628909,-0.408639209,0.5190160723,-0.1183655719,-0.1895560695,0.6011244332,-0.7859764209,0.4466928881,-0.9450237623,0.4852084448,-0.0058608977,0.8294275162,0.7366490147,0.2614323985,-0.4490541923,0.1557924028,-0.1805509351,-0.0000216315,-0.1622185653,-0.0640011018,-0.1554903121,0.0124281692,-0.2775340442,0.208069249,-0.330484386,-0.2095955065,-0.7116346691,0.9729539385,0.0596895856,0.8543885606,-0.0975741238,-0.3808889078,-0.1363963936,-0.2961969484,-0.1145416092,0.529395804,0.6824729059,0.6553720639,0.7278614603,0.2750010423,0.9575010634,0.3970665197,-0.1368570448,-0.4344906915,-0.3245896032,0.1514353312,0.431832704,-0.043528126,0.0904081959,0.0024144174,-0.1002562181,-0.4172427191,-0.3402658697,-0.3794171417,-0.1741903429,-0.7217086781,-0.0843403323,0.0561245218,-0.1047507243,-0.7296973132,0.8408245353,0.342474886,-0.6645292553,-0.5284748578,0.8527572976,0.0303156146,-0.6506537791,-0.3823516096,0.0678665763,0.4682388323,0.3458726504,-0.3197724597,0.4667802767,0.1592651496,-0.4080270144,0.1940749733,0.2475987776,0.1419527389,-0.3185259759,-0.1263702558,-0.813678409,0.6611750373,0.6733972452,0.1723680047,0.7599209761,-0.5565675618,0.3314596649,0.0221409715,-0.0158188272,-0.5077542142,0.764895557,-0.4367254329,-0.8129077139,0.1041277286,-0.657426077,-0.8871934361,0.4231213046,-0.0181847117,0.0720870067,0.1090540923,-0.4974276103,0.089980663,0.9512782447,-0.2365390752,0.7913184798,0.6621017077,0.8599415815,0.853726357,-0.6197439782,0.5647511554,-0.5286570864,0.2300744391,0.9844601311,0.2613931891,0.7395120098,-0.538336351,0.1589807033,-0.6144985961,0.7159076457,0.3793581299,0.333845249,-0.4445291052,-0.6572768773,-0.7096112856,0.5819345122,-0.2200873641,0.3503873393,-0.6927922227,-0.2591409667,0.0013088092,-0.3258205302,0.3455949794,0.6367418165,-0.62509351,0.2309366905,0.4704589433,-0.384166997,0.2704399485,-0.3051788447,-0.7473329313,0.9715236315,0.7767549189,0.595313595,-0.2742428014,-0.0697220407,-0.160247157,-0.895809579,-0.7781224653,0.8255746666,0.6044966776,-0.5495639783,0.461502374,0.134275982,0.1104645571,0.3965235476,-0.1345145895,-0.9950384859,-0.0100975317,-0.3925206157,-0.4067865916,0.9942490717,0.7107982709,0.0026723126,-0.1084751125,-0.7241057057,0.7417256903,-0.0804033703,-0.8758676204,-0.4767409601,-0.1906853376,0.1282525,-0.3778512153,0.6419282402,-0.6595918894,-0.0058947843,-0.2196218175,0.3336249303,0.780254673,-0.1378461038,0.2574714109,-0.4255737592,0.3422685526,-0.0331556597,-0.2668658162,-0.1054756779,-0.8168938325,-0.0623097332,-0.2844272764,-0.9049619194,-0.687140774,-0.7192202696,-0.962612824,-0.117192557,0.6218403996,0.7040115027,0.0302060617,-0.4919265773,-0.0703076438,0.561723192,0.2772104335,-0.545584728,-0.3719821718,0.0558535057,-0.0098866963,0.4742421288,0.6137974735,-0.3079586126,0.436470809,0.6407162347,0.3896271084,-0.9508253262,0.8876468785,0.2369369602,0.9373425664,-0.0990770523,-0.2910951682,-0.4408666891,-0.1073794119,-0.4787200293,-0.7842606832,0.6889120903,0.6313305673,0.2185738891,-0.7849006283,0.1286723743,-0.3500274655,0.031753933,0.4622910949,-0.8111692229,-0.8536873776,-0.8670500912,0.766110712,-0.1298279036,0.3050588317,0.4424683004,0.5500876632,0.6043983351,-0.3395335317,-0.9960480632,-0.7112048702,-0.9274791223,-0.0006598732,0.6923701004,-0.5557181101,0.9500780482,-0.2735739557,-0.1092905678,-0.7891991171,-0.8718408011,-0.7941958876,-0.6893233453,-0.839266048,-0.5597090533,-0.545824041,0.0240523736,-0.5557948044,-0.3241371321,0.3495643466,0.7962645179,-0.7134499074,0.3155357122,0.5104719325,-0.4260850044,0.5632542748,0.6378210063,0.4336581984,-0.2970738254,-0.6171170102,-0.0303666953,0.5748430189,-0.4004939622,-0.1152043683,0.6256366896,0.0751124702,-0.874402372,0.151051606,0.159413065,0.2114791694,0.8283854907,0.9021463461,-0.4756875704,-0.2410112257,0.8313902994,-0.3429616541,0.6351548066,-0.0564649434,-0.4274526615,0.7970721588,0.6435891244,-0.7903589904,-0.0484034422,-0.7345064611,0.1860266151,0.0643329843,0.2983563257,0.1351023124,-0.9195241898,-0.6729913813,0.9464908325,0.0753356054,-0.679798179,-0.6693220377,0.8355516294,0.7413949106,0.329070351,-0.2830229313,-0.9705514389,-0.2923129833,0.0409584904,-0.5244780366,0.4531175186,-0.8993435654,0.0445283686,0.2087735916,0.4199338103,-0.4113716524,-0.0873708575,0.519470875,0.7476013247,-0.8223208633,-0.8070342795,-0.058889234,-0.2807487374,-0.3299517685,-0.1398450544,-0.6368664581,-0.7534964559,-0.5608675287,0.0021260663,0.7371174174,0.749269371,0.7805249699,-0.5044827573,0.6781395894,-0.9701281019,0.5794300831,0.9613754612,-0.9990456917,-0.974668736,0.6009976131,0.8363543437,-0.8067265892,-0.3599244872,-0.3669767635,-0.2331764423,0.9399899799,0.8830141585,0.8396405593,-0.2479251902,-0.6424926264,-0.1475912066,0.6434806318,-0.0719836209,0.0526345858,-0.0867498866,0.2431903776,0.3586956966,-0.3468932544,0.3454287553,0.6695872125,-0.125595982,-0.9069783967,-0.6277540177,0.0924337163,-0.2660353921,0.5227656985,0.85609947,-0.5087518413,0.4458273398,-0.3950286947,0.1672219974,0.0188501633,0.8659623543,0.5451315086,0.2345641967,0.1806181448,-0.8178347413,-0.9205111572,-0.7468435987,0.8415039017,-0.7860609298,0.3874295603,0.4690401758,-0.679606289,-0.370097617,-0.5079520052,0.6343149228,0.5963961115,-0.1907131286,-0.8450240931,-0.1258106669,-0.3532993259,0.7899613832,0.6208640429,0.6998514413,-0.9612165983,0.9189297882,-0.2730438907,-0.7252005096,-0.0790234709,0.9519516364,0.8886051217,0.7243467045,0.7490644704,0.1755358062,0.5683670129,0.3988087176,-0.2089147301,0.7781948394,0.3811491222,0.5168778549,-0.9654761734,0.3270502773,-0.2867302466,-0.757942591,0.3103186433,0.7981514601,0.984144778,-0.0705957541,0.1509425595,-0.8967357641,-0.0450532243,-0.2731078601,0.2128213278,-0.7784500133,-0.1789766144,0.6221092178,-0.6268487838,-0.4205634207,0.9755164349,0.0788302505,0.6043970516,0.2558682093,-0.5143254439,-0.1382746846,-0.3779918698,-0.0572180761,0.6384576587,-0.9444538683,-0.5860832824,0.5992750595,-0.5584164057,0.3488242394,-0.8138393313,0.34614934,-0.6028395371,0.9713238019,0.5648722574,-0.6392205428,0.5134686389,-0.0694665805,0.2280108958,0.461199373,0.9454107589,-0.0047562399,-0.8464028576,-0.5130628168,0.2891687716,-0.3050714869,-0.6190914872,-0.8898314892,0.3024410885,-0.4029928795,0.1495194838,-0.9873398211,0.8598764934,0.0454602933,0.6513534963,0.3183254947,0.7122561472,-0.8459637638,0.9835513151,-0.6021745152,-0.7991067068,0.7373504228,-0.5766514998,0.7503348237,-0.8126745144,0.2372844494,-0.8913428311,0.0621355059,0.2220799096,-0.4968787623,-0.7664930813,-0.1033599252,-0.7974165105,0.7921040814,0.9646588019,-0.39394574,0.5256167893,-0.8494096535,-0.5745996569,0.4966479772,0.0445991875,-0.9706467106,0.3029078918,0.8310485412,0.5696452736,-0.3895964414,0.5900765846,0.1365350084,0.5988146328,-0.8861565038,-0.1045257829,-0.4691496112,-0.256105348,-0.4841486886,-0.5171489972,0.2788926696,0.0193834042,0.5153965166,0.730206966,0.5735850535,-0.3580167169,0.8236852312,-0.649091015,-0.8458870354,0.5820017938,0.5275232786,-0.6154581403,-0.709038181,0.6018888771,0.5385000857,0.7702061305,-0.7562386454,-0.4920052167,0.2278077879,0.1417843548,0.3873798977,-0.9247580057,0.7241754845,0.1744528588,-0.5062831838,-0.7249199118,-0.9820785662,0.0713534543,0.6071206354,-0.9207413102,-0.0193990857,-0.6319360232,0.1387743153,0.0088108471,-0.5412769355,0.8144115153,0.5197466022,0.7970492288,-0.6878107963,0.9300348709,0.1699035586,-0.6271029851,-0.7454458574,-0.828987916,0.6613315031,0.70831702,0.3461607354,-0.1363875623,-0.7518349965,-0.4895691622,-0.4040472848,0.4184464297,0.7356541041,0.9279347927,0.878052046,-0.5563565065,0.1974986332,0.7456359753,0.9085525956,0.0874692559,-0.4751411124,0.6399674569,0.9112679626,-0.8571484944,-0.8625693298,0.3172711958,0.7909091183,-0.0646768351,0.6517808152,-0.9797239007,0.7201872143,0.6245992607,0.8527069607,0.5553961982,0.4436820231,0.3533700792,-0.5544990968,0.3221274901,-0.1979017326,0.2213713017,-0.6590720537,-0.8765672507,0.0051935724,0.2238070338,-0.6676817447,-0.3825416351,-0.1264801862,-0.5018411471,-0.1304328816,-0.483806573,0.3571604057,0.761905391,-0.23106349,0.8150299843,0.4737868484,0.3243313064,-0.7180991572,-0.4898391781,0.2589258372,0.7454837466,0.653626582,0.7418102168,0.4795794864,0.6827843689,-0.6956402018,0.535604788,-0.1470997586,0.3203837618,0.3313986176,-0.7047342354,-0.9178636603,0.0281862291,0.4091074515,0.4853919472,-0.5010327815,0.0485849345,0.6108665584,0.1403835554,-0.6708618005,0.0346279031,0.0063269786,-0.0441719552,-0.9543785179,0.1249085013,0.2797950706,0.180338307,0.5991924549,-0.5926351303,-0.2024637644,-0.1087951947,-0.6412161759,0.2245649259,0.7322336688,0.0131915941,0.8118355156,-0.3578577235,0.4101587883,-0.3491078422,-0.9042257661,0.9277474509,0.8257569769,0.0782961872,-0.6213764609,-0.2136977886,-0.3671222916,0.7131153319,-0.2313185787,-0.3465076017,-0.9636348566,0.6769744275,-0.8602007323,-0.6217683928,-0.0369436105,-0.3408178287,-0.5276976227,-0.4763957705,0.2883337665,0.4021512003,-0.2599734109,0.7844248302,0.725615811,0.5274762339,0.5402314298,0.3552910076,-0.4456231054,0.85094834,0.0487895792,-0.4662646502,0.467866297,0.7624691114,-0.6409644625,0.5315564023,-0.7618013543,-0.1683280834,0.654433973,0.9947685904,0.8286972671,0.8040653728,0.639247005,-0.0337088181,-0.7147801778,-0.9227943186,0.3211065704,-0.1742788421,-0.7423841164,-0.7318611972,0.438441549,-0.2082232111,0.1023560515,0.6094065274,-0.9306396563,0.0604019958,0.8258018289,0.10587022,-0.3782817247,-0.8424212316,-0.7750811438,-0.4276160777,0.0400379658,0.3709214986,0.7983385582,-0.1936175177,-0.0791981958,0.8094541239,0.641979757,-0.4768265248,-0.7287989885,-0.4563008627,-0.2086789897,-0.6521169078,0.7072783844,-0.8351800325,-0.4650151144,0.4120809486,-0.0845220617,0.386457423,-0.8722451652,0.5623659309,0.2148412795,-0.9833768827,-0.3775734821,-0.180775097,0.9784123362,-0.4407475783,0.0074632709,0.3476860421,0.4933874143,-0.9931006832,-0.5983501865,-0.9514752614,0.7973664252,-0.5212534209,-0.565721438,0.46260377,-0.2058849454,0.3681227806,-0.7728809868,0.7635864451,-0.630933837,0.1350431428,-0.2974765069,0.0898927017,-0.2874802669,0.2028847707,0.2464535422,-0.3032140316,-0.8584696141,-0.9397452017,-0.183736963,-0.4511087318,-0.4756507441,-0.3488189332,0.8534986355,0.1944955032,0.0766527003,-0.7235934238,0.5138943659,-0.8084454985,-0.5830447241,-0.2640584843,-0.864791333,0.8859252583,0.7840089238,-0.561361667,-0.3945429829,0.6199840544,0.303260293,0.1592516697,0.4983416793,0.5887713326,0.9145034317,-0.7945655506,0.4604483269,-0.7215068163,0.1392585605,-0.0291911793,-0.6817707966,0.5617243666,0.9618982502,-0.0528438685,-0.7159640949,0.2859632866,0.9527011285,-0.085405916,0.0103739801,0.2123205686,-0.5653112529,0.9770929076,-0.1271102128,-0.6574262728,-0.819087048,0.3102301758,-0.0026593555,0.4250630123,0.3570938612,-0.0055427532,-0.9077398445,-0.765476551,-0.4343169111,-0.2873726306,-0.434433236,0.5723597583,0.1146716243,0.417594439,0.0497268583,-0.3160466045,-0.5529987658,-0.0465076155,-0.9161988839,0.5786605613,-0.4058323432,0.4209501566,0.1306568544,0.5639713197,0.1672606824,-0.414174475,0.5527424329,-0.7931860565,-0.6978156713,-0.0230443867,0.852737075,-0.1321564178,0.8250197327,0.73339496,0.3686007435,0.3846492891,0.124058229,0.0595819546,0.2931762229,-0.086029443,-0.3818220327,-0.5786514611,0.0605077705,0.4326244376,-0.4951763333,0.4076392471,0.843983042,0.3993303953,0.1701458914,-0.0610706149,-0.5993767665,0.3290510254,-0.5244785691,-0.4101421292,0.298962477,-0.5584963955,-0.2252991855,0.0247512472,-0.9886475944,-0.6235215167,-0.1318656177,0.716729014,0.5576320261,-0.8871000371,0.5293683315,0.7954763169,-0.2569591335,0.1903017988,0.8808329564,0.2893136873,0.5113013769,-0.9595254199,-0.1919538456,0.7122064258,0.0787272007,-0.4934429841,-0.7835260955,-0.1711612872,0.1680174576,-0.6118845628,-0.0911661894,-0.1639023893,-0.6405872369,0.8312437192,0.3406080171,0.6957573107,0.4932456208,-0.6453853881,-0.7892550746,0.4017234388,0.4017081569,-0.8071707865,0.9240023123,-0.9808107787,-0.1179211048,0.1066342129,-0.9477266644,-0.9797875657,-0.626922368,-0.5800208135,-0.7099409896,-0.7842374131,-0.2372599411,0.2110035529,0.0017221689,0.9086172804,0.0890233122,0.5488211162,-0.3063481529,-0.7960794971,0.545104865,0.4616225347,-0.5980500068,-0.1205154326,-0.6091287575,0.4933240226,-0.7930767823,0.116085999,0.0080489916,0.8603099849,-0.1915090845,0.9759702629,-0.3139389747,0.1379773472,-0.0111050692,0.3840878236,-0.6645818011,-0.7243291283,0.2555390812,0.1916142917,-0.310508166,0.0240577688,-0.3650801099,-0.335797356,0.3740696878,-0.7929652129,-0.6653411218,0.2960447063,0.8180913441,-0.4202300157,0.7549063917,0.8043169848,-0.3098816771,-0.5621956935,0.9700465863,0.8259383597,0.0523540898,0.6657218399,-0.6574985939,0.7842938913,-0.9593250858,0.1349704349,-0.1786873159,0.0471178117,-0.2986497915,-0.3343076782,-0.5141489379,-0.2701953261,-0.1348547129,0.1230766224,-0.5420520786,-0.2172170032,0.1487206593,-0.854619983,0.9533822613,-0.0997043093,-0.4624850233,0.1722224866,0.153435758,-0.4393538084,-0.4166314626,0.6761287969,-0.1799992132,-0.5646111127,0.6083308552,0.8033158588,0.0417100553,0.3632998577,0.3984460365,-0.2176019357,0.5301846659,0.5703336427,-0.4559766674,-0.3362120292,0.4486430903,0.3154286293,-0.1340780239,-0.4009284317,0.9448600772,-0.9183877796,-0.1401597982,-0.2751412105,-0.7892851088,-0.4591580631,-0.262478588,-0.7934361845,-0.4375753798,-0.2874697205,-0.2886935179,-0.5589589116,0.6028718056,0.8787772814,0.9999189794,0.9584755777,-0.8117020181,0.2795731545,-0.0320434484,0.9188106739,-0.0194863901,-0.0915027813,-0.2966077865,0.6519378676,0.7781962765,-0.4922122977,-0.2962137565,0.4971962458,-0.2762760405,-0.4735143586,-0.7628435023,0.9274147333,-0.4223621042,0.2603890442,-0.8674576432,0.0285151986,-0.2016908625,0.3558424142,-0.4761692748,-0.6905736721,0.0918258671,0.655748876,0.4556924286,-0.4786547238,0.2518850238,0.6009085428,0.6779699313,-0.2374969429,0.1941227737,-0.5020140774,0.8334582993,-0.7658141941,-0.9538651373,-0.860948768,0.3542498773,-0.3224642116,-0.8803781559,-0.2871533146,0.5163734393,0.3043684689,-0.1445334382,0.3621212703,-0.2690648099,-0.0160570005,0.2068293069,-0.9075678169,-0.034700436,-0.4251144814,0.89997035,0.9836135894,-0.7738207857,0.3221983311,-0.7903558522,0.3343409087,-0.0151935781,0.5289048273,-0.1835144762,0.2792910047,-0.4214116739,0.0719268186,-0.5488017986,-0.9721893994,-0.9818950668,0.6044777329,0.9774314841,0.995492974,-0.9062248819,0.4963142734,-0.1471007483,0.3538166706,0.3816679736,-0.8150139001,0.8372319909,-0.2489785494,0.9409495152,-0.9788880807,0.9779672835,-0.1548646919,0.3413595025,-0.5143860069,-0.6958698247,0.0576223503,0.2899686744,-0.6424637376,0.5123359571,-0.2928539304,-0.1301037064,0.9377619744,0.3482214618,-0.7023306242,0.6986107654,-0.1911048736,-0.129490144,-0.0818133323,0.5082139304,-0.716079442,0.1233978518,-0.127716672,-0.250857298,0.9462225983,-0.0157385874,-0.1240490989,-0.6589878956,0.9620269316,0.3986022192,0.2433201497,-0.3589158567,-0.4067335291,0.2055188216,0.769668725,-0.6966211006,0.7256701819,0.6140409516,-0.3814795896,-0.3179144472,0.76421099,-0.3082476733,-0.0874845755,0.4911178567,0.5150905756,-0.8561268822,-0.4493603081,-0.4234959104,0.2076247671,-0.4842847029,-0.4177433107,-0.2311642442,0.6359287438,-0.3717665725,-0.4016934353,-0.2574475368,0.58109755,0.4440481017,-0.9606832517,0.5587288729,0.5592649103,-0.8740982164,-0.6645224802,-0.8107169936,0.4424534244,-0.0411139069,-0.9825585104,0.5318626057,0.3692695405,0.9246892708,0.7082390566,0.1222335762,-0.8754838182,0.5090968964,0.5384346445,-0.3768187566,-0.6207356768,-0.8628519654,-0.3621741636,0.2601451601,0.0192236483,-0.1409471917,-0.7681700932,-0.3809360757,0.862580696,0.6612544274,0.8395273493,0.9391707764,-0.856916622,-0.0514845479,-0.2879374214,0.6319250619,-0.8892253113,0.8826615885,0.8986479511,0.4638460896,-0.4975353664,-0.4408132065,0.7325911103,0.495025591,0.5188039882,-0.8655358366,-0.7332018496,0.9916775732,0.3470835417,-0.8407171467,0.7403491225,-0.4258607033,-0.7331718452,0.7910532988,-0.7772682648,0.1025259049,-0.8564265764,-0.3859577082,0.1805510795,-0.5262622435,-0.6953532052,-0.8450130775,0.6230375592,-0.1754383926,0.9270180859,-0.4657892144,0.339377746,0.7512125736,-0.5455670196,0.1978517028,-0.5388623304,0.9037546834,0.4609467823,0.387242536,-0.5046998644,0.6875810715,0.2580939752,-0.5153793968,0.4662103959,0.4709069424,-0.7106709231,-0.4433631621,0.7195305605,-0.9731826628,0.7376233707,0.7862090508,-0.811677757,0.3653119797,0.5484155678,-0.0619115312,0.7277479833,0.3139578803,-0.8044171985,-0.5515728544,-0.0009289163,-0.2561273719,-0.0104122369,-0.7878616744,-0.7725805417,0.8823202236,-0.8227559775,0.2866119691,0.4886966016,0.9609075312,-0.5127761956,-0.0907137803,0.1307094645,0.4246969729,-0.8061043429,-0.9666981135,0.3227472852,0.0592150526,-0.9242228334,-0.5773087801,-0.6911987927,-0.0621557685,-0.614629615,-0.8531537194,-0.1733291929,-0.480440182,-0.5959094942,-0.2977846781,0.8205709154,0.5400918351,-0.3270885423,-0.1957776731,0.4049539505,-0.0699133416,0.5119082431,0.3703227759,-0.7321248134,0.9251873625,-0.1678036361,0.8721304347,0.9545186635,0.9641768168,-0.2897349619,-0.3593166159,0.2841882361,0.255154872,0.4706268317,0.6391045197,0.7299124171,-0.0681824032,0.1442121712,-0.8684316829,-0.0817848093,-0.9936718528,0.724202583,-0.5207503798,0.7910460204,0.6958237875,0.699521421,-0.9310308969,0.664175262,0.12973767,-0.9248281753,-0.5652496038,-0.2387843336,-0.7435936177,-0.2494332901,0.116883664,0.7324284141,0.9250170268,0.0664900509,0.3579147034,0.6204841835,0.0187683984,-0.6750513507,-0.6131499713,0.5299665688,-0.0970317788,0.8211481265,0.7386807969,-0.3187783698,0.0254959543,-0.905640873,0.866109169,-0.7630806908,0.5510253638,0.9952703435,-0.189179469,0.7642521122,-0.2428293402,-0.8675211772,-0.3460945516,-0.8128266605,0.286114504,0.4095246668,-0.3340382832,-0.55397505,0.6295885209,-0.2672971226,0.4420177976,0.7922519621,0.464908224,-0.9323320234,-0.9293677255,0.7430883548,0.0185634297,-0.546661155,-0.7966175479,0.1581079026,-0.8129617496,0.7030394507,0.3451014209,-0.8716395461,0.0056657335,-0.4795683013,0.5475190809,0.0961442997,-0.6943696252,-0.1718160145,0.9447197795,0.4371729725,0.0506428069,-0.7105580792,0.1102999944,0.2985083209,-0.8926345846,0.6695826877,0.9389810505,0.3927893822,-0.2202915284,0.490797088,0.2843829548,-0.0139526914,-0.4230430207,0.3570199338,-0.0115190665,-0.2638516765,0.8182324922,0.5582228837,0.9324848433,0.805992335,-0.2250847688,0.0568273953,-0.4299284016,0.4742326895,0.8952269343,0.8741870387,0.2961294337,0.9421999767,0.3926772134,0.9123864273,0.8923595926,0.0202954462,-0.2313396242,0.1760481756,0.7005648883,-0.4713650128,-0.6702475794,0.3663323137,0.1759824666,-0.2063326835,0.3840185077,-0.4115523101,0.6964812931,-0.2073443499,-0.1746400447,-0.3390210853,-0.0542996288,0.7218268594,-0.2498833765,0.1141591192,-0.7742760008,-0.7897787545,-0.7433807116,0.6336327517,-0.1126679528,-0.9437484112,-0.0536603458,-0.3040112709,-0.5070762552,-0.9647274392,-0.6680340641,0.9290424222,0.4439837877,0.7290372958,0.8942441938,0.2934218136,0.4233024936,0.334679331,-0.6720864615,-0.6411387794,-0.5996272467,0.5949743349,0.0644258528,0.0401751876,0.0038941183,0.118313028,0.2080244905,-0.2995208026,0.5675974414,-0.1807562193,0.7471144813,-0.6114744068,-0.3981217603,-0.104296655,-0.7481699444,0.5977725619,-0.0002856041,0.5268122623,0.4149746849,-0.6677275647,-0.8759259868,0.1499393091,-0.3490668537,0.0896630079,-0.754630407,0.3673910333,0.4630729969,-0.7865001951,0.6045056285,-0.2514635166,0.489240279,-0.3755230658,0.6867316457,-0.4741877655,-0.8917492177,0.5608816326,-0.353081825,0.145465559,0.8885608484,0.8844959913,-0.0612106215,0.4210392873,-0.4841654904,-0.0282322946,0.5986115532,-0.044273217,-0.9867812957,-0.8393978473,-0.7909214668,-0.7234886047,0.7210227925,0.5756712691,-0.4190054739,0.0706145366,-0.798904679,0.222994171,-0.561036606,-0.8273278716,-0.7672982126,-0.0140332752,0.617662132,0.360387898,0.3706268467,-0.3352617778,0.5243012914,-0.1500358403,-0.6495441763,0.8019774076,0.8383839852,0.3455729018,-0.4053108635,-0.8941818556,-0.2683399287,-0.1826313843,-0.9679738925,0.8721055586,-0.495230066,-0.5247488405,0.2587897615,0.1549589115,-0.2652585224,-0.8891461725,-0.400223508
   0.7534449265,0.8547011723,0.9945849807,0.5006230046,0.9191672196,-0.7682846391,-0.2922636915,-0.898989497,-0.5697066614,-0.3657443991,0.4611187082,0.9715507829,0.307505061,0.864017567,0.2186818536,-0.1053678012,-0.6597267434,0.5048906303,-0.6519369906,0.9854266803,0.3957451713,0.5678960152,-0.5801320903,0.282486002,-0.2847897097,-0.702145435,-0.9200834773,0.5686978466,0.8958304954,-0.0195772701,0.9267472667,0.9358384158,-0.7616555716,-0.1111863758,0.2743608073,0.6964050327,0.7223337452,0.3837989006,-0.8277894597,0.3512815972,-0.5591299039,0.7253972328,-0.5010415577,0.0558039114,0.7310493967,-0.7154429078,-0.3252404758,0.5124494751,-0.0536315334,0.1301939268,0.2749517265,-0.7607956625,0.7238102036,0.0833602526,0.6878734161,-0.0370894104,0.8473011796,0.6770629204,0.5888674102,0.6198116348,0.4972758022,0.0957057513,-0.3345968366,-0.2695750565,-0.1109930855,0.2874859389,-0.0277958754,-0.0485231579,0.9797581326,-0.8507319345,0.7273655706,-0.8179242292,0.9352011107,-0.7820643885,0.2543868463,-0.6309718622,0.9957888313,-0.1181670801,0.2100263581,-0.503271492,0.6360975996,0.1152368418,0.5348296125,-0.4964536442,0.9339844202,0.546569518,-0.7375148171,0.0813569475,-0.836359439,0.8775552558,0.4697376605,-0.8562641986,0.4131134877,-0.8429308967,-0.293701364,-0.3147098523,0.2189136721,-0.2220084985,0.2921519396,0.6423643098,0.9407045962,-0.1493878851,-0.7224536673,0.0418171615,-0.3177451175,0.7886695248,-0.3021032583,0.5242790936,0.4864986062,0.1517487834,0.514106179,0.0512950119,-0.0999742605,0.9747447801,0.5654043597,-0.3813110238,0.3528164974,0.7039206962,-0.7959731308,0.268080342,0.9213996534,-0.2749890977,-0.7045942365,0.5603781602,-0.0474645931,0.212420558,-0.996858753,0.4608073999,0.785290366,0.1680861933,-0.3558652004,-0.764195411,0.2524926987,-0.1380430887,-0.0910113878,-0.0295772474,-0.5577138309,-0.598199542,-0.5364923649,0.3727254937,-0.9759176206,0.292786113,0.1055650912,0.2032901016,0.0921049579,-0.7682151074,0.0468956766,-0.0703655205,0.40328021,-0.8971651536,0.5062960565,0.1973959598,0.566861912,0.8108514213,0.4305351135,0.7579107219,0.9814171952,-0.009308087,-0.0246849605,-0.1831696914,-0.5300243825,-0.2230938339,0.4295341928,0.5009039149,-0.9181881627,0.7625426877,-0.8886290197,-0.1562072816,-0.66284186,-0.3786160519,0.2993237553,-0.0381791151,0.881259466,-0.676564637,-0.7083148758,0.8902483277,0.6761331603,-0.8276685897,-0.1980773411,-0.3029914146,-0.0517623864,0.4566834315,-0.2913182557,-0.5943071644,-0.2470815592,-0.1409893935,-0.6350568048,-0.849272496,-0.0648069387,-0.5611512676,-0.5983411249,0.9415910284,-0.7886228369,0.0492169149,-0.4652149136,-0.4265316415,0.4062015906,0.0999378607,-0.2548277717,0.6894909444,-0.9427388857,-0.9260522689,-0.0992616145,-0.2561335734,-0.9744794592,-0.3561247596,-0.6100901772,0.5676780111,0.8868150446,0.2145657734,-0.4668530311,0.0182507584,-0.9340765871,-0.6464062167,-0.8915347642,-0.3277055867,0.3503683902,0.5412215503,0.2971967297,0.3550852537,-0.8001427289,0.2692195006,-0.6674999305,-0.3022609349,0.0807752304,-0.2875390875,-0.3031404401,-0.2135405628,0.2689684393,0.9541329805,-0.2485210067,-0.2273036173,-0.9463236529,-0.1429791752,-0.0637423135,0.4212401082,0.3936557007,0.5603866038,-0.9558357267,0.6183275313,0.7544138863,-0.1572100878,-0.329332312,0.7721265359,-0.2499066335,-0.1098562743,-0.8153887882,-0.8708053081,0.5728183999,-0.5088792128,-0.7584214313,0.6869687993,-0.5274429216,0.5748098408,-0.0088065392,0.3356310226,-0.4487605787,-0.7694833068,-0.3997171002,0.4101924936,-0.5963613613,-0.192244061,0.0231646769,-0.2707032278,0.8623332027,-0.4587299249,0.7791482999,0.9962645638,-0.8474984523,0.7754483905,-0.1163298396,0.9523885096,0.7608104009,0.9283657611,-0.1278673681,-0.8281089404,-0.4571687909,0.9757956205,-0.7167606005,-0.4728418646,0.12063189,0.3430695162,0.4818510267,0.6272462204,0.5175577645,-0.4696380915,-0.7042408544,0.0560057971,0.8857185489,0.4623389958,0.0207763862,0.0171005052,-0.437139788,-0.1855484843,-0.4377912993,-0.2832226106,-0.1153739306,0.1805453195,-0.0505924195,-0.4074831408,-0.2562934309,0.6435148293,-0.2007960536,0.1828435627,-0.3967288982,-0.6299027627,-0.9879648251,-0.4955652261,0.4796971794,-0.4083004122,-0.4000349635,0.4111296532,-0.5899367448,0.4689979559,0.3269939354,-0.322931815,-0.5916072683,0.8053644386,0.6171147129,-0.8177793347,0.89283636,0.7630424203,0.2521320607,0.9012915869,0.360113534,0.8699570693,0.4934548949,0.615665139,-0.012288774,0.1470097449,0.3727770934,-0.5519562012,-0.4170864525,-0.1341132673,0.3163800755,-0.3586531649,0.393486984,-0.9647539782,-0.9655761113,0.8628376019,-0.4336069337,-0.2950518079,-0.5642067626,-0.6580822733,0.8097575214,0.0401517631,-0.0686855927,0.9619916296,0.450766604,0.1150548366,-0.8613960766,-0.3477673132,-0.6764279883,-0.8233660643,-0.9825582358,-0.2533334717,0.936728677,0.7422538365,0.4802115583,-0.7914174997,-0.8464904653,0.306984375,-0.6998551374,0.1920529209,-0.2754343273,0.0857094888,-0.411073994,0.7875838079,0.8984679718,0.4067334508,0.4327645644,0.0597333288,-0.3241369186,0.976493595,0.3633112143,0.7921254576,0.4403850076,-0.4427714306,0.4667980398,-0.171720139,-0.7117343364,0.4505379347,0.7539556645,-0.3040831284,-0.5758628909,-0.6629791981,-0.4511683566,-0.5648688713,0.9626506174,0.3531476359,0.9289966784,0.2925400233,0.0489627947,0.3375024348,0.7510658777,-0.9002689477,0.1077443265,0.5398944067,-0.2588747948,0.8791616521,0.7718384601,0.8979190549,-0.8505374333,-0.2813526977,-0.0581117438,0.8165804435,0.5830545107,0.31725575,0.0749956211,-0.8514475886,-0.590148193,-0.6082225506,-0.9414654611,0.5089614052,-0.2741543178,0.484437899,0.5830468729,0.6750110205,0.3353262047,-0.9528411941,-0.9113569985,0.1348945875,-0.4452909489,-0.1785743254,-0.5841872028,0.0563459178,0.1147416847,0.9305042524,0.8000285608,-0.4763848338,-0.7709095188,-0.5586455806,-0.6925980105,-0.938401263,-0.8150607759,-0.504505203,0.0529537255,0.1867660661,0.3100182876,-0.0671073157,-0.4857536508,0.3800141189,-0.3301245515,-0.0400894308,0.2070509533,-0.1898082452,-0.9026523189,-0.3759712048,-0.8678833303,-0.750371753,0.6315225189,-0.2711255697,0.4843146016,0.5410394499,0.0756029797,-0.995142363,-0.6289465037,0.096185019,0.2703161433,-0.0945595579,-0.2389320998,-0.6488828509,0.1556333447,0.0649093662,0.9868356899,-0.0318001486,0.9878497975,0.716628344,0.7578208422,0.9566269008,0.3958325825,0.7019744875,-0.5277013083,-0.4993194339,0.5887179103,-0.2268236397,-0.6800411452,-0.2085063206,0.8774812412,-0.8397743103,0.2880405879,0.4924881085,0.983046417,-0.0473616836,-0.8671005802,0.4343739827,-0.4776273565,-0.9328661292,-0.5333242923,0.6325490988,0.2914239514,0.0873362853,0.9478769672,-0.5891434369,-0.0849281556,-0.8471645689,-0.7914636102,-0.4794401006,-0.1935884718,-0.2276159885,0.0859641347,-0.4777981119,0.3496487356,0.2053221104,0.7104758952,0.905792216,-0.8382372904,-0.0357022468,0.4579328369,-0.5079583174,-0.4956890705,-0.8203865594,0.8898570303,-0.699798252,0.6457867681,-0.340110282,-0.1447300917,-0.2220728357,-0.4586784985,-0.3610867928,0.3319708729,0.5257526697,0.9303471973,0.6865639718,0.7908578789,0.561871231,0.9770170797,0.2287523974,-0.9050289358,-0.8540421406,0.5949458316,-0.076288656,-0.5799951988,0.453653255,-0.2624676502,0.7611743667,-0.3276627,-0.6236042107,-0.6471387585,-0.5659764495,-0.7821442953,-0.0464598178,-0.3563299642,-0.0436972399,0.7227368376,-0.8323249312,0.519604103,0.3152684,-0.7124777434,0.4655827182,-0.4361916906,0.6224313702,-0.5758374132,-0.1571566489,-0.2369636609,0.3653565966,-0.7815883603,-0.3454285711,-0.0467991143,0.1118491896,-0.4521953749,0.8073400237,0.5400231816,-0.7105914895,0.1091977775,-0.4561188411,-0.6637711945,-0.5123303846,-0.8859311979,-0.0373754394,0.799313029,0.9224037028,0.2462040129,0.6146433538,0.8034211993,-0.806946106,0.1767687803,0.6994821844,-0.0546162481,0.3213455163,-0.9954750311,-0.4131633013,-0.4681641939,0.9347105838,-0.9536163487,-0.2838462866,0.9664449418,0.0120401073,0.7243489521,-0.7348175387,-0.2727048421,0.5831130293,0.0909813471,0.1775413332,-0.9615205868,0.0625936475,-0.9060789286,0.6566438399,0.6174149842,0.4708886378,0.8169397138,0.6701955867,0.7898667727,-0.6715726878,0.1964007552,0.3807081458,-0.8356207051,0.6375978099,-0.699005609,0.0477593248,0.0066007132,0.4977104282,-0.1961837898,-0.9482997158,0.4292152884,0.1185907245,0.2020636863,0.1174149958,0.2942712787,0.5243148477,0.0243839825,0.9284265619,0.2011807325,-0.7197453649,0.3581426124,0.9238929705,0.9122636815,-0.2263899107,-0.335038527,0.6868012565,-0.5107798762,-0.6758012693,-0.8504083674,0.6176116571,0.0134378919,0.1087366522,-0.0745072563,0.9798796592,0.8730431956,-0.4529702912,0.8883563413,-0.5823356338,-0.4424249445,0.5313834814,-0.633074111,0.4910086362,-0.6494472504,-0.1070380093,-0.3836812901,0.6352805969,-0.1310847828,0.6082694253,0.1238556571,-0.1517633573,-0.1288650706,-0.6239377745,-0.6469540661,-0.320435916,0.4158538523,0.7090435857,0.697598427,0.5352515924,0.4002385373,0.897585126,0.8914148348,0.7443956408,0.1927068304,-0.3680038486,0.8711695229,0.4528455966,-0.2093674977,-0.0880239892,-0.6432650434,0.4239157468,-0.9949296369,-0.3760585488,-0.2560968902,-0.9828183011,0.3689174388,0.0720277112,-0.0047311032,-0.9091770398,0.8690392675,0.0725585889,0.0693618631,-0.4100619441,0.9317635417,-0.9057580295,-0.7124807516,0.9217977082,-0.2588643329,-0.4985927873,-0.2910348722,0.5573347604,0.4461331554,-0.3018211044,-0.3429221396,-0.2542911178,-0.3764268033,0.1115690968,0.8474823841,0.1374474244,-0.0758639116,0.7636561805,-0.4120561759,-0.9981269494,0.4469031519,0.7401386834,-0.291081675,-0.1962276771,0.4505913117,0.2329446187,-0.3137818136,0.3726419578,-0.891424871,-0.9006111516,-0.1405985278,0.1771443218,0.8583545586,0.3066572726,0.1320169935,-0.419574801,0.3547289108,-0.801821054,-0.6762334755,0.5938953859,-0.5124047601,0.7047283064,0.1950023344,-0.4327749734,0.3517657972,-0.8669508641,0.6569399581,0.9424416174,-0.5804125606,-0.516786911,0.2036811467,-0.2816704237,-0.5290507455,-0.6952848515,0.6059757353,-0.9688484117,0.2517099676,-0.4110127741,-0.1568328282,0.6868102854,0.2045135404,-0.3908640103,-0.4556360517,-0.2980908456,-0.1221076997,0.1540714355,0.0985506576,-0.6821939192,-0.3977186581,0.4613360524,-0.6563196799,-0.5660028387,-0.3768962798,0.9285420199,0.2591831104,-0.5818353575,0.0855604114,-0.7406121185,-0.2840186697,-0.7798510535,0.0337867525,0.2294247402,0.4310642515,-0.0240486907,-0.9682684705,0.2337630855,-0.4148735926,-0.6255259767,0.4311303301,-0.0743110813,-0.2939019271,0.9307728758,-0.1298219414,-0.1963109373,-0.8638296281,-0.077520122,-0.0641881773,-0.8969672796,-0.7398282851,0.464669436,-0.4728860891,0.2469325151,-0.1827075904,0.1612485106,0.5546287392,0.106303261,-0.8303886097,-0.7898896285,-0.3920826504,0.2652320735,-0.6313173811,-0.5262556773,-0.2985425827,-0.6252776105,-0.5015658117,-0.9469908872,0.8689243687,0.657560589,0.607406755,0.0168018699,-0.326229479,0.4118942871,-0.416978012,0.4413202689,0.5455402246,0.3933578178,-0.8340681494,-0.3918493484,-0.4199801067,-0.8890159738,0.7762824133,-0.7601216273,0.6648158986,-0.6201026129,0.5939819145,-0.3079989009,0.1380103573,-0.0535497848,-0.1388803918,-0.7739855031,-0.7501711802,-0.6148285019,-0.4325613661,-0.890759192,-0.2097762016,-0.756234423,-0.2418542377,0.6196512827,0.561969874,0.7643059337,-0.386941235,-0.6588350076,0.6756997833,-0.9465223272,0.3725584948,0.3856249997,0.4990803244,0.065335601,0.6105046728,-0.929709835,-0.7160010625,-0.7792713616,0.5232515906,-0.5059072305,-0.7868076699,-0.1594713948,-0.9036417704,-0.5887071237,0.4433181042,0.020987172,0.0903929758,-0.6838747359,0.1258346044,0.4835031992,0.6213809585,0.5208937226,-0.9031712947,0.7914718501,-0.6648950061,-0.3700722545,-0.40664226,0.0100016965,-0.2517722357,-0.2903234681,-0.9913580009,0.5024208126,0.134408251,-0.7633040662,-0.2357091695,0.7157798959,0.6931423663,0.6972994614,0.2810160346,0.2432308988,0.7388316267,0.3661753562,0.8402788599,-0.7249877152,0.5553888232,0.7149744419,-0.1090886539,0.8632768696,-0.4259513595,-0.0564236748,-0.9553004492,-0.2970442278,0.8506788025,-0.38803044,0.4862946446,0.4054195089,0.0207158078,-0.646917511,-0.5132138586,-0.1683670638,-0.0064636352,0.7750830549,-0.7713751952,0.0127217138,-0.6660711359,0.3035372274,0.3551615051,0.3605778947,0.8131932321,-0.9756033706,0.1114892615,0.1370510021,0.7295076559,0.8297669067,0.7762023791,0.6507084922,-0.274918498,-0.3872639446,-0.2455959847,-0.6964488406,-0.2843079647,-0.2766330677,-0.6707915627,-0.3909376115,0.3682862076,0.4498949253,-0.7094522695,0.1527301422,-0.0711076417,-0.8156233699,-0.1128431998,0.319135961,-0.8882518248,-0.5182909483,-0.1342280259,-0.8954607188,0.2036884977,0.4733623369,-0.014788195,0.8598796401,0.7959866766,-0.363988195,0.9908551617,-0.7676277555,-0.6438199386,0.3250470005,0.2865490329,-0.4993482244,0.7160033664,-0.1506582753,0.4539706454,0.9204810168,-0.5411260375,0.889173883,-0.9479344544,-0.6046384911,0.4067835551,0.0977228314,-0.1557439886,-0.0761188965,-0.8089717714,-0.7047383218,-0.7489178142,-0.9546374047,0.059362983,-0.6660466842,0.4476242982,0.217391097,-0.1014276618,-0.2624733761,0.5301584983,0.4973129293,0.5391896526,0.3947855465,0.4379052146,0.4361082437,0.0226208163,-0.5829553519,0.3661581634,0.1541340183,0.7953042659,0.3721937676,0.9555754478,0.7983315508,-0.4783717577,0.1722627223,-0.4184680569,0.9088944866,0.5304219799,0.7311386495,0.4985550559,-0.9342061908,-0.6373045172,-0.5419348505,-0.6681944371,0.5688226586,-0.8626748991,0.5823047958,-0.3396993036,-0.1547353903,0.0027145328,-0.8677908415,-0.5918356758,0.3475323948,0.126398992,0.5261297719,0.393278147,0.0629541883,0.1178826019,0.0326350092,-0.9113179818,-0.2122572218,0.327077879,0.6287736724,0.2817586687,0.1709615647,0.2097752683,0.2202568127,0.1598195189,-0.0140654108,-0.7659653718,-0.2873077531,0.2034842413,0.982218771,-0.6319651548,0.5556910995,-0.4285287203,-0.0078222818,-0.0139879869,0.9242597864,-0.5666408618,-0.4225715591,0.239800112,0.7789879594,-0.4678767306,0.4341246158,-0.1644408591,0.4013590376,0.9128711894,-0.225443176,0.5429547854,0.3509321165,0.0076171563,0.7223705463,-0.9186119545,-0.7590942124,-0.2995423914,0.27745402,0.4325873127,-0.4034492431,-0.4974670405,0.1976745506,-0.0141093298,0.1970154745,-0.6702786381,0.2104040189,-0.8622044131,0.9486064437,0.9730388268,-0.1618508627,0.2384506235,-0.4487084527,-0.8381051206,0.634533672,-0.1596057007,0.1382458606,0.3483395749,0.8710517769,0.2298038857,0.7221792917,0.7977612966,-0.9873759969,-0.5659011755,-0.336892262,-0.1507156916,0.341391301,0.3328106833,0.7529279052,-0.3542705238,0.444198124,-0.7008818264,0.5410241244,0.9687020373,-0.2123260221,-0.2037667617,-0.885011921,0.1658558572,0.8449902782,0.1422890708,-0.4246285171,-0.6279862268,-0.8383390929,-0.4544378454,0.6749564344,-0.9057959884,-0.2689431652,-0.9987138082,0.4437394863,0.1249933221,-0.438212631,-0.5893739304,-0.4641933535,0.2674057591,-0.1910460276,-0.1485038686,0.2321511345,0.8641201917,-0.1312455384,-0.248918181,-0.5522341001,0.3796372933,0.0106112223,-0.5891977193,-0.6084094558,0.8859638158,-0.567596736,0.2904224751,-0.8247444731,0.9365237605,0.0156779778,0.4281242532,0.7661181784,0.8686606501,-0.2245583777,-0.5780017291,0.8079408645,0.4847092197,-0.2522613439,-0.9105511568,-0.5526384134,0.2143578919,0.6164648486,0.5858156552,-0.6122344665,-0.5885270582,0.5601803821,-0.1257948515,0.9363049576,-0.2034125508,0.3855757181,-0.506078986,0.020834578,-0.8683225802,-0.0940072346,0.235715609,0.1127304315,0.6788083983,0.0573979344,0.9335973699,-0.1891234768,0.4696987059,0.8243989597,-0.9709094339,-0.3633213433,-0.3520726458,-0.6198336718,-0.6011087114,-0.3566048989,0.3591657024,-0.8057178416,-0.9982718861,0.0972912361,0.7063369448,-0.4815040613,0.3820714935,0.9269134679,-0.0274392041,0.0978895126,-0.864910814,-0.8727550281,0.1024954285,0.8352948423,0.5560048022,0.1520274919,-0.2872768767,-0.9627437715,-0.9692629729,0.1611121445,0.1205637049,0.2310374842,0.977929399,-0.7128752933,-0.331277291,0.5291916272,0.7132080193,-0.97709656,0.03630972,0.7298820799,0.8572322836,-0.3918179436,0.2131501475,0.5895499289,0.4107374867,0.5874775219,-0.8723113106,0.2615478059,-0.0131202659,-0.5739683766,-0.5295132169,0.7546738061,-0.8159459025,0.4209217304,0.3612479053,-0.5480400509,-0.377275865,-0.4078534958,0.0626851751,-0.827759451,-0.701774188,-0.2737697955,-0.1407557457,0.3194557985,-0.6335623829,0.1155126119,0.5112141362,-0.8994325267,0.2867008935,-0.4845627662,0.0285515685,-0.2833022985,0.4422039202,0.9739795008,-0.4154475983,-0.0336770951,0.6304236897,0.7444272717,-0.6739765123,0.7311318825,-0.4075908658,0.1239866105,0.9698226116,-0.5456288534,-0.3833950648,0.9905275723,0.6936430104,-0.1929597903,-0.7671905054,0.8202936451,0.2665655575,-0.903628697,0.7958028753,0.8632910644,0.7597930668,0.5150070728,0.8509267738,0.4924036012,0.4004743688,-0.7593515888,-0.4473402003,0.618556867,0.0642071686,0.4179772305,0.6068854083,0.1088494753,-0.5538655279,-0.7046525354,-0.9205016752,0.8842215279,-0.7184077619,-0.6939440391,0.3485595673,0.7530721086,0.1129169882,0.0882332113,-0.0275942799,-0.6201401882,-0.1944091613,-0.9196771358,-0.3409728645,-0.8547048525,0.5157981195,-0.2905368164,0.0954021315,0.6616074363,-0.0222244347,0.7254202906,0.2539777561,-0.0580498723,0.6952755254,-0.7615109057,0.7480440076,-0.5195193453,-0.8655065774,-0.9584710675,-0.4534691257,0.0717687508,-0.9671879139,0.9864723584,0.3726051281,0.9310483081,0.3668957241,-0.7184394652,0.5663669733,-0.8972968354,0.5331100939,-0.4862263684,-0.050153456,0.3674346111,0.9759880895,0.1479499523,-0.897696832,0.2880373022,-0.908649481,0.1112203363,0.7559103608,-0.7731201139,-0.6777690547,0.6967091513,-0.7452538806,0.6491084769,-0.7305314129,-0.2053293198,0.5670376404,-0.6136532272,0.221969347,-0.8412501039,-0.9820746915,0.6254591403,-0.0393316472,0.1515011465,0.5177267891,-0.6416759899,-0.5571350185,-0.7643608117,-0.9127109696,-0.6112066475,0.0023967781,-0.0076019923,0.0552838143,-0.5790807592,-0.248888888,0.7828985136,-0.4402846057,-0.6698570752,0.1361163154,0.7524627823,-0.2784550116,-0.4788942709,-0.5391183244,0.0287939019,-0.0944809973,-0.9208580298,-0.1419805616,0.7406261409,-0.8960449767,0.6708935708,-0.4385923902,0.0696326375,0.3947110388,0.0410083168,-0.9918570535,-0.7980635988,0.1965051202,-0.4426798835,-0.1558188882,0.2326342149,-0.4053248689,-0.043149284,-0.1934562934,-0.152225717,0.1716092173,0.5393266288,-0.7179189138,-0.030936689,0.6621790598,-0.9863416085,0.7057699858,-0.5770719649,0.6652519738,0.7046556278,-0.6281447167,-0.1557252336,-0.1871634906,-0.3271481734,0.8040635634,0.3455842649,-0.7069221269,-0.6979320083,-0.3446201113,-0.7107738237,-0.2702975606,-0.1774747012,-0.3480955489,-0.0649479701,-0.3571980308,0.4385958484,0.399482359,0.4779102494,-0.3369836964,-0.9993218545,0.3880152184,-0.0480674008,-0.5149038085,0.9312510649,-0.5185121244,0.3506741288,-0.1797869838,0.2253015007,0.0184663249,-0.6730094364,-0.9580382577,-0.8399229835,0.9487055679,0.0487687006,-0.4999607172,0.8741847047,-0.6788814738,0.6344100543,-0.8829652239,0.0191436314,0.8362826865,0.2692502654,-0.4972292476,0.564620821,-0.4114810127,0.1412801312,-0.0243602282,0.4904470196,-0.4249479906,0.1721571365,0.0219241976,0.687136737,0.1314670592,-0.7296018748,0.2487403534,0.7597610725,-0.6564164811,-0.7485960828,0.5472742574,0.559385938,-0.1330614964,-0.1120393514,0.5862909059,-0.6750856753,0.2444813632,-0.0517687489,-0.9517149822,0.0530913114,0.8142168948,0.3868742751,0.8027985309,0.3000724928,0.86648919,-0.8098166198,-0.852833202,0.9164571627,0.7267044257,0.2025607992,0.6936136661,-0.2120904545,0.594497145,-0.7226774608,-0.6712718892,0.5195865442,0.5249475842,0.3951689863,0.7512939659,-0.7894171816,-0.0018834677,-0.8033659374,-0.4892746322,0.8780377785,0.7080185633,-0.2677331264,0.875663059,-0.1846875705,-0.0219905078,0.5573948454,0.9864865328,-0.9649219932,-0.4166201914,0.3536534509,-0.042426272,-0.9412464128,0.877189249,0.4657714313,0.8435626306,-0.8144736607,-0.7025009848,0.9368132257,0.023430542,-0.0250137469,-0.792048012,-0.3249482242,-0.0303994113,-0.6167311275,0.5234665725,0.7796187023,0.0407005754,0.5281733939,0.0142776667,0.6518904097,-0.3171055517,-0.8097387455,-0.9460011764,0.5597861933,-0.8554344522,-0.9369977719,0.3984112058,0.6854033926,0.5577362556,0.9646989,0.7669609381,-0.2029363402,-0.3864623378,-0.5754274222,0.9189635982,-0.4922956264,-0.5885387448,-0.1498956936,-0.2721080179,-0.8626537621,0.6273256312,-0.5867504526,0.1038246059,0.3938576915,0.3070628898,-0.4894277496,0.2592098984,-0.5079333628,-0.9273699583,0.2132482582,0.8630844988,-0.9976943054,0.4322556725,-0.3007228095,-0.2856731635,0.7871532877,-0.2173697879,-0.4928508384,-0.3160917922,0.5919641988,-0.3080051943,-0.0591384355,0.5238039092,-0.3342536236,0.1734046908,-0.0853472134,0.5089742726,-0.0014774195,-0.3947713854,-0.5447709489,0.7203003923,-0.3659066788,-0.8356929851,-0.546568492,-0.8983688129,0.2450167054,0.5102782287,-0.0976817712,0.7961900013,0.0740608165,-0.0137560482,0.1424532211,0.6597875547,-0.6236434714,0.6896254072,0.9110385854,-0.7516125902,0.9991422923,-0.7530485931,0.6789499554,-0.286709541,0.3359096345,0.5365396755,0.3423399124,0.9426162537,-0.1814769952,-0.7573430746,-0.9718488265,-0.7450082966,0.9327106018,0.3248666748,0.6768212151,0.958165648,0.5465247874,0.7035899656,-0.3536456752,-0.9022293681,0.8688366476,0.4394502847,-0.0610888467,-0.2101478058,0.4650763292,0.8344485112,0.0220703825,-0.4111840907,-0.0526634008,0.0310610455,-0.4161667945,0.0245103222,0.6796288174,-0.6442187123,0.8390468974,-0.5813765216,-0.1045960565,0.8701211323,-0.2754473153,-0.4238210366,-0.1568597587,-0.4580892366,0.8950248533,0.2303054628,-0.5858444512,0.4467072928,0.1099816282,-0.0371072184,0.1472269842,0.0250498239,-0.5656420241,-0.745417538,0.4311742969,-0.6038830418,-0.9580185959,-0.4878409506,0.8487810217,-0.6361953524,0.5891189747,-0.3686560274,-0.7762418359,0.0292637155,-0.0191901681,0.6039354066,0.3697982532,-0.9813666657,0.8276245705,0.9504064655,0.2109956253,-0.498865874,0.2615761603,0.0654939614,0.5076815873,0.5248790493,0.9737154369,0.0737045491,0.2810306792,-0.3004582852,0.477317565,-0.7954512595,0.9025690133,-0.7734868027,-0.007587672,0.2428881794,0.974787327,-0.872483656,-0.2880334748,-0.7466948104,0.5504662074,0.4379986063,-0.5167450415,-0.70230225,0.0080363572,-0.1352555723,0.1908616765,0.3522619364,-0.9903482551,-0.7055788542,-0.285512931,0.5615227816,0.0401581753,-0.6967479625,0.7546630546,0.7284316815,0.3860841215,-0.7502454214,-0.5310231208,-0.6245762873,-0.1807118108,0.628309672,0.5617416331,0.1395074058,-0.5498269344,0.9656037951,-0.7952386107,0.7920620256,-0.8708774171,-0.5846911971,-0.3274011793,-0.5979481953,-0.4264686194,-0.5914022315,-0.6028860858,0.8265465835,0.0569307079,0.1665573781,0.9493897822,0.3422536605,-0.2359884264,0.9290993797,-0.9159021997,-0.1927591846,0.7603521637,-0.1854841715,0.3439535949,0.3575616421,0.9024899902,0.9629866334,0.9384393759,-0.5484783665,0.2100854333,0.8190648056,0.6341060246,0.1485798054,0.310880166,0.2793771363,-0.741727972,-0.3478348224,-0.3966984269,0.8685714697,0.2297436869,-0.811194648,-0.226445785,0.6887684386,0.1101421763,-0.6682261115,-0.0416617756,0.4779510069,0.1058127487,0.8328323044,-0.8275866839,-0.0202108756,-0.7641625416,-0.9897003498,-0.3514355088,-0.6709033051,0.9005420457,0.8979002514,-0.2772925869,-0.9240327517,0.5793193595,0.0970866897,-0.0787451918,-0.5009548714,0.3529361839,-0.0582437607,0.548222501,-0.1556351965,-0.4237202709,0.3915286815,0.2095274758,-0.1287127224,-0.7606778225,-0.1591088646,-0.831541163,-0.6658208668,-0.7506446393,-0.3222180831,-0.2917078167,-0.9619457591,-0.157669995,-0.7286421374,-0.4821870148,-0.217495479,0.2425112324,-0.7752020618,0.738819388,0.0009975746,-0.2263366303,-0.901013433,-0.1766177168,-0.38008838,-0.3283544811,0.2316112233,-0.7297985517,0.4435453919,0.0733704016,0.4577762967,-0.8691671412,0.6307577015,0.9847867478,0.4163146756,-0.6766446357,0.8112955158,-0.2798365106,0.6132106851,-0.5036548176,0.4218337333,0.0806709554,0.5827271375,-0.8186832912,0.9776147882,-0.8628542392,0.2304514786,0.4909122707,-0.6851759101,-0.552237727,0.9628972937,0.5406123283,0.1792676007,0.6658464267,0.2384423112,0.4591601627,0.3315203775,-0.1254884793,0.277104814,-0.2112476902,-0.5891671694,0.63998868,0.6436689121,0.9326964868,0.1673831622,0.1559819057,-0.0188337894,0.6638532868,-0.3776546128,0.4030838835,0.6876077816,-0.6596477756,-0.0668039948,-0.0495229004,-0.6113572629,0.0584488068,-0.6246186771,-0.4753253202,-0.9676513499,-0.4955023593,-0.9530568728,0.4941203906,-0.4733354793,0.0844565337,-0.2809156236,-0.8732092026,-0.4003434959,-0.057186035,0.469315024,0.9961561707,-0.4904816415,-0.981997174,0.916316519,0.0570805276,-0.4405694945,-0.9127316025,-0.013921468,-0.4575737493,-0.7478911352,-0.4884664807,0.1663239096,0.3533064982,-0.1495266987,0.7947091439,-0.3679825055,0.7612706341,0.1947504792,0.2388751496,-0.9450517102,0.8024993563,0.8189829959,-0.2019375939,-0.5849703504,0.2113698103,0.2877377032,-0.7768568208,-0.8570758029,-0.9939682195,-0.8597583369,0.6329297722,0.2228919118,-0.1124126111,-0.4584545494,0.0290764163,-0.851428947,0.448551637,0.2676708265,-0.992506407,0.1532084026,0.408009576,-0.9095819367,-0.6676663115,-0.3339493064,-0.2185099093,0.4766400326,-0.9391730202,0.2840427177,-0.7310922969,0.3631980671,0.2142893847,-0.3249722695,0.4613668243,0.0026279172,0.0629317964,0.8430383257,0.8653791434,-0.0000140095,-0.3922297766,0.2331551962,-0.6050840317,-0.4628940375,0.4638661096,-0.2364301566,0.9669463849,0.7289608566,0.544491164,-0.5031950852,-0.3576339884,0.9730661292,0.3831056539,0.3551723715,-0.4148106776,0.3857197825,-0.0630052526,0.203835219,0.2866789841,-0.1174556724,-0.3879695052,-0.1747209371,-0.8254059798,-0.5857057632,0.9360884132,0.6249163882,-0.4399407022,0.9317642483,0.6232895484,-0.8452510378,0.6336713057,-0.2914565814,0.8840063697,-0.4269558195,0.2254421147,-0.3637163041,0.9272375783,-0.8102691421,-0.0657824499,0.3928757224,0.214062404,-0.9502859679,0.8662120937,-0.7792918857,-0.6567105154,0.7526263616,0.5940911204,0.9047493909,0.5411906177,-0.4264462083,-0.6171566825,-0.201598802,0.0702727561,-0.0498992989,0.2355525248,-0.3642478717,0.2144435549,-0.4427516796,0.4037647628,-0.3190691498,-0.8824101298,-0.2835551481,-0.8571372885,0.667489052,0.2665231721,0.9938070689,-0.1703659104,-0.1280914485,-0.5054888481,-0.071657019,0.2136049018,0.6608190179,0.1943205296,-0.9343906775,0.2611250816,-0.1794364735,-0.5151605039,0.6105034716,0.9490736383,0.4607111749,-0.0261826534,-0.0082128833,0.4946563341,-0.7947179575,-0.6475512836,0.8352240046,-0.1179075107,-0.5605099021,0.5700863927,0.1001858817,-0.1984631907,-0.1522786125,0.6601190948,0.5718600262,0.7379017639,-0.3598076935,0.8100523306,-0.626898665,-0.870059862,0.0677409752,0.551445761,0.7276658539,0.713675254,-0.6882166895,0.6375866366,0.3786670636,0.5056253268,0.5258560217,0.4728834902,0.2922383309,0.7345893976,0.0496227615,-0.8227112308,-0.3959381062,-0.9590128355,-0.3839549332,-0.2087623645,0.0351932159,0.1643582477,-0.9016330065,-0.736426943,-0.2844920102,0.7172298712,0.1477876775,-0.765372317,-0.9174648411,-0.2980350227,0.3296626012,0.5838763239,0.477182207,0.7700636077,-0.19362072,0.1307311239,0.6628766179,-0.8453917092,0.2625187178,0.7354881668,-0.3172951666,-0.8852481956,0.1331665652,-0.8812990238,0.390586177,-0.4569125728,-0.5214271231,-0.8950039073,0.360252696,0.3877873704,0.2849573529,0.0163171944,-0.8678333727,0.7958888152,0.5783125337,0.6207220158,0.7839163894,-0.9946244198,0.8079104313,-0.4418673117,-0.9163191914,0.1168977514,-0.1715810583,0.0776823886,0.0783459581,-0.3116760959,0.2429501228,-0.8911756193
