encog,BasicNetwork,java,3.4.0,1,1750017926543
[BASIC]
[BASIC:PARAMS]
[BASIC:NETWORK]
beginTraining=0
connectionLimit=0
contextTargetOffset=0,0,0
contextTargetSize=0,0,0
endTraining=2
hasContext=f
inputCount=150
layerCounts=1,31,151
layerFeedCounts=1,30,150
layerContextCount=0,0,0
layerIndex=0,1,32
output=0,0,0,0,0,0,0,0,0,0,0,0,0,0,0,0,0,0,0,0,0,0,0,0,0,0,0,0,0,0,0,1,0,0,0,0,0,0,0,0,0,0,0,0,0,0,0,0,0,0,0,0,0,0,0,0,0,0,0,0,0,0,0,0,0,0,0,0,0,0,0,0,0,0,0,0,0,0,0,0,0,0,0,0,0,0,0,0,0,0,0,0,0,0,0,0,0,0,0,0,0,0,0,0,0,0,0,0,0,0,0,0,0,0,0,0,0,0,0,0,0,0,0,0,0,0,0,0,0,0,0,0,0,0,0,0,0,0,0,0,0,0,0,0,0,0,0,0,0,0,0,0,0,0,0,0,0,0,0,0,0,0,0,0,0,0,0,0,0,0,0,0,0,0,0,0,0,0,0,0,0,0,1
outputCount=1
weightIndex=0,31,4561
weights=##0
##double#4561
   0.1089861782,-0.0937099228,0.2376445608,-0.1673787388,0.3455936952,-0.191590874,-0.1840609669,-0.0246952449,-0.0927238204,-0.2099221035,0.129131379,0.0745755592,-0.090079816,0.2196145576,0.1266788613,-0.130797512,-0.2655472237,0.1274022541,0.0455226281,0.2736125203,0.0538488195,0.3178463784,-0.2127849231,0.0673634098,-0.074110873,-0.0868946998,-0.2472742743,0.1281643811,-0.2624631038,-0.1257258199,-0.0111302684,0.0696596695,0.2782100976,0.3653788352,0.5835107055,0.255492168,0.2405572409,0.6242179102,0.4134041411,0.1486703893,0.3613748107,0.3378931347,0.1857780418,0.5073561938,0.3953587156,0.6218112167,0.2866477027,0.3432843458,0.1449266551,0.0478757722,0.2245779923,0.5968172304,0.1017185466,0.3995495485,0.4630812514,0.5591626902,0.42039957,0.2844188861,0.4427708981,0.3689537249,0.577700632,0.4815756239,0.6319413134,0.1957304033,0.4366928611,0.2319086253,0.6972371424,0.3400118677,0.4375044506,0.4316049189,0.4291569108,0.1292928303,0.0392566563,0.1850704132,0.6335346643,0.2009607456,0.1721334406,0.0767246725,0.6664334866,0.648502171,0.2974104711,0.7041469532,0.1269694843,0.3366727084,0.6606745241,0.0026900588,0.0658413748,0.1403726648,0.1612915264,0.6263471388,0.1223674692,0.1293462895,0.3119798505,0.5960482159,0.0635186671,0.5998426119,0.0210980412,0.5587003653,0.6757924183,0.0061965512,0.3635823993,0.6293286232,0.1896114655,0.5654574293,0.4640144019,0.4025410821,0.0713191705,0.699190692,0.4271534754,0.3736936179,0.179229117,0.3382005592,0.2053512806,0.2265033116,0.278808585,0.1326761469,0.5674037532,0.2006281746,0.4121447265,0.1830100702,0.1380089007,0.1535871564,0.220874639,0.0009676208,0.4584840611,0.484777835,0.4374611322,0.6515539468,0.0050384184,0.4621752059,0.0827351546,0.0684561156,0.2976572892,0.4916424854,0.3200862055,0.6743494955,0.6260869007,0.659765497,0.4270235185,0.0120103086,0.0693724687,0.3379839662,0.6962360102,0.6874204611,0.1582930024,0.1693626198,0.2762176214,0.4900714508,0.1047241171,0.4746816241,0.6572678791,0.5432222402,0.3516568357,0.6864500043,0.6357576988,0.4913311906,0.4960574734,0.4352284817,0.2978073023,0.1769728383,0.6310048039,0.3702669633,0.0023773079,0.3939576585,0.2263107567,0.3788133628,0.1525661873,0.0354848406,0.637658565,0.1776621109,0.3225938672,0.3324928381,0.1394734337,0.4380226448,0.061302554,0.6349344947,0.3630315435,0.4602162585,0.0112816578,0.4795149245,0.1414668467,0.5218219193,0.4014543112,0.2417925127,0.3440106283,0.29145168,0.3369369885,0.5037515163,0.2393494026,0.5919140582,0.1086833655,0.4076959645,0.3831716386,0.1344523863,0.6029251294,0.6572413242,0.3309934531,0.2697382987,0.3955933843,0.6718342138,0.1755666653,0.4697881215,0.122125836,0.6990922369,0.4136069236,0.1049186278,0.5694458295,0.232626073,0.5461828368,0.5272348868,0.1743153057,0.2126374804,0.2338977109,0.4115311331,0.1666052203,0.2527364707,0.2782815934,0.5615323947,0.6729800969,0.6520805661,0.0738828005,0.2857850001,0.2721742002,0.1259184755,0.1145334623,0.5633009422,0.6044539392,0.6419920631,0.2698161267,0.1019308888,0.5135427517,0.502362969,0.414986143,0.2477423967,0.0500510702,0.6031957901,0.2643138679,0.3612182068,0.3363970256,0.4813494608,0.3883544165,0.1347691706,0.0071964607,0.6055086226,0.4735317384,0.6461192606,0.4308148287,0.4125974574,0.2311479335,0.5070899728,0.2495282232,0.0314865158,0.1289313771,0.7000835283,0.2377634076,0.4674923935,0.5993575973,0.033062238,0.3171920869,0.4230858834,0.6719244199,0.408695088,0.3936960976,0.0954477246,0.1859240997,0.0913457893,0.7144847978,0.5751230117,0.6397853872,0.2018954172,0.0308446327,0.5169095936,0.4502469562,0.6135992733,0.5107861288,0.1710686265,0.5480951959,0.0446781145,0.613772303,0.4289675221,0.2544976103,0.0055712041,0.5968784715,0.6649040141,0.5246541879,0.2530899873,0.4351246411,0.6684204248,0.5776389052,0.6500844572,0.0058132708,0.155579754,0.7131422708,0.5649089431,0.2445569787,0.2015844751,0.1898010608,0.2743064704,0.6428856275,0.0120246834,0.2700042478,0.3543319,0.6566046763,0.6378083476,0.3903226251,0.6751476402,0.2374653597,0.5457031227,0.5468286597,0.0762361685,0.6629308247,0.4172518426,0.4263309625,0.1169232768,0.1029035495,0.6034214616,0.2080831547,0.4975412333,0.4825087881,0.3769427224,0.2894951517,0.1595744662,0.6245470299,0.0358547184,0.0314198317,0.2273242227,0.1429949205,0.4388267765,0.4456292155,0.1514397483,0.6265264452,0.3966469849,-0.1096407023,0.6682174045,0.4643535488,0.0685578061,0.4839564825,0.6960054166,0.3348677027,0.6508417273,0.5711980641,0.1736807403,0.0909169435,0.3749173774,0.4791016728,0.0120886576,0.4587840226,0.3281059345,0.1512691536,0.0600563497,0.2117396017,0.6997646181,0.6649836124,0.2638767795,0.0856418297,0.5390510891,0.5842308095,0.1357624461,0.5444198578,0.6026108268,0.2987400051,0.4680391352,0.4634994683,0.5882387945,0.6643622087,0.103089215,0.1771499221,0.0831241636,0.1825492333,0.4716701621,0.5570799173,0.4630231339,0.0781337386,0.0331551602,0.2370809573,0.5100381679,0.1249065826,0.6358430384,0.4830320475,0.1179781274,0.3088198739,0.5492891978,0.3901919554,0.4988480647,0.1325300963,0.2272956768,0.5664509604,0.4988871816,0.6870050529,0.1883209729,0.5986713142,0.4964954124,0.1489607307,0.5651445636,0.1586476417,0.3305628012,0.0081646694,0.3023490724,0.4064144806,0.5127828567,0.4939253352,0.1024554261,0.1769174481,0.1149765125,0.4103193571,0.2276887791,0.2328226426,0.3090569525,0.4803613533,0.2448048693,0.4652415617,0.7064215751,0.113010283,0.0155552075,0.6554592566,0.5069491857,0.7001684299,0.5097859562,0.7113510761,0.5439802098,0.250566071,0.0041469459,0.4924416148,0.5020210223,0.6863625325,0.6542319759,0.5293500217,0.3830970758,0.1242031895,0.5512710645,0.311455344,0.4494462751,0.0534747404,0.221197446,0.6741012683,0.3583395368,0.4792289221,0.1088071422,0.334708768,0.1084443502,0.2493574154,0.2219209506,0.2105531994,0.3883442329,0.5084111939,0.3393197381,0.1173978079,0.0609029856,0.2427248521,0.3212006707,0.3544081929,0.0403102601,0.6693778815,0.3869144354,0.4779490505,0.4472776028,0.0011450554,0.3717854063,0.2245830837,0.0638163741,0.1341029515,0.0779753107,0.4359791439,0.5331829032,0.4311140047,0.2569891912,0.2024161617,0.1605373025,0.4875922734,0.711958541,0.1339463908,0.3810249895,0.5006982752,0.0872909161,0.564885905,0.2465135838,0.4045234919,0.2973422078,0.6876698113,0.6310298272,0.0430943188,0.4115566509,0.4209444098,0.2487541075,0.6016872102,0.5760896557,0.0768382756,0.2265175201,0.2885985803,0.2295552308,0.4222967712,0.6040171324,0.5383936583,0.3397846875,0.3069668859,0.0566066893,0.5505529903,0.032055035,0.6648344456,0.2699629943,0.4135645143,0.6200538385,0.2783817997,0.5857853469,0.3397350099,0.5387704669,0.277553773,0.5008468833,0.143658214,0.4784957522,0.1541784627,0.3688785743,0.2380474287,0.1128833725,0.1778142336,0.2036934629,0.2044727882,0.4729458595,0.05328881,0.2371770884,0.5057819735,0.6226418523,0.3100577389,0.4426825466,0.3896049534,0.1382364109,0.2476973844,0.5326857853,0.1408431208,0.6313806592,0.7122636456,0.6565588006,0.1061969978,0.5262279899,0.660075408,0.6345658365,0.0194737373,0.1133964292,0.3768432105,0.0947447962,0.0782949261,0.2674891318,0.1766167297,0.5058709295,0.6761067014,0.0613196275,0.3816915021,0.0618955644,0.0416949639,0.1215104756,0.2341186705,0.0424529799,0.0488469465,0.678630752,0.5790246214,0.3952111862,0.1639342332,0.4111546822,0.5081555544,0.3471215983,0.2048011953,0.103874439,0.5166927623,0.4345189014,0.248362391,0.3595053479,0.5188171888,0.4444452643,0.1512493402,0.0743794072,0.5796836583,0.2938132873,0.5252218287,0.3837759406,0.3987049404,0.0538388656,0.3255513845,0.2410397298,0.5404976559,0.6155510662,0.4813348797,0.5133566479,0.7099981188,0.4398673983,0.5886322022,0.3728513536,0.4154517559,0.1124451791,0.1044259171,0.1229141339,0.541609666,0.2054987039,0.2771428586,0.5213196515,0.6989875974,0.0676931132,0.0547477104,0.3093289483,0.3990347298,0.6781878185,0.4730745437,0.4385787289,0.5271608888,0.4270501407,0.3890845226,0.4175659663,0.4453648687,0.6311178235,0.5591201219,0.306837014,0.4571880926,0.44198416,0.2694643126,0.2555656574,0.1383434594,0.1673389663,0.2910032222,0.7084988387,0.5558589779,0.3233988264,0.6852900317,0.5831738111,0.5993146383,0.3461581523,0.6946651479,0.0316123183,0.225869799,0.2267424826,0.2201291391,0.643468631,0.4236048922,0.4970222667,0.5482393732,0.3242239348,-0.708008598,0.3721160208,0.4129631842,0.527226925,0.2567939487,0.337342777,0.6670274366,0.6914754285,0.4933962324,0.3166812422,0.4535656444,0.4384870527,0.4635668891,0.4666804311,0.654295412,0.0160029572,0.1584047351,0.3926784404,0.0880093098,0.6771679039,0.6395237564,0.5399364494,0.7063953943,0.2987670315,0.344239286,0.0942472413,0.2104036254,0.4664411226,0.3189833009,0.7121469129,0.0023323388,0.5588511377,0.0877769389,0.0734950392,0.5850889893,0.1014789228,0.5918689261,0.4111070419,0.2778340952,0.3813930618,0.0318032686,0.4491376556,0.6936983651,0.7115383574,0.2789914764,0.6389335855,0.3462599502,0.2755886964,0.0152191588,0.1212557483,0.0016516074,0.2546331611,0.3646216902,0.5394884893,0.0437294517,0.478698862,0.4784727733,0.4100092833,0.3607423297,0.0470112118,0.309664997,0.4288976676,0.1468042822,0.5614684511,0.5284966664,0.2662134837,0.1670845546,0.5833960989,0.3332927289,0.7038060087,0.4383487087,0.249585025,0.441512567,0.4965627197,0.5996721045,0.2024863149,0.5851101874,0.536867502,0.2232664445,0.0208930615,0.4338508673,0.0305606023,0.599942985,0.0034147477,0.3461766673,0.2920241565,0.0455772462,0.1207127907,0.2764231346,0.3024494164,0.0477950541,0.4577605973,0.0866541086,0.6735428563,0.3021133495,0.670103371,0.423345623,0.3404154071,0.1358582498,0.2708188588,0.4505403251,0.5207354492,0.2557799743,0.1468631104,0.1255383262,0.0819666116,0.2801269805,0.113980364,0.4133415436,0.3867110574,0.1494835879,0.1056499706,0.2728740084,0.6440875987,0.0474849516,0.0243698647,0.1867631162,0.6097994894,0.0118572884,0.0832804664,0.3429691547,0.3745336067,0.6455270514,0.0602569478,0.3392763495,0.5012934425,0.2044395864,0.0098977404,0.2133582154,0.4044735582,0.1861790831,0.3731893796,0.0813931761,0.7123717975,0.0296101091,0.6942066436,0.4143650324,0.4031498894,0.7097673142,0.0068994403,0.1973264065,0.0615703625,0.4756360629,0.2874353294,0.482780706,0.3467199051,0.1770016621,0.3629713614,0.3872383751,0.2407666422,0.6958258055,-0.5854308204,0.2653473814,0.5312919514,0.214623727,0.03253002,0.2184958461,0.2758641549,0.2349380065,0.2240590907,0.3231882813,0.2659952908,0.5933500615,0.1473713727,0.6266397379,0.3507770463,0.4395556042,0.6192635341,0.6738531429,0.4085736135,0.663719048,0.1089490331,0.3034379981,0.0812639844,0.3357148853,0.1745773992,0.3259849523,0.3399305743,0.3417791559,0.1064822259,0.5378293886,0.5682382805,0.3655857933,0.459928838,0.7158534476,0.3439357922,0.1856569833,0.0839934913,0.5582452609,0.1769058851,0.3656282322,0.6458274707,0.5395700665,0.4669569899,0.578494846,0.5215461999,0.4321978358,0.6885678842,0.0086427786,0.2127258403,0.3655261844,0.4904602325,0.0809708743,0.4264315965,0.5055686532,0.1208045074,0.4897441101,0.5736829924,0.541225546,0.3183532869,0.5074721182,0.241977554,0.4268335326,0.3334285064,0.1083693812,0.6899771715,0.4352631049,0.536431116,0.4370192089,0.3744304335,0.1525259564,0.6875243845,0.01853701,0.3570093832,0.2310129396,0.0785214612,0.5285947616,0.2643054102,0.4710082215,0.1465708746,0.6040549161,0.6609259469,0.3141053547,0.1401275538,0.3657682863,0.3974970306,0.6595382509,0.2548633072,0.5891759751,0.5346397461,0.5185813444,0.3097618817,0.2821961871,0.4860146098,0.1377770636,0.5057312443,0.4978011335,0.3698955418,0.3089136464,0.0368974059,0.1771186401,0.6244035244,0.18185957,0.6687876678,0.2570249611,0.0566391003,0.1808490223,0.5641635518,0.2192088745,0.4607186788,0.6180850928,0.5987929932,0.4459702116,0.3393957828,0.5874746921,0.6685767802,0.6156263889,0.5097741989,0.6918216061,0.4194897941,0.3352627594,0.376403321,0.2148424185,0.1070848468,0.5871690874,0.6507786269,0.2043272057,0.1880303995,0.4221562643,0.6707430239,0.4851005499,0.1631889899,0.5636921701,0.2868886862,0.018152727,0.4534421954,0.3909869298,0.2286342011,0.5004542745,0.6823088729,0.3018477956,0.0868667106,0.2571707581,0.1775113971,0.2358163146,0.7145889135,0.2043674418,0.2349996533,0.1014864712,0.4822665006,0.3322693396,0.3019309781,-0.2863015608,0.5901142638,0.128497848,0.0303586404,0.5007129479,0.1633739111,0.0071961932,0.5014800608,0.3681885791,0.2498100186,0.4025042244,0.0265234427,0.1090767586,0.1378421073,0.1471183433,0.0071903787,0.4854091606,0.3595359068,0.1514584994,0.3407637559,0.5787564853,0.606573025,0.493122226,0.2083304317,0.0328370638,0.5641858136,0.2374593936,0.4081694495,0.3604300435,0.3244976876,0.1506669448,0.2271459912,0.4464829026,0.566480185,0.5064026527,0.4695644376,0.4442333178,0.5521293982,0.1120562633,0.3823491317,0.3724197048,0.5001453796,0.7032290438,0.3218415217,0.0779008567,0.5521062948,0.5490027331,0.1876687604,0.3508413577,0.5487012142,0.6327332266,0.6838839817,0.4402359412,0.5149283913,0.396864222,0.5395133425,0.2268542126,0.4483098438,0.0799712797,0.2579492209,0.5574379777,0.2706378967,0.6442274436,0.6632423054,0.5919840905,0.2249927786,0.3856696683,0.1447843892,0.1163346069,0.0760554916,0.5246193113,0.3541270704,0.0193122262,0.3824183659,0.0313601035,0.2519874636,0.5111947198,0.1596622311,0.2869527027,0.2234495615,0.1598165585,0.2299489508,0.4315438888,0.5897151115,0.2378923893,0.2653515256,0.3095323156,0.1806761147,0.006891348,0.3497805133,0.6333028456,0.400098831,0.4250175367,0.1258000457,0.6676315261,0.3633324181,0.0173629568,0.0828843028,0.6618407303,0.4268617358,0.2185705457,0.2035713508,0.6412563862,0.5915643496,0.50500989,0.0981300462,0.4452564143,0.2779549027,0.3117428659,0.3571560569,0.6869576718,0.3101694214,0.1878014463,0.6949202018,0.5764623596,0.302325083,0.1462144589,0.6429621382,0.5889526968,0.4880375644,0.1430528178,0.329385078,0.1604277964,0.2008382922,0.6061508941,0.6947776917,0.4723939407,0.3132088178,0.1508134372,0.6162159458,0.0010965062,0.1987761861,0.1266819509,0.6083101633,0.1784638839,0.5919960299,0.58343137,0.3604508956,0.108580834,0.2717369012,0.6752377095,0.3843889364,0.2705661017,0.3308530993,0.4700142633,0.3114201013,0.4020623791,0.1349474826,0.1868814344,0.0940004254,0.5062507632,-0.0350997753,0.2120802265,0.6171243511,0.2018606966,0.2277057536,0.421701691,0.3088995251,0.580857376,0.4371198205,0.6632200723,0.1031361851,0.1556724252,0.6236138872,0.0862407552,0.2642309666,0.5422293596,0.6389434838,0.3057454113,0.382116583,0.666028192,0.7007525864,0.6764594996,0.2389633453,0.1720074564,0.7150898378,0.53029581,0.1243633054,0.577853495,0.3170847908,0.0993492344,0.6411535792,0.6212260532,0.2033472071,0.0167808864,0.1033551625,0.5088484567,0.4293441463,0.2367383158,0.5047027177,0.4503211284,0.1799047256,0.4370233542,0.4179212984,0.5205147197,0.1571808687,0.1979912667,0.2336488609,0.2552074358,0.511311625,0.6090075679,0.2227050068,0.5626275478,0.1466099947,0.4345639402,0.1126116415,0.1842709074,0.4667697407,0.5586240791,0.6519440269,0.2293526074,0.6511140001,0.0547070956,0.1451804351,0.0405604349,0.1456003354,0.5764649596,0.4781121417,0.6189542903,0.6134062026,0.4915927167,0.1047229797,0.4494950766,0.0775830333,0.1892976813,0.2402845344,0.5900166769,0.2360228686,0.1457500727,0.0260117904,0.015922923,0.4115002674,0.4929777393,0.0343585421,0.6298397309,0.2474860223,0.4172314255,0.4857960161,0.0647685621,0.1276505389,0.1122728329,0.5939901886,0.4797020462,0.490026889,0.460227418,0.4252572027,0.2543269578,0.0561370941,0.2126515298,0.6396966464,0.3322259894,0.1237318382,0.3158496811,0.5315946397,0.2670938669,0.5758092024,0.6582380152,0.6730222119,0.3575285522,0.1405505789,0.1873414085,0.4678164988,0.6839219082,0.3823243261,0.6340475696,0.5650371391,0.5764495562,0.6286249516,0.0635830945,0.2689097284,0.1034527535,0.3097657872,0.3390043831,0.2166606137,0.1945052835,0.3697280092,0.1516686252,0.5221576239,0.3860001802,0.5779067857,0.5922758351,0.2099664254,0.0872570185,0.504811365,0.553021978,0.6131239867,0.2147282984,0.1633753852,0.4438785037,0.6814921486,0.5702450008,0.3086047273,0.3257837438,0.6686682486,0.559348826,0.3006303759,0.4773336282,0.3058491445,0.5129506829,0.011530924,0.6960068574,0.2286459763,0.6201934578,0.7085325158,0.1231135807,0.6715649361,0.3199689067,0.5436933936,0.3854420121,0.0559155347,0.101211953,0.4124167308,0.0071406018,0.5763077515,0.3895195327,0.5745716308,0.7107165642,0.5382383935,0.2336979658,0.7081365461,0.039325534,0.2709726995,0.1912731569,0.1383633186,0.0817448446,0.5688490154,0.2972707059,0.1257298796,0.1188002588,0.0143332144,0.4828162866,0.2247255132,0.0833539654,0.249953807,0.0674724476,0.0255512866,0.0069945971,0.0275786619,0.5055433597,0.1885870156,0.4034446345,0.6241805915,0.0895632581,0.6514467979,0.7086589699,0.1141183896,0.009321336,0.3238123537,0.6033462107,0.5830689573,0.1904663498,0.4951473645,0.249353519,0.0638503924,0.2406823702,0.4487413189,0.2367105996,0.143501166,0.6845169123,0.3346036014,0.6385751342,0.3253659293,0.279968465,0.3069191257,0.0053438867,0.3398177099,0.2241065705,0.5481034784,0.0838743906,0.2894040521,0.1148036091,0.398681308,0.2416134161,0.5098820895,0.6202655372,0.3299331681,0.5160150981,0.5715609851,0.188460277,0.4585030575,0.6619362683,0.3107794712,0.1480518829,0.2955757254,0.3091660058,0.0178388152,0.7035077694,0.3635713602,0.0527334212,0.4237311832,0.0139376259,0.4403948412,0.5854263794,0.3969488175,0.2356504562,0.189353441,0.1871141595,0.4105627617,0.2940072898,0.2897557039,0.3162375515,0.0655529128,0.3333828088,0.287916961,0.5592198232,0.1956648112,0.5081623481,0.1493473063,0.0976457737,0.3541908099,0.4347485349,0.3604628343,0.4877201609,0.3512882336,0.650417601,0.3025637884,0.3675329869,0.4001192533,0.5426718908,0.276852933,0.6813877785,0.5474613466,0.2400892142,0.6211705636,0.388540726,0.0784375929,0.5836073905,0.6488351953,0.3112891478,0.4534404289,0.668037652,0.6980357012,0.093168355,0.2827391068,0.1627167741,0.5390637153,0.1490406544,0.185545851,0.2545434485,0.0972102278,0.1360321816,0.7019251928,0.715957261,0.578046656,0.3875120464,0.2187882143,0.1736155534,0.5030697139,0.6331678324,0.2630204982,0.651946031,0.292491605,0.2405625391,0.2054886924,0.3426771471,0.0378895194,0.4799170388,0.5495502815,0.6643505185,0.2961291404,0.3403260662,0.6312043309,0.3051280084,0.3541979816,0.417513037,0.3885443653,0.5750738175,0.5865131357,0.0055673768,0.0273834823,0.3859269149,0.0076575292,0.0585833686,0.497831183,0.7145948772,0.0107283456,0.0919148802,0.2255665664,0.0269460205,0.3192258579,0.1016053277,0.4656684594,0.2405877972,0.2148689474,0.4933512809,0.4464934411,0.6491126713,0.4763582553,0.3623562417,0.476239888,0.0947043379,0.28411814,0.1814784717,0.6778023436,0.4663348346,0.354729337,0.2675693712,0.6188534549,0.3197534006,0.5186237702,0.2469983724,0.40847371,0.3900831091,0.3512004095,0.2578674507,0.3140424667,0.3793477076,0.6368766452,0.1105329576,0.3415738072,0.4244716634,0.1581706097,0.5492590483,0.334936589,0.1275663325,0.2159386565,0.3187891572,0.2086909605,0.4642761355,0.0311489923,0.115859689,0.6477903574,0.2224985823,0.3607938619,0.5842563725,0.0860724231,0.4048914116,0.6598082437,0.5949708096,0.4646475319,0.4474908407,0.1087421134,0.0367383275,0.7041594692,0.3073670187,0.6451511415,0.6526301455,0.0436196999,0.5409209722,0.6614394244,0.3891735312,0.5323768321,0.3176013727,0.0677430415,0.0974004023,0.5120308587,0.5787370815,0.375170578,0.6939152521,0.5387684989,0.1215246991,0.376321788,0.0129102614,0.5465374317,0.6693578318,0.046252937,0.4559219868,0.6303678383,0.6915507384,0.6055924981,0.1516833628,0.5357568482,0.5868097015,0.4963977723,0.5827119389,0.3422913526,0.5196548337,0.714831832,0.5097346224,0.0904527725,0.321315036,0.1453000739,0.2722184886,0.6637330264,0.5393307295,0.1707894528,0.0950396682,0.2119573595,0.3220678017,0.4315688236,0.1634591597,0.0282913309,0.6727200304,0.0401547416,0.2404505548,0.3645045109,0.6716021303,0.6905462422,0.2030880087,0.6752800342,0.4708667058,0.4790062643,0.3397207922,0.418057156,0.3016133035,0.6949233079,0.495192548,0.2848837667,0.2538726569,0.4504082592,0.2538801567,0.2745641705,0.4813426552,0.1229195791,0.4272668653,0.6713160928,0.0506858864,0.3945479427,0.4566388112,0.3758556063,0.5101800651,0.4686031255,0.1497065026,0.1588892652,0.6783761764,0.0832338121,0.5167193928,0.7154166905,0.4675489954,0.3130060263,0.6201811931,0.5170279089,0.4242236421,0.0773382195,0.340398782,0.3050139832,0.4399563057,0.5195599944,0.528759864,0.6289276218,0.4146119714,0.5275063398,0.2785219893,0.2068222105,0.2888713504,0.6147361783,0.6853174877,0.5944840096,0.1499913896,0.2541882433,0.3710773891,0.6148547161,0.6159200992,0.38238787,0.3835916794,0.1147219695,0.5811556828,0.0319725248,0.0256188335,0.3206038886,0.3509254134,0.0529700576,0.5366424382,0.5400386881,0.2993566771,0.3567622507,0.004849638,0.3042427529,0.3061559701,0.5566239849,0.2422696564,0.5990892547,0.4600182687,0.5466438078,0.2295071104,0.3506392203,0.1651349966,0.412594388,0.0335565443,0.5465022746,0.2225151714,0.7125081044,0.2681459282,0.6102484962,0.420385976,0.0012792586,0.1510941918,0.1307033527,0.139957669,0.1149380109,0.661773329,0.3582756912,0.1133464417,0.3220702643,0.5860337774,0.3568417325,0.0416558315,0.1915103056,0.3710371899,0.0768223491,0.5698861783,0.0149997582,0.2712544004,0.466632133,0.3187295484,0.2432280827,0.0635368956,0.5901882001,0.4660625865,0.3286733464,0.141678866,0.2926506304,0.4529684926,0.2076747193,0.6438309094,0.1799996678,0.1236895179,0.1266842454,0.5756350502,0.2643403319,0.1416479165,0.3315632318,0.0106031904,0.0033999474,0.5922800054,0.6831956013,0.3125504534,0.4154582351,0.4058510539,0.5417152059,0.4721027942,0.3133652466,0.6194859172,0.0173312304,0.4321327907,0.4889841278,0.2844921052,0.0987353317,0.6674555884,0.5249927296,0.3706156851,0.4850103121,0.5987676144,0.2530915222,0.2826716564,0.0598060731,0.1259432088,0.6430293095,0.3193430798,0.6257861349,0.5860580889,0.1789706988,0.3532806568,0.4556928728,0.2178284173,0.5334229051,0.0675224353,0.2994487118,0.278830076,0.6656196713,0.7107056955,0.6928570926,0.5346675904,0.0630983567,0.3910352352,-0.5128987623,0.3205229825,0.0258819762,0.4289724992,0.6500976169,0.7002550862,0.2885779676,0.6137051442,0.3618717067,0.5813088363,0.4902571196,0.1823711317,0.4439505097,0.2063873875,0.4931004467,0.2224821438,0.4898514092,0.0019303342,0.5321234757,0.0600307735,0.6267030408,0.5741460231,0.4067148163,0.0527968932,0.655009981,0.5847822711,0.5727979315,0.305768396,0.2696540547,0.3674965804,0.352374151,0.7021541105,0.6123348615,0.2088518575,0.2809245428,0.261789142,0.3643942916,0.3946031905,0.6127562571,0.5146427503,0.2191918798,0.706070532,0.1124221284,0.2155621056,0.6766829708,0.3772886381,0.3091387253,0.4425273202,0.3408467616,0.3651252775,0.4122320342,0.0860509244,0.5355590323,0.3648927896,0.6883943107,0.4313097507,0.1394033951,0.2034595642,0.5814022246,0.3647194106,0.6579904385,0.0633462825,0.0409249369,0.5149762886,0.4436821143,0.662263398,0.5725510437,0.5237845362,0.0042983596,0.0794985764,0.0495063753,0.4258654916,0.6828252379,0.0942819517,0.6312188547,0.577734702,0.6711196508,0.0343666634,0.6503366071,0.3647176238,0.5698868689,0.1589173811,0.0858438129,0.414499458,0.2156457069,0.6985331384,0.3185936305,0.469078045,0.5346663405,0.4827460538,0.654256814,0.6911729494,0.1289283049,0.1511807741,0.4036231384,0.6449794991,0.1651367169,0.0985528324,0.1894584142,0.4166067059,0.3241210964,0.6470970525,0.3987671202,0.1764238449,0.0540661091,0.3518217829,0.6970366604,0.0080435988,0.3427371078,0.1343533443,0.2065830219,0.0840911269,0.1612966577,0.5560672315,0.4337264917,0.2110306037,0.2285198438,0.3992596703,0.6169967283,0.5378241788,0.0887309557,0.654708425,0.2347264032,0.4379043407,0.1498569919,0.4464224497,0.2141850314,0.4178751247,0.4406295591,0.3527246691,0.6925375226,0.6308880098,0.6540262854,0.669040411,0.0703903183,0.2990835564,0.0517782153,0.0756304114,0.6402280081,0.0683367031,0.4797566506,0.5892823507,0.1075138033,0.0243027025,0.067163885,0.2593023804,0.0162377257,0.292044364,0.2836279701,0.485987106,0.6526556647,-0.5256785357,0.344661873,0.0703252302,0.1609444292,0.5682294627,0.2918328659,0.5609197388,0.1595463079,0.7106621384,0.2979398064,0.2115581749,0.473735239,0.4144000957,0.3609921709,0.449076345,0.3214057295,0.6798894444,0.5271521729,0.5816485353,0.3571640246,0.0610317676,0.5027447192,0.4732878527,0.487597423,0.5729017506,0.3564567948,0.4861473649,0.1647501142,0.245092587,0.4867192615,0.0718182267,0.6448487087,0.5272131133,0.0964456326,0.5706186269,0.3067587847,0.0593866572,0.5614373246,0.378513714,0.6213519288,0.4826369193,0.4328904584,0.2914757483,0.4263510832,0.1131995372,0.2584447483,0.5320909341,0.241044622,0.3837849375,0.1079839255,0.0498208002,0.1493878255,0.1592404745,0.2073955762,0.3232023725,0.4727130693,0.3893334112,0.3088934412,0.2135932431,0.0403399752,0.2425897262,0.3352995877,0.0281038571,0.0019651691,0.7056516431,0.3539474926,0.2693448266,0.5520391285,0.4445911093,0.3269493925,0.189994326,0.2502257399,0.0916699223,0.6386494581,0.2624006522,0.2922877958,0.4830164954,0.4728941627,0.1771552933,0.6709645933,0.0230436344,0.6416479507,0.5565289991,0.5994744619,0.3028825612,0.2057655125,0.3664358021,0.3333207366,0.5324421106,0.3145305221,0.4454453876,0.4826267137,0.2582858496,0.2953087405,0.0556791638,0.1527006782,0.1270197834,0.1437561653,0.5414157707,0.4714301389,0.5888667767,0.5546672486,0.0059191699,0.0891641639,0.3460801391,0.0594655414,0.0493462302,0.6241558081,0.7122424499,0.3958612798,0.0634295699,0.709237353,0.1257103627,0.2216487356,0.1525800084,0.5152177275,0.1936808379,0.2510212176,0.4726774651,0.2894329093,0.4326046589,0.4497691474,0.2465039871,0.6889894679,0.6185654088,0.3722854094,0.6969871591,0.169689016,0.0715761479,0.0747954803,0.2484292837,0.441748408,0.4137569037,0.1874424932,0.7120861931,0.3675200562,0.5380171184,0.349702989,0.3454829127,0.7100234051,0.3397313349,0.6134203941,0.6512553665,0.0576131935,0.1158259314,0.1219687986,0.2516955315,0.3690211961,0.5391870039,0.318291739,0.1629622928,0.2672616811,0.3895235834,0.5177665701,0.0611791318,0.0559859605,0.6281832515,0.3084681568,0.0176614272,0.09897305,0.1437350098,0.5514583299,0.5796505722,0.0067633956,0.2999076948,0.4437632295,0.5686426042,0.3114684548,0.6094620792,0.1331996006,0.629055531,0.016145507,0.0471329392,0.6360186147,0.2909360392,0.6336381497,0.5144927264,0.3502426847,0.3176832298,0.5820943374,0.2867600599,0.5561848386,0.3248417412,0.0820123597,0.018739295,0.1035246493,0.2449015468,0.6454418347,0.077303277,0.1191947425,0.4468843984,0.324656913,0.2926793037,0.2577660405,0.4248892006,0.5753263254,0.6334256098,0.160183222,0.6587602404,0.3264712189,0.3553044735,0.6279130213,0.5680543421,0.0826496565,0.687770497,0.1174272806
   0.5306780162,0.6508073684,0.0829052204,0.4258218232,0.6794574458,0.0750156542,0.4044414345,0.1096301282,0.3994617221,0.3654324888,0.4415508789,0.4764456257,0.6274526655,0.0662247769,0.307194115,0.5877778434,0.2352382715,0.2658760918,0.5394500984,0.1185658447,0.0467444588,0.2581731997,0.3257298868,0.298003349,0.5503428792,0.7019783723,0.5643078119,0.544169347,0.6473737184,0.5280234599,0.2234514299,0.6146465679,0.0410181476,0.6810944457,0.0643996452,0.621973301,0.5909371013,0.447192197,0.2204003151,0.2323303199,0.0527223711,0.526331278,0.4274557145,0.134722137,0.5991854992,0.6487569138,0.5315391865,0.4449938329,0.6493112743,0.0026884748,0.4521312665,0.0752282064,0.3986531934,0.5671374384,0.3212388399,0.6510100956,0.2981901961,0.5026571716,0.1569290065,0.7096752617,0.3156705591,0.4796563355,0.3271434391,0.4109009491,0.1358497826,0.3627637374,0.5939318106,0.1248867314,0.2937553911,0.232059906,0.1418296374,0.2955721771,0.396140005,0.4247358378,0.0592132532,0.3548243959,0.313727852,0.0681825333,0.303116694,0.1151369502,0.324930711,0.3093005692,0.5149640866,0.4338334297,0.2732359816,0.3606718966,0.4612416107,0.0509865487,0.5040992918,0.4201806447,0.4553975228,0.2615310803,0.355837822,0.0072421256,0.3267404512,0.2973350357,0.4692232651,0.6253768974,0.039213113,0.5892046737,0.325634991,0.2465168926,0.231317973,0.3256736852,0.1168940817,0.0623173102,0.0776562753,0.4902421256,0.4667089568,0.1546246895,0.348841831,0.0566109922,0.2555586752,0.2449961737,0.3052545113,0.1315457395,0.3807221586,0.0533275994,0.0802648919,0.1779545435,0.5505578428,0.2039613901,0.3382313356,0.6998849581,0.0969333173,0.0437363728,0.6035507591,0.671480202,0.4838200878,0.2496332714,0.0281933424,0.5906104165,0.2299813723,0.6788055412,0.6110922139,0.6608489617,0.680242576,0.5595061713,0.3618355237,0.6471487157,0.0782624173,0.4735405183,0.6439256383,0.1077070269,0.0992884723,0.0772233987,0.2767739163,0.625020122,0.6095835005,0.1418980649,0.2441422735,0.4838012169,0.605002002,0.1882105046,0.0490456094,0.5098563091,0.4177752077,0.2920374534,0.5188604736,0.2460125879,0.5241383934,0.1963450031,0.241894931,0.5277100235,0.3320795326,0.3834234499,0.6425963505,0.6062679977,0.3183775768,0.5548204062,0.4935098715,0.1182694959,0.0827519101,0.5062761633,0.4274865818,0.3251012556,0.6012394263,0.2232708807,0.2775688015,0.4952981927,0.2089116869,0.1293175904,0.570001236,0.3467812976,0.563808368,0.3922475465,0.4484320061,0.5115282198,0.6689748206,0.7031149466,0.0875346725,0.1777427501,0.2360617634,0.7082590443,0.2570185061,0.0399280063,0.2625856134,0.0655976377,0.3654521878,0.2990771723,0.3127317806,0.3737939371,0.2947939102,0.3803644984,0.077433009,0.3090621501,0.1863880064,0.2367510338,0.0148527047,0.2875229848,0.5865355905,0.3470736036,0.357260759,0.051873919,0.3427129257,0.5780828076,0.3568273435,0.0879503623,0.610044248,0.5815404403,0.2144840609,0.3682495816,0.5153616774,0.5292992044,0.0438244952,0.7125275823,0.2868979443,0.5283306468,0.5428163698,0.4519445915,0.0657480488,0.2412243205,0.5139211573,0.638775225,0.2396840114,0.0393858347,0.5702581001,0.0244762268,0.6732948779,0.2371217509,0.5946429532,0.3763025935,0.5506647293,0.171403829,0.1537292472,0.6257390976,0.1122793836,0.3368102219,0.5902777135,0.0597926589,0.0325918733,0.5796527469,0.4943007661,0.5809177472,0.621358,0.471341842,0.4587787206,0.5564962908,0.5594412348,0.5351331186,0.4287611722,0.655023474,0.4361170265,0.6905299395,0.67296739,0.1008908626,0.0676487362,0.6987915265,0.7027840868,0.0483763853,0.311984736,0.1240400524,0.3241578256,0.4160384084,0.0390483688,0.6859698116,0.3384063179,0.5758286356,0.1925696748,0.3757989862,0.1764368484,0.0453216549,0.5589360332,0.576517037,0.5101390921,0.2638965217,0.502966847,0.1030355364,0.0221652645,0.6550021382,0.1114197596,0.3578329297,0.1373443271,0.0405417457,0.0855727356,0.099906789,0.679834676,0.2971212229,0.070731791,0.1030990839,0.3106925455,0.0151225784,0.357197643,0.4510385873,0.0427374066,0.5367542053,0.5012503483,0.3955526426,0.2320339031,0.0722944046,0.4153306954,0.4602254898,0.6801139136,0.3383249326,0.5567830651,0.7070582726,0.5544273374,0.1698187091,0.5621499635,0.6795011796,0.0414939566,0.4698793651,0.1590182942,0.1344069711,0.4708550965,0.022805894,0.6490347703,0.1923461179,0.4593842489,0.6068503156,0.5744394497,0.0439366012,0.7141708264,0.2963226949,0.6830132293,0.6709999886,0.1853919789,0.4148133433,0.4181948135,0.1412382645,0.4507239319,0.5111350992,0.35577164,0.1789236507,0.6089864964,0.4705443976,0.6878173336,0.5335365697,0.4186947555,0.2080563107,0.6308551728,0.6672722331,0.3237795372,0.6192335813,0.6280447566,0.519648014,0.3083918899,0.5185755076,0.5064741168,0.3738926579,0.5149744155,0.2018103031,0.15683249,0.2874073775,0.204232287,0.1372852275,0.5546253815,0.5030917075,0.4673911019,0.056048464,0.3128041239,0.5952176579,0.000574339,0.6932945605,0.3782636726,0.4362778578,0.0079879617,0.3797465719,0.3708526512,0.4086301677,0.7076622216,0.1247900687,0.1282697499,0.2862202172,0.1823405478,0.4503059255,0.284921401,0.1201681596,0.7064209745,0.5368422458,0.1254180892,0.701027826,0.4088760496,0.6337426811,0.3734969892,0.4852228758,0.0750409214,0.0245220543,0.6754390472,0.5298255613,0.0677691313,0.201227322,0.3025438841,0.0717823943,0.5319649362,0.1634021103,0.3377468949,0.6420018655,0.3750865258,0.0413510377,0.5744398456,0.0690947978,0.2892986293,0.5920630427,0.3316324004,0.5064304481,0.0718289725,0.5094345493,0.2417483905,0.0665577009,0.1101130374,0.657066539,0.5201761845,0.6153651924,0.008883011,0.6901444147,0.115306029,0.5706832718,0.5390020268,0.6181710132,0.5139554811,0.2447959326,0.2289496693,0.4966720669,0.1446901082,0.3917789771,0.1981665824,0.1911945119,0.2067123099,0.2994217052,0.6932444242,0.4950193608,0.5069797029,0.6223738698,0.2136573065,0.277434065,0.2163696071,0.5071519761,0.6493112457,0.6855900073,0.1554635977,0.1752482663,0.0184442599,0.5963104554,0.6722249812,0.1792793802,0.2482519984,0.2900250587,0.0402159389,0.4400426366,0.2359802571,0.6008448313,0.680445325,0.4102634417,0.2916302692,0.3123877916,0.6588652457,0.4011840792,0.6263585573,0.3966747016,0.3872193884,0.0959534653,0.5099645001,0.0104150554,0.4218861911,0.1430186121,0.0176397447,0.034008704,0.0576435897,0.6522324959,0.2171762399,0.6579584792,0.6804416686,0.6824690361,0.0231459054,0.0846680221,0.3864325365,0.4033919575,0.6887124827,0.4207140788,0.3034250608,0.4118619012,0.2371427778,0.2458103131,0.1400477081,0.2804354916,0.2994273533,0.1897741356,0.4152917713,0.7047011328,0.2141470005,0.1277032586,0.6410787671,0.10391203,0.3646095727,0.5045991728,0.4120265163,0.5230405277,0.5860531375,0.6436041681,0.7101833925,0.1697859932,0.3052691796,0.6051499984,0.1572641256,0.3204136382,0.1920964078,0.6422445966,0.180245531,0.4301828662,0.2596282281,0.6456316106,0.4759414426,0.5243989734,0.578639604,0.4373645115,0.5735176944,0.549430141,0.3229242519,0.6369746985,0.0886705808,0.6790925827,0.5532461865,0.3850109956,0.1678760549,0.0802519584,0.3246926791,0.2862852981,0.3510616523,0.3540425246,0.2299778831,0.2685002356,0.3563127008,0.5690499931,0.3247656074,0.0182753645,0.2956688178,0.2794868558,0.4843011581,-0.583711732,0.450710773,0.3014619012,0.4266404717,0.1499347335,0.2605725626,0.3111669479,0.4434210181,0.1351828741,0.2857751795,0.393120792,0.0969302447,0.6745905693,0.591324314,0.4306406631,0.3731900151,0.4379460343,0.0186800834,0.5104348343,0.2154987922,0.0562938967,0.0710282412,0.4006065167,0.2030226951,0.5949685722,0.6017096056,0.3804911943,0.3544765435,0.227483456,0.6511952697,0.5961730762,0.3205343568,0.5770595691,0.1176375512,0.5269854277,0.6569476804,0.1373748441,0.2147318228,0.6770867419,0.195668582,0.5133083942,0.3215589122,0.2506645087,0.2643095893,0.2816679919,0.1528633519,0.0022084487,0.6628188989,0.2064469573,0.0856282921,0.210406554,0.1619399948,0.5966955144,0.3205045529,0.5093988791,0.4183816589,0.2927316359,0.1603201556,0.5750524819,0.1242132988,0.1126863776,0.7039134674,0.0670580327,0.4678028168,0.4101314341,0.5984078069,0.2405907516,0.5990766007,0.2469604239,0.281609376,0.309353443,0.6910941431,0.2358358415,0.4417609532,0.5347060199,0.2586708375,0.4137242035,0.2591501339,0.2140971874,0.3944771425,0.3567805563,0.3561992232,0.2986851681,0.3216357003,0.5441265998,0.7137621613,0.0633250339,0.0904005329,0.700435342,0.2727453441,0.5316934705,0.4005400353,0.2668209764,0.4593536566,0.4994590622,0.4704614802,0.2289103643,0.5695631844,0.3815337217,0.1042408479,0.3002993218,0.4492225692,0.5443222471,0.0476127028,0.6254100059,0.586194094,0.15483646,0.7138407897,0.2479381298,0.5215480215,0.24768563,0.4635778735,0.3101458229,0.1621258651,0.4596785317,0.5246721771,0.241562895,0.4045459649,0.5050771879,0.0074188577,0.4385882232,0.0434376345,0.4108599926,0.4722099614,0.1168002911,0.1562539526,0.1256188465,0.1577684445,0.1882752531,0.2889465998,0.3134469272,0.008511941,0.384597257,0.3220171286,0.4204019335,0.1490391819,0.5501335385,0.2233798606,0.3058140272,0.1635598856,0.5159939709,0.6435718167,0.6107682219,0.6876901979,0.291884723,0.3731599605,0.651781605,0.0951015602,0.5870138366,0.2134403504,0.052903174,-0.4496952868,0.1528903985,0.3011009838,0.0477509065,0.3966876977,0.5507646086,0.1945847217,0.3308012678,0.3541732583,0.5029595229,0.5790528707,0.5156116887,0.4836576159,0.6882106847,0.049548308,0.3676398275,0.1657208685,0.474189235,0.1895610801,0.1051163565,0.045580398,0.6125874742,0.1127970178,0.3405049658,0.1901921221,0.1953467481,0.1651418542,0.6022097005,0.2106421863,0.2890527265,0.565042844,0.480393336,0.1933358151,0.2553583444,0.1310375606,0.3801214483,0.1685604958,0.2120680061,0.5192546474,0.1571092012,0.1821732257,0.294957585,0.072472203,0.1772648395,0.5794329752,0.6333400316,0.318271089,0.6844765899,0.1001997007,0.0156940266,0.3344308971,0.6104758573,0.3165317675,0.6699263781,0.6249910799,0.2701449279,0.2142465232,0.4275876339,0.5026499207,0.3356485743,0.4717912707,0.0660192747,0.3816216911,0.2651086321,0.2786621025,0.5864187166,0.062791461,0.695996575,0.7012865492,0.0284957164,0.2399676295,0.2841203924,0.383207076,0.3354330445,0.3194917737,0.6077574762,0.1947490474,0.2554859879,0.0863487556,0.60947061,0.2513174361,0.0248136729,0.2382300878,0.0275444988,0.0107751454,0.2620965888,0.5720034108,0.2573560523,0.5281626092,0.1277273453,0.6573068791,0.3282088833,0.662068336,0.387403272,0.2519975863,0.6737401106,0.0308134943,0.3851169483,0.5516836393,0.6611299977,0.4725291192,0.4637243731,0.5254310799,0.2020107963,0.6505183827,0.3899752182,0.1626277078,0.3705953611,0.6275462348,0.2677929859,0.3300636929,0.3300288199,0.6671022312,0.3574656231,0.3823718961,0.3105973156,0.3420297364,0.4548509715,0.600720151,0.5441664472,0.546426798,0.4637219349,0.4297609091,0.1910837504,0.510421014,0.1461227202,0.6198770548,0.4236482243,0.529329129,0.0325675661,0.1538133748,0.0781038145,0.1139125458,0.4799645294,0.6025995627,0.657497557,0.3361611831,0.1306983562,0.5466827881,0.4494044378,0.7135535908,0.6129510064,0.5059836606,0.4643271112,0.4361676143,0.5474575052,0.5550587067,0.014942718,0.247796022,0.2646452288,0.0887403925,-0.4125979776,0.5660873248,0.701824174,0.7073378318,0.3365536955,0.3422710302,0.3936783142,0.3153267617,0.3029238917,0.224514044,0.3054405215,0.6405814296,0.1356073831,0.4293958468,0.3373118369,0.3312948318,0.0231111616,0.1033954599,0.4403960479,0.6652496197,0.4067031305,0.0055727392,0.5939491206,0.0302034286,0.1137932772,0.2635506626,0.0294317741,0.4799949162,0.1612364796,0.5042868185,0.3944554706,0.6225949785,0.0640351831,0.5116368764,0.4414352052,0.6014843279,0.1888822296,0.7152227944,0.2770828664,0.5225909212,0.4142739864,0.030182572,0.5318943426,0.5828444502,0.6678198354,0.4212974674,0.6855346967,0.2411948889,0.485091038,0.3031871369,0.6922590116,0.6484674417,0.289498481,0.4781376257,0.2645479117,0.4733149846,0.1877150905,0.6526045963,0.6879781023,0.5036727558,0.2301995596,0.115886974,0.0537609839,0.6696256757,0.7039070265,0.4435304464,0.3846166462,0.6036986856,0.5931246415,0.6861722407,0.5260445348,0.253317908,0.2609151563,0.497371179,0.6010407132,0.1527234293,0.5509227644,0.4030622556,0.0658044909,0.6726170291,0.3210328816,0.3806454514,0.1834473681,0.7147858793,0.6092131672,0.2434556812,0.4215380702,0.6764186268,0.3812747506,0.4375677077,0.4998054042,0.5770400464,0.4006516601,0.2995725171,0.2076876674,0.2686510326,0.6577390854,0.569269283,0.0565262512,0.4020338881,0.7120658681,0.1862787978,0.6535030369,0.0067026487,0.1973332629,0.5912988606,0.6728398663,0.3160537778,0.4995644366,0.2172703852,0.1860106574,0.7063605885,0.2751972811,0.1595632464,0.5674131963,0.6554787808,0.0313177385,0.7129759325,0.0870074761,0.1665734889,0.3920868957,0.6202337464,0.704658552,0.5374903523,0.122690162,0.0336309937,0.2892649884,0.2991948803,0.0671179166,0.6427725396,0.4690364028,0.3989651032,0.5111484346,0.3082531819,0.6964342127,0.1180919597,0.1581591262,0.217044225,0.7083883322,0.0947533977,0.2972956071,0.3022605514,0.2043860518,0.5592410675,0.2538319575,0.2059417369,0.0952594127,0.683882617,0.3836956432,0.3347221197,0.3122770187,-0.1696673032,0.5431883446,0.5541056246,0.2514187606,0.0113115398,0.3401452977,0.2594616576,0.6549142407,0.4239970471,0.1399768396,0.2779427702,0.2633738202,0.2554472649,0.2769488926,0.3051658354,0.2914632636,0.3242422486,0.562466546,0.1855888175,0.0346032614,0.4428783444,0.3276056986,0.3919651475,0.0288990344,0.0644692457,0.0387331909,0.038628365,0.3708651156,0.5506742728,0.4761268624,0.0263137926,0.1968365214,0.6506906855,0.4338081472,0.6106946375,0.1168489103,0.2686903408,0.1330490447,0.4682779981,0.2614799502,0.4494600365,0.6342900415,0.0726700396,0.4308314777,0.0556731297,0.1130325575,0.6403605295,0.6412667153,0.4093529678,0.5328836822,0.2849007518,0.5706872839,0.3442012493,0.345777405,0.1723291948,0.3968176292,0.204591748,0.2700637703,0.6946906565,0.6584555144,0.7101498966,0.5615030745,0.6932993538,0.523389633,0.5233297389,0.4119586992,0.0613304519,0.1138371566,0.6224986838,0.1993405522,0.0268771251,0.692407549,0.1218599174,0.6339128225,0.2884737859,0.382323919,0.2150138628,0.4075271638,0.0463032223,0.3685130764,0.6896129785,0.4602895548,0.3241217403,0.3266881798,0.6001913613,0.429085406,0.6227182255,0.6982233127,0.2450413955,0.1601345955,0.2677371532,0.172723654,0.3353104342,0.4119086741,0.5483192708,0.1327976626,0.3695011924,0.5353540244,0.3896656909,0.521788623,0.3929282017,0.2642543528,0.7027400838,0.0508852035,0.6409094565,0.4900997555,0.1355292921,0.0196979608,0.0469666172,0.3986583932,0.6011362894,0.6027262604,0.1050217373,0.6198188768,0.2153652975,0.0391685382,0.3165042539,0.3466995388,0.2900456811,0.1935127502,0.5197580543,0.6718983187,0.3834488401,0.2816077897,0.0687619573,0.2682536408,0.493398724,0.3733597193,0.1710661817,0.5087573025,0.0686858909,0.6317638549,0.4407543889,0.0384986984,0.5090585752,0.6205981884,0.5872695517,0.3260995295,0.2308147401,0.6678188681,0.6700469821,0.4971920444,0.0043194387,0.6018486908,0.5033063867,0.2384029012,0.5302947284,0.4854709841,0.6312717621,0.4831038609,0.5231893029,-0.3338220173,0.6839895064,0.1054504956,0.1825373843,0.066789119,0.2795014643,0.6095835305,0.3038273356,0.2082871084,0.5132708343,0.5041959837,0.1326722051,0.5130136101,0.4966636315,0.4796739133,0.6918286921,0.0400383698,0.52100398,0.5565857708,0.1368406529,0.6206570432,0.0605528614,0.3043513858,0.233908084,0.4016086409,0.5721385824,0.2968873445,0.6564788571,0.2085239802,0.4257026388,0.4142082424,0.6951894144,0.5069634543,0.1221706033,0.0136151896,0.275865516,0.5329227859,0.4187851639,0.0395117001,0.354489222,0.3069789496,0.1314333198,0.384687833,0.6728227814,0.5562553717,0.1161298475,0.7060203862,0.03967174,0.011480405,0.5704375309,0.7002274677,0.4288495575,0.15552576,0.135812222,0.5636649733,0.2308951271,0.6485477179,0.5587330777,0.5473070831,0.478745695,0.1606103779,0.1193944397,0.1826746054,0.3117904015,0.1541050637,0.5640584868,0.5838369541,0.5765233838,0.5462827095,0.6891814245,0.7106476526,0.0550449918,0.5391733662,0.2998470717,0.3995959374,0.4468260637,0.0397431862,0.6284888534,0.1538731578,0.4095750155,0.296861851,0.1180537499,0.3380751908,0.012857381,0.6094253707,0.2239388548,0.0745553649,0.5551416787,0.4660559994,0.4850320409,0.3779176656,0.6028354053,0.6120774897,0.2543532804,0.5880247604,0.4595800893,0.7110463729,0.6883870483,0.0082495188,0.7042612983,0.656967133,0.3410435486,0.479550208,0.2799851361,0.0178556181,0.5254372998,0.6020977046,0.4570473717,0.0288829374,0.5376348073,0.215292258,0.4086803755,0.5830886881,0.6200379482,0.2449902239,0.2565845917,0.7074215146,0.6794010449,0.6740732118,0.2758899817,0.5365035573,0.4607762765,0.6347758942,0.6354356783,0.4698519667,0.4268644396,0.5415974936,0.4082386817,0.5560637011,0.37524763,0.2199749841,0.540144795,0.5102243143,0.4613662094,0.304591483,0.5534185586,0.1027320674,0.5083078451,0.2461905216,0.1167073928,0.2176935904,0.3322860959,0.2349521279,0.4332165071,0.2600647873,0.5274232141,0.7154323596,0.1403492997,0.4688452341,0.0974052477,0.2914257877,-0.3391773792,0.2834821139,0.4389326506,0.710162037,0.5495683547,0.1694018657,0.2250487921,0.250022729,0.6636247494,0.3083504288,0.0103969537,0.1038432246,0.5006955194,0.5751734106,0.5508412239,0.3701237349,0.0710571121,0.4785737418,0.2491178887,0.1429283857,0.2521739829,0.2428153477,0.5987531674,0.6252019967,0.4156705937,0.4664744603,0.458633074,0.5394237819,0.3520757829,0.4035594512,0.5404287644,0.4524450503,0.381859371,0.2337196411,0.1439796267,0.3716221033,0.6028173804,0.2621660183,0.1609114354,0.4209970109,0.3046728039,0.3811400822,0.2365898935,0.4097586592,0.6673643874,0.252465862,0.0280898533,0.2356673125,0.4191603507,0.402384981,0.1506986232,0.2664090277,0.2669347465,0.5159103053,0.2252453845,0.6398988637,0.6848261973,0.4843412847,0.3770816636,0.3979321612,0.6387204462,0.2507421036,0.1132798543,0.649888555,0.3480928487,0.3033704978,0.5435507659,0.2355177457,0.2513213607,0.5452539046,0.0672721039,0.6722058179,0.6023939043,0.1162201271,0.3052357786,0.2665508556,0.6622250478,0.5279915147,0.475022259,0.24357697,0.4746922613,0.2870841788,0.1333200949,0.1058762928,0.5587571415,0.531984027,0.4769431526,0.4436332559,0.6371851934,0.1308737621,0.4984178891,0.118283958,0.4212683243,0.6892275498,0.6435642438,0.4450587581,0.400039408,0.223877655,0.5027030108,0.3325809471,0.0684407741,0.2851424532,0.5865584048,0.3090215894,0.5918705573,0.6152330404,0.0079663718,0.2706274183,0.1811845914,0.0196647272,0.1697770445,0.6948509818,0.4807936719,0.0048486689,0.7159902366,0.1270979389,0.0196170254,0.3129138256,0.3347313814,0.6996441656,0.0278041071,0.245200752,0.0038099467,0.5292304549,0.6802521014,0.401815131,0.4016395505,0.088209683,0.5887143503,0.4670727261,0.6483442837,0.5294926997,0.1205700362,0.0949234992,0.175682089,0.0480718739,0.4647471505,0.1172852564,0.2766226354,0.3588892232,0.0640759056,0.0231441406,0.2140045633,0.6056219881,0.2224191876,0.170595078,0.461249682,0.1835333411,0.4833861249,0.3409472563,0.6776897993,0.3309220801,0.1492501684,0.5373758935,0.5090204021,0.4416177715,0.0038859119,0.1688257241,0.3927343954,0.5693922696,0.0704102933,0.2650744136,0.186154933,0.088957334,0.6154329801,0.0491254886,0.4916735224,0.1049606954,0.2680260136,0.0624410306,0.6523231747,0.3562546043,0.6351790868,0.0449024204,0.2293797505,0.2826793981,0.2380404062,0.4640226048,0.0487991266,0.0624112255,0.2161014448,0.0100896952,0.0280281562,0.3974818775,0.5572156341,0.1663482196,0.1166157517,0.3534202998,0.2132782191,0.5684423541,0.1023140504,0.4257487168,0.2993152448,0.6198566807,0.6766559187,0.4831549427,0.6024148777,0.2097329919,0.36957684,0.2907241074,0.4797705897,0.5750521186,0.652064675,0.3981386644,0.4087589215,0.3048134116,0.1770099072,0.0514069425,0.4337102326,0.1399118669,0.224778159,0.1855934456,0.293901142,0.0689161163,0.7085415804,0.2579673105,0.467022587,0.3837756924,0.4369980408,0.4633135304,0.2702352722,0.0543425729,0.6677082464,0.0083561669,0.1474191993,0.4368959597,0.2114939681,0.2113919188,0.0158170403,0.7005660283,0.5393449764,0.58363361,0.6705434306,0.1938428133,0.6847306643,0.3275661472,0.0951666082,0.7143629169,0.6684821828,0.1626123014,0.114241796,0.0383832556,0.4572669827,0.4545811068,0.216994377,0.5367305182,0.059330466,0.6012052474,0.5195253993,0.6188467618,0.5337858972,0.1425743439,0.1966460917,0.6180060613,0.4931755345,0.4781533093,0.3790450746,0.5846575585,0.1765454081,0.1305043077,0.4008112844,0.5078930756,0.6268861651,0.5252772161,0.2548207191,0.2995350492,0.1629940981,0.209098303,0.3863971627,0.0169980059,0.3707662723,0.0127482203,0.1447568623,0.5622589681,0.489344623,0.0770936289,0.1171319072,0.1391171398,0.5440215542,0.2088543356,0.4254249766,0.0052354913,0.0620844776,0.1864395252,0.0653249727,0.5616053508,0.4677829686,0.0539672871,0.2418619642,0.2486755854,0.1941559631,0.1937319044,0.3345320282,0.419521855,0.2059341446,0.6819401146,0.1204335894,0.5902710102,0.5592754289,0.4859463158,0.2434025596,0.1866420051,-0.2581613146,0.6864358959,0.4653799004,0.5062603505,0.2019398651,0.2660721345,0.5117669904,0.0279074399,0.690578859,0.4541640104,0.301241146,0.1648193161,0.0264748455,0.5863990787,0.5909283016,0.3952834386,0.6622477536,0.6916995736,0.0388432522,0.5446648588,0.3988598722,0.5319105584,0.6916035262,0.3159298962,0.560120527,0.146929777,0.5501455745,0.1685329218,0.2719920064,0.5719823185,0.5524950488,0.6369268367,0.4700706786,0.4624386333,0.2654849639,0.1034223481,0.6394667424,0.6281747074,0.1975042059,0.022031362,0.2060101721,0.3827395069,0.0687850476,0.4754396977,0.5269076692,0.4910691057,0.1174575805,0.4152410309,0.241428502,0.2143368165,0.4166805751,0.1228515273,0.5412307769,0.260867532,0.0938598876,0.4328790865,0.5450979462,0.5178549333,0.3984925351,0.0564425643,0.6064041243,0.0468681372,0.3795926961,0.1484098659,0.0860950347,0.2980116783,0.2396140485,0.0760101042,0.2599816382,0.5057125367,0.1781850937,0.1588038752,0.6032165834,0.4485149415,0.5022752992,0.5201047514,0.5826511736,0.2111592037,0.6688336392,0.4204165955,0.5009920563,0.1806024851,0.0508767856,0.450438218,0.7068205362,0.4422999237,0.1576020261,0.6078790293,0.2496603007,0.5164270872,0.1764704219,0.0110075223,0.229696831,0.508339797,0.0828660895,0.1389058761,0.5275444716,0.3552954312,0.2939647092,0.2715925969,0.2021158752,0.078204718,0.6799654217,0.4765654566,0.339924122,0.376499525,0.0722815662,0.3839251938,0.2224051098,0.0685365336,0.5065752666,0.1185435369,0.1410438031,0.6541951846,0.307445829,0.4632617883,0.6081316001,0.0624379686,0.6740945724,0.1142655284,0.1162888996,0.2293955112,0.622929931,0.4804392936,0.5864012605,0.1642367438,0.4168052155,0.1388322568,0.3447120329,0.0229503811,0.0895730828,0.2433985586,0.5293377283,0.0534037203,0.1549239257,0.3481735278,0.1032778372,0.6567740155,0.2848587674,0.6726985629,0.3690719904,0.0330129183,0.3715677532,0.3330211239,0.2430089469,0.6916222587,0.5028072802,0.7084848751,0.6533312771,0.2865340083,0.5421413487,-0.3549234507,0.6973861836,0.7014295997,0.1317746601,0.2126586809,0.6493561367,0.0661451537,0.491624413,0.5262990196,0.2329442167,0.6251315153,0.3092233751,0.4166550528,0.0135577256,0.2702430189,0.5270705113,0.4456303036,0.3489615213,0.2099419899,0.1824953925,0.697129811,0.1512075243,0.2431105335,0.7002977138,0.5533656636,0.0290961685,0.0628428013,0.6029390245,0.4253555116,0.1898345441,0.182140287,0.0434222583,0.5554643414,0.5819586744,0.3870025344,0.6094996168,0.6683344606,0.1512878,0.5029574514,0.6905768784,0.1040938735,0.6783185713,0.5823700926,0.3490025516,0.1181743453,0.5787028385,0.218900567,0.4836599642,0.6522654103,0.5343220885,0.4418591342,0.2586114568,0.5039538866,0.6847995277,0.2793471139,0.5607588183,0.2769096927,0.2561538605,0.1692046614,0.669136453,0.0342165194,0.5064080327,0.2008353575,0.0006434772,0.0037326267,0.441376678,0.5745947963,0.2585178275,0.0028743867,0.6924665551,0.0492836128,0.6577485623,0.6183442975,0.0106610086,0.384814917,0.5028736753,0.1840184189,0.6305227844,0.331348296,0.1128193876,0.4903196952,0.397449312,0.3602411739,0.6591432298,0.2519528129,0.4555243461,0.4764367777,0.3775134759,0.1696489052,0.4388373024,0.4331645396,0.6804573041,0.3179533972,0.431425061,0.3007942568,0.4798700057,0.3371735912,0.0154902264,0.3143739876,0.3602305427,0.3161241249,0.5428350722,0.4775039983,0.4833115338,0.1443472146,0.5659638375,0.1564031971,0.4701947074,0.044278914,0.168301055,0.1387927534,0.426378605,0.4417012102,0.4857584413,0.5729981849,0.2668081263,0.4605061165,0.4052316497,0.0163977327,0.6326720666,0.4411233778,0.3413369088,0.6637048914,0.6733180754,0.2692320644,0.4409697736,0.5979074239,0.5959857307,0.5925284917,0.1100623866,0.1920692445,0.4093045586,0.6103317992,0.5082537429,0.3096523768,0.2382780343,0.1049427935,0.1450647495,0.635295529,0.1682862757,0.056327534,0.1250972019,0.6782490492,0.5090882836,0.4136420746,0.4761628081,0.4954963222,0.3669664513,0.2086320786,0.2500259452,0.3479977863,0.6342925615,0.5030646185,0.2268779797,0.7043804423,0.0949819259,0.6486312375,0.6570694917,0.1353482035,0.0508028451,0.124607952,0.701867715,0.3516922946,0.5843965069,0.1518458443,0.4918297663,0.1700570346,0.2489878905,0.5486980056,0.7083443608,0.6938540131,0.5047183366,0.5258009198,0.237535516,0.5229166416,0.1653626733,0.1820857092,0.6773906437,0.3353859839,0.252690756,0.4180865777,0.4487369874,0.3716262911,0.0082681614,0.6791759923,0.5671886625,0.3538561319,0.4820004451,0.7083540374,0.5691929168,0.0391920106,0.014670212,0.3042284068,0.3067502924,0.0308715265,0.0005899588,0.0604445358,0.6085961509,0.103383381,0.5921125928,0.5677722481,0.2331631234,0.3398108696,0.4183140257,0.5609537006,0.1955503728,0.3956945372,0.6520374319,0.3335405708,0.4031090281,0.6571063667,0.2464647097,0.1781450761,0.2688164527,0.2305576573,0.0444468625,0.1072995747,0.355963849,0.2200095352,0.6392341218,0.6130342917,0.4095572978,0.3019852282,0.0411937593,0.369932225,0.1670321247,0.6888024694,0.05475581,0.674865295,0.3779081951,0.5742586517,0.6979749375,0.1954823928,0.0089567755,0.411963483,0.4692307471,0.6641761346,0.4104820712,0.30107911,0.6922134968,0.4791391193,0.4560089029,0.3903661303,0.5150665546,0.5395985738,0.5051605058,0.5970004528,0.4662850722,0.2767528932,0.6141525128,0.0707643518,0.2760298547,0.3912089763,0.6228913333,0.0123776637,0.3116018931,0.1102284405,0.455457999,0.1857804649,0.1691141058,0.5454152082,0.3271465073,0.0256753741,0.106587986,0.3523442218,0.5142315045,0.4865568983,0.3662664847,0.2727099776,0.1098588574,0.2405436492,0.2729710957,0.4787482502,0.0021884893,0.0131201989,0.4611788339,0.1735453423,0.0877962875,0.2125553968,0.1341651297,0.3690198926,0.1580206258,0.3923877851,0.0662902244,0.4572286483,0.2900839136,0.1568312192,0.3145288505,0.5689208801,0.1256190381,0.6376302514
   0.0686918877,0.1547396679,0.5522353553,0.6501900118,0.340448092,0.0450279591,0.4102980675,0.2726204244,0.6127048541,0.0266378624,0.633119241,0.5451510032,0.4343677193,0.6143115791,0.5748203196,0.5428617816,0.3877257118,0.1366021122,0.2020174437,0.2324685093,0.1253685999,0.3898969185,0.2846947357,0.7122140851,0.2378128031,0.557762252,0.3707754293,0.0212371329,0.1488954818,0.4699544477,0.0992201244,0.4830237969,0.5447227558,0.2500007737,0.4035299724,0.2148855438,0.4745505266,0.159849855,0.187782247,0.3723536833,0.4339075504,0.4387003739,0.4449161335,0.2569229946,0.4358743997,0.0962802315,0.0567342452,0.6140843772,0.1734592845,0.0376412133,0.6936241019,0.6711744179,0.6939739666,0.1514472327,0.5281610952,0.6359464477,0.2778807617,0.6218000658,0.4505137436,0.2087581322,0.2170980628,0.2662408837,0.1857487608,0.3448899485,0.0535136837,0.4597947877,0.3279362261,0.2285695352,0.4185890558,0.1573358366,0.3252907294,0.0896727564,0.4398015388,0.2809283003,0.5461167336,0.0505631555,0.4581678118,0.4116717851,0.5341633845,0.3092068269,0.3523571805,0.6234472744,0.1112145583,0.5907243201,0.3510720913,0.3831572962,0.2295699088,0.2480551118,0.1919644511,0.4284677468,0.0091134083,0.61029753,0.418305023,0.2724634889,0.5228928063,0.2973060966,0.6104641157,0.3864166044,0.6674988228,0.0974551006,0.3174958256,0.5558403139,0.6961438266,0.2430386151,0.3858908356,0.455980563,0.2878566347,0.3859996445,0.6365845134,0.472280149,0.3273374721,0.4356968288,0.3574027811,0.5827683295,0.7126335322,0.3437046214,0.2614592626,0.2319899608,0.5341530491,0.0972409345,0.4547199545,0.1653066664,0.520227536,0.5702069899,0.0610961866,0.4331430308,0.0897735489,0.1835812107,0.5150378214,0.6487470225,0.6526591339,0.5869302939,0.1498305895,0.1838314834,0.0807257509,0.0219439684,0.1153591314,0.1462343518,0.2130020175,0.3901580391,0.1896727969,0.1103709439,0.205367612,0.4074260935,0.6797401903,0.2223530016,0.6993993741,0.1417124031,0.3625814483,0.6922156155,0.5580761485,0.3564753318,0.4642020205,0.1740696384,0.086775181,0.6835010663,0.5817681976,0.5952024382,0.3231820489,0.0591384813,0.3572926359,0.184003759,0.0618141428,0.2698312401,0.3030656078,0.2925153649,0.3271225996,0.5054287408,0.4069768736,0.3437751793,0.6300810554,0.2221227623,0.1718542252,0.6074921019,0.0595074462,0.5909764245,0.2880934826,0.6765767432,0.2610175259,0.2687206288,0.191412948,0.5908258411,0.3368546498,0.3637097851,0.2684168199,0.3235400677,0.0138245394,0.4270401053,0.0233144468,0.671023718,0.3709583111,0.1826782172,0.1581683642,0.2751155769,0.2681011769,0.0906888724,0.394100746,0.4606177486,0.1350648652,0.0308445021,0.512934204,0.1100704982,0.3249945149,0.1621326889,0.2051558483,0.6634369537,0.6374470824,0.2863407268,0.3751621328,0.1016499689,0.2143569741,0.6223500121,0.0930085513,0.4956070202,0.5758936998,0.400941808,0.167288529,0.2521907765,0.5987442127,0.3010430561,0.6802596796,0.419812359,0.6638633113,0.6722027177,0.6170123479,0.686005588,0.5483873445,0.0546055522,0.3829754597,0.1434245266,0.5092224615,0.5370056,0.033426481,0.6958446264,0.6091237024,0.0050030001,0.6030672744,0.2869902049,0.3748420161,0.5658102327,0.1731071048,0.5640941069,0.4246349667,0.6804000365,0.210336541,0.014696831,0.5323318737,0.5455902726,0.0045089223,0.375921897,0.5722711083,0.246165327,0.098156435,0.5348077546,0.5634718806,0.6833036809,0.6655782548,0.5734394083,0.5514731358,0.6382431659,0.3958064626,0.5589505795,0.2857493172,0.4920618955,0.6287442941,0.0953410865,0.3162997491,0.2361221018,0.1920554253,0.4337923414,0.5717193292,0.0631284403,0.0722511566,0.2027364009,0.440769442,0.0943047881,0.5939537111,0.1896464011,0.2041906088,0.5932420104,0.4555742123,0.2690161908,0.4702780288,0.4583895273,0.3998410495,0.1604334205,0.406872329,0.4514100687,0.0953566542,0.315380811,0.6872676998,0.3743342001,0.2676425971,0.6028959785,0.4668070437,0.1411722815,0.355394913,0.4641253701,0.3101253449,0.3334794095,0.2376832804,0.1645562289,0.4670706878,0.2791761552,0.2283040286,0.4851288096,0.2523237156,0.6538105626,0.4979471168,0.6865605565,0.4258791681,0.6277552363,0.320362351,-0.6836902583,0.2449198054,0.025952738,0.1535686448,0.1120147334,0.3864252641,0.4843733935,0.2428961656,0.0175818072,0.3666956646,0.6879774376,0.5443917126,0.400063281,0.3686221704,0.6925130581,0.2429969893,0.0278531795,0.3937746699,0.266023188,0.3638708019,0.0974729103,0.7066065285,0.141636561,0.4292347718,0.0169902898,0.0068422185,0.0053044497,0.2190836521,0.0481561543,0.0956926891,0.4540089315,0.4607435521,0.1341738941,0.0180957589,0.3773966113,0.4591680603,0.3808641121,0.034876721,0.4902366066,0.1887081277,0.1910421256,0.5385718207,0.4020447629,0.4609398843,0.6491917992,0.6669083899,0.6077998705,0.2514441976,0.1240909867,0.0727448293,0.6200812582,0.3914253875,0.2945500845,0.0602886555,0.2266067715,0.678438214,0.1747228706,0.3646618371,0.5851552556,0.5244884322,0.2312598947,0.2798201384,0.6487745773,0.3492697512,0.198624416,0.536937151,0.1046112852,0.0529798995,0.6236156384,0.2623848314,0.6254451544,0.6460882323,0.2193161439,0.1185591315,0.6506510925,0.0294351427,0.5788567755,0.3008725203,0.568528662,0.3625740668,0.6939165246,0.2267867165,0.0473543071,0.5447048014,0.4912306985,0.6883469731,0.5402147267,0.4102567422,0.6224622986,0.4689796025,0.0443829033,0.4306434971,0.6561949919,0.5002166154,0.0037858609,0.5367526336,0.5159487103,0.3895063094,0.3364611576,0.1788309918,0.5432922564,0.2644748342,0.1460062641,0.6761058109,0.5607010546,0.0079754939,0.5657597859,0.3154543262,0.2336101545,0.2844015327,0.1795133035,0.137938459,0.6688492024,0.5613781191,0.6859059322,0.0983362314,0.0971187321,0.5200204842,0.4352053222,0.1001901499,0.0355219727,0.0729272696,0.1433343477,0.6552071872,0.2247425206,0.4924956834,0.1090329381,0.4542562867,0.4951296696,0.5572134151,0.6772073564,0.521326096,0.4724906736,0.3240701937,0.3781456194,0.5377924254,0.5240247684,0.7101522787,0.4545225752,0.6333501094,0.3954574442,0.471412224,0.6152853837,0.184510274,0.2131875237,0.6519876417,0.5803224245,0.5373878139,0.1966336747,0.4446729745,0.118596416,0.3412357969
##end
biasActivation=0,1,1
[BASIC:ACTIVATION]
"org.encog.engine.network.activation.ActivationTANH"
"org.encog.engine.network.activation.ActivationTANH"
"org.encog.engine.network.activation.ActivationLinear"
