encog,BasicNetwork,java,3.4.0,1,1750017384923
[BASIC]
[BASIC:PARAMS]
[BASIC:NETWORK]
beginTraining=0
connectionLimit=0
contextTargetOffset=0,0,0
contextTargetSize=0,0,0
endTraining=2
hasContext=f
inputCount=150
layerCounts=1,31,151
layerFeedCounts=1,30,150
layerContextCount=0,0,0
layerIndex=0,1,32
output=0,0,0,0,0,0,0,0,0,0,0,0,0,0,0,0,0,0,0,0,0,0,0,0,0,0,0,0,0,0,0,1,0,0,0,0,0,0,0,0,0,0,0,0,0,0,0,0,0,0,0,0,0,0,0,0,0,0,0,0,0,0,0,0,0,0,0,0,0,0,0,0,0,0,0,0,0,0,0,0,0,0,0,0,0,0,0,0,0,0,0,0,0,0,0,0,0,0,0,0,0,0,0,0,0,0,0,0,0,0,0,0,0,0,0,0,0,0,0,0,0,0,0,0,0,0,0,0,0,0,0,0,0,0,0,0,0,0,0,0,0,0,0,0,0,0,0,0,0,0,0,0,0,0,0,0,0,0,0,0,0,0,0,0,0,0,0,0,0,0,0,0,0,0,0,0,0,0,0,0,0,0,1
outputCount=1
weightIndex=0,31,4561
weights=##0
##double#4561
   -0.3470897944,-0.022006922,-0.053134311,-0.1747561481,-0.1364206951,-0.0061148666,0.2229434151,-0.3983720691,0.0802434686,-0.3151855258,-0.3667183415,-0.0572084085,-0.0261582698,0.0842256525,0.2277062203,-0.0386777285,0.200465501,0.060874723,0.2871155168,-0.2723748407,0.1983641681,-0.1124596303,0.113365496,-0.0007011669,0.0786807239,-0.1835503983,-0.013689239,-0.0513629684,0.1830502952,-0.1030594646,0.2642036882,0.3358842858,0.3085041889,0.1319482077,0.3038616512,0.3280038866,0.5191222865,0.5984307898,0.1149672653,0.2149656336,0.0421936139,0.1808100965,0.4370024104,0.3021047796,0.1474744493,0.3142073484,0.4820218945,0.6776655815,0.0639583735,0.6952987776,0.6930213643,0.707212136,0.268789373,0.0617425876,0.0510464891,0.2188445274,0.11769009,0.7117679226,0.5338483524,0.2082444439,0.0383547757,0.3671534724,0.3892995242,0.0109534153,0.0178870142,0.1709119868,0.2883242112,0.2319128953,0.5108710244,0.5111511003,0.6188324504,0.0097189592,0.4726509797,0.2342621443,0.2049857283,0.0772754384,0.4746858609,0.5745851432,0.3723467525,0.4519270551,0.5050176839,0.2981493484,0.0508000028,0.6893595005,0.0371428448,0.2421870603,0.1422975682,0.4258430955,0.4961510568,0.5819746231,0.0463744594,0.4684813768,0.2755945605,0.6622745789,0.1075929213,0.4059154497,0.0605579013,0.0322484193,0.0047649434,0.2457766693,0.1565428974,0.397851499,0.0000543256,0.0782523057,0.0757102754,0.5104319411,0.7153052274,0.1566852974,0.1564197218,0.3469289202,0.0986215831,0.4924002314,0.2772425204,0.0957010089,0.1255723138,0.1343222899,0.1003185218,0.3255030457,0.0034839789,0.6403480431,0.5432097629,0.6634452325,0.0623631375,0.0290980297,0.6125394885,0.0547521148,0.155998764,0.6338938399,0.4519121806,0.5314524743,0.338714926,0.1659560732,0.0797416118,0.2119480794,0.2226555988,0.1075791341,0.6693952021,0.4341216124,0.5972905174,0.5195624264,0.0734764567,0.5329167129,0.4585905906,0.482039568,0.2155105144,0.7068079358,0.6009540625,0.4826018506,0.48252905,0.4489968024,0.0403088553,0.3053951544,0.3526073679,0.2145826619,0.6728778618,0.4049994626,0.1323473187,0.1265463746,0.1212267614,0.6108607039,0.0785998887,0.2770273716,0.2341885027,0.5269526657,0.1313949495,0.2319439213,0.5649145627,0.3157969992,0.3561060382,0.4785420968,0.4757405953,0.6506472658,0.4583949298,0.6836015873,0.6469810557,0.6547362443,0.6262001249,0.1928748052,0.5722634336,0.0165867377,0.1006412367,-0.6552651521,0.6067265831,0.1998120394,0.4437431909,0.3721554533,0.2043151546,0.6245288463,0.5478003098,0.2131660796,0.4511652116,0.338716565,0.4372985387,0.5225942648,0.3039160185,0.1125790009,0.0269745501,0.1524962883,0.5026377906,0.3745642041,0.6292398607,0.1660235523,0.6584043106,0.0125273664,0.5562315339,0.5165819705,0.25329363,0.6272051374,0.5577174496,0.1602063094,0.57950208,0.6107375794,0.0579017304,0.5751647731,0.4537520934,0.3240053398,0.0988784737,0.1515209159,0.455951051,0.1108111522,0.3540067023,0.0266289548,0.5832928687,0.2055856601,0.1482461179,0.1960029229,0.4243066468,0.606669879,0.6279126103,0.6840537045,0.4515231648,0.6573810306,0.6101634883,0.2325606683,0.405996327,0.5913650329,0.121711188,0.172274506,0.3270714909,0.1397326356,0.0913231063,0.0813067559,0.2957896096,0.3284113354,0.3027045291,0.3699736725,0.5632234648,0.4864943974,0.6306615616,0.6093220188,0.2717472727,0.408217147,0.2587458331,0.4424742567,0.0481769863,0.5130266589,0.3794636816,0.411439402,0.4420091654,0.4099535747,0.117030063,0.40347187,0.1321020428,0.556286067,0.3559244736,0.3862793157,0.1487381061,0.3385896989,0.4849287784,0.18031144,0.2164421186,0.3147705927,0.4693082209,0.701684069,0.6329365696,0.2969328621,0.0649334645,0.6479891251,0.3233558254,0.1719906929,0.261040069,0.1805819656,0.5372166448,0.4072713123,0.4086756158,0.1977745205,0.5969896454,0.6012050328,0.2451350321,0.0331811375,0.5640347715,0.0387401736,0.088649898,0.0685859356,0.0194159072,0.3426492359,0.5557247976,0.0270541621,0.4575561077,0.472271612,0.2719126668,0.448719459,0.64196032,0.1869486378,0.6736577846,0.3986193542,0.3207688897,0.6727512254,0.5608144635,0.0344100637,0.3806570243,0.5797907439,0.0004377078,0.1911426061,0.5192874732,0.4109195521,0.0654968138,0.5076188117,0.0461685533,0.1303986818,0.6970629352,0.2951657671,0.4826912513,0.3505653605,0.2130501185,0.2045367902,0.0920140083,0.2858145019,0.5161144542,0.0880347371,0.5183705673,0.6984346596,0.289097099,0.5785102755,0.5636304323,0.4701252698,0.552286791,0.0562220075,0.662436068,0.0960073063,0.6478607081,0.147225449,0.4254659694,0.2144126399,0.2996067081,0.2024380006,0.3057038956,0.4558458678,0.3368475278,0.0525346124,0.451795693,0.3615348684,0.1396190626,0.0079638296,0.6904551533,0.5102921658,0.3209109011,0.235442942,0.560828766,0.3030601793,0.5172532311,0.1332694535,0.0330553602,0.2061888429,0.4931501987,0.3172469535,0.2767417666,0.0907388761,0.5622068296,0.5203774064,0.1035770352,0.5672773194,0.6625276935,0.338890552,0.4773343278,0.6854099056,0.5610651686,0.5811899186,0.6837960438,0.4827195423,0.1528846253,0.5607134934,0.4339907285,0.6248165434,0.3687327344,0.5341993655,0.0872068632,0.5887097209,0.3509787955,0.5022384415,0.2791150679,0.0306759822,0.6070886681,0.1198814022,0.1073393131,0.0963527021,0.6829107687,0.4507188836,0.0389210388,0.4245685292,0.5353710023,0.4874148536,0.3682576232,0.3128794519,0.1251714426,0.2633774074,0.0211688595,0.3350550834,0.5772050098,0.1123322513,0.2499764466,0.3615578208,0.5810752253,0.3563268509,0.0096942265,0.3091031035,0.4672022974,0.6982417815,0.389781392,0.2587262741,0.2522394749,0.5559498185,0.3386844507,0.489599554,0.6970113504,0.1053928245,0.3980197496,0.0333183636,0.2308081062,0.0256161455,0.3436379243,0.0929621306,0.5023061676,0.3814839998,0.0047588266,0.0118726752,0.6794259241,0.3572161586,0.0049142076,0.6478119101,0.6929958256,0.1789081106,0.6436374919,0.3008245898,0.2491973945,0.0545276875,0.2950220414,0.6801210731,0.2617515575,0.1344754527,0.6412666982,0.4257240586,0.0637887433,0.12431873,0.4427082304,0.3618082311,0.3205702943,0.4480006782,0.1443542495,0.3494906958,0.4033233705,0.657901043,0.4038944206,0.6728770345,0.247037634,0.0854246879,0.3821748789,0.5655261327,0.2410349672,0.1429482367,0.1457777311,0.2299586447,0.4773486614,0.4416673581,0.520287252,0.3687997555,0.4372938873,0.5115158328,0.3039931808,0.2689892378,0.3992038285,0.7158494507,0.1411039424,-0.0453336454,0.6537956678,0.0451612572,0.5989678295,0.6100984134,0.5051149176,0.561265609,0.4180079297,0.3682739285,0.4954492372,0.1804220546,0.2489815052,0.0760559497,0.3906136302,0.3528415059,0.1309395611,0.0293381915,0.1080740774,0.4246097675,0.3486728229,0.411601594,0.2197167509,0.2578487511,0.311065508,0.5868934605,0.1053963722,0.241813831,0.5648232381,0.0703658355,0.015926194,0.0460100091,0.1756226608,0.1005617638,0.0157313048,0.595314031,0.0074356242,0.3775536708,0.6428681524,0.3948331723,0.2952460302,0.422385563,0.6417022316,0.4146095856,0.6535509865,0.0390629449,0.3941509588,0.1642606354,0.0634188819,0.0020894303,0.2488960565,0.6192047947,0.2919757729,0.3624507201,0.098798503,0.6167025119,0.3261435077,0.2442998171,0.3531228146,0.1052409656,0.3680417733,0.40570347,0.5512956732,0.4841717435,0.0356521059,0.2928550253,0.3128656807,0.6005987505,0.4752584579,0.4119458703,0.3235546028,0.6533028077,0.3606211735,0.6566516773,0.3536099811,0.6722639309,0.3627437011,0.6406746983,0.3727895666,0.1580601156,0.3633004381,0.075195129,0.2656788874,0.0071751844,0.0486572379,0.4923872734,0.5299019971,0.3320787908,0.6615828015,0.5865252788,0.6837424568,0.2724886211,0.4032414623,0.2400847805,0.451043375,0.347162081,0.0551678996,0.6569731652,0.0672820806,0.536739165,0.0534008699,0.003655142,0.4790803327,0.017512155,0.0532678549,0.2991939475,0.5737401769,0.6339109664,0.1288903316,0.4541059412,0.0752997972,0.0470602564,0.7116083283,0.5210762684,0.2055322695,0.4895144897,0.4329643364,0.3520322121,0.1987024654,0.0115052936,0.1664816171,0.4145417797,0.5727041513,0.1026565749,0.279135762,0.2654386079,0.5904147656,0.2214602935,0.5716595763,0.2976793611,0.4881218406,0.0828791235,0.0433354061,0.3225697404,0.5520343506,0.4640552473,0.0587805411,0.7017983098,0.5069871065,0.1686837583,0.0066318588,0.4534625296,0.5942721441,0.1890668405,0.466311938,0.1861154775,0.0151936103,0.6150964443,0.3709379453,0.1535497026,0.560013637,0.2194418965,-0.1583260421,0.0747430341,0.6746711707,0.1422914327,0.2555169772,0.6773149286,0.0619751522,0.5006092939,0.5458090438,0.6119320162,0.5045829064,0.4205774007,0.1133830489,0.2758191754,0.4760384756,0.4471345845,0.4042971819,0.4952824361,0.3269876615,0.6006183569,0.43172436,0.6104639522,0.3291072908,0.1856009316,0.1010973773,0.4754910077,0.3895389009,0.5875175784,0.0343022526,0.5691524919,0.665300688,0.4098707066,0.1445587935,0.5811729254,0.4917370168,0.0529670032,0.4224108839,0.603583522,0.6499089013,0.4582846869,0.3032036166,0.6192768592,0.607837436,0.210009523,0.5761910425,0.3351931078,0.0208880344,0.2950030479,0.006595649,0.1634494105,0.399514578,0.7143545292,0.5052951594,0.2347868045,0.305717167,0.1481003626,0.2366295181,0.4913012638,0.3129140849,0.6182961434,0.3391947756,0.579793582,0.364155056,0.348272292,0.5305223948,0.7065316162,0.1623965114,0.339244289,0.3710935831,0.2700979388,0.6839045495,0.4550956769,0.1453502582,0.1769000316,0.1471268403,0.6061662971,0.2074388465,0.0274427318,0.7092882906,0.3207267923,0.1883687375,0.2963461203,0.3010272583,0.5673456294,0.0192337316,0.056330589,0.5779304225,0.2647190458,0.4671763075,0.4662225266,0.2382848672,0.3831842687,0.580716751,0.495922277,0.0853875436,0.2746006759,0.4551665549,0.2669588331,0.0482726483,0.1481269762,0.1174519896,0.4755233162,0.0476934482,0.3273311573,0.004647275,0.1309801631,0.0203014926,0.0664208807,0.7038108479,0.2102828506,0.418537661,0.2918026889,0.5360612661,0.085104293,0.5146272376,0.0976649233,0.5755009129,0.6429731478,0.1109621462,0.5639014692,0.6788719998,0.3476890928,0.4196932816,0.2936590652,0.5807371573,0.5787957709,0.2996585135,0.0198314186,0.5000081048,0.2050104388,0.24802661,0.6697484808,0.2426938242,0.5240547403,0.4040461691,0.4687863974,0.6936483154,0.7121834002,0.4645206222,0.0466273417,0.1929088718,0.7098988358,0.0734517303,0.6946784396,0.4334462128,0.0516562439,0.291701787,0.7011358164,0.0657178012,0.640812034,0.4365967985,-0.6808410267,0.2778923844,0.0101200064,0.1897104468,0.4802918061,0.5507742766,0.0048638197,0.3957443046,0.3761622261,0.3563354166,0.3923586689,0.1701881023,0.583706018,0.7015885839,0.6407186771,0.4796389333,0.4408060419,0.5099794869,0.3760952048,0.1478950855,0.6650366544,0.4243567213,0.1585311435,0.504408754,0.4600238683,0.1258337053,0.2415447875,0.1987074045,0.6848992325,0.213313927,0.506058637,0.276120619,0.4734728084,0.0532985462,0.5766305819,0.1748057803,0.3347739428,0.4632379517,0.2873333685,0.3914422016,0.1921124111,0.3298014315,0.3823417957,0.3827199311,0.0601331953,0.1673095469,0.193339599,0.4147777289,0.6356919086,0.4805146249,0.2207527901,0.3614279256,0.1980207912,0.2903259018,0.0647345331,0.0796251477,0.455777235,0.1979562529,0.3512961638,0.2870727364,0.3834292716,0.3472591892,0.1987872312,0.3296865207,0.4603453701,0.0850266809,0.4265550095,0.605200767,0.6763309006,0.3029276742,0.3554745086,0.4519463716,0.3378990543,0.5891698209,0.2310243182,0.6005210702,0.0752488854,0.2920404567,0.3544227597,0.2061088868,0.2701953076,0.3628061616,0.432151207,0.2465017128,0.5975771189,0.0733687988,0.1344893544,0.0245684551,0.2731183384,0.1509928683,0.1730488071,0.6832728497,0.1285944531,0.4640911075,0.0898790564,0.0471101289,0.4980040107,0.2765377803,0.6327887463,0.0323380886,0.0530362195,0.4106150388,0.5105573898,0.3036954102,0.4651601817,0.6091475387,0.6493800837,0.3197194594,0.7058788542,0.3865629708,0.7023035107,0.3691684262,0.2105405444,0.1059222253,0.2906557844,0.408873853,0.238453178,0.186368299,0.3130206333,0.1726249441,0.2431645245,0.3808433845,0.5380539106,0.6333204179,0.6511839741,0.3444996187,0.4094851588,0.5160903333,0.6329155642,0.368457118,0.3559438618,0.079759844,0.2661055868,0.4574240216,0.4474619236,0.1211131219,0.6215246611,0.5833084693,0.3058315673,0.5680478215,0.1975495316,0.4693666938,0.3019330638,0.6602197361,0.0495040324,0.3335990674,0.6475593935,0.4468704548,0.7098147221,0.6107627423,0.0646755699,-0.6024774915,0.0408472852,0.1086493738,0.0164528652,0.0766317747,0.5551819116,0.6137030249,0.0559102382,0.6136164017,0.591821927,0.6520729668,0.2030182002,0.6612640827,0.3437952073,0.5922393589,0.107004828,0.4486945223,0.5200816295,0.328169523,0.2677462288,0.6001343105,0.4263553447,0.0706561246,0.0071492022,0.657089589,0.1319302841,0.6712222716,0.1383208669,0.7122332677,0.366469627,0.6524129076,0.6256663126,0.1176108649,0.3098292147,0.1789648423,0.5700027453,0.192115881,0.5260510878,0.072867536,0.5548847969,0.4951076187,0.141634247,0.4299182389,0.3850335162,0.3256302572,0.341353968,0.6466068967,0.2866338049,0.0438768373,0.5916461974,0.2136467025,0.439394005,0.704756248,0.328934558,0.3745206697,0.0731133324,0.2345203914,0.60906624,0.3696125233,0.2922401096,0.0393927898,0.5679848429,0.4259874817,0.5988466638,0.4679415152,0.4701268404,0.2632158074,0.4150732914,0.2080053628,0.3770337181,0.5314463246,0.6497538981,0.2347524376,0.4191627097,0.2457759375,0.0759585816,0.2807308621,0.3770382687,0.2709461754,0.2363046825,0.1664379624,0.3676461351,0.5753679094,0.685232945,0.7149462217,0.0286857384,0.4440534461,0.1562745044,0.2630732971,0.6319476412,0.0000856015,0.0073326477,0.5986855029,0.4030015102,0.2395350626,0.6941911896,0.2926181015,0.4502998277,0.6955865886,0.0388379594,0.3012586598,0.6468602676,0.6519597125,0.1660893512,0.6794742597,0.2162472388,0.5070383666,0.5197162763,0.4365050858,0.0368694426,0.31434467,0.4903012443,0.4835822623,0.2366885486,0.523173903,0.2700539834,0.4996853848,0.0242581001,0.0336552129,0.3601194015,0.1016942783,0.2632552654,0.4572237458,0.3195125765,0.5703348288,0.2496598735,0.2599867805,0.6648748244,0.4466103403,0.1290796127,0.4526115192,0.6795119475,0.1143348387,0.0939763154,0.6706237601,0.2216326156,0.4270147236,0.3230724114,0.6271373893,0.4498723874,0.6924243976,0.3860500883,0.1229434956,0.5079240522,0.322257256,0.3150613514,0.433594012,0.2938384073,0.6260939985,0.0651909401,0.4064354675,0.0231068561,0.1393964941,0.5709633954,0.3082440512,0.5332083328,0.3954347072,0.5112755118,0.343739644,0.150701027,0.4605415499,0.2879417348,0.4896040952,0.6576952285,0.4280342158,0.6035965328,0.3176841801,0.7038048521,0.4273207295,0.0043818842,0.3500342594,0.4851569505,0.4567421546,0.6091643938,0.1866401063,0.5436899851,0.4395569918,0.4884371516,0.2907025251,0.0790222506,0.4288350434,0.4985246135,0.0914553471,0.6205487817,0.3606631063,0.3997997771,0.5663121584,0.0140238089,0.6779102142,0.661843023,0.3041444465,0.1444000151,0.5555775516,0.2207622147,0.3247856788,0.5450237485,0.5803170341,0.653826164,0.0635679054,0.0677636442,0.2667919227,0.4858619273,0.3331639131,0.1305671714,0.3872568034,0.4832506367,0.1274043102,0.5823172785,0.4360996068,0.4173545569,0.420023552,0.6653405279,0.6614006727,0.641529794,0.3161762653,0.1497049305,0.4988827958,0.4816776072,0.0919767721,0.1883537406,0.4333156459,0.7154293985,0.3009066053,0.3894229885,0.372661615,0.1742884069,0.3295351217,0.3152402219,0.6384118121,0.0242248351,0.0440343502,0.3874881201,0.4735968555,0.1148450318,0.3580321347,0.6822280805,0.3438302254,0.2198279074,0.368601527,0.3985309506,0.2124453286,0.2774598073,0.4621618472,0.453790673,0.1257381259,0.1150346406,0.2172596873,0.3047227001,0.1690518241,0.3188266954,0.2396210586,0.299005377,0.1178435449,0.1500614426,0.3224126132,0.5538847083,0.0520003935,0.7027778136,0.5918150857,0.3079368319,0.5849422864,0.5760478281,0.5744633782,0.2281581481,0.2449710645,0.4433392827,0.0231250401,0.6721312706,0.2958126029,0.3323277272,0.3152550303,0.5224767861,0.5263054703,0.4997766373,0.2037620506,0.5949466149,0.649332292,0.7089056374,0.3067158427,0.670537829,0.194963306,0.2852522757,0.1092196553,0.1210060939,0.0650725589,0.1528138927,0.0176667659,0.0377459907,0.7058910002,0.6261732365,0.0620844567,0.1497231977,0.0177043502,0.6060443504,0.0137183415,0.1980407664,0.4328174626,0.265841757,0.2142164814,0.1697131633,0.6456116681,0.1407560464,-0.5536526117,0.5346653016,0.2099391344,0.511367799,0.3658381095,0.4475795089,0.3158218492,0.0320702254,0.0186284816,0.0923977846,0.4932543882,0.2594287443,0.1162493312,0.2134150768,0.1528941433,0.4788452268,0.4254372639,0.2714764711,0.1287278575,0.5720018004,0.2320637491,0.3614634098,0.0863422017,0.2555867547,0.6506083795,0.1790194771,0.3307022031,0.0064406965,0.3638726682,0.1082665916,0.6640241686,0.424636312,0.1011651344,0.5560711587,0.6665643479,0.1087686212,0.1222160913,0.5351591228,0.51720641,0.6147703362,0.6322949667,0.4586694531,0.4586223462,0.037972973,0.1732642177,0.0957387922,0.4671286077,0.710982815,0.4225527433,0.5052997239,0.3517519455,0.0603288994,0.2982318149,0.277742564,0.3517760336,0.5237639738,0.4370035538,0.4793252752,0.0515292503,0.4334776442,0.010521983,0.656674737,0.2454975455,0.1269666624,0.0894949045,0.4602064844,0.2770683475,0.028161705,0.056765586,0.1358870752,0.3257116381,0.1205828336,0.6668356818,0.5315154985,0.6289707055,0.1116644672,0.5863915821,0.678068896,0.4488025571,0.3740122655,0.1581281984,0.6635926999,0.6334573096,0.3224757121,0.2698843416,0.0305107663,0.5476009136,0.6023319562,0.225968054,0.5584437663,0.1221457463,0.1004218113,0.368816704,0.0085396976,0.4586570034,0.6672508813,0.1116728562,0.1703790621,0.405943658,0.0830258498,0.6092370438,0.2266001475,0.4515298082,0.6680259802,0.5300762484,0.6861346168,0.705992512,0.6183945581,0.1108257638,0.0783493427,0.4899897592,0.0182922318,0.2904287818,0.6703669717,0.6382601915,0.4753015262,0.2198832768,0.2169918401,0.1215504606,0.6273001365,0.6452041579,0.2467274246,0.1518615998,0.3483651021,0.3447791607,0.146441276,0.6741841184,0.0493140409,0.5030442089,0.1997679067,0.1289243485,0.1159921014,0.6635990819,0.3630690019,0.0179288565,0.0813642625,0.4180526257,0.5315774591,0.2106460558,0.3438257605,0.5856154566,0.1562394968,0.5756196266,0.1146645584,0.2634358265,0.5836487756,0.6275313859,0.4252298889,0.1157144682,0.4728818149,0.3267122828,-0.1691926301,0.4954510178,0.138995838,0.3887659945,0.2220483395,0.3700592513,0.1875896753,0.5824851836,0.697733305,0.5897733138,0.1422288644,0.1315820827,0.1059648588,0.3629893705,0.582102351,0.3717791741,0.0150268248,0.0970204904,0.5437015749,0.2092146148,0.2686103304,0.1909142822,0.1469735677,0.4810125739,0.0623386836,0.5513534148,0.4773272388,0.456407808,0.5110892131,0.3727687954,0.6007246525,0.0208116753,0.5288340201,0.0638777193,0.3666054879,0.5543222084,0.0750996666,0.7102157612,0.3051074975,0.5382566382,0.4801717637,0.3396378578,0.431720697,0.5068334678,0.1004159486,0.1817137473,0.1606537467,0.3101619511,0.1414030757,0.3658047943,0.4032480855,0.221769032,0.5991325369,0.6065400064,0.2766782591,0.5653029473,0.5185979109,0.3390705441,0.4921559018,0.0699097508,0.6593105113,0.2037929572,0.584390967,0.2911247709,0.4552824384,0.0845423677,0.2196122067,0.5527865553,0.1565729103,0.1688563977,0.5603833039,0.0562171361,0.3060056307,0.015672533,0.2185600145,0.5299682907,0.1290049016,0.5219196769,0.6934339465,0.3839346132,0.4670948128,0.0412451475,0.4555079011,0.3067053939,0.2134773222,0.0958289237,0.3947958905,0.0371237667,0.1413705682,0.2245210441,0.40473506,0.5787448499,0.5487088713,0.0511588657,0.6848822663,0.6173128953,0.6956200801,0.6215549112,0.5910182199,0.3654617108,0.3985350002,0.425759984,0.0111566178,0.4217879957,0.4177842685,0.3887070062,0.2522576085,0.6100100631,0.192292299,0.5905297264,0.6162592777,0.4774031845,0.016039425,0.144608879,0.0333863722,0.2659610332,0.6504692927,0.3210070817,0.6351927132,0.1521669055,0.2842678232,0.5109607175,0.2587504848,0.1818545111,0.2122331838,0.066673003,0.7036933143,0.0412514053,0.6506484318,0.1460682721,0.2753384781,0.6286108132,0.5446949352,0.0936109633,0.159666783,0.6276156457,0.4042905408,0.0525130872,0.4648933222,0.3506970551,0.2326788819,0.2328925669,0.1851583056,0.1597950141,0.0949509941,0.5786656429,0.663935785,0.498549155,0.708793657,0.1607144576,0.2421483273,-0.1442450518,0.1755295644,0.5300057,0.0127145448,0.4315515628,0.5579071804,0.0818428052,0.020149601,0.5993197028,0.0042451297,0.4611943518,0.672963492,0.3740007469,0.5502641987,0.0405617305,0.1893501943,0.594232018,0.6877260778,0.0893435272,0.4707465905,0.43221907,0.456250399,0.2833838067,0.051546792,0.5608637505,0.5221337283,0.4751317439,0.2526479232,0.5295418906,0.6882484581,0.2538331535,0.4629763914,0.1817633164,0.2619096952,0.6748121046,0.6230245355,0.4054268114,0.3813076256,0.4843519174,0.1664769148,0.5076219607,0.2509413575,0.3512491482,0.2996437968,0.5598131809,0.0523391582,0.5027173332,0.348611183,0.3209306146,0.4559541352,0.4920293229,0.5661931904,0.061386375,0.0407745985,0.4264828825,0.5754706341,0.6842366778,0.4930564075,0.147314987,0.3600293348,0.1587392633,0.526014628,0.6710013445,0.5553713617,0.5730248147,0.5004777162,0.2332069205,0.5585711704,0.2696726751,0.0016779695,0.210723195,0.1552702419,0.1917505081,0.1553269046,0.5065706267,0.0720046346,0.0868633488,0.4155264367,0.0067640134,0.6763431359,0.6320072752,0.1112866156,0.3176932402,0.2265807197,0.3310259805,0.4936170135,0.0489146995,0.5776172155,0.6364361845,0.2771053381,0.4303081168,0.0778006214,0.0628236446,0.6498394506,0.6604068077,0.5510882424,0.4165657019,0.2428351282,0.6291206613,0.4662822727,0.3100735186,0.3102532198,0.0661265331,0.3288886462,0.046421559,0.258225743,0.0692549031,0.0191649707,0.029078069,0.0850294552,0.3875705141,0.3774035714,0.6756136853,0.5808583044,0.6700323438,0.0357176073,0.7148618613,0.466555165,0.6346861176,0.6843954808,0.6122756474,0.6878421846,0.0521064897,0.2280870604,0.3767275024,0.6515335093,0.5022631103,0.3803811314,0.0441530622,0.2771463136,0.4860819205,0.1759597081,0.0423665635,0.5627288294,0.2914155891,0.1756665142,0.6054402597,0.5853148259,0.4990805862,0.7119115483,0.6339538032,0.1988616507,0.5531386877,0.6526456368,0.6618865395,0.2950600816,0.5332137883,0.5582553348,0.2445121702,0.4869181705,0.597217702,0.0830122497,0.0670190837,0.3524483582,0.6280344209,0.1393911958,0.6068162062,0.5127500569,0.6082187654,0.0126308976,0.1084797735,0.5582427759,0.5335389372,0.6048188442,0.1030325273,0.4835284646,0.4445796683,0.01491351,0.2353614468,0.6050885586,0.1512209818,0.155182307,0.6079695467,0.4545007244,0.2831792539,0.5090755738,0.4512548168,0.1769894018,0.1253574176,0.598448696,0.4921699434,0.3804794849,0.2311629237,0.4493651949,0.6185787975,0.5636004608,0.5588932337,0.425296697,0.5988498937,0.1081300326,0.3741412709,0.6053621922,0.3261336289,0.3001988273,0.255622181,0.1444690717,0.6795505891,0.6941613553,0.4389307727,0.0368942448,0.6222638138,0.0089070932,0.3394781779,0.6304532326,0.3203397765,0.0177299146,0.2057572934,0.6066021915,0.2326565125,0.4940718193,0.2708268245,0.2713964994,0.7047011321,0.6338474866,0.3930519497,0.0471884505,0.4113781098,0.3668276849,0.0315744359,0.7063431271,0.5327822829,0.6790220527,0.6932387091,0.1800080202,0.1094582482,0.4742549111,0.2116872785,0.4394588432,0.0219756856,0.1330501831,0.5548660076,0.418559886,0.2118588663,0.4225130621,0.1382026284,0.5646963265,0.0460543091,0.4888080579,0.6373756658,0.4400003955,0.2943418392,0.1409251967,0.1248791936,0.1650608873,0.1323625904,0.0713694156,0.1811701851,0.6779923068,0.4554282992,0.5068223629,0.5013902535,0.1337664544,0.5066264783,0.4644442146,0.4455339944,0.1322897041,0.663516581,0.3974729282,0.5482985978,0.299760724,0.2898502704,0.5488164172,0.3732814496,0.4002719453,0.5835319647,0.2312963128,0.4330800969,0.4868988347,0.2115508258,0.5007417788,0.2794526608,0.5927073246,0.4831553334,0.2177691162,0.136347687,0.1897713183,0.5685301263,0.5380664693,0.2302287162,0.6199200472,0.1296334815,0.3100138354,0.5771766435,0.6323162632,0.6871886647,0.447614083,0.6540678395,0.7100465118,0.0592079612,0.3209803475,0.0703407862,0.5772812433,0.6820917621,0.286805594,0.5221200054,0.1401026623,0.0007725478,0.3324954363,0.1137843973,0.7075755578,0.4945717593,0.5746518026,0.45562455,0.1463413131,0.5454290698,0.6139579695,0.402754835,0.2138734038,0.449745156,0.2414889643,0.4713657226,0.0531043373,0.1796896055,0.411117581,0.1706271436,0.0875907655,0.7073627461,0.3484326708,0.6620243437,0.4665452688,0.0259398284,0.3718988634,0.6090767886,0.2170723049,0.6509834109,0.6109921977,0.0317512963,0.1126586539,0.004160909,0.0148406634,0.3602277944,0.162881572,0.132027201,0.3744838022,0.6616834485,0.2850461447,0.1417229788,0.3987002002,0.3256879979,0.6884310317,0.269138842,0.1488963029,0.5396634306,0.3522967145,0.339685055,0.1119142359,0.1069949962,0.534213652,0.4919167662,0.4334361513,0.110316292,0.4795071779,0.4367935639,0.3475150983,0.6073777914,0.2058690901,0.4919297098,0.092733237,0.1676556119,0.3595431695,0.5667675543,0.0691122454,0.5697448877,0.2789477907,0.0891184579,0.0682291468,0.5063588792,0.0523172601,0.124785905,0.2357249433,0.0336905048,0.2294777699,0.2141922433,0.3131009363,0.2784656946,0.6595214574,0.6217094624,0.4863014847,0.4398356365,0.471821337,0.3539197199,0.0146849983,0.407821839,0.1169823114,0.2110891738,0.149718113,0.0933525653,0.5491381248,0.6788338504,0.4262037509,0.5037695847,0.111303296,0.2497770193,0.1827230705,0.4820850514,0.1488548097,0.4044123349,0.5831429591,0.5157045097,0.1124028488,0.0707475662,0.3048807854,0.1171642364,0.3443193345,0.2784723727,0.6171771781,0.6859630965,0.0611900294,0.0184808354,0.4782038358,0.1129177929,0.1092426609,0.2695493061,0.2116476169,0.1054918208,0.2604757063,0.3549147884,0.5340100204,0.707290402,0.1889829315,0.5645395647,0.2450114399,0.2142650839,0.5181024056,0.0161998189,0.3393289291,0.550650213,0.0967593388,0.0261325804,0.6256560877,0.6388868868,0.6309990548,0.3546586062,0.7103185388,0.6080999426,0.0061318036,0.45871423,0.3265565808,0.2371342395,0.6800251811,0.66388486,0.5986887684,0.5787040758,0.6315458389,0.493906777,0.1159833558,0.1095244271,0.1478419001,0.7037477676,0.4013546149,0.5154045743,0.530758128,0.6024270003,0.0116233071,0.2780698192,0.3324943056,0.512388505,0.0523441266,0.2729506693,0.4882690375,0.441683767,0.6243266328,0.5184690008,0.295884002,0.6014949666,0.2127267202,0.5350424137,0.0445433262,0.2568368352,0.4990683984,0.2822994421,0.4836389472,0.5088207296,0.3854073182,0.2309619174,0.7076687818,0.0884753316,0.1508415209,0.6700771936,0.1819718703,0.5127513014,0.1161450042,0.2113622457,0.2845030695,0.4293963662,0.2680925961,0.0908461475,0.4608977614,0.1737705027,0.0408657311,0.5319950966,0.4718097903,0.329402522,0.2899119335,0.3406607864,0.2724366965,0.5556862363,0.0391084515,0.4330152519,0.4984100412,0.376388321,0.3711815407,0.1079735238,0.4900136058,0.3436914698,0.056465599,0.2387335861,0.3259692204
   0.0722340358,0.1710642995,0.1300343953,0.6711595685,0.3573639098,0.5534284922,0.0768648588,0.1756033732,0.1946251034,0.4170075817,0.5125820383,0.0289000928,0.2907891441,0.3357474913,0.5568272957,0.3204408385,0.0163806001,0.6207471273,0.2410766305,0.5414191486,0.5738160781,0.5687035016,0.2854576713,0.2247553617,0.5097323946,0.2233147336,0.6553919115,0.4226465471,0.0803544155,0.4048573589,0.6848198497,0.0728851813,0.6843268995,0.4105489636,0.6433734389,0.0558622544,0.4762359451,0.4643028825,0.4035234302,0.4355211231,0.4327495345,0.2645451288,0.5445913326,0.6909245663,0.4909586061,0.1152183956,0.447554233,0.4235109495,0.226248264,0.3799615405,0.2343324422,0.2523576587,0.6271234966,0.0752359381,0.546485974,0.1015553065,0.2941234728,0.2425398033,0.5989279267,0.6775189668,0.0026048033,0.5870309309,0.1311113039,0.1296686049,0.2573384008,0.2874067557,0.6416015512,0.4320736482,0.5760389818,0.1269550816,0.013813718,0.0357245335,0.1357402034,0.3955184632,0.6135507708,0.1925952849,0.6596212906,0.2920646049,0.6092631788,0.2599253146,0.3746813402,0.0506110127,0.1850579625,0.4773614461,0.4802840525,0.7157775684,0.2641107431,0.3731983501,0.1603232255,0.1280315692,0.7113004053,0.1211694678,0.692908377,0.3828790775,0.1124651878,0.1649935374,0.5900661678,0.1661119505,0.214655592,0.3252098446,0.0916077116,0.376310982,0.0897773462,0.129129288,0.5148423672,0.5412258278,0.1566824055,0.0236112602,0.1609869779,0.5589475531,0.242988709,0.5716448237,0.3662361698,0.1330111528,0.6945035636,0.2386693407,0.1702096556,0.516889931,0.155428515,0.2489628208,0.1822526981,0.1605535877,0.6564552122,0.6952992588,0.4332840766,0.2914474634,0.2327214439,0.6884151576,0.185750913,0.5216437819,0.1167214381,0.1776908111,0.7107759118,0.0274030525,0.4734573119,0.5460328076,0.2127934308,0.5030613916,0.160947466,0.6080055514,0.1497544057,0.4097683706,0.2600642792,0.1742696433,0.0259679665,0.2140879658,0.1764826022,0.4651340211,0.5210067297,0.6518863417,0.4678075306,0.3395824813,0.689518762,0.6645158849,0.6924147388,0.3769751226,0.0300948636,0.3201580341,0.6000063832,0.6254270185,0.5000917792,0.120178434,0.4076287765,0.3151263517,0.3275329877,0.3465192749,0.2468740634,0.5642367188,0.647617227,0.566841342,0.6580806354,0.3278894603,0.1003278729,0.3962694224,0.6077432085,0.3074443076,0.4289501025,0.5423294504,0.4421815449,0.6394104553,0.6955034557,0.3918239917,0.1831109329,0.2150487248,0.0727458544,0.4888440785,0.3294218195,0.5420816142,0.093678832,0.0653053288,0.4946829228,0.3157539949,0.6490910668,0.3867893303,0.2455754529,0.2402097775,0.5529703174,0.5932838037,0.0722102233,0.2426742194,0.1737190613,0.0196178759,0.5197092609,0.4354830278,0.4836558737,0.3635138086,0.0599075129,0.2920972319,0.3063874404,0.6193181081,0.623151149,0.6169727013,0.316868903,0.3030324656,0.4996287336,0.5277096419,0.7118783213,0.3243152066,0.3031048049,0.1766543494,0.6975484277,0.3778125295,0.2757786976,0.1702276796,0.7127688059,0.3314540338,0.2263607454,0.5009946307,0.3747274881,0.5263006947,0.5174000487,0.1751476633,0.5427852584,0.6799010945,0.4386334506,0.0294449002,0.1229152475,0.1163867645,0.0269177285,0.3469698438,0.5726177048,0.7008875246,0.2936015647,0.0618465931,0.4756907149,0.388045271,0.4286000917,0.4447167703,0.5365478302,0.1994800054,0.3260278636,0.1442444281,0.5985853871,0.5013656913,0.4705380915,0.7097911241,0.6951567519,0.2197235507,0.5716237695,0.5947171847,0.1405232738,0.5232263084,0.075579632,0.5312556641,0.3380047456,0.0426508744,0.1289466651,0.1029424672,0.4759152182,0.3710165197,0.3613907372,0.5585804556,0.6098396847,0.4858739153,0.3470154175,0.1140698855,0.0805294203,0.5221783498,0.4854707293,0.3020426011,0.3949844171,0.5680210301,0.520913078,0.0079004571,0.4494653604,0.3074780617,0.6558900847,0.4303135958,0.4341266028,0.3836329929,0.6658263754,0.4480019156,0.0405950396,0.257148216,0.1033061053,0.5696394745,0.4192091306,0.4741252107,0.1508408781,0.5881320743,0.0114989867,0.0493090143,0.3007737803,0.2935644504,0.1940881823,0.4429483967,0.3688150015,0.1618585935,0.5831941703,0.3309030248,0.3041126235,0.1363387483,0.332176075,0.0076295695,0.1652913655,0.6450935584,0.4431250133,0.2265756902,0.6682871588,0.5884370423,0.691136535,0.2054863143,0.5402179888,0.4299089407,0.079981099,0.6150404451,0.6397349007,0.230004668,0.4604415292,0.3292718517,0.4237390838,0.3425593655,0.5745670344,0.3493172976,0.1097436725,0.5825667996,0.0612581576,0.4119508862,0.4224982518,0.5307478088,0.0893462568,0.0153139826,0.1461025193,0.4091348787,0.6663625343,0.1753060161,0.3043287233,0.2011893622,0.5735447358,0.4910517534,0.0758657882,0.5925918718,0.1361916889,0.2818481351,0.389983467,0.2460689127,0.2797078902,0.3428132404,0.3858503776,0.6060904334,0.4871321955,0.5467120847,0.4639892109,0.6327082881,0.4390649805,0.6762375921,0.0392879822,0.6706301451,0.3308297171,0.0697758135,0.0838188038,0.5771825437,0.026320732,0.2522654888,0.3958502547,0.0958152894,0.3039722686,0.3365020943,0.3209160996,0.5754035216,0.4928061345,0.0855442973,0.6719154595,0.4857880356,0.2012037461,0.6129227934,0.3325120923,0.4659964333,0.0146865996,0.4739802102,0.1282663384,0.0552181162,0.2278713895,0.1758890755,0.3936505182,0.1019425219,0.5098169372,0.2436489741,0.4682357913,0.0817351627,0.371054419,0.5451057745,0.7009051166,0.39402371,0.1315984966,0.2653256366,0.6549249957,0.2255200254,0.3687064787,0.0907060108,0.5846265724,0.5769465879,0.5596153302,0.2278650505,0.4430172363,0.3238044573,0.5988989273,0.1140336897,0.4266785661,0.3850141532,0.6976543298,0.50254663,0.0497302534,0.4235061924,0.6760245587,0.7083628484,0.1163513122,0.0761418034,0.5374006558,0.1282358037,0.2468353576,0.3471348172,0.7024071033,0.2691504853,0.4606027464,0.054024356,0.2585517483,0.2421398292,0.3630161517,0.6418116763,0.2752443609,0.2443057068,0.6946101597,0.6008537655,0.0561851624,0.3936567681,0.0504037797,0.5194621029,0.2450858831,0.1463004092,0.5730579357,0.6306064961,0.013503279,0.3450951463,0.1514291497,0.3616594363,0.3685293945,0.6184770678,0.0811267167,0.1601707255,0.4292487929,0.5297771937,0.0203572012,0.3038354071,0.4775900754,0.0378035626,0.6949954829,0.5927605173,0.0904213095,0.6861360431,0.6179803784,0.3893038268,0.1002150214,0.1863230109,0.5192615244,0.3646949816,0.5838725078,0.1431217383,0.5663464699,0.1215964023,0.0871954157,0.4269691067,0.2130580045,0.6332375298,0.0714835308,0.3608280387,0.2854994229,0.027775184,0.0206700607,0.1132010963,0.1892276688,0.5898971284,0.4656461959,0.676941662,0.1827398709,0.4809843666,0.6620379327,0.0755841784,0.4803101208,0.2271825418,0.6760935844,0.3587204893,0.0714578775,0.2946512864,0.3524529998,0.5283108191,0.6289182735,0.3734292023,0.5222688629,0.3726185905,0.538824447,0.7154122386,0.589456363,0.0218601109,0.1260422446,0.2526366361,0.2871960545,0.4816969509,0.3778779174,0.6597555009,0.2545474912,0.009715017,0.3948240974,0.5346303579,0.6770152923,0.4749456244,0.1037417957,0.273777758,0.2326095574,0.3262471107,0.140717545,0.1678323282,0.5837702286,0.0029543289,0.2755633354,0.5850693656,0.1370660969,0.5910366978,0.2259791343,0.1543006256,0.0369759902,0.0073493892,0.6396694724,0.4230366965,0.7103243091,0.4990433434,0.0340152387,0.5922966526,0.1036962287,-0.1035588706,0.2681630554,0.3690844609,0.6928010734,0.0861461042,0.7092516742,0.0422305245,0.2947933115,0.5586547244,0.2972550311,0.2280898205,0.2459446314,0.2378995215,0.6534780964,0.6986079199,0.676008698,0.418806459,0.5906577112,0.3851991528,0.5406059582,0.2489252944,0.1866907983,0.1970853995,0.7097732067,0.2797402306,0.5790184616,0.5524122983,0.0794809798,0.2359604014,0.4743384151,0.6868934834,0.1699087798,0.3089235435,0.5795068502,0.2179825993,0.4162365876,0.1016999287,0.3731682706,0.5385853612,0.0949476767,0.556435759,0.1413590362,0.0359129113,0.6052746144,0.521259338,0.5339703223,0.0419722745,0.0614175381,0.404184022,0.3864023182,0.5076220561,0.694267118,0.6561200098,0.2282294015,0.3704145766,0.6446090979,0.3220624547,0.595691743,0.5213841067,0.6570449909,0.5803319281,0.5799440708,0.2839778971,0.0685446276,0.1945624183,0.5166586495,0.027564554,0.4765087933,0.6640727314,0.4768268532,0.300613816,0.5831786006,0.4449304158,0.2230248725,0.0261136333,0.4171155166,0.4582232779,0.7137649304,0.5124298492,0.3961051901,0.5659806442,0.6275327404,0.6806825317,0.2689973382,0.5469566624,0.0393418404,0.4553607018,0.5908088861,0.659963952,0.3873119986,0.6891556949,0.1788225905,0.1111492924,0.6950325532,0.3861034276,0.6477146299,0.2149928571,0.275022449,0.2480812217,0.3488198175,0.2303037085,0.333942996,0.5336033888,0.305610281,0.0891923675,0.1624645737,0.5798452324,0.5782083217,0.3760672117,0.3204291072,0.4687810487,0.283317111,0.4140601339,0.1376080504,0.5776188721,0.5661926719,0.390525728,0.3852799875,0.1006118361,0.2716788502,0.0774165472,0.5132643566,0.1872989271,0.0185656837,0.2201688417,0.4869091517,0.2628583607,0.1743097671,0.4739150203,0.0906925923,0.4422528877,0.2934367502,0.6819594619,0.6598550952,0.1125728017,0.1049382808,0.3234751388,0.0482637139,0.0243277372,0.3636333948,0.0874918069,0.4982043437,0.140324114,0.51872869,0.2632215474,0.2232448835,0.648238575,0.6840298918,0.4509081974,0.2723248481,0.5521668781,0.100201289,0.0772795766,0.2433725543,0.2681731851,0.1736143596,0.1740183804,0.3592930269,0.053646961,0.6991991127,0.7053800581,0.4521875272,0.4211044498,0.4208311797,0.1216562817,0.5685053979,0.2990220289,0.1975790982,0.146140499,0.4776635709,0.1989079649,0.6421914707,0.54357368,0.4634610826,0.0625781676,0.4496251074,0.6119810542,0.0848434316,0.1188710181,0.4426407918,0.2054359111,0.5667551156,0.2270121342,0.5859355351,0.1633253272,0.2704303536,0.3372446822,0.6903012855,0.5807603276,0.0700592439,0.2742039745,0.403240607,0.6018360249,0.273576241,0.4669188053,0.4684662718,0.0042958436,0.1968366434,0.4910518857,0.663171835,0.3545694974,0.660095472,0.1771428929,0.7100765211,0.2949938594,0.6682514894,0.4509484817,0.1066678716,0.1904337946,0.09753443,0.5526382946,0.6751113142,0.5470348325,0.6378015463,0.667603642,0.148015606,0.1683701945,0.3211403439,0.4227819805,0.6233296029,0.5351776464,0.3224535162,0.5157594245,0.7000073638,0.621951546,0.1410998674,0.3263075595,0.3205557412,0.3559788554,0.1008746802,0.7128260732,0.2939309212,0.0919974902,0.1042450603,0.2473770732,0.1011197797,0.5093447769,0.2186216099,0.6848102596,0.3067073073,0.3348179229,0.5442494827,0.6525919694,0.0994802908,0.1351583961,0.5547713695,0.4784664255,0.0428850155,0.2524387985,0.5306308074,0.0146091627,0.1518562894,0.1398125957,0.4031728389,0.2177214452,0.5408779528,0.5785192841,0.324347283,0.7160123192,0.0232156303,0.5937288744,0.5689843495,0.4451486136,0.0512356432,0.0135098081,0.0967244257,0.3211152982,0.2863935388,0.5673220354,0.3550746137,0.3948805208,0.4216831812,0.6746292957,0.0738789789,0.6724811377,0.2911477446,0.1804540849,0.6894103396,0.545276832,0.0665513093,0.450567664,0.5991702504,0.6924091786,0.0366348825,0.358271214,0.4336431066,0.4445920116,0.3849629977,0.5672400992,0.2393699737,0.3083023371,0.3758395813,0.3627755463,0.6577705314,0.0703069518,0.2623962894,0.5135302775,0.1963520346,0.1357486912,0.5837373567,0.3594322929,0.6917627314,-0.0678240916,0.219164108,0.330920799,0.0500631207,0.0969207349,0.3846745615,0.6042100113,0.5714520769,0.4095999578,0.5970146672,0.2812328793,0.4505490423,0.3843699509,0.3750045654,0.2013057163,0.1645668349,0.045869077,0.677524928,0.5793081799,0.6511266681,0.3555633369,0.2562463269,0.3751992076,0.1489146534,0.3880055947,0.0240094369,0.2178483983,0.2492813037,0.2038316792,0.6040352659,0.260737126,0.6299342476,0.3822374833,0.7148909444,0.5104963117,0.2110618809,0.1908017445,0.1191327678,0.2495972355,0.2772715108,0.690287452,0.2153583508,0.6044458759,0.2318016509,0.6332970459,0.6149793116,0.2839242517,0.2988567948,0.1702608103,0.2078129275,0.7004459541,0.4180355164,0.1491058797,0.5558691813,0.6722811861,0.2717523047,0.4366776365,0.3223433958,0.3178677531,0.3622537558,0.4713011792,0.3587465981,0.6345025916,0.3708820111,0.498640179,0.1734530881,0.2565655271,0.5585329001,0.217783176,0.1756905465,0.3195021487,0.1771831801,0.6666329831,0.3754730363,0.2110573746,0.1769573249,0.0401378402,0.5583654872,0.6728601053,0.2201539792,0.2249417851,0.1241395123,0.5426846129,0.3341859222,0.6893689523,0.4601128262,0.5960977098,0.4963084341,0.1769902029,0.248175652,0.4853901543,0.1745008001,0.6581299581,0.4461469201,0.043842039,0.3954497984,0.2844358146,0.435439132,0.2949689447,0.3307042981,0.0941369802,0.2426783032,0.3623458324,0.5421691573,0.5364514157,0.6504863103,0.6733886969,0.6294788115,0.0481851923,0.3392356009,0.3912121962,0.3174080432,0.2667245995,0.2704976121,0.4317618038,0.4722500176,0.6126482264,0.4416113874,0.5915504314,0.4851767901,0.54810289,0.2459694606,0.6328082819,0.050640107,0.5953336876,0.1865109476,0.135783246,0.502881725,0.4991524475,0.2296237675,0.5333339295,0.5199942976,0.4931968777,0.4974941064,0.2670168653,0.6673967487,0.2043517309,0.4553734597,0.5129886241,0.1709415694,0.5079247338,0.301324988,0.0842758326,0.4671649939,0.0959698114,0.2389587744,0.3426331198,0.7111185414,0.5197889861,0.1711128385,0.6684919841,-0.1848912072,0.5211874546,0.6383438567,0.0587462019,0.1731397679,0.6787395868,0.5251171686,0.139469188,0.1795542742,0.686506346,0.2680857756,0.3769091792,0.1171957121,0.6983237494,0.3090316927,0.1877392762,0.679859964,0.2699226585,0.1727448194,0.223669258,0.0304331798,0.2625393657,0.2497242036,0.0499940088,0.4374690819,0.0206226951,0.0632741394,0.225485315,0.6717083908,0.6785676663,0.0127873122,0.1214036037,0.0117109012,0.5446331784,0.2019550186,0.0300848073,0.1215190389,0.3490608274,0.1088159497,0.1117610814,0.7027505775,0.2421232839,0.3413824505,0.3401759377,0.6563724538,0.0901864251,0.3801838547,0.5638765313,0.25929117,0.5120130091,0.2806440779,0.3365039448,0.3353187929,0.6286114438,0.4873328803,0.4622229555,0.2038043043,0.2641505707,0.2937327898,0.5561120441,0.5586439749,0.6741634584,0.3497922756,0.1804676822,0.7128346535,0.1591847287,0.0981498728,0.467350009,0.4564232679,0.4431210253,0.3685583191,0.2796282611,0.5453709548,0.2532115411,0.2522521119,0.0803274999,0.3669260562,0.5810489645,0.0289974039,0.6458208172,0.1915655097,0.5903689473,0.5355503916,0.1026392003,0.3880537453,0.5361785562,0.0310646165,0.1173286713,0.5533305925,0.3526085652,0.0151132874,0.6554929306,0.6458949095,0.5581924948,0.507105795,0.6086648466,0.3312609979,0.2266177136,0.0826218777,0.632380027,0.3378826144,0.3964788216,0.0489261302,0.4324133052,0.6178204169,0.3888534688,0.3602615359,0.4344715009,0.6667934866,0.2878758549,0.0825605292,0.5789050453,0.2362584197,0.4835773759,0.0315464723,0.4517657037,0.4329087026,0.3424127884,0.630896271,0.3834518002,0.4238287553,0.0242900347,0.44468634,0.4401600817,0.0413745149,0.1928230259,0.429945845,0.5997357836,0.2689222518,0.0507865407,0.6386730277,0.3513158634,0.1770287293,0.055931608,0.4077503896,0.4928538058,0.2290374012,0.5595604702,0.5761842758,0.2390968309,0.4684997926,0.3614573797,0.2718098761,0.3259536026,0.6071162068,0.0955179895,0.6010953103,0.302892147,0.3046954604,0.1806828007,0.7032906448,-0.090246672,0.522164332,0.1499917872,0.4947542921,0.0840369273,0.0944693986,0.4968748219,0.6741591402,0.5995872835,0.3319224924,0.650000684,0.6492766157,0.6899271047,0.1165341327,0.4004379141,0.6187841009,0.1915010927,0.2821302745,0.0458686538,0.6719772262,0.4888569115,0.3702209865,0.1368666478,0.2575683935,0.1691426925,0.6999343964,0.2463148222,0.6589076281,0.705898494,0.3912847746,0.6774530548,0.6153905764,0.5443157955,0.6639438276,0.1775751861,0.5931285447,0.272928147,0.0099078923,0.1186043348,0.0014621894,0.233252881,0.2147234177,0.5933656942,0.0887794864,0.7005040952,0.3007552818,0.502062643,0.1908152559,0.5542947087,0.6773004613,0.6203207713,0.5551610261,0.5236677592,0.5075040068,0.3990033705,0.0443883361,0.7088538134,0.6907552153,0.0127432907,0.2889669456,0.2383224538,0.3050158135,0.5064373488,0.5315694886,0.0843002459,0.2549454792,0.6068392875,0.2830804405,0.2291033843,0.3556170898,0.1796979363,0.6792571924,0.5036127774,0.0120332641,0.4966472862,0.4579562188,0.340183463,0.1185443753,0.0307058763,0.6959665493,0.2508534414,0.1045348198,0.2421161955,0.3143148808,0.4712246237,0.5934830166,0.5064522711,0.6147178945,0.2301771406,0.2608167623,0.5385374041,0.2435760444,0.4087341978,0.555607835,0.4003946573,0.3712719576,0.0584538536,0.4892089199,0.5882891626,0.6573440235,0.608257689,0.6106737148,0.6946395707,0.2056473716,0.0147155902,0.1965554314,0.0256903455,0.4612615533,0.5448514955,0.4837535206,0.7070114568,0.4417747904,0.1211480129,0.4015306112,0.1700606693,0.3764948589,0.0287058998,0.4648446109,0.4456329389,0.1564153572,0.6610976796,0.6011832189,0.4478814841,0.0133382128,0.4131480982,0.5944847394,0.1237799324,0.4624762415,0.6207037366,0.4518114671,0.0371178152,0.6773803438,0.2788669859,0.2804756411,0.6245088945,0.1071788309,0.5960312618,0.4649552373,0.5334946435,0.7152444941,0.0635106668,0.1199373356,0.3271606237,0.0971876692,0.2866921794,0.3396516144,0.0641788095,0.2249255211,0.298801688,0.4266224495,0.0070205648,0.2701895019,0.6059263714,0.3333959686,0.5379455879,0.4416059472,0.3338756453,0.5848328217,0.2884746597,0.4145686451,0.6962639209,0.187049673,0.2941542758,0.3213221311,0.3688516245,0.3288790344,0.0875396551,0.2153979458,0.3840322137,0.3103866437,0.4183397685,0.5313115415,0.4474784195,0.1746538085,0.1976581786,0.071951321,0.1609223655,0.6752909362,0.4973134064,0.5076134269,0.2590620433,0.41944515,0.6655862828,0.3844223801,0.3417452772,0.0135779595,0.5914569054,0.5791273449,0.6659878972,0.2179173884,0.5732688331,0.4956081621,0.6864384666,0.4190580627,0.6665457475,0.2241978052,0.6491603764,0.1801133761,0.3280351732,0.5994116556,0.1565596253,0.2153228897,0.094474184,0.5980894397,0.7116673459,0.4375375444,0.2311717025,0.0168192748,0.1760227245,0.6960797964,0.3485250342,0.0010465471,0.521060701,0.3633250539,0.3621895534,0.0010142532,0.1551294314,0.5473355115,0.2729652374,0.3899424931,0.1757369046,0.0385676169,0.4544322855,0.4685891728,0.5398579718,0.1076919889,0.2713251369,0.3408898858,0.0962565642,0.0316195758,0.6887134034,0.2765238934,0.0256541376,0.345203865,0.194245791,0.2928944662,0.0471165615,0.1728221244,0.6220069055,0.0512382867,0.2384587166,0.2209645226,0.5534604836,0.3244086336,0.2027252796,0.6733497354,0.330207904,0.6170541862,0.4764777788,0.0622022711,0.698579355,0.0777744946,0.4540864181,0.2609160657,0.6259153229,0.3241086078,0.4110535732,0.5195309018,0.3978550301,0.426126596,0.0899404778,0.5318561598,0.2299069914,0.379456825,0.4990565155,0.3859170454,0.2760320287,0.1115765461,0.4556020296,0.3505698448,0.5154864271,0.6143241377,0.1326644354,0.0023676087,0.5036727154,0.3231956581,0.187693808,0.0422384257,0.5787106681,0.3450541754,0.4867994165,0.0950911206,0.626461082,0.5928955707,0.0470097659,0.2561067977,0.6789476795,0.2189488448,0.5244032986,0.6065181687,0.6622644814,0.5592392389,0.7010528384,0.342312261,0.0007117642,0.4573801285,0.6212149129,0.3250994635,0.7151385788,0.3701372964,0.6981806603,0.2711454457,0.2781835575,0.1416760766,0.3479565611,0.4976493293,0.5659626336,0.0832708606,0.3119093773,0.4477822796,0.0037860066,0.2033846209,0.0484382727,0.0051534191,0.6958720557,0.3099158957,0.6473447072,0.3031445583,0.3622100032,0.6465915061,0.3181319507,0.4916037511,0.0666955691,0.6238537735,0.5849362512,0.1384945185,0.3198970409,0.679852143,0.114649731,0.0407734153,0.2307366512,0.143237888,0.6754204552,0.2916817833,0.6294017015,0.4735838337,0.3385070222,0.3334989465,0.7084820693,0.0557810938,0.602133821,0.7068191248,0.6252974623,0.074980179,0.0518371948,0.7117318569,0.5402152032,0.3742537557,0.1267500085,0.1981527791,0.0206984892,0.1683465603,0.5193381706,0.3617448827,0.1849600107,0.4722305419,0.4206144329,0.088114046,0.3500131838,0.1066080216,0.1262404905,0.6399808632,0.5329192613,0.0488286232,0.0555455683,0.3669977914,0.3193844305,0.212565834,0.57189387,0.6402084397,0.0730854033,0.1368176854,0.1415282171,0.672769717,0.2322731215,0.1522964093,0.0036214735,0.1452525017,0.5296946792,0.5324753696,0.6002739266,0.3644404248,0.0399967003,0.3339163737,0.600216047,0.2913618277,0.3929016989,0.4878718335,0.5009613528,0.3159991329,0.3367740851,0.6277447389,0.1486456198,0.5158899541,0.4473452997,0.0241502781,0.5386522996,0.5068419649,0.4218028085,0.0714648806,0.4043405812,0.6399144383,0.4734316611,0.3962597755,0.2133267069,0.5672667371,0.5877744768,0.5723114082,0.6430504574,0.2594953987,0.2718420699,0.5521816276,0.6107776052,0.1560266926,0.6813599444,0.6025663484,0.2013594605,0.2456546095,0.4873176396,0.2926540345,0.4306345196,0.555230835,0.3248665329,0.3456323292,0.1722109633,0.0495368861,0.5529889843,0.1406969734,0.1155182699,0.4686619489,0.1692050904,0.6012094418,0.1334085075,0.1267906687,0.1650360732,0.2436929548,0.2497983745,0.2576725726,0.3191595833,0.0646269502,0.3677690662,0.0142929898,0.0231388179,0.2234043838,0.1268364196,0.4255627001,0.5872223766,0.3861496774,0.3488148897,0.3057925545,0.1463085271,0.214773674,0.2243982798,0.2240862061,0.3899785747,0.2918885239,0.3587314318,0.1644283262,0.3340510399,0.4941387709,0.558727,0.027538983,0.6623809017,0.5658242934,0.4876655479,0.2717012724,0.3861040034,0.6224990691,0.1157437454,0.708348038,0.4134022244,0.0252262042,0.278754527,0.112398566,0.5844963288,0.5678044339,0.1338272688,0.7062622725,0.6790319192,0.4105261929,0.3313493289,0.3735805609,0.6231060419,0.2651149858,0.1873507447,0.5498747177,0.040575444,0.1312975395,0.3071592256,0.1937169011,0.5125338135,0.2568533052,0.5095421337,0.6943170149,0.2020074374,0.0074514022,0.3910947875,0.0607045157,0.3874462557,0.575527465,0.5029214423,0.634281133,0.1187238964,0.4099297091,0.245456919,0.0069281277,0.3961334251,0.6181722064,0.5940583725,0.3631530958,0.4299976638,0.5449507833,0.1739782773,0.5072827253,0.6939483239,0.7150830333,0.0679522089,0.609628432,0.7020063531,0.4117787039,0.0843627785,0.1971443549,0.059333456,0.4537310624,0.2134677688,0.2353195333,0.550679738,0.6887186329,0.4635267005,0.4793674931,0.3677564093,0.096706503,0.4605686488,0.3267695373,0.2558187769,0.3247563001,0.4279443177,0.1529448522,0.0071906864,0.0702323202,0.52815173,0.2446094437,0.7106202764,0.2519008859,0.2820074037,0.6037080963,0.0615384761,0.2835143323,0.3139490063,0.592861204,0.0473822892,0.5208092655,0.3820015806,0.2046925605,0.1957544201,0.6634028506,0.0816531123,0.0391230478,0.4075177316,0.4522460415,0.1069406945,0.2644984269,0.2115033637,0.6599813889,0.5718956521,0.0150102563,0.0954860143,0.4743386272,0.250458475,0.3961972219,0.0409677364,0.2824281699,0.2827989772,0.1109068816,0.2312775635,0.3658746329,0.4677113415,0.0767912993,0.1363009716,0.2178394711,0.2304320203,0.6651297517,0.4581269151,0.4461157034,0.4610618043,0.3773481369,0.2355885132,0.0930697893,0.4176315905,0.4066833748,0.5048940592,0.0440656365,0.3923981327,0.5258128952,0.1636057917,0.4779369688,0.6833270901,0.1083022141,0.4536055933,0.249310851,0.3149688611,0.1754898616,0.4080659838,0.0276297329,0.2976274428,0.0362614534,0.4775377582,0.662849959,0.5705019536,0.301871213,0.5878582151,0.2658482448,0.0268559505,0.1472531746,0.4842067414,0.009172464,0.0071903992,0.5029446965,0.4866117704,0.4737646238,0.1216830138,0.3835958058,0.6527129987,0.2277708687,0.2783578479,0.4614314769,0.0476243212,0.3787025771,0.1862857701,0.2219096496,0.0279506429,0.0107540771,0.6128412679,0.3613921382,0.56233021,0.0812107457,0.5652958037,0.1164555768,0.3703449884,0.6131606589,0.4871565278,0.1567028694,0.2002123638,0.355854081,0.2120086185,0.1029701464,0.0604075827,0.2873048447,0.5510210777,0.5927394865,0.2088658495,0.2890857642,0.5608211657,0.1377866834,0.2932033593,0.5390361899,0.3567708286,0.1401225387,0.5203103657,0.210244294,0.0559458351,0.6043623223,0.634800351,0.0960936109,0.3713904998,0.2886320405,0.5964623023,0.1226119704,0.0193767966,0.5920070924,0.0937689187,0.0190145261,0.4817263319,0.3334612389,0.5690306951,0.6678831289,0.5786536202,0.452901482,0.5488587415,0.7043593798,0.6934581033,0.5429132145,0.1841056884,0.7137940427,0.1978967312,0.1308855518,0.2024972767,0.1091045548,0.2458575409,0.0489333191,0.2742199086,0.2481509467,0.6660734231,0.5419334499,0.5300284604,0.3575869456,0.036301084,0.2130565082,0.3919176343,0.472758135,0.0380974532,0.7123638716,0.2063004363,0.6794878271,0.5263136137,0.2437948635,0.3274457347,0.6646469642,0.4143719199,0.5289121796,0.1919184381,0.5540167067,0.5865473929,0.2999987019,0.4355817205,0.6842797138,0.0990357482,0.1713903236,0.166602946,0.6878466043,0.0624119377,0.5416100985,0.5612543615,0.1416978901,0.3610075516,0.4545350366,0.566799457,0.6960082565,0.2082824813,0.477107033,0.0629203305,0.3776822477,0.0455912971,0.0850380264,0.0431043551,0.4991746886,0.1886818626,0.1692542382,0.0725430879,0.468618636,0.6226102071,0.0386562979,0.5600625912,0.0383138911,0.2391519789,0.6055901317,0.3940794656,0.1849382765,0.4899995035,0.0564640574,0.0227142998,0.5243860502,0.6278146285,0.155352517,0.6298100883,-0.5002015638,0.5620427223,0.2907231065,0.379128572,0.1624895001,0.137082742,0.1876019151,0.1842887974,0.082690027,0.5311910316,0.3987698181,0.4343502239,0.4825858198,0.261831268,0.5502258402,0.6331146047,0.2470437257,0.0136232923,0.0236036718,0.2818430799,0.3216560824,0.5666095113,0.427962856,0.5369169758,0.5749115022,0.1398305104,0.3398202648,0.1316072146,0.4145109461,0.6882077308,0.6503141028,0.5363755015,0.2223881616,0.2420670701,0.6780119079,0.1552562879,0.3481077897,0.0345226352,0.6939169773,0.0524266986,0.3177890872,0.5215905526,0.5568156201,0.6921670848,0.5076895083,0.521115544,0.5605047167,0.1692267911,0.000635714,0.1763991868,0.4257706609,0.6866133489,0.3011806593,0.0100689383,0.3104615922,0.2190704898,0.4227345723,0.6096632566,0.4720640582,0.241786464,0.5713561374,0.1163726779,0.0596620798,0.6358496555,0.5645699908,0.2723839901,0.6851292286,0.0677942968,0.5601680382,0.5544786427,0.1491976965,0.2951466502,0.5982426011,0.0123799464,0.1109930099,0.5640110357,0.128526804,0.35081155,0.1825085863,0.6384944114,0.0606965841,0.3236105786,0.4980470379,0.5246246652,0.6538295089,0.4959395989,0.0346654344,0.2440803408,0.4817314421,0.0429313089,0.5364019834,0.0803277314,0.7038408346,0.6363774402,0.4818896488,0.509969926,0.6102176371,0.5737965662,0.6710819619,0.5481156765,0.5519710097,0.4741217707,0.5698185759,0.0782113187,0.5395427009,0.6318552699,0.5804351381,0.009042672,0.6314524362,0.4007828908,0.4820059798,0.5151689719,0.215731419,0.5272426717,0.6777209503,0.3547160207,0.0091737821,0.0431396212,0.3350139672,0.626852435,0.1018433697,0.1508044649,0.226759477,0.2447878066,0.196123413,0.4054732308,0.4150553198,0.1693649982,0.5489535511,0.4701161769,0.6091898118,0.4378871554,0.2442457648,0.6656397149,0.3120786035,0.3137022251,0.0614611468,0.0070694523,0.3470290202,0.6357006725
   0.2697856528,0.4087363338,0.5620114644,0.4956296857,0.5562829712,0.5814621427,0.602687921,0.1087448878,0.6202121268,0.040031942,0.2306967064,-0.2063446926,0.5337900796,0.4206020365,0.6099693132,0.5284921089,0.043715672,0.4677213111,0.2905697834,0.4669375581,0.0132568156,0.474076916,0.0834612761,0.3064164522,0.4790278774,0.2695985636,0.472008484,0.5120366195,0.3381926606,0.3277761315,0.3614160873,0.2410127662,0.0242155895,0.7104007904,0.4660022482,0.1829208928,0.2340779045,0.4259820507,0.0826036723,0.4027279892,0.2690068898,0.5459004799,0.0010973676,0.2030240193,0.0891093841,0.4109693614,0.6724488143,0.022312951,0.4601168103,0.544187447,0.2090217566,0.5659380941,0.1358782366,0.3031890402,0.2236532486,0.5115129545,0.569501951,0.5275174083,0.2244219066,0.4228845513,0.6992954323,0.6477118761,0.1596656325,0.3105207196,0.2155001968,0.2558061685,0.0948368103,0.2074270667,0.2880600502,0.2308592779,0.4811743748,0.6727299928,0.126098802,0.5272971029,0.1983375591,0.6989189403,0.621306122,0.6947324505,0.1817807693,0.0920297551,0.0060092346,0.4911337872,0.5709068141,0.5583363397,0.0625839557,0.652397713,0.441953879,0.4966618896,0.0946580834,0.5410368484,0.5847787782,0.4591497765,0.6312594096,0.6664269172,0.0749790405,0.1972074142,0.2511435737,0.629245309,0.0865186804,0.270657054,0.3864203539,0.292513408,0.3625383591,0.2457616657,0.4967737453,0.4381831124,0.4604622858,0.1393156605,0.6910384048,0.0170605863,0.0647664046,0.1746595037,0.3191878533,0.2712663206,0.4992674448,0.2565220452,0.2109026702,0.7137017269,0.6695259225,0.4024016813,0.1685272123,0.6733877911,0.2448308845,0.5123092894,0.5211389159,0.4673912367,0.6196523499,0.1164439244,0.2087230304,0.2212058661,0.085487426,0.0706245801,0.0086833599,0.116548077,0.639714608,0.069046752,0.1978763925,0.4368886212,0.0314671675,0.4884510521,0.3751567811,0.4849507551,0.3371288929,0.1288721812,0.0691845967,0.5820530139,0.2427833035,0.6061860972,0.1941640957,0.3345890126,0.5120073679,0.2487245621,0.2031454326,0.6130704302,0.6113527216,0.0220731066,0.3890513377,0.4459834247,0.081087885,0.4726962099,0.0908589468,0.403096591,0.5573445739,0.0064206877,0.03647234,0.4169688131,0.2414274791,0.2947948298,0.0508957873,0.1774678914,0.6723196848,0.0333586712,0.649761087,0.1499601021,0.3742409242,0.6113760408,0.3757203338,0.6142289822,0.3219172509,0.1760140387,0.3157476126,0.5733495319,0.2186943064,0.66698301,0.2873200561,0.0309887775,0.7062146229,0.6885911936,0.6278801344,0.3643212491,0.4239493237,0.5465461508,0.3884710123,0.4574786366,0.1073124786,0.6216193598,0.2744921632,0.2253409588,0.630579186,0.6789599468,0.2317434023,0.5097242864,0.338659061,0.317861743,0.6450905221,0.4899603828,0.5673771316,0.298110149,0.2646949674,0.5029529716,0.0549489166,0.1301753307,0.515766888,0.6378996808,0.3957921686,0.1096473619,0.5886229002,0.3807891501,0.0772349014,0.0597452007,0.6310398778,0.3483146862,0.271765395,0.6935418286,0.1244473856,0.3932020892,0.4020037758,0.6408497451,0.5811974316,0.1001346402,0.261776961,0.4038503363,0.5765778577,0.4543907089,0.166023824,0.1864098171,0.4430528444,0.665093826,0.1309856579,0.6486396538,0.5839562019,0.5654466942,0.4984689864,0.1725651784,0.2272259204,0.2315206281,0.133569965,0.6986570338,0.63531915,0.7012847554,0.5195893603,0.481633671,0.5968591712,0.4697985105,0.5868143885,0.3089651438,0.2753755905,0.5352518389,0.0289200603,0.2967221918,0.1950230992,0.4630171049,0.128603387,0.3694114999,0.547122995,0.2946084917,0.4696449934,0.0729852511,0.5795069282,0.4497779107,0.6595575544,0.3107257591,0.5978258228,0.1775911565,0.1359688541,0.148325349,0.3625076969,0.5861058668,0.4438731994,0.4813847016,0.5544068861,0.3700179286,0.3808402601,0.5188784104,0.48947533,0.1981699763,0.1478339228,0.4487094806,0.1420073436,0.2092768448,0.4895746427,0.2724035945,0.128934333,0.2023833432,0.5817190578,0.0726295392,0.3727901702,0.6968400718,0.1996565359,0.6538408985,0.0880100823,0.0734942231,0.4609599567,0.3236686553,0.2485747352,0.034035955,0.3539440159,0.187771914,0.106074147,0.6660812498,0.0162449987,0.4821752151,0.225420434,0.1937328261,0.4727577619,0.1972044716,0.1511351787,0.6789072181,0.5852142518,0.4893507559,0.1547806542,0.6773661282,0.2807257896,0.4429160946,0.0105705357,0.592063586,0.3906178945,0.5276137173,0.551931023,0.7142234673,0.6255232065,0.3782734204,0.388626444,0.7130759153,0.4298254633,0.4540471425,0.161657488,0.3112764709,0.3366586517,0.2573604216,0.0703437409,0.512341229,0.2105457695,0.0656348839,0.2783095215,0.1106777329,0.3303843829,0.0969600088,0.003636982,0.1678177081,0.5589244572,0.6808734017,0.5348189925,0.4732546816,0.0270396622,0.4605911018,0.007390179,0.5354891271,0.4087561046,0.621819128,0.6246149098,0.043063558,0.3455906401,0.6918302476,0.5377638119,0.103400993,0.4631189924,0.5393801503,0.4597930896,0.0283107739,0.6548515761,0.5137936433,0.3701693022,0.327844978,0.6723540634,0.3535460056,0.6937090234,0.1240901964,0.5006599831,0.5437655162,0.6052243547,0.3825308084,0.4600500863,0.6554469708,0.4600842975,0.635614485,0.4988929412,0.0676443483,0.1323242464,0.1122118432,0.2084775301,0.3845232751,0.0551903143,0.0573441425,0.3138221971,0.4470683978,0.1276143277,0.5433193399,0.589954859,0.4728754275,0.5000613077,0.5759566955,0.5649855131,0.6491301189,0.1652575388,0.3283245269,0.0357070579,0.4920946019,0.6352397507,0.1065758215,0.386591141,0.670535627,0.1402607811,0.2468992355,0.6793919379,0.5323551915,0.5253455575,0.6983834216,0.5031084229,0.6535150648,0.4635001008,0.3927441451,0.645649371,0.0808442585,0.0675017959,0.6821214955,0.324011496,0.0648021408,0.264428113,0.4211808415,0.1434587614,0.4797790896,0.5521025324,0.2051447851,0.0618115586,0.3319725476,0.2528000602,0.5040438293,0.4913124174,0.272206433,0.0038641932,0.3758849348,0.2324697127,0.4817011439,0.0362763627,0.3719644829,0.1996862014,0.5757452807,0.7053746987,0.7099802873,0.3445420363,0.2091619551,0.2755206867,0.1769400777,0.2380967692,0.1299334879,0.6455251762,0.3600574785,0.3203988199,0.4451299518,0.3909115499,0.7046969995,0.1167477586,0.1836824633,-0.0943258642
##end
biasActivation=0,1,1
[BASIC:ACTIVATION]
"org.encog.engine.network.activation.ActivationTANH"
"org.encog.engine.network.activation.ActivationTANH"
"org.encog.engine.network.activation.ActivationLinear"
