encog,BasicNetwork,java,3.4.0,1,1750015546300
[BASIC]
[BASIC:PARAMS]
[BASIC:NETWORK]
beginTraining=0
connectionLimit=0
contextTargetOffset=0,0,0
contextTargetSize=0,0,0
endTraining=2
hasContext=f
inputCount=150
layerCounts=1,31,151
layerFeedCounts=1,30,150
layerContextCount=0,0,0
layerIndex=0,1,32
output=0,0,0,0,0,0,0,0,0,0,0,0,0,0,0,0,0,0,0,0,0,0,0,0,0,0,0,0,0,0,0,1,0,0,0,0,0,0,0,0,0,0,0,0,0,0,0,0,0,0,0,0,0,0,0,0,0,0,0,0,0,0,0,0,0,0,0,0,0,0,0,0,0,0,0,0,0,0,0,0,0,0,0,0,0,0,0,0,0,0,0,0,0,0,0,0,0,0,0,0,0,0,0,0,0,0,0,0,0,0,0,0,0,0,0,0,0,0,0,0,0,0,0,0,0,0,0,0,0,0,0,0,0,0,0,0,0,0,0,0,0,0,0,0,0,0,0,0,0,0,0,0,0,0,0,0,0,0,0,0,0,0,0,0,0,0,0,0,0,0,0,0,0,0,0,0,0,0,0,0,0,0,1
outputCount=1
weightIndex=0,31,4561
weights=##0
##double#4561
   0.1943015047,0.0994869958,-0.2381946019,-0.1978360634,-0.0020871699,0.0185012319,-0.0081350776,0.1918346059,0.1079291464,-0.139519772,0.2609711857,-0.2236645717,0.0745858209,0.2477003291,-0.1909161939,0.3312435327,0.0777586412,-0.2968033564,0.0234302902,-0.3233660651,0.1510776097,-0.2416035164,0.0608118178,0.014245966,0.1419235297,0.2707193127,-0.0081032446,-0.1786168724,-0.3376211422,-0.1346092116,-0.1424810839,0.0801852736,0.6215761851,0.254548122,0.4167641355,0.3829602422,0.6614476381,0.4715069332,0.4050164302,0.3350438253,0.5308341853,0.2824335879,0.3261088633,0.6963019393,0.027327429,0.5638799574,0.245751525,0.2999638173,0.3083198109,0.4116728766,0.5869853186,0.3056231787,0.5424676955,0.5917506462,0.6099339742,0.4048537988,0.6437091791,0.7120192474,0.1472158293,0.7023272147,0.5743139771,0.7159498367,0.6875668775,0.2893135307,0.4344768621,0.4336425201,0.161121231,0.5182084929,0.0802595061,0.3288544233,0.1447796103,0.0071582528,0.5156247491,0.1621001297,0.3670440568,0.0984683622,0.4135320243,0.5046160269,0.5026521906,0.7040837162,0.425894043,0.6817628791,0.2751061399,0.2065662946,0.6646741468,0.0115096262,0.347958249,0.5539453755,0.3131162419,0.5695248087,0.1690797833,0.3199360104,0.4221353987,0.3944325145,0.1527393529,0.5635140375,0.3368348891,0.171029613,0.5162252811,0.2397620669,0.6765900601,0.0724819237,0.5743810187,0.0535899267,0.1277518452,0.1946180606,0.2945637469,0.2045079072,0.7158560118,0.1761428213,0.3682697776,0.2617171198,0.4405419995,0.6001500298,0.1898414101,0.1392341248,0.4419164392,0.1634885241,0.1652273379,0.6624347349,0.1440549589,0.4258625506,0.5952060774,0.1459542444,0.4285093303,0.2280629841,0.6460965186,0.5401897619,0.1314647948,0.0228956621,0.5321298811,0.3509716791,0.0110922912,0.268911408,0.5953311179,0.5216006167,0.0503266415,0.3114126778,0.6505358112,0.0525329427,0.5588169663,0.3773343302,0.0940969121,0.1288476151,0.0057270768,0.0072764074,0.1392800323,0.4642756464,0.4051594476,0.6301650767,0.2219517737,0.2754849811,0.3480075486,0.1039245595,0.0371779739,0.3708782244,0.0124426052,0.502180755,0.1478583977,0.0255727268,0.2357588006,0.6447820315,0.6149398321,0.0054632386,0.2383030018,0.3966433482,0.3116796911,0.239428695,0.3001384123,0.0299754972,0.2001712076,0.3979169738,0.3085388631,0.4680943725,0.0256823493,0.1017717198,0.564734243,0.5526616468,0.1605158067,0.3795018233,0.4545079714,-0.2032752431,0.265173815,0.0825244767,0.4709018965,0.3994300986,0.0517748581,0.1891355625,0.6235178786,0.5594523344,0.3857243478,0.6354126188,0.1104902642,0.3234372932,0.0285372919,0.4350323041,0.5510510522,0.5552354516,0.5079273617,0.552691857,0.3555658438,0.1268215096,0.0191725038,0.3720362191,0.5060962545,0.3392756207,0.396248616,0.1304539243,0.5789878785,0.1341617171,0.5430373293,0.2225579495,0.4862013422,0.3881038251,0.0720233447,0.3151729074,0.3779901903,0.1128474344,0.3293490218,0.4387786434,0.4874821263,0.5683360903,0.0061555874,0.4611824764,0.4501044525,0.503679457,0.3482311595,0.0405986853,0.2020295973,0.5496396833,0.5799365499,0.3767596803,0.4781341289,0.434726591,0.7053627236,0.0781555647,0.348635109,0.5842219098,0.4660252774,0.104362953,0.267052839,0.5442977536,0.0834653065,0.0137815719,0.6856781828,0.0547668171,0.5568357621,0.1321159964,0.0500154073,0.2481630039,0.2696394305,0.5019237051,0.0525075566,0.3221072369,0.3164424789,0.6519751979,0.6285707728,0.3001827428,0.3778011547,0.1325690716,0.5726840036,0.1484358044,0.2406965585,0.1465611313,0.7086821989,0.0464053245,0.1628878679,0.1379051417,0.2107911202,0.4476463409,0.0471802556,0.5520751204,0.2828793297,0.0640551128,0.7001546157,0.4642945621,0.4482932722,0.3412783593,0.125280566,0.5547791073,0.6791240084,0.1946881812,0.3452658594,0.5263232318,0.0996543714,0.2795040471,0.1869757523,0.0097587986,0.0721389681,0.3159855327,0.1762566503,0.005961057,0.3378822038,0.6429333129,0.3990227932,0.2593089317,0.011384615,0.0368572589,0.2214070131,0.4218025983,0.0524589618,0.5335789694,0.0666079073,0.6085620415,0.406156596,0.0774806323,0.0333829132,0.6560369952,0.2934509841,0.53425785,0.0987488917,0.4355606877,0.1097759996,0.4601220474,0.5625206349,0.1460160044,0.0465942905,0.4891689941,0.000997697,0.5760026303,0.7135752721,0.2929729603,0.0686595685,0.042291886,0.4172664217,0.4501646189,0.1691736289,0.1962521825,0.2433816477,0.3318082082,0.2118915488,0.473747768,-0.1539719994,0.2653275801,0.0988171856,0.4298190273,0.3090095106,0.562848742,0.520163553,0.5720956136,0.5805571308,0.2432946059,0.3370089799,0.335765688,0.5602443251,0.5467261765,0.4294473688,0.6549422483,0.0051659256,0.0320686884,0.5419218227,0.2753266685,0.0508366428,0.0831824777,0.5734344153,0.2033314289,0.4789426073,0.1481084923,0.4402452338,0.2576009007,0.1068327128,0.1291410756,0.1800711161,0.6004907481,0.5168523961,0.6260133716,0.2472627211,0.2826624241,0.1623930842,0.6177635027,0.2665055525,0.3741607601,0.4241600287,0.1363641813,0.4704785301,0.0627216792,0.5239064498,0.1826265916,0.2225898653,0.4572058822,0.5692607347,0.0706417065,0.1932192416,0.5156442343,0.2662990047,0.0862584238,0.3650251507,0.4712128463,0.1221817702,0.2227855366,0.2043650239,0.532980937,0.2019117029,0.6176769254,0.2489412626,0.3074743442,0.6551741882,0.205850552,0.0350211885,0.7014937207,0.4260118762,0.5566829767,0.2243018218,0.6322361984,0.3498205409,0.4858253853,0.6049499852,0.7038941874,0.4344221507,0.017016119,0.5215282718,0.5205449554,0.653809757,0.0927478381,0.5072078398,0.4852082046,0.5450400222,0.208531798,0.3729904544,0.5019970445,0.2464854587,0.3263893375,0.5522147569,0.2151700678,0.3583154491,0.6077103857,0.5155300599,0.4245809579,0.3262408256,0.3643186779,0.5512596889,0.1485966075,0.4408860518,0.6066383453,0.4973216272,0.3372432056,0.2651851265,0.3194179696,0.0656492109,0.4066783786,0.599798584,0.1030510684,0.0655002219,0.4960613583,0.0858017671,0.7052078794,0.1149122105,0.5479081485,0.4250691594,0.6032121679,0.294574153,0.359344607,0.2223665758,0.4568286492,0.4055924413,0.1780826184,0.2949707104,0.0351625979,0.2524120264,0.1181037942,0.3160313559,0.5136107677,0.1701539141,0.5155588991,0.4593535341,0.3659775572,0.5428433534,0.7083139918,0.2989072425,0.6971689166,0.0036472881,0.4130969392,0.0332710256,0.0689926142,0.1171307362,0.5814124694,0.3132182145,0.2103650247,0.6286806183,0.3409960517,0.5797928696,0.6544529342,0.4479504869,-0.531530929,0.1566545952,0.3329279806,0.2336722946,0.050926224,0.159858585,0.3695175229,0.3209183802,0.0237470433,0.3664385374,0.1824762632,0.0912414101,0.330033766,0.0744954102,0.4905548212,0.1126567883,0.6633103431,0.2873714109,0.249152646,0.5937336246,0.4403308695,0.2043547495,0.4232179039,0.6314048896,0.1081285046,0.4675356669,0.6580675521,0.636080425,0.1849344309,0.2308637796,0.2684413358,0.5721124539,0.4174084766,0.3368493233,0.5332541885,0.483952606,0.3556066249,0.5366037636,0.1918007248,0.5199114404,0.3725919434,0.4532356223,0.431280435,0.2982660319,0.4641910113,0.576042035,0.4196731552,0.4440058351,0.0241445596,0.2029368235,0.3845439185,0.2084887472,0.4365225888,0.3108201002,0.0980122678,0.3152619616,0.0693400371,0.6625581254,0.2262863413,0.6037996866,0.6544179369,0.4819283017,0.0646266203,0.6509641209,0.0501355491,0.0678822386,0.4948392874,0.0229002825,0.2108727851,0.3148317034,0.6094549883,0.2940864381,0.4344453732,0.6975128308,0.3492948225,0.0650012055,0.0005046568,0.6212321262,0.1413670698,0.2419254582,0.4106532385,0.5599032989,0.1504360801,0.4071458516,0.0923756765,0.35745143,0.2157990779,0.2608316013,0.04423927,0.4534946749,0.1954319571,0.3195248669,0.3654593373,0.1530036934,0.2017314117,0.2998417549,0.2952964302,0.3635364585,0.5663566226,0.4980736261,0.5195500073,0.4678217279,0.6027126651,0.2551951721,0.0457155835,0.2707075903,0.2205368987,0.0553702877,0.0549995118,0.6123419742,0.2606374499,0.3939916812,0.5376557337,0.697342045,0.1582604843,0.2691559051,0.1213084734,0.5819984914,0.6196224012,0.1094179954,0.5736372098,0.000449103,0.6070692705,0.0879471369,0.2775653641,0.6377253022,0.5867971162,0.4644583416,0.11211881,0.5384319902,0.0544717027,0.372953725,0.5009328619,0.4929866254,0.4989647536,0.3632183431,0.4193248775,0.6090689616,0.1238944619,0.3921433601,0.5642683683,0.4709276315,0.0900053276,0.3842056039,0.1464580836,0.5170371248,0.0025037627,0.676124798,0.5893329007,0.4136679896,0.0164798424,0.0904985545,0.2602131946,0.5842164785,0.1903722241,0.1827874888,0.0454376664,0.3886709697,0.644798177,0.4710832689,0.6823984755,0.5270796731,0.5335891958,0.1659012923,0.0356121377,0.1661418111,0.0297259142,0.6934633586,0.6236870873,0.1234563968,0.0270188264,0.2809031929,0.6433560838,0.2913711639,0.3215007385,0.0345747556,0.2292348362,0.4824930528,0.6676610784,0.0991238397,0.6587017103,0.3346209255,0.0377502909,0.4318573734,0.4432056107,0.2285847714,0.6337055917,0.4147943393,0.0660979911,0.0994063419,0.5162916298,0.1543687335,0.5561254656,0.0903149895,0.1014404526,0.2594854159,0.6618656253,0.2265790045,0.1848994787,0.5159129522,0.57888619,0.3183581601,0.1650448447,0.4000909831,0.2296001971,0.529031518,0.2457111342,0.4870847196,0.7024639236,0.6487459489,0.1861553735,0.4827006588,0.2730038129,0.1248576336,0.412323704,0.2576225245,0.172846361,0.026525432,0.1514949551,0.2493966538,0.0719754294,0.6604692498,0.4086254106,0.2868867532,0.2847041045,0.6321495989,0.6510260726,0.4937776687,0.0105000073,0.1253917861,0.3244524007,0.5639444706,0.2599263376,0.3472636976,0.6752237468,0.3772590923,0.2741035762,0.5681290118,0.0712810114,0.6002248836,0.1493353951,0.4370854526,0.5967199513,0.3143189388,0.574336384,0.5508268839,0.3077394741,0.4276408659,0.2058283614,0.091882845,0.4265996477,0.1487079565,0.4993305165,0.1977604261,0.7058081973,0.1112266875,0.3267040847,0.4442118053,0.4305833828,0.4271752876,0.4948919113,0.6983435241,0.6461080024,0.3766261639,0.4091788891,0.0593045237,0.2471566957,0.0776915298,0.3473204384,0.0764830211,0.5316914226,0.6138457649,0.4685286443,0.3815095891,0.0411544371,0.0144622739,0.2650978402,0.330038368,0.3681846442,0.0120352598,0.3847989258,0.7159533811,0.5281743608,0.339686917,0.2660243103,0.4961772401,0.3154746625,0.6181558113,0.4496188812,0.0405318949,0.0369971075,0.4770032229,0.713577725,0.5164961514,0.2484053184,0.5531043053,0.2875251744,0.3443306083,0.319731736,0.5792979769,0.311773878,0.6387936085,-0.0868193327,0.1007734101,0.0827231668,0.080734504,0.5473224337,0.6671266096,0.3259756219,0.0726058233,0.3064661643,0.4494158576,0.2632345562,0.1920230919,0.0599644542,0.3468768488,0.5718717015,0.6690054902,0.4439720675,0.0169213157,0.5608101414,0.4902644633,0.1156347508,0.1687569235,0.5300304727,0.4087832987,0.214341743,0.5768983895,0.1667388857,0.6681563904,0.5233409694,0.2229430267,0.2106137365,0.1344648409,0.6627580576,0.0935130791,0.2538498558,0.0305037564,0.5710578825,0.0435276597,0.3277012061,0.2949162058,0.0599631724,0.2305439012,0.3717843881,0.0028895465,0.0672259809,0.5314671763,0.3439984882,0.0432341775,0.5972028327,0.706711569,0.5465328293,0.4200362573,0.3354319067,0.4572420162,0.0433751416,0.243452325,0.4704988312,0.4332939271,0.4638956721,0.708585115,0.0597422138,0.2709579165,0.3031250186,0.4872229399,0.60417524,0.3141398207,0.0511862608,0.592682029,0.4317887243,0.3342194972,0.1082932153,0.2474366202,0.0426501233,0.087186573,0.0575533839,0.3540669576,0.6396240424,0.0730032518,0.3431460387,0.4207340255,0.6584762072,0.3552420971,0.2013485068,0.3978688243,0.3426542633,0.4334979465,0.067779382,0.614077974,0.4879769115,0.0252393224,0.3796186099,0.2475340322,0.3687448611,0.0198217591,0.4379275948,0.2579814726,0.2416740976,0.5308277709,0.4772941978,0.131715841,0.5438316589,0.2152893682,0.2070835696,0.548651282,0.1423907176,0.4076340981,0.6212501116,0.361830793,0.6806479253,0.4088872449,0.2981288099,0.7124183146,0.5503179124,0.4212776741,0.583536883,0.5769590424,0.0636716237,0.1904895286,0.0664298458,0.5187655928,0.2818916226,0.4363354753,0.5380832249,0.0894598405,0.0202801349,0.056005107,0.4156287672,0.2082247028,0.6374976587,0.4156865851,0.2540530566,0.5063181619,0.3146611847,0.0211801646,0.4744449822,0.4834679899,0.4097883515,0.522401136,0.2015472801,0.5145617402,0.6609987531,0.0967524739,0.2592891694,0.5614382057,0.1664505394,0.0273861812,0.6083412475,0.5573790976,0.4285762976,0.5183764651,0.1397087188,0.5357779842,0.5552803936,0.3645586848,0.5617270754,0.3436648131,0.1589532857,0.1908851467,0.1149015154,0.2552527367,0.1177230199,0.3105516629,0.4337548736,0.6094634974,0.2155841981,0.1931348436,0.3593959152,0.7068376145,0.0034136782,0.02802127,0.1605181089,0.5415230872,0.6669936209,0.0604877351,0.6212299721,0.1339976791,0.5636330033,0.213196838,0.5454216831,0.1177830677,0.5994915468,0.7053834429,0.0389694137,0.4467552429,0.2693854608,0.6137311325,0.4864844101,0.4177273269,0.0126148236,0.3818188592,0.1414761345,0.4019835313,0.0995618562,0.1526696899,0.6105489166,0.4898827798,0.6607751031,0.2043848178,0.0084641203,0.166789869,0.6250931043,0.1977987776,0.4468096469,0.6513591672,0.1313052619,0.2338338785,0.3344980715,0.3054663358,0.0031769547,0.6849915239,0.6974898351,0.4188269942,0.3432513137,0.2823452755,0.6421461456,0.0066756118,0.400003934,0.6123836531,0.3944411918,0.106858541,0.2384421085,0.3454459153,0.2632383974,0.6659449898,0.1726691231,0.658714924,0.2183346024,0.4517066305,0.6818167065,0.4413205664,0.0081190821,0.7019000669,0.4505468346,0.596314061,0.4552036615,0.4950868647,0.0676623955,0.267953484,0.5705728557,0.2671303674,0.1175098361,0.3374910362,0.6308826055,0.103744665,0.4369628483,0.5844574925,0.6866399776,0.3980982223,0.2976686391,0.6928079136,0.1819998944,0.1507183644,0.1742186461,0.3454538592,0.4406255731,0.0786481376,0.5483847279,0.2663851114,0.2705713544,0.4660066817,0.2889718888,0.0378544761,0.2461552469,0.6249341326,0.4660906445,0.2153663471,0.5968780723,0.0230974966,0.1106324607,0.5598701851,0.5027964765,0.6862779551,0.43878211,0.0963621657,0.1108947541,0.5608786039,0.1332360923,0.7159358067,0.0419402405,0.5412260229,0.2701191143,0.2971887434,0.1085574428,0.4312359337,0.0351603667,0.4829091545,0.6758546858,0.6174934161,0.4393290754,0.4626196974,0.6988584094,0.4908564298,0.4650522762,0.644331872,0.1966710743,0.3682475177,0.4419448982,0.6769387952,0.1845043893,0.3750806081,0.3008932284,0.4059875742,0.6977396004,0.4743840744,0.0452650091,0.4076955153,0.3726504116,0.5472472242,0.0826342756,0.1009923835,0.1816281673,0.2848061254,0.6619720407,0.2393220749,0.0250213944,0.4862939905,0.0455892773,0.4278569469,0.1306703864,0.5444664291,0.3147908018,0.6318925487,0.6686582765,0.3645437464,0.0149550391,0.0745493919,0.1728303773,0.3016184026,0.6488172517,0.0774225711,0.3359471383,0.2656799778,0.6003731198,0.082903934,0.7067144696,0.3562448758,0.4152507002,0.5781083986,0.3599865081,0.158735682,0.6650807007,0.704918879,0.6598226962,0.0694056513,0.2790113771,0.0213921184,0.4113635079,0.3462290739,0.2031691355,0.0170543506,0.6953338844,0.676603169,0.4567257597,0.3264694456,0.4014553602,0.7059503969,0.5826674941,0.1158737397,0.311963461,0.1390383596,0.5750695004,0.4940904398,0.2661148354,0.055958917,0.3981033414,0.7058885555,0.2782492416,0.6114086932,0.2508158466,0.1898579591,0.5903539669,0.5096118414,0.5516202121,0.1500973858,0.3649203913,0.3760572621,0.0517106829,0.2796532381,0.6380029093,0.3816524148,0.2858425975,0.5150468084,0.4929106123,0.4286405959,0.3973944263,0.0997698242,0.6622630139,0.5075883261,0.2908260995,0.2132038949,0.4615247092,0.3499468397,0.6661939256,0.3741023468,0.1127135696,0.382721603,0.0367454667,0.5284667246,0.3973487369,0.1662478915,0.6671000236,0.0744495241,0.4540169921,0.2437706158,0.0790091545,0.2061487351,0.3747501615,0.5618996401,0.4801687829,0.0671282228,0.6227989411,0.465528178,0.3995187105,0.0259013713,0.1370914543,0.2347433448,0.2433875776,0.1885547543,0.5038532493,0.5808449669,0.2992096927,0.677641153,0.4629806759,0.2628726734,0.1402697351,0.3491457001,0.4961709669,0.4042545728,0.1068981501,0.4629714987,0.6047112726,0.4013687494,0.0248825477,0.5623447406,0.0547259523,0.5594006502,0.2528867674,0.3088885844,0.2043092836,0.0112152351,0.1223213905,0.2620319314,0.3117627493,0.5383920131,0.443025171,0.1285359959,0.5666116572,0.1845645462,0.1019025732,0.1886883661,0.4023197082,0.6152945514,0.5103557291,0.3315766528,0.1677162508,0.5519108469,0.6743029101,0.4333833504,0.0110131381,0.3664594317,0.3906350443,0.3452019689,0.5015643179,0.5120896614,0.6740910969,0.5104006764,0.4143313734,0.1069228477,0.2751857669,0.31511375,0.2032671166,0.5310067036,0.0848141022,0.3863855129,0.6853579948,0.331697197,0.2883401294,0.039207978,0.2881675905,0.2124088768,0.021710579,0.6631676146,0.3216039876,0.1013902673,0.0935373414,0.3444934745,0.0390712107,0.2978481155,0.169912639,0.4424524758,0.6853936454,0.6253594834,0.674442486,0.422672,0.1704516375,0.6851769156,0.0326784414,0.2762640248,0.3376963734,0.2577451053,0.7041317667,0.6303718675,0.5119284907,0.0496295949,0.5105251231,0.0740205926,0.1054243227,0.0109624986,0.3506841597,0.1372146697,0.4859520975,0.0882039032,0.0504273227,0.4866699162,0.2451100568,0.3367286136,0.412252178,0.693538161,0.1593489057,0.0496836097,0.40665955,0.2386443414,0.3641474082,0.7090349815,0.031041581,0.2898312409,0.2589534058,0.4476113257,0.3247793197,0.5293245662,0.0544872011,0.4570812145,0.5376213585,0.6586065916,0.6030091611,0.1471367417,0.3803943145,0.0495932632,0.7158627623,0.3609248694,0.1198905271,0.286851694,0.5586124994,0.463969641,0.4887914605,0.0318846831,0.2485977874,0.4988792558,0.5848512664,0.5223598264,0.2653631183,0.0317452508,0.0632032699,0.4100532035,0.4086269263,0.0927729756,0.2290032448,0.3652440982,0.1198980468,0.2356840125,0.5364770452,0.1244416556,0.3561706995,0.2507183121,0.0550475773,0.3934908478,0.6674898,0.6934144133,0.0016828179,0.1164985144,0.1787300676,0.1271931352,0.5239026298,0.0384383656,0.0850226166,0.4900157298,0.1965693199,0.3179999166,0.5785389342,0.1941819001,0.0868549526,0.5084961752,0.3876176169,0.4593983367,0.3683742286,0.4304810604,0.4888889398,0.3120753465,0.3508687325,0.3456705382,0.6797858885,0.3607742639,0.5396112769,0.5191966325,0.0200340926,0.0420358146,0.4802964545,0.0613160352,0.2573108654,0.1354858004,0.0660903805,0.1558145427,0.4644832947,0.2208136505,-0.3924914196,0.3451484744,0.0865286856,0.6572446695,0.4438272861,0.224187667,0.1215698031,0.3555243063,0.0134921083,0.6995375895,0.3179079446,0.5512822234,0.4508145681,0.3302876577,0.1876794697,0.6232926191,0.31499444,0.5391730409,0.0194555769,0.686192408,0.0011522944,0.1061913415,0.0839797472,0.6086730487,0.6849035591,0.4848741081,0.4542271516,0.1706419446,0.2227408879,0.3774674595,0.451219069,0.2162332546,0.6835983628,0.1325358697,0.1487987916,0.0147108149,0.524517082,0.2280392539,0.7127270804,0.3504556674,0.2193529435,0.5290237997,0.5966659883,0.2294240965,0.0585515315,0.5096374034,0.7042433342,0.4970225742,0.59345412,0.6118097561,0.1322627094,0.3350733291,0.6650484814,0.6923604913,0.2421184613,0.0069386839,0.3159195988,0.3615563246,0.2885616603,0.2469842279,0.5572976363,0.1027323341,0.1927954638,0.3524212604,0.3762670012,0.1147556649,0.249765188,0.4706218498,0.1658929842,0.2177129575,0.587258303,0.6882917565,0.0088456599,0.4002714107,0.3335620432,0.0834585505,0.3650672947,0.0499507827,0.2104367116,0.2941177481,0.0319301244,0.5883006995,0.019873011,0.6073542453,0.3460373419,0.2722112937,0.5859432705,0.4093745711,0.4761412155,0.2919579501,0.4269929933,0.1764392425,0.5829831497,0.2524415117,0.4766539769,0.5682567184,0.2148376756,0.6026631918,0.7011402366,0.088103672,0.0623324991,0.5829521567,0.4271568582,0.0884826894,0.4467491509,0.6118759072,0.7028293586,0.2945764284,0.6435919795,0.4869849806,0.0661101072,0.2853972717,0.1026866943,0.3343216206,0.3144366365,0.0498922068,0.5564041817,0.2418276467,0.211461095,0.1795975257,0.3612249899,0.4241100181,0.4255122397,0.4899906641,0.6403804895,0.6319085032,0.699792137,0.0135400833,0.2896631353,0.6540299106,0.1457028145,0.2756017667,0.2536935822,0.0436224191,0.0058470345,0.4573942354,0.710726695,0.7037307941,0.080713693,0.4343003167,0.0360611089,0.6697707546,0.3449293646,0.348569327,0.3053968175,0.4585510277,0.4369244706,0.2497004224,0.1968380239,0.4955802671,0.1746204288,0.5373542485,0.3086378904,0.4604731731,0.579143809,0.5748241841,0.509354944,0.0830037147,0.0379670488,0.688243241,0.5757062318,0.6352577598,0.1274432096,0.3091656477,0.2141962691,0.5692243742,0.569772572,0.5844393843,0.3272763108,0.211819562,0.022978332,0.2937017495,0.1599132867,0.0050218688,0.4698280494,0.1431270499,0.0534329165,0.1494137422,0.5459392666,0.3858246718,0.0719958274,0.3104262548,0.5875174177,0.0128442096,0.6197876265,0.0176192906,0.3710147884,0.0175798855,0.0318504284,0.1965461765,0.5504622274,0.4591406184,0.6886400556,0.302812933,0.6105259776,0.4339759187,0.3565673939,0.4314956198,0.3225925078,0.6363972558,0.2502792013,0.6906510607,0.3541031931,0.6909370751,0.2699530374,0.6559188281,0.5498529784,0.6133224767,0.4982272992,0.5351587656,0.4456478571,0.1433053646,0.6637040342,0.2284507424,0.2187974479,0.6542060386,0.2772774126,0.1215953205,0.4999892641,0.6374043827,0.5645527864,0.0105653098,0.6888666088,0.0766274861,0.4695109022,0.3687009339,0.2401958927,0.6720668641,0.3787152508,0.5538359249,0.0029369294,0.1736435764,0.2650269827,0.5141455852,0.1393058532,0.1792478643,0.0254957501,0.3297557676,0.058062384,0.551741911,0.5606460015,0.49713767,0.2081116693,0.1236219032,0.6611630281,0.2768020871,0.5722148601,0.2887968418,0.3650046646,0.372542923,0.2609875505,0.3533134016,0.7065204135,0.257113363,0.1045934485,0.1689190978,0.3116363962,0.4423394384,0.4795041631,0.0400091578,0.6700883653,0.0755142628,0.4781107075,0.4204496191,0.0141019272,0.2336906595,0.1422893282,0.006705675,0.0525678241,0.3377955227,0.2913651831,0.0089191413,0.608586221,0.3531892714,0.6647818393,0.1318076853,0.484522196,0.3615604013,0.237337009,0.3238367446,0.1132470042,0.4143941749,0.3257239175,0.2364183796,0.5515260332,0.2312616516,0.5653954136,0.3675022086,0.3910218412,0.564130815,0.5914784294,0.2087000582,0.694007703,0.1049929722,0.0251862064,0.6829290403,0.2490572768,0.3937690405,0.1788009344,0.107664252,0.3029179633,0.3616997825,-0.1245387035,0.034476781,0.6731655364,0.0294026618,0.5024227354,0.4698104565,0.4947969451,0.5108303683,0.0786088158,0.1248679453,0.6402949845,0.0717508579,0.7052701609,0.1125728016,0.1112664206,0.0424543649,0.2766966222,0.1933018154,0.4365088492,0.2735460592,0.5007830898,0.2468723395,0.437562776,0.4565941216,0.6797999241,0.1372179517,0.2466617836,0.131377112,0.3531014219,0.2757161792,0.6682816217,0.514715039,0.1151792618,0.2493099542,0.5208024538,0.3996675459,0.6160301082,0.5198623993,0.0298710611,0.3577064163,0.2507790781,0.562830583,0.627884603,0.3677959695,0.5282595806,0.1463559863,0.4809528122,0.4161871716,0.6092162423,0.3434291961,0.5521577247,0.6343122873,0.6294365474,0.5084137129,0.2302028611,0.6581740266,0.3381511265,0.2517421942,0.555897876,0.0203648272,0.075115431,0.128486928,0.2727171934,0.6008338608,0.1476377158,0.2901850082,0.4151609425,0.4748581291,0.5797916614,0.1666043261,0.391085929,0.1607859673,0.2187634042,0.1816451503,0.0897368577,0.4408231697,0.2297008216,0.7117864022,0.0329545826,0.7049719337,0.4974276854,0.5125143983,0.2721524431,0.6954560109,0.5596504834,0.5178034421,0.6464286157,0.1381721812,0.0144598501,0.1160087244,0.328809159,0.52568694,0.6066491627,0.0616196362,0.0787250394,0.4197386171,0.4787933681,0.0883695822,0.018446447,0.6480435974,0.1923268408,0.2190463535,0.4434375179,0.3282082232,0.0679175964,0.2429543932,0.1844180383,0.2806189254,0.1344251238,0.5193258442,0.6125361383,0.1463652679,0.6134637197,0.3468965918,0.2285650581,0.5920079313,0.2022594172,0.5197902261,0.1555074907,0.6110910124,0.4131446065,0.5518652472,0.0298527517,0.1950918624,0.6667087051,0.2136928113,0.3404469538,0.4321246389,0.4667374785,0.1503598162,0.4177710321,0.501401435,0.4336008562,0.0325974809,0.452579011,0.611884713,0.097879331,0.6353383494,0.5329988335,0.5188943645,0.6848262283,0.0878461057,0.4040704206,0.4950257692,0.4302732947,0.5921367349,0.3601041926,0.3508729128,0.4776345424,0.507564253,0.6644577742,0.5041213031,0.575036926,0.3851310647,0.5576369022,0.3186062279,0.4757110491,0.6793493704,0.2479645094,0.1407605096,0.5612521533,0.5187506628,0.5450122815,0.1153127999,0.1493233588,0.0152797737,0.0125359968,0.0878089464,0.4439742457,0.63475587,0.0282677944,0.5544566132,0.1101053997,0.2766127331,0.590028847,0.5998530084,0.0935165707,0.587460329,0.5813480594,0.1106651496,0.6065670311,0.0508442462,0.7040836437,0.4861640854,0.4831446487,0.6686348302,0.6245387448,0.2031503994,0.1514401978,0.1573318555,0.2409969243,0.7044393641,0.0079678656,0.5710325154,0.3233530231,0.1861215776,0.3701427038,0.4866318035,0.4532594717,0.6272733827,0.4967103555,0.6101466952,0.1030557717,0.6258839615,0.5432076177,0.1949987391,0.3862912325,0.2427340331,0.5592022621,0.1230916003,0.6839219504,0.6400013571,0.0503182293,0.6062729811,0.3706143253,0.610342928,0.6856495453,0.5407568653,0.1154097933,0.4716028121,0.5622095441,0.6881268883,0.6553358444,0.2759213056,0.1765745643,0.3848190656,0.1098657665,0.0256618563,0.2621339457,0.1746926732,0.3117134857,0.5863349115,0.6751520048,0.4066928772,0.3406144114,0.0871718773,0.6168423483,0.1085556954,0.6249262802,0.2827446985,0.6383425594,0.1155639892,0.0423032035,0.1463172105,0.5679829847,0.5910415932,0.3313537663,0.4015963409,0.0848258781,0.6224356333,0.2297759622,0.2221984591,0.5678698317,0.465322134,0.135482357,0.1054651654,0.6467434832,0.6717648941,0.6215546628,0.2286248739,0.473971191,0.3546719657,0.6722705025,0.0202972625,0.6445696218,0.4645887148,0.275329039,0.4952601783,0.0841425966,0.1678268013,0.4597070986,0.6374223826,0.6065717641,0.4566776188,0.2537538533,0.3470364222,0.4127793231,0.662576262,0.5107323678,0.6564348254,0.4580994936,0.1980204045,0.218986401,0.6145534364,0.1321496216,0.0689629899,0.4998083562,0.420176288,0.3453939623,0.3800343587,0.4549848773,0.1215447887,0.4975776136,0.0282793622,0.2237596363,0.0646194922,0.3147493602,0.2656629913,0.4335845253,0.0920755608,0.5448368916,0.7094786115,0.2652941944,0.4715317722,0.3499916058,0.4500485111,0.3463159077,0.3137521107,0.6696941238,0.0788724945,0.679778022,0.044346168,0.5535902248,0.2776755732,0.3079708032,0.2914831194,0.6490983422,0.7083419857,0.5003020708,0.1132683452,0.4456239519,0.1309736981,0.2284746339,0.53834966,0.3122847114,0.6622514007,0.2861319812,0.1686746276,0.3315729352,0.6190065459,0.5140005016,0.0772646185,0.2577843268,0.5734107059,0.6653530379,0.637737535,0.5745870656,0.5823188108,0.3823048549,0.30728398,0.1444504134,0.1689909507,0.092612201,0.6223774899,0.6160376592,0.7103720719,0.056872099,0.6315259082,0.5981935124,0.042318686,0.5609371924,0.6577308722,0.1325119857,0.1914788528,0.0950162039,0.2058543919,0.3023973698
   0.5003821575,0.0828590259,0.5125972935,0.5686884223,0.1711875205,0.3086563725,0.4365022861,0.5842692065,0.5671603731,0.4275636795,0.2347369976,0.2197879243,0.0139681531,0.6210907786,0.1577230248,0.203815961,0.3111425129,0.5463072814,0.0481042224,0.513222807,0.1518098391,0.6496796829,0.037852258,0.4665159252,0.2667736217,0.0735142055,0.4556017279,0.1318770194,0.6664110167,0.5902110166,0.0166117305,0.4158947475,0.5187737345,0.5792132101,0.2631304853,0.5517313013,0.0503248468,0.3480604763,0.3772132809,0.458872501,0.3283311173,0.2418477586,0.4742427162,0.143881727,0.2968415516,0.1449570327,0.60785095,0.0250701927,0.3378481748,0.389391046,0.2732029555,0.0018356363,0.7105299834,0.0189673337,0.0155227469,0.5951539843,0.6064052508,0.0318472707,0.7060211063,0.6881207651,0.566015067,0.207297583,0.0511658055,0.0135300188,0.3522026502,0.3033836507,0.0911578398,0.4218346705,0.6108057796,0.0161360366,0.2125220876,0.324121858,0.1459078865,0.3168853927,0.3122783845,0.5684613942,0.3036225226,0.4090146705,0.3986264285,0.5921239412,0.4214171408,0.2037887192,0.6328270612,0.1487945852,0.5691735168,0.4182180908,0.4504578854,0.2260082416,0.2273543183,0.5372158408,0.3508521047,0.5416653634,0.1095209827,0.2390920586,0.4879785753,0.4620996164,0.1696300787,0.3452265327,0.2551118116,0.2903865197,0.1609434642,0.5119284641,0.0489976225,0.0531583596,0.4052269848,0.5718914517,0.2484595402,0.6929394228,0.0244690576,0.0003793265,0.6033302108,0.6610827973,0.277627405,0.1017009465,0.6310288929,0.148832402,0.1614622345,0.1988421673,0.0816492876,0.6696409971,0.1896850794,0.3390950892,0.2718632464,0.0779033329,0.5362457372,0.5288961899,0.6971096544,0.3374252358,0.5162532754,0.2688459942,0.6802054637,0.1704215267,0.4641098097,0.0935010569,0.1394515258,0.3401429517,0.4276446768,0.3097842062,0.131152609,0.6998766823,0.460698106,0.5820229633,0.1145108759,0.0980704732,0.1487351728,0.1630106529,0.3157154017,0.2285040861,0.1613168887,0.4988957149,0.3960764079,0.2978778488,0.3642085714,0.4478935525,0.4200641609,0.3960684555,0.3172707335,0.0455257815,0.6744613437,0.1062194587,0.2993025714,0.5295928811,0.599246533,0.3800473711,0.0934637549,0.1198555143,0.2459846101,0.6355687435,0.1528061067,0.4365133982,0.5944587983,0.5132330661,0.297013295,0.3631549602,0.4153113333,0.0027697635,0.022817082,0.2068306865,0.2108316867,0.3246465775,0.6477684818,0.1520592451,0.181380824,0.1408186672,0.6381783582,0.318938932,0.2211596305,0.5122591123,0.2343179468,0.0493255805,0.6968163772,0.1009263074,0.6586268048,0.560121606,0.0230775811,0.4627277156,0.490487834,0.590212764,0.1190226132,0.6033521982,0.2128078107,0.6616825932,0.1302145919,0.6408107382,0.6247892947,0.1519950752,0.5466702711,0.0695112109,0.3079686654,0.5185691293,0.4886682206,0.6454646506,0.3954840896,0.3004237397,0.3557725542,0.3809158575,0.3658228172,0.0641042213,0.130052438,0.6236433054,0.6430773249,0.4752496801,0.4983179331,0.5919160958,0.5670295088,0.0760921729,0.1780704997,0.3438889866,0.5507477478,0.3939293678,0.3281607635,0.0018767649,0.1751013771,0.2974912332,0.685915422,0.0027210247,0.6235757463,0.2747919208,0.6535037784,0.0264825838,0.6419744506,0.102079622,0.0039974781,0.0675318756,0.4244580628,0.4763743688,0.1008015237,-0.5594362579,0.295802074,0.0693437746,0.4665211525,0.0769361916,0.1912477558,0.3925387914,0.617880386,0.5356421509,0.2608287638,0.1860125868,0.20982134,0.1591093046,0.3842050104,0.4633821196,0.5495940337,0.2585775851,0.2555273023,0.3559773868,0.1483522001,0.0165762943,0.4387201488,0.6739939838,0.0154679996,0.3125134107,0.1271133676,0.024876617,0.2617041326,0.0274900804,0.6369135108,0.226327587,0.0893081153,0.2765677928,0.0231480961,0.4546599577,0.1168097266,0.2726378195,0.6704213688,0.1064347056,0.1605586633,0.2946952115,0.3584833341,0.6774985278,0.0359441346,0.5409346936,0.1378994689,0.371085126,0.1164815977,0.5587118518,0.6016600585,0.0749557107,0.4698081372,0.2325157362,0.5364074077,0.671975131,0.3485126922,0.2548249058,0.2746718527,0.6973671332,0.1503411751,0.5476564775,0.5791291983,0.2098002372,0.6624600642,0.5138399986,0.2224547192,0.3820966988,0.639947698,0.6958387647,0.4318978833,0.346078584,0.682112638,0.2562853203,0.4917195266,0.4367440784,0.3766675651,0.6430178429,0.3216521302,0.2797291705,0.4117244995,0.2684905899,0.1411298558,0.6416457714,0.1165799342,0.6097182097,0.2449147154,0.633467936,0.2525133841,0.4652602957,0.2999165896,0.1244649871,0.6717810329,0.5571090392,0.1987332103,0.2615900759,0.6855076088,0.3028075929,0.6924831676,0.4498126451,0.2569517213,0.1201841774,0.2031475398,0.662536976,0.6007301084,0.3402962716,0.2674846893,0.0051606556,0.5079753012,0.4155902062,0.4046407547,0.2834729644,0.6474674171,0.3474928642,0.5531252996,0.5376094691,0.3856760577,0.40442526,0.7140761215,0.6492422964,0.1775150958,0.4624240446,0.6696411002,0.4670326843,0.4616247258,0.5048894759,0.6532675179,0.5466251774,0.2707520406,0.1896497014,0.489171789,0.6966024189,0.0317651744,0.4830718587,0.4137464136,0.5438233061,0.132117909,0.083651518,0.1567462158,0.041458715,0.0079811825,0.0198386583,0.3813643187,0.654869964,0.5398379864,0.5913914155,0.5787015628,0.3941997775,0.2544978269,0.472496666,0.3510925542,0.530915575,-0.0161650788,0.2462666534,0.5847373075,0.3142798602,0.3777247364,0.2624943306,0.5165383231,0.1532653268,0.0601492351,0.5685570985,0.3525677479,0.6307747445,0.2158540786,0.5021475483,0.617676834,0.2461235325,0.2924146255,0.5295156687,0.1536877401,0.6450295256,0.3634479041,0.4887602316,0.5749649316,0.2985116518,0.5925896816,0.4738837898,0.5225735811,0.0059745971,0.4873957692,0.254650912,0.0403513876,0.1341678749,0.120120899,0.2454804564,0.3173096853,0.4697904795,0.1715686423,0.1753034158,0.1120527436,0.1507300196,0.7151240642,0.4200461909,0.3673948636,0.2351138371,0.6315811276,0.3329653281,0.595103771,0.2206833348,0.4986687393,0.2953771874,0.5278256086,0.6736996156,0.5166271376,0.5810995933,0.5898668396,0.5811899385,0.1594783267,0.591127104,0.1801347848,0.5396123474,0.6575218783,0.1691377492,0.1759180578,0.669937557,0.6259168651,0.0902023706,0.4147494633,0.5303471713,0.1650375902,0.231260763,0.377025115,0.5074849704,0.4426654806,0.2534524896,0.1717494401,0.1108567617,0.5913429243,0.0207461576,0.4506850028,0.5900847374,0.2472275401,0.3902836111,0.367589185,0.5630440254,0.6606722168,0.555802614,0.480178678,0.2034479136,0.3279328521,0.5223569576,0.7101829467,0.1195160619,0.1981004007,0.5771324756,0.4997826007,0.2582865673,0.3669201154,0.1023975878,0.5584237669,0.529257372,0.3029240727,0.1750382074,0.6836787981,0.4022564211,0.2322271574,0.4927052874,0.231946131,0.5396117209,0.6370011675,0.2405542608,0.1063075478,0.1055982299,0.3818529733,0.593261813,0.2005914534,0.2869009206,0.4796168952,0.2846237921,0.0516648004,0.3540082095,0.3251849463,0.0496186134,0.2514425041,0.0768535798,0.653741655,0.4951055019,0.5678474287,0.2489511911,0.5044634392,0.0285613743,0.3294529349,0.2041775087,0.5738257426,0.2699895611,0.6295343958,0.2864336123,0.1142437855,0.2512766789,0.054364382,0.1911233517,0.3476758221,0.0264223709,0.1940828735,0.3733141157,0.6961443162,0.4952382057,0.3330896082,0.5930829663,0.1455701582,0.1326766281,0.1842113145,-0.0440321079,0.601928102,0.6340842181,0.6904213337,0.5967851359,0.2969221221,0.2439179084,0.3008386674,0.182240084,0.1508947374,0.693375925,0.4909911074,0.2503424081,0.0036579072,0.5881995292,0.2745166379,0.5756046502,0.5050091024,0.5513445002,0.2726285772,0.7015879907,0.0920199581,0.0226426356,0.1757327709,0.4541600958,0.213774032,0.0697128484,0.0561246934,0.0842417456,0.4354291093,0.3319635021,0.363777447,0.0085559791,0.5684425542,0.4889059566,0.5874458613,0.0352884754,0.5191467673,0.0897334339,0.4786887015,0.4717535083,0.2153655567,0.4245854001,0.1584668347,0.5537957682,0.6708355253,0.1647047537,0.4726710201,0.0917321311,0.3179803496,0.4572211163,0.2220798343,0.0667102781,0.6744698475,0.6542216025,0.2947496351,0.4939020873,0.5582027358,0.6419047697,0.5009736935,0.0070706959,0.1051944327,0.6708517145,0.1139561441,0.3407667581,0.489554004,0.4915514906,0.1214768022,0.5533507282,0.6418978256,0.1800079735,0.5412729498,0.6628294301,0.0709099721,0.3269520305,0.217147272,0.654728083,0.7143798788,0.0402515822,0.6246856064,0.2452528616,0.4806286036,0.0223776959,0.5236508107,0.6681412373,0.3567410451,0.0867404052,0.4056111994,0.2290863191,0.6029188364,0.3825980266,0.2973124997,0.0481708455,0.3366572068,0.6649681841,0.4193799591,0.675743164,0.3861442864,0.4935379451,0.0225693741,0.5926685093,0.5521701411,0.4956958327,0.3051615061,0.0635318629,0.1304157693,0.4309610039,0.6377470972,0.00085331,0.5198567829,0.2428929188,0.2967424802,0.1594063408,0.5011195828,0.430641515,0.3762841399,0.5854489778,0.6175488518,0.7013298008,0.572527808,0.2128801059,0.0446536518,0.7129332856,0.3323442862,0.6827250421,0.1556374299,0.2764644988,0.0337208423,0.3186572429,0.6640874957,0.1586274258,0.0509492221,0.227332844,0.5307072463,0.3343258445,0.2238091629,0.6772859942,0.0324148797,0.5240270467,0.6721679353,0.5334702721,0.0354070651,0.0938398219,0.3995116168,0.6042209742,0.3317501664,0.0919368957,0.1571583241,0.1624349015,0.46305654,0.0440411519,0.1226893361,0.571923028,0.178506223,0.5875054721,0.618512519,0.1472192651,0.1281768315,0.6134774745,0.3039632155,0.6246092028,0.5540125912,0.0219495701,0.6462927344,0.2314989855,0.1259429204,0.3157905691,0.2910875271,0.7131896221,0.5975095035,0.3171485615,0.4971659397,0.1716424351,0.24071319,0.0840454495,0.0749771183,0.0846293862,0.1423808442,0.6065085718,0.0795831533,0.6402518571,0.4502288722,0.1666176003,0.5888452499,0.6657666917,0.4004226088,0.551341356,0.2553815045,0.5159794403,0.6195039602,0.6592969216,0.6337478938,0.6565757359,0.5845209689,0.3074442546,0.3642505235,0.6789836636,0.020889064,0.3509407722,0.5552118744,0.2457067091,0.4030040228,0.0292175066,0.6564597662,0.2456111781,0.7109461385,0.4637967995,0.693680484,0.5892894852,0.2264707275,0.0162825184,0.4491508434,0.3944548199,0.4766430015,0.4437383615,0.1033599011,0.2692289724,0.0699948248,0.3178005799,0.5628854364,0.0598231421,0.1177682676,0.3581833608,0.5193689241,0.4418520719,0.4422400556,0.6162156829,0.1566290205,0.474888866,0.3447826936,0.636462312,0.5742680247,0.2003837466,0.7089965722,0.679356218,0.0065286833,0.5179446681,0.5299047037,0.4870055438,0.4074571714,0.5567933547,0.3736890774,0.1110831277,0.3556145047,0.0637431419,0.2167390834,0.6779441866,0.5152891181,0.637749264,0.1381313165,0.2121675881,0.0129144345,0.533318346,0.1636221502,0.3165153456,0.1298511354,0.3297023856,0.3853909213,0.0545306473,0.2927976406,0.3336766358,0.3370034552,0.4598440011,0.6377391011,0.0159810763,0.60347317,0.0626840139,0.7101627887,0.251252255,0.521044461,0.5663173902,0.324729889,0.5145721491,0.0780798573,0.1268950776,0.0256827771,0.597767573,0.5088635188,0.145296538,0.2379060694,0.6977797653,0.5543783296,0.2686237038,0.5557159331,0.3013305187,0.5388239247,0.1765821939,0.5629289173,0.1785999712,0.1790401777,0.3103507558,0.4711353816,0.2159892571,0.3178196521,0.2991966616,0.6226973034,0.3717699779,0.2778047684,0.6534366614,0.5508085653,0.4998576232,0.0048751063,0.1711217188,0.3896980033,0.2222240581,0.1104603495,0.6127292185,0.0280182722,0.1154276804,0.0463799381,0.0286008699,0.6268117365,0.0157724445,0.5217358503,0.1662028802,0.3793448296,0.5518436447,0.5086696131,0.2359508883,0.0000560103,0.4632635952,0.132662439,0.1623297607,0.7118782667,0.0081172148,0.0360970165,0.1022065059,0.6305343924,0.4496471083,0.3855472748,0.6014438853,0.1157603843,0.247920037,0.7129739547,0.3279620116,0.5613181525,0.1997293595,0.1755445754,0.3062138362,0.2158883365,0.0228915962,0.1320427278,0.6354488367,0.5630818899,0.166147542,0.1301173972,0.3703609532,0.6290220093,0.666627594,0.6851666116,0.3297892287,0.1467927095,0.5964958369,0.6635786335,0.3726080613,0.362506815,0.360538855,0.663739019,0.0282812858,0.1335896254,0.691465365,0.4251333957,0.3304085692,0.470777307,0.5442063908,0.2110627985,0.0294963018,0.4359933006,0.5842775817,0.1063796136,0.3992104222,0.6074178223,0.0440037566,0.1311389081,0.3858560615,0.165381604,0.6285433965,0.6967198434,0.699752749,0.458906502,0.1429071012,0.4997409524,0.5731744771,0.3009373733,0.5911422287,0.1700685469,0.4090206444,0.6774772291,0.3526441599,0.615666075,0.3085911326,0.0517285494,0.6894958334,0.3676399568,0.2503732844,0.2926062803,0.434380649,0.5918156737,0.2312267353,0.2531724378,0.0709257732,0.1591812817,0.0866391376,0.6459002862,0.6887788441,0.2686849736,0.631806198,0.3006946748,0.348705062,0.0416659485,0.0444848232,0.0993059324,0.5155614185,0.520351273,0.2687541422,0.494117611,0.4307884109,0.3303791911,0.3220290817,0.4280106469,0.4857276451,0.2946257248,0.411438047,0.2136080544,0.2032749782,0.6643166398,0.6157676813,0.7032856007,0.0699266039,0.4286172404,0.6508701386,0.1870029452,0.2176973048,0.2949198713,0.2841958637,0.2159805803,0.2469967086,0.3804077408,0.4081424998,0.5786285041,0.1292146082,0.4463298012,0.6982113725,0.4999725431,0.6399363333,0.4231046889,0.6837955911,0.1990916287,0.6090841408,0.2795213314,0.2005040055,0.5590011246,0.3515763216,0.335704432,0.6167955116,0.3511787689,0.1885127469,0.6385134344,0.0018257871,0.1983578096,0.3981295558,0.7092728138,0.0304801775,0.1627931519,0.6121865712,0.2478781109,0.134975703,0.3333364119,0.7070456901,0.0127171715,0.0000297621,0.1445807317,0.1609263864,0.0459576116,0.19865189,0.6101372011,0.0365966908,0.1330717646,0.085491845,0.2984379863,0.5066836229,0.0842550324,0.1174032172,0.1115426097,0.0613746175,0.0883904214,0.24109821,0.0924619304,0.5519106279,0.3899553517,0.5510037595,0.3893269759,0.0718868262,0.0819663059,0.7155187275,0.4040315141,0.3823058001,0.3909003064,0.3720843197,0.254192812,0.1976037164,0.4587237164,0.2764119486,0.1159698889,0.6084404037,0.5083470395,0.0040735583,0.4943441886,0.1316382666,0.2098516194,0.1089476714,0.1935556554,0.7034964834,0.6386871461,0.5373756806,0.5000791397,0.3739778122,0.6386746241,0.4696884727,0.0028383644,0.4003429506,0.2268858315,0.2702402096,0.0537385272,0.4959279738,0.4042121266,0.0997923092,0.1162478394,0.2721254673,0.2626504238,0.5178058001,0.5288664831,0.3562283746,0.1067938265,0.3209672018,0.0236783503,0.5798234342,0.0512712386,0.0281295513,0.6040734651,0.1969196439,0.2851543814,0.5312219811,0.1013705031,0.6487942069,0.6623208598,0.3631360058,0.1829664423,0.4472941784,0.4857234986,0.4133000784,0.3087103861,0.5480840475,0.404943011,0.2805288065,0.5324924789,0.5128202422,0.2097301885,0.1888897092,0.5401756104,0.1896248483,0.4925943885,0.3762177569,0.5679012102,0.6706703833,0.4275008377,0.1176765624,0.2986455274,0.4908339064,0.6636445668,0.0523552745,0.5038682413,0.5018010008,0.1519625731,0.5386292359,0.2653588863,0.4333215914,0.6442623997,0.3413773241,0.7149336466,0.1362848328,0.0106966151,0.0105874261,0.4938690305,0.6865425072,0.2055373745,0.2556112666,0.1560438226,0.2463447458,0.5971178703,0.0121992673,0.3351833499,0.3020961117,0.5426124181,0.0028029069,0.3428242888,0.4104486811,0.5815223507,0.365916625,0.3622759169,0.0260704587,0.0935180518,0.5767298514,0.2136418013,-0.382671782,0.580680223,0.0835333312,0.2064965778,0.4024843938,0.1865401554,0.3797550366,0.6237896703,0.5021596692,0.0488817868,0.2905277518,0.2505307969,0.5009744079,0.5752545226,0.4774810528,0.0166019324,0.2282025867,0.2473879863,0.495877597,0.456526317,0.5481186175,0.126921859,0.6354505405,0.3797674768,0.0792814463,0.5660462229,0.0277476245,0.6295288593,0.5657691353,0.5294767591,0.1975868096,0.663375127,0.0108154325,0.3892813841,0.447219437,0.2280051211,0.1511805971,0.1742400493,0.1866639091,0.505597488,0.3369340083,0.1496498185,0.6884632221,0.1105477541,0.6145579423,0.4905521425,0.3075573186,0.2415736636,0.2886697731,0.6072517566,0.7144304271,0.2947232655,0.0452671419,0.4891898398,0.3229995516,0.4965266496,0.6245041418,0.6301710707,0.1366500567,0.056659755,0.450608466,0.2860113064,0.4711157801,0.4035901449,0.7092310382,0.310265881,0.289587121,0.5425831121,0.2671451207,0.5929842925,0.2030618688,0.2828238802,0.6507631467,0.2295778637,0.1230356404,0.4891422281,0.5215135923,0.5525623712,0.5214952848,0.2194780525,0.4924812624,0.6474360641,0.6393568357,0.320178047,0.436840602,0.2301804665,0.6417817874,0.2198250151,0.2884071421,0.268437932,0.6787249458,0.0199566635,0.3259841569,0.2168566172,0.4177346923,0.6999172164,0.2740273454,0.3872812814,0.4805657838,0.3249741392,0.1977824933,0.5489838101,0.0836779613,0.2982986488,0.3603887986,0.4817097651,0.1965400101,0.2143839952,0.2491792014,0.5786513632,0.0471916503,0.1436871865,0.7013324335,0.3745318229,0.5244082468,0.2976298904,0.3954403941,0.1483307252,0.3805145054,0.690787594,0.251780208,0.7003807128,0.4948404797,0.566403199,0.4547928218,0.3764556026,0.2541933046,0.265056311,0.487590542,0.2397812569,0.4390303123,0.2029290014,0.3100880186,0.0121960378,0.0034476821,0.4874996268,0.4011748995,0.0729247174,0.0737062992,0.5197121103,0.1470321742,0.393454141,0.7045634429,0.5434951211,0.1275160945,0.3267261431,0.4760281719,0.6722287192,0.3994089029,0.3525880781,0.0083693897,0.2494373001,0.1969736053,0.1570227447,0.3606300001,0.2088257655,0.5774381932,0.4683472043,0.5689311297,0.4571232957,0.1606427218,0.1631998068,0.2782137715,0.52720509,0.3904067665,0.2458632933,0.222241458,0.0539574865,0.6424038376,0.5720243346,0.6824915978,0.4135223045,0.7058758479,0.5574789807,0.0973095566,0.4709159998,0.4853346946,0.0028673372,0.687732544,0.5245833627,0.4665548861,0.1993799255,0.186728312,0.0220412704,0.0380497104,0.1381041908,0.4024120066,0.2437161345,0.2823055981,0.4659327354,0.7156650203,0.6446796884,0.3001618129,0.5023412268,0.1878835108,0.6674512499,0.2839820533,0.4811982201,0.2964703395,0.2801721002,0.2204997345,0.0014246136,0.4452918095,0.5680496695,0.227606922,0.0491037341,0.0805481649,0.4376156286,0.6448423615,0.4872497104,0.2490762974,0.104857236,0.1387791731,0.2395808565,0.3462036886,0.2312325407,0.5111513192,0.0721730239,0.414383611,0.0713528612,0.0402575469,0.4097629896,0.4929295502,0.6222802165,0.3042324807,0.3779218298,0.0366280296,0.1216170278,0.5141203971,0.3637901145,0.3455874432,0.1179501723,0.7071382594,0.5531758756,0.6524070226,0.1619092999,0.6306412889,0.3671939928,0.4559434639,0.4406205331,0.2801626935,0.6167433886,0.696235333,0.4308006216,0.4964976387,0.0608370637,0.1388350136,0.5469613056,0.1430783644,0.1048582723,0.7118236241,0.6804914154,0.6802692702,0.3059151386,0.3990822412,0.1677270804,0.0226345225,0.0494987922,0.2837594,0.3183865289,0.0170851109,0.2942980537,0.2096053201,0.1716674675,0.2165667283,0.0275598355,0.3670353453,0.4434574915,0.6747579494,0.3717076067,0.7083483265,0.0353767616,0.3076307008,0.0167540843,0.3439977955,0.0920774977,0.0581584182,0.1863092736,0.4977381407,0.0558387593,0.4306253246,0.0757024328,0.216489526,0.0378380126,0.418988168,0.0981459686,0.1276717648,0.5076415733,0.5255397176,0.1134553348,0.0537427509,0.0924110603,0.3705158981,0.2722631506,0.0249340034,0.3126605019,0.6002633586,0.2134038244,0.6252932587,0.4609767794,0.7136402506,0.2972107171,-0.3743079816,0.3912571622,0.2374938928,0.3743701784,0.3083122379,0.2942424273,0.1294957747,0.5566474724,0.1961725653,0.5953749582,0.6278412809,0.3703210235,0.3391193072,0.2150614107,0.0878353486,0.6518032396,0.575748402,0.0145173319,0.6394249541,0.6683471834,0.3862764182,0.6352171705,0.0939999732,0.5176077816,0.137168765,0.3655407426,0.1430439707,0.2613492669,0.3308030187,0.4759912297,0.1096962651,0.1097386115,0.5308194393,0.5743049518,0.3311852388,0.6352085547,0.2067690059,0.641125932,0.6622960311,0.0481002651,0.2141605812,0.0212666922,0.0879901611,0.3650954239,0.2199188611,0.261034663,0.5633061604,0.4412287757,0.0409289331,0.3088826128,0.3498167223,0.6621244251,0.6307289297,0.2684605448,0.5398852363,0.5397953559,0.6270807547,0.2844065326,0.5076933321,0.4671549837,0.0590774354,0.2889343335,0.45520185,0.3580372018,0.1761348254,0.1657095364,0.3131588628,0.1547131285,0.4707245133,0.2762930665,0.0706888755,0.3437149988,0.2529422048,0.071753621,0.1510459135,0.5900841191,0.4646245156,0.063938284,0.3445300913,0.5425728823,0.2884497731,0.1105578177,0.2581138791,0.2588972897,0.2516052004,0.5622276958,0.1396920581,0.2705548289,0.0462518571,0.4013358576,0.6535425176,0.6191757141,0.3031769377,0.1561845824,0.4841369114,0.0912407598,0.2044021004,0.0195113434,0.5380143811,0.5684534116,0.2253436561,0.5415156896,0.1411973374,0.5463464271,0.6690646852,0.0108339738,0.6212110408,0.2728908124,0.2791823253,0.4751832382,0.647129337,0.3932990624,0.4437822006,0.3418882008,0.2320605639,0.2395793833,0.6256248514,0.4912687014,0.3598553661,0.1018929998,0.0947385971,0.2432243288,0.3615413256,0.1640094418,0.2317897258,0.5724320945,0.341423442,0.6473187001,0.613626166,0.0592167468,0.3330608669,0.5532316694,0.3702548743,0.4393740382,0.5207501185,0.5655501098,0.2800517022,0.5028288506,0.3375131446,0.0551164242,0.1267680619,0.6955313875,0.5851048557,0.6881583935,0.0549659793,0.2006270821,0.0169819918,0.6658817442,0.4669245432,0.6306587697,0.1454917333,0.1576247625,0.6311602642,0.628061449,0.5324642566,0.1029719197,0.316374843,0.4638056744,0.5222613702,0.0441763836,0.0122482399,0.4578334708,0.3429611247,0.0656757024,0.6743691215,0.3612048559,0.5523516556,0.5422503368,0.571475742,0.4950653162,0.0155844191,0.0389906916,0.5179038158,0.4877216294,0.608239402,0.491492388,0.44530134,0.1704090963,0.1291831967,0.6567758152,0.0798596987,0.1694061827,0.1763552854,0.3495465556,0.6796917551,0.346118174,0.0429228836,0.0565515468,0.5008932674,0.3235240598,0.6100818465,0.327437173,0.4946923768,0.4225371925,0.5485344643,0.0066714758,0.3876061062,0.1834492291,0.1474477151,0.248318061,0.1918639339,0.3533550552,0.3493519154,0.0842985323,0.6836330473,0.0380294029,0.2522902627,0.5749519457,0.6944532771,0.6225587686,0.1387982776,0.2645820317,0.0344337945,0.6634216494,0.2189562749,0.3159297241,0.1271027522,0.1555245209,0.6977052604,0.4091652973,0.2037707127,0.6706207262,0.7118043137,0.0987886352,0.5207684466,0.0872656711,0.0034815953,0.1276043675,0.2271324522,0.6369844989,0.1768436899,0.6111488684,0.5193399575,0.0783601079,0.2587588989,0.5575829209,0.493941393,0.1967126022,0.7027363672,0.2524811143,0.1055763687,0.5374763455,0.1051931041,0.0335709845,0.2011930836,0.0119312591,0.5669453209,0.6531382914,0.4515459823,0.6953983333,0.6048169651,0.1640087505,0.6833375569,0.1251404702,0.0073354013,0.0948529392,0.4117019528,0.3779213208,0.4633771853,0.6014381341,0.1616545969,0.1386993869,0.3373970106,0.074550783,0.2954703684,0.6425125875,0.6419978112,0.2878970953,0.2728573806,0.3411769836,0.2361241653,0.6605181772,0.3402861635,0.2058507019,0.6998637495,0.5446248088,0.509055666,0.3717596174,0.1573473015,0.0311270169,0.0154054127,0.600905756,0.0163257848,0.6867233201,0.4156513389,0.5681721836,0.211286119,0.0209567084,0.1404498713,0.2653574859,0.3567878832,0.6272971709,0.4098628288,0.1039872096,0.5776368017,0.1367644632,0.067961405,0.2406629126,0.2225077008,0.5277631263,0.6360599352,0.2990460237,-0.4071955323,0.5908215946,0.3266345026,0.7011817106,0.6548944848,0.3026225472,0.1630221639,0.3873157739,0.2012496549,0.5001176639,0.62267564,0.1172018455,0.2320205229,0.6416506106,0.2925721448,0.6331182281,0.3300449047,0.5644750839,0.4350631525,0.3976417432,0.4731346015,0.0317209584,0.1329763281,0.6314376411,0.4655003748,0.4030161184,0.6314089724,0.041487115,0.4477610431,0.2394877296,0.7154448133,0.6576747856,0.7073847622,0.3288936932,0.4068808324,0.3251369918,0.3706261744,0.5680706145,0.690497758,0.4779855673,0.0624881963,0.4263964925,0.5598620787,0.4220647504,0.3848117965,0.5118047481,0.3394681586,0.3548647945,0.7089794989,0.0392425124,0.0379513683,0.2184270352,0.5656327942,0.5333023797,0.4299122127,0.1559581763,0.1810435345,0.3153279391,0.3802339179,0.5158995724,0.115768765,0.5233137366,0.0714710321,0.111136317,0.3917749761,0.3722999826,0.6672118224,0.2786449461,0.0264088574,0.0149895592,0.0216822027,0.1859822164,0.3725628752,0.0932905865,0.6655844146,0.5365769336,0.6344135122,0.5300565094,0.5625524166,0.0132024192,0.1281558399,0.5934568971,0.1911899297,0.1925964996,0.4736081248,0.1873858981,0.1347005052,0.537848825,0.5332415107,0.2476682008,0.2736252886,0.215565833,0.5252259333,0.5614000304,0.6459109243,0.6964361672,0.0112612021,0.5251456886,0.6627662558,0.55300623,0.1319466589,0.0540247036,0.2392452981,0.5678949975,0.3416380859,0.2741889415,0.4719188624,0.0907267332,0.3668599529,0.6207033356,0.2815163711,0.130115099,0.5553998206,0.4072409947,0.4717325891,0.4354063829,0.2213587972,0.5285874919,0.2627663712,0.3015115871,0.5202156211,0.2354327739,0.4852016411,0.4777479551,0.0597927084,0.2422090531,0.258721204,0.2085453251,0.0949320919,0.1409125272,0.3631442999,0.0568235659,0.3656711511,0.2829572983,0.4663644877,0.3725530266,0.4021771228,0.2436090895,0.4997558227,0.3313929117,0.6723985108,0.3219139742,0.4064543383,0.0020955429,0.1726208431,0.5289956652,0.554786386,0.3962148385,0.6948270359,0.700334521,0.6204418352,0.1385586941,0.2531065304,0.5325530461,0.3797721772,0.2583751923,0.5000622132,0.6146751874,0.1785417777,0.3365541626,0.3059968123,0.1441209929,0.3757780192,0.5436537217,0.666336133,0.566757397,0.5978689439,0.0909048346,0.5860052129,0.1115591668,0.4314684028,0.6089745561,0.1222724727,0.1798003518,0.1451753646,0.1698504214,0.6655854315,0.0126675793,0.4045132819,0.7155704058,0.522408339,0.5740255454,0.6758617575,0.1808573326,0.3288281207,0.5287161428,0.6535549046,0.3594091037,0.149587077,0.0289386139,0.6792340709,0.205969146,0.0978990301,0.3600248455,0.652150963,0.3486561117,0.2172206229,0.2239140081,0.0908806285,0.5533100566,0.0790453113,0.0849724225,0.1289400442,0.3327663133,0.1177283979,0.6491348426,0.0169845002,0.4501168634,0.6831818796,0.652406951,0.6512693218,0.4168553059,0.3026350424,0.2758020622,0.1012592365,0.0744073104,0.035731331,0.5050608347,0.4966594235,0.5999001777,0.5884650468,0.190894436,0.0508718599,0.2014159533,0.3306196686,0.626158029,0.0311952147,0.2010952468,0.0292579028,0.3728640703,0.0473155869,0.5289061013,0.0430016715,0.5180856857,0.6676445624,0.6246320063,0.0078114468,0.1156712692,0.378941417,0.437461061,0.2335879988,0.4305134907,0.176607426,0.274507808,0.2959194503,0.3688532983,0.3746054486,0.5614148241,0.5901912779,0.3251904537,0.4344471863,0.6467671059,0.6604995501,0.1278405417,0.4666769802,0.6727719931,0.1960756639,0.0056492937,0.1627205682,0.184700547,0.0093394634,0.662079767,0.6242369874,0.4423451645,0.0552442031,0.4327776963,0.0340119336,0.1431363866,0.1947452788,0.066140059,0.5307808651,0.3808988333,0.2008411608,0.2656032799,0.3361673748,0.7076612997,0.4381623059,0.5616348095,0.42775852,0.7134643009,0.5060563074,0.1293259632,0.5728412839,0.5435952216,0.4992350283,0.6667710807,0.4729068644,0.4330509056,0.6954073276,0.6878213203,0.1407705154
   0.1447257297,0.2965119863,0.4726912871,0.1542954539,0.6744885687,0.5083122206,0.4233584789,0.1640244719,0.6996259044,0.0579563131,0.0539532171,0.2263739098,0.6870583976,0.4361917412,0.6275564561,0.375893194,0.5339699339,0.4907002539,0.2947766845,0.2815662992,0.6051853567,0.7008939396,0.0189991251,0.7063374156,0.5335443627,0.6295956449,0.6369167845,0.0416966125,0.3626780434,0.2228028328,0.4404765108,0.2826272479,0.398538944,0.3502566083,0.5963062658,0.3224044777,0.0637808806,0.3546093759,0.15105616,0.4780467888,0.1274649405,0.0435796437,0.3771608568,0.1317405179,0.5958417194,0.4657611985,0.322014776,0.0023774906,0.2721758678,0.1800709845,0.1182078235,0.008544666,0.420667935,0.4325990889,0.6501020673,0.6570510867,0.3846655248,0.1063338666,0.3733099639,0.4679422286,0.3285190288,0.4013432615,0.5256650812,0.2258373251,0.5857021622,0.686184721,0.5322301667,0.0536354319,0.2332606717,0.4164667916,0.4978630064,0.3389612985,0.2980303103,0.1538165335,0.6187719615,0.1551610568,0.0366501529,0.3520984326,0.3049075292,0.4897266759,0.5773182102,0.6140412802,0.1050350402,0.3711816438,0.0263391268,0.3278233621,0.2827921691,0.2206975664,0.6789176373,0.4471264634,0.5718489657,0.1291539399,0.1732323092,0.6552203785,0.2088356491,0.4749366134,0.607904971,0.3532513729,0.2100287263,0.653756171,0.1391625274,0.50515525,0.544218731,0.3799892569,0.054789948,0.6781051211,0.3629320627,0.003670749,0.4328522921,0.4732716683,0.621336715,0.5121296747,0.637075068,0.0894624787,0.0620801096,0.1406725864,0.4323927604,0.0212424238,0.1011568204,0.7117735497,0.557863439,0.0793705774,0.3512464493,0.0845737148,0.0668870606,0.5076111079,0.3822120544,0.3191451536,0.0004266353,0.6133840241,0.2660848887,0.2330566537,0.5701821159,0.6909198819,0.1219817565,0.5991028575,0.2165623709,0.1850321557,0.3803385795,0.6967265282,0.0929488624,0.156968684,0.0628721118,0.5861839347,0.4391829411,0.084810319,0.4144172127,0.503009192,0.3428379231,0.4678547846,0.70800066,0.2414168087,0.2193349368,0.407058224,0.1894506353,0.3218427606,0.2570229699,0.3210848332,0.0891513103,0.2591341399,0.0345867569,0.4748032178,-0.0856842469,0.2755159167,0.0349992933,0.3977839977,0.1520756712,0.3482820287,0.5342752417,0.1095953031,0.3753625939,0.4100335027,0.1815907148,0.209183792,0.6404566427,0.5912226907,0.0307015065,0.5180681638,0.4959089685,0.4082691641,0.4372810783,0.3110492932,0.4707828192,0.0981065993,0.245321093,0.6594626656,0.3990861274,0.1204797636,0.391124641,0.2929426283,0.0805578476,0.4219783836,0.703297055,0.3118627883,0.4532757497,0.1804191439,0.3913803957,0.1059489916,0.4956377713,0.117322274,0.6156896182,0.0211272151,0.7152064233,0.0971683669,0.2646912451,0.0273554603,0.0804661175,0.5330235613,0.6461177193,0.6683020248,0.2500801532,0.7074750975,0.0899149377,0.1683976609,0.5423996726,0.079464924,0.5352641803,0.2881390667,0.1892727419,0.6505558041,0.2771990186,0.6980606401,0.2664619183,0.2808203638,0.2635845161,0.3886514844,0.3492998207,0.0122256363,0.1850017859,0.0204507995,0.1962456634,0.0456647752,0.6856813171,0.2955031555,0.448707642,0.3701311534,0.4730592084,0.376214063,0.1502722094,0.3648366587,0.031484322,0.1809984382,0.4013008456,0.4486516692,0.2490418796,0.0143929368,0.6331201304,0.2234745949,0.1210014394,0.4856401517,0.5598274666,0.3440310433,0.3363181528,0.0571229478,0.3844585031,0.1636202489,0.7052477271,0.3828611011,0.4474900209,0.2845999112,0.5984776651,0.6327198548,0.0579164747,0.4976322774,0.6052536174,0.526726078,0.5268652376,0.2697243024,0.4529572931,0.2668115055,0.3105782575,0.3530163546,0.5575782064,0.5596503833,0.3916093079,0.1790257251,0.1011552043,0.2132632633,0.0364396397,0.2817347883,0.6036886005,0.2159387234,0.282257391,0.4760700858,0.0630710028,0.1635935407,0.5027841481,0.6833765498,0.1946004599,0.4852946051,0.6011836902,0.5840851262,0.14232117,0.2370032362,0.2162152272,0.1421367134,0.188009368,0.0073556989,0.3150294649,0.3911760081,0.0538117905,0.1581090891,0.2156446345,0.1572116785,0.0771328362,0.4163110551,0.014557821,0.2254427941,0.0655135938,0.2618450695,0.3360695633,0.4653604833,0.3243267346,-0.0312643216,0.6683279484,0.4202086644,0.4299706983,0.0928105143,0.6184799673,0.5237589938,0.6498923966,0.2924787856,0.5840692657,0.3593493521,0.1921611644,0.1158058226,0.6004456173,0.5892434887,0.3808508252,0.3622714055,0.3883652764,0.1163620946,0.5681353599,0.2931749095,0.659581441,0.2667017826,0.7095129413,0.2939185078,0.5536136305,0.4983779139,0.3943015625,0.2216578636,0.1416572497,0.6457646276,0.6559692878,0.4423023635,0.0646137811,0.5534924285,0.2374288699,0.4001768032,0.1092499077,0.2121003673,0.5843588686,0.0283640836,0.6409226279,0.6737427464,0.6465945381,0.6450209409,0.1966411963,0.3823302147,0.3011907973,0.700669173,0.6998114918,0.6723564254,0.4202301088,0.023289107,0.5046754613,0.7023530544,0.481981117,0.1570259317,0.4157314451,0.5391700226,0.1715556566,0.2843654133,0.3073548542,0.4722036321,0.2375212071,0.5280667276,0.3025221426,0.3769444413,0.0170754659,0.2331455553,0.3427498401,0.203952023,0.4608249038,0.4590139303,0.5763168456,0.6907108296,0.6134508738,0.3562213749,0.3681683787,0.469303506,0.203877764,0.1948368789,0.3188103213,0.3312166833,0.1906648412,0.1852932035,0.2970813676,0.1845584204,0.3102662322,0.0907531902,0.5146020831,0.500429234,0.6711775196,0.4326687251,0.6892004472,0.6386229862,0.4703325028,0.6871773773,0.6549303064,0.4007650191,0.3935266732,0.6672026423,0.7088880996,0.4851999678,0.3157037544,0.2944608739,0.0845867395,0.3150789965,0.4502927211,0.4722641073,0.6626480432,0.3310832781,0.1104644978,0.6216687333,0.692810151,0.6034131321,0.6791609956,0.1679024129,0.705476234,0.1552065306,0.1357257268,0.3472224671,0.6121390206,0.1190480293,0.138864292,0.6377987627,0.222975769,0.5135257421,0.672057856,0.6659553118,0.4359776222,0.3687547997,0.0683868525,0.3108232252,0.0148946654,0.2227645916,0.7120524401,0.127181292,0.2692331322,0.5123941936,0.5094179572,0.2014335432,0.1309479203,0.3863574821,0.010928641,0.5437721754,0.5626682124,0.4307221509,0.681917947,0.1699363721,0.3510818926,0.1175264749,0.3615448454
##end
biasActivation=0,1,1
[BASIC:ACTIVATION]
"org.encog.engine.network.activation.ActivationTANH"
"org.encog.engine.network.activation.ActivationTANH"
"org.encog.engine.network.activation.ActivationLinear"
