encog,BasicNetwork,java,3.4.0,1,1748898843437
[BASIC]
[BASIC:PARAMS]
[BASIC:NETWORK]
beginTraining=0
connectionLimit=0
contextTargetOffset=0,0,0,0
contextTargetSize=0,0,0,0
endTraining=3
hasContext=f
inputCount=600
layerCounts=1,26,51,601
layerFeedCounts=1,25,50,600
layerContextCount=0,0,0,0
layerIndex=0,1,27,78
output=0,0,0,0,0,0,0,0,0,0,0,0,0,0,0,0,0,0,0,0,0,0,0,0,0,0,1,0,0,0,0,0,0,0,0,0,0,0,0,0,0,0,0,0,0,0,0,0,0,0,0,0,0,0,0,0,0,0,0,0,0,0,0,0,0,0,0,0,0,0,0,0,0,0,0,0,0,1,0,0,0,0,0,0,0,0,0,0,0,0,0,0,0,0,0,0,0,0,0,0,0,0,0,0,0,0,0,0,0,0,0,0,0,0,0,0,0,0,0,0,0,0,0,0,0,0,0,0,0,0,0,0,0,0,0,0,0,0,0,0,0,0,0,0,0,0,0,0,0,0,0,0,0,0,0,0,0,0,0,0,0,0,0,0,0,0,0,0,0,0,0,0,0,0,0,0,0,0,0,0,0,0,0,0,0,0,0,0,0,0,0,0,0,0,0,0,0,0,0,0,0,0,0,0,0,0,0,0,0,0,0,0,0,0,0,0,0,0,0,0,0,0,0,0,0,0,0,0,0,0,0,0,0,0,0,0,0,0,0,0,0,0,0,0,0,0,0,0,0,0,0,0,0,0,0,0,0,0,0,0,0,0,0,0,0,0,0,0,0,0,0,0,0,0,0,0,0,0,0,0,0,0,0,0,0,0,0,0,0,0,0,0,0,0,0,0,0,0,0,0,0,0,0,0,0,0,0,0,0,0,0,0,0,0,0,0,0,0,0,0,0,0,0,0,0,0,0,0,0,0,0,0,0,0,0,0,0,0,0,0,0,0,0,0,0,0,0,0,0,0,0,0,0,0,0,0,0,0,0,0,0,0,0,0,0,0,0,0,0,0,0,0,0,0,0,0,0,0,0,0,0,0,0,0,0,0,0,0,0,0,0,0,0,0,0,0,0,0,0,0,0,0,0,0,0,0,0,0,0,0,0,0,0,0,0,0,0,0,0,0,0,0,0,0,0,0,0,0,0,0,0,0,0,0,0,0,0,0,0,0,0,0,0,0,0,0,0,0,0,0,0,0,0,0,0,0,0,0,0,0,0,0,0,0,0,0,0,0,0,0,0,0,0,0,0,0,0,0,0,0,0,0,0,0,0,0,0,0,0,0,0,0,0,0,0,0,0,0,0,0,0,0,0,0,0,0,0,0,0,0,0,0,0,0,0,0,0,0,0,0,0,0,0,0,0,0,0,0,0,0,0,0,0,0,0,0,0,0,0,0,0,0,0,0,0,0,0,0,0,0,0,0,0,0,0,0,0,0,0,0,0,0,0,0,0,0,0,0,0,0,0,0,0,0,0,0,0,0,0,0,0,0,0,0,0,0,0,0,0,0,0,0,0,0,0,0,0,0,0,0,0,0,0,0,0,0,0,0,0,0,0,0,0,0,0,0,0,0,0,0,0,0,0,0,0,0,0,0,0,0,0,0,0,0,0,0,0,0,0,0,0,0,0,0,0,0,0,0,0,0,0,0,0,0,0,0,0,0,0,0,0,0,0,0,0,0,0,0,0,0,0,0,0,0,0,0,0,0,1
outputCount=1
weightIndex=0,26,1301,31351
weights=##0
##double#31351
   -0.291209623,-0.0903608774,0.7393698229,-0.8160149887,-0.2373361266,-0.0453392036,0.0082099998,0.4095344154,0.8107423933,-0.3260977805,0.1366966761,-0.9479604837,-0.820280226,-0.9028687267,0.9192710487,0.4266275375,-0.1012538306,0.6386203963,-0.6649485655,0.512007972,0.1451875197,-0.9014686878,-0.0225192568,0.8381292704,0.0069085512,-0.4333364068,0.3932537735,-0.4089416774,0.2223028352,-0.579560747,0.8063606986,0.1660622947,-0.9822761332,-0.9165034754,0.6109152428,-0.6602383888,0.572524066,-0.1742555366,-0.2603634862,-0.0132082068,-0.6155582665,-0.7811700369,0.951988783,0.8152934868,0.9404822873,-0.7175548791,-0.2064636271,-0.7958311216,-0.7575476601,0.0097786592,0.1576304182,-0.9466482916,0.5267051617,-0.9475633417,-0.7142845494,-0.2442538407,0.8218232157,0.1419226811,0.5254018725,0.1548700058,-0.6751476398,-0.1224810874,-0.8019802071,0.3540402622,-0.9876795967,0.1392975143,-0.9301491777,0.5761596544,-0.6490699296,0.2229516692,0.3251786001,-0.5902196402,0.7286839479,0.864673795,-0.6571892884,0.1822462423,-0.6712766835,-0.4987567781,-0.7247738163,0.4750506295,0.1431420455,0.6046149781,-0.5262985683,-0.3101573912,0.3814157407,-0.8192470128,-0.9325283126,0.6755988583,-0.8972005059,-0.3844321432,-0.1152482113,-0.4619052134,-0.8268163478,0.9117479436,0.081938443,0.1593219819,-0.5798729492,-0.0184483402,-0.2140454355,0.8928066292,-0.0850474963,0.9264864227,0.7311979728,-0.7828805105,-0.7328619323,0.9062354923,-0.4448225471,-0.8595065446,-0.5862921597,0.7827519055,0.0584908436,-0.0455408869,-0.9476217601,0.3665905154,-0.7003991145,-0.0506692688,-0.5091218411,-0.3093110703,-0.2797555843,0.8573977507,-0.8812644731,-0.1311441168,0.3948825225,0.8412545957,-0.3167062199,-0.7835545204,0.9217952908,0.4292899725,-0.0935710631,0.7284957031,0.5965287786,0.8364844269,0.4600795116,0.4683537531,-0.8772237166,-0.5629201032,-0.5733090935,0.5348090204,0.1557838197,0.5168201127,-0.6575690238,-0.0851714255,-0.3320961335,-0.6515614795,-0.880464343,0.7888698782,-0.5115841343,-0.1841040707,-0.7774223194,0.7009204267,-0.3832992481,-0.4967085023,0.8892617991,-0.3724086168,0.7474610326,-0.4183702771,-0.1610703141,-0.2837206005,-0.2107583313,0.737411099,-0.3547869321,0.101245799,0.4488079758,0.5043596524,0.481252855,-0.8443048661,-0.5306099846,-0.5424229716,0.0270750725,-0.1620702468,0.4612687583,0.4701569505,0.165164617,0.1313096571,-0.4617005086,0.4486361098,-0.7851982566,-0.0409285641,0.068418555,0.4055501203,-0.9660523444,-0.3507137333,0.8357247585,-0.7620771259,-0.5153749774,0.2109334734,0.6498933324,-0.791702586,-0.5116122688,0.9916180251,-0.2841343359,0.0559578876,-0.8109092268,-0.4060343237,-0.0195694295,-0.0096143699,-0.8188334828,0.3663380832,0.3633820016,0.653063936,-0.9489182253,0.179261971,0.5740777996,0.8872576563,-0.6986659306,0.6603583762,-0.4014276836,-0.6577547234,0.2309570472,0.2236059429,0.9889234043,-0.4924770846,0.2788070798,-0.9495531943,-0.137468561,-0.5520830401,0.8147169081,0.060483509,0.1441460378,0.2127493752,-0.001680023,0.8566110062,0.9557608482,-0.7986672409,0.8627550597,-0.2488908623,0.1442699118,-0.6333776679,-0.9231807454,-0.0951956306,0.4547522762,0.2645874476,-0.1852395237,0.9001937625,0.0398324367,-0.5092187006,-0.340668724,0.2686517727,0.6780919527,0.3564821689,0.7197711686,-0.206055506,0.8832162659,-0.030007845,-0.4537928939,0.76954985,0.8790527722,-0.3171340411,0.9846488936,-0.1342269447,0.2269637966,-0.4835822879,-0.9536809871,-0.2422924063,0.278762571,-0.2069706268,-0.4891851561,0.2860192211,0.4673343485,-0.7098068716,0.2839053786,0.1521655889,-0.1395909569,0.5679913165,0.9851291969,-0.4582215395,0.226303919,-0.9635024898,-0.9081657931,0.7322958216,0.9275491374,-0.5747422106,-0.0716191148,0.1533965485,0.8362842809,-0.556622184,-0.7658776046,-0.370077455,-0.6525972972,-0.8868498261,-0.8433837965,0.710363996,0.6291183667,-0.8869322638,-0.1513008635,-0.0258169747,-0.6238924147,-0.3920387915,0.2172516292,-0.6394103995,-0.6264271059,-0.2503486617,0.7577593008,-0.3763212586,-0.3812157391,-0.3569667525,-0.6274646558,-0.9859973248,0.230015383,0.3538575771,0.7013365089,-0.8162558301,0.2875403879,-0.4429711842,0.4041410453,0.3443105909,-0.6324415468,0.1174064027,-0.7304915334,-0.9135864011,-0.5097228415,-0.6526056278,-0.1577061627,-0.2407029672,-0.7441661084,0.0602381299,0.0787913812,0.096621413,-0.3672757064,-0.2853395106,0.8429657901,0.915481442,0.2160728095,0.8351241063,0.7244581455,-0.6226358237,0.0841685702,-0.411274697,-0.8147237886,0.0663885705,-0.7251110568,0.2444936571,0.7643438306,-0.0049743729,0.1495729189,0.7947969311,-0.8093104678,0.9908490301,0.7587368111,0.7788564889,-0.6349593921,-0.6350542974,-0.4306811418,0.0073460939,0.9276941422,-0.9062267848,0.6595611672,0.2251947343,-0.5884598917,-0.0387229085,-0.3224021801,0.81442866,-0.5396887992,-0.8149737498,-0.4132184453,-0.7889292785,0.3720011443,0.4293802142,-0.8360794271,0.1053785217,-0.8652153133,0.5538370695,0.4325756984,-0.3067405952,0.8389416447,-0.4876947283,-0.0329165361,-0.6611080947,-0.2608328928,-0.4984377101,0.9988216925,0.3353129847,-0.9519859555,-0.6173793838,0.1002788332,-0.398852439,-0.5646278824,-0.8277643356,-0.9573328029,0.9650492267,-0.985975486,0.5226991616,-0.6657054022,-0.7756203409,0.512438217,0.6613306955,0.1044529197,0.5215540615,-0.9231312834,0.8355624825,0.9789385804,0.684922907,0.7182738867,-0.8361376343,-0.2759204304,-0.809919149,0.6401173021,-0.735615194,0.5091496732,0.5988764392,-0.6113331725,0.8910470343,0.9730938004,0.8696829356,-0.0203466174,0.5513205634,0.9998230609,-0.7969480444,-0.3305617762,-0.708760283,0.7849346101,0.871937795,-0.062070832,0.5604672541,-0.6073368817,-0.1516844625,-0.9067686282,0.745797673,0.2136225926,-0.693601148,0.1909926478,-0.4319811073,-0.9591109666,-0.534256427,0.2311222045,0.0156723579,0.8332564877,0.315997157,-0.5462451051,0.7322674116,0.4562590297,0.2338113814,0.7808797011,-0.9906134683,0.2613185799,-0.7151584267,-0.2453671778,-0.9575604286,0.3222975389,-0.4890893079,-0.912274551,0.5333697691,0.8543072784,-0.1983319893,0.805447559,0.3606221474,-0.0520611891,-0.3079178327,-0.9740516468,0.4254154016,-0.4370060822,0.6616271184,-0.8062570186,-0.8495860593,-0.9988128713,0.7871256386,-0.3077416292,0.6342713545,0.4604432748,-0.139192212,-0.2319806382,0.6687914115,0.4213825969,-0.1173454758,0.8593736683,0.7179168908,0.3672458187,-0.3546738625,0.732499134,-0.1693750178,-0.342044135,0.0073452382,-0.8867144677,0.1014269038,-0.703222144,0.0834738913,0.0164924929,0.9349985552,-0.3668375496,-0.6101669011,0.1300712579,-0.7119557996,0.7343340172,-0.3286395929,-0.1504986541,-0.533701783,-0.7730010379,0.1879102,0.967450164,-0.7135995897,-0.6415441997,-0.3996348948,0.8387529677,0.8818929816,0.9571326711,-0.1318220452,-0.7965558232,0.8868513213,0.4636470394,-0.6381261249,0.582363773,-0.210640382,0.3559294798,-0.2783131839,0.7464380215,-0.3683335892,0.3183432937,-0.0722414797,-0.4111187232,-0.2069177409,0.6119583889,0.266669547,0.1631133701,0.3344379413,-0.5781040979,-0.0290399931,-0.3518006148,-0.2970815886,0.3984920961,-0.0062684776,-0.9102008239,0.0649736544,-0.6080416763,0.3084794979,-0.2565655709,0.798748946,0.547683307,0.4712077916,-0.2541820569,0.2345920133,0.2591580571,-0.955627677,0.508555986,0.9792300253,-0.7653436669,-0.7678398451,0.8660458082,-0.6151068449,-0.3393178638,0.693931378,0.7012595375,0.5426581119,0.4277324636,0.6105661557,-0.550098894,-0.3538650011,0.8820761564,0.4778284627,-0.517514845,0.4916642365,0.3974243868,-0.1687625995,-0.4179506203,0.0731477841,0.4263397764,-0.0862450958,-0.4626960064,-0.1450949141,-0.623000234,-0.6582750164,-0.376621081,0.8658755053,0.2233397305,-0.7639925024,-0.5745571224,-0.5096656554,-0.2891822215,0.4697542287,-0.7788595745,-0.2141509786,-0.7500899575,0.4874983637,-0.4467588299,-0.9351759152,0.0844367052,-0.4230971844,-0.0374424366,-0.2769431033,-0.9621264015,-0.3534761247,-0.6958784659,0.1236091405,-0.021416645,0.2878945041,0.0834533381,-0.9133912175,0.1912535636,0.4632986199,-0.0459161134,-0.4139754019,-0.9132904518,0.6165296281,-0.4378154622,0.2371756295,-0.3611862396,-0.7507648805,0.7725135012,0.6741696894,0.382502692,-0.9927114159,0.6892688592,0.1556440486,-0.0665845765,-0.1867338934,-0.0191674389,0.0741666352,0.2908815664,-0.1986114384,0.0552326184,-0.5031188097,-0.6331993093,0.9496783123,0.1708955935,-0.8623841271,-0.0616731411,-0.6659599423,0.4193812861,0.1945791305,-0.3276015455,0.9794210603,-0.4230245401,0.9086526959,0.4268480973,0.1623325655,0.7186268062,-0.8026129765,-0.0734790382,-0.7770679703,0.443970138,-0.8371147217,-0.6956937411,0.6161943561,0.1650646817,0.0087859862,-0.0927043404,0.1317397552,-0.9742582352,-0.495206407,-0.2889092286,0.8903843247,-0.0819206952,0.7641884029,-0.1647414759,0.640798662,-0.7008186716,0.2798073086,0.1668708432,0.3463333871,-0.1904850654,-0.8931186908,-0.6449479273,-0.4305140601,0.0818061061,0.8568482692,0.0206540213,-0.3405420421,-0.0449903754,0.7146418054,-0.0381815018,0.602342212,-0.3019125551,-0.5303830864,0.4836032205,0.3691077894,-0.3293254881,-0.7473223907,-0.718023011,0.0273743509,0.9376448655,-0.5977000839,-0.8905787381,-0.6518780652,0.7232806647,0.1936001349,-0.2730682022,-0.6058851468,-0.6004080183,0.7370730657,0.0413224717,0.3844354853,0.7077314853,-0.6582030267,-0.0305850076,0.0034627405,-0.0423135157,0.3873975684,-0.369290533,-0.5582069397,0.5335563664,-0.7371008841,0.549227206,-0.6465253204,-0.4791342371,0.2555255983,-0.7281121401,0.4900418667,0.3442943218,-0.9822506911,0.1249182607,0.7438992938,-0.8327993219,0.4372491195,0.9403110018,0.6141768373,-0.9534970095,-0.9171016667,0.2758564021,-0.0335293114,0.1432576,0.5584745674,-0.0602112737,-0.0213083727,-0.867809564,0.4610614688,0.5685745261,0.6835975546,0.709540478,0.7033170566,0.5300928276,-0.3083809812,0.3442612458,-0.8056044695,-0.4493886297,0.1885465326,-0.502072553,-0.0820787074,0.9412479115,0.6602908841,0.8513136794,-0.0861546796,0.3672733752,0.1489146399,0.2006827257,0.307291096,0.7801398754,-0.9891707187,-0.2167743882,-0.4015446326,-0.7906459585,0.2638823424,0.3733002437,-0.625703855,0.7081613044,-0.3558975716,-0.4770682271,-0.4029138074,-0.024378859,-0.5801393959,-0.810062193,-0.7805532269,-0.6801732486,-0.0228895615,0.5721736227,0.4744885392,0.539929108,0.3205477711,0.7342664079,0.7598183609,0.788157003,0.4949334984,0.1955624107,-0.1340545006,-0.9702808271,0.3028188077,0.365045865,0.3065232238,-0.0960253226,0.3222300699,-0.0685138201,-0.9222665157,-0.9074033119,0.3177879455,0.1506024558,0.8121529448,0.5171847946,0.8500841312,-0.6795979441,0.7258233266,-0.5722413719,0.0678882648,0.7809597378,-0.3578293786,-0.160457975,-0.587529409,0.6838316256,0.5502998131,-0.7828677449,0.9821546592,-0.4095319656,0.4816834722,-0.883276836,-0.1232653351,0.4870920963,0.7190141737,0.0972342292,-0.327957279,0.605417106,-0.2958457809,-0.0393799244,-0.9369506473,0.0103946791,0.912924157,-0.6559877966,-0.5311043774,0.0528799532,-0.7450683503,0.2118608136,-0.1285503528,0.6897380752,0.3746393283,0.8725562852,0.4819154279,-0.405930802,0.8527542306,0.9638213721,-0.9561998265,0.0639029752,0.6266055474,-0.9110715811,0.553016624,0.3610910469,-0.2015715902,-0.6955899061,-0.8231952557,0.8472922136,0.8871722827,-0.4634079861,-0.0651907088,0.7272368405,0.3955441955,0.5643633663,0.051287888,-0.9819555095,-0.5292203337,-0.1434367053,0.1078828385,0.4622846781,0.1207576574,-0.1469783219,0.4657141796,0.9819818816,-0.9322489539,-0.1612393148,-0.5024541527,0.037102493,0.3720889663,-0.3967309357,-0.9761324737,0.750043007,0.514000251,0.5190845372,0.9472651942,-0.302488586,-0.9775855041,0.6339106208,-0.8385629627,0.2614957981,0.7063109811,-0.2818115448,0.9630751471,-0.9674365617,-0.5587200611,0.5326879076,-0.3002074299,0.1142115305,-0.4982365929,-0.013114061,0.4170295103,-0.9714960267,-0.7112501104,0.034418975,-0.5995958063,-0.3726011788,-0.6288949538,-0.4431900005,0.642133549,-0.4528159182,0.4631420287,-0.4327925226,0.7462094358,-0.7938994002,-0.9875097362,-0.0034745599,-0.4628485791,0.7462872221,-0.5384498356,-0.2982034672,0.6434756623,0.5374032635,-0.9765145545,0.9042185243,-0.4708549699,0.3435159985,0.4706675387,0.8607541422,0.8550139759,0.9205821175,-0.2170168603,-0.8735603851,-0.9259088234,-0.2509368451,-0.7249981135,-0.0073487166,0.619044931,-0.4130796624,0.4027822714,0.9635529398,0.968789366,-0.6984769655,-0.6848815484,-0.4162318974,0.2466402851,0.8192307657,-0.8525148239,-0.8567292541,-0.075394765,-0.8239721787,0.4294793461,0.6137933104,0.4922593783,-0.2912012732,-0.4754147351,0.8630075414,-0.7927561575,-0.014200361,0.3123580064,0.6321414075,-0.0435255882,-0.7415031976,-0.3768735461,0.8857416083,0.7759784233,-0.9641023851,-0.4873176871,0.0407495272,-0.6407331001,0.0110649639,-0.7486944509,0.714288277,-0.1125348176,0.5361058354,0.0698375083,0.0036267418,-0.3486015026,0.5437665006,0.7070704117,-0.2452173111,-0.4925972855,-0.527538631,-0.8313167326,-0.0462508698,-0.859619447,0.7712065323,-0.6329667704,0.6915469724,-0.3975597457,-0.8775790327,0.9075567024,-0.6736513745,-0.3329433888,0.1309976608,0.2024105429,-0.5957660568,-0.1787992882,0.1357719634,0.4745712778,0.631786143,0.9195818177,-0.8713043635,0.470247289,0.6886741202,-0.8460775206,0.6105612829,0.701046322,-0.92421834,-0.201827963,0.2800491924,0.3123101121,0.1036784132,-0.9925629881,-0.7746682353,0.6397788737,-0.3071602369,-0.7407679895,0.7048466569,0.9875413304,0.2936701274,0.8506525683,-0.2058154505,0.2731111941,-0.5223254108,-0.5612982569,-0.0332548512,-0.2750267702,-0.8543564975,0.753331363,-0.3467966489,-0.9809901131,-0.0958209726,0.3619280064,0.167647002,-0.8157010355,0.4248203427,-0.6550446592,-0.7890890115,-0.2654089776,-0.3936096377,0.8547207438,0.3775854129,0.5169013828,-0.2768314456,0.8121819192,-0.3748391639,0.5598777389,-0.9524819448,0.7711685162,-0.5376547331,-0.5250048131,-0.8683482136,-0.3046482653,0.1211083513,0.7159665748,0.0846369202,-0.4597363899,-0.820829933,-0.1627542582,0.8262500439,0.714370943,-0.8817569309,-0.2030679876,0.4599942306,-0.100464555,0.6081733635,-0.3481514225,-0.106239933,-0.0921110824,0.1639665322,-0.4645972996,-0.2779166958,0.7191086448,-0.1530941736,-0.851709244,0.9427256893,-0.6951463407,-0.3063796992,0.6955382224,-0.5084288485,0.2060228406,-0.644200967,-0.1830233106,0.7063567899,0.7346402743,0.1414322517,0.6698125783,0.7804842243,0.8361971565,-0.644698664,-0.7127207901,0.575112514,0.8080529637,-0.7780717144,0.8993269871,0.9512912527,-0.4667052629,0.891693038,-0.037163597,-0.5444058675,-0.3398055247,0.0504007576,-0.1994572309,0.200748265,-0.7994541793,-0.2768552026,-0.7274950016,-0.5713197813,0.4251046471,-0.5099488332,0.2900696227,0.5043888005,0.0436773489,0.9494790989,0.690572545,0.1295399151,0.1749084123,0.9634828595,-0.9833542419,-0.8360848044,0.57904574,0.7515600629,0.0324442223,-0.9919007603,0.0081623858,0.2683188683,0.0853323368,-0.7899457246,-0.6913254907,0.6508294182,0.8860927765,0.3140639849,-0.4434370452,0.7171626274,-0.9290764198,0.5394781514,0.6623074631,-0.9793715268,-0.4253814142,-0.9487374652,0.1506490946,0.5700132856,-0.2773536762,0.5888333147,0.3573034166,0.6327920001,-0.8305557379,0.0277275847,0.2265238829,-0.4961233381,0.5890451058,0.5765978754,0.6787989448,0.8098382649,0.1630691072,-0.3129389237,0.5897186633,-0.9029052459,0.9979903903,0.9057145015,-0.3229802481,0.550421403,-0.7800526001,-0.8038132655,0.0559356154,-0.5810172478,-0.6196472296,0.3097916904,0.6069838394,0.2484629236,-0.952532932,-0.4894001927,-0.85668313,-0.7752073896,-0.2448705054,-0.1639004642,0.6598040967,0.5568027203,0.6296350428,-0.7549004533,-0.5832562292,0.89674096,-0.6958010453,0.4825151578,-0.1366975731,-0.4011263283,-0.893641742,-0.7295461093,0.8356115483,0.0503961982,-0.0473622761,0.0641813807,0.0238682229,-0.1227529223,0.1782575247,0.6798247968,0.9674278536,0.3732378173,0.5110829388,0.3461538685,-0.5656919685,0.7426128064,-0.1151049433,-0.3001442493,0.4162312869,-0.8992738857,-0.6984874869,0.1485218136,0.3509713505,0.4809858343,0.7009688176,0.5683180464,-0.2508895709,-0.1857426911,-0.2105926781,0.6268985056,-0.0264981341,0.9104194342,0.6249863152,-0.2474216467,0.3396385822,-0.7226851679,0.3543861587,-0.9631219452,0.7546520479,-0.0208863404,0.4114782719,0.4174222756,-0.6310604495,-0.4166801212,0.9329007632,0.0937231931,-0.3605113944,0.7092647341,0.7840496908,-0.609152356,-0.2497195191,0.2837418409,-0.9521209419,-0.8606847672,0.8746837032,0.3017388598,0.2659977838,0.1771159065,0.6424785472,-0.8558526367,-0.7502005788,-0.907560323,0.4064284089,0.5879090313,-0.1950034975,0.969538203,0.4097249565,-0.7381680747,0.1135498316,-0.6092659425,-0.1881674549,-0.4435126472,0.1348747114,0.0811849775,0.6605710895,-0.6725298398,-0.1699072559,-0.1526459551,-0.9122402984,-0.9143351214,0.3758151071,-0.213061902,0.7937528867,-0.1519994382,0.076200417,0.3021622483,-0.0063020689,-0.1771899626,-0.133758145,-0.8756612288,-0.9707703057,0.1869049204,-0.0859216713,0.5875848658,-0.56564087,-0.1727396954,-0.5084441717,0.5188844757,0.6526438126,0.3791267735,0.5364971152,0.6711468989,0.0380273779,-0.8654592889,0.8666903997,0.6939247093,-0.2793088315,-0.4313704549,0.2184178327,0.915965162,-0.6097071056,0.5890839011,-0.0957702213,0.1885132164,-0.3813497474,0.0935535238,0.3712587029,-0.5663628261,0.1123852798,-0.4021915227,0.8556333213,0.899478528,0.6711925025,0.2617086575,-0.4785937196,-0.952173904,-0.8170919652,-0.1340840267,0.4874106971,0.0317200999,0.40120985,0.4807316885,0.2019340915,0.0447645576,-0.8866125664,0.7923510398,-0.4392181345,-0.9909047757,-0.8974615379,-0.6601806123,-0.8800130727,0.1984254541,-0.4505238083,-0.2356143042,0.3491465602,-0.3205294259,-0.8567223143,-0.1352289412,-0.0140276042,-0.5480876141,-0.7359552881,-0.1697841997,0.2181292565,-0.3412073451,0.6115797137,0.6688948592,-0.1975867068,0.8682094183,-0.4337287386,0.0233584121,-0.5180662662,0.6926458984,0.9748338686,-0.9179408792,0.0857688033,0.8553364423,-0.5902283217,0.3133640266,0.9583547106,0.4021881676,0.894807727,0.5072760141,-0.8138700729,0.6289026197,0.7380316486,0.0792994462,0.9420416308,-0.8988218995,0.2296780982,-0.758270381,-0.3156327164,-0.6932708514,-0.7675070735,-0.2490243832,-0.0789110946,-0.8433121329,-0.0144195928,-0.1205790429,-0.0790462314,-0.0876263562,-0.9161130738,0.7937761485,0.7962155823,-0.1134578016,-0.4498547253,-0.9702074754,-0.3556644816,-0.5685180779,0.3536329709,-0.3480168114,-0.0114970044,-0.3445197836,0.9833064237,0.4870300524,0.4152062337,0.5685397323,-0.1789344431,-0.1026303228,0.2240127694,0.9423723796,0.6116260063,0.1517713861,0.7756482307,0.7290686578,-0.6235657887,0.8727820653,0.2710239695,0.869748401,-0.9692953592,-0.8064381468,-0.021864614,-0.1852654258,0.7025042143,0.2827161648,-0.6440344258,0.1143997787,0.4794410566,0.292185102,-0.2999019094,0.3401186609,-0.6610194164,0.7753854822,0.8162181032,-0.2862565097,0.0942503657,-0.2830926578,0.3086976601,-0.9426252762,-0.2534580639,-0.3290757304,-0.7393256495,-0.0883925354,0.8201818681,0.4693683907,-0.9328659766,0.9807976503,-0.2387103888,0.4361713178,-0.7415048422,0.897521639,-0.022240722,0.4188150231,0.5798452143,-0.2368046342,-0.9843646412,0.5836821346,-0.1977810482,-0.1370842401,-0.9228504089,0.555724096,-0.3637713701,-0.5247875485,0.2555613695,0.1784509939,0.8481933167,-0.7547240554,0.5576892703,-0.6738373205,0.2740243238,-0.0184413969,0.4612554138,-0.1609918164,0.7508384663,0.3089338805,0.5440209104,-0.0473392664,0.1653669216,0.9520879064,-0.6061153227,0.812485808,0.3093949879,0.6712294043,-0.6114466685,0.9895602437,-0.7953185159,-0.5138220294,-0.8774636201,-0.0443984035,0.4756071745,-0.3851850488,-0.3341426673,0.3638889452,0.8356768006,0.8762036466,0.0949687514,-0.9189154455,0.7123574021,0.7892543573,0.8301080219,-0.415447439,-0.4036285051,-0.2525347662,0.9300628154,-0.7040903503,0.3977832893,0.9825263642,-0.5581140659,-0.0976700016,0.5971519408,0.2326998376,0.0709585858,0.3628239497,-0.12660904,0.5866117015,-0.9118963745,-0.0813468104,-0.3406389566,0.3191159116,0.9165719082,0.7531093942,-0.3999247287,-0.7610002955,0.5681265981,0.4405444575,0.4538450549,-0.5689554669,0.6823038242,0.2815315451,0.3752483657,-0.7479330396,-0.0775475049,-0.4491860291,0.4914711258,-0.7763083794,0.039864227,0.679464268,0.3982849519,0.0016280199,0.3836950289,0.2205682151,-0.9446511405,-0.5616999805,0.9780040933,-0.0465462387,-0.1314486692,-0.9235474674,-0.5527977868,0.3274983503,-0.1931076599,-0.0555985587,-0.5442928356,0.8714691966,-0.2306051112,0.4033977112,0.9209093639,-0.6814092476,-0.4428706997,-0.3915484951,-0.7098491422,-0.3673599117,-0.4464610898,0.9541139772,-0.3129318051,-0.3969289731,0.4066400754,-0.9494901955,-0.5763640904,0.5939996037,-0.7750219312,-0.8879319101,0.1804294923,-0.4565561831,-0.2663434007,0.5437359726,0.3232494405,-0.8379278542,0.4575068701,-0.600669182,-0.5552953616,0.8018498431,-0.0989207236,0.9735503126,0.4596638755,0.7269660925,0.3545009418,-0.479357429,-0.3205892641,-0.1299833971,0.4858808881,-0.9081258302,0.5994960215,-0.933316135,0.7116994911,0.1312612606,-0.8319706119,0.5949257609,-0.8961852596,0.8034438002,-0.9742241296,0.0810001715,-0.3366732909,0.5723653743,0.2769387757,0.5929745455,0.145795129,0.6269951297,-0.3295090827,-0.6156100014,-0.8387810912,0.3740700118,-0.1241935633,-0.2007769119,-0.9794620747,-0.6190382723,0.665773984,0.1988823099,0.3060212904,0.8215531297,-0.8177663153,-0.0674856664,0.4306967454,-0.0698440585,0.8179294134,0.6024044402,-0.9718825823,-0.0648337725,0.2405516332,-0.2667459353,-0.6959052105,-0.9209203158,-0.3719742194,0.1423819947,0.5326562297,-0.4635713105,-0.9904428394,0.2991908151,0.3742684093,-0.4934505969,0.8750275868,-0.078738948,0.7917440322,-0.5000460824,-0.9203676519,0.4694727294,-0.7415803973,-0.8013177724,0.7528785236,0.2499069891,-0.0325598728,-0.854687105,-0.451524033,-0.7092471713,0.1622399333,0.7051612186,0.8974753451,0.058924703,-0.8922619044,-0.9224446682,-0.7092612538,-0.9959866725,-0.0932453629,-0.3007294503,0.2543929945,-0.4737676551,-0.1141908829,-0.8843276561,-0.5745067171,0.8620676677,0.0294761422,0.5794568962,0.8678028035,-0.5467536648,0.2834976247,0.5413912523,-0.0770920698,-0.0447705096,-0.7544526262,0.7495428861,-0.9262755712,-0.4475968869,-0.1997119472,0.7922692428,0.6238768589,-0.4694641241,-0.9469948627,-0.6340312219,-0.186033218,0.7601199868,-0.681356104,-0.0130294557,-0.7292321382,-0.2351832599,0.7082424638,-0.5459193776,-0.3354932617,-0.0836871123,-0.0982322796,-0.9103312425,-0.0033822846,0.6709929158,0.2569981678,0.289154671,0.359466911,0.7084259956,-0.3363930375,0.8379534996,-0.5668071245,-0.0456577904,-0.0818848711,0.456782072,-0.3833270272,-0.4178036866,-0.4071970299,-0.8710137944,-0.4009688106,0.4080186877,-0.189760464,0.212005956,0.8507159501,-0.9096599561,-0.9197117827,-0.8961993413,-0.7284221941,-0.466103648,0.5820224308,-0.5025272094,-0.6455140575,0.9571569436,-0.5555885832,-0.4006403734,-0.9257830713,-0.244115502,0.4892830932,-0.7322127897,-0.853919581,-0.5721963042,-0.7427636229,0.1021731824,0.6075362037,-0.772949705,0.2620461544,0.0225704366,0.4132580219,0.9063322634,-0.2585449449,-0.6077431372,-0.2094820305,-0.9675703746,-0.1128105521,-0.9864595079,0.7466736396,-0.9694565375,-0.2318232606,0.2038450844,-0.7010406713,0.0963343326,0.0815590381,-0.0765132279,-0.770572047,-0.3972450008,0.7891667417,-0.1072146254,-0.7962722516,0.2363900618,0.7458744976,0.0105940422,-0.7779076511,0.5827084743,0.5575622511,0.0666408744,-0.7424366381,0.9187036426,-0.5501904876,0.8379574504,-0.1352382759,0.1443668004,0.5611257293,-0.7059999872,-0.7562404369,0.6723988513,-0.6286614726,-0.9541759839,0.968702508,-0.5885275891,-0.8117698345,0.3098906998,0.3139660572,0.9058234773,0.1129935672,0.9695668996,0.7821234208,0.8372027645,-0.4019694505,-0.4296907073,-0.4943668943,0.048235818,-0.8937893553,-0.6563727316,-0.6633341298,0.18476271,0.5609469092,-0.1191260952,-0.6239414942,-0.3046377,-0.6674011167,0.8097647115,0.3362907859,0.3716733396,-0.0483962794,0.3214488163,0.9393418425,-0.4189999975,-0.1540438409,0.9891485252,-0.1536807073,-0.7142931884,-0.6231674679,-0.0461046534,-0.5381345971,-0.1542186005,0.4965845202,-0.344903696,0.9604313751,0.4914735328,0.3468123153,0.048941168,0.0285619547,0.6998504613,0.1812027685,0.0353576219,-0.0349873684,-0.0911947774,0.6497817954,-0.8838412925,-0.2689259748,0.0298841042,0.4502638398,-0.3233470522,0.1694228064,0.1810657554,0.4445424161,0.3593568804,-0.7280026159,0.7216429218,-0.1624718824,0.2623582701,0.4747282776,-0.3595729192,-0.0258966756,0.9880195116,0.640086455,-0.6328359297,-0.7679887311,-0.133875736,0.7850893702,-0.6858953192,-0.5867760021,-0.7581248393,-0.2313532014,-0.9657985883,0.3315598867,-0.3778719718,0.7463291667,-0.2111424486,0.1246724284,0.5475230543,0.0173002413,-0.921005373,-0.025276882,0.4689872737,-0.725280997,0.9232412892,-0.51825794,0.585105477,0.8433287649,-0.8681835336,-0.2960586045,-0.5699538524,-0.803073474,0.3666692594,0.301895822,-0.6851827313,0.9539488919,0.0076983378,0.8077264793,0.4573835593,-0.6302666581,-0.89062595,-0.1488531381,-0.5135156195,0.021430158,0.7360969546,0.9476428997,0.4985218476,0.8714597748,0.7420295408,0.4514763314,0.8821423438,0.3459424081,0.0076505248,-0.4939460917,0.4541272008,0.9369570373,0.9179252593,-0.0765628471,-0.6507989913,-0.0309031775,-0.6558025284,-0.9291985869,0.4417730587,0.1367239324,0.9797495462,0.2507071563,-0.5075110298,-0.0050872878,-0.2522429975,-0.6271358768,-0.3701564402,-0.7546597282,-0.9623226584,0.3198646355,-0.1407569204,0.652122591,0.3337452426,0.7921726613,0.7204875829,0.3114566523,0.389581287,-0.7972064129,-0.3843223364,-0.5242257299,-0.0483937085,-0.9011059005,-0.0076627632,-0.2081789702,-0.2188992018,-0.4995990707,-0.6374698421,-0.5576277238,0.3986673366,0.4408339523,0.5547134445,-0.7832301997,0.0589344988,0.5235313819,-0.9837832853,-0.49903179,0.9968256675,0.4055741491,-0.5269006283,-0.0232369025,-0.5057930586,0.6835053234,-0.585876976,-0.0760591007,0.1718823115,-0.6867555942,-0.6965141502,-0.954100426,0.0831734678,0.4492566508,-0.386268191,-0.4432237479,0.671139887,0.8209112859,0.5525853788,-0.7951917772,-0.7000106692,0.1297099438,-0.9707899532,-0.173997636,-0.1727841773,-0.6822770577,0.1383907794,0.2406623848,-0.2086535741,0.6516734025,0.086141788,-0.083387888,0.3559429598,0.4641754154,-0.9850464016,0.994447507,-0.061528203,0.5712973184,-0.6433005668,0.0091990044,0.7531276647,0.5762108019,0.9617310642,-0.4584281401,-0.8995974521,0.8533460691,-0.0397686249,0.5641145181,0.1115592138,-0.1324355561,-0.1589201135,0.719247876,0.9100640338,0.100225897,-0.2877725984,-0.8288614687,0.0944497417,-0.0156135608,0.3866449904,0.9155516141,-0.4411485044,0.4553479287,-0.4211616133,0.2068907198,0.1441959506,0.9589882058,0.8130964872,-0.1158404492,0.123922689,0.078753134,-0.1859813616,0.8749257812,-0.2285983618,0.7366444065,-0.7574089459,0.6543408318,0.0699729668,-0.002054376,0.9961504802,0.8105824653,0.1762104635,0.2913383759,0.3277220948,-0.7814849874,-0.877964869,0.5573988898,-0.3803342033,-0.2983296964,0.533709953,-0.1855627573,0.1083885006,-0.4881345656,0.7005712187,-0.7316861485,0.3394165391,-0.2535429607,-0.6599322264,-0.5757958059,-0.1729207918,0.2319986943,-0.1138074394,-0.0642659376,-0.2253755567,0.8658503211,0.4655997889,-0.2037658058,-0.72908889,-0.1875623733,0.8577646208,0.236944717,0.2092654588,0.704685512,0.5631799095,-0.5392356693,0.1188374073,0.500422321,-0.7948944235,-0.6534204383,-0.3185911159,0.683497591,-0.0066923601,-0.14030543,0.9286222982,-0.4137221052,0.3157877097,0.2767537103,-0.5140090718,-0.9667718981,0.7351491633,-0.2018693269,0.0820764352,-0.8934021564,0.1322376914,0.7324361371,-0.6716962247,-0.0486806618,0.239755481,-0.9616894309,0.9519915115,0.7220253033,-0.4069863476,-0.9898974507,0.2640362899,-0.0971697921,0.4903899074,0.2850310973,-0.2024613783,0.4512939187
   -0.8006835591,-0.5689777782,-0.8163144859,-0.9537788699,-0.8548153331,-0.8441485087,0.6919659972,-0.0349877049,-0.3915334905,-0.5464064503,-0.1064952043,-0.2372374049,-0.3394557171,-0.4396601535,0.5458240239,-0.4322169895,0.6378793239,0.5507444503,-0.7939599702,0.063834751,-0.2212082805,-0.4544651172,-0.4002874904,0.7112108846,0.9260591134,0.2165354007,0.6622787412,-0.9093429803,0.5186313184,-0.3075109705,-0.4897141836,-0.3936916233,0.229222842,-0.0108241281,0.7883343104,-0.4277395026,0.7437822891,-0.323828917,0.1805528949,-0.873056419,0.2414468514,0.048039628,0.3715906843,0.758652469,0.0875640925,0.6665412149,-0.9384039762,0.463419718,-0.2480077027,-0.4710619218,-0.7133075555,-0.6170856287,0.6642394242,0.761622808,0.5886778,-0.5545127879,-0.2068102826,-0.9296023549,0.9986831266,-0.0977797291,0.1285242407,0.4907278641,-0.3060319502,0.0816097299,0.5476733384,0.4208286421,0.833209946,0.3708071574,0.6615974868,0.2422228911,0.3355844052,-0.2553643514,0.763816175,0.5757087916,0.9777882788,0.259343656,0.6506368186,0.8336886577,0.4991136308,-0.3461370033,-0.9710833441,0.6109667462,0.8488725489,-0.0956558845,0.9129290084,0.09898872,0.4026547894,-0.5395588193,-0.8925078976,-0.8971252021,0.7942312751,-0.9648526875,-0.3537195478,0.0079855887,0.1364923753,-0.8229789645,0.4875791829,0.9425581946,-0.7002905791,0.6682253669,-0.0204352009,-0.0544789187,-0.9888887253,0.9237856539,0.3369905393,0.0818340602,0.3261225127,0.6337034276,-0.4102269557,0.6652552625,0.8353090697,0.9305460748,-0.3192832053,-0.0416602334,-0.1633828082,0.6892397434,-0.5193605518,0.1342243157,0.0972368673,-0.4660484808,-0.4603341233,0.3513998181,0.8912036259,0.5627392271,0.6476051857,-0.9403144166,-0.670569645,-0.6942149465,-0.8330527208,0.656162421,-0.4167226157,-0.0797604482,-0.6301632733,-0.8910858077,-0.4532941577,0.8938795713,-0.3275933625,0.5566208964,0.1532771025,-0.1163310006,-0.8616329646,-0.9908128374,-0.7159929701,-0.6556779056,-0.5066698695,-0.5524524699,-0.7060097676,-0.7667742898,-0.5063748039,-0.8546814765,-0.2338662793,0.5428817071,-0.7441570616,-0.0236810457,0.3832781367,-0.8492714787,0.1819940113,-0.4610753602,0.5349569159,-0.3022964944,0.38206517,0.207184356,0.7772770143,-0.3810551163,0.9306130092,0.4941417509,0.2295740035,0.1951474782,0.6575234107,0.1194175589,-0.8910627829,0.1565591036,0.006696111,0.0600232679,-0.1580072674,-0.4208056936,-0.7460959217,-0.608621371,-0.4991201931,0.3870458707,0.8923751817,0.431754204,-0.628940339,-0.8664465338,0.7726435567,-0.3053350642,0.0206835755,0.62142294,0.731965573,-0.5546315368,0.1367621054,-0.1336414579,0.0391316417,0.538448585,0.7544186651,-0.1304315321,-0.1494992879,0.3328335349,-0.2987933573,0.1765070441,-0.4409217046,0.5313619594,-0.5904411409,0.4640220369,0.7458670443,-0.8548097484,0.7616614569,0.9273275931,-0.3910926523,-0.2847501243,-0.7452261744,0.7831067987,-0.0769966997,-0.3860727141,0.1918839493,0.35436127,0.5210240085,0.5100023883,-0.6222260404,0.3394655828,-0.2378071192,0.9410574555,-0.2803956023,0.7389049422,-0.2478473634,-0.8762683943,0.6987007572,0.3000626608,-0.7832317229,-0.5706528113,-0.025020086,-0.2029764919,-0.9611662065,0.1120057464,0.5380945223,0.800256014,-0.1936045621,0.794668904,0.0198313998,-0.3147810836,-0.3203046123,0.8807185787,0.9997698125,0.487933912,0.0236510427,0.7211184678,-0.011231389,-0.138950361,0.317819028,-0.0432663525,0.3154221977,0.647829292,0.26210589,-0.9184360037,-0.8806056275,0.9164011148,0.3910921987,-0.9623437541,-0.7547070907,0.4210035,0.6961045018,-0.6406005892,0.8665305898,-0.7948076291,-0.947392521,0.4249047239,-0.011710052,0.3213515732,0.7488710079,-0.8035019436,0.609365651,-0.5346905531,-0.3869045813,0.4206292991,-0.7833541838,-0.779705191,0.8966989308,0.5590047206,0.5427199042,-0.5984818585,-0.7189016253,-0.7428198727,-0.589793958,0.7559530024,0.0627281293,-0.1450927908,0.2077378027,0.5198692294,-0.8506014272,-0.0314937565,0.383734926,-0.8365659769,0.5522521222,0.9234672917,-0.0756930763,0.0048292381,-0.4324039036,0.2281623342,0.5082027667,-0.9215210035,0.7694482857,0.8490247713,0.448126768,-0.4378690328,-0.7822731024,0.8078472934,0.5275293406,0.2509593754,0.5041157238,-0.3233853683,-0.7233568259,-0.7756285963,-0.8264240144,-0.8691050408,0.4235556354,-0.3003261537,0.0032553836,0.2294355008,0.5073754825,0.6603971509,0.8563371805,0.5982152931,0.8086256068,0.2152339776,0.596603105,0.9086352652,-0.5770792858,-0.186045551,-0.7062905633,-0.3966425494,0.8642996404,-0.3350888928,0.9550607788,-0.8009776088,0.8642428679,0.6142054487,-0.4849867402,-0.4889073205,0.3207405789,-0.9662809069,0.4711400414,0.3232297058,0.9606456196,-0.6125243919,0.6047435329,-0.0947305921,0.3088929111,-0.4595268498,0.1617639854,0.3052597075,0.2402673578,-0.805857449,0.8864496005,-0.6646169256,0.0220308076,0.5592480535,-0.1290244173,0.1379611425,-0.1625936943,0.196608584,0.3344158494,0.1755521626,0.3401868572,-0.7788969302,-0.2349584745,-0.20062297,-0.4271268054,0.0050849139,-0.2608478611,-0.4209443849,0.9083019803,-0.8710651914,-0.7528771148,-0.0089941186,-0.3973073117,-0.0459677593,0.0834307242,0.0145160809,-0.4583071594,-0.3913099944,0.3666301984,0.6762254194,-0.9464475366,-0.6610813905,0.3599063381,-0.2941381643,-0.9750273529,-0.8214685593,0.4091204357,0.2191611851,-0.3634096626,0.9726778054,-0.6389051491,-0.0261738694,-0.7096273919,0.7217084615,0.9845322843,-0.7646394921,-0.4944677133,-0.4843192705,-0.8804025973,-0.9008794824,0.0166497553,0.2259809474,-0.4188638294,0.4058244581,-0.724716346,0.0452793465,0.6769162927,0.6676908488,0.4850562676,0.5995939033,0.2727113248,0.8729352579,0.6852281289,-0.2683771474,0.4856761319,0.7639026252,0.4270034077,0.8142644915,0.0421452003,-0.4646836553,-0.1710804764,0.0227836933,-0.2510317142,-0.8485297348,0.5356109326,-0.4750079485,0.8741563885,-0.8715760109,-0.9524650267,0.1957946986,0.6395952124,0.3825026087,-0.7181829024,0.9037414461,0.4910188428,0.6057768798,-0.4223406029,0.4491074282,0.9017469809,0.4569049902,0.8351076809,0.7760708922,0.5321576162,0.8247410278,-0.4821818033,0.8118586482,-0.1805251084,0.7423838402,-0.2376312188,-0.2090477043,0.2432488858,-0.3851801541,0.0513899798,0.6615077027,0.3988298083,0.2609409112,0.6976260192,0.1001224484,0.1423591374,-0.8020619576,0.992522391,0.5942225615,0.4558591975,0.7675996388,-0.5048896027,0.3329634632,0.959241936,-0.6548687407,-0.124164641,0.4728042662,0.9408124847,0.1532598994,0.0975418974,0.7683132387,-0.1361118887,0.8239792137,0.4767982913,0.6769490107,0.9094526872,0.174281367,-0.8813916615,-0.6300182587,0.3465596541,0.7988314701,0.0905290955,-0.5370111998,-0.1879602367,-0.588758157,0.8429343068,-0.6378199299,0.9436759962,0.8803893798,-0.7577941512,-0.7742904399,0.6789942208,-0.0304355695,-0.453728597,-0.7995478781,-0.0149488465,0.9152375999,-0.3822274809,0.5237092354,-0.716978428,0.5490838,0.25562962,-0.2041823765,-0.5859285261,0.6749521273,-0.8915657914,-0.8462977184,-0.540146978,0.892003489,0.5330488181,-0.7281817471,0.8282986031,0.4206323317,0.510716462,0.8673243477,0.2791357258,-0.1383700628,-0.2379383379,-0.2772881701,0.7548915939,0.7433730023,0.2881631326,-0.8863296262,-0.0153490591,0.2460879752,-0.5167893543,-0.6846567321,0.0810159911,-0.9202308941,0.6056147248,-0.2593641282,-0.7708614919,0.597396237,0.3719832566,-0.8249134331,0.1086471493,0.7013491824,-0.2937670275,0.473468098,-0.7617918515,0.8318058818,0.9454427425,0.6877095068,0.016224451,-0.0691798903,0.5290667865,0.9885578012,-0.4885055637,0.4156138747,-0.3712126708,-0.0070402457,-0.5079446998,0.3550306285,-0.0300145184,0.6178885211,-0.7869029688,0.7408232968,-0.5853658756,-0.5656820494,-0.8357394019,0.1445532942,-0.8604342767,-0.5684387768,0.3699032747,-0.5676325717,0.9229562147,-0.1327981991,0.0620903274,0.6527113882,0.0569955921,0.3099783674,0.1273229,-0.4905633306,0.9559172591,-0.7275776281,0.3527664823,0.9489438431,0.3506950926,-0.6034491784,-0.4787453263,-0.0019733021,-0.5632345974,-0.8799406665,0.3575122329,0.879849981,-0.629880532,0.3003117491,-0.5641160938,0.2773496827,-0.2417987385,0.6082412807,0.7086229141,0.9019121035,-0.4781980521,0.7868852419,0.1777711149,-0.0075820882,-0.819270849,0.9996503245,-0.2574128066,-0.6457410654,0.9514569894,-0.2374372462,0.873472674,-0.1720947447,0.2167661703,-0.0825928524,0.5186572773,0.5969872865,-0.1687879134,-0.2569065169,0.1214942607,-0.8345665204,0.4072453124,0.1788536652,0.143246,0.6157758712,-0.6166548667,0.5872084154,0.0609288898,-0.2206114209,-0.6340285032,-0.5866644211,0.0690539612,0.2706968902,-0.3073575201,-0.6204232231,-0.2259550111,0.0741717883,0.3432350931,0.1477710832,-0.2764562494,0.8645658123,0.281844525,0.3979684053,0.0241475078,0.3329604153,0.6006834197,0.9409565956,-0.127793104,-0.2118045136,-0.8918398533,-0.2067081851,-0.9346611641,0.8162943244,-0.3496280091,-0.6159646498,0.8937743861,0.36524596,0.672653829,-0.1252220673,-0.2654101677,-0.3263322652,0.8349695794,0.4501051833,-0.8043721341,-0.2715259716,-0.2895658202,-0.2778485022,0.1461989993,0.3215113857,-0.2821684674,0.9338649157,0.8112639503,-0.9157416781,0.2181106089,0.734929105,-0.5091882566,-0.909960604,-0.488139616,0.1518435888,-0.7060841992,0.4592956857,0.6419794818,0.9430169094,0.5255201439,-0.7201580435,0.452014002,0.0383020334,0.1688041925,-0.3030956986,-0.1559745953,0.8067787028,-0.0682340209,0.033735667,0.1326354386,-0.2879182164,0.6329854681,-0.5556750254,0.010648652,-0.6777420491,-0.8038914638,-0.7276237814,0.1476033925,0.794589907,0.2589826625,0.2472371406,0.2772297013,0.795165742,0.6341564461,-0.9980740848,-0.3656512375,-0.6552187447,0.9276664606,0.0323465308,0.7929502137,0.24303981,-0.3380306774,0.8472082056,0.7143176957,-0.6279835841,0.7253710543,0.2120998902,0.1370429594,0.1405124067,-0.7671239001,0.138250509,0.6996750008,0.8744451709,-0.8484902361,0.4852188001,-0.6947486084,-0.2289099156,-0.8032552328,-0.7582816801,0.2067649493,-0.9772707424,0.8827075517,0.5962494703,0.4239346395,0.7687669933,0.0876037608,0.0944395147,0.9448112638,-0.6261695003,-0.5003131354,-0.850535818,0.3882955182,-0.1850638339,-0.9818205527,0.353857238,0.6699585862,-0.5608845562,0.5994147022,0.523659613,0.7006690942,-0.1559032246,-0.0181205159,-0.8013120901,-0.5096607408,0.3206360154,-0.1595787582,-0.4268982182,-0.1388393749,-0.6148846942,-0.6299239731,-0.8194700098,-0.2843569489,-0.6702130365,-0.5214034279,0.5582889752,0.9836731715,-0.7110078914,0.1427167677,0.2806584641,-0.5964019565,-0.4268837886,0.1075499912,-0.697556101,-0.3147180469,0.5974800574,-0.7022725508,-0.8409068388,0.7401220175,-0.190102627,0.54489046,-0.9693691051,0.5710434439,0.0517129937,-0.3261068495,-0.5116540307,-0.9424119906,0.0944474821,0.0653781309,-0.7441376205,-0.0212483822,-0.7008504448,-0.2076384351,0.6537787578,-0.6543701039,0.132888681,-0.2976107177,0.5676504897,0.0740637266,0.0537430707,0.3924501718,-0.0300242076,-0.5365654845,-0.8290635142,-0.1083576251,0.616652238,0.0399635905,0.4856242092,0.9219599689,-0.1954077968,0.2911911894,0.8914037153,-0.691557115,-0.5897191755,-0.5248313765,0.5182849912,0.3170625528,0.7202321247,-0.2399173302,-0.6176184854,-0.7298223347,-0.0838526435,-0.2864938226,-0.0855164214,0.4354829066,-0.5238763058,-0.7295638775,0.8169623693,0.2427747435,-0.475867971,-0.6545286195,-0.9426243429,0.4404392604,-0.1956081083,-0.5614640842,0.7479755539,0.6727463578,0.8187822088,0.456180206,0.6144143752,0.4565955796,0.8580175009,0.2148276949,-0.8082721701,-0.3174164165,-0.5524327848,-0.191660097,0.3141089476,0.7603767709,0.6165948723,-0.3276323776,-0.8920487315,0.4374370312,0.6697956454,0.0212280296,0.1733865824,-0.2121175117,0.1221646223,0.5391381317,-0.2813611171,0.7807247483,-0.3607969019,-0.8815475075,0.0703571891,0.6450237055,0.2275036933,0.0034516768,-0.4058724618,-0.3184015749,0.691941959,0.6983241596,0.3648207255,0.3434537873,0.0133377347,-0.8593065327,0.7106987311,-0.9099539841,0.086485987,-0.9298747195,-0.4653528592,-0.5487936803,-0.4302028795,0.9722272137,0.4986517841,-0.959257515,-0.3046797962,0.5194183257,-0.8797434729,0.7754394977,0.2382924747,0.319258434,0.3510471123,-0.018854432,-0.5510413426,0.6353505143,0.7161268196,0.9503166675,-0.0078985753,0.8575638891,-0.6467729617,-0.8441140999,0.1329548699,0.7425218841,0.0446387586,-0.1500934887,0.1232742982,0.2697356137,-0.0893053082,-0.2598426845,0.4014500468,-0.0491878781,0.607588671,0.2833306639,-0.1074283678,-0.7037639203,0.6299732744,0.0596158017,-0.4799633791,-0.667666879,-0.7398067482,0.508500215,0.7796781687,0.5460853609,-0.5634302571,0.2809032886,-0.6512794096,0.2154009444,0.1338877848,0.127878823,-0.1378101776,0.4707152442,0.2115198426,0.8817164523,-0.9468810797,0.6590784614,0.3293294802,0.4775637676,-0.2331493591,-0.4806514955,-0.0205619725,0.0458145153,-0.5898081367,-0.1406766165,0.1837045199,-0.1226723708,0.2652493561,0.5587766489,-0.7711631554,0.1208440776,0.1812490582,-0.4784711314,0.2483248801,0.5735308891,-0.5254471984,0.7739345026,0.3525371685,0.7186922345,0.4207381286,0.1385562363,0.5747796704,0.4741587736,-0.4790673839,0.8631225138,0.4831336635,-0.4365199214,-0.9201699882,0.9768939269,-0.4891348357,0.4608724575,0.1096772881,-0.0062933701,0.6090863543,0.491582925,-0.7873126986,-0.6457563885,0.5443119951,0.3612052377,0.8918430708,-0.7680085863,-0.6767366188,0.6164995469,0.3584577086,0.6300897881,-0.8929501112,0.2627376602,-0.5119354927,0.3349597889,-0.6064695324,0.5858355268,0.0827266304,0.9022258811,-0.2817312672,0.1489686269,0.4849505831,-0.3821294637,0.6963986109,-0.8803028831,0.4884401919,-0.6770657575,-0.4896442783,0.5932795309,0.091440682,0.628217431,0.8383601215,-0.318568723,0.4644514648,0.1651327768,0.0234725423,-0.1529638957,-0.7537626647,-0.1157497966,0.6494089846,0.1627576486,0.4028109526,0.8681883409,-0.7813559262,0.5200255594,0.8630837361,0.8798036532,-0.9033190804,0.2542891585,0.7468551595,-0.4344275038,-0.7864899592,0.446094835,0.6202477914,-0.0476060051,-0.9140130678,-0.5974068023,-0.7677200025,-0.379075206,0.7011715787,0.350120674,-0.2280089313,-0.170426588,-0.4688397441,0.2190877934,0.0888363101,0.6696115544,-0.8723461508,0.6497784071,-0.9189791631,0.4476175057,-0.2763178035,-0.8833395829,0.113414748,0.051602717,-0.9661473231,0.9733649796,0.7754808001,-0.7141432061,-0.4503645589,0.3099563777,-0.5920216167,-0.5869896104,0.8048252986,0.2768343097,-0.2948046171,0.1633289427,0.2287334193,0.0151964848,0.0920814742,-0.8319334121,-0.1889043353,0.8223179511,0.1593815529,-0.6629115391,0.5354831553,0.8380983444,0.1905781533,-0.1720575058,-0.7804735787,0.2276215122,0.6225006871,-0.266537242,0.3154005643,-0.6088511989,0.3383688505,-0.072689406,0.1767696855,-0.6915940455,0.0200958921,0.4965719382,0.7973104427,-0.7599981476,-0.3485030519,0.7254667152,-0.3043727671,-0.5160157517,-0.162191872,-0.8210301254,-0.3875001215,-0.2986989798,-0.1664404288,-0.597582191,-0.1199356639,-0.1694642914,0.5033486445,-0.6304217602,0.2770804627,0.5990170684,-0.2613918063,-0.4636053909,-0.235377222,-0.0910438052,0.9096080525,0.0820921733,-0.6686800165,0.8058645253,-0.6762248064,0.4334594338,0.9445372928,-0.7850459926,0.6106982387,0.6490710882,0.937821431,-0.2874859382,0.4335630737,0.8918055733,-0.2250739756,-0.8406262852,0.798465458,0.4930621222,-0.0803196777,0.6962172461,0.9080899165,0.113177542,0.2411280195,0.4488737684,-0.4483891827,0.7364744333,0.9245563171,0.4466751196,0.2136860768,-0.1003542962,-0.6349605818,0.3433583501,0.1970217297,-0.763702147,0.3160541842,-0.1489446243,0.9632733024,-0.690467305,-0.5211293294,-0.8783927871,0.4561587916,0.7872868209,-0.564544624,-0.5594581694,0.4269855491,0.2579714643,0.5277779453,-0.3960470227,-0.3150532712,-0.1495463237,0.9369680837,0.9325099095,-0.3628029288,0.4106904255,0.2895186533,0.8727254258,0.2895130291,0.1705847328,0.4849433044,-0.7366829526,-0.4145923077,0.2089263285,0.5663697549,-0.9899569262,-0.0312145821,-0.7622127423,-0.4011128925,0.746310311,0.3667871535,-0.3914865705,0.9835746618,0.376245793,-0.6705690805,-0.316165264,-0.0783629472,0.8024849027,-0.9312918076,-0.3697924871,0.9098818154,0.2235952959,-0.3438052585,0.1249944588,-0.7978330157,0.1312016109,0.7701003541,0.6858811942,0.1713973217,0.5200299154,-0.7307737995,0.5043479221,-0.2866755949,0.3982662402,0.3484603458,-0.9078812548,0.2227984853,0.8689991218,-0.5715915205,-0.1247023442,-0.1433710016,-0.548198789,-0.0104437314,0.0709347618,-0.8123160879,-0.2558257052,-0.9989593298,-0.4412026695,-0.2084394564,-0.7679585127,-0.0948587703,-0.1330079921,-0.3156757237,-0.6262003261,0.8481676618,0.6000993111,0.5068972936,0.6088635938,-0.4079668366,-0.0325345056,-0.170120787,-0.4231225661,-0.8346003701,-0.3384913858,-0.1454407218,0.6765484192,0.0907473776,-0.0071446343,0.8306241052,-0.9981413644,0.4778116108,0.5298945167,0.6560056234,-0.3829059332,-0.0276894833,0.8815962834,-0.2817997984,0.2810115706,0.8513473406,-0.397748817,0.9559896847,0.4662223385,0.959187671,0.7980954409,0.7954311865,-0.0453720278,0.7822224205,-0.5443426371,-0.1608340235,-0.2799456706,-0.3205932271,0.4063437749,-0.8332391441,0.2155495508,-0.0563821483,-0.6113603545,-0.7858669216,-0.1376927261,0.7209141608,-0.7874853187,-0.963361074,-0.4601001052,-0.5134732217,-0.740292851,0.6837801605,-0.2216799257,0.6931092822,0.8850769739,0.9317662922,-0.43409738,-0.4645913821,0.1625169803,-0.5552221192,-0.4475828312,0.9096467834,0.6961618234,-0.4264710207,-0.7829639032,-0.0064533897,0.2955889797,-0.3191798251,0.0510063375,-0.0409407549,-0.5604769504,0.2731403357,-0.6052074801,-0.7418238976,-0.9643277239,0.3927848721,-0.8792326927,0.3889945681,-0.195175375,0.5096715319,0.8329511531,0.5763514369,-0.3596609658,-0.5224749188,-0.397656988,-0.3270967686,-0.1266914858,0.4501052427,0.6561633956,-0.7358740061,-0.228575306,0.1846347845,0.9830212646,-0.4117321137,0.4356128538,0.6870494205,-0.1442951594,0.4467970535,-0.4437052717,-0.3946674964,0.51166711,-0.2546301662,0.4832676494,0.2247825746,0.7048499963,-0.4959675066,0.9461249106,-0.0137143599,0.0569235079,0.8329502348,0.0919335811,0.7261114205,-0.0375547912,0.7650729002,-0.7616240495,0.6962717986,-0.7051331611,-0.3950201821,0.2227238222,0.0179222201,-0.9567767684,-0.9241284925,-0.3770896436,-0.6771249588,0.2114753923,-0.1913761779,-0.431819129,-0.3717187961,0.2663823699,-0.510837958,-0.4205108588,-0.3516977873,0.5916119443,-0.9710057961,0.7810257223,-0.6653964828,-0.370278518,0.4679383474,-0.1433788662,-0.5399448964,-0.3992101866,-0.3237709962,0.4336421348,0.1952590698,-0.7884413137,-0.6876686362,0.1156525253,0.3618537498,0.7380449803,-0.1000507795,-0.4391202851,-0.0764318991,0.8318612739,0.3995835922,-0.5528604444,0.8411207224,0.993031981,-0.5287938317,-0.4843447411,0.7733937288,0.7693697778,-0.2739054365,0.9195463892,-0.5206406727,-0.8529724813,0.7888711493,-0.9078689273,-0.3794161986,-0.4395175721,0.4932629082,0.4665791845,0.2561921217,-0.8236860519,0.6299513226,0.9795407163,-0.1535642689,-0.8203518091,0.3187681312,-0.6623589127,0.2536452545,0.0431307161,0.7040491277,-0.4718185979,0.1905709331,-0.825096186,0.4522233723,-0.1465387953,-0.3505878065,-0.6818843132,0.9331330819,-0.7116876136,-0.948887971,0.5140886914,-0.6210670301,-0.2366244406,-0.920355761,-0.4222102997,-0.1802490854,0.0413906601,0.4104956834,0.2003406388,-0.3423450585,0.2559291352,-0.4461669846,0.2728588945,-0.5747452079,0.5825965613,-0.8302253021,-0.563587058,-0.3255064331,-0.3257631732,-0.3380774327,-0.8693758434,-0.1563062479,-0.4406510306,-0.8963277064,0.1125380582,0.2897224802,-0.9950509846,0.4274446717,0.4028692061,0.1044075982,-0.232951913,0.6157240513,-0.5753834222,0.6695307025,-0.1467066778,-0.3569867081,-0.2122998023,-0.9316045546,0.5357597838,-0.8317656124,-0.5056857635,-0.6708823397,0.5969534851,-0.3857966678,-0.156320289,0.4155344862,0.3159878301,-0.9494835807,-0.5584178195,-0.8029317083,-0.4942533275,0.4140655985,0.249555568,0.1175192245,0.4044494918,-0.3930630146,0.1623545571,0.2028506312,-0.6763777519,-0.9033475698,-0.4141197996,-0.8801040893,0.8710024526,-0.0270795245,-0.1862721894,0.2431006704,-0.51768685,-0.5289460264,-0.6387477663,0.6172617413,0.5635737975,-0.5666476263,-0.0160261326,-0.1395971874,-0.3452552346,0.0313461212,-0.7653747985,-0.08311584,0.3661294354,0.147390102,-0.2056658043,0.7311912313,-0.2393786563,-0.044647945,0.009271403,-0.0578265618,-0.8189536552,-0.2768537863,-0.1299174582,-0.7609646539,0.5219632458,-0.2473353653,0.8549878696,0.4493022423,-0.8246750976,-0.1477182032,0.1245349093,-0.7646343847,-0.8503000854,0.16378276,0.3063556763,-0.8920825083,0.1319127734,0.9772194504,-0.3313135023,-0.6370573405,0.0440364559,-0.7338157081,-0.7121663569,0.1739482906,0.6696442557,-0.6373932182,0.8571575729,-0.9645258486,0.8547690085,0.4301341356,-0.3981240406,0.4688987385,0.8612255416,-0.3431310551,0.9494343978,0.8704615481,0.9145221717,-0.4329286684,0.0173175552,0.2776393281,-0.437781935,-0.2943699564,0.7473120498,-0.5455254609,0.7813422523,-0.573732496,-0.9864856074,0.6072200747,-0.5052231431,0.2712019284,-0.3762175129,-0.7135446102,-0.1776803762,-0.4840665878,-0.4071769492,-0.7101968227,0.7936464805,-0.4769457554,-0.637242319,0.1429400676,0.3870332393,-0.2237882437,0.7869466558,-0.5530364803,0.5949661714,-0.6369642443,-0.8874431657,-0.6646557101,0.3670064732,-0.6884374019,-0.623594345,-0.3677895754,0.7111120912,-0.5407936146,0.0593556746,0.8772315652,-0.7641605436,0.5699856709,0.8602872696,-0.1502255114,-0.2727720597,-0.1024892732,0.6228759879,-0.6291743782,0.3787017283,0.5487019371,0.6322863113,0.1953495169,-0.9204551417,0.0933035799,-0.537062061,0.6315278121,-0.8170560818,-0.8007633295,0.3358894806,0.9323683964,0.441421146,0.9313478138,-0.7067207449,-0.1531215915,0.8592948669,-0.7525057491,-0.8968482203,-0.3459992962,0.1029833961,0.7074660921,0.925545231,-0.5148880051,0.7171472493,-0.178980887,0.5328402604,-0.9823597343,-0.0933083215,0.8686693488,0.9105492148,0.7087417834,-0.8636550308,-0.2585991611,0.9335785272,-0.5652826979,-0.6567608708,-0.7285297229,0.5641791713,0.6016533459,-0.7327087052,0.3194213775,-0.8674080358,-0.0149959535,-0.5344500675,0.852569452,-0.0802878088,0.5168772359,-0.3643777985,0.2114472111,0.7699804027,-0.1566325064,-0.9162555707,-0.1218965246,0.381522538,0.5135529884,0.7120512716,0.2720716644,-0.3238001747,0.3525614523,-0.78962865,0.7566975737,-0.8701760264,-0.2681633031,-0.6574352018,-0.7806829575,-0.3689586023,0.2979108322,0.0690254491,-0.6591096377,0.2629499352,0.9055383889,-0.5316905011,0.4910409196,0.4894525234,0.9075118209,0.0048515131,-0.198779181,0.5785406938,0.3036651968,-0.2703421692,-0.2470489914,-0.5162237045,0.814081728,-0.5026281349,0.0659686797,0.8075900329,-0.9669637902,0.4855953366,0.5306201998,0.0582126572,0.3439337348,0.6840185865,-0.3449804354,0.9891976126,-0.8319278018,0.1677726812,-0.6059083589,-0.3868421436,-0.9003367383,0.5623866221,0.5720899864,-0.0193074821,-0.8165688387,-0.8173035737,0.1358584244,-0.7045454538,0.2458192705,0.218669701,-0.6162212781,0.173693707,-0.1008856967,0.8456023748,0.7857045248,-0.2203574474,0.2488595194,0.0765138221,0.1948001997,-0.6196290682,-0.0476219747,0.2446971849,-0.0718068044,-0.5591136885,0.9836061035,-0.1294524637,0.6213870325,0.339430414,-0.1111195065,0.7673199793,0.76237452,-0.9559406341,0.1562348538,-0.9398090152,-0.3077560619,0.3044396124,0.2789068948,0.6513282848,-0.8058965934,0.8959786587,-0.6571460294,0.675973007,-0.7157953221,-0.1495425708,0.9139967334,0.1254258518,0.8349860596,0.6090179546,-0.6606552175,-0.1522178671,-0.6781340052,0.3296940298,-0.8492386289,-0.0762730194,0.3797057591,-0.3870512654,-0.1348148128,-0.7862705088,0.6481835617,0.7669109749,-0.2217513199,0.3579562739,0.7768296329,-0.5378015712,-0.2726527096,-0.8454414294,-0.7300909348,0.4238999951,0.8741473702,0.0292312691,-0.2644222464,0.533621608,0.5916055656,0.8592801726,-0.7188550404,0.8722817512,0.5538950592,0.7028250893,-0.7759401932,-0.55926221,-0.1332802933,-0.3588906792,-0.1277914737,0.994923969,-0.1019679735,-0.4066652893,0.1133936562,-0.128576179,-0.8535291304,0.65936892,-0.7000664379,-0.4841868265,-0.9722675631,0.7121684929,-0.5520477694,0.5282486749,-0.6162335822,0.4407940355,-0.3761154319,-0.0422347212,-0.5629086788,-0.2699865742,-0.2997005943,-0.1066933071,0.4513230312,0.6253980413,-0.634002966,-0.8976102465,0.5896590857,-0.2671629713,0.8813325307,0.4007265372,-0.4320660055,0.3167462796,0.3899478987,0.5718822001,0.7630511091,-0.0703715708,0.8466519366,0.6174651907,0.417384833,0.3759913837,-0.1892977474,0.639252502,-0.2767166293,0.87638707,0.2641716827,0.6684504713,0.2440389462,0.3490582955,-0.5878276936,0.0537542507,0.2648752664,-0.1189405364,-0.5814785356,0.1492152798,-0.9886983235,0.8608835884,0.0619883492,0.9617987057,-0.3586102503,0.1123260373,-0.2222354895,0.3391211605,0.9628829157,0.4188881389,-0.916406402,0.6915537546,0.7775771987,-0.4686196324,-0.6286991862,-0.5592490375,-0.8443940739,-0.5631270116,-0.1464999739,-0.2895366634,-0.7634388656,0.8183261198,-0.5506779842,-0.0673754732,0.9983962594,0.1277448338,0.3315609837,-0.3159638179,0.5852904064,0.9518739759,-0.2875710167,-0.2836533516,0.4334537146,-0.7507722457,0.3418490475,0.7981944476,-0.8468890261,0.8399278886,0.5219964147,0.078553761,0.8028042221,-0.8192913017,0.1094095263,-0.1550636367,0.8846746143,-0.9914660831,-0.6626219033,-0.6708433435,-0.0755509216,-0.4930545671,0.8102671277,-0.89520225,0.2698818411,-0.0950192351,0.3286510636,-0.582255536,0.844068288,0.2996607473,-0.8624388401,0.9934331311,-0.7191468419,0.5686025348,-0.6561253405,0.478339123,0.0380994433,0.8809558991,-0.7906397721,-0.7593627998,0.5936736641,0.2210131529,-0.0197972366,0.4124929528,0.9428043886,-0.7288085187,0.906804765,-0.5943480082,0.3622492073,-0.6557899962,-0.0478829575,-0.8942120051,0.0659773073,-0.5746445496,0.3246854708,-0.0905042965,0.9116919084,-0.8228089292,-0.1845414912,0.9945584822,0.0559060762,-0.8795751296,-0.2962727163,0.8254672122,0.4160557862,-0.8412914111,-0.4964783394,-0.9266157844,-0.7752799644,-0.4160755255,0.0901800148,-0.847010591,0.4948001408,-0.3196879936,-0.5066086583,0.750168974,-0.4868595055,-0.9016210912,0.3163093259,-0.5586563073,0.0387254646,0.9583283785,-0.7591626014,-0.8807969881,0.2254054623,0.1020836148,0.8698603279,0.0803878992,0.4298768581,-0.5840649137,0.215039438,0.1309940759,0.2933712521,0.975110362,-0.8941095635,-0.6389763018,-0.6355489011,-0.2833715458,0.782243362,-0.1395211184,-0.1357752375,0.4435480036,0.6011550146,0.5268222127,0.989271043,-0.9688923718,-0.1354639177,0.020729744,0.1191417877,-0.8277178412,-0.1204209988,-0.7264666538,-0.8048475225,-0.8794347788,0.6534952015,0.6062702409,-0.4994898523,-0.0881410799,-0.6937772656,-0.5243083195,0.6740429361,0.7774241425,0.829803821,0.8060533402,0.8528360504,0.684153566,-0.850985458,-0.6186468719,0.9647176429,-0.2608642185,0.0903464876,-0.652089055,0.736537029,0.0121069443,0.5315003265,-0.4568752234,-0.971080241,-0.2240656875,-0.8499362863,0.5633547841,0.5620900209,-0.9141501618,-0.1076198381,0.6707937776,0.385378225,-0.3921185165,0.1856805404,0.1229012094,-0.9438096996,0.3456446139,0.6642501938,-0.0221963645,-0.7393315939,0.3331081866,0.1421951916,0.6120950799,-0.4946712334,-0.9231857115,0.0121452415,0.5488269584,0.5393577812,-0.8105136709,-0.6756950178,0.9966592906,0.0879801969,0.2031626656,-0.5493791011,0.7997630754,0.4557491141,-0.7175277164,-0.6352744008,-0.5411286751,0.3701031922,0.983620321,-0.9828241815,0.8525042798,-0.7252783824,-0.1283538,-0.6218603743,0.803411934,0.5137846787,-0.3385857229,0.3097816851,0.6724575084,0.8039240651,-0.4412856701,0.202997204,0.384882202,0.4301721057,0.1804399921,0.386147701,0.235568922,0.4057417685,-0.2305771649,0.7233833552,-0.9998842075,-0.4929060253,-0.7466768661,-0.5757711302,-0.5655045677,-0.5740854805,-0.8129678528,0.3851035031,0.7713082285,0.5569643372,-0.0467993359,0.2149989648
   -0.4520045229,0.005794835,-0.1721903437,-0.4088661042,-0.5357832298,0.1981417887,0.1156321239,0.1467002529,0.1653911904,-0.1636583228,-0.8911324149,-0.6937637694,-0.1085062342,-0.0003369202,-0.5783041625,-0.0084753014,-0.0521151807,-0.265379261,0.2393807235,0.1161869739,-0.7253138945,0.7556395963,0.3578895424,0.7350858545,0.6843350214,-0.1147819061,0.457510728,-0.9963474795,0.3028946696,0.6353417358,-0.3646806434,-0.9539363812,-0.6176590476,-0.2318612402,0.3174703292,-0.737077368,0.619033242,-0.9202170872,0.6275379995,-0.6973483746,-0.7357311057,-0.7729893507,0.7780308609,0.0573379141,-0.1740337213,-0.4123704,0.1123560759,-0.7686484431,0.8183728479,-0.4893633873,-0.2816409996,0.0752890737,0.0442243567,-0.5225822611,-0.124006788,0.847612727,-0.6415832685,0.2615386807,0.3662625025,0.9320137309,0.9514479471,0.0451942918,0.0949082207,-0.9476658445,0.58132305,-0.9397496598,-0.3874835825,-0.7175721053,-0.9685105734,0.0735370248,0.7196539065,-0.2106668011,-0.28886865,0.0253192062,-0.5799288831,-0.22797656,0.4677301335,-0.9451402497,0.4936446634,-0.2518640238,0.4835298563,-0.934423408,-0.3437836707,0.2286316609,-0.923870402,0.9554949238,0.3611462279,0.2115452798,0.022854337,0.1359383342,-0.5178600118,0.6607446631,0.1548181799,-0.0936044794,0.497345737,-0.6983157183,-0.2188742446,-0.0437222722,0.4192817541,-0.8160127761,-0.0376767395,-0.677354269,0.9477475644,0.097836776,-0.9275063514,-0.9294332172,-0.7127480222,-0.6464574376,-0.6984900094,-0.7678459333,0.8270927688,0.4989797876,0.4728314258,-0.1203815232,-0.0624877333,0.4507765912,0.3571946886,0.9550153337,0.4266699427,-0.2824162307,-0.5643822763,-0.2470352315,0.6197501286,0.1394878867,-0.9502559824,-0.1890040619,0.2635270301,0.8942897295,-0.3952530773,-0.54102699,0.1496598464,0.8761414679,-0.3128824073,0.2470205875,0.9223144033,0.7790066713,0.5437815435,-0.2127011174,0.6848485083,0.8868180942,-0.0725675696,-0.4804030834,-0.0907829073,0.1154607025,-0.641599084,0.0867993747,0.3873642766,0.3330789708,-0.0014043781,-0.5550011409,0.3495596153,0.7197065259,0.3319251653,0.0691514753,0.9081385421,-0.5642893456,0.4851840096,-0.962223903,-0.2176470617,0.5807345162,-0.9226992264,0.4491686222,0.5156129532,0.4806788049,-0.7462695646,-0.8756289107,0.8668543527,-0.7366148387,0.8940186735,0.2824940984,-0.5097754368,0.3029991052,-0.6125039267,0.8834369548,-0.0238045334,0.8099375528,0.8367085301,0.4470534246,-0.1859348871,-0.8258908986,0.5755309399,-0.2300829514,0.8497062367,0.5955942122,0.4454099168,-0.2214982909,0.0360028412,0.0845410003,0.8804325876,-0.3241390667,0.7483756176,0.0307230504,-0.8969336465,-0.2261034386,0.9661868567,-0.1126581539,0.2819535784,0.7203674734,0.8477304203,0.4980466761,0.5531470808,-0.2453862163,0.0849288204,0.6560975983,-0.8138167333,0.2120053105,-0.1787637893,0.6491217986,-0.7373264267,0.7844743894,0.4036456846,-0.4604077822,-0.5780520999,-0.0497085664,0.6754632048,0.4438443703,-0.3448976785,-0.9692991519,-0.6854745399,-0.1178749225,0.1562658381,0.4152093097,-0.1019527704,-0.9979694772,-0.9778050696,-0.6860667753,-0.6545497324,-0.6662676675,-0.569869714,-0.41958449,-0.967885526,-0.8687524645,0.753121018,0.8322066272,-0.0761535536,-0.7300755124,-0.5210894655,-0.6450976027,0.7972467927,-0.3541741241,-0.214673161,0.3836657874,0.0545349854,0.8407002351,0.932370334,-0.7718397522,0.9235401215,-0.2570195194,-0.7190956708,0.1277234597,0.3538918654,-0.451319703,-0.587659095,-0.3928863126,-0.4557967566,0.6610044565,-0.8965873002,0.1599095199,0.9285279527,-0.4019330762,-0.7077846461,-0.5036712017,-0.4888359778,-0.7733546013,0.9058438047,-0.6091402815,0.6271853633,-0.0477311138,-0.2799234975,0.6330981749,0.979059234,0.7810550472,0.5941890024,-0.0428031628,-0.7641817219,-0.0916405456,0.2935422854,0.5066740136,0.8884886633,-0.8677180303,0.6575354173,-0.1554071163,0.0621433574,0.667927123,-0.7172362236,0.1024441181,0.9929969416,0.3562108802,0.83028249,0.0253837203,-0.3889807533,0.1634301262,0.9883675511,0.4108544815,0.6900996884,0.2962604117,-0.438470314,-0.763351642,0.3226593924,0.0462752106,0.1779632211,0.4618209557,-0.435409779,0.7072429809,0.6154943725,0.0540066874,0.3273604071,0.8581985669,-0.2037595026,-0.1474099744,-0.3537820753,-0.5339610514,-0.5030548111,0.4639825891,-0.5782951441,-0.6135874478,-0.7185965455,-0.3002639087,-0.2197105417,-0.6024786008,0.1913252237,0.1308026427,0.2496386531,-0.0036862698,-0.6304611821,0.2892037623,0.0563276922,-0.1733304826,0.3609218048,0.1430416321,0.6274073836,-0.7243002882,-0.4262621453,0.307726028,0.3848201837,0.3381360677,-0.346208352,0.3067209769,0.9523670007,-0.9313097189,0.7325079209,-0.2138498899,-0.9655162465,-0.3121889355,-0.0686528796,-0.8584395117,-0.2928390342,0.8482550216,0.0177986402,0.3047718022,-0.9912628814,0.9795857016,-0.7419772787,0.2597391836,0.7098752093,0.4000640181,0.3209886044,-0.12085926,-0.5174107555,-0.0576119027,-0.8881379385,0.2942574833,-0.8267913116,-0.4781766502,0.8435542192,-0.2042785182,-0.9188446783,0.0492664709,-0.6053596619,0.8516262123,-0.1345243773,-0.6246713055,0.5756923857,-0.3008838503,0.555422527,0.6974365504,-0.6159006245,0.0799710052,0.2458508621,0.3700028861,0.9741348385,-0.4441539468,-0.6160316447,-0.8244633951,-0.9565678331,0.5070505054,-0.9573034295,-0.5077803728,0.9052656803,-0.6495493958,0.2990874935,0.798671279,0.9711495486,0.6083173251,0.6787242456,-0.3658378743,-0.4045003527,-0.4109034941,0.992761691,0.4219375401,0.0651841418,-0.7239585953,-0.9934207111,0.9375987912,0.2947180614,-0.9671183928,-0.3400854087,0.8814258144,0.1117314329,0.4821626577,-0.1732103608,0.482912409,0.8550915805,-0.7679205296,-0.3854449087,-0.0467470251,-0.3843209755,-0.5587019066,0.1900822824,0.4449726606,-0.7227039762,0.6802352151,0.0874022101,-0.8428018971,0.9692698687,0.6117897269,0.7080153072,0.3851130685,-0.7990442426,-0.4579955221,-0.7705629588,-0.6402827111,0.8213249256,0.4780794753,-0.012732918,-0.762435469,0.1318683255,0.3047087916,0.8994613599,0.1236186444,0.0445174521,-0.905812969,-0.0029845071,0.3494501033,-0.1767426335,-0.5477497693,-0.2333240994,-0.9661263134,0.6489117885,0.9460002932,0.5091564064,0.776695257,0.5814201564,0.3002262689,-0.7265924778,-0.232326388,0.9069557392,0.9995297482,-0.4700279047,0.967289895,0.1412038189,-0.5545511699,-0.1769786623,-0.4180320858,-0.9391470152,0.4543555028,0.9749743296,0.9877933327,0.5684825567,-0.5968791134,-0.5203917465,-0.1805740592,-0.9718625061,-0.4194868317,0.1730980747,-0.9662813545,0.6293058364,-0.881896111,-0.9392558822,0.4722057727,0.6717009009,0.9813299786,0.6348425541,-0.9803408675,0.7884700298,-0.9728866357,0.0262438424,-0.3733528834,-0.28045808,0.6431346281,0.961564519,-0.423846492,0.3295733505,0.5790547262,-0.8559462268,-0.414507528,0.8121542712,-0.7950734609,-0.9323713915,-0.3030497642,0.2946739133,-0.2296722278,0.971329393,-0.4553960049,-0.2229195157,-0.0815851193,0.5381000641,-0.6086605929,-0.0036421244,-0.9158838736,0.5302881049,0.6575935714,0.8140357968,-0.1637974724,-0.342761595,0.146401285,-0.2109345078,0.7306236859,0.0593824795,0.8038908724,0.9608805594,-0.1984308032,-0.6350666464,-0.7408375938,0.4190307988,0.1820634298,0.1376809046,0.0720088721,0.5656008308,-0.7272096051,0.328578591,0.7017723585,0.0795333912,0.0850531429,-0.1562381843,0.6487545094,-0.714944542,0.7758494612,-0.6494707064,0.8000176688,0.3082105842,0.76443291,-0.7764132258,0.4941594241,-0.0440042463,-0.9373999486,0.9895326662,0.9734501481,0.9528523098,0.3112940806,-0.0506946638,-0.419554623,0.7083128221,0.6036182718,0.0134672151,-0.965666988,-0.2078105611,0.4519737445,-0.2411756688,0.5654946291,0.9797294985,0.2444091425,-0.0911738843,-0.2178747076,-0.1943829172,0.9925036343,0.1062155746,0.8250044214,0.1792606848,-0.6523193004,0.3265749367,-0.1097966809,0.5569504676,0.0002347583,-0.6368010738,0.2718313869,-0.617794319,-0.7339960617,-0.9365935373,-0.1826306335,0.6329093875,-0.7569537477,-0.943348253,-0.0839475839,0.6062295846,-0.891152704,0.2536339091,0.7874759017,0.6759153495,-0.5721127367,0.3140496219,0.7529809349,0.7349283955,0.2550850818,0.6642828811,-0.723319082,-0.012430021,-0.228228859,0.6365226934,-0.2067885567,0.5368231466,-0.4347798314,0.9943746121,0.2329107891,0.8376220436,0.9724044903,0.2134271792,0.8986471173,0.7101847519,-0.0540452795,-0.228441182,-0.9387456295,0.4193352285,-0.2428420218,-0.7806363576,-0.0638361294,-0.9860889564,0.4462237921,-0.1773751262,0.2974973764,-0.8295007031,-0.6120489599,-0.7303854702,-0.6751368613,0.1523113844,0.8057019134,0.870049278,-0.0784527682,0.0027101369,0.733052571,-0.9713202993,0.3679988433,0.9354485808,-0.2919011485,-0.5762434489,-0.4765590948,-0.3035844761,-0.3535608142,0.6072810709,0.2013053356,0.9667353244,0.1529889756,0.3914181922,-0.6594650537,0.337678758,-0.5884339476,0.7038566631,-0.5191468078,-0.416725726,0.3064987096,-0.1746435343,0.1641419884,-0.2195498518,0.9413583201,-0.9316643613,0.8405634422,0.8721348268,-0.7957600636,-0.1882083651,0.9302414755,0.1332164624,-0.0209356387,-0.1782850669,0.2061604485,0.3172363896,-0.5009212706,-0.6603503405,-0.4407093225,0.5757454999,0.0493970885,-0.4671132761,-0.0651523372,-0.1083174093,-0.2220175582,-0.8754034867,-0.980949216,-0.9842039484,0.3046338813,0.7329885536,-0.4287729202,-0.1631470949,0.6197560326,-0.7269025235,-0.7934433965,-0.6687908738,-0.4866932303,0.3114465782,0.2717748669,-0.5207669052,-0.1084090171,-0.0223508337,0.4686040482,-0.1099875824,0.9304328235,0.8216416085,0.3121406671,0.8300100266,0.9764629443,0.5793674446,-0.8218827744,0.9908193506,-0.0449191243,0.5634978376,-0.2059418623,-0.1940810681,-0.831760606,0.3301341097,0.0647727805,-0.0192278552,0.4286314428,-0.8975215957,0.4836015087,0.2797274865,0.2965691405,-0.4673820151,0.4541477957,-0.1256789407,-0.9363489997,0.7582518428,0.2025405166,-0.609658337,-0.9985916983,0.8517110568,-0.6025115696,-0.3703394803,-0.798724092,0.2453752749,-0.8196329644,-0.5141636477,-0.9927673198,0.5136248064,-0.7566814327,-0.5157656306,0.6774802106,-0.3331038404,0.4387357662,-0.9630211959,0.2956141629,-0.0213151042,0.3842959721,0.9259373274,0.8795922807,-0.0459512044,0.4942651677,0.0608490153,0.3037342286,0.017445523,0.3888099019,0.6005874746,0.6459415229,0.4904779853,-0.0045598019,0.2698990299,-0.0653818642,-0.7605802813,0.4580654306,-0.8112366626,0.5442108563,0.2594398727,-0.7692509463,-0.7100105999,0.4244466644,0.8094962598,-0.4369200941,0.1618448324,-0.7370664284,-0.4337615455,0.8195544296,0.2368520738,0.1952647808,-0.3226534028,0.7523099718,0.2659949928,-0.3469924758,-0.2323645926,0.9477864672,0.8815519489,-0.2089033326,0.2551539336,-0.6881238389,-0.7744081773,-0.1082872051,0.2435065897,0.7536807151,-0.6963723485,-0.4958915426,0.5524309371,0.6664664074,-0.9884350529,-0.3777575394,0.1103901611,-0.5804834112,0.7577786844,-0.2274695575,-0.5342941425,-0.8628214589,-0.601154401,0.4732316003,0.1997813898,-0.4624531705,-0.1180113329,0.8575584496,-0.1775686771,-0.0222152358,-0.30979735,0.413702081,0.9262673901,-0.2196844839,0.0960433139,-0.1016024381,-0.4657833124,0.5759212192,0.6037310039,0.1540353384,-0.793923234,-0.6748139947,-0.3569723031,0.8298776871,-0.6476150449,-0.8707874752,0.4599872848,0.5457021969,0.8503812683,-0.1994729563,-0.812446776,-0.1850971205,0.6919647344,0.3009475697,0.3561763875,0.6582302027,-0.1548623496,-0.8169787375,0.0893136368,-0.4970507197,0.3730417709,0.9858900143,0.6411978553,-0.0784162144,-0.2012505949,0.9861617787,-0.044043859,-0.9289366697,-0.8435129811,-0.0703652313,0.6895471886,-0.6706995539,-0.6491225167,0.5724937424,0.442186684,-0.4198476222,0.6992445608,0.2900518722,-0.4703191932,0.5669687311,0.4221320145,0.5107050498,-0.4203824952,-0.1000584568,0.2222080144,-0.5865936047,-0.5091668453,-0.0834935778,-0.7490242941,0.1332622326,-0.4560213864,0.5532876306,0.2016714451,0.9562198296,-0.4665476384,0.4402575143,0.8385501361,0.7210155993,0.8923621963,0.7962192375,0.5733862102,-0.1018724176,0.7967239248,0.7872555971,0.1047499384,0.4373132125,-0.9980463355,-0.9858021509,0.8762152356,0.6464621241,0.590756249,-0.1598011947,0.2146952881,-0.8078388453,-0.8752929876,0.8869628352,-0.3776784831,-0.6323165347,0.6036515143,-0.8675321579,-0.9921666933,0.062726859,-0.0750876683,0.810627925,0.0615016067,0.1753747037,0.7249504678,-0.118746187,0.8833122006,0.5845896052,-0.2346628321,-0.7275390675,-0.2258691195,-0.0269793645,-0.4944018542,-0.5366248852,0.0441591609,-0.6293861627,-0.1941786185,0.9058430399,0.9821408912,0.1002285813,0.1533862154,-0.1592478654,0.0402270276,-0.6187836241,0.6137908902,0.4663026629,-0.713915993,-0.1579187889,-0.8325768481,0.0476135656,-0.3442257495,0.7107303779,0.0984772692,0.2824647802,-0.1097320223,-0.3578051638,-0.6041636932,0.0402725761,-0.8453454545,0.4770915248,0.7476704945,0.6404448891,-0.0830592018,-0.6430039912,-0.7771779683,0.4907123797,-0.9473394216,-0.8723156876,0.6413644702,-0.7515969441,0.5566341278,-0.1161300917,-0.6092607661,-0.5733399122,0.0890848665,0.0320613017,0.9926655974,-0.0914940293,0.1468246813,0.2968164936,-0.3398782557,0.4048541166,-0.8927241314,-0.0189213312,-0.5515447015,-0.5883132525,-0.1066442451,-0.9232785597,0.544953479,0.5591030097,-0.9237382622,-0.1218546142,-0.5248905092,0.213010841,-0.9142867313,-0.4537231544,0.9277055035,-0.5026106603,-0.245144997,0.1867657076,0.6029805018,0.2575848581,0.890787511,0.7975842208,-0.9087665759,0.6396224696,0.2640606915,-0.3712328218,-0.0850229679,-0.3274762405,0.490250778,0.4200933035,0.5151735493,-0.7103598021,-0.5415137618,0.5049971293,0.0951655994,-0.8649569258,-0.3228703824,0.2272247735,-0.4886613605,0.3295691398,-0.6107406241,0.9938037196,-0.6450719657,-0.5037138103,0.8154470287,-0.5184941194,0.0849214577,-0.4745439436,0.6431190135,-0.9668146894,0.9099555799,0.1775945766,0.7036742303,-0.9840712045,-0.5680402545,0.6672892168,0.321474417,0.9811858567,-0.7400946474,0.6166539143,0.6145406098,-0.2718047906,0.0517699692,0.494603968,0.884017222,-0.0741809945,-0.2678242337,0.921586449,0.3485091499,-0.7631327735,0.0384179694,0.9303952701,0.6995836388,0.924329376,-0.0030117481,-0.8886534571,0.070836679,0.8700912656,-0.1274624441,0.6956608928,-0.9551379134,0.6635039172,0.474795119,0.3221212716,-0.0375928118,0.5685701343,0.0582229676,-0.1009508447,0.5495458307,-0.1125416895,-0.8732951764,-0.1623686111,-0.5788193533,0.8038300609,-0.6021596926,-0.7671315534,0.4047704234,-0.8771844335,-0.81788332,0.9276498849,-0.458919907,0.5601684606,-0.820997386,-0.7664077419,0.5781823215,-0.8791653955,0.7132032559,-0.9216839133,-0.0708974678,0.2726907169,-0.34829356,0.8615566268,-0.4516872767,-0.8979494696,0.2494260426,-0.0610520643,-0.7679573485,-0.3713562938,0.5168542019,-0.7852944926,0.208151602,-0.7833269524,-0.5960990925,0.9841144029,0.7275916915,-0.5563998059,0.853408687,-0.320192077,0.4061664572,-0.4005163793,-0.957077402,-0.840223528,-0.1183112816,-0.1655538651,-0.1445727672,0.387671083,-0.3452485776,-0.9474936582,-0.9052300162,-0.2806068653,-0.218594258,0.5955807802,0.5388578829,0.6751413284,0.3233742912,0.6757919376,-0.1439365307,0.201721008,-0.2796288405,-0.8552333131,-0.2621258174,-0.1029295975,0.0949916815,0.7226924784,0.5174576101,-0.4835621202,0.4714448111,-0.3709188715,0.3181993934,-0.4289595122,0.4320056681,0.1195677542,0.4205397724,0.6363842149,0.8847298333,0.0507626985,0.0498050038,-0.2014805143,-0.5924076172,-0.8743500018,-0.0778452287,0.2722597576,-0.1669019705,0.0942231697,0.1305661613,-0.9130723537,-0.6606770898,-0.8665257115,-0.2976354848,-0.703812238,0.1116190665,0.5691254638,-0.406292239,-0.6668181528,-0.9156366545,0.1742681248,0.1257257927,0.7872928549,0.9222643314,0.0140575746,0.9169580399,-0.7350459289,-0.6878011739,0.1088576597,-0.0693659682,0.8594258363,-0.4684060533,-0.7823548928,-0.7169008578,0.4005975317,0.3980894084,-0.811564419,0.1316861617,0.6475142763,0.9620853935,0.7193619594,-0.0945834037,-0.0862127953,-0.1495102724,-0.3546189182,0.6311495344,0.3188516405,-0.1997493127,0.7138372247,-0.8263879912,-0.155243766,0.9098549625,0.9236695055,0.930942775,-0.7951292446,0.7132485714,0.1597543331,0.1327014163,-0.7774932254,-0.7068629753,0.9003916633,0.5317617253,-0.4994136135,-0.4712115175,-0.585232072,-0.09854404,0.9679394786,-0.5824524751,-0.5491125678,0.5087093873,0.203160673,-0.9735296948,-0.5505013972,0.1576198453,0.9769125025,0.2145619808,-0.802326753,-0.238689931,-0.7274198184,0.3447820668,0.1183679343,-0.3014256553,0.2331808807,0.0249023869,-0.398734633,-0.8218490031,0.5752102397,-0.1532208615,-0.631331156,-0.8679095161,0.6911159902,0.5205723475,-0.8696280229,0.9376543441,0.4872169426,0.54406898,-0.1289802403,0.0598491007,-0.3540897812,-0.0112033287,-0.6549044124,-0.2037173759,-0.7268531945,0.7641163414,-0.2777028143,-0.4477227237,-0.6719459557,-0.1089731641,0.9445001485,-0.3869230606,0.2129857416,-0.2147637837,-0.1221114206,-0.7532289848,-0.3941449014,-0.3430236831,0.1177293622,0.4103660846,-0.859204773,-0.554249764,0.0317852645,0.7826957733,-0.3232124512,0.4228119542,0.6857795404,-0.1304440943,0.5070142297,-0.2274577418,-0.1029524176,-0.8035797642,-0.2012976423,-0.5459814232,0.4766515185,-0.620213103,0.0008210524,0.2512083443,-0.5791914707,0.5918991675,-0.2937837041,-0.3510448454,-0.0834034064,-0.8287771312,-0.2874894008,0.8094935066,0.1644659712,0.3271059095,0.5352019826,0.9163646146,-0.8893980884,0.733342963,0.2479755944,-0.3511716088,-0.6870815434,0.5332792731,0.3616741859,-0.8601709642,-0.9862670364,0.687788887,0.4452413019,0.2713344674,0.5606613345,-0.7239060529,0.2986436362,-0.6362683531,0.458658263,-0.824162704,0.441908299,0.7495828096,-0.8170441418,0.4093596159,-0.4705486118,-0.8734086166,0.0823968321,0.3060887308,-0.1759567572,-0.986556489,0.5403012722,0.886378707,0.1800722932,-0.1833975078,-0.572973087,-0.8507757744,-0.3510577386,-0.3137418164,-0.3035007242,-0.2127617246,0.7708669351,0.4238478056,0.1667727111,0.3644597957,-0.017713785,-0.425707908,0.7395869559,-0.6947525408,0.712314552,0.7972724268,-0.4386275309,0.7551297283,-0.7673838562,-0.2923153957,-0.7652654818,-0.0691727041,-0.7876248939,-0.8462228754,0.9753844672,0.6858820325,-0.3542192709,0.3001060005,-0.4942893421,0.1451119478,0.3576332731,-0.6202641698,0.7558095281,-0.1006983497,-0.2190859692,-0.1904613493,0.3516339036,0.8942261426,0.2596459677,-0.3406170082,0.8578405971,-0.5085716794,0.3048509871,-0.5596647351,-0.2846234741,-0.8342286777,-0.4088325245,0.961227939,0.6498097775,0.9140644671,0.6183672237,-0.6459653641,0.0678872985,-0.5533626152,-0.0021996241,0.1181852913,0.9590584781,0.5846748003,0.047283372,0.654357271,-0.2688083809,-0.0387345739,0.3700756815,-0.2263193925,-0.3095715673,-0.9895270634,-0.2115207004,0.9275579947,-0.1202825111,0.6206123982,-0.9828029588,0.8648772792,0.6301817742,0.7853376451,-0.7747797389,0.5133177824,-0.7496647188,-0.9528932626,-0.7147176257,0.383209361,0.1297599669,0.1700778518,0.5888804419,-0.1850308023,0.1445410687,0.6975030192,-0.9819583723,-0.6608471797,-0.5179582717,-0.4138208492,-0.1560820662,-0.5416402014,-0.2016516091,-0.1374519387,0.9774219117,-0.6277192132,-0.9340269926,0.9544296667,0.5264304558,0.278404367,-0.8060423372,0.4616813649,-0.1371023622,0.5457990852,0.1024877812,0.8362967443,0.8101358873,0.881548427,0.0528971059,0.9896732438,0.0073395898,0.634708394,-0.6947290833,-0.4798065453,0.6897162714,-0.6354430783,-0.3606183522,-0.8786052149,0.407839679,0.7184740995,0.5058671086,0.6221762307,0.4998071334,-0.0092685826,-0.2700520702,-0.0637093147,-0.0306209695,0.1357757736,-0.7411052625,-0.4740421475,-0.5240796059,-0.3196455145,-0.0720762213,0.3831962298,0.5427039406,-0.281822129,0.6577790458,0.935498074,0.0927956984,-0.7115350129,0.2488090993,0.2190745585,0.2530061131,0.1189203552,-0.3831297339,-0.3291692215,0.3993563435,0.4031537809,-0.0491472092,-0.3082555593,0.1435194189,0.1220703558,-0.5105265267,-0.2880915847,-0.2789971316,0.8049000792,0.3546788692,0.213925246,0.0993127222,0.4791682756,0.8028785856,0.9301208644,0.8119327215,0.8976105028,-0.460778289,0.0061139348,0.9456166129,0.8790755577,0.1463611554,0.3105942686,0.5180978411,-0.3526382723,0.3648477041,0.7357804529,-0.6647731054,-0.1717858049,0.328328781,0.5874041505,0.2974294933,-0.3033885455,-0.4796843819,0.2446312758,-0.6090148656,-0.8658852965,-0.0414070054,-0.1621483362,0.1762099552,-0.7782130471,0.734344695,0.688850959,-0.8450695978,0.8377825261,0.0561342649,-0.6015927657,0.8194970005,-0.0036626523,0.1241247719,0.4108204248,0.5560465131,0.0117125075,-0.9042838914,0.3763325511,-0.5003905581,-0.4655587457,-0.1757874455,-0.7359906766,-0.7814140747,0.2050977994,0.9947072227,0.6780704597,-0.196485953,0.9160129546,0.669238624,-0.6392790156,0.3956699496,0.0919526066,-0.8807522493,0.1702924419,-0.7377735725,0.5074658084,0.6499472088,-0.2260402439,-0.1925925443,-0.7478861418,-0.5772100727,0.5965830479,-0.7257720705,-0.9888321043,0.6189582312,-0.806664818,0.3445606799,-0.8682557887,-0.2966974433,0.8556746597,0.9269942481,-0.6245747734,-0.8295208575,-0.1379447503,-0.0171064101,-0.5807266952,-0.5196105903,-0.5640689297,-0.6209422157,0.0709664931,-0.7628107717,0.9582954645,0.519668233,0.5854700227,-0.8857164211,0.5886706287,-0.1554161036,-0.3214449459,0.749997306,0.6293569377,-0.562549779,0.1915701127,0.4182428525,-0.7611699461,-0.7763760874,-0.3882361775,-0.0665490665,0.9713587999,0.8614996401,0.3185320176,0.0164313762,-0.8771271672,0.1385823893,-0.8163062855,0.3928310133,0.545664767,0.7222047763,0.7260033512,-0.3867131448,-0.9321904605,0.5481048669,0.1905860425,0.6310525466,0.6823900717,0.1084098589,0.5256138385,0.308471511,0.3322551061,0.1619950299,0.4188502972,-0.8416365779,0.6467644311,-0.4468134655,-0.9376172745,0.7942644945,0.2285000589,-0.3702470144,0.0146776633,-0.9863730195,0.0068283954,-0.7861745332,-0.3534935566,-0.142976137,-0.0787975353,0.74999002,-0.1413516785,0.1268955602,0.1501561915,-0.0545754108,0.4232940072,-0.8019206666,-0.543828651,-0.0679381849,-0.9110757301,0.8995236291,0.6049897439,-0.2604363208,0.1584923487,-0.2088614663,0.9521681203,0.3020837443,0.6684820848,-0.4605186364,0.4239307542,-0.9315626285,-0.8790377862,-0.3593147214,-0.5180412197,-0.681802721,0.6102557585,0.2425350147,0.4151184227,0.3526918266,0.2551019419,-0.6623612699,0.2031721927,0.1536503112,-0.5085107976,-0.5674885773,0.8677619847,0.6998871614,0.7520500571,-0.2010390378,-0.1178747135,-0.1197877718,0.3637245495,0.0293020248,0.4017926207,0.0947123473,0.2003128799,-0.2234019063,0.3616048188,0.4055391237,-0.9331353202,-0.159633664,0.420087099,-0.4320994762,-0.7503943937,0.5814777973,-0.4275424927,0.6758988921,-0.7242175998,0.6625089821,0.6551601987,0.9590545709,0.7928593334,-0.0261066221,-0.5864868052,0.4898622509,-0.2328610719,0.641205939,0.5565596536,0.5423742323,0.5473486732,-0.4114741679,-0.6398461256,0.9878175674,-0.4931156137,-0.4369130278,-0.1446620317,-0.8854798391,0.9048485522,0.9215886788,0.5632789916,0.7397818591,0.3742179785,0.9553083099,-0.4894380341,0.2832437479,0.9876973284,0.316969945,0.8100140534,-0.9227017412,0.9881542122,0.6633604156,-0.853033772,0.0223871261,-0.4383563302,-0.4173433204,0.4203536891,-0.5222375932,-0.793197745,0.2846493957,0.7069211686,-0.3429558836,-0.3270823277,0.4838126886,0.2451056618,-0.0426167634,-0.0977375213,0.4786172778,0.5363377373,-0.4691740714,-0.3360183785,0.6388690852,-0.2697317943,0.3080083406,-0.9117236265,0.0545556098,0.1402805208,0.4034918748,0.8045535452,-0.8799345877,-0.8789996396,-0.2993983145,0.7047810262,-0.103439876,-0.3250702703,-0.251988879,0.425959663,-0.6915442897,0.5195499761,0.3777445967,0.8704276451,-0.0977140214,0.7858885964,-0.4280825132,-0.4139531859,0.0373578409,0.6737961678,-0.7896142987,0.4460211772,0.7147897388,-0.5529171712,0.9325280724,0.1794126428,-0.9879887364,0.9523662584,-0.6801173186,-0.9650142978,0.737109717,0.7496664171,0.0916764588,0.7995526028,-0.0704517336,0.886609665,-0.690241309,-0.602533164,0.2765202718,-0.6260848288,0.6143849211,0.689249064,0.0785294411,-0.0269936287,0.0744479911,-0.0781187602,-0.686408752,-0.6356865178,-0.9929229709,0.015612663,0.0549716246,-0.1515757404,0.0785028855,-0.6161204009,0.6793026405,-0.4031478415,0.259555567,0.5376224476,0.3438920145,0.9947440177,-0.7358299533,0.365482046,0.513465279,-0.4345623894,-0.5086700716,0.8869426937,0.0329835217,-0.7890080733,0.3645737682,0.2136251125,-0.8886741774,0.6089012364,0.9221867525,-0.1656837704,-0.7197577439,-0.5707163946,-0.2397575491,-0.1850561378,0.6824640018,-0.6313766732,-0.2495605784,0.6539717893,-0.650861192,0.4257303595,0.978793576,-0.6840496547,0.5526795198,0.0261410831,0.2920456394,0.7215580233,-0.419225749,-0.3912786204,0.5108803134,-0.1604238897,0.2145480018,0.2840341187,-0.5898810484,0.9310635529,-0.8726869151,0.7777469904,0.7518292136,-0.7562866428,0.4899705842,-0.5025486872,-0.5972123249,-0.407812193,-0.7688475566,0.5098334654,0.8312453685,-0.8316449215,-0.2079016541,-0.3563502823,-0.2166182533,0.9420572482,-0.7830486902,0.3818100965,0.6032759609,-0.648225747,0.4814532093,-0.2428519025,-0.2464232946,-0.651402499,-0.5643781593,-0.3484344369,-0.4298893683,-0.7421783282,0.4853919868,0.0004934707,0.3627147343,-0.741783871,0.0566208756,0.5702129588,-0.3325904639,0.105988691,0.7842449408,0.2328223359,-0.2902391385,0.7281576244,0.2842456138,0.4645045383,-0.256959983,-0.9171766394,-0.1366254676,-0.0472654521,0.3039826515,-0.1403466939,0.1393641376,0.5908490134,0.2085447955,0.3640361267,0.1462317362,-0.0345477937,0.9200146605,0.8159140863,0.0610618417,-0.3536288311,-0.5610797791,-0.6049431509,-0.1697336567,0.9620709353,0.0989377615,-0.0323848946,-0.671063892,-0.2904271419,-0.0456503308,0.4168397821,0.6834233793,-0.0093706033,0.1900354693,-0.3196444729,-0.4507600903,-0.0454878988,0.4560465308,0.9942863864,0.366075584,0.7976820272,0.2900140136,0.0712553392,-0.2432325607,-0.1331365996,-0.6035922697,-0.6617523072,-0.5649122566,-0.9694808724,0.6605432887,-0.6929746314,-0.1999426116,-0.0066485326,-0.8515273199,-0.6131805496,0.6754091473,-0.242644311,0.4876262462,0.0080939664,-0.1332254664,0.4653923532,-0.9680661097,0.8737315071,-0.1425384837,-0.0527382243,0.3581216439,0.7819928879,0.6137834476,0.046936202,0.8267333857,0.13158183,-0.9399767708,-0.7641889373,0.4828008679,-0.9288363704,-0.8806826259,0.6008717556,0.9362029847,-0.9480062071,-0.0478064585,-0.4728762147,-0.166291428,-0.3208910798,0.1571751896,0.3218967228,0.3264941303,-0.7668318086,0.6503999615,-0.3012651111,-0.7908122607,0.6738507024,0.4512695567,-0.1973316583,-0.6451181557,-0.8087159572,0.9710910104,0.5157418293,0.6417422797,0.5212584474,-0.7085718644,-0.2801409338,0.242361207,0.0966768993,0.0244877568,-0.2578102779,0.4124124616,-0.7016188554,0.0295475944,0.5517775878,-0.5155702578,-0.2929101604,0.9909889072,-0.9712246553,0.9040538257,-0.1995867856,0.1785603486,0.823501766,-0.8018773471,0.6482430566,0.2287088517,0.6702102907,-0.5394426095,-0.331890422,-0.941233818,-0.8523422878,-0.1783277381,0.0688949663,0.8094088993,0.2724319742,-0.5986827673,-0.532733442,-0.5366332396,-0.2672152317,-0.6618772428,0.1377450304,-0.8763706718,0.3278931092,0.2402464033,-0.3292844024,-0.8810827003,-0.7645118831,0.3972705494,-0.7728776927,-0.4353042913,0.4211534908,0.5358581047,-0.7767779394,0.980848331,0.9733597861,-0.4431281942,-0.3447018089,0.6156534288,0.1553952006,0.1301096547,0.1380487255,0.5057206763,-0.0590161891,0.9606178289,-0.8857136118,-0.4754458622,0.6909260352,-0.0450599588,0.1108608129,-0.7465584769,-0.1216956848,0.2697195186,-0.3750589916,0.6699130878,0.2827895288,-0.8356866468,0.9085162967,-0.4637385522,0.2758091784,0.3392049141,-0.6196144143,0.328163719,-0.1654104813,0.825105572,-0.2899169232,0.2242585072,0.4169511974,-0.5126062055,-0.911797186,0.3550452453,0.7333706595,0.7584077505,0.6291990522,-0.5695856832,0.6495942325,0.833072274,-0.4571943124,-0.3339265181,-0.5190932736,0.0201044497,0.4413901378,0.5060176629
